svm_type c_svc
kernel_type rbf
gamma 0.125
nr_class 2
total_sv 460
rho -0.4953840884886152
label 1 0
probA 2.5219391220893259
probB -1.9394863078067017
nr_sv 306 154
SV
0.50478826958150003 1:2 2:85 3:65 6:39.599998 7:0.93 8:27 
0.50460563666722835 1:8 2:107 3:80 6:24.6 7:0.856 8:34 
0.50479230501190098 1:1 2:112 3:80 4:45 5:132 6:34.799999 7:0.217 8:24 
0.50439598117313689 2:94 7:0.256 8:25 
0.50446593041150101 1:4 2:76 3:62 6:34 7:0.391 8:25 
0.50463809493600054 1:6 2:117 3:96 6:28.700001 7:0.157 8:30 
0.5046157059835279 1:5 2:132 3:80 6:26.799999 7:0.186 8:69 
0.50481192586156776 1:10 2:122 3:68 6:31.200001 7:0.258 8:41 
0.50477471088570902 1:2 2:92 3:76 4:20 6:24.200001 7:1.698 8:28 
0.50480814331092994 1:1 2:103 3:30 4:38 5:83 6:43.299999 7:0.183 8:33 
0.50480271321785919 1:2 2:101 3:58 4:17 5:265 6:24.200001 7:0.614 8:23 
0.50476801424629436 1:4 2:83 3:86 4:19 6:29.299999 7:0.317 8:34 
0.50480759944229003 1:3 2:113 3:44 4:13 6:22.4 7:0.14 8:22 
0.50480831387932246 1:1 2:131 3:64 4:14 5:415 6:23.700001 7:0.389 8:21 
0.50426123018558877 2:105 3:68 4:22 6:20 7:0.236 8:22 
0.50480932651281507 1:8 2:91 3:82 6:35.599998 7:0.587 8:68 
0.50475611229360273 1:2 2:90 3:70 4:17 6:27.299999 7:0.085 8:22 
0.50479102833090272 1:6 2:98 3:58 4:33 5:190 6:34 7:0.43 8:43 
0.50480937325261255 1:6 2:165 3:68 4:26 5:168 6:33.599998 7:0.631 8:49 
0.50446720171893067 2:84 3:82 4:31 5:125 6:38.200001 7:0.233 8:23 
0.5048220549317799 1:5 2:147 3:75 6:29.9 7:0.434 8:28 
0.50440815716133214 1:1 2:79 3:80 4:25 5:37 6:25.4 7:0.583 8:22 
0.50490758584273143 1:3 2:83 3:58 4:31 5:18 6:34.299999 7:0.336 8:25 
0.50446315576111622 1:13 2:106 3:72 4:54 6:36.599998 7:0.178 8:45 
0.50480755829496571 1:2 2:89 3:90 4:30 6:33.5 7:0.292 8:42 
0.50094375702525684 1:1 2:105 3:58 6:24.299999 7:0.187 8:21 
0.50436926364595458 2:102 3:78 4:40 5:90 6:34.5 7:0.238 8:24 
0.50479269469278043 1:2 2:108 3:62 4:32 5:56 6:25.200001 7:0.128 8:21 
0.50437654660532516 2:84 3:64 4:22 5:66 6:35.799999 7:0.545 8:21 
0.50480951250665296 1:3 2:61 3:82 4:28 6:34.400002 7:0.243 8:46 
0.50446348948143305 1:10 2:68 3:106 4:23 5:49 6:35.5 7:0.285 8:47 
0.504369365570282 1:4 2:112 3:78 4:40 6:39.400002 7:0.236 8:38 
0.50483355699314614 1:1 2:136 3:74 4:50 5:204 6:37.400002 7:0.399 8:24 
0.50482456294337485 1:7 2:136 3:74 4:26 5:135 6:26 7:0.647 8:51 
0.50427811188103744 1:6 2:80 3:66 4:30 6:26.200001 7:0.313 8:41 
0.50373510605429794 1:3 2:130 3:64 6:23.1 7:0.314 8:22 
0.50450507949179157 1:1 2:146 3:56 6:29.700001 7:0.564 8:29 
0.50435647504751235 1:3 2:84 3:72 4:32 6:37.200001 7:0.267 8:28 
0.50454044854044633 1:8 2:74 3:70 4:40 5:49 6:35.299999 7:0.705 8:39 
0.5047544065947891 2:107 3:60 4:25 6:26.4 7:0.133 8:23 
0.47242563549996436 1:3 2:82 3:70 6:21.1 7:0.389 8:25 
0.50482341117935969 1:8 2:99 3:84 6:35.400002 7:0.388 8:50 
0.50480932650403632 1:2 2:75 3:64 4:24 5:55 6:29.700001 7:0.37 8:33 
0.50478945014713317 1:11 2:103 3:68 4:40 6:46.200001 7:0.126 8:42 
0.45631761915565289 1:1 2:93 3:70 4:31 6:30.4 7:0.315 8:23 
0.50476800683068845 1:9 2:120 3:72 4:22 5:56 6:20.799999 7:0.733 8:48 
0.50446107617659286 1:4 2:120 3:68 6:29.6 7:0.709 8:34 
0.50454885682990835 2:94 3:70 4:27 5:115 6:43.5 7:0.347 8:21 
0.49790142499311751 2:129 3:80 6:31.200001 7:0.703 8:29 
0.50476794318007978 1:1 2:92 3:62 4:25 5:41 6:19.5 7:0.482 8:25 
0.37212090035568907 1:4 2:90 6:28 7:0.61 8:31 
0.50436660770955499 2:117 3:80 4:31 5:53 6:45.200001 7:0.089 8:24 
0.50493420851652926 1:4 2:99 3:72 4:17 6:25.6 7:0.294 8:28 
0.50453962400491259 1:3 2:111 3:56 4:39 6:30.1 7:0.557 8:30 
0.50443019080762241 2:106 3:70 4:37 5:148 6:39.400002 7:0.605 8:22 
0.50331536396287735 1:2 2:99 3:70 4:16 5:44 6:20.4 7:0.235 8:27 
0.5044640827309157 1:9 2:134 3:74 4:33 5:60 6:25.9 7:0.46 8:81 
0.50495344343277615 1:7 2:102 3:74 4:40 5:105 6:37.200001 7:0.204 8:45 
0.50404072452574478 1:1 2:130 3:70 4:13 5:105 6:25.9 7:0.472 8:22 
0.50461344728325386 1:10 2:115 3:98 6:24 7:1.022 8:34 
0.50446825977346865 2:119 3:66 4:27 6:38.799999 7:0.259 8:22 
0.50478857164238133 1:2 2:125 3:60 4:20 5:140 6:33.799999 7:0.088 8:31 
0.50451454102716942 1:2 2:74 7:0.102 8:22 
0.50478894799901308 1:2 2:56 3:56 4:28 5:45 6:24.200001 7:0.332 8:22 
0.50478933660224012 1:9 2:124 3:70 4:33 5:402 6:35.400002 7:0.282 8:34 
0.50442671827440333 2:104 3:64 4:23 5:116 6:27.799999 7:0.454 8:23 
0.50479364435563567 1:1 2:80 3:55 6:19.1 7:0.258 8:21 
0.50478891616929356 1:7 2:137 3:90 4:41 6:32 7:0.391 8:39 
0.50479103197270669 1:2 2:68 3:70 4:32 5:66 6:25 7:0.187 8:25 
0.50436628110461867 1:5 2:99 3:74 4:27 6:29 7:0.203 8:32 
0.47392184387769309 1:3 2:111 3:62 6:22.6 7:0.142 8:21 
0.50451596156596468 1:10 2:179 3:70 6:35.099998 7:0.2 8:37 
0.50451592454238836 1:1 2:111 3:94 6:32.799999 7:0.265 8:45 
0.5047925435048608 1:1 3:68 4:35 6:32 7:0.389 8:22 
0.5047981877319403 1:1 2:164 3:82 4:43 5:67 6:32.799999 7:0.341 8:50 
0.50446597674655191 1:2 2:123 3:48 4:32 5:165 6:42.099998 7:0.52 8:26 
0.5048752685272474 1:8 2:194 3:80 6:26.1 7:0.551 8:67 
0.50440642098624422 1:6 2:105 3:80 4:28 6:32.5 7:0.878 8:26 
0.50453572693825943 1:6 2:114 3:88 6:27.799999 7:0.247 8:66 
0.50443458034825328 2:57 3:60 6:21.700001 7:0.735 8:67 
0.5040118669894964 1:2 2:122 3:70 4:27 6:36.799999 7:0.34 8:27 
0.50451624487716007 1:10 2:129 3:76 4:28 5:122 6:35.900002 7:0.28 8:39 
0.50407920999494182 1:2 2:68 3:62 4:13 5:15 6:20.1 7:0.257 8:23 
0.50475059784945109 1:1 2:96 3:64 4:27 5:87 6:33.200001 7:0.289 8:21 
0.5046492490786072 1:4 2:95 3:60 4:32 6:35.400002 7:0.284 8:28 
0.50478856084333323 1:2 2:112 3:75 4:32 6:35.700001 7:0.148 8:21 
0.50451597539836912 1:4 2:127 3:88 4:11 5:155 6:34.5 7:0.598 8:28 
0.50391620625590738 2:125 3:68 6:24.700001 7:0.206 8:21 
0.50480865424756205 1:1 2:100 3:72 4:12 5:70 6:25.299999 7:0.658 8:28 
0.50482344693344317 1:2 2:100 3:70 4:52 5:57 6:40.5 7:0.677 8:25 
0.50451598416310295 1:4 2:90 3:88 4:47 5:54 6:37.700001 7:0.362 8:29 
0.50451600115691542 1:1 2:114 3:66 4:36 5:200 6:38.099998 7:0.289 8:21 
0.50434399027236954 2:165 3:90 4:33 5:680 6:52.299999 7:0.427 8:23 
0.50441245842202476 1:2 2:157 3:74 4:35 5:440 6:39.400002 7:0.134 8:30 
0.50459472417589279 1:2 2:92 3:62 4:28 6:31.6 7:0.13 8:24 
0.50483025029057327 1:6 2:183 3:94 6:40.799999 7:1.461 8:45 
0.50446348948191 1:1 2:126 3:56 4:29 5:152 6:28.700001 7:0.801 8:21 
0.50443449533527662 1:3 2:150 3:76 6:21 7:0.207 8:37 
0.50460450482621977 1:1 2:89 3:66 4:23 5:94 6:28.1 7:0.167 8:21 
0.50476383228157629 2:105 3:64 4:41 5:142 6:41.5 7:0.173 8:22 
0.50439704006941499 1:13 2:153 3:88 4:37 5:140 6:40.599998 7:1.174 8:39 
0.50453759768236328 1:2 2:84 3:50 4:23 5:76 6:30.4 7:0.968 8:21 
0.49860101086279884 1:2 2:129 3:84 6:28 7:0.284 8:27 
0.50481108372191019 1:2 2:105 3:58 4:40 5:94 6:34.900002 7:0.225 8:25 
0.50478933660223968 1:1 2:106 3:70 4:28 5:135 6:34.200001 7:0.142 8:22 
0.50441245842206694 1:2 2:106 3:64 4:35 5:119 6:30.5 7:1.4 8:34 
0.50476795476990888 2:114 3:80 4:34 5:285 6:44.200001 7:0.167 8:27 
0.5047929556281453 1:3 2:128 3:78 6:21.1 7:0.268 8:55 
0.50495344344071025 1:8 2:118 3:72 4:19 6:23.1 7:1.476 8:46 
0.50480802449517159 1:1 2:107 3:72 4:30 5:82 6:30.799999 7:0.821 8:24 
0.50478905690572051 1:2 2:100 3:54 4:28 5:105 6:37.799999 7:0.498 8:24 
0.37217905450028799 1:6 2:91 6:29.799999 7:0.501 8:31 
0.5044659766808679 1:1 2:112 3:72 4:30 5:176 6:34.400002 7:0.528 8:25 
0.50479269108394953 1:1 2:100 3:66 4:29 5:196 6:32 7:0.444 8:42 
0.50453969788037234 1:1 2:125 3:70 4:24 5:110 6:24.299999 7:0.221 8:25 
0.50440739878848095 1:2 2:100 3:68 4:25 5:71 6:38.5 7:0.324 8:26 
0.50451636130498623 1:1 2:124 3:74 4:36 6:27.799999 7:0.1 8:30 
0.50467569298932202 1:1 2:97 3:70 4:40 6:38.099998 7:0.218 8:30 
0.50478945014711973 2:137 3:68 4:14 5:148 6:24.799999 7:0.143 8:21 
0.50482562934445285 1:3 2:96 3:78 4:39 6:37.299999 7:0.238 8:40 
0.50437558193634613 1:6 2:111 3:64 4:39 6:34.200001 7:0.26 8:24 
0.50434399027088062 1:1 2:108 3:88 4:19 6:27.1 7:0.4 8:24 
0.50480802447629003 1:7 2:62 3:78 6:32.599998 7:0.391 8:41 
0.50644005192146169 1:10 2:162 3:84 6:27.700001 7:0.182 8:54 
0.50479862760129224 2:173 3:78 4:32 5:265 6:46.5 7:1.159 8:58 
0.50480759945415721 1:1 2:86 3:66 4:52 5:65 6:41.299999 7:0.917 8:29 
0.50478857182685621 1:3 2:111 3:58 4:31 5:44 6:29.5 7:0.43 8:22 
0.50407524745490884 1:2 2:90 3:80 4:14 5:55 6:24.4 7:0.249 8:24 
0.5306787909981463 1:5 2:147 3:78 6:33.700001 7:0.218 8:65 
0.50480755829621771 2:147 3:85 4:54 6:42.799999 7:0.375 8:24 
0.50483140460083775 1:2 2:88 3:74 4:19 5:53 6:29 7:0.229 8:22 
0.50479395417172057 1:5 2:116 3:74 6:25.6 7:0.201 8:30 
0.50478956576760514 2:93 3:100 4:39 5:72 6:43.400002 7:1.021 8:35 
0.50478934171775636 2:135 3:94 4:46 5:145 6:40.599998 7:0.284 8:26 
0.50478775804169329 1:5 2:96 3:74 4:18 5:67 6:33.599998 7:0.997 8:43 
0.50451528556580061 1:2 2:94 3:68 4:18 5:76 6:26 7:0.561 8:21 
0.50440022250019745 1:6 2:125 3:68 4:30 5:120 6:30 7:0.464 8:32 
0.5043585800089827 1:1 2:109 3:58 4:18 5:116 6:28.5 7:0.219 8:22 
0.50478890081937866 2:126 3:84 4:29 5:215 6:30.700001 7:0.52 8:24 
0.5040790906214071 1:1 2:90 3:62 4:18 5:59 6:25.1 7:1.268 8:25 
0.50473875885744779 1:4 2:92 3:80 6:42.200001 7:0.237 8:29 
0.50427797497348115 1:1 2:153 3:82 4:42 5:485 6:40.599998 7:0.687 8:23 
0.50461636292183121 1:2 2:141 3:58 4:34 5:128 6:25.4 7:0.699 8:24 
0.50437585222797887 1:3 2:122 3:78 6:23 7:0.254 8:40 
0.50446754457122678 1:2 2:112 3:78 4:50 5:140 6:39.400002 7:0.175 8:24 
0.50465226903391136 2:111 3:65 6:24.6 7:0.66 8:31 
0.50388158646194003 2:101 3:62 6:21.9 7:0.336 8:25 
0.50434348117771322 1:8 2:120 3:78 6:25 7:0.409 8:64 
0.50451513094125089 1:8 2:65 3:72 4:23 6:32 7:0.6 8:42 
0.5040200736159558 1:4 2:122 3:68 6:35 7:0.394 8:29 
0.50404072458712834 1:1 2:157 3:72 4:21 5:168 6:25.6 7:0.123 8:24 
0.50476795422524912 1:6 2:151 3:62 4:31 5:120 6:35.5 7:0.692 8:28 
0.50494452856414029 1:4 2:110 3:66 6:31.9 7:0.471 8:29 
0.50447736414019329 1:4 2:141 3:74 6:27.6 7:0.244 8:40 
0.50402062585926255 1:4 2:99 3:68 4:38 6:32.799999 7:0.145 8:33 
0.50325229896716683 1:2 2:96 3:68 4:13 5:49 6:21.1 7:0.647 8:26 
0.50479105070538355 1:5 2:126 3:78 4:27 5:22 6:29.6 7:0.439 8:40 
0.50478891626213462 1:1 2:139 3:62 4:41 5:480 6:40.700001 7:0.536 8:21 
0.57592497025799405 1:5 2:128 3:80 6:34.599998 7:0.144 8:45 
0.50261635286524675 2:102 3:52 6:25.1 7:0.078 8:21 
0.50479364601834364 1:2 2:82 3:52 4:22 5:115 6:28.5 7:1.699 8:25 
0.50480657210241042 1:1 2:71 3:62 6:21.799999 7:0.416 8:26 
0.46492275215356893 1:5 2:114 3:74 6:24.9 7:0.744 8:57 
0.50440160368543241 2:95 3:80 4:45 5:92 6:36.5 7:0.33 8:26 
0.50475753921781874 1:4 2:132 3:86 4:31 6:28 7:0.419 8:63 
0.50474595805242206 1:10 2:101 3:76 4:48 5:180 6:32.900002 7:0.171 8:63 
0.50478775832623302 1:1 2:99 3:72 4:30 5:18 6:38.599998 7:0.412 8:21 
0.50478894799900087 2:124 3:56 4:13 5:105 6:21.799999 7:0.452 8:21 
0.50476795477037761 1:2 2:120 3:76 4:37 5:105 6:39.700001 7:0.215 8:29 
0.50479345661732067 1:2 2:109 3:92 6:42.700001 7:0.845 8:54 
0.5044104992938907 2:132 3:78 6:32.400002 7:0.393 8:21 
0.50050542525823694 1:1 2:109 3:60 4:8 5:182 6:25.4 7:0.947 8:21 
0.4914200433136377 2:125 3:96 6:22.5 7:0.262 8:21 
0.50131296974759132 1:1 2:107 3:68 4:19 6:26.5 7:0.165 8:24 
0.50450482636743232 1:4 2:96 3:56 4:17 5:49 6:20.799999 7:0.34 8:26 
0.50446539326935413 1:2 2:112 3:68 4:22 5:94 6:34.099998 7:0.315 8:26 
0.50451617704126139 1:7 2:81 3:78 4:40 5:48 6:46.700001 7:0.261 8:42 
0.50407722493581786 1:3 2:87 3:60 4:18 6:21.799999 7:0.444 8:21 
0.4683495506418891 1:2 2:111 3:60 6:26.200001 7:0.343 8:23 
0.5047981877319403 1:1 2:96 3:122 6:22.4 7:0.207 8:27 
0.50480759909484274 1:1 2:143 3:86 4:30 5:330 6:30.1 7:0.892 8:23 
0.50480086128930712 1:10 2:122 3:78 4:31 6:27.6 7:0.512 8:45 
0.50480934357252438 1:4 2:197 3:70 4:39 5:744 6:36.700001 7:2.329 8:31 
0.50440821081317511 1:2 2:108 3:62 4:10 5:278 6:25.299999 7:0.881 8:22 
0.50437307149650412 1:4 2:147 3:74 4:25 5:293 6:34.900002 7:0.385 8:30 
0.50479975183978665 1:1 2:77 3:56 4:30 5:56 6:33.299999 7:1.251 8:24 
0.50443435925191071 1:2 2:117 3:90 4:19 5:71 6:25.200001 7:0.313 8:21 
0.50479105070554386 2:165 3:76 4:43 5:255 6:47.900002 7:0.259 8:26 
0.50440654877565516 2:101 3:76 6:35.700001 7:0.198 8:26 
0.5047934243275477 2:98 3:82 4:15 5:84 6:25.200001 7:0.299 8:22 
0.47217815240879024 1:1 2:83 3:68 6:18.200001 7:0.624 8:27 
0.50407916755091497 2:78 3:88 4:29 5:40 6:36.900002 7:0.434 8:21 
0.50479364271857219 1:3 2:78 3:70 6:32.5 7:0.27 8:39 
0.50443435925191071 1:5 2:108 3:72 4:43 5:75 6:36.099998 7:0.263 8:33 
0.50433844403539518 1:1 2:87 3:78 4:27 5:32 6:34.599998 7:0.101 8:22 
0.50451598274491616 1:1 2:81 3:74 4:41 5:57 6:46.299999 7:1.096 8:32 
0.50443452904327679 1:6 2:123 3:72 4:45 5:230 6:33.599998 7:0.733 8:34 
0.50478902228723477 1:5 2:88 3:78 4:30 6:27.6 7:0.258 8:37 
0.50436934340823492 2:104 3:76 6:18.4 7:0.582 8:27 
0.50476136450691467 2:137 3:84 4:27 6:27.299999 7:0.231 8:59 
0.50434211828630315 1:5 2:105 3:72 4:29 5:325 6:36.900002 7:0.159 8:28 
0.50451598807752562 1:1 2:88 3:78 4:29 5:76 6:32 7:0.365 8:29 
0.50451593340347456 1:1 2:143 3:74 4:22 5:61 6:26.200001 7:0.256 8:21 
0.50429040834282668 1:2 2:115 3:64 4:22 6:30.799999 7:0.421 8:21 
0.50451625516389542 2:134 3:58 4:20 5:291 6:26.4 7:0.352 8:21 
0.54294421634140977 1:7 2:119 6:25.200001 7:0.209 8:37 
0.50480765916199433 1:2 2:107 3:74 4:30 5:100 6:33.599998 7:0.404 8:23 
0.50447668305996751 1:4 2:85 3:58 4:22 5:49 6:27.799999 7:0.306 8:28 
0.50479120178940096 1:1 2:90 3:62 4:12 5:43 6:27.200001 7:0.58 8:24 
0.50435755591470299 1:6 2:92 3:92 6:19.9 7:0.188 8:28 
0.50443458024940591 1:1 2:80 3:74 4:11 5:60 6:30 7:0.527 8:22 
0.50436708234423688 1:2 2:119 6:19.6 7:0.832 8:72 
0.60659360169452869 1:7 2:133 3:84 6:40.200001 7:0.696 8:37 
0.50482450421985126 1:1 2:82 3:64 4:13 5:95 6:21.200001 7:0.415 8:23 
0.50479103200662701 1:2 2:146 3:76 4:35 5:194 6:38.200001 7:0.329 8:29 
0.50437355652370686 1:6 2:108 3:44 4:20 5:130 6:24 7:0.813 8:35 
0.50478891616926425 2:73 6:21.1 7:0.342 8:25 
0.5047997518462306 1:2 2:112 3:86 4:42 5:160 6:38.400002 7:0.246 8:28 
0.50451535527247404 1:9 2:72 3:78 4:25 6:31.6 7:0.28 8:38 
0.50479105070554386 2:91 3:68 4:32 5:210 6:39.900002 7:0.381 8:25 
0.5048234236453103 1:2 2:94 3:76 4:18 5:66 6:31.6 7:0.649 8:23 
0.5047925435048608 1:4 2:144 3:58 4:28 5:140 6:29.5 7:0.287 8:37 
0.50479273956828019 1:1 3:48 4:20 6:24.700001 7:0.14 8:22 
0.5044672016720757 1:1 2:73 3:50 4:10 6:23 7:0.248 8:21 
0.5047886743683252 1:6 2:154 3:74 4:32 5:193 6:29.299999 7:0.839 8:39 
0.5047934243275477 2:100 3:88 4:60 5:110 6:46.799999 7:0.962 8:31 
0.50476795422524778 1:7 2:94 3:64 4:25 5:79 6:33.299999 7:0.738 8:41 
0.50481197246069232 1:4 2:117 3:64 4:27 5:120 6:33.200001 7:0.23 8:24 
0.50477740716517838 1:2 2:122 3:76 4:27 5:200 6:35.900002 7:0.483 8:26 
0.50482450422330027 1:1 2:71 3:78 4:50 5:45 6:33.200001 7:0.422 8:21 
0.50407921834170433 1:5 2:158 3:70 6:29.799999 7:0.207 8:63 
0.50443477232095768 2:117 6:33.799999 7:0.932 8:44 
0.50140982356509756 1:2 2:112 3:66 4:22 6:25 7:0.307 8:24 
0.50482623060921339 2:74 3:52 4:10 5:36 6:27.799999 7:0.269 8:22 
0.504340281678608 1:1 2:89 3:76 4:34 5:37 6:31.200001 7:0.192 8:23 
0.5048299967137756 1:6 2:92 3:62 4:32 5:126 6:32 7:0.085 8:46 
0.50483355699314614 1:4 2:123 3:80 4:15 5:176 6:32 7:0.443 8:34 
0.50521866216702427 1:8 2:100 3:76 6:38.700001 7:0.19 8:42 
0.50482623025115236 1:1 2:95 3:74 4:21 5:73 6:25.9 7:0.673 8:36 
0.5049308802705208 1:2 2:71 3:70 4:27 6:28 7:0.586 8:22 
0.50492648113884686 1:1 2:97 3:64 4:19 5:82 6:18.200001 7:0.299 8:21 
0.50482926180412935 1:2 2:139 3:75 6:25.6 7:0.167 8:29 
0.50404072458732407 1:7 2:150 3:66 4:42 5:342 6:34.700001 7:0.718 8:42 
0.50427793193264381 1:4 2:103 3:60 4:33 5:192 6:24 7:0.966 8:33 
0.50443178529687804 1:4 2:91 3:70 4:32 5:88 6:33.099998 7:0.446 8:22 
0.50441371679497327 1:1 2:109 3:38 4:18 5:120 6:23.1 7:0.407 8:26 
0.50447668313314842 1:7 2:106 3:92 4:18 6:22.700001 7:0.235 8:48 
0.50479103197669473 1:8 2:126 3:88 4:36 5:108 6:38.5 7:0.349 8:49 
0.49103095904080901 1:2 2:90 3:60 6:23.5 7:0.191 8:25 
0.50478356941806568 1:7 2:136 3:90 6:29.9 7:0.21 8:50 
0.50477740659327897 1:6 2:102 3:90 4:39 6:35.700001 7:0.674 8:28 
0.50476867893131727 1:3 2:84 3:68 4:30 5:106 6:31.9 7:0.591 8:25 
0.46520068399657 1:8 2:112 3:72 6:23.6 7:0.84 8:58 
0.50571469805491565 2:137 3:70 4:38 6:33.200001 7:0.17 8:22 
0.50407704731009673 2:119 3:64 4:18 5:92 6:34.900002 7:0.725 8:23 
0.50439613538795713 1:9 2:106 3:52 6:31.200001 7:0.38 8:42 
0.50480657241445437 1:9 2:57 3:80 4:37 6:32.799999 7:0.096 8:41 
0.50436974164722703 1:4 2:118 3:70 6:44.5 7:0.904 8:26 
0.50083678275261412 1:1 2:111 3:62 4:13 5:182 6:24 7:0.138 8:23 
0.52061900125610105 1:6 2:114 7:0.189 8:26 
0.50439704006941499 1:5 2:44 3:62 6:25 7:0.587 8:36 
0.50479787048981462 1:2 2:127 3:58 4:24 5:275 6:27.700001 7:1.6 8:25 
0.49184645523167703 1:2 2:130 3:96 6:22.6 7:0.268 8:21 
0.50475986252143745 1:4 2:94 3:65 4:22 6:24.700001 7:0.148 8:21 
0.50480267476474527 1:3 2:191 3:68 4:15 5:130 6:30.9 7:0.299 8:34 
0.5048065729697444 1:1 2:135 3:54 6:26.700001 7:0.687 8:62 
0.50451534172548118 1:3 2:99 3:62 4:19 5:74 6:21.799999 7:0.279 8:26 
0.50453572185923401 1:10 2:75 3:82 6:33.299999 7:0.263 8:38 
0.50451621473591168 1:3 2:142 3:80 4:15 6:32.400002 7:0.2 8:63 
0.50479794499826902 1:1 2:118 3:58 4:36 5:94 6:33.299999 7:0.261 8:23 
0.50480766028356194 1:9 2:91 3:68 6:24.200001 7:0.2 8:58 
0.50482713632627108 2:93 3:60 6:35.299999 7:0.263 8:25 
0.50480266739758295 1:4 2:110 3:76 4:20 5:100 6:28.4 7:0.118 8:27 
0.50435690441642322 1:5 2:117 3:86 4:30 5:105 6:39.099998 7:0.251 8:42 
0.50451617704152074 1:1 3:74 4:20 5:23 6:27.700001 7:0.299 8:21 
0.50483383091300915 1:1 2:107 3:50 4:19 6:28.299999 7:0.181 8:29 
0.50451622826811782 1:1 2:108 3:60 4:46 5:178 6:35.5 7:0.415 8:24 
0.50437307149650412 1:11 2:127 3:106 6:39 7:0.19 8:51 
0.50451530342798023 1:2 2:105 3:75 6:23.299999 7:0.56 8:53 
0.50476790520719561 1:6 2:99 3:60 4:19 5:54 6:26.9 7:0.497 8:32 
0.50479103197133746 2:126 3:86 4:27 5:120 6:27.4 7:0.515 8:21 
0.4906588162549399 1:2 2:91 3:62 6:27.299999 7:0.525 8:22 
0.50479104734384816 1:11 2:85 3:74 6:30.1 7:0.3 8:35 
0.50471077331458947 1:4 2:114 3:65 6:21.9 7:0.432 8:37 
0.50479787048981462 1:8 2:126 3:74 4:38 5:75 6:25.9 7:0.162 8:39 
0.50427612664584498 1:2 2:84 7:0.304 8:21 
0.50483207288312681 1:1 2:119 3:54 4:13 5:50 6:22.299999 7:0.205 8:24 
0.50483372709399854 1:1 2:143 3:84 4:23 5:310 6:42.400002 7:1.076 8:22 
0.5048234469334445 1:7 2:179 3:95 4:31 6:34.200001 7:0.164 8:60 
0.50474535186939129 1:3 2:90 3:78 6:42.700001 7:0.559 8:21 
0.50451556883669268 1:6 2:80 3:80 4:36 6:39.799999 7:0.177 8:28 
0.45606281529333392 1:4 2:95 3:70 4:32 6:32.099998 7:0.612 8:24 
0.49915063453960418 1:4 2:114 3:64 6:28.9 7:0.126 8:24 
0.50476799142753659 2:127 3:80 4:37 5:210 6:36.299999 7:0.804 8:23 
0.50482999655163685 1:1 2:87 3:68 4:34 5:77 6:37.599998 7:0.401 8:24 
0.50451593294018582 1:2 2:99 3:52 4:15 5:94 6:24.6 7:0.637 8:21 
0.5048353026258442 1:6 2:154 3:78 4:41 5:140 6:46.099998 7:0.571 8:27 
0.50439613474581135 1:3 2:103 3:72 4:30 5:152 6:27.6 7:0.73 8:27 
0.50451559459777551 1:4 2:99 3:76 4:15 5:51 6:23.200001 7:0.223 8:21 
0.50432552283057952 1:9 2:154 3:78 4:30 5:100 6:30.9 7:0.164 8:45 
0.50440654115806582 1:7 2:142 3:60 4:33 5:190 6:28.799999 7:0.687 8:61 
0.50437499514916073 2:93 3:60 4:25 5:92 6:28.700001 7:0.532 8:22 
0.50480937325261255 1:1 2:193 3:50 4:16 5:375 6:25.9 7:0.655 8:24 
0.50475004524642808 1:10 2:133 3:68 6:27 7:0.245 8:36 
0.50482342396448454 1:5 2:88 3:66 4:21 5:23 6:24.4 7:0.342 8:30 
0.50467455916667481 1:1 2:85 3:66 4:29 6:26.6 7:0.351 8:31 
-1 1:8 2:186 3:90 4:35 5:225 6:34.5 7:0.423 8:37 
-1 1:4 2:136 3:70 6:31.200001 7:1.182 8:22 
-1 1:3 2:139 3:54 6:25.6 7:0.402 8:22 
-1 1:3 2:169 3:74 4:19 5:125 6:29.9 7:0.268 8:31 
-1 1:7 2:187 3:50 4:33 5:392 6:33.900002 7:0.826 8:34 
-1 1:4 2:184 3:78 4:39 5:277 6:37 7:0.264 8:31 
-1 1:1 2:149 3:68 4:29 5:127 6:29.299999 7:0.349 8:42 
-1 2:180 3:66 4:39 6:42 7:1.893 8:25 
-1 2:121 3:66 4:30 5:165 6:34.299999 7:0.203 8:33 
-1 1:4 2:156 3:75 6:48.299999 7:0.238 8:32 
-1 1:2 2:155 3:74 4:17 5:96 6:26.6 7:0.433 8:27 
-1 1:4 2:144 3:82 4:32 6:38.5 7:0.554 8:37 
-1 1:3 2:158 3:76 4:36 5:245 6:31.6 7:0.851 8:28 
-1 1:1 2:168 3:88 4:29 6:35 7:0.905 8:52 
-1 2:131 3:88 6:31.6 7:0.743 8:32 
-1 1:11 2:135 6:52.299999 7:0.578 8:40 
-1 1:3 2:173 3:84 4:33 5:474 6:35.700001 7:0.258 8:22 
-1 1:10 2:101 3:86 4:37 6:45.599998 7:1.136 8:38 
-1 1:1 2:180 6:43.299999 7:0.282 8:41 
-1 2:118 3:84 4:47 5:230 6:45.799999 7:0.551 8:31 
-1 1:11 2:136 3:84 4:35 5:130 6:28.299999 7:0.26 8:42 
-1 1:1 2:115 3:70 4:30 5:96 6:34.599998 7:0.529 8:32 
-1 1:1 2:128 3:48 4:45 5:194 6:40.5 7:0.613 8:24 
-1 1:2 2:90 3:68 4:42 6:38.200001 7:0.503 8:27 
-1 1:4 2:134 3:72 6:23.799999 7:0.277 8:60 
-1 1:8 2:179 3:72 4:42 5:130 6:32.700001 7:0.719 8:36 
-1 1:4 2:115 3:72 6:28.9 7:0.376 8:46 
-1 1:1 2:128 3:98 4:41 5:58 6:32 7:1.321 8:33 
-1 1:4 2:142 3:86 6:44 7:0.645 8:22 
-1 1:12 2:84 3:72 4:31 6:29.700001 7:0.297 8:46 
-1 1:14 2:100 3:78 4:25 5:184 6:36.599998 7:0.412 8:46 
-1 1:8 2:125 3:96 7:0.232 8:54 
-1 1:7 2:168 3:88 4:42 5:321 6:38.200001 7:0.787 8:40 
-1 1:3 2:163 3:70 4:18 5:105 6:31.6 7:0.268 8:28 
-1 1:4 2:146 3:92 6:31.200001 7:0.539 8:61 
-1 1:9 2:112 3:82 4:24 6:28.200001 7:1.282 8:50 
-1 2:189 3:104 4:25 6:34.299999 7:0.435 8:41 
-1 1:4 2:148 3:60 4:27 5:318 6:30.9 7:0.15 8:29 
-1 1:3 2:162 3:52 4:38 6:37.200001 7:0.652 8:24 
-1 2:131 6:43.200001 7:0.27 8:26 
-1 1:7 2:150 3:78 4:29 5:126 6:35.200001 7:0.692 8:54 
-1 1:7 2:109 3:80 4:31 6:35.900002 7:1.127 8:43 
-1 1:10 2:115 7:0.261 8:30 
-1 1:3 2:171 3:72 4:33 5:135 6:33.299999 7:0.199 8:24 
-1 1:5 2:130 3:82 6:39.099998 7:0.956 8:37 
-1 1:5 2:158 3:84 4:41 5:210 6:39.400002 7:0.395 8:29 
-1 2:137 3:40 4:35 5:168 6:43.099998 7:2.288 8:33 
-1 1:3 2:193 3:70 4:31 6:34.900002 7:0.241 8:25 
-1 1:8 2:120 3:86 6:28.4 7:0.259 8:22 
-1 1:3 2:130 3:78 4:23 5:79 6:28.4 7:0.323 8:34 
-1 1:7 2:100 6:30 7:0.484 8:32 
-1 1:4 2:171 3:72 6:43.599998 7:0.479 8:26 
-1 1:12 2:151 3:70 4:40 5:271 6:41.799999 7:0.742 8:38 
-1 1:8 2:120 6:30 7:0.183 8:38 
-1 1:3 2:107 3:62 4:13 5:48 6:22.9 7:0.678 8:23 
-1 1:8 2:181 3:68 4:36 5:495 6:30.1 7:0.615 8:60 
-1 1:6 2:102 3:82 6:30.799999 7:0.18 8:36 
-1 1:7 2:129 3:68 4:49 5:125 6:38.5 7:0.439 8:43 
-1 1:9 2:130 3:70 6:34.200001 7:0.652 8:45 
-1 1:1 2:173 3:74 6:36.799999 7:0.088 8:38 
-1 1:8 2:155 3:62 4:26 5:495 6:34 7:0.543 8:46 
-1 1:4 2:125 3:70 4:18 5:122 6:28.9 7:1.144 8:45 
-1 1:1 2:196 3:76 4:36 5:249 6:36.5 7:0.875 8:29 
-1 1:5 2:115 3:76 6:31.200001 7:0.343 8:44 
-1 1:11 2:155 3:76 4:28 5:150 6:33.299999 7:1.353 8:51 
-1 1:9 2:164 3:78 6:32.799999 7:0.148 8:45 
-1 1:5 2:168 3:64 6:32.900002 7:0.135 8:41 
-1 1:3 2:132 3:80 6:34.400002 7:0.402 8:44 
-1 2:198 3:66 4:32 5:274 6:41.299999 7:0.502 8:28 
-1 1:1 2:119 3:86 4:39 5:220 6:45.599998 7:0.808 8:29 
-1 1:9 2:145 3:88 4:34 5:165 6:30.299999 7:0.771 8:53 
-1 2:179 3:90 4:27 6:44.099998 7:0.686 8:23 
-1 2:162 3:76 4:56 5:100 6:53.200001 7:0.759 8:25 
-1 1:9 2:156 3:86 6:24.799999 7:0.23 8:53 
-1 1:3 2:173 3:82 4:48 5:465 6:38.400002 7:2.137 8:25 
-1 1:1 2:122 3:64 4:32 5:156 6:35.099998 7:0.692 8:30 
-1 1:7 2:160 3:54 4:32 5:175 6:30.5 7:0.588 8:39 
-1 1:5 3:80 4:32 6:41 7:0.346 8:37 
-1 2:131 3:66 4:40 6:34.299999 7:0.196 8:22 
-1 1:8 2:108 3:70 6:30.5 7:0.955 8:33 
-1 1:4 2:146 3:78 6:38.5 7:0.52 8:67 
-1 2:138 3:60 4:35 5:167 6:34.599998 7:0.534 8:21 
-1 1:7 2:103 3:66 4:32 6:39.099998 7:0.344 8:31 
-1 1:8 2:151 3:78 4:32 5:210 6:42.900002 7:0.516 8:36 
-1 1:6 2:195 3:70 6:30.9 7:0.328 8:31 
-1 1:1 2:133 3:102 4:28 5:140 6:32.799999 7:0.234 8:45 
-1 1:8 2:124 3:76 4:24 5:600 6:28.700001 7:0.687 8:52 
-1 1:2 2:146 6:27.5 7:0.24 8:28 
-1 1:3 2:173 3:78 4:39 5:185 6:33.799999 7:0.97 8:31 
-1 1:8 2:183 3:64 6:23.299999 7:0.672 8:32 
-1 2:128 3:68 4:19 5:180 6:30.5 7:1.391 8:25 
-1 1:3 2:176 3:86 4:27 5:156 6:33.299999 7:1.154 8:52 
-1 1:7 2:107 3:74 6:29.6 7:0.254 8:31 
-1 1:1 2:88 3:30 4:42 5:99 6:55 7:0.496 8:26 
-1 1:1 2:181 3:64 4:30 5:180 6:34.099998 7:0.328 8:38 
-1 1:9 2:119 3:80 4:35 6:29 7:0.263 8:29 
-1 1:3 2:128 3:72 4:25 5:190 6:32.400002 7:0.549 8:27 
-1 1:9 2:170 3:74 4:31 6:44 7:0.403 8:43 
-1 1:5 2:115 3:98 6:52.900002 7:0.209 8:28 
-1 1:7 2:195 3:70 4:33 5:145 6:25.1 7:0.163 8:55 
-1 2:146 3:70 6:37.900002 7:0.334 8:28 
-1 1:10 2:129 3:62 4:36 6:41.200001 7:0.441 8:38 
-1 1:13 2:129 4:30 6:39.900002 7:0.569 8:44 
-1 1:7 2:97 3:76 4:32 5:91 6:40.900002 7:0.871 8:32 
-1 1:8 2:109 3:76 4:39 5:114 6:27.9 7:0.64 8:31 
-1 2:113 3:76 6:33.299999 7:0.278 8:23 
-1 1:1 2:163 3:72 6:39 7:1.222 8:33 
-1 1:9 2:145 3:80 4:46 5:130 6:37.900002 7:0.637 8:40 
-1 1:5 2:137 3:108 6:48.799999 7:0.227 8:37 
-1 1:5 2:189 3:64 4:33 5:325 6:31.200001 7:0.583 8:29 
-1 1:7 2:187 3:68 4:39 5:304 6:37.700001 7:0.254 8:41 
-1 1:3 2:141 6:30 7:0.761 8:27 
-1 2:129 3:110 4:46 5:130 6:67.099998 7:0.319 8:26 
-1 1:8 2:100 3:74 4:40 5:215 6:39.400002 7:0.661 8:43 
-1 1:1 2:126 3:60 6:30.1 7:0.349 8:47 
-1 1:5 2:85 3:74 4:22 6:29 7:1.224 8:32 
-1 1:13 2:104 3:72 6:31.200001 7:0.465 8:38 
-1 2:123 3:72 6:36.299999 7:0.258 8:52 
-1 1:8 2:154 3:78 4:32 6:32.400002 7:0.443 8:45 
-1 1:2 2:118 3:80 6:42.900002 7:0.693 8:21 
-1 1:4 2:158 3:78 6:32.900002 7:0.803 8:31 
-1 1:1 2:181 3:78 4:42 5:293 6:40 7:1.258 8:22 
-1 2:105 3:84 6:27.9 7:0.741 8:62 
-1 1:5 2:187 3:76 4:27 5:207 6:43.599998 7:1.034 8:53 
-1 1:8 2:176 3:90 4:34 5:300 6:33.700001 7:0.467 8:58 
-1 1:10 2:148 3:84 4:48 5:237 6:37.599998 7:1.001 8:51 
-1 1:4 2:109 3:64 4:44 5:99 6:34.799999 7:0.905 8:26 
-1 1:8 2:133 3:72 6:32.900002 7:0.27 8:39 
-1 1:4 2:95 3:64 6:32 7:0.161 8:31 
-1 1:11 2:138 3:74 4:26 5:144 6:36.099998 7:0.557 8:50 
-1 1:3 2:158 3:70 4:30 5:328 6:35.5 7:0.344 8:35 
-1 1:6 2:194 3:78 6:23.5 7:0.129 8:59 
-1 1:3 2:80 3:82 4:31 5:70 6:34.200001 7:1.292 8:27 
-1 1:7 2:196 3:90 6:39.799999 7:0.451 8:41 
-1 1:6 2:162 3:62 6:24.299999 7:0.178 8:50 
-1 1:10 2:125 3:70 4:26 5:115 6:31.1 7:0.205 8:41 
-1 1:2 2:128 3:78 4:37 5:182 6:43.299999 7:1.224 8:31 
-1 2:107 3:62 4:30 5:74 6:36.599998 7:0.757 8:25 
-1 1:10 2:90 3:85 4:32 6:34.900002 7:0.825 8:56 
-1 1:7 2:159 3:66 6:30.4 7:0.383 8:36 
-1 1:2 2:93 3:64 4:32 5:160 6:38 7:0.674 8:23 
-1 1:2 2:174 3:88 4:37 5:120 6:44.5 7:0.646 8:24 
-1 1:2 2:197 3:70 4:99 6:34.700001 7:0.575 8:62 
-1 1:4 2:173 3:70 4:14 5:168 6:29.700001 7:0.361 8:33 
-1 2:179 3:50 4:36 5:159 6:37.799999 7:0.455 8:22 
-1 1:9 2:152 3:78 4:34 5:171 6:34.200001 7:0.893 8:33 
-1 1:1 2:95 3:82 4:25 5:180 6:35 7:0.233 8:43 
-1 1:9 2:140 3:94 6:32.700001 7:0.734 8:45 
-1 1:1 2:102 3:74 6:39.5 7:0.293 8:42 
-1 1:6 2:148 3:72 4:35 6:33.599998 7:0.627 8:50 
-1 1:8 2:196 3:76 4:29 5:280 6:37.5 7:0.605 8:57 
-1 1:13 2:126 3:90 6:43.400002 7:0.583 8:42 
-1 1:9 2:112 3:82 4:32 5:175 6:34.200001 7:0.26 8:36 
-1 1:4 2:132 6:32.900002 7:0.302 8:23 
