svm_type nu_svc
kernel_type sigmoid
gamma 0.071428571428571425
coef0 0
nr_class 10
total_sv 4541
rho -1.0570611996870325 -0.77586654644978326 -2.9735286196650907 -1.5034564469525082 0.24487800882904129 -0.74005550751331173 -0.92040340056264602 -1.6193989209944675 -1.4039327420013181 -0.34943887425646236 -2.517319227082933 -0.56565617439477811 2.8586597035707957 -0.60443069470705379 0.20995570177128287 1.9494685192214731 -0.77288086308270032 -1.0815370683492955 -0.27259334131795593 10.051401647419704 2.1377662158872743 0.33209173832142674 0.05463434694215568 0.066625231649131533 3.4016260455470966 1.7432639513630801 2.1174793051790077 3.1014241264961533 2.174177149467361 3.0409759926064068 1.7420947188213665 2.0004084169320477 0.5983766108161015 0.029745865785277204 0.15155361407391857 -1.7837470377475262 -0.55001209446647881 -2.6280502444665133 -0.79781057012151047 0.89193845605301947 0.025817398466578545 0.29089723611525314 0.42176032719458506 -2.2430966362064213 -0.77271676515214871
label 4 0 8 7 9 1 2 5 6 3
probA -7.6718934433133876 -8.1868226800568618 -7.5570641834209029 -7.5628020658981052 -7.2712356129110942 -7.19145156257545 -9.0539764637529938 -4.4801341134021948 -6.5205859083390507 -3.7248851776348695 -4.760318245415565 -6.0895852287315471 -5.2661879697623579 -3.1578828441549227 -3.9827327465907993 -1.4399749526285808 -4.4324100979059242 -5.4958896209478709 -4.9516860993080982 -2.1581069366487515 -1.9380936264513833 -8.8648617237279126 -3.949451550828341 -7.3055493231294699 -4.4958882247696756 -8.0929884617584538 -3.9577063485496149 -5.9368781457975697 -6.5679924812876527 -4.6793784780226657 -7.9605435694547699 -3.0497917192491379 -7.8326727029204397 -8.1933694992419905 -7.1785126317662709 -2.9130680292379649 -7.6438307192472861 -7.1579912046842233 -7.4814847786537886 -6.7558778055572315 -3.9193853212276881 -5.9060913354033948 -5.8083374988675844 -3.5305363868504172 -4.5408784992553919
probB 0.78316643692195942 0.36987474810520787 -0.12190730348381992 -0.41525690334103299 0.22445798552772905 1.8685619645566616 1.5957880946041576 1.7275828866844618 -0.35876491316597248 -0.62499945062577689 -0.73480119040591374 -2.3806709337958045 -2.3643804746195758 -0.36246927538003726 -0.58332243443720311 -0.14185943718845348 -0.41570381726775163 -1.2034508247720683 -1.4376787513012328 -0.11751931630592352 -0.18944436551478006 -0.75550835614332057 0.13199311481616202 -0.62550251191940365 0.018749989110170236 0.17354002228822393 -0.82346666449304784 0.76615021350134727 2.1347518632858993 0.80112340693304795 1.9921562068447054 -0.35225526082413094 1.7457856735964108 4.7692659095998362 1.0252185284551973 0.63272033052647114 0.76591142185308392 1.3544224884273122 0.3727863986966729 0.88020453324749226 0.24863358228926416 0.12676919875236259 -0.045505873615147109 -0.38823320199356492 -0.22254206452037237
nr_sv 434 455 491 452 438 462 499 405 464 441
SV
0.21320772225208973 0.11245545782455062 0.1914244320787869 0.14016914314361348 0.12462944148054841 0.093647812526579721 0 0.24194633634337245 0.183692270798301 1:0.818182 2:0.828283 3:1 4:1 5:0.535354 6:0.757576 7:0.161616 8:0.464646 9:0.121212 10:0.454545 11:0.5 12:0.3 13:0.27 
0 0 0 0.14016914314361348 0 0 0 0 0 1:1 2:1 3:0.535354 4:0.79798 5:0.242424 6:0.535354 7:0.282828 8:0.010101 9:0.747475 10:0.888889 11:0.18 12:0.19 13:0.31 
0.21320772225208973 0.11245545782455062 0 0.14016914314361348 0.12462944148054841 0.093647812526579721 0 0.24194633634337245 0 1:1 2:0.959596 3:0.757576 4:1 5:0.424242 6:0.777778 7:0.151515 8:0.525253 9:0.222222 10:0.191919 11:0.51 12:0.18 13:0.12 14:0.25 
0 0 0.1914244320787869 0.14016914314361348 0.12462944148054841 0.093647812526579721 0.12474797049488412 0 0.183692270798301 1:0.616162 2:1 3:0.191919 4:0.959596 5:0.59596 6:0.0808081 7:0.212121 8:0.585859 9:1 10:0.242424 11:0.48 12:0.35 13:0.05 14:0.08 
0 0 0 0.14016914314361348 0 0 0 0 0 1:0.909091 2:1 3:0.474747 4:0.757576 5:0.161616 6:0.505051 7:0.232323 8:0.272727 9:1 10:0.040404 11:0.78 12:0.26 13:0.29 
0 0 0 0.14016914314361348 0.12462944148054841 0.093647812526579721 0.12474797049488412 0.24194633634337245 0.183692270798301 1:0.474747 2:1 3:0.272727 4:0.939394 5:0.131313 6:0.616162 7:0.0909091 8:0.282828 9:0.343434 10:1 11:0.18 12:0.53 13:0.31 14:0.08 
0.21320772225208973 0.11245545782455062 0 0.14016914314361348 0.12462944148054841 0.093647812526579721 0 0.24194633634337245 0.183692270798301 1:1 2:0.949495 3:0.868687 4:1 5:0.484848 6:0.737374 7:0.151515 8:0.424242 9:0.0505051 10:0.0505051 11:0.52 12:0.48 13:0.29 14:0.39 
0.21320772225208973 0.11245545782455062 0.1914244320787869 0.14016914314361348 0.12462944148054841 0.093647812526579721 0 0.24194633634337245 0.183692270798301 1:1 2:1 3:0.727273 4:0.959596 5:0.444444 6:0.676768 7:0.272727 8:0.363636 9:0.262626 10:0.030303 11:0.76 12:0.58 13:0.24 14:0.22 
0 0.11245545782455062 0.1914244320787869 0.14016914314361348 0.12462944148054841 0.093647812526579721 0.12474797049488412 0.24194633634337245 0.183692270798301 1:0.808081 2:1 3:0.323232 4:0.878788 5:0.494949 6:0.10101 7:0.0808081 8:0.767677 9:0.0505051 10:1 11:0.42 12:0.37 13:0.33 14:0.1 
0.21320772225208973 0.11245545782455062 0.1914244320787869 0.14016914314361348 0.12462944148054841 0.093647812526579721 0.12474797049488412 0.24194633634337245 0.183692270798301 1:1 2:1 3:0.616162 4:0.868687 5:0.20202 6:0.59596 7:0.262626 8:0.30303 9:0.929293 10:0.0606061 11:0.87 12:0.37 13:0.32 14:0.55 
0.21320772225208973 0.11245545782455062 0.1914244320787869 0.14016914314361348 0.12462944148054841 0.093647812526579721 0.12474797049488412 0.24194633634337245 0.183692270798301 1:0.949495 2:1 3:0.737374 4:0.949495 5:0.262626 6:0.646465 7:0.292929 8:0.313131 9:1 10:0.10101 11:0.73 12:0.45 13:0.09 14:0.64 
0.21320772225208973 0.11245545782455062 0.1914244320787869 0.14016914314361348 0.12462944148054841 0.093647812526579721 0.12474797049488412 0.24194633634337245 0 1:0.888889 2:0.89899 3:0.484848 4:1 5:0.131313 6:0.727273 7:0.10101 8:0.40404 9:0.484848 10:0.161616 11:1 12:0.28 13:0.41 14:0.24 
0.21320772225208973 0.11245545782455062 0.1914244320787869 0.14016914314361348 0 0.093647812526579721 0.12474797049488412 0.24194633634337245 0.183692270798301 1:1 2:1 3:0.555556 4:0.808081 5:0.323232 6:0.505051 7:0.252525 8:0.171717 9:0.626263 10:0.929293 11:0.25 12:0.47 13:0.38 14:0.2 
0.21320772225208973 0.11245545782455062 0 0 0.12462944148054841 0.093647812526579721 0 0.24194633634337245 0 1:1 2:1 3:0.636364 4:0.969697 5:0.353535 6:0.69697 7:0.121212 8:0.40404 9:0.0808081 10:0.10101 11:0.52 12:0.51 13:0.17 14:0.15 
0 0.11245545782455062 0 0 0.12462944148054841 0.093647812526579721 0 0.24194633634337245 0.183692270798301 1:0.919192 2:1 3:0.606061 4:0.848485 5:0.30303 6:0.565657 7:0.0909091 8:0.282828 9:0.20202 10:1 11:0.07 12:0.69 13:0.27 14:0.13 
0.21320772225208973 0.11245545782455062 0 0 0.12462944148054841 0 0 0 0 1:1 2:1 3:0.565657 4:0.838384 5:0.232323 6:0.575758 7:0.262626 8:0.171717 9:0.686869 10:0.0909091 11:0.57 12:0.38 13:0.04 14:0.42 
0.21320772225208973 0.11245545782455062 0.1914244320787869 0 0.12462944148054841 0.065679341769475805 0.12474797049488412 0.24194633634337245 0.183692270798301 1:1 2:1 3:0.535354 4:0.838384 5:0.171717 6:0.585859 7:0.282828 8:0.20202 10:0.747475 11:0.92 12:0.27 13:0.51 14:0.48 
0 0 0.1914244320787869 0.14016914314361348 0 0 0.12474797049488412 0.24194633634337245 0.183692270798301 1:1 2:1 3:0.535354 4:0.79798 5:0.181818 6:0.555556 7:0.30303 8:0.161616 9:0.0606061 10:0.808081 11:0.98 12:0.2 13:0.31 14:0.17 
0.21320772225208973 0.11245545782455062 0.1914244320787869 0.14016914314361348 0.12462944148054841 0.093647812526579721 0.12474797049488412 0.24194633634337245 0.183692270798301 1:0.79798 2:0.737374 3:1 4:1 5:0.555556 6:0.69697 7:0.282828 8:0.343434 9:0.353535 10:1 11:0.13 12:0.67 13:0.38 14:0.24 
0.21320772225208973 0 0.1914244320787869 0.14016914314361348 0 0 0.12474797049488412 0.24194633634337245 0.183692270798301 1:0.636364 2:1 3:0.20202 4:0.737374 5:0.373737 6:0.161616 7:0.020202 8:0.717172 9:1 10:0.30303 11:0.59 12:0.51 13:0.06 14:0.39 
0.21320772225208973 0.11245545782455062 0.1914244320787869 0.14016914314361348 0.12462944148054841 0.093647812526579721 0.12474797049488412 0.24194633634337245 0.183692270798301 1:0.838384 2:1 3:0.717172 4:0.979798 5:0.373737 6:0.656566 7:0.171717 8:0.30303 9:0.434343 10:1 11:0.14 12:0.64 13:0.39 14:0.27 
0.21320772225208973 0.11245545782455062 0.1914244320787869 0.14016914314361348 0.12462944148054841 0.093647812526579721 0.12474797049488412 0.24194633634337245 0.183692270798301 1:0.414141 2:1 3:0.141414 4:0.727273 5:0.444444 6:0.030303 7:0.161616 8:0.505051 9:1 10:0.151515 11:0.92 12:0.43 13:0.34 14:0.39 
0 0 0.1914244320787869 0.14016914314361348 0 0.093647812526579721 0.12474797049488412 0 0.183692270798301 1:0.747475 2:1 3:0.252525 4:0.868687 5:0.505051 6:0.030303 7:0.121212 8:0.636364 9:1 10:0.282828 11:0.37 12:0.37 13:0.15 14:0.05 
0.21320772225208973 0.11245545782455062 0.1914244320787869 0.14016914314361348 0.12462944148054841 0.093647812526579721 0.12474797049488412 0.24194633634337245 0.183692270798301 1:0.545455 2:1 3:0.191919 4:0.747475 5:0.474747 6:0.181818 7:0.40404 8:1 9:0.0707071 10:0.777778 11:0.3 12:0.27 13:0.25 
0.21320772225208973 0 0.1914244320787869 0.14016914314361348 0 0 0.12474797049488412 0.24194633634337245 0.183692270798301 1:0.686869 2:1 3:0.30303 4:0.767677 5:0.0707071 6:0.525253 7:0.262626 8:0.262626 9:0.020202 10:0.919192 11:1 12:0.2 13:0.39 14:0.12 
0.21320772225208973 0.11245545782455062 0.1914244320787869 0.14016914314361348 0.12462944148054841 0.093647812526579721 0 0.24194633634337245 0.183692270798301 1:1 2:0.969697 3:0.878788 4:1 5:0.525253 6:0.69697 7:0.242424 8:0.353535 9:0.161616 10:0.686869 11:0.1 12:0.58 13:0.39 14:0.29 
0.21320772225208973 0.11245545782455062 0.1914244320787869 0.14016914314361348 0.12462944148054841 0.093647812526579721 0.12474797049488412 0.24194633634337245 0.183692270798301 1:0.59596 2:1 3:0.141414 4:0.848485 5:0.494949 6:0.0909091 7:0.161616 8:0.565657 9:1 10:0.171717 11:0.69 12:0.43 13:0.2 14:0.31 
0 0.11245545782455062 0.1914244320787869 0.14016914314361348 0.12462944148054841 0.093647812526579721 0 0 0 1:1 2:1 3:0.666667 4:0.989899 5:0.252525 6:0.676768 7:0.333333 8:0.141414 9:0.878788 10:0.0909091 11:0.6 12:0.31 13:0.26 14:0.04 
0.21320772225208973 0.11245545782455062 0 0 0.12462944148054841 0.093647812526579721 0.12474797049488412 0 0 1:1 2:1 3:0.545455 4:0.878788 5:0.191919 6:0.606061 7:0.272727 8:0.181818 9:0.656566 10:0.131313 11:0.62 12:0.43 13:0.17 14:0.43 
0 0 0 0 0 0 0.12474797049488412 0 0.183692270798301 1:0.545455 2:1 3:0.262626 4:0.939394 5:0.040404 6:0.555556 7:0.0707071 8:0.171717 9:0.585859 10:1 11:0.23 12:0.45 13:0.31 14:0.08 
0 0 0 0 0.12462944148054841 0 0 0 0 1:1 2:1 3:0.575758 4:0.808081 5:0.232323 6:0.555556 7:0.272727 8:0.10101 9:0.636364 10:0.020202 11:0.62 12:0.25 13:0.07 14:0.25 
0.21320772225208973 0.11245545782455062 0.1914244320787869 0.14016914314361348 0.12462944148054841 0.093647812526579721 0.12474797049488412 0.24194633634337245 0.183692270798301 1:1 2:1 3:0.606061 4:0.848485 5:0.242424 6:0.575758 7:0.272727 8:0.222222 9:0.767677 10:0.0808081 11:0.85 12:0.39 13:0.3 14:0.5 
0 0 0.1914244320787869 0.14016914314361348 0 0.093647812526579721 0.12474797049488412 0 0.183692270798301 1:0.535354 2:1 3:0.282828 4:0.868687 5:0.0505051 6:0.545455 7:0.222222 8:0.474747 9:1 10:0.20202 11:0.4 12:0.35 13:0.12 14:0.17 
0.21320772225208973 0 0 0 0 0 0.12474797049488412 0 0 1:1 2:1 3:0.474747 4:0.878788 5:0.131313 6:0.59596 7:0.272727 8:0.252525 9:0.747475 10:0.10101 11:0.58 12:0.42 13:0.05 14:0.49 
0.21320772225208973 0.11245545782455062 0.1914244320787869 0.14016914314361348 0.12462944148054841 0.093647812526579721 0.12474797049488412 0.24194633634337245 0.183692270798301 1:0.575758 2:1 3:0.20202 4:0.79798 5:0.474747 6:0.0808081 7:0.131313 8:0.555556 9:1 10:0.151515 11:0.64 12:0.27 13:0.25 14:0.08 
0.21320772225208973 0.11245545782455062 0.1914244320787869 0 0.12462944148054841 0.093647812526579721 0.12474797049488412 0.24194633634337245 0.183692270798301 1:1 2:1 3:0.525253 4:0.929293 5:0.212121 6:0.59596 7:0.131313 8:0.20202 9:0.575758 10:0.969697 11:0.26 12:0.58 13:0.54 14:0.5 
0.21320772225208973 0.11245545782455062 0 0.14016914314361348 0.12462944148054841 0.093647812526579721 0.12474797049488412 0.24194633634337245 0 1:0.454545 2:1 3:0.272727 4:0.979798 5:0.0606061 6:0.636364 7:0.121212 8:0.282828 9:0.545455 10:0.0505051 11:1 12:0.15 13:0.46 14:0.17 
0.21320772225208973 0.11245545782455062 0.1914244320787869 0.14016914314361348 0.12462944148054841 0.093647812526579721 0.12474797049488412 0.24194633634337245 0.183692270798301 1:0.323232 2:1 3:0.0909091 4:0.757576 5:0.474747 6:0.030303 7:0.191919 8:0.424242 9:1 10:0.0909091 11:0.81 12:0.31 13:0.21 14:0.25 
0.21320772225208973 0.11245545782455062 0.1914244320787869 0.14016914314361348 0.12462944148054841 0.093647812526579721 0.12474797049488412 0.24194633634337245 0.183692270798301 1:0.525253 2:1 3:0.515152 4:0.828283 5:0.171717 6:0.515152 7:0.181818 8:0.444444 9:1 10:0.161616 11:0.52 12:0.37 13:0.28 14:0.13 
0.21320772225208973 0.11245545782455062 0 0 0.12462944148054841 0.093647812526579721 0 0 0 1:1 2:1 3:0.59596 4:0.909091 5:0.222222 6:0.626263 7:0.313131 8:0.111111 9:0.646465 10:0.0505051 11:0.69 12:0.36 13:0.11 14:0.38 
0.21320772225208973 0.032173937251316863 0.1914244320787869 0.14016914314361348 0.12462944148054841 0.093647812526579721 0.12474797049488412 0.24194633634337245 0.183692270798301 1:0.515152 2:1 3:0.171717 4:0.757576 5:0.454545 6:0.0808081 7:0.161616 8:0.606061 9:0.181818 10:1 11:0.38 12:0.54 13:0.22 14:0.18 
0.21320772225208973 0.11245545782455062 0.1914244320787869 0.14016914314361348 0.12462944148054841 0 0.12474797049488412 0.24194633634337245 0.183692270798301 1:0.969697 2:1 3:0.484848 4:0.919192 5:0.141414 6:0.646465 7:0.343434 8:0.141414 9:0.0505051 10:0.737374 11:1 12:0.23 13:0.45 14:0.29 
0.21320772225208973 0.11245545782455062 0.1914244320787869 0.14016914314361348 0.12462944148054841 0.093647812526579721 0.12474797049488412 0.24194633634337245 0 1:0.969697 2:1 3:0.555556 4:0.939394 5:0.191919 6:0.646465 7:0.313131 8:0.191919 9:0.929293 11:1 12:0.28 13:0.3 14:0.34 
0.21320772225208973 0 0.1914244320787869 0 0 0 0.12474797049488412 0 0.183692270798301 1:1 2:1 3:0.515152 4:0.79798 5:0.151515 6:0.494949 7:0.161616 8:0.474747 9:0.969697 10:0.171717 11:0.69 12:0.45 13:0.16 14:0.37 
0 0 0.1914244320787869 0 0 0 0 0 0 1:1 2:1 3:0.484848 4:0.969697 5:0.141414 6:0.646465 7:0.272727 8:0.323232 9:0.848485 10:0.161616 11:0.62 12:0.39 13:0.2 14:0.12 
0.21320772225208973 0.11245545782455062 0 0.14016914314361348 0.12462944148054841 0.093647812526579721 0 0.24194633634337245 0.183692270798301 1:1 2:0.838384 3:0.919192 4:1 5:0.393939 6:0.737374 8:0.393939 9:0.0505051 10:0.666667 11:0.03 12:0.58 13:0.39 14:0.43 
0 0 0 0.14016914314361348 0 0 0.12474797049488412 0 0 1:0.626263 2:1 3:0.313131 4:0.727273 5:0.10101 6:0.444444 7:0.131313 8:0.444444 9:1 10:0.0909091 11:0.68 12:0.19 13:0.13 14:0.1 
0 0 0.1914244320787869 0.14016914314361348 0.12462944148054841 0.093647812526579721 0.12474797049488412 0.24194633634337245 0.183692270798301 1:0.505051 2:1 3:0.222222 4:0.737374 5:0.0606061 6:0.333333 7:0.343434 8:0.989899 9:0.0505051 10:1 11:0.34 12:0.34 13:0.31 14:0.01 
0.21320772225208973 0.11245545782455062 0 0 0.12462944148054841 0.093647812526579721 0 0.24194633634337245 0 1:1 2:1 3:0.717172 4:0.89899 5:0.40404 6:0.616162 7:0.111111 8:0.30303 9:0.0808081 10:0.565657 11:0.1 12:0.47 13:0.33 14:0.23 
0.21320772225208973 0.11245545782455062 0 0 0 0 0 0 0 1:1 2:1 3:0.525253 4:0.838384 5:0.171717 6:0.575758 7:0.272727 8:0.181818 9:0.757576 10:0.030303 11:0.84 12:0.27 13:0.24 14:0.27 
0 0.11245545782455062 0 0 0.12462944148054841 0 0 0.24194633634337245 0 1:1 2:1 3:0.515152 4:0.939394 5:0.212121 6:0.69697 8:0.434343 9:0.141414 10:0.383838 11:0.7 12:0.19 13:0.29 14:0.28 
0.21320772225208973 0.11245545782455062 0 0.14016914314361348 0.12462944148054841 0 0.12474797049488412 0.24194633634337245 0 1:0.656566 2:1 3:0.323232 4:0.777778 5:0.10101 6:0.525253 7:0.242424 8:0.191919 9:0.767677 11:1 12:0.24 13:0.41 14:0.26 
0.21320772225208973 0 0.1914244320787869 0.14016914314361348 0 0 0.12474797049488412 0.24194633634337245 0.183692270798301 1:0.808081 2:1 3:0.454545 4:0.747475 5:0.181818 6:0.484848 7:0.212121 8:0.282828 9:1 10:0.0909091 11:0.97 12:0.33 13:0.2 14:0.32 
0.21320772225208973 0 0 0 0 0 0.12474797049488412 0.24194633634337245 0.183692270798301 1:0.545455 2:1 3:0.20202 4:0.727273 5:0.0606061 6:0.414141 7:0.161616 8:0.0909091 9:0.656566 10:1 11:0.24 12:0.55 13:0.4 14:0.32 
0 0.11245545782455062 0.1914244320787869 0.14016914314361348 0 0.093647812526579721 0 0 0 1:0.787879 2:0.89899 3:0.676768 4:1 5:0.282828 6:0.666667 7:0.333333 8:0.010101 9:0.949495 10:1 11:0.27 12:0.05 13:0.2 
0.21320772225208973 0.11245545782455062 0 0.14016914314361348 0.12462944148054841 0 0.12474797049488412 0.24194633634337245 0 1:0.727273 2:1 3:0.474747 4:0.69697 5:0.222222 6:0.40404 7:0.20202 8:0.0808081 9:0.686869 11:1 12:0.22 13:0.46 14:0.17 
0.21320772225208973 0.11245545782455062 0 0.14016914314361348 0.12462944148054841 0.093647812526579721 0 0.24194633634337245 0 1:1 2:1 3:0.808081 4:0.989899 5:0.474747 6:0.737374 7:0.181818 8:0.464646 9:0.141414 10:0.292929 11:0.51 12:0.25 13:0.08 14:0.29 
0.21320772225208973 0.11245545782455062 0.1914244320787869 0.14016914314361348 0.12462944148054841 0.093647812526579721 0.12474797049488412 0.24194633634337245 0.183692270798301 1:0.69697 2:1 3:0.222222 4:0.818182 5:0.505051 6:0.0707071 7:0.171717 8:0.707071 10:1 11:0.28 12:0.29 13:0.29 14:0.11 
0.21320772225208973 0.11245545782455062 0.1914244320787869 0.14016914314361348 0.12462944148054841 0.093647812526579721 0 0.24194633634337245 0.183692270798301 1:1 2:0.989899 3:0.888889 4:1 5:0.454545 6:0.747475 7:0.141414 8:0.474747 9:0.191919 10:0.424242 11:0.96 12:0.1 13:0.24 14:0.22 
0 0.11245545782455062 0 0 0.12462944148054841 0 0 0 0 1:1 2:1 3:0.585859 4:0.808081 5:0.282828 6:0.545455 7:0.030303 8:0.252525 9:0.10101 10:0.59596 11:0.12 12:0.51 13:0.3 14:0.21 
0.21320772225208973 0.11245545782455062 0.1914244320787869 0.14016914314361348 0.12462944148054841 0.093647812526579721 0.12474797049488412 0.24194633634337245 0.183692270798301 1:0.969697 2:1 3:0.646465 4:0.818182 5:0.323232 6:0.525253 7:0.141414 8:0.191919 9:0.535354 10:1 11:0.19 12:0.58 13:0.39 14:0.35 
0.21320772225208973 0.11245545782455062 0 0 0.12462944148054841 0.093647812526579721 0 0.24194633634337245 0 1:1 2:0.979798 3:0.59596 4:1 5:0.282828 6:0.727273 7:0.0909091 8:0.40404 9:0.0505051 10:0.0505051 11:0.46 12:0.46 13:0.27 14:0.3 
0.21320772225208973 0 0.1914244320787869 0.14016914314361348 0 0 0.12474797049488412 0.24194633634337245 0.183692270798301 1:0.757576 2:1 3:0.363636 4:0.757576 5:0.0707071 6:0.494949 7:0.20202 8:0.40404 9:1 10:0.0707071 11:0.95 12:0.29 13:0.34 14:0.21 
0 0 0.1914244320787869 0.14016914314361348 0 0 0.12474797049488412 0 0.183692270798301 1:0.656566 2:1 3:0.242424 4:0.79798 5:0.030303 6:0.525253 7:0.242424 8:0.252525 9:0.939394 10:1 11:0.22 12:0.45 13:0.08 
0.21320772225208973 0.11245545782455062 0 0.14016914314361348 0.12462944148054841 0.093647812526579721 0.12474797049488412 0.24194633634337245 0.183692270798301 1:1 2:1 3:0.767677 4:0.808081 5:0.474747 6:0.555556 7:0.222222 8:0.292929 9:0.242424 10:0.020202 11:0.81 12:0.58 13:0.22 14:0.28 
0 0 0 0 0 0 0.12474797049488412 0.2205911689126118 0.183692270798301 1:0.626263 2:1 3:0.282828 4:0.828283 5:0.0909091 6:0.494949 7:0.181818 8:0.151515 9:0.666667 10:1 11:0.19 12:0.48 13:0.31 14:0.19 
0 0 0.1914244320787869 0.14016914314361348 0 0 0 0 0.183692270798301 1:1 2:1 3:0.565657 4:0.909091 5:0.212121 6:0.616162 7:0.30303 8:0.171717 10:1 11:0.85 12:0.22 13:0.1 14:0.07 
0.21320772225208973 0.11245545782455062 0.1914244320787869 0.14016914314361348 0.12462944148054841 0.093647812526579721 0.12474797049488412 0.24194633634337245 0.183692270798301 1:0.818182 2:1 3:0.292929 4:0.89899 5:0.585859 6:0.242424 7:0.444444 8:1 9:0.141414 10:0.707071 11:0.4 12:0.1 13:0.33 
0 0.11245545782455062 0 0 0.12462944148054841 0 0 0 0 1:1 2:1 3:0.565657 4:0.969697 5:0.252525 6:0.727273 7:0.010101 8:0.434343 9:0.111111 10:0.363636 11:0.58 12:0.25 13:0.15 14:0.31 
0 0 0.1914244320787869 0 0 0 0 0 0.183692270798301 1:1 2:1 3:0.464646 4:0.909091 5:0.10101 6:0.585859 7:0.212121 8:0.484848 9:0.030303 10:0.969697 11:0.25 12:0.38 13:0.29 14:0.17 
0.21320772225208973 0.11245545782455062 0 0.14016914314361348 0.12462944148054841 0.093647812526579721 0 0.24194633634337245 0 1:1 2:1 3:0.757576 4:0.767677 5:0.545455 6:0.535354 7:0.343434 8:0.282828 9:0.30303 10:0.010101 11:0.67 12:0.41 13:0.18 14:0.22 
0.21320772225208973 0 0 0 0 0 0.12474797049488412 0 0 1:1 2:1 3:0.515152 4:0.787879 5:0.171717 6:0.535354 7:0.242424 8:0.272727 9:0.848485 10:0.0808081 11:0.66 12:0.34 13:0.03 14:0.39 
0.21320772225208973 0.11245545782455062 0.1914244320787869 0.14016914314361348 0.12462944148054841 0.093647812526579721 0.12474797049488412 0.24194633634337245 0 1:0.606061 2:0.939394 3:0.565657 4:1 5:0.141414 6:0.676768 7:0.313131 8:0.272727 9:1 10:0.0606061 11:0.65 12:0.34 13:0.33 14:0.14 
0.21320772225208973 0.11245545782455062 0 0 0.12462944148054841 0.093647812526579721 0 0.24194633634337245 0.183692270798301 1:1 2:1 3:0.686869 4:0.959596 5:0.373737 6:0.656566 7:0.131313 8:0.323232 9:0.181818 10:0.676768 11:0.03 12:0.52 13:0.32 14:0.25 
0.21320772225208973 0 0.1914244320787869 0 0 0 0.12474797049488412 0 0.183692270798301 1:0.959596 2:1 3:0.505051 4:0.747475 5:0.181818 6:0.474747 7:0.181818 8:0.40404 9:1 10:0.161616 11:0.81 12:0.43 13:0.08 14:0.42 
0.21320772225208973 0.11245545782455062 0 0 0.12462944148054841 0 0.12474797049488412 0 0 1:1 2:1 3:0.525253 4:0.929293 5:0.131313 6:0.656566 7:0.313131 8:0.151515 9:0.727273 10:0.030303 11:0.76 12:0.36 13:0.19 14:0.37 
0.21320772225208973 0 0.1914244320787869 0 0 0 0.12474797049488412 0 0.183692270798301 1:0.858586 2:1 3:0.474747 4:0.787879 5:0.121212 6:0.515152 7:0.212121 8:0.444444 9:1 10:0.151515 11:0.76 12:0.4 13:0.06 14:0.35 
0.21320772225208973 0 0.1914244320787869 0 0 0 0.12474797049488412 0.24194633634337245 0 1:0.888889 2:1 3:0.333333 4:0.808081 5:0.0808081 6:0.535354 7:0.242424 8:0.252525 9:0.979798 10:0.0505051 11:1 12:0.26 13:0.32 14:0.25 
0.21320772225208973 0.11245545782455062 0.1914244320787869 0.14016914314361348 0.12462944148054841 0.093647812526579721 0.12474797049488412 0.24194633634337245 0.183692270798301 1:0.707071 2:0.959596 3:0.313131 4:1 5:0.575758 6:0.040404 7:0.141414 8:0.707071 10:1 11:0.42 12:0.3 13:0.41 14:0.1 
0.21320772225208973 0.11245545782455062 0.1914244320787869 0.14016914314361348 0.12462944148054841 0.093647812526579721 0 0.24194633634337245 0 1:1 2:0.878788 3:0.787879 4:1 5:0.414141 6:0.737374 7:0.141414 8:0.40404 9:0.262626 10:0.0707071 11:0.78 12:0.48 13:0.17 14:0.18 
0 0 0 0 0 0 0 0 0.183692270798301 1:0.929293 2:1 3:0.525253 4:0.767677 5:0.242424 6:0.484848 7:0.0707071 8:0.181818 9:0.434343 10:1 11:0.11 12:0.59 13:0.18 14:0.1 
0 0 0.1914244320787869 0 0 0 0 0 0 1:0.969697 2:1 3:0.40404 4:0.89899 5:0.030303 6:0.575758 7:0.212121 8:0.515152 9:1 10:0.212121 11:0.49 12:0.38 13:0.08 14:0.13 
0.21320772225208973 0.11245545782455062 0 0.14016914314361348 0.12462944148054841 0.093647812526579721 0 0.24194633634337245 0.183692270798301 1:1 2:1 3:0.747475 4:0.828283 5:0.424242 6:0.565657 7:0.191919 8:0.272727 9:0.30303 10:0.767677 11:0.06 12:0.48 13:0.24 14:0.24 
0.21320772225208973 0.11245545782455062 0 0.085737698001982332 0.12462944148054841 0.093647812526579721 0 0.24194633634337245 0 1:1 2:1 3:0.717172 4:0.919192 5:0.343434 6:0.636364 7:0.040404 8:0.323232 9:0.525253 10:0.020202 11:0.79 12:0.28 13:0.24 14:0.36 
0 0.11245545782455062 0 0 0.12462944148054841 0.093647812526579721 0 0 0 1:1 2:1 3:0.666667 4:0.919192 5:0.363636 6:0.686869 7:0.121212 8:0.424242 9:0.131313 10:0.292929 11:0.51 12:0.21 13:0.11 14:0.2 
0 0 0 0.14016914314361348 0 0 0 0 0 1:1 2:1 3:0.565657 4:0.969697 5:0.20202 6:0.656566 7:0.313131 8:0.161616 9:0.848485 10:0.020202 11:0.64 12:0.23 13:0.04 14:0.03 
0.21320772225208973 0.11245545782455062 0.1914244320787869 0.14016914314361348 0.12462944148054841 0.093647812526579721 0.12474797049488412 0.24194633634337245 0 1:0.636364 2:0.949495 3:0.535354 4:1 5:0.151515 6:0.666667 7:0.292929 8:0.40404 9:1 10:0.0808081 11:0.43 12:0.31 13:0.38 14:0.05 
0 0 0 0.14016914314361348 0 0 0.12474797049488412 0 0 1:0.494949 2:1 3:0.171717 4:0.757576 5:0.010101 6:0.474747 7:0.191919 8:0.393939 9:1 10:0.0606061 11:0.68 12:0.28 13:0.27 
0.21320772225208973 0 0 0 0 0 0.12474797049488412 0.24194633634337245 0.183692270798301 1:0.828283 2:1 3:0.484848 4:0.767677 5:0.181818 6:0.484848 7:0.020202 8:0.191919 9:0.383838 10:1 11:0.12 12:0.65 13:0.31 14:0.26 
0 0.11245545782455062 0.1914244320787869 0.14016914314361348 0.12462944148054841 0.093647812526579721 0 0 0 1:1 2:1 3:0.545455 4:0.868687 5:0.222222 6:0.646465 7:0.383838 8:0.0909091 9:0.434343 10:0.848485 11:0.14 12:0.59 13:0.28 
0.21320772225208973 0 0 0 0.12462944148054841 0.093647812526579721 0.12474797049488412 0.24194633634337245 0.183692270798301 1:0.373737 2:1 3:0.151515 4:0.79798 5:0.020202 6:0.494949 7:0.191919 8:0.474747 9:0.040404 10:1 11:0.2 12:0.47 13:0.24 14:0.22 
0.21320772225208973 0 0 0 0.12462944148054841 0.093647812526579721 0 0 0 1:1 2:1 3:0.555556 4:0.878788 5:0.212121 6:0.59596 7:0.242424 8:0.272727 9:0.727273 10:0.121212 11:0.48 12:0.4 13:0.02 14:0.41 
0.21320772225208973 0 0.1914244320787869 0.14016914314361348 0 0 0.12474797049488412 0.24194633634337245 0 1:0.686869 2:1 3:0.30303 4:0.767677 5:0.0606061 6:0.494949 7:0.222222 8:0.30303 9:1 10:0.010101 11:0.94 12:0.24 13:0.33 14:0.21 
0 0.11245545782455062 0.1914244320787869 0.14016914314361348 0.12462944148054841 0.093647812526579721 0.12474797049488412 0.24194633634337245 0.183692270798301 1:0.666667 2:1 3:0.232323 4:0.777778 5:0.484848 6:0.181818 7:0.434343 8:1 9:0.0909091 10:0.646465 11:0.28 12:0.1 13:0.18 
0.21320772225208973 0.11245545782455062 0.1914244320787869 0.14016914314361348 0.12462944148054841 0.093647812526579721 0 0.24194633634337245 0.183692270798301 1:1 2:0.767677 3:0.919192 4:1 5:0.484848 6:0.757576 7:0.171717 8:0.474747 9:0.141414 10:0.373737 11:0.75 12:0.23 13:0.29 14:0.27 
0 0.11245545782455062 0.1914244320787869 0.14016914314361348 0.12462944148054841 0.093647812526579721 0.12474797049488412 0.24194633634337245 0 1:0.555556 2:1 3:0.454545 4:0.989899 5:0.131313 6:0.656566 7:0.30303 8:0.353535 9:1 10:0.0808081 11:0.58 12:0.24 13:0.32 14:0.02 
0.21320772225208973 0 0.1914244320787869 0 0 0.093647812526579721 0.12474797049488412 0.24194633634337245 0.183692270798301 1:0.737374 2:1 3:0.313131 4:0.777778 5:0.121212 6:0.383838 7:0.141414 8:0.707071 9:0.0505051 10:1 11:0.41 12:0.47 13:0.42 14:0.16 
0.21320772225208973 0 0.1914244320787869 0.14016914314361348 0 0 0.12474797049488412 0.24194633634337245 0.183692270798301 1:0.545455 2:1 3:0.212121 4:0.767677 5:0.010101 6:0.464646 7:0.151515 8:0.454545 9:1 10:0.0909091 11:0.8 12:0.3 13:0.31 14:0.16 
0 0.11245545782455062 0.1914244320787869 0.14016914314361348 0.12462944148054841 0.093647812526579721 0.12474797049488412 0.24194633634337245 0.183692270798301 1:0.686869 2:1 3:0.707071 4:0.858586 5:0.111111 6:0.565657 7:0.232323 8:0.686869 9:1 10:0.292929 11:0.12 12:0.39 13:0.31 14:0.12 
0 0.11245545782455062 0 0 0.12462944148054841 0 0 0 0 1:1 2:1 3:0.636364 4:0.858586 5:0.272727 6:0.565657 7:0.020202 8:0.232323 9:0.282828 10:0.79798 11:0.15 12:0.5 13:0.34 14:0.18 
0.21320772225208973 0.11245545782455062 0 0.14016914314361348 0.12462944148054841 0.093647812526579721 0 0.24194633634337245 0 1:1 2:1 3:0.737374 4:0.858586 5:0.464646 6:0.606061 7:0.222222 8:0.313131 9:0.131313 10:0.494949 11:0.01 12:0.38 13:0.25 14:0.26 
0 0.11245545782455062 0 0 0.12462944148054841 0.093647812526579721 0 0 0 1:1 2:1 3:0.646465 4:0.848485 5:0.323232 6:0.636364 7:0.0909091 8:0.383838 9:0.10101 10:0.343434 11:0.54 12:0.22 13:0.1 14:0.24 
0 0.11245545782455062 0 0 0.12462944148054841 0.093647812526579721 0 0.24194633634337245 0 1:1 2:1 3:0.656566 4:0.979798 5:0.282828 6:0.666667 7:0.030303 8:0.30303 9:0.181818 10:0.676768 11:0.12 12:0.49 13:0.35 14:0.21 
0.21320772225208973 0.11245545782455062 0 0 0.12462944148054841 0.093647812526579721 0.12474797049488412 0.24194633634337245 0.183692270798301 1:1 2:1 3:0.575758 4:0.828283 5:0.30303 6:0.545455 7:0.161616 8:0.232323 9:0.424242 10:0.79798 11:0.19 12:0.5 13:0.43 14:0.39 
0 0.11245545782455062 0.1914244320787869 0.14016914314361348 0.12462944148054841 0.093647812526579721 0.12474797049488412 0 0.183692270798301 1:0.646465 2:1 3:0.272727 4:0.737374 5:0.444444 6:0.121212 7:0.494949 8:1 9:0.111111 10:0.575758 11:0.24 12:0.05 13:0.13 
0.21320772225208973 0 0.00012656130835569685 0.14016914314361348 0.12462944148054841 0.093647812526579721 0.12474797049488412 0.24194633634337245 0.183692270798301 1:0.232323 2:1 3:0.0606061 4:0.717172 5:0.414141 6:0.0505051 7:0.121212 8:0.59596 9:0.0808081 10:1 11:0.29 12:0.43 13:0.23 14:0.09 
0 0 0.1914244320787869 0 0 0 0 0 0.183692270798301 1:0.909091 2:1 3:0.373737 4:0.969697 5:0.0505051 6:0.646465 7:0.272727 8:0.434343 9:0.020202 10:1 11:0.15 12:0.5 13:0.24 14:0.03 
0.21320772225208973 0.11245545782455062 0 0.14016914314361348 0.12462944148054841 0.093647812526579721 0 0.24194633634337245 0 1:1 2:1 3:0.686869 4:0.828283 5:0.353535 6:0.616162 7:0.10101 8:0.373737 9:0.111111 10:0.383838 11:0.7 12:0.18 13:0.26 14:0.26 
0.21320772225208973 0.11245545782455062 0.1914244320787869 0.14016914314361348 0.12462944148054841 0.093647812526579721 0.12474797049488412 0.24194633634337245 0.183692270798301 1:0.626263 2:0.929293 3:0.686869 4:1 5:0.373737 6:0.666667 7:0.151515 8:0.30303 9:0.424242 10:0.030303 11:1 12:0.22 13:0.48 14:0.25 
0.21320772225208973 0.11245545782455062 0.1914244320787869 0.14016914314361348 0 0.093647812526579721 0.12474797049488412 0.24194633634337245 0.183692270798301 1:0.949495 2:1 3:0.636364 4:0.808081 5:0.353535 6:0.484848 7:0.262626 8:0.111111 9:0.747475 10:1 11:0.27 12:0.51 13:0.41 14:0.28 
0 0.11245545782455062 0 0 0.12462944148054841 0 0 0.24194633634337245 0 1:1 2:1 3:0.565657 4:0.89899 5:0.272727 6:0.666667 7:0.0505051 8:0.424242 9:0.141414 10:0.363636 11:0.7 12:0.16 13:0.28 14:0.27 
0.21320772225208973 0.11245545782455062 0 0 0.12462944148054841 0.093647812526579721 0.12474797049488412 0 0 1:1 2:1 3:0.666667 4:0.858586 5:0.252525 6:0.59596 7:0.30303 8:0.151515 9:0.707071 10:0.0606061 11:0.65 12:0.36 13:0.05 14:0.48 
0.21320772225208973 0 0.1914244320787869 0.14016914314361348 0 0 0.12474797049488412 0 0 1:0.979798 2:1 3:0.515152 4:0.767677 5:0.171717 6:0.515152 7:0.242424 8:0.242424 9:1 10:0.040404 11:0.97 12:0.29 13:0.23 14:0.22 
0 0.11245545782455062 0 0.14016914314361348 0.12462944148054841 0.093647812526579721 0 0.24194633634337245 0 1:1 2:1 3:0.717172 4:0.89899 5:0.343434 6:0.656566 7:0.0505051 8:0.373737 9:0.0707071 10:0.494949 11:0.69 12:0.19 13:0.14 14:0.22 
0 0 0 0 0 0 0.12474797049488412 0 0 1:0.626263 2:1 3:0.272727 4:0.787879 5:0.030303 6:0.505051 7:0.20202 8:0.363636 9:1 10:0.0808081 11:0.68 12:0.27 13:0.07 14:0.19 
0 0 0 0 0 0.093647812526579721 0 0 0 1:1 2:1 3:0.535354 4:0.79798 5:0.232323 6:0.545455 7:0.272727 8:0.565657 10:0.606061 11:0.22 12:0.15 
0.21320772225208973 0 0.1914244320787869 0.14016914314361348 0.12462944148054841 0.093647812526579721 0.12474797049488412 0.24194633634337245 0.183692270798301 1:0.575758 2:1 3:0.161616 4:0.767677 5:0.464646 6:0.0707071 7:0.151515 8:0.565657 9:1 10:0.20202 11:0.68 12:0.42 13:0.09 14:0.37 
0 0 0.1914244320787869 0.14016914314361348 0 0 0 0 0 1:1 2:1 3:0.505051 4:0.949495 5:0.151515 6:0.636364 7:0.272727 8:0.353535 9:0.979798 10:0.111111 11:0.68 12:0.35 13:0.06 14:0.24 
0 0 0 0.14016914314361348 0 0 0 0 0 1:1 2:1 3:0.585859 4:0.818182 5:0.30303 6:0.555556 7:0.161616 8:0.262626 9:0.343434 10:0.828283 11:0.49 12:0.16 13:0.08 
0.21320772225208973 0.11245545782455062 0.1914244320787869 0 0.12462944148054841 0.093647812526579721 0.12474797049488412 0.24194633634337245 0.183692270798301 1:1 2:1 3:0.545455 4:1 5:0.121212 6:0.757576 7:0.454545 8:0.111111 9:0.141414 10:0.636364 11:0.78 12:0.27 13:0.26 14:0.46 
0 0 0.1914244320787869 0.14016914314361348 0 0 0.12474797049488412 0 0.183692270798301 1:0.676768 2:1 3:0.222222 4:0.767677 5:0.40404 6:0.0606061 7:0.020202 8:0.636364 9:1 10:0.30303 11:0.56 12:0.39 13:0.14 14:0.11 
0.21320772225208973 0.11245545782455062 0.1914244320787869 0.14016914314361348 0.12462944148054841 0.093647812526579721 0.12474797049488412 0.24194633634337245 0.183692270798301 1:0.616162 2:1 3:0.262626 4:0.818182 5:0.505051 6:0.010101 7:0.181818 8:0.505051 9:1 10:0.171717 11:0.62 12:0.4 13:0.2 14:0.22 
0 0 0.1914244320787869 0 0 0 0 0 0 1:1 2:1 3:0.434343 4:0.909091 5:0.0606061 6:0.59596 7:0.232323 8:0.454545 9:0.989899 10:0.232323 11:0.41 12:0.3 13:0.19 
0 0.11245545782455062 0 0 0.12462944148054841 0.093647812526579721 0 0 0 1:1 2:1 3:0.636364 4:0.989899 5:0.282828 6:0.777778 7:0.030303 8:0.505051 9:0.171717 10:0.292929 11:0.42 12:0.26 13:0.22 
0 0.11245545782455062 0 0 0.12462944148054841 0.093647812526579721 0 0 0 1:1 2:0.848485 3:0.585859 4:1 5:0.161616 6:0.757576 7:0.383838 8:0.191919 9:0.010101 10:0.676768 11:0.49 12:0.29 13:0.01 14:0.21 
0.21320772225208973 0 0.1914244320787869 0.14016914314361348 0.12462944148054841 0.093647812526579721 0.12474797049488412 0 0.183692270798301 1:0.646465 2:1 3:0.232323 4:0.838384 5:0.474747 6:0.0808081 7:0.0909091 8:0.606061 9:1 10:0.232323 11:0.58 12:0.47 13:0.02 14:0.46 
0.21320772225208973 0.11245545782455062 0.1914244320787869 0 0.12462944148054841 0.093647812526579721 0.12474797049488412 0.24194633634337245 0.183692270798301 1:1 2:1 3:0.575758 4:0.828283 5:0.292929 6:0.555556 7:0.181818 8:0.242424 9:0.454545 10:0.838384 11:0.16 12:0.52 13:0.4 14:0.46 
0 0.11245545782455062 0 0 0.12462944148054841 0.093647812526579721 0 0 0 1:1 2:1 3:0.666667 4:0.757576 5:0.383838 6:0.505051 7:0.141414 8:0.222222 9:0.282828 10:0.727273 11:0.1 12:0.46 13:0.26 14:0.22 
0 0.11245545782455062 0 0 0.12462944148054841 0.093647812526579721 0 0 0 1:1 2:1 3:0.616162 4:0.89899 5:0.30303 6:0.606061 7:0.111111 8:0.272727 9:0.323232 10:0.777778 11:0.13 12:0.44 13:0.27 14:0.1 
0.21320772225208973 0.11245545782455062 0.1914244320787869 0.14016914314361348 0.12462944148054841 0.093647812526579721 0 0.24194633634337245 0 1:1 2:1 3:0.727273 4:0.939394 5:0.474747 6:0.656566 7:0.292929 8:0.343434 9:0.343434 10:0.010101 11:0.74 12:0.44 13:0.15 14:0.14 
0 0.11245545782455062 0 0.10723702051920424 0.12462944148054841 0.093647812526579721 0 0.24194633634337245 0 1:1 2:1 3:0.606061 4:0.959596 5:0.323232 6:0.727273 7:0.10101 8:0.474747 9:0.20202 10:0.232323 11:0.59 12:0.15 13:0.17 14:0.22 
0.21320772225208973 0.11245545782455062 0.1914244320787869 0 0.12462944148054841 0.093647812526579721 0.12474797049488412 0.24194633634337245 0.183692270798301 1:0.929293 2:0.929293 3:0.59596 4:1 5:0.181818 6:0.707071 7:0.383838 8:0.222222 9:0.0707071 10:1 11:0.09 12:0.86 13:0.26 14:0.38 
0.21320772225208973 0 0.1914244320787869 0.14016914314361348 0 0.093647812526579721 0.12474797049488412 0.24194633634337245 0.183692270798301 1:0.787879 2:1 3:0.454545 4:0.747475 5:0.212121 6:0.474747 7:0.212121 8:0.171717 9:0.646465 10:1 11:0.17 12:0.51 13:0.32 14:0.2 
0 0 0.1914244320787869 0.14016914314361348 0 0 0 0 0.183692270798301 1:0.565657 2:1 3:0.343434 4:0.868687 5:0.0808081 6:0.575758 7:0.272727 8:0.282828 9:0.010101 10:1 11:0.71 12:0.16 13:0.05 14:0.05 
0.21320772225208973 0 0.1914244320787869 0.14016914314361348 0.12462944148054841 0.093647812526579721 0.12474797049488412 0.24194633634337245 0.183692270798301 1:0.262626 2:1 3:0.0707071 4:0.69697 5:0.393939 6:0.131313 7:0.0808081 8:0.646465 9:1 10:0.212121 11:0.62 12:0.42 13:0.14 14:0.33 
0.21320772225208973 0 0.1914244320787869 0.14016914314361348 0 0 0.12474797049488412 0.24194633634337245 0.183692270798301 1:0.747475 2:1 3:0.313131 4:0.757576 5:0.0808081 6:0.494949 7:0.212121 8:0.363636 9:1 10:0.141414 11:0.89 12:0.4 13:0.39 14:0.22 
0.21320772225208973 0.11245545782455062 0 0.14016914314361348 0.12462944148054841 0.093647812526579721 0 0.24194633634337245 0.183692270798301 1:1 2:0.878788 3:0.767677 4:1 5:0.424242 6:0.79798 7:0.161616 8:0.535354 9:0.0505051 10:0.232323 11:0.24 12:0.4 13:0.22 14:0.26 
0.21320772225208973 0 0.1914244320787869 0 0 0 0.12474797049488412 0 0 1:1 2:1 3:0.525253 4:1 5:0.131313 6:0.656566 7:0.242424 8:0.40404 9:0.949495 10:0.171717 11:0.66 12:0.47 13:0.09 14:0.34 
0 0.11245545782455062 0 0 0.12462944148054841 0.093647812526579721 0 0 0 1:1 2:1 3:0.666667 4:0.89899 5:0.383838 6:0.69697 7:0.131313 8:0.464646 9:0.181818 10:0.212121 11:0.37 12:0.21 13:0.03 14:0.3 
0 0 0.1914244320787869 0 0 0 0 0 0 1:0.949495 2:1 3:0.383838 4:0.868687 5:0.030303 6:0.525253 7:0.141414 8:0.606061 9:1 10:0.30303 11:0.38 12:0.31 13:0.21 
0 0 0.1914244320787869 0 0 0 0 0 0 1:1 2:1 3:0.383838 4:0.89899 6:0.585859 7:0.212121 8:0.454545 9:0.929293 10:0.212121 11:0.54 12:0.46 13:0.26 
0 0 0 0 0 0 0.051223122931972224 0 0 1:0.59596 2:1 3:0.242424 4:0.757576 6:0.484848 7:0.20202 8:0.414141 9:1 10:0.0606061 11:0.62 12:0.18 13:0.05 14:0.06 
0 0 0 0 0 0 0.12474797049488412 0 0.183692270798301 1:0.707071 2:1 3:0.333333 4:0.737374 5:0.10101 6:0.414141 7:0.232323 8:0.0808081 9:0.757576 10:1 11:0.22 12:0.45 13:0.24 14:0.06 
0 0.11245545782455062 0 0 0 0.093647812526579721 0 0 0.183692270798301 1:1 2:1 3:0.575758 4:0.787879 5:0.292929 6:0.525253 7:0.171717 8:0.232323 9:0.414141 10:0.929293 11:0.1 12:0.52 13:0.23 14:0.16 
0 0.11245545782455062 0 0 0.12462944148054841 0 0 0.14232833560244687 0.183692270798301 1:1 2:1 3:0.525253 4:0.919192 5:0.191919 6:0.636364 7:0.10101 8:0.282828 9:0.373737 10:0.848485 11:0.08 12:0.55 13:0.32 14:0.29 
0.21320772225208973 0.11245545782455062 0.1914244320787869 0.14016914314361348 0 0 0.12474797049488412 0.24194633634337245 0.183692270798301 1:1 2:1 3:0.505051 4:0.959596 5:0.171717 6:0.666667 7:0.343434 8:0.111111 9:0.030303 10:0.787879 11:0.94 12:0.25 13:0.32 14:0.24 
0.10600900805523643 0.11245545782455062 0.1914244320787869 0.14016914314361348 0.12462944148054841 0.093647812526579721 0.12474797049488412 0.24194633634337245 0.183692270798301 1:0.767677 2:0.949495 3:0.323232 4:1 5:0.636364 6:0.191919 7:0.494949 8:1 9:0.20202 10:0.565657 11:0.35 12:0.19 13:0.03 
0 0 0 0 0 0 0 0.24194633634337245 0.183692270798301 1:1 2:1 3:0.525253 4:0.888889 5:0.161616 6:0.59596 7:0.030303 8:0.272727 9:0.323232 10:0.89899 11:0.18 12:0.6 13:0.42 14:0.22 
0.21320772225208973 0.11245545782455062 0.1914244320787869 0 0 0.093647812526579721 0.12474797049488412 0.24194633634337245 0.183692270798301 1:0.848485 2:1 3:0.484848 4:0.868687 5:0.111111 6:0.565657 7:0.212121 8:0.444444 9:1 10:0.141414 11:0.78 12:0.47 13:0.18 14:0.59 
0.21320772225208973 0.11245545782455062 0.1914244320787869 0.14016914314361348 0.12462944148054841 0.093647812526579721 0.12474797049488412 0.24194633634337245 0.183692270798301 1:0.79798 2:1 3:0.282828 4:0.838384 5:0.464646 6:0.0606061 7:0.0707071 8:0.787879 9:0.0606061 10:1 11:0.41 12:0.3 13:0.35 14:0.2 
0.21320772225208973 0 0 0 0 0 0.12474797049488412 0.24194633634337245 0.183692270798301 1:0.616162 2:1 3:0.252525 4:0.737374 5:0.141414 6:0.424242 7:0.0707071 8:0.111111 9:0.565657 10:1 11:0.19 12:0.52 13:0.35 14:0.23 
0.21320772225208973 0.11245545782455062 0.1914244320787869 0.14016914314361348 0.12462944148054841 0.093647812526579721 0.12474797049488412 0.24194633634337245 0.183692270798301 1:0.444444 2:1 3:0.333333 4:0.787879 5:0.10101 6:0.505051 7:0.222222 8:0.393939 9:1 10:0.151515 11:0.51 12:0.36 13:0.28 14:0.23 
0.21320772225208973 0.11245545782455062 0.1914244320787869 0.14016914314361348 0.12462944148054841 0.093647812526579721 0.12474797049488412 0.24194633634337245 0.183692270798301 1:0.494949 2:1 3:0.161616 4:0.777778 5:0.454545 6:0.040404 7:0.141414 8:0.535354 9:1 10:0.161616 11:0.68 12:0.32 13:0.26 14:0.1 
0 0 0.1914244320787869 0 0 0 0.12474797049488412 0 0.183692270798301 1:0.888889 2:1 3:0.424242 4:0.929293 5:0.10101 6:0.59596 7:0.232323 8:0.434343 9:1 10:0.252525 11:0.66 12:0.49 13:0.04 14:0.26 
0.21320772225208973 0.11245545782455062 0.1914244320787869 0.14016914314361348 0.12462944148054841 0.093647812526579721 0.12474797049488412 0.24194633634337245 0.183692270798301 1:0.757576 2:1 3:0.272727 4:0.959596 5:0.656566 6:0.010101 7:0.313131 8:0.444444 9:0.0808081 10:1 11:0.17 12:0.53 13:0.26 14:0.19 
0.21320772225208973 0 0 0 0 0 0.12474797049488412 0.24194633634337245 0.183692270798301 1:0.575758 2:1 3:0.20202 4:0.707071 6:0.343434 7:0.141414 8:0.656566 9:0.010101 10:1 11:0.28 12:0.5 13:0.32 14:0.19 
0 0 0 0.14016914314361348 0 0 0.12474797049488412 0 0.183692270798301 1:0.545455 2:1 3:0.323232 4:0.717172 5:0.171717 6:0.434343 7:0.181818 8:0.141414 9:0.69697 10:1 11:0.2 12:0.4 13:0.23 14:0.01 
0.21320772225208973 0 0.1914244320787869 0.14016914314361348 0 0 0.12474797049488412 0 0 1:0.919192 2:1 3:0.565657 4:0.79798 5:0.20202 6:0.525253 7:0.212121 8:0.363636 9:1 10:0.131313 11:0.76 12:0.37 13:0.07 14:0.32 
0 0.11245545782455062 0 0.14016914314361348 0.12462944148054841 0.093647812526579721 0 0 0 1:1 2:1 3:0.747475 4:0.89899 5:0.434343 6:0.666667 7:0.181818 8:0.40404 9:0.121212 10:0.252525 11:0.49 12:0.18 13:0.02 14:0.18 
0.21320772225208973 0.11245545782455062 0.1914244320787869 0.14016914314361348 0.12462944148054841 0.093647812526579721 0 0.24194633634337245 0 1:0.707071 2:0.818182 3:1 4:1 5:0.434343 6:0.686869 7:0.343434 8:0.0707071 9:0.89899 10:0.111111 11:0.75 12:0.32 13:0.05 14:0.11 
0 0.11245545782455062 0.1914244320787869 0.14016914314361348 0.12462944148054841 0.093647812526579721 0.12474797049488412 0.24194633634337245 0.183692270798301 1:0.666667 2:1 3:0.262626 4:0.747475 5:0.434343 6:0.141414 7:0.10101 8:0.727273 9:0.020202 10:1 11:0.25 12:0.4 13:0.25 14:0.03 
0 0 0 0 0 0 0.12474797049488412 0 0.183692270798301 1:0.818182 2:1 3:0.323232 4:0.818182 5:0.111111 6:0.505051 7:0.171717 8:0.171717 9:0.646465 10:1 11:0.2 12:0.42 13:0.3 14:0.09 
0.21320772225208973 0.11245545782455062 0.1914244320787869 0.14016914314361348 0.12462944148054841 0.093647812526579721 0.12474797049488412 0.24194633634337245 0.183692270798301 1:0.494949 2:1 3:0.161616 4:0.757576 5:0.484848 6:0.212121 7:0.363636 8:1 9:0.0505051 10:0.929293 11:0.29 12:0.31 13:0.2 
0.21320772225208973 0.11245545782455062 0.1914244320787869 0 0.12462944148054841 0.093647812526579721 0.12474797049488412 0.24194633634337245 0.183692270798301 1:0.525253 2:1 3:0.353535 4:0.909091 5:0.141414 6:0.545455 7:0.0909091 8:0.161616 9:0.606061 10:1 11:0.21 12:0.59 13:0.5 14:0.61 
0 0 0 0 0 0 0.12474797049488412 0 0 1:1 2:1 3:0.454545 4:0.818182 5:0.121212 6:0.535354 7:0.222222 8:0.373737 9:0.989899 10:0.10101 11:0.68 12:0.35 13:0.01 14:0.3 
0 0 0 0 0 0 0 0 0.183692270798301 1:0.929293 2:1 3:0.575758 4:0.787879 5:0.272727 6:0.494949 7:0.0707071 8:0.171717 9:0.464646 10:1 11:0.14 12:0.58 13:0.25 14:0.19 
0 0 0 0 0 0 0.12474797049488412 0.24194633634337245 0.183692270798301 1:0.535354 2:1 3:0.232323 4:0.787879 5:0.0505051 6:0.474747 7:0.121212 8:0.151515 9:0.585859 10:1 11:0.15 12:0.54 13:0.3 14:0.23 
0.21320772225208973 0.11245545782455062 0 0.14016914314361348 0.12462944148054841 0.093647812526579721 0 0.24194633634337245 0 1:1 2:1 3:0.818182 4:0.89899 5:0.505051 6:0.616162 7:0.252525 8:0.313131 9:0.111111 10:0.555556 11:0.06 12:0.46 13:0.26 14:0.12 
0.21320772225208973 0 0.1914244320787869 0.14016914314361348 0.12462944148054841 0.093647812526579721 0.12474797049488412 0.24194633634337245 0.183692270798301 1:0.484848 2:1 3:0.242424 4:0.777778 5:0.393939 6:0.0909091 7:0.010101 8:0.757576 9:1 10:0.292929 11:0.4 12:0.39 13:0.24 14:0.11 
0.21320772225208973 0.11245545782455062 0 0 0.12462944148054841 0.093647812526579721 0.12474797049488412 0.24194633634337245 0.183692270798301 1:1 2:1 3:0.535354 4:0.89899 5:0.161616 6:0.656566 7:0.343434 8:0.151515 9:0.040404 10:0.656566 11:0.66 12:0.29 13:0.22 14:0.47 
0.21320772225208973 0 0.1914244320787869 0 0 0 0.12474797049488412 0.24194633634337245 0.183692270798301 1:0.717172 2:1 3:0.30303 4:0.767677 5:0.030303 6:0.494949 7:0.20202 8:0.393939 9:1 10:0.040404 11:0.88 12:0.28 13:0.28 14:0.36 
0.21320772225208973 0.11245545782455062 0 0 0.12462944148054841 0.093647812526579721 0.12474797049488412 0.24194633634337245 0.183692270798301 1:0.808081 2:1 3:0.545455 4:0.919192 5:0.161616 6:0.606061 7:0.020202 8:0.252525 9:0.40404 10:1 11:0.14 12:0.65 13:0.44 14:0.6 
0.21320772225208973 0 0.1914244320787869 0 0 0 0.12474797049488412 0.24194633634337245 0.183692270798301 1:0.888889 2:1 3:0.373737 4:0.848485 5:0.0707071 6:0.535354 7:0.191919 8:0.444444 9:1 10:0.111111 11:0.88 12:0.4 13:0.29 14:0.39 
0.21320772225208973 0.11245545782455062 0 0 0.12462944148054841 0 0.12474797049488412 0.24194633634337245 0.183692270798301 1:1 2:1 3:0.454545 4:0.878788 5:0.222222 6:0.585859 7:0.111111 8:0.292929 9:0.272727 10:0.959596 11:0.06 12:0.77 13:0.31 14:0.25 
0.21320772225208973 0.11245545782455062 0.1914244320787869 0.14016914314361348 0.12462944148054841 0.093647812526579721 0 0.24194633634337245 0 1:1 2:0.939394 3:0.757576 4:1 5:0.434343 6:0.818182 7:0.171717 8:0.585859 9:0.282828 10:0.0505051 11:0.41 12:0.07 13:0.22 14:0.25 
0.21320772225208973 0.11245545782455062 0.1914244320787869 0.14016914314361348 0.12462944148054841 0 0.12474797049488412 0.24194633634337245 0.183692270798301 1:0.888889 2:1 3:0.515152 4:0.89899 5:0.20202 6:0.616162 7:0.292929 8:0.181818 9:0.010101 10:0.767677 11:1 12:0.19 13:0.42 14:0.19 
0 0 0.1914244320787869 0.14016914314361348 0 0.093647812526579721 0.12474797049488412 0.24194633634337245 0 1:0.656566 2:1 3:0.363636 4:0.929293 5:0.0808081 6:0.616162 7:0.292929 8:0.282828 9:1 11:0.91 12:0.23 13:0.22 14:0.13 
0 0.11245545782455062 0.1914244320787869 0.14016914314361348 0.12462944148054841 0.093647812526579721 0.12474797049488412 0.24194633634337245 0.183692270798301 1:0.444444 2:1 3:0.414141 4:0.787879 5:0.10101 6:0.444444 7:0.0606061 8:0.616162 9:1 10:0.222222 11:0.41 12:0.35 13:0.33 14:0.11 
0.21320772225208973 0 0 0.14016914314361348 0.12462944148054841 0.093647812526579721 0.12474797049488412 0.24194633634337245 0.183692270798301 1:0.363636 2:1 3:0.272727 4:0.828283 5:0.0909091 6:0.464646 7:0.151515 8:0.10101 9:0.656566 10:1 11:0.23 12:0.51 13:0.35 14:0.23 
0.21320772225208973 0.11245545782455062 0.1914244320787869 0.14016914314361348 0.12462944148054841 0.093647812526579721 0.12474797049488412 0.24194633634337245 0.183692270798301 1:1 2:1 3:0.848485 4:0.969697 5:0.646465 6:0.646465 7:0.484848 8:0.323232 9:0.454545 10:0.858586 11:0.1 12:0.47 13:0.24 14:0.19 
0 0 0.1914244320787869 0 0 0 0 0 0 1:0.909091 2:0.979798 3:0.474747 4:1 5:0.111111 6:0.59596 7:0.141414 8:0.545455 9:1 10:0.262626 11:0.39 12:0.38 13:0.05 14:0.05 
0.21320772225208973 0.11245545782455062 0.1914244320787869 0.14016914314361348 0.12462944148054841 0.093647812526579721 0.12474797049488412 0.24194633634337245 0.183692270798301 1:0.666667 2:1 3:0.242424 4:0.808081 5:0.484848 6:0.141414 7:0.505051 8:1 9:0.191919 10:0.626263 11:0.4 12:0.09 13:0.26 
0 0 0.1914244320787869 0.14016914314361348 0 0.093647812526579721 0.12474797049488412 0.24194633634337245 0.183692270798301 1:0.30303 2:1 3:0.313131 4:0.939394 6:0.555556 7:0.121212 8:0.525253 9:1 10:0.20202 11:0.56 12:0.37 13:0.05 14:0.18 
0.21320772225208973 0.11245545782455062 0.1914244320787869 0.14016914314361348 0.12462944148054841 0.093647812526579721 0 0.24194633634337245 0.183692270798301 1:1 2:0.89899 3:0.949495 4:1 5:0.585859 6:0.69697 7:0.262626 8:0.373737 9:0.0505051 10:0.040404 11:0.54 12:0.65 13:0.27 14:0.18 
0.21320772225208973 0.11245545782455062 0.1914244320787869 0.14016914314361348 0 0.093647812526579721 0.12474797049488412 0.24194633634337245 0.183692270798301 1:1 2:1 3:0.646465 4:0.747475 5:0.353535 6:0.464646 7:0.191919 8:0.161616 9:0.505051 10:0.959596 11:0.21 12:0.54 13:0.34 14:0.22 
0 0 0.1914244320787869 0.14016914314361348 0.12462944148054841 0.093647812526579721 0.12474797049488412 0 0 1:0.545455 2:0.888889 3:0.313131 4:1 5:0.040404 6:0.646465 7:0.272727 8:0.424242 9:1 10:0.181818 11:0.51 12:0.31 13:0.16 
0.21320772225208973 0.11245545782455062 0.1914244320787869 0.14016914314361348 0.12462944148054841 0.093647812526579721 0 0.24194633634337245 0.183692270798301 1:1 2:1 3:0.737374 4:0.969697 5:0.494949 6:0.656566 7:0.333333 8:0.292929 9:0.484848 10:0.747475 11:0.18 12:0.37 13:0.24 14:0.15 
0.21320772225208973 0.11245545782455062 0.1914244320787869 0.14016914314361348 0.12462944148054841 0.093647812526579721 0 0.24194633634337245 0.183692270798301 1:1 2:1 3:0.727273 4:0.919192 5:0.333333 6:0.686869 7:0.0505051 8:0.414141 9:0.111111 10:0.494949 11:0.91 12:0.17 13:0.37 14:0.23 
0.21320772225208973 0.11245545782455062 0.1914244320787869 0.14016914314361348 0.12462944148054841 0.093647812526579721 0.12474797049488412 0.24194633634337245 0.183692270798301 1:1 2:1 3:0.616162 4:0.858586 5:0.424242 6:0.555556 7:0.414141 8:0.242424 9:0.707071 10:0.909091 11:0.23 12:0.51 13:0.4 14:0.34 
0 0.11245545782455062 0 0.14016914314361348 0.12462944148054841 0.093647812526579721 0 0.24194633634337245 0 1:1 2:1 3:0.636364 4:0.868687 5:0.353535 6:0.656566 7:0.131313 8:0.434343 9:0.191919 10:0.222222 11:0.57 12:0.1 13:0.24 14:0.2 
0 0 0 0 0 0 0.12474797049488412 0 0 1:0.727273 2:1 3:0.262626 4:0.838384 6:0.505051 7:0.141414 8:0.464646 9:1 10:0.030303 11:0.82 12:0.19 13:0.34 14:0.1 
0 0.11245545782455062 0 0.14016914314361348 0.12462944148054841 0.093647812526579721 0 0 0 1:1 2:1 3:0.737374 4:0.848485 5:0.333333 6:0.585859 7:0.30303 8:0.0606061 10:0.676768 11:0.6 12:0.18 13:0.18 
0 0 0 0 0 0 0.12474797049488412 0 0.183692270798301 1:0.636364 2:1 3:0.313131 4:0.767677 5:0.151515 6:0.464646 7:0.151515 8:0.151515 9:0.575758 10:1 11:0.16 12:0.49 13:0.23 14:0.09 
0 0 0 0.14016914314361348 0 0 0.12474797049488412 0 0 1:0.505051 2:1 3:0.232323 4:0.828283 5:0.0505051 6:0.535354 7:0.242424 8:0.30303 9:1 10:0.141414 11:0.57 12:0.32 13:0.1 14:0.11 
0 0.11245545782455062 0 0 0.12462944148054841 0 0 0 0 1:1 2:1 3:0.626263 4:0.777778 5:0.272727 6:0.525253 7:0.262626 8:0.030303 9:0.59596 11:0.78 12:0.22 13:0.24 14:0.21 
0 0.11245545782455062 0 0.14016914314361348 0.12462944148054841 0.093647812526579721 0 0 0 1:1 2:0.969697 3:0.575758 4:1 5:0.20202 6:0.69697 7:0.333333 8:0.20202 9:0.707071 11:0.57 12:0.28 13:0.11 14:0.14 
0 0.11245545782455062 0 0 0.12462944148054841 0.093647812526579721 0 0 0 1:1 2:1 3:0.585859 4:0.818182 5:0.242424 6:0.565657 7:0.272727 8:0.131313 9:0.585859 10:0.131313 11:0.46 12:0.39 13:0.3 
0.21320772225208973 0.11245545782455062 0.1914244320787869 0.14016914314361348 0.12462944148054841 0.093647812526579721 0.12474797049488412 0.24194633634337245 0.183692270798301 1:0.464646 2:1 3:0.20202 4:0.777778 5:0.414141 6:0.252525 7:0.0707071 8:0.939394 9:0.030303 10:1 11:0.32 12:0.34 13:0.28 14:0.28 
0 0 0.1914244320787869 0 0 0 0 0 0 1:0.848485 2:0.979798 3:0.383838 4:1 5:0.0606061 6:0.59596 7:0.151515 8:0.535354 9:1 10:0.272727 11:0.4 12:0.38 13:0.05 14:0.09 
0 0 0 0 0 0 0.12474797049488412 0 0 1:0.888889 2:1 3:0.343434 4:0.787879 5:0.10101 6:0.515152 7:0.242424 8:0.181818 9:0.969697 11:1 12:0.23 13:0.22 14:0.21 
0.21320772225208973 0.11245545782455062 0.1914244320787869 0.14016914314361348 0.12462944148054841 0.093647812526579721 0.12474797049488412 0.24194633634337245 0.183692270798301 1:0.383838 2:1 3:0.222222 4:0.818182 5:0.515152 7:0.20202 8:0.474747 9:1 10:0.151515 11:0.7 12:0.42 13:0.06 14:0.55 
0.21320772225208973 0.11245545782455062 0.1914244320787869 0.14016914314361348 0.12462944148054841 0.093647812526579721 0.12474797049488412 0.24194633634337245 0 1:1 2:0.989899 3:0.666667 4:1 5:0.232323 6:0.676768 7:0.313131 8:0.262626 9:0.989899 10:0.0707071 11:0.77 12:0.4 13:0.09 14:0.55 
0.21320772225208973 0 0.1914244320787869 0.14016914314361348 0.11066122406720988 0.063741671429903793 0.12474797049488412 0.24194633634337245 0.183692270798301 1:0.545455 2:1 3:0.222222 4:0.727273 5:0.40404 6:0.030303 7:0.0606061 8:0.545455 9:1 10:0.181818 11:0.68 12:0.36 13:0.31 14:0.15 
0 0.11245545782455062 0 0 0 0 0 0 0.183692270798301 1:0.949495 2:1 3:0.585859 4:0.79798 5:0.262626 6:0.505051 7:0.10101 8:0.191919 9:0.474747 10:1 11:0.15 12:0.57 13:0.31 14:0.19 
0 0 0 0 0 0 0.12474797049488412 0 0.183692270798301 1:0.828283 2:1 3:0.343434 4:0.79798 5:0.0808081 6:0.494949 7:0.030303 8:0.161616 9:0.525253 10:1 11:0.21 12:0.55 13:0.31 14:0.15 
0.21320772225208973 0 0.1914244320787869 0.14016914314361348 0 0 0.12474797049488412 0 0 1:0.868687 2:1 3:0.444444 4:0.828283 5:0.131313 6:0.535354 7:0.20202 8:0.414141 9:1 10:0.0707071 11:0.77 12:0.31 13:0.18 14:0.29 
0 0 0.1914244320787869 0.14016914314361348 0 0.093647812526579721 0 0 0 1:1 2:1 3:0.606061 4:0.989899 5:0.232323 6:0.656566 7:0.30303 8:0.212121 9:0.929293 10:0.121212 11:0.7 12:0.33 13:0.03 14:0.18 
0.21320772225208973 0 0 0 0.12462944148054841 0 0.12474797049488412 0.24194633634337245 0.183692270798301 1:0.777778 2:1 3:0.464646 4:0.777778 5:0.181818 6:0.484848 7:0.0707071 8:0.171717 9:0.474747 10:1 11:0.15 12:0.62 13:0.35 14:0.34 
0.21320772225208973 0.11245545782455062 0.1914244320787869 0.14016914314361348 0 0.093647812526579721 0 0.24194633634337245 0.183692270798301 1:0.848485 2:1 3:0.79798 4:0.949495 5:0.363636 6:0.666667 7:0.010101 8:0.363636 9:0.0505051 10:0.757576 11:1 12:0.25 13:0.07 14:0.25 
0 0.11245545782455062 0.1914244320787869 0.14016914314361348 0.12462944148054841 0.093647812526579721 0 0 0 1:0.818182 2:0.969697 3:0.343434 4:1 5:0.666667 6:0.242424 7:0.444444 8:0.010101 9:1 10:0.0909091 11:0.61 12:0.23 13:0.14 
0.21320772225208973 0 0.1914244320787869 0 0 0 0.12474797049488412 0.24194633634337245 0.183692270798301 1:1 2:1 3:0.444444 4:0.848485 5:0.0808081 6:0.575758 7:0.222222 8:0.434343 9:0.989899 10:0.10101 11:0.84 12:0.4 13:0.26 14:0.47 
0 0 0.1914244320787869 0 0 0 0 0 0 1:0.717172 2:1 3:0.373737 4:0.878788 5:0.010101 6:0.565657 7:0.181818 8:0.505051 9:1 10:0.191919 11:0.55 12:0.34 13:0.12 14:0.07 
0 0 0.1914244320787869 0.14016914314361348 0 0 0.12474797049488412 0 0.183692270798301 1:0.666667 2:1 3:0.343434 4:0.787879 5:0.161616 6:0.474747 7:0.232323 8:0.141414 9:0.69697 10:1 11:0.21 12:0.45 13:0.21 14:0.03 
0.21320772225208973 0.11245545782455062 0.1914244320787869 0 0.12462944148054841 0.093647812526579721 0.12474797049488412 0.24194633634337245 0.183692270798301 1:0.616162 2:0.939394 3:0.383838 4:1 5:0.0606061 6:0.686869 7:0.333333 8:0.323232 9:0.020202 10:1 11:0.01 12:0.7 13:0.19 14:0.13 
0.21320772225208973 0.10608161537768243 0 0 0.12462944148054841 0 0.12474797049488412 0 0 1:1 2:1 3:0.545455 4:0.808081 5:0.212121 6:0.555556 7:0.242424 8:0.242424 9:0.737374 10:0.111111 11:0.58 12:0.39 13:0.08 14:0.4 
0.21320772225208973 0.11245545782455062 0.1914244320787869 0.14016914314361348 0.12462944148054841 0.093647812526579721 0.12474797049488412 0.24194633634337245 0.183692270798301 1:0.636364 2:1 3:0.444444 4:0.868687 5:0.0505051 6:0.575758 7:0.222222 8:0.484848 9:1 10:0.20202 11:0.55 12:0.43 13:0.34 14:0.22 
0.21320772225208973 0.11245545782455062 0 0.14016914314361348 0.12462944148054841 0.093647812526579721 0 0.24194633634337245 0 1:1 2:1 3:0.767677 4:0.939394 5:0.464646 6:0.707071 7:0.222222 8:0.424242 9:0.131313 10:0.111111 11:0.5 12:0.42 13:0.2 14:0.29 
0.21320772225208973 0.11245545782455062 0.1914244320787869 0.14016914314361348 0.12462944148054841 0 0.12474797049488412 0.24194633634337245 0 1:0.808081 2:1 3:0.494949 4:0.787879 5:0.222222 6:0.515152 7:0.161616 8:0.212121 9:0.69697 10:0.141414 11:1 12:0.31 13:0.44 14:0.19 
0 0 0 0 0 0 0.12474797049488412 0 0 1:1 2:1 3:0.464646 4:0.787879 5:0.131313 6:0.525253 7:0.252525 8:0.232323 9:0.929293 10:0.010101 11:0.95 12:0.25 13:0.14 14:0.25 
0.21320772225208973 0 0 0 0 0 0.12474797049488412 0 0 1:1 2:1 3:0.434343 4:0.888889 5:0.10101 6:0.606061 7:0.292929 8:0.222222 9:0.838384 11:0.88 12:0.28 13:0.28 14:0.29 
0 0 0.1914244320787869 0 0 0 0.12474797049488412 0 0 1:0.838384 2:1 3:0.363636 4:0.818182 5:0.0606061 6:0.545455 7:0.242424 8:0.343434 9:1 10:0.0606061 11:0.85 12:0.3 13:0.23 14:0.19 
0 0.11245545782455062 0 0 0.12462944148054841 0.093647812526579721 0 0 0 1:1 2:1 3:0.69697 4:0.929293 5:0.363636 6:0.676768 7:0.10101 8:0.40404 9:0.10101 10:0.373737 11:0.48 12:0.25 13:0.02 14:0.35 
0 0 0 0 0 0 0.12474797049488412 0 0 1:0.929293 2:1 3:0.454545 4:0.777778 5:0.121212 6:0.505051 7:0.20202 8:0.373737 9:1 10:0.0707071 11:0.78 12:0.28 13:0.15 14:0.22 
0.21320772225208973 0.11245545782455062 0.1914244320787869 0.14016914314361348 0.12462944148054841 0.093647812526579721 0.12474797049488412 0.24194633634337245 0.183692270798301 1:1 2:1 3:0.626263 4:0.808081 5:0.434343 6:0.545455 7:0.383838 8:0.272727 9:0.414141 11:0.68 12:0.49 13:0.25 14:0.27 
0 0 0 0 0 0 0 0 0.183692270798301 1:0.939394 2:1 3:0.515152 4:0.777778 5:0.232323 6:0.494949 7:0.121212 8:0.20202 9:0.464646 10:1 11:0.15 12:0.53 13:0.3 14:0.18 
0 0 0 0 0 0 0.12474797049488412 0 0.183692270798301 1:0.777778 2:1 3:0.323232 4:0.818182 5:0.111111 6:0.484848 7:0.131313 8:0.111111 9:0.59596 10:1 11:0.26 12:0.5 13:0.32 14:0.13 
0 0.11245545782455062 0.1914244320787869 0.14016914314361348 0 0 0 0.24194633634337245 0.183692270798301 1:0.949495 2:1 3:0.494949 4:0.818182 5:0.181818 6:0.575758 7:0.30303 8:0.171717 9:0.0505051 10:0.727273 11:1 12:0.14 13:0.44 14:0.12 
0.21320772225208973 0.11245545782455062 0 0.14016914314361348 0.12462944148054841 0.093647812526579721 0.12474797049488412 0 0.183692270798301 1:0.767677 2:1 3:0.282828 4:0.79798 5:0.525253 6:0.010101 7:0.20202 8:0.444444 9:1 10:0.0505051 11:0.68 12:0.29 13:0.14 14:0.27 
0 0 0 0.14016914314361348 0 0 0 0 0 1:1 2:1 3:0.474747 4:0.969697 5:0.111111 6:0.676768 7:0.323232 8:0.20202 9:0.757576 10:0.626263 11:0.27 12:0.02 13:0.27 
0.21320772225208973 0.11245545782455062 0.1914244320787869 0 0.12462944148054841 0.093647812526579721 0.12474797049488412 0.24194633634337245 0.183692270798301 1:0.626263 2:1 3:0.424242 4:0.888889 5:0.141414 6:0.575758 7:0.0909091 8:0.222222 9:0.494949 10:1 11:0.18 12:0.63 13:0.43 14:0.5 
0 0.11245545782455062 0 0 0.12462944148054841 0.093647812526579721 0 0 0 1:1 2:1 3:0.676768 4:0.888889 5:0.353535 6:0.69697 7:0.111111 8:0.454545 9:0.030303 10:0.171717 11:0.33 12:0.4 13:0.09 14:0.13 
0.21320772225208973 0.11245545782455062 0 0.14016914314361348 0.12462944148054841 0.093647812526579721 0.12474797049488412 0.24194633634337245 0.183692270798301 1:1 2:1 3:0.717172 4:0.828283 5:0.454545 6:0.585859 7:0.282828 8:0.343434 9:0.191919 10:0.0808081 11:0.62 12:0.6 13:0.22 14:0.29 
0.21320772225208973 0.11245545782455062 0.1914244320787869 0.14016914314361348 0.12462944148054841 0.093647812526579721 0.12474797049488412 0.24194633634337245 0.183692270798301 1:1 2:1 3:0.59596 4:0.939394 5:0.323232 6:0.616162 7:0.212121 8:0.282828 9:0.464646 10:0.979798 11:0.12 12:0.58 13:0.35 14:0.27 
0.21320772225208973 0.11245545782455062 0 0 0.12462944148054841 0.093647812526579721 0.12474797049488412 0 0 1:1 2:1 3:0.59596 4:0.919192 5:0.191919 6:0.626263 7:0.292929 8:0.232323 9:0.828283 10:0.10101 11:0.69 12:0.41 13:0.05 14:0.49 
0 0 0.1914244320787869 0 0 0 0.12474797049488412 0 0.183692270798301 1:0.777778 2:1 3:0.424242 4:0.757576 5:0.0909091 6:0.464646 7:0.151515 8:0.565657 9:1 10:0.232323 11:0.51 12:0.44 13:0.09 14:0.23 
0 0.11245545782455062 0 0 0.12462944148054841 0 0 0 0.183692270798301 1:1 2:1 3:0.565657 4:0.777778 5:0.242424 6:0.525253 7:0.111111 8:0.252525 9:0.292929 10:0.878788 11:0.07 12:0.65 13:0.28 14:0.21 
0.21320772225208973 0.11245545782455062 0 0.14016914314361348 0.12462944148054841 0.093647812526579721 0 0.24194633634337245 0 1:1 2:1 3:0.69697 4:0.858586 5:0.292929 6:0.59596 7:0.282828 8:0.10101 9:0.69697 10:0.0808081 11:0.76 12:0.32 13:0.16 14:0.35 
0 0 0 0.14016914314361348 0 0 0 0 0 1:1 2:1 3:0.575758 4:0.89899 5:0.191919 6:0.59596 7:0.262626 8:0.323232 9:0.979798 10:0.0707071 11:0.64 12:0.21 13:0.02 14:0.08 
0.21320772225208973 0.11245545782455062 0.1914244320787869 0.14016914314361348 0.12462944148054841 0.093647812526579721 0 0.24194633634337245 0 1:1 2:0.969697 3:0.575758 4:1 5:0.171717 6:0.757576 7:0.464646 8:0.111111 9:0.151515 10:0.616162 11:0.85 12:0.18 13:0.28 14:0.24 
0.21320772225208973 0 0 0 0.12462944148054841 0 0 0 0 1:1 2:1 3:0.535354 4:0.89899 5:0.212121 6:0.606061 7:0.30303 8:0.020202 9:0.575758 10:0.0505051 11:0.62 12:0.35 13:0.04 14:0.33 
0 0.11245545782455062 0 0 0 0.011050705590489991 0 0 0 1:1 2:1 3:0.626263 4:0.838384 5:0.313131 6:0.545455 7:0.121212 8:0.212121 9:0.424242 10:0.808081 11:0.17 12:0.36 13:0.28 14:0.08 
0 0.11245545782455062 0 0.14016914314361348 0.12462944148054841 0.093647812526579721 0 0 0 1:1 2:1 3:0.656566 4:0.79798 5:0.40404 6:0.555556 7:0.222222 8:0.282828 9:0.171717 10:0.535354 11:0.38 12:0.18 13:0.12 
0.21320772225208973 0 0.1914244320787869 0.14016914314361348 0.12462944148054841 0.093647812526579721 0.12474797049488412 0.24194633634337245 0.183692270798301 1:0.515152 2:1 3:0.181818 4:0.727273 5:0.434343 6:0.0505051 7:0.131313 8:0.575758 9:1 10:0.161616 11:0.6 12:0.36 13:0.19 14:0.2 
0 0.0023137696516889843 0 0 0 0 0 0 0 1:1 2:1 3:0.565657 4:0.868687 5:0.252525 6:0.575758 7:0.131313 8:0.252525 9:0.424242 10:0.868687 11:0.13 12:0.45 13:0.28 14:0.1 
0.21320772225208973 0.11245545782455062 0.1914244320787869 0 0.12462944148054841 0.093647812526579721 0.12474797049488412 0.24194633634337245 0.183692270798301 1:0.888889 2:1 3:0.515152 4:0.737374 5:0.292929 6:0.424242 7:0.181818 8:0.10101 9:0.626263 10:1 11:0.23 12:0.56 13:0.44 14:0.41 
0 0 0 0 0.12462944148054841 0 0 0 0 1:1 2:1 3:0.606061 4:0.818182 5:0.292929 6:0.575758 7:0.0505051 8:0.292929 9:0.434343 10:0.010101 11:0.43 12:0.21 13:0.02 14:0.09 
0.21320772225208973 0.11245545782455062 0 0.14016914314361348 0.12462944148054841 0.093647812526579721 0.12474797049488412 0.24194633634337245 0.183692270798301 1:1 2:1 3:0.676768 4:0.787879 5:0.444444 6:0.565657 7:0.272727 8:0.333333 9:0.212121 10:0.10101 11:0.72 12:0.62 13:0.18 14:0.2 
0 0 0 0 0 0 0 0 0.183692270798301 1:1 2:1 3:0.474747 4:0.838384 5:0.141414 6:0.525253 8:0.181818 9:0.464646 10:1 11:0.24 12:0.6 13:0.39 14:0.19 
0.21320772225208973 0.11245545782455062 0 0 0.12462944148054841 0.093647812526579721 0 0.24194633634337245 0 1:1 2:1 3:0.585859 4:0.89899 5:0.282828 6:0.616162 7:0.030303 8:0.30303 9:0.141414 10:0.636364 11:0.1 12:0.52 13:0.37 14:0.29 
0 0.11245545782455062 0 0.14016914314361348 0.12462944148054841 0.093647812526579721 0 0 0 1:1 2:1 3:0.636364 4:0.808081 5:0.383838 6:0.545455 7:0.232323 8:0.252525 9:0.363636 10:0.757576 11:0.11 12:0.41 13:0.24 14:0.1 
0 0.11245545782455062 0 0 0.12462944148054841 0.093647812526579721 0 0 0 1:1 2:1 3:0.636364 4:0.929293 5:0.353535 6:0.666667 7:0.131313 8:0.353535 9:0.10101 10:0.474747 11:0.04 12:0.34 13:0.19 14:0.03 
0.21320772225208973 0.11245545782455062 0.1914244320787869 0.14016914314361348 0.12462944148054841 0.093647812526579721 0.12474797049488412 0.24194633634337245 0.183692270798301 1:1 2:0.989899 3:0.717172 4:1 5:0.535354 6:0.707071 7:0.434343 8:0.40404 9:0.414141 10:0.0909091 11:0.69 12:0.47 13:0.25 14:0.29 
0.21320772225208973 0.11245545782455062 0.1914244320787869 0 0 0.093647812526579721 0.12474797049488412 0.24194633634337245 0.183692270798301 1:0.989899 2:1 3:0.535354 4:0.767677 5:0.252525 6:0.515152 7:0.161616 8:0.222222 9:0.505051 10:1 11:0.14 12:0.61 13:0.35 14:0.27 
0 0 0.1914244320787869 0 0 0 0.12474797049488412 0 0.183692270798301 1:0.818182 2:1 3:0.383838 4:0.777778 5:0.161616 6:0.474747 7:0.181818 8:0.161616 9:0.656566 10:1 11:0.21 12:0.44 13:0.31 14:0.13 
0 0.11245545782455062 0 0 0.12462944148054841 0.093647812526579721 0 0 0 1:1 2:0.989899 3:0.59596 4:1 5:0.333333 6:0.777778 7:0.131313 8:0.525253 9:0.262626 10:0.0505051 11:0.37 12:0.09 13:0.06 14:0.27 
0.21320772225208973 0.11245545782455062 0.1914244320787869 0.14016914314361348 0.12462944148054841 0.093647812526579721 0.12474797049488412 0.24194633634337245 0.183692270798301 1:0.646465 2:1 3:0.444444 4:0.89899 5:0.131313 6:0.565657 7:0.222222 8:0.424242 9:1 10:0.151515 11:0.8 12:0.45 13:0.35 14:0.27 
0 0.11245545782455062 0 0 0 0 0 0 0 1:1 2:1 3:0.474747 4:0.848485 5:0.141414 6:0.565657 7:0.242424 8:0.282828 9:0.838384 10:0.10101 11:0.65 12:0.3 13:0.38 14:0.09 
0 0.11245545782455062 0.1914244320787869 0.14016914314361348 0 0 0 0 0 1:1 2:1 3:0.585859 4:0.828283 5:0.30303 6:0.515152 7:0.191919 8:0.181818 9:0.515152 10:0.909091 11:0.25 12:0.48 13:0.27 14:0.07 
0 0.11245545782455062 0 0.14016914314361348 0.12462944148054841 0.093647812526579721 0 0 0 1:1 2:1 3:0.666667 4:0.959596 5:0.282828 6:0.666667 7:0.323232 8:0.141414 9:0.69697 11:0.71 12:0.18 13:0.19 14:0.1 
0.21320772225208973 0.11245545782455062 0.1914244320787869 0.14016914314361348 0.12462944148054841 0.093647812526579721 0.12474797049488412 0 0.183692270798301 1:0.666667 2:1 3:0.282828 4:0.727273 5:0.373737 6:0.0808081 7:0.777778 8:0.0909091 9:1 10:0.464646 11:0.41 12:0.37 13:0.1 14:0.02 
0.21320772225208973 0 0.1914244320787869 0.14016914314361348 0 0 0.12474797049488412 0 0.183692270798301 1:0.838384 2:1 3:0.525253 4:0.777778 5:0.171717 6:0.494949 7:0.191919 8:0.383838 9:1 10:0.131313 11:0.7 12:0.37 13:0.03 14:0.34 
0 0 0 0 0 0 0.12474797049488412 0 0.183692270798301 1:0.575758 2:1 3:0.272727 4:0.747475 5:0.030303 6:0.424242 7:0.0808081 8:0.585859 9:1 10:0.232323 11:0.41 12:0.34 13:0.01 14:0.09 
0 0 0.1914244320787869 0.14016914314361348 0 0.093647812526579721 0.12474797049488412 0 0.183692270798301 1:0.585859 2:1 3:0.242424 4:0.747475 5:0.414141 6:0.0505051 7:0.0505051 8:0.606061 9:1 10:0.242424 11:0.54 12:0.33 13:0.25 14:0.06 
0 0 0.1914244320787869 0.14016914314361348 0 0.093647812526579721 0 0 0 1:0.838384 2:1 3:0.454545 4:0.979798 5:0.121212 6:0.59596 7:0.181818 8:0.525253 9:1 10:0.313131 11:0.33 12:0.36 13:0.1 14:0.04 
0 0.11245545782455062 0 0 0.12462944148054841 0 0 0 0 1:1 2:1 3:0.535354 4:0.828283 5:0.222222 6:0.555556 7:0.040404 8:0.232323 9:0.313131 10:0.767677 11:0.11 12:0.46 13:0.34 14:0.28 
0.21320772225208973 0.11245545782455062 0.1914244320787869 0.14016914314361348 0.12462944148054841 0.093647812526579721 0.12474797049488412 0.24194633634337245 0.183692270798301 1:0.949495 2:0.848485 3:1 4:1 5:0.606061 6:0.707071 7:0.40404 8:0.353535 9:0.494949 10:0.929293 11:0.03 12:0.58 13:0.3 14:0.26 
0.21320772225208973 0 0.093271867069759942 0 0 0 0.12474797049488412 0.24194633634337245 0.183692270798301 1:0.707071 2:1 3:0.262626 4:0.747475 5:0.0505051 6:0.383838 7:0.20202 8:0.020202 9:0.767677 10:1 11:0.31 12:0.51 13:0.52 14:0.38 
0 0 0.1914244320787869 0 0 0 0 0 0 1:1 2:1 3:0.414141 4:0.828283 5:0.20202 6:0.555556 7:0.171717 8:0.262626 9:0.333333 10:1 11:0.71 12:0.18 13:0.07 
0 0 0 0 0 0 0 0 0.183692270798301 1:0.868687 2:1 3:0.474747 4:1 5:0.161616 6:0.666667 7:0.0505051 8:0.30303 9:0.373737 10:1 11:0.12 12:0.52 13:0.29 14:0.04 
0.21320772225208973 0.11245545782455062 0.1914244320787869 0.14016914314361348 0.12462944148054841 0.093647812526579721 0.12474797049488412 0.24194633634337245 0.183692270798301 1:0.848485 2:1 3:0.676768 4:0.989899 5:0.181818 6:0.69697 7:0.323232 8:0.262626 9:1 10:0.0707071 11:0.87 12:0.42 13:0.19 14:0.59 
0.21320772225208973 0.11245545782455062 0 0.14016914314361348 0.12462944148054841 0.093647812526579721 0.12474797049488412 0.24194633634337245 0.183692270798301 1:0.484848 2:1 3:0.151515 4:0.787879 5:0.484848 6:0.040404 7:0.171717 8:0.484848 9:1 10:0.030303 11:0.59 12:0.24 13:0.24 14:0.19 
0.21320772225208973 0 0 0.14016914314361348 0 0.093647812526579721 0.12474797049488412 0 0.183692270798301 1:0.454545 2:1 3:0.111111 4:0.717172 5:0.373737 6:0.131313 7:0.040404 8:0.626263 9:1 10:0.242424 11:0.54 12:0.42 13:0.01 14:0.33 
0.21320772225208973 0.11245545782455062 0.1914244320787869 0.14016914314361348 0.12462944148054841 0.093647812526579721 0.12474797049488412 0.24194633634337245 0.183692270798301 1:0.707071 2:1 3:0.494949 4:0.868687 5:0.313131 6:0.494949 7:0.313131 8:0.10101 9:0.757576 10:1 11:0.32 12:0.51 13:0.49 14:0.41 
0.21320772225208973 0 0.1914244320787869 0 0 0 0.12474797049488412 0.24194633634337245 0.183692270798301 1:0.808081 2:1 3:0.383838 4:0.767677 5:0.161616 6:0.414141 7:0.212121 8:0.040404 9:0.777778 10:1 11:0.31 12:0.45 13:0.46 14:0.27 
0 0 0 0.14016914314361348 0 0 0 0 0 1:0.69697 2:1 3:0.424242 4:0.818182 5:0.151515 6:0.484848 7:0.151515 8:0.40404 9:1 10:0.20202 11:0.47 12:0.31 13:0.12 14:0.04 
0.21320772225208973 0.11245545782455062 0.1914244320787869 0 0 0.093647812526579721 0.12474797049488412 0.24194633634337245 0 1:1 2:1 3:0.535354 4:0.969697 5:0.131313 6:0.666667 7:0.313131 8:0.272727 9:0.909091 10:0.030303 11:0.84 12:0.35 13:0.15 14:0.47 
0.21320772225208973 0.11245545782455062 0.1914244320787869 0.14016914314361348 0.12462944148054841 0.093647812526579721 0 0.24194633634337245 0.183692270798301 1:1 2:0.939394 3:0.727273 4:1 5:0.393939 6:0.737374 7:0.121212 8:0.454545 9:0.111111 10:0.373737 11:0.67 12:0.22 13:0.2 14:0.28 
0.21320772225208973 0.11245545782455062 0.1914244320787869 0.14016914314361348 0.12462944148054841 0.093647812526579721 0.12474797049488412 0.24194633634337245 0.183692270798301 1:0.656566 2:1 3:0.343434 4:0.686869 5:0.222222 6:0.323232 7:0.424242 8:0.979798 10:1 11:0.32 12:0.43 13:0.37 14:0.18 
0 0 0 0 0 0 0.12474797049488412 0 0 1:0.565657 2:1 3:0.212121 4:0.808081 5:0.030303 6:0.515152 7:0.222222 8:0.353535 9:1 10:0.0808081 11:0.67 12:0.27 13:0.07 14:0.15 
0.21320772225208973 0.11245545782455062 0.14410089777720603 0.14016914314361348 0.12462944148054841 0.093647812526579721 0 0.24194633634337245 0.183692270798301 1:1 2:0.989899 3:0.808081 4:1 5:0.424242 6:0.737374 7:0.121212 8:0.434343 9:0.0707071 10:0.434343 11:0.6 12:0.27 13:0.13 14:0.35 
0.21320772225208973 0.11245545782455062 0 0.14016914314361348 0.12462944148054841 0.093647812526579721 0.12474797049488412 0 0.183692270798301 1:0.454545 2:1 3:0.0808081 4:0.777778 5:0.505051 6:0.030303 7:0.232323 8:0.363636 9:1 10:0.0606061 11:0.67 12:0.24 13:0.22 14:0.06 
0.21320772225208973 0.11245545782455062 0.1914244320787869 0.14016914314361348 0 0.093647812526579721 0.12474797049488412 0.24194633634337245 0 1:0.909091 2:1 3:0.555556 4:0.909091 5:0.181818 6:0.616162 7:0.292929 8:0.212121 9:1 10:0.040404 11:0.99 12:0.33 13:0.19 14:0.44 
0.21320772225208973 0 0.1914244320787869 0.14016914314361348 0.12462944148054841 0.093647812526579721 0.12474797049488412 0 0.183692270798301 1:0.656566 2:1 3:0.20202 4:0.848485 5:0.545455 6:0.030303 7:0.222222 8:0.474747 9:1 10:0.111111 11:0.62 12:0.36 13:0.06 14:0.25 
0.21320772225208973 0.11245545782455062 0.1914244320787869 0.14016914314361348 0.12462944148054841 0.093647812526579721 0.12474797049488412 0.24194633634337245 0.183692270798301 1:0.606061 2:1 3:0.212121 4:0.707071 5:0.0808081 6:0.333333 7:0.323232 8:0.878788 9:0.030303 10:1 11:0.37 12:0.5 13:0.5 14:0.3 
0 0 0.1914244320787869 0.14016914314361348 0 0.093647812526579721 0 0 0 1:0.676768 2:1 3:0.40404 4:0.939394 5:0.121212 6:0.606061 7:0.262626 8:0.313131 9:1 10:0.191919 11:0.6 12:0.32 13:0.09 14:0.07 
0.21320772225208973 0.11245545782455062 0.1914244320787869 0.14016914314361348 0.12462944148054841 0.093647812526579721 0.084232510258595364 0.24194633634337245 0.183692270798301 1:0.969697 2:1 3:0.828283 4:0.949495 5:0.393939 6:0.686869 7:0.0909091 8:0.414141 9:0.0909091 10:0.131313 11:0.97 12:1 13:0.17 14:0.09 
0 0 0 0 0 0 0.12474797049488412 0 0 1:0.717172 2:1 3:0.313131 4:0.757576 5:0.040404 6:0.464646 7:0.141414 8:0.464646 9:1 10:0.111111 11:0.59 12:0.24 13:0.03 14:0.17 
0 0 0 0.14016914314361348 0 0 0.12474797049488412 0 0.183692270798301 1:0.616162 2:1 3:0.252525 4:0.777778 5:0.444444 6:0.0707071 7:0.0808081 8:0.535354 9:1 10:0.0707071 11:0.62 12:0.2 13:0.17 14:0.11 
0 0 0 0 0 0 0.12474797049488412 0 0.183692270798301 1:0.69697 2:1 3:0.272727 4:0.848485 5:0.010101 6:0.515152 7:0.161616 8:0.525253 9:1 10:0.212121 11:0.52 12:0.44 13:0.06 14:0.28 
0.21320772225208973 0.11245545782455062 0.1914244320787869 0.14016914314361348 0.12462944148054841 0.093647812526579721 0.12474797049488412 0.24194633634337245 0.183692270798301 1:0.646465 2:1 3:0.555556 4:1 5:0.161616 6:0.666667 7:0.30303 8:0.353535 9:1 10:0.0505051 11:0.73 12:0.38 13:0.1 14:0.55 
0.21320772225208973 0.11245545782455062 0.1914244320787869 0.14016914314361348 0.12462944148054841 0.093647812526579721 0 0.24194633634337245 0.183692270798301 1:0.878788 2:0.848485 3:1 4:1 5:0.59596 6:0.747475 7:0.252525 8:0.474747 9:0.181818 10:0.333333 11:0.8 12:0.18 13:0.3 14:0.3 
0.21320772225208973 0 0 0 0 0 0.12474797049488412 0 0 1:1 2:1 3:0.424242 4:0.888889 5:0.0606061 6:0.606061 7:0.272727 8:0.30303 9:0.868687 10:0.0707071 11:0.71 12:0.38 13:0.11 14:0.45 
0.21320772225208973 0.11245545782455062 0.1914244320787869 0.14016914314361348 0 0.093647812526579721 0.12474797049488412 0.24194633634337245 0.183692270798301 1:0.989899 2:1 3:0.606061 4:0.777778 5:0.363636 6:0.393939 7:0.40404 8:0.989899 9:1 10:0.323232 11:0.47 12:0.5 13:0.28 
0 0.11245545782455062 0.1914244320787869 0.14016914314361348 0.12462944148054841 0.093647812526579721 0.12474797049488412 0.24194633634337245 0.183692270798301 1:0.737374 2:1 3:0.272727 4:0.777778 5:0.515152 6:0.232323 7:0.363636 8:1 9:0.0505051 10:0.757576 11:0.26 12:0.13 13:0.19 
0 0.11245545782455062 0.1914244320787869 0.14016914314361348 0.12462944148054841 0.093647812526579721 0.12474797049488412 0.24194633634337245 0.183692270798301 1:0.717172 2:1 3:0.252525 4:0.939394 5:0.616162 6:0.272727 7:0.373737 8:1 9:0.030303 10:0.666667 11:0.24 12:0.21 13:0.01 
0 0.11245545782455062 0 0 0.12462944148054841 0 0 0 0 1:1 2:1 3:0.616162 4:0.888889 5:0.272727 6:0.636364 8:0.333333 9:0.424242 10:0.010101 11:0.45 12:0.32 13:0.05 14:0.23 
0 0 0 0 0 0 0.12474797049488412 0 0.183692270798301 1:0.939394 2:1 3:0.555556 4:0.737374 5:0.262626 6:0.454545 7:0.141414 8:0.121212 9:0.606061 10:1 11:0.2 12:0.49 13:0.31 14:0.19 
0 0.11245545782455062 0 0 0.12462944148054841 0 0 0.24194633634337245 0 1:1 2:1 3:0.565657 4:0.848485 5:0.252525 6:0.616162 7:0.010101 8:0.353535 9:0.0606061 10:0.434343 11:0.7 12:0.2 13:0.24 14:0.22 
0.21320772225208973 0 0.1914244320787869 0.14016914314361348 0.12462944148054841 0.093647812526579721 0.12474797049488412 0 0.183692270798301 1:0.575758 2:1 3:0.20202 4:0.848485 5:0.515152 6:0.020202 7:0.161616 8:0.505051 9:1 10:0.161616 11:0.6 12:0.35 13:0.12 14:0.19 
0 0 0.1914244320787869 0 0 0 0.12474797049488412 0 0 1:1 2:1 3:0.585859 4:0.727273 5:0.252525 6:0.444444 7:0.141414 8:0.323232 9:0.969697 10:0.171717 11:0.81 12:0.38 13:0.09 14:0.28 
0.21320772225208973 0 0.1914244320787869 0 0 0 0.12474797049488412 0.24194633634337245 0.183692270798301 1:0.686869 2:1 3:0.262626 4:0.868687 6:0.565657 7:0.242424 8:0.343434 10:0.909091 11:1 12:0.21 13:0.45 14:0.27 
0.21320772225208973 0.11245545782455062 0.1914244320787869 0.14016914314361348 0.12462944148054841 0.093647812526579721 0.12474797049488412 0.24194633634337245 0.183692270798301 1:0.242424 2:0.89899 3:0.414141 4:1 5:0.141414 6:0.626263 7:0.252525 8:0.414141 9:1 10:0.020202 11:0.8 12:0.28 13:0.59 14:0.06 
0.21320772225208973 0 0.1914244320787869 0.14016914314361348 0 0 0.12474797049488412 0.24194633634337245 0 1:1 2:1 3:0.474747 4:0.959596 5:0.141414 6:0.636364 7:0.30303 8:0.242424 9:0.949495 10:0.0707071 11:0.94 12:0.38 13:0.25 14:0.31 
0.21320772225208973 0 0.1914244320787869 0.14016914314361348 0 0 0.12474797049488412 0.24194633634337245 0.183692270798301 1:0.515152 2:1 3:0.20202 4:0.747475 5:0.040404 6:0.484848 7:0.212121 8:0.333333 10:1 11:0.95 12:0.22 13:0.35 14:0.16 
0.21320772225208973 0.11245545782455062 0.1914244320787869 0.14016914314361348 0.12462944148054841 0.093647812526579721 0 0.24194633634337245 0.183692270798301 1:1 2:0.868687 3:0.656566 4:1 5:0.272727 6:0.676768 7:0.10101 8:0.30303 9:0.40404 10:0.919192 11:0.18 12:0.51 13:0.42 14:0.24 
0 0.11245545782455062 0 0 0.12462944148054841 0 0 0 0 1:1 2:1 3:0.606061 4:0.818182 5:0.282828 6:0.565657 7:0.0707071 8:0.282828 9:0.212121 10:0.656566 11:0.03 12:0.45 13:0.2 14:0.15 
0.21320772225208973 0 0.14534953800225214 0.14016914314361348 0 0.093647812526579721 0.12474797049488412 0 0.183692270798301 1:0.737374 2:1 3:0.252525 4:0.777778 5:0.474747 6:0.010101 7:0.151515 8:0.555556 9:1 10:0.191919 11:0.56 12:0.4 13:0.09 14:0.25 
0.21320772225208973 0.11245545782455062 0.1914244320787869 0.14016914314361348 0.12462944148054841 0.093647812526579721 0.12474797049488412 0.24194633634337245 0.183692270798301 1:0.565657 2:0.939394 3:0.383838 4:1 5:0.10101 6:0.686869 7:0.343434 8:0.222222 9:0.030303 10:0.969697 11:1 12:0.24 13:0.41 14:0.05 
0.21320772225208973 0.11245545782455062 0.1914244320787869 0.14016914314361348 0.12462944148054841 0 0.12474797049488412 0.24194633634337245 0 1:0.89899 2:1 3:0.515152 4:0.818182 5:0.212121 6:0.535354 7:0.232323 8:0.232323 9:0.818182 10:0.040404 11:1 12:0.23 13:0.42 14:0.22 
0.21320772225208973 0.11245545782455062 0.1914244320787869 0.14016914314361348 0.12462944148054841 0.093647812526579721 0.12474797049488412 0.24194633634337245 0.183692270798301 1:0.838384 2:1 3:0.575758 4:0.828283 5:0.343434 6:0.545455 7:0.232323 8:0.252525 9:0.474747 10:1 11:0.15 12:0.65 13:0.35 14:0.24 
0.21320772225208973 0.11245545782455062 0.1914244320787869 0.14016914314361348 0.12462944148054841 0.093647812526579721 0.12474797049488412 0.24194633634337245 0.183692270798301 1:0.505051 2:0.878788 3:0.40404 4:1 5:0.0909091 6:0.626263 7:0.0909091 8:0.191919 9:0.565657 10:1 11:0.26 12:0.53 13:0.42 14:0.26 
0 0 0 0 0 0 0.12474797049488412 0 0 1:0.505051 2:1 3:0.20202 4:0.767677 5:0.010101 6:0.484848 7:0.191919 8:0.444444 9:1 10:0.161616 11:0.51 12:0.27 13:0.04 14:0.07 
0.21320772225208973 0 0.1914244320787869 0.14016914314361348 0 0.093647812526579721 0.12474797049488412 0.24194633634337245 0.183692270798301 1:0.535354 2:1 3:0.333333 4:0.747475 5:0.0505051 6:0.424242 7:0.10101 8:0.69697 9:1 10:0.272727 11:0.44 12:0.46 13:0.36 14:0.21 
0.21320772225208973 0.11245545782455062 0.1914244320787869 0.14016914314361348 0.12462944148054841 0.093647812526579721 0 0.24194633634337245 0 1:1 2:0.909091 3:0.848485 4:1 5:0.484848 6:0.777778 7:0.171717 8:0.515152 9:0.222222 10:0.242424 11:0.69 12:0.09 13:0.3 14:0.2 
0.21320772225208973 0.11245545782455062 0 0.14016914314361348 0.12462944148054841 0.093647812526579721 0 0 0 1:1 2:1 3:0.808081 4:0.808081 5:0.383838 6:0.545455 7:0.272727 8:0.0707071 9:0.747475 10:0.030303 11:0.66 12:0.31 13:0.12 14:0.25 
0.21320772225208973 0.11245545782455062 0.1914244320787869 0 0 0.093647812526579721 0.12474797049488412 0.24194633634337245 0.183692270798301 1:0.949495 2:1 3:0.656566 4:0.808081 5:0.30303 6:0.515152 7:0.111111 8:0.171717 9:0.525253 10:1 11:0.18 12:0.56 13:0.35 14:0.28 
0 0.11245545782455062 0.1914244320787869 0.14016914314361348 0 0.093647812526579721 0.12474797049488412 0 0.183692270798301 1:0.969697 2:1 3:0.535354 4:0.828283 5:0.474747 6:0.020202 7:0.0909091 8:0.838384 9:1 10:0.383838 11:0.14 12:0.51 13:0.08 14:0.18 
0.21320772225208973 0 0.1914244320787869 0 0 0 0.12474797049488412 0 0.183692270798301 1:1 2:1 3:0.484848 4:0.909091 5:0.121212 6:0.616162 7:0.272727 8:0.323232 9:0.89899 10:0.141414 11:0.75 12:0.45 13:0.08 14:0.49 
0.21320772225208973 0.11245545782455062 0.1914244320787869 0.14016914314361348 0.12462944148054841 0.093647812526579721 0.12474797049488412 0.24194633634337245 0.183692270798301 1:0.393939 2:0.979798 3:0.505051 4:1 5:0.606061 6:0.10101 7:0.151515 8:0.929293 9:1 10:0.363636 11:0.18 12:0.51 13:0.24 14:0.19 
0.21320772225208973 0.11245545782455062 0 0 0.12462944148054841 0.093647812526579721 0 0.24194633634337245 0 1:1 2:1 3:0.606061 4:0.929293 5:0.282828 6:0.707071 7:0.020202 8:0.424242 9:0.0707071 10:0.373737 11:0.66 12:0.18 13:0.29 14:0.29 
0.21320772225208973 0.11245545782455062 0.1914244320787869 0.14016914314361348 0.12462944148054841 0.093647812526579721 0.12474797049488412 0.24194633634337245 0 1:0.676768 2:1 3:0.545455 4:0.828283 5:0.262626 6:0.555556 7:0.262626 8:0.131313 9:1 10:0.010101 11:0.73 12:0.27 13:0.52 14:0.11 
0 0.11245545782455062 0 0.14016914314361348 0.12462944148054841 0.093647812526579721 0 0 0 1:1 2:1 3:0.707071 4:0.939394 5:0.373737 6:0.69697 7:0.10101 8:0.414141 9:0.121212 10:0.393939 11:0.51 12:0.26 13:0.05 14:0.23 
0.21320772225208973 0.11245545782455062 0.1914244320787869 0.14016914314361348 0.12462944148054841 0.093647812526579721 0.12474797049488412 0.24194633634337245 0.183692270798301 1:1 2:1 3:0.535354 4:0.919192 5:0.181818 6:0.666667 7:0.343434 8:0.212121 9:0.0505051 10:0.707071 11:0.89 12:0.25 13:0.48 14:0.46 
0 0.11245545782455062 0 0 0.12462944148054841 0 0 0 0 1:1 2:1 3:0.656566 4:0.878788 5:0.313131 6:0.656566 7:0.0606061 8:0.383838 9:0.0909091 10:0.434343 11:0.62 12:0.18 13:0.14 14:0.22 
0.21320772225208973 0.11245545782455062 0.1914244320787869 0 0.12462944148054841 0.093647812526579721 0.12474797049488412 0.24194633634337245 0.183692270798301 1:0.989899 2:1 3:0.666667 4:0.848485 5:0.212121 6:0.575758 8:0.262626 9:0.353535 10:1 11:0.18 12:0.77 13:0.47 14:0.59 
0.21320772225208973 0.11245545782455062 0.1914244320787869 0.14016914314361348 0.12462944148054841 0.093647812526579721 0 0.24194633634337245 0.183692270798301 1:0.878788 2:1 3:1 4:0.989899 5:0.515152 6:0.737374 7:0.131313 8:0.454545 9:0.131313 10:0.565657 11:0.84 12:0.2 13:0.18 14:0.26 
0.21320772225208973 0.11245545782455062 0 0 0.12462944148054841 0.093647812526579721 0 0.24194633634337245 0 1:1 2:1 3:0.606061 4:0.909091 5:0.292929 6:0.69697 7:0.0606061 8:0.40404 9:0.10101 10:0.0606061 11:0.48 12:0.39 13:0.2 14:0.22 
0 0 0 0.14016914314361348 0 0.093647812526579721 0.12474797049488412 0 0.183692270798301 1:0.525253 2:1 3:0.262626 4:0.89899 5:0.0505051 6:0.545455 7:0.191919 8:0.454545 9:1 10:0.151515 11:0.53 12:0.34 13:0.06 14:0.19 
0 0.11245545782455062 0 0 0.12462944148054841 0.093647812526579721 0 0 0.183692270798301 1:1 2:1 3:0.69697 4:0.808081 5:0.373737 6:0.555556 7:0.131313 8:0.262626 9:0.313131 10:0.858586 11:0.07 12:0.53 13:0.22 14:0.16 
0.21320772225208973 0.11245545782455062 0.1914244320787869 0.14016914314361348 0.12462944148054841 0.093647812526579721 0.12474797049488412 0.24194633634337245 0.183692270798301 1:0.69697 2:1 3:0.444444 4:0.909091 5:0.10101 6:0.59596 7:0.222222 8:0.414141 9:1 10:0.030303 11:0.86 12:0.32 13:0.31 14:0.27 
0 0 0 0 0 0 0.12474797049488412 0 0 1:0.818182 2:1 3:0.393939 4:0.808081 5:0.0505051 6:0.515152 7:0.171717 8:0.505051 9:1 10:0.151515 11:0.58 12:0.35 13:0.08 14:0.2 
0.21320772225208973 0.11245545782455062 0.1914244320787869 0 0.12462944148054841 0.093647812526579721 0.12474797049488412 0.24194633634337245 0.183692270798301 1:0.838384 2:1 3:0.515152 4:0.737374 5:0.272727 6:0.454545 7:0.151515 8:0.161616 9:0.545455 10:1 11:0.21 12:0.61 13:0.38 14:0.26 
0.21320772225208973 0.11245545782455062 0 0 0.12462944148054841 0.093647812526579721 0 0.24194633634337245 0.183692270798301 1:1 2:1 3:0.707071 4:0.949495 5:0.292929 6:0.636364 8:0.262626 9:0.313131 10:0.818182 11:0.19 12:0.54 13:0.51 14:0.48 
0 0 0.1914244320787869 0.14016914314361348 0 0.093647812526579721 0.12474797049488412 0.24194633634337245 0.183692270798301 1:0.787879 2:1 3:0.505051 4:0.848485 5:0.252525 6:0.505051 7:0.141414 8:0.121212 9:0.616162 10:1 11:0.21 12:0.49 13:0.31 14:0.15 
0.21320772225208973 0.11245545782455062 0.1914244320787869 0.14016914314361348 0.12462944148054841 0.093647812526579721 0 0.24194633634337245 0 1:1 2:1 3:0.828283 4:0.848485 5:0.626263 6:0.59596 7:0.434343 8:0.333333 9:0.313131 10:0.0505051 11:0.5 12:0.36 13:0.21 14:0.15 
0 0.11245545782455062 0 0 0.12462944148054841 0.093647812526579721 0 0 0 1:1 2:1 3:0.676768 4:0.808081 5:0.393939 6:0.565657 7:0.191919 8:0.272727 9:0.232323 10:0.585859 11:0.1 12:0.36 13:0.25 14:0.14 
0 0 0 0 0 0 0.12474797049488412 0.24194633634337245 0.183692270798301 1:0.565657 2:1 3:0.323232 4:0.939394 5:0.0707071 6:0.585859 7:0.020202 8:0.212121 9:0.474747 10:1 11:0.15 12:0.57 13:0.32 14:0.19 
0.21320772225208973 0 0.1914244320787869 0.14016914314361348 0 0.093647812526579721 0.12474797049488412 0.24194633634337245 0.183692270798301 1:0.838384 2:1 3:0.585859 4:0.989899 5:0.151515 6:0.717172 7:0.414141 8:0.191919 9:0.111111 10:1 11:0.94 12:0.22 13:0.04 14:0.27 
0.21320772225208973 0.11245545782455062 0.1914244320787869 0.14016914314361348 0.12462944148054841 0.093647812526579721 0.12474797049488412 0.24194633634337245 0.183692270798301 1:0.242424 2:0.747475 3:0.848485 4:1 5:0.484848 6:0.717172 7:0.171717 8:0.393939 9:0.0606061 10:0.505051 11:1 12:0.28 13:0.49 14:0.29 
0 0 0 0 0.12462944148054841 0 0 0 0 1:1 2:1 3:0.555556 4:0.79798 5:0.252525 6:0.545455 8:0.262626 9:0.10101 10:0.686869 11:0.04 12:0.5 13:0.19 14:0.14 
0 0 0.1914244320787869 0 0 0 0 0 0 1:0.969697 2:1 3:0.505051 4:0.767677 5:0.181818 6:0.474747 7:0.171717 8:0.434343 9:1 10:0.151515 11:0.65 12:0.31 13:0.12 14:0.14 
0 0.11245545782455062 0 0.14016914314361348 0.12462944148054841 0.093647812526579721 0 0 0 1:1 2:1 3:0.676768 4:0.959596 5:0.363636 6:0.747475 7:0.131313 8:0.505051 9:0.212121 10:0.20202 11:0.54 12:0.1 13:0.15 14:0.18 
0 0.11245545782455062 0 0 0.12462944148054841 0.093647812526579721 0 0 0 1:1 2:1 3:0.616162 4:0.878788 5:0.252525 6:0.606061 7:0.292929 8:0.131313 9:0.676768 10:0.010101 11:0.63 12:0.23 13:0.12 14:0.13 
0.21320772225208973 0.11245545782455062 0.1914244320787869 0.14016914314361348 0.12462944148054841 0.093647812526579721 0.12474797049488412 0.24194633634337245 0.183692270798301 1:0.757576 2:1 3:0.59596 4:1 5:0.191919 6:0.626263 7:0.181818 8:0.454545 9:1 10:0.161616 11:0.6 12:0.37 13:0.08 14:0.32 
0 0 0 0 0.12462944148054841 0 0 0 0 1:1 2:1 3:0.535354 4:0.878788 5:0.212121 6:0.636364 7:0.343434 8:0.0505051 9:0.0606061 10:0.565657 11:0.65 12:0.21 13:0.14 14:0.21 
0 0.11245545782455062 0 0 0.12462944148054841 0 0 0 0 1:1 2:1 3:0.555556 4:0.828283 5:0.272727 6:0.555556 7:0.0909091 8:0.272727 9:0.20202 10:0.686869 11:0.06 12:0.52 13:0.28 14:0.23 
0 0 0.1914244320787869 0 0 0.093647812526579721 0.12474797049488412 0.24194633634337245 0.183692270798301 1:0.525253 2:1 3:0.252525 4:0.686869 5:0.0808081 6:0.333333 7:0.171717 8:0.787879 9:0.010101 10:1 11:0.32 12:0.38 13:0.28 14:0.01 
0.21320772225208973 0 0.1914244320787869 0 0 0 0.12474797049488412 0.24194633634337245 0.183692270798301 1:0.79798 2:1 3:0.313131 4:0.808081 5:0.0606061 6:0.515152 7:0.20202 8:0.393939 9:1 10:0.0808081 11:0.88 12:0.3 13:0.28 14:0.22 
0.21320772225208973 0 0.1914244320787869 0.14016914314361348 0 0.093647812526579721 0 0.24194633634337245 0.183692270798301 1:1 2:1 3:0.656566 4:0.989899 5:0.222222 6:0.686869 7:0.343434 8:0.161616 10:0.939394 11:0.86 12:0.3 13:0.1 14:0.29 
0.21320772225208973 0.11245545782455062 0.1914244320787869 0.14016914314361348 0.12462944148054841 0.093647812526579721 0 0.24194633634337245 0.183692270798301 1:1 2:1 3:0.686869 4:0.888889 5:0.454545 6:0.59596 7:0.262626 8:0.292929 9:0.313131 10:0.676768 11:0.18 12:0.4 13:0.35 14:0.18 
0 0.11245545782455062 0 0.14016914314361348 0 0 0 0.24194633634337245 0 1:1 2:1 3:0.727273 4:0.828283 5:0.313131 6:0.585859 7:0.030303 8:0.323232 9:0.030303 10:0.656566 11:0.88 12:0.18 13:0.2 14:0.18 
0.21320772225208973 0.11245545782455062 0 0 0.045125577783475618 0 0.12474797049488412 0.24194633634337245 0.183692270798301 1:1 2:0.979798 3:0.484848 4:1 5:0.121212 6:0.686869 7:0.0505051 8:0.292929 9:0.393939 10:0.929293 11:0.13 12:0.61 13:0.41 14:0.41 
0 0.11245545782455062 0.1914244320787869 0.14016914314361348 0 0.093647812526579721 0.12474797049488412 0.24194633634337245 0.183692270798301 1:1 2:1 3:0.343434 4:0.909091 5:0.565657 7:0.171717 8:0.666667 9:0.0909091 10:0.959596 11:0.39 12:0.27 13:0.33 14:0.16 
0 0 0.1914244320787869 0 0 0 0 0 0 1:0.878788 2:1 3:0.484848 4:0.848485 5:0.111111 6:0.515152 7:0.121212 8:0.545455 9:1 10:0.252525 11:0.42 12:0.35 13:0.12 14:0.05 
0 0.11245545782455062 0 0 0.12462944148054841 0 0 0 0 1:1 2:1 3:0.606061 4:0.878788 5:0.292929 6:0.636364 7:0.0606061 8:0.353535 9:0.040404 10:0.414141 11:0.49 12:0.23 13:0.06 14:0.25 
0 0 0 0 0.12462944148054841 0 0 0 0 1:1 2:1 3:0.535354 4:0.848485 5:0.20202 6:0.59596 7:0.323232 8:0.010101 9:0.040404 10:0.515152 11:0.54 12:0.22 13:0.01 14:0.17 
0 0 0.1914244320787869 0.14016914314361348 0 0.093647812526579721 0.12474797049488412 0 0.183692270798301 1:0.484848 2:1 3:0.161616 4:0.707071 5:0.383838 6:0.10101 7:0.0606061 8:0.656566 9:1 10:0.232323 11:0.48 12:0.33 13:0.21 14:0.08 
0 0.11245545782455062 0.1914244320787869 0.14016914314361348 0 0.093647812526579721 0.12474797049488412 0.24194633634337245 0.183692270798301 1:0.79798 2:1 3:0.262626 4:0.777778 5:0.414141 6:0.20202 7:0.0505051 8:0.989899 9:0.0707071 10:1 11:0.37 12:0.19 13:0.3 14:0.1 
0.21320772225208973 0.11245545782455062 0.1914244320787869 0 0 0.093647812526579721 0.12474797049488412 0.24194633634337245 0.183692270798301 1:1 2:1 3:0.565657 4:0.777778 5:0.282828 6:0.505051 7:0.212121 8:0.181818 9:0.606061 10:0.969697 11:0.21 12:0.57 13:0.4 14:0.35 
0.21320772225208973 0.11245545782455062 0.1914244320787869 0 0.12462944148054841 0.093647812526579721 0.12474797049488412 0.24194633634337245 0.183692270798301 1:0.909091 2:1 3:0.515152 4:0.888889 5:0.232323 6:0.565657 7:0.121212 8:0.212121 9:0.565657 10:1 11:0.23 12:0.6 13:0.49 14:0.43 
0.21320772225208973 0.11245545782455062 0 0 0.12462944148054841 0.093647812526579721 0 0.24194633634337245 0.183692270798301 1:1 2:1 3:0.545455 4:0.939394 5:0.181818 6:0.69697 7:0.353535 8:0.111111 9:0.020202 10:0.565657 11:0.66 12:0.3 13:0.2 14:0.35 
0.21320772225208973 0.11245545782455062 0.1914244320787869 0 0.12462944148054841 0.093647812526579721 0.12474797049488412 0.24194633634337245 0.183692270798301 1:0.777778 2:1 3:0.505051 4:0.828283 5:0.242424 6:0.515152 7:0.10101 8:0.191919 9:0.515152 10:1 11:0.22 12:0.64 13:0.46 14:0.37 
0.21320772225208973 0 0 0 0 0 0.12474797049488412 0.24194633634337245 0.183692270798301 1:0.656566 2:1 3:0.272727 4:0.838384 5:0.0707071 6:0.494949 7:0.131313 8:0.131313 9:0.606061 10:1 11:0.21 12:0.51 13:0.36 14:0.28 
0 0.11245545782455062 0 0 0.12462944148054841 0.093647812526579721 0 0 0 1:1 2:1 3:0.616162 4:0.838384 5:0.343434 6:0.565657 7:0.181818 8:0.232323 9:0.393939 10:0.717172 11:0.18 12:0.37 13:0.31 14:0.14 
0 0 0.1914244320787869 0.14016914314361348 0 0 0.12474797049488412 0.24194633634337245 0.183692270798301 1:0.545455 2:1 3:0.383838 4:0.848485 5:0.111111 6:0.484848 7:0.161616 8:0.111111 9:0.777778 10:1 11:0.27 12:0.41 13:0.38 14:0.09 
0.21320772225208973 0.11245545782455062 0.1914244320787869 0.14016914314361348 0.12462944148054841 0.093647812526579721 0.12474797049488412 0.24194633634337245 0.183692270798301 1:0.747475 2:0.939394 3:0.616162 4:1 5:0.212121 6:0.666667 7:0.292929 8:0.343434 9:1 10:0.0707071 11:0.78 12:0.43 13:0.16 14:0.59 
0 0.11245545782455062 0.1914244320787869 0.14016914314361348 0.12462944148054841 0.093647812526579721 0 0.24194633634337245 0 1:0.828283 2:1 3:0.717172 4:0.848485 5:0.272727 6:0.555556 7:0.212121 8:0.505051 9:1 10:0.151515 11:0.46 12:0.37 13:0.29 14:0.11 
0 0.11245545782455062 0.1914244320787869 0.14016914314361348 0 0.093647812526579721 0 0.24194633634337245 0 1:1 2:1 3:0.717172 4:0.888889 5:0.292929 6:0.585859 7:0.242424 8:0.30303 9:0.919192 10:0.111111 11:0.79 12:0.32 13:0.19 14:0.18 
0 0 0 0.14016914314361348 0.12462944148054841 0.093647812526579721 0.12474797049488412 0 0.183692270798301 1:0.585859 2:1 3:0.191919 4:0.787879 5:0.494949 6:0.010101 7:0.191919 8:0.424242 9:1 10:0.0606061 11:0.69 12:0.22 13:0.12 14:0.12 
0 0.11245545782455062 0 0.14016914314361348 0 0 0 0 0 1:1 2:1 3:0.555556 4:0.818182 5:0.181818 6:0.555556 7:0.242424 8:0.292929 9:0.868687 10:0.010101 11:0.84 12:0.16 13:0.3 14:0.09 
0 0 0 0 0.12462944148054841 0 0 0 0 1:1 2:1 3:0.626263 4:0.89899 5:0.252525 6:0.626263 7:0.010101 8:0.323232 9:0.535354 11:0.6 12:0.31 13:0.07 14:0.3 
0 0 0.1914244320787869 0.14016914314361348 0 0 0.12474797049488412 0 0.183692270798301 1:0.59596 2:1 3:0.191919 4:0.757576 5:0.383838 6:0.0909091 8:0.686869 9:1 10:0.323232 11:0.56 12:0.4 13:0.15 14:0.1 
0 0.11245545782455062 0.1914244320787869 0.14016914314361348 0 0.093647812526579721 0 0.24194633634337245 0 1:1 2:0.969697 3:0.757576 4:1 5:0.282828 6:0.717172 7:0.383838 8:0.141414 9:0.0707071 10:0.949495 11:0.78 12:0.22 13:0.16 
0 0.11245545782455062 0 0.14016914314361348 0.12462944148054841 0.093647812526579721 0 0 0 1:1 2:1 3:0.737374 4:0.878788 5:0.454545 6:0.686869 7:0.212121 8:0.464646 9:0.232323 10:0.020202 11:0.36 12:0.11 13:0.07 14:0.23 
0.21320772225208973 0.11245545782455062 0.1914244320787869 0.14016914314361348 0 0 0.12474797049488412 0 0 1:1 2:1 3:0.616162 4:0.888889 5:0.222222 6:0.606061 7:0.282828 8:0.191919 9:0.909091 10:0.0606061 11:0.84 12:0.33 13:0.11 14:0.31 
0.21320772225208973 0.11245545782455062 0.1914244320787869 0.14016914314361348 0.12462944148054841 0.093647812526579721 0 0.24194633634337245 0 1:0.818182 2:0.848485 3:1 4:1 5:0.484848 6:0.676768 7:0.353535 8:0.191919 9:0.939394 10:0.020202 11:0.53 12:0.27 13:0.35 14:0.08 
0 0.11245545782455062 0 0 0.12462944148054841 0 0 0.24194633634337245 0.183692270798301 1:1 2:1 3:0.545455 4:0.909091 5:0.20202 6:0.646465 7:0.333333 8:0.161616 9:0.020202 10:0.656566 11:0.69 12:0.25 13:0.19 14:0.25 
0 0 0 0 0 0 0 0 0.183692270798301 1:1 2:1 3:0.515152 4:0.79798 5:0.191919 6:0.515152 7:0.0505051 8:0.191919 9:0.444444 10:0.989899 11:0.12 12:0.59 13:0.3 14:0.25 
0 0 0.1914244320787869 0 0.12462944148054841 0.093647812526579721 0 0 0.183692270798301 1:0.959596 2:0.979798 3:0.434343 4:1 5:0.040404 6:0.717172 7:0.353535 8:0.373737 9:0.0707071 10:1 11:0.06 12:0.61 13:0.21 14:0.11 
0 0 0 0 0 0 0 0 0.183692270798301 1:0.686869 2:1 3:0.373737 4:0.818182 5:0.121212 6:0.535354 7:0.0606061 8:0.232323 9:0.40404 10:1 11:0.04 12:0.57 13:0.16 14:0.08 
0.21320772225208973 0.11245545782455062 0 0 0.12462944148054841 0.093647812526579721 0 0.24194633634337245 0 1:1 2:0.939394 3:0.626263 4:1 5:0.292929 6:0.707071 7:0.0707071 8:0.383838 9:0.0505051 10:0.0505051 11:0.57 12:0.54 13:0.19 14:0.1 
0.21320772225208973 0.11245545782455062 0 0 0.12462944148054841 0 0.12474797049488412 0.24194633634337245 0.183692270798301 1:1 2:1 3:0.494949 4:0.808081 5:0.151515 6:0.535354 7:0.040404 8:0.242424 9:0.333333 10:0.888889 11:0.14 12:0.7 13:0.41 14:0.49 
0.21320772225208973 0 0 0 0.12462944148054841 0 0 0.24194633634337245 0 1:1 2:1 3:0.484848 4:0.919192 5:0.181818 6:0.636364 7:0.111111 8:0.30303 9:0.383838 10:0.020202 11:0.91 12:0.56 13:0.22 14:0.24 
0.21320772225208973 0.11245545782455062 0 0 0.12462944148054841 0.093647812526579721 0 0.24194633634337245 0.183692270798301 1:1 2:1 3:0.606061 4:0.929293 5:0.323232 6:0.646465 7:0.141414 8:0.323232 9:0.242424 10:0.636364 11:0.06 12:0.44 13:0.33 14:0.37 
0 0 0.1914244320787869 0 0 0 0 0.24194633634337245 0 1:1 2:1 3:0.525253 4:0.989899 5:0.141414 6:0.606061 7:0.0909091 8:0.151515 9:0.656566 10:0.989899 11:0.32 12:0.42 13:0.45 14:0.2 
0.21320772225208973 0.11245545782455062 0 0 0.12462944148054841 0 0.12474797049488412 0.24194633634337245 0.183692270798301 1:1 2:1 3:0.575758 4:0.858586 5:0.222222 6:0.565657 8:0.232323 9:0.292929 10:0.89899 11:0.13 12:0.64 13:0.4 14:0.42 
0.21320772225208973 0 0 0 0.12462944148054841 0 0.12474797049488412 0.24194633634337245 0.183692270798301 1:0.727273 2:1 3:0.343434 4:0.808081 5:0.0909091 6:0.505051 7:0.10101 8:0.181818 9:0.585859 10:1 11:0.19 12:0.62 13:0.44 14:0.47 
0 0 0 0 0 0 0.12474797049488412 0 0 1:0.747475 2:1 3:0.343434 4:0.818182 5:0.010101 6:0.525253 7:0.20202 8:0.434343 9:1 10:0.0707071 11:0.68 12:0.31 13:0.16 14:0.21 
0 0 0 0 0 0 0.12474797049488412 0 0.0918461353991505 1:0.525253 2:1 3:0.222222 4:0.747475 5:0.020202 6:0.474747 7:0.191919 8:0.40404 9:1 10:0.0505051 11:0.67 12:0.25 13:0.08 14:0.16 
0 0 0 0 0 0 0 0.24194633634337245 0.183692270798301 1:0.686869 2:1 3:0.424242 4:0.919192 5:0.141414 6:0.575758 7:0.040404 8:0.20202 9:0.494949 10:1 11:0.2 12:0.48 13:0.34 14:0.15 
0.21320772225208973 0.11245545782455062 0.1914244320787869 0.14016914314361348 0.12462944148054841 0.093647812526579721 0.12474797049488412 0.24194633634337245 0.183692270798301 1:0.848485 2:1 3:0.555556 4:0.717172 5:0.414141 6:0.383838 7:0.545455 8:0.0606061 9:1 10:0.949495 11:0.3 12:0.46 13:0.37 14:0.23 
0 0.11245545782455062 0 0 0.12462944148054841 0.093647812526579721 0 0 0 1:1 2:1 3:0.676768 4:0.777778 5:0.363636 6:0.545455 7:0.121212 8:0.282828 9:0.10101 10:0.505051 11:0.02 12:0.41 13:0.2 14:0.2 
0.21320772225208973 0.11245545782455062 0.1914244320787869 0.14016914314361348 0.12462944148054841 0.093647812526579721 0.12474797049488412 0.24194633634337245 0.183692270798301 1:0.454545 2:1 3:0.181818 4:0.767677 5:0.484848 6:0.191919 7:0.414141 8:1 9:0.0606061 10:0.767677 11:0.28 12:0.27 13:0.17 
0.21320772225208973 0.11245545782455062 0.1914244320787869 0.14016914314361348 0 0.093647812526579721 0 0 0 1:1 2:1 3:0.777778 4:0.959596 5:0.313131 6:0.656566 7:0.323232 8:0.10101 9:0.888889 10:0.10101 11:0.85 12:0.35 13:0.03 14:0.24 
0.21320772225208973 0.11245545782455062 0 0 0.12462944148054841 0.093647812526579721 0.12474797049488412 0.24194633634337245 0.183692270798301 1:1 2:1 3:0.575758 4:0.828283 5:0.292929 6:0.565657 7:0.191919 8:0.252525 9:0.414141 10:0.79798 11:0.09 12:0.47 13:0.31 14:0.39 
0 0 0.1914244320787869 0.14016914314361348 0 0.093647812526579721 0.12474797049488412 0 0.183692270798301 1:0.646465 2:1 3:0.242424 4:0.929293 5:0.555556 6:0.10101 7:0.151515 8:0.59596 9:1 10:0.191919 11:0.5 12:0.28 13:0.09 14:0.01 
0 0 0 0.14016914314361348 0.12462944148054841 0.093647812526579721 0.12474797049488412 0 0 1:0.79798 2:1 3:0.272727 4:0.959596 5:0.626263 6:0.020202 7:0.252525 8:0.444444 9:1 10:0.040404 11:0.57 12:0.24 13:0.01 14:0.12 
0 0 0.1914244320787869 0.14016914314361348 0 0 0 0 0 1:0.949495 2:1 3:0.565657 4:0.838384 5:0.323232 6:0.494949 7:0.212121 8:0.111111 9:0.656566 10:1 11:0.24 12:0.47 13:0.22 14:0.06 
0 0 0.1914244320787869 0.14016914314361348 0 0 0 0 0 1:0.828283 2:1 3:0.40404 4:0.979798 5:0.0606061 6:0.626263 7:0.222222 8:0.464646 9:1 10:0.171717 11:0.58 12:0.39 13:0.11 14:0.15 
0 0 0.1914244320787869 0 0 0 0 0 0 1:0.919192 2:1 3:0.363636 4:1 6:0.676768 7:0.282828 8:0.40404 9:1 10:0.040404 11:0.67 12:0.32 13:0.08 14:0.23 
0 0 0 0 0 0 0.12474797049488412 0 0.183692270798301 1:0.777778 2:1 3:0.292929 4:0.737374 5:0.040404 6:0.434343 7:0.121212 8:0.59596 9:1 10:0.252525 11:0.48 12:0.39 13:0.02 14:0.15 
0.21320772225208973 0 0 0 0 0 0.12474797049488412 0.24194633634337245 0.183692270798301 1:0.848485 2:1 3:0.373737 4:0.79798 5:0.121212 6:0.474747 7:0.10101 8:0.131313 9:0.575758 10:1 11:0.22 12:0.58 13:0.43 14:0.42 
0.21320772225208973 0.11245545782455062 0.1914244320787869 0.14016914314361348 0.12462944148054841 0.093647812526579721 0.12474797049488412 0.24194633634337245 0.183692270798301 1:0.343434 2:0.909091 3:0.454545 4:1 5:0.191919 6:0.646465 7:0.030303 8:0.282828 9:0.373737 10:1 11:0.2 12:0.38 13:0.37 14:0.08 
0.21320772225208973 0 0 0 0 0 0.12474797049488412 0 0.183692270798301 1:0.676768 2:1 3:0.222222 4:0.777778 5:0.010101 6:0.505051 7:0.232323 8:0.313131 9:1 10:0.0707071 11:0.85 12:0.3 13:0.15 14:0.24 
0.16050064475987572 0.11245545782455062 0 0 0 0 0 0.24194633634337245 0 1:1 2:1 3:0.545455 4:0.808081 5:0.232323 6:0.494949 7:0.0808081 8:0.141414 9:0.535354 10:0.868687 11:0.24 12:0.43 13:0.41 14:0.31 
0 0 0.1914244320787869 0 0 0 0.12474797049488412 0.24194633634337245 0.183692270798301 1:0.878788 2:1 3:0.292929 4:0.787879 5:0.040404 6:0.535354 7:0.272727 8:0.242424 9:0.020202 10:1 11:0.92 12:0.25 13:0.15 14:0.26 
0 0 0 0 0 0 0 0 0.183692270798301 1:0.767677 2:1 3:0.272727 4:0.79798 5:0.030303 6:0.515152 7:0.010101 8:0.222222 9:0.434343 10:1 11:0.11 12:0.51 13:0.28 14:0.14 
0 0 0.1914244320787869 0.14016914314361348 0 0.093647812526579721 0.12474797049488412 0.24194633634337245 0.183692270798301 1:0.686869 2:1 3:0.414141 4:0.808081 5:0.212121 6:0.515152 7:0.191919 8:0.20202 9:0.59596 10:1 11:0.15 12:0.51 13:0.28 14:0.16 
0 0 0.1914244320787869 0.14016914314361348 0 0.093647812526579721 0 0 0 1:0.949495 2:1 3:0.555556 4:0.929293 5:0.171717 6:0.616162 7:0.262626 8:0.363636 9:1 10:0.0707071 11:0.74 12:0.32 13:0.15 14:0.16 
