svm_type c_svc
kernel_type polynomial
degree 3
gamma 0.125
coef0 0
nr_class 10
total_sv 2734
rho 0.4816052701337592 1.0345631418593346 -1.4843404506249547 1.4224360550748403 1.4564748337151854 -0.41690329357254435 0.79884672468989104 1.3089830721459519 0.49079996435053846 0.62415860757480046 -1.004635652563219 2.2042706317564957 1.3853776292069988 -0.52202180901059214 0.40122582378594052 0.46544206910667185 0.38968303419609557 -1.909266628575141 0.37596580975324217 -0.093377557269430311 -1.6633422746548272 -1.2168926633562238 -0.68874939389830825 -1.499027628954668 1.5164098050671728 1.3448873228856046 1.9481767811353428 3.38608377885916 3.4119380637149819 2.5937807393509571 -0.18821105599193244 -1.4372346892582488 -0.65762145127990779 -1.1281356842860153 -0.84125337286629165 -1.3163565884668065 -0.034267301202573694 -0.45090472552910177 -0.62445100346221394 -0.24860473526714899 0.28887006267437015 0.13739595268517615 0.44794447353586603 -0.53065732691949707 -0.50088389184265769
label 9 8 4 7 1 2 6 5 0 3
probA -4.0397192591794724 -4.8972387140376847 -4.8495264764158508 -4.5259460884910698 -3.8851950391933086 -4.9978266039015118 -4.987856849567712 -4.8885705326797755 -5.1623716128161679 -5.183843674888708 -4.3711024569686581 -3.7180955734365155 -3.899069487895495 -5.4493570754287806 -5.0007875487682218 -4.3633317401072853 -5.0263454667337717 -4.7267721716717803 -5.2679320194857517 -4.901783281284029 -6.3740738626269478 -5.5792178585763956 -5.5265215660706195 -5.1279174540698511 -4.8230699650117135 -4.626043866635392 -4.7751897541903263 -3.9981017484957877 -4.5651776289848636 -3.8712620405662181 -3.1248672993781339 -5.7204163454312429 -5.0538588627354146 -6.4016348389962996 -5.0043699010634732 -4.6197461755991114 -5.3409418837383225 -4.5142615918206639 -5.1030666363490411 -5.3372675421071447 -4.1754929218809025 -4.547195962751287 -4.0019649701743472 -3.8016135381506095 -4.9706724601968357
probB 0.55271160825754606 0.050666045937024992 0.71178064696408627 -0.14833108640923146 0.32099254552981454 1.3262294086078525 0.31494329490223555 0.84671771102129001 0.28379068941924401 -0.12269334534215845 -0.2919075661134678 -0.31593974153386162 -0.54456084249852654 -0.64347229320546473 0.27124216578238391 0.822777843867601 0.15459745221268706 0.055345004895415793 0.27648073810470564 1.5855843944199397 1.9403423282298675 1.0635007747457299 1.0181294770339182 0.66726382063007861 -0.029844465137193295 -1.0411030841099675 0.14863926838264185 0.099724719907039003 -0.23180937366485657 0.166901206397431 1.1185226593508195 0.62715793676292197 0.17472268347189485 2.0697398524933512 0.23186448642049975 0.45442427378933131 0.24840457510665126 1.1476193191896038 0.036085428731671906 0.31672224923810577 0.47584946344910151 -0.24380532514141254 0.33296419629397705 -0.045491683881674419 -0.10895035767130437
nr_sv 245 325 178 244 298 341 282 230 348 243
SV
0 0 0 0 1 1 0 0 0 1:0.262626 2:0.858586 3:0.494949 4:1 5:1 6:0.949495 7:0.636364 8:0.717172 9:0.494949 10:0.464646 11:0.8 12:0.21 13:0.53 14:0.03 
0 0 1 0 0 0 0 0 0 1:0.848485 2:0.383838 3:1 4:0.838384 5:0.939394 6:0.616162 7:0.646465 8:0.767677 9:0.464646 10:1 11:0.22 12:0.63 13:0.25 14:0.08 
0 0 1 0 0 0.54294871271044065 0 0 0 1:0.444444 2:0.868687 3:0.838384 4:1 5:0.656566 6:0.666667 7:0.787879 8:0.636364 9:1 10:0.323232 11:0.8 12:0.36 13:0.25 
0 1 0 0 0 1 1 0 1 1:0.828283 2:0.424242 3:1 4:0.717172 5:0.757576 6:0.343434 7:0.505051 8:0.686869 9:0.444444 10:1 11:0.21 12:0.59 13:0.05 
0 0 1 0 0 1 0 0 1 1:0.292929 2:0.848485 3:0.676768 4:1 5:0.535354 6:0.777778 7:0.59596 8:0.646465 9:1 10:0.454545 11:0.85 12:0.15 13:0.38 14:0.16 
0 0 1 0 0 0 0 0 0 1:0.585859 2:0.727273 3:0.474747 4:1 5:0.989899 6:0.949495 7:0.808081 8:0.626263 9:0.929293 10:0.434343 11:1 12:0.13 13:0.5 14:0.11 
1 0 0 0 1 0 0 0 0 1:0.767677 2:0.171717 3:1 4:0.616162 5:1 6:0.707071 7:0.717172 8:0.717172 9:0.40404 10:1 11:0.17 12:0.75 13:0.32 14:0.04 
0 0 1 0 0 0 0 0 0 1:0.494949 2:0.888889 3:0.656566 4:1 5:0.818182 6:0.727273 7:0.494949 8:0.535354 9:1 10:0.474747 11:0.93 12:0.17 13:0.47 14:0.03 
0 0 0 0 1 0 0 0 0 1:0.353535 2:0.69697 3:0.525253 4:0.989899 5:1 6:1 7:0.878788 8:0.676768 9:0.848485 10:0.424242 11:0.91 12:0.13 13:0.47 14:0.12 
0 0 0 0 1 0 0 0 0 1:0.444444 2:0.767677 3:0.737374 4:1 5:1 6:0.868687 7:0.737374 8:0.575758 9:0.808081 10:0.393939 11:0.74 12:0.06 13:0.37 14:0.11 
1 0 0 0 1 1 0 0 0 1:0.878788 2:0.353535 3:1 4:0.69697 5:0.868687 6:0.676768 7:0.606061 8:0.69697 9:0.333333 10:1 11:0.15 12:0.64 13:0.01 14:0.17 
0 0 0 0 0 1 0 0 0 1:0.575758 2:1 3:1 4:0.929293 5:0.959596 6:0.686869 7:0.535354 8:0.575758 9:0.828283 10:0.444444 11:0.81 12:0.17 13:0.45 14:0.03 
0 0 1 0 1 0 0 0 0 1:0.242424 2:0.848485 3:0.474747 4:1 5:1 6:0.969697 7:0.919192 8:0.757576 9:0.646465 10:0.565657 11:0.7 12:0.33 13:0.44 14:0.13 
1 0 0 1 1 0 0 1 0 1:0.0505051 2:0.878788 3:0.515152 4:1 5:1 6:0.919192 7:0.828283 8:0.707071 9:0.535354 10:0.515152 11:0.65 12:0.32 13:0.48 14:0.12 
0 0 0 0 0 0 0 1 0 1:0.282828 2:0.828283 3:0.444444 4:1 5:0.878788 6:0.777778 7:0.40404 8:0.525253 9:0.858586 10:0.434343 11:1 12:0.12 13:0.36 14:0.24 
0 0 0 0 1 0 1 0.17949716608147015 1 1:0.0909091 2:0.727273 3:0.323232 4:1 5:0.59596 6:0.818182 7:0.585859 8:0.626263 9:1 10:0.40404 11:0.92 12:0.06 13:0.43 14:0.18 
1 0 1 1 1 1 1 1 1 1:0.888889 2:0.333333 3:1 4:0.606061 5:0.848485 6:0.515152 7:0.59596 8:0.656566 9:0.363636 10:1 11:0.21 12:0.86 13:0.04 14:0.44 
1 0 1 1 1 0 1 1 0.21284949183330271 1:0.808081 2:0.191919 3:1 4:0.636364 5:1 6:1 7:0.848485 8:0.717172 9:0.59596 10:0.343434 11:0.42 12:0.46 13:0.21 14:0.79 
0 0 0 0 0 0 0 0.55633081885390756 0 1:0.373737 2:0.777778 3:0.515152 4:1 5:0.969697 6:0.787879 7:0.575758 8:0.515152 9:0.777778 10:0.40404 11:1 12:0.11 13:0.38 14:0.2 
0 0 1 0 0 1 0 0 1 1:0.383838 2:0.939394 3:0.737374 4:1 5:0.616162 6:0.737374 7:0.656566 8:0.666667 9:1 10:0.444444 11:0.85 12:0.16 13:0.36 14:0.12 
1 0 1 0 0 1 0 0.8122413939274018 0.55194617143835401 1:0.888889 2:0.373737 3:1 4:0.646465 5:0.848485 6:0.545455 7:0.59596 8:0.686869 9:0.363636 10:1 11:0.18 12:0.81 13:0.45 14:0.01 
1 0 1 0 0 1 0 0 0 1:0.585859 2:0.848485 3:0.838384 4:1 5:0.818182 6:0.787879 7:0.59596 8:0.555556 9:1 10:0.474747 11:0.74 12:0.28 13:0.37 14:0.14 
0 0 1 0 0 0 0 0 0 1:0.585859 2:0.858586 3:0.59596 4:1 5:0.959596 6:0.909091 7:0.707071 8:0.626263 9:0.868687 10:0.464646 11:1 12:0.21 13:0.57 14:0.02 
0 0 1 0 0 0 0 0 0 1:0.393939 2:0.818182 3:0.575758 4:1 5:0.787879 6:0.767677 7:0.565657 8:0.616162 9:1 10:0.434343 11:0.83 12:0.16 13:0.37 14:0.11 
1 0 0 0 1 1 0 0 0 1:0.323232 2:0.919192 3:0.717172 4:1 5:1 6:0.878788 7:0.79798 8:0.686869 9:0.606061 10:0.484848 11:0.67 12:0.27 13:0.35 14:0.12 
0 0 1 0 0 0 0 0 0 1:0.555556 2:0.707071 3:0.393939 4:0.979798 5:0.929293 6:1 7:0.848485 8:0.646465 9:0.717172 10:0.494949 11:1 12:0.21 13:0.54 14:0.12 
0 0 0 0 1 0 0 0 0 2:0.656566 3:0.272727 4:0.929293 5:0.808081 6:1 7:0.717172 8:0.747475 9:0.818182 10:0.424242 11:1 12:0.12 13:0.54 14:0.02 
1 0 0 1 0 1 0 1 0 1:0.30303 2:0.979798 3:0.494949 4:1 5:1 6:0.818182 7:0.606061 8:0.585859 9:0.282828 10:0.424242 11:0.95 12:0.32 13:0.65 14:0.12 
0 0 0 0 0 1 0 0 0 1:0.191919 2:0.878788 3:0.575758 4:1 5:0.888889 6:0.787879 7:0.424242 8:0.565657 9:0.666667 10:0.484848 11:1 12:0.25 13:0.59 14:0.02 
1 0 0 1 1 1 0 0 0 1:0.525253 2:0.979798 3:0.878788 4:1 5:1 6:0.79798 7:0.777778 8:0.59596 9:0.575758 10:0.393939 11:0.57 12:0.17 13:0.35 14:0.03 
1 1 0 0 1 1 0 0 0 1:0.646465 2:1 3:0.929293 4:0.919192 5:0.707071 6:0.676768 7:0.79798 8:0.464646 9:1 10:0.232323 11:0.7 12:0.06 13:0.34 14:0.07 
1 0 0 1 1 1 0 0.24014120141730205 0 1:0.838384 2:0.343434 3:1 4:0.686869 5:0.808081 6:0.646465 7:0.545455 8:1 9:0.363636 10:0.909091 11:0.09 12:0.48 13:0.15 14:0.12 
0 0 0 1 0.82661619219971405 0 1 1 1 1:0.040404 2:0.818182 3:0.020202 4:1 5:0.858586 6:0.89899 7:0.848485 8:0.636364 9:0.272727 10:0.414141 11:1 12:0.24 13:0.84 14:0.02 
0 0 0 0 0 1 0 0 0 1:0.373737 2:0.939394 3:0.89899 4:1 5:0.939394 6:0.787879 7:0.585859 8:0.565657 9:0.676768 10:0.323232 11:1 12:0.12 13:0.54 14:0.01 
0 0 1 0 0 1 1 0 1 1:0.131313 2:0.858586 3:0.515152 4:1 5:0.59596 6:0.757576 7:0.40404 8:0.545455 9:1 10:0.515152 11:0.98 12:0.27 13:0.6 14:0.08 
0 0 0 0 1 0 0 1 0 1:0.0707071 2:0.808081 3:0.474747 4:1 5:0.979798 6:0.89899 7:0.767677 8:0.626263 9:1 10:0.272727 11:0.86 12:0.35 13:0.09 14:0.35 
0 0 1 0 0 1 0 0 0 1:0.575758 2:0.939394 3:0.838384 4:1 5:0.818182 6:0.737374 7:0.454545 8:0.565657 9:0.919192 10:0.414141 11:1 12:0.14 13:0.52 14:0.01 
0 0 0 0 1 0 0 0 0 1:0.818182 2:0.353535 3:1 4:0.828283 5:0.878788 6:0.636364 7:0.616162 8:0.828283 9:0.474747 10:1 11:0.16 12:0.57 13:0.14 14:0.13 
0 0 1 0 0 1 0 0 0 1:0.565657 2:0.757576 3:0.464646 4:1 5:0.888889 6:0.949495 7:0.616162 8:0.636364 9:0.707071 10:0.484848 11:1 12:0.23 13:0.57 14:0.01 
0 0 1 0 0 0 0 0 0 1:0.212121 2:0.767677 3:0.333333 4:1 5:0.89899 6:0.989899 7:0.646465 8:0.666667 9:0.717172 10:0.555556 11:1 12:0.28 13:0.58 14:0.02 
0.20330130793690704 0 1 0 1 0 0 0 1 1:0.464646 2:0.909091 3:0.79798 4:1 5:0.656566 6:0.69697 7:0.808081 8:0.646465 9:1 10:0.363636 11:0.76 12:0.06 13:0.36 14:0.18 
1 0 0 0 1 0 0 0 0 1:0.141414 2:0.858586 3:0.484848 4:1 5:1 6:0.989899 7:0.929293 8:0.777778 9:0.565657 10:0.59596 11:0.64 12:0.36 13:0.42 14:0.15 
1 0 1 0 1 0 0 0 0 1:0.111111 2:0.909091 3:0.545455 4:0.979798 5:1 6:1 7:1 8:0.828283 9:0.666667 10:0.636364 11:0.54 12:0.39 13:0.37 14:0.14 
0 0 1 0 1 0 0 0 0.99125253659937729 1:0.909091 2:0.40404 3:1 4:0.666667 5:0.757576 6:0.525253 7:0.606061 8:0.989899 9:0.474747 10:1 11:0.15 12:0.54 13:0.06 14:0.07 
0 0 1 0 0 1 0 0 1 1:0.272727 2:0.878788 3:0.575758 4:1 5:0.606061 6:0.737374 7:0.454545 8:0.535354 9:0.949495 10:0.444444 11:1 12:0.2 13:0.54 14:0.05 
0 1 1 0 0 1 1 1 1 1:0.121212 2:0.868687 3:0.10101 4:1 5:0.585859 6:0.949495 7:0.313131 8:0.646465 9:0.808081 10:0.555556 11:1 12:0.29 13:0.56 14:0.08 
0 0 1 0 0 1 1 1 1 1:0.313131 2:0.878788 3:0.20202 4:1 5:0.656566 6:0.939394 7:0.444444 8:0.646465 9:0.686869 10:0.535354 11:1 12:0.29 13:0.64 14:0.03 
0 0 0 0 1 0 0 0 0 1:0.828283 2:0.363636 3:1 4:0.808081 5:0.89899 6:0.646465 7:0.606061 8:1 9:0.444444 10:0.969697 11:0.15 12:0.54 13:0.14 14:0.07 
1 0 0 1 1 0 0 1 0 1:0.0808081 2:0.777778 3:0.474747 4:1 5:1 6:0.939394 7:0.777778 8:0.626263 9:0.848485 10:0.353535 11:0.73 12:0.06 13:0.19 14:0.29 
0 0 0 0 0 1 0 1 0 1:0.181818 2:0.929293 3:0.656566 4:1 5:0.777778 6:0.777778 7:0.40404 8:0.575758 9:0.626263 10:0.40404 11:1 12:0.23 13:0.53 14:0.09 
0 0 0 0 0 1 0 0 0 1:0.0606061 2:0.939394 3:0.535354 4:1 5:0.757576 6:0.79798 7:0.292929 8:0.626263 9:0.727273 10:0.424242 11:1 12:0.17 13:0.6 14:0.06 
0 1 1 0 0 1 1 1 1 1:0.242424 2:0.89899 3:0.232323 4:1 5:0.606061 6:0.89899 7:0.30303 8:0.636364 9:0.767677 10:0.525253 11:1 12:0.27 13:0.68 14:0.04 
1 0 0 0 1 1 0 0 0 1:0.353535 2:0.89899 3:0.767677 4:1 5:1 6:0.878788 7:0.656566 8:0.676768 9:0.464646 10:0.484848 11:0.73 12:0.27 13:0.42 14:0.06 
1 0 0 0 1 0 0 0 0 1:0.575758 2:0.909091 3:0.929293 4:1 5:0.767677 6:0.727273 7:0.969697 8:0.484848 9:1 10:0.191919 11:0.7 12:0.26 13:0.07 14:0.28 
1 1 1 1 0.72064943569478701 1 1 1 1 1:0.0606061 2:0.848485 3:0.282828 4:1 5:0.272727 6:0.69697 7:0.252525 8:0.545455 9:0.828283 10:0.575758 11:1 12:0.31 13:0.55 14:0.11 
1 0 0 0 0 0 0 1 0 1:0.292929 2:0.787879 3:0.717172 4:1 5:0.949495 6:0.707071 7:0.585859 8:0.393939 9:1 10:0.30303 11:0.84 12:0.27 13:0.04 14:0.27 
0 0 1 0 0 1 0 0 0 1:0.484848 2:0.848485 3:0.838384 4:1 5:0.888889 6:0.808081 7:0.474747 8:0.606061 9:0.89899 10:0.484848 11:1 12:0.3 13:0.51 14:0.14 
1 0 0 1 1 1 0 1 0 1:0.151515 2:0.777778 3:0.40404 4:1 5:0.888889 6:0.838384 7:0.373737 8:0.606061 9:0.282828 10:0.40404 11:1 12:0.25 13:0.84 14:0.02 
1 0 0 0 1 0 0 0 0 1:0.666667 2:0.757576 3:0.868687 4:1 5:0.959596 6:0.737374 7:0.69697 8:0.494949 9:1 10:0.252525 11:0.76 12:0.01 13:0.34 14:0.2 
0 0 1 0 0 0 0 0 0 1:0.616162 2:0.767677 3:0.757576 4:1 5:0.949495 6:0.828283 7:0.555556 8:0.575758 9:0.949495 10:0.515152 11:1 12:0.21 13:0.55 14:0.02 
0 0 0 0 0 1 0 1 0 1:0.0909091 2:0.848485 3:0.525253 4:1 5:0.868687 6:0.777778 7:0.40404 8:0.545455 9:0.636364 10:0.464646 11:1 12:0.21 13:0.56 14:0.09 
1 0 0 0 1 1 0 0 0 1:0.313131 2:0.89899 3:0.646465 4:1 5:1 6:0.89899 7:0.747475 8:0.707071 9:0.585859 10:0.494949 11:0.68 12:0.27 13:0.39 14:0.1 
0 0 0 0 0 1 0 0 0 1:0.393939 2:0.79798 3:0.59596 4:1 5:1 6:0.888889 7:0.585859 8:0.636364 9:0.59596 10:0.474747 11:1 12:0.27 13:0.6 14:0.02 
0 0 1 0 1 0 0 0 0 1:0.777778 2:0.353535 3:1 4:0.808081 5:0.868687 6:0.616162 7:0.565657 8:0.838384 9:0.505051 10:1 11:0.18 12:0.57 13:0.12 14:0.13 
0 1 1 0 0 1 0.30524293738325137 0 1 1:0.181818 2:0.888889 3:0.59596 4:1 5:0.535354 6:0.686869 7:0.464646 8:0.494949 9:1 10:0.474747 11:0.99 12:0.2 13:0.54 14:0.02 
1 0 1 0 0.4342395099030299 1 0 0 1 1:0.484848 2:0.949495 3:0.818182 4:1 5:0.676768 6:0.676768 7:0.727273 8:0.656566 9:1 10:0.40404 11:0.74 12:0.12 13:0.29 14:0.21 
0 0 0 0 0 1 0 0 0 1:0.777778 2:0.333333 3:1 4:0.79798 5:0.909091 6:0.626263 7:0.565657 8:0.565657 9:0.424242 10:1 11:0.25 12:0.72 13:0.24 14:0.01 
0 0 1 0 0 0 0 0 0 1:0.424242 2:0.767677 3:0.525253 4:1 5:0.949495 6:0.939394 7:0.676768 8:0.666667 9:0.79798 10:0.525253 11:1 12:0.29 13:0.57 14:0.07 
0 0 0 1 0 1 0 1 0 1:0.0606061 2:0.888889 3:0.515152 4:1 5:0.808081 6:0.818182 7:0.454545 8:0.585859 9:0.545455 10:0.363636 11:1 12:0.18 13:0.56 14:0.03 
1 1 0 1 1 1 0.47144377407981714 1 1 1:0.0606061 2:0.89899 3:0.545455 4:1 5:0.929293 6:0.818182 7:0.787879 8:0.535354 9:0.40404 10:0.30303 11:0.1 12:0.4 13:1 
1 0 0 0 0 0 0 0 0 1:0.656566 2:1 3:1 4:0.939394 5:0.909091 6:0.686869 7:0.686869 8:0.464646 9:0.949495 10:0.232323 11:0.74 12:0.02 13:0.36 14:0.09 
0 0.27036593466629377 1 0 1 0 0 0 0 1:0.505051 2:0.858586 3:0.767677 4:1 5:0.636364 6:0.69697 7:0.888889 8:0.575758 9:1 10:0.262626 11:0.75 12:0.35 13:0.18 
1 0 1 0 1 0 0 0.14905248690406689 0 1:0.79798 2:0.333333 3:1 4:0.858586 5:1 6:0.828283 7:0.727273 8:0.505051 9:0.494949 10:1 11:0.37 12:0.85 13:0.12 14:0.36 
1 0 1 0 0 1 0 0 0 1:0.868687 2:0.373737 3:1 4:0.878788 5:0.878788 6:0.676768 7:0.575758 8:0.464646 9:0.383838 10:1 11:0.28 12:0.96 13:0.41 14:0.01 
0 0 0 0 1 0 0 0 0 1:0.858586 2:0.363636 3:1 4:0.848485 5:0.929293 6:0.717172 7:0.666667 8:0.939394 9:0.353535 10:1 11:0.04 12:0.53 13:0.06 14:0.11 
1 0 1 0 1 0 0 1 0 1:0.686869 2:0.040404 3:0.919192 4:0.616162 5:1 6:1 7:0.818182 8:0.79798 9:0.525253 10:0.969697 11:0.26 12:0.97 13:0.02 14:0.38 
0 0 0 0 0 1 0 0 0 1:0.292929 2:0.858586 3:0.666667 4:1 5:0.767677 6:0.767677 7:0.525253 8:0.494949 9:0.777778 10:0.393939 11:1 12:0.17 13:0.56 14:0.05 
0 0 0 0 1 0 1 1 1 1:0.010101 2:0.545455 3:0.171717 4:0.858586 5:0.69697 6:1 7:0.979798 8:0.787879 9:0.747475 10:0.494949 11:1 12:0.15 13:0.52 14:0.15 
1 1 0.33261374588281623 1 1 1 1 1 1 1:0.979798 2:0.333333 3:1 4:0.525253 5:0.777778 6:0.464646 7:0.464646 8:0.717172 9:0.252525 10:1 11:0.08 12:0.68 13:0.36 14:0.08 
0.67914862033576395 0 0 0 0 0 0 0 0 1:0.575758 2:0.858586 3:0.818182 4:1 5:1 6:0.79798 7:0.727273 8:0.59596 9:0.838384 10:0.353535 11:0.75 12:0.16 13:0.37 14:0.09 
0 0 1 0 0 0 1 0 1 1:0.939394 2:0.444444 3:1 4:0.69697 5:0.757576 6:0.313131 7:0.575758 8:0.858586 9:0.515152 10:1 11:0.22 12:0.56 13:0.02 14:0.01 
0 0 0 0 1 0 0 0 0 1:0.565657 2:0.818182 3:0.646465 4:1 5:1 6:0.878788 7:0.888889 8:0.636364 9:0.787879 10:0.383838 11:0.75 12:0.13 13:0.39 14:0.02 
1 0 1 1 1 0 1 1 1 1:0.757576 2:0.222222 3:1 4:0.616162 5:0.848485 6:0.40404 7:0.515152 8:0.585859 9:0.464646 10:1 11:0.24 12:0.71 13:0.28 14:0.16 
0 0 0 0 1 0 0 0 0 1:0.383838 2:0.828283 3:0.626263 4:1 5:0.777778 6:0.777778 7:0.707071 8:0.606061 9:1 10:0.383838 11:0.78 12:0.11 13:0.36 14:0.17 
1 0 0 1 1 0 0.67952386345835825 1 0 1:0.010101 2:0.787879 3:0.474747 4:1 5:0.767677 6:0.828283 7:0.59596 8:0.525253 9:1 10:0.272727 11:0.83 12:0.23 13:0.01 14:0.3 
1 0 0 1 1 0 0 0 0 1:0.545455 2:0.888889 3:0.848485 4:1 5:1 6:0.808081 7:0.777778 8:0.59596 9:0.686869 10:0.343434 11:0.64 12:0.09 13:0.33 14:0.03 
1 0 1 0 0.51477652702198184 0 0 1 0 1:0.878788 2:0.171717 3:1 4:0.676768 5:0.969697 6:0.585859 7:0.69697 8:0.545455 9:0.494949 10:1 11:0.37 12:0.84 13:0.11 14:0.35 
1 0 0 1 1 1 0 0 0 1:0.505051 2:0.79798 3:0.707071 4:1 5:1 6:0.858586 7:0.787879 8:0.636364 9:0.525253 10:0.434343 11:0.62 12:0.19 13:0.41 14:0.01 
0 1 0 0 0 1 0 1 0 1:0.828283 2:0.424242 3:1 4:0.767677 5:0.777778 6:0.444444 7:0.484848 8:0.606061 9:0.434343 10:1 11:0.21 12:0.58 13:0.04 14:0.06 
0 0 1 0 0 0 0 0 0 1:0.414141 2:0.868687 3:0.79798 4:1 5:0.69697 6:0.717172 7:0.575758 8:0.616162 9:1 10:0.454545 11:0.87 12:0.15 13:0.42 14:0.03 
1 0 0 0 1 0 0 0 0 1:0.818182 2:0.434343 3:0.979798 4:1 5:1 6:0.929293 7:0.747475 8:0.525253 9:0.545455 10:0.777778 11:0.35 12:0.58 13:0.13 14:0.07 
0 0 0 0 0 0 0 1 0 1:0.30303 2:0.69697 3:0.464646 4:1 5:0.909091 6:0.747475 7:0.505051 8:0.494949 9:0.707071 10:0.474747 11:1 12:0.18 13:0.51 14:0.17 
1 0 0 0.94340080280053484 1 0 0 0 0 1:0.868687 2:0.454545 3:1 4:1 5:0.979798 6:0.757576 7:0.767677 8:0.444444 9:0.575758 10:0.666667 11:0.37 12:0.55 13:0.15 14:0.12 
1 0 0 1 1 0 0 0 0 1:0.777778 2:0.252525 3:0.939394 4:0.949495 5:1 6:1 7:0.818182 8:0.565657 9:0.606061 10:0.616162 11:0.37 12:0.57 13:0.14 
1 0 0 0 1 0 0 0 0 1:0.888889 2:0.454545 3:1 4:1 5:0.979798 6:0.838384 7:0.777778 8:0.505051 9:0.575758 10:0.707071 11:0.35 12:0.5 13:0.14 14:0.05 
1 0 0 0 0 0 0 1 0 1:0.474747 2:0.747475 3:0.767677 4:1 5:1 6:0.717172 7:0.484848 8:0.515152 9:0.828283 10:0.393939 11:0.93 12:0.08 13:0.39 14:0.25 
1 1 0 1 1 0 0 1 0 1:0.777778 2:0.343434 3:1 4:0.737374 5:0.858586 6:0.414141 7:0.545455 8:0.565657 9:0.30303 10:1 11:0.08 12:0.58 13:0.08 14:0.08 
0 0 0 1 0 0 0 0 0 1:0.111111 2:0.79798 3:0.393939 4:1 5:0.808081 6:0.89899 7:0.636364 8:0.59596 9:0.636364 10:0.292929 11:1 12:0.09 13:0.53 14:0.01 
1 0 1 0 1 1 0 0 0 1:0.79798 2:0.424242 3:0.929293 4:0.909091 5:1 6:0.959596 7:0.79798 8:0.747475 9:0.565657 10:1 11:0.36 12:0.9 13:0.14 14:0.48 
1 1 0 1 1 1 1 1 1 1:0.111111 2:0.727273 3:0.212121 4:1 5:0.717172 6:0.79798 7:0.252525 8:0.535354 9:0.555556 10:0.464646 11:1 12:0.2 13:0.5 14:0.18 
0 0 1 0 0 0 0 0 0 1:0.333333 2:0.888889 3:0.676768 4:1 5:0.777778 6:0.79798 7:0.606061 8:0.666667 9:1 10:0.474747 11:0.95 12:0.19 13:0.51 
0 1 0 1 0 1 1 1 0.96123588804876825 1:0.818182 2:0.373737 3:1 4:0.707071 5:0.787879 6:0.393939 7:0.505051 8:0.585859 9:0.40404 10:1 11:0.2 12:0.64 13:0.09 14:0.05 
1 0 0 0 1 0 0 0 0 1:0.717172 2:0.171717 3:1 4:0.676768 5:0.979798 6:0.626263 7:0.727273 8:0.888889 9:0.40404 10:1 11:0.05 12:0.53 13:0.06 14:0.12 
0 0 1 0 1 0 1 0 1 1:0.383838 2:0.777778 3:0.242424 4:0.969697 5:0.737374 6:1 7:1 8:0.808081 9:0.848485 10:0.565657 11:0.72 12:0.32 13:0.46 14:0.1 
0 1 1 0 0 0.50501439506283063 1 0 1 1:0.818182 2:0.434343 3:1 4:0.686869 5:0.808081 6:0.373737 7:0.535354 8:0.676768 9:0.454545 10:1 11:0.2 12:0.61 13:0.06 14:0.06 
0 0 1 0 0 0 1 0 1 1:0.333333 2:0.989899 3:0.131313 4:0.979798 5:0.676768 6:1 7:0.838384 8:0.676768 9:0.69697 10:0.424242 11:1 12:0.11 13:0.53 14:0.08 
0 0 0 0 1 1 0 0 0 1:0.868687 2:0.434343 3:1 4:0.89899 5:0.888889 6:0.727273 7:0.636364 8:0.828283 9:0.363636 10:1 11:0.09 12:0.56 13:0.06 14:0.01 
0 0 0 1 0 0 0 0 0 1:0.282828 2:0.757576 3:0.444444 4:1 5:1 6:0.89899 7:0.747475 8:0.626263 9:0.424242 10:0.393939 11:0.98 12:0.24 13:0.63 14:0.04 
0 0 1 0 0 0 0 0 0 1:0.141414 2:0.767677 3:0.414141 4:1 5:0.757576 6:0.868687 7:0.40404 8:0.616162 9:0.929293 10:0.555556 11:1 12:0.29 13:0.58 14:0.07 
0 1 0 0 0 0 1 0 1 1:0.343434 2:0.79798 3:0.494949 4:1 5:0.626263 6:0.717172 7:0.585859 8:0.535354 9:1 10:0.40404 11:0.89 12:0.13 13:0.46 
0 0 0 0 0 1 0 0 0 1:0.666667 2:0.929293 3:1 4:1 5:0.878788 6:0.767677 7:0.585859 8:0.555556 9:0.868687 10:0.333333 11:0.92 12:0.09 13:0.46 14:0.04 
0 0 1 0 0 1 0 0 0 1:0.343434 2:0.89899 3:0.878788 4:1 5:0.808081 6:0.787879 7:0.434343 8:0.616162 9:0.939394 10:0.434343 11:1 12:0.18 13:0.54 14:0.08 
0.27216577905603906 0 1 0 0 0 0 0 0 1:0.858586 2:0.393939 3:1 4:0.848485 5:0.888889 6:0.525253 7:0.626263 8:0.525253 9:0.40404 10:1 11:0.26 12:0.74 13:0.04 14:0.22 
0 0 0 0 0 1 0 0 0 1:0.878788 2:0.494949 3:1 4:0.828283 5:0.848485 6:0.515152 7:0.606061 8:0.616162 9:0.373737 10:1 11:0.18 12:0.57 13:0.01 14:0.03 
0 0 1 0 0 0 0 0 0 1:0.89899 2:0.373737 3:1 4:0.767677 5:0.949495 6:0.676768 7:0.686869 8:0.868687 9:0.494949 10:1 11:0.19 12:0.7 13:0.32 14:0.06 
1 0 1 0 0 1 0 0 0 1:0.959596 2:0.505051 3:1 4:0.979798 5:0.878788 6:0.868687 7:0.606061 8:0.525253 9:0.414141 10:1 11:0.27 12:0.68 13:0.07 14:0.17 
1 0 1 0 1 0 0 0 0 1:0.121212 2:0.717172 3:0.262626 4:0.979798 5:0.929293 6:1 7:1 8:0.747475 9:0.575758 10:0.535354 11:0.85 12:0.37 13:0.56 14:0.14 
0 0 1 0 0 1 0 0 0 1:0.838384 2:0.383838 3:1 4:0.787879 5:0.777778 6:0.383838 7:0.545455 8:0.666667 9:0.474747 10:1 11:0.21 12:0.62 13:0.15 14:0.1 
0 0 0 0 1 0 0 0 0 1:0.858586 2:0.444444 3:1 4:0.949495 5:0.929293 6:0.747475 7:0.686869 8:0.949495 9:0.383838 10:1 11:0.07 12:0.5 13:0.01 14:0.12 
0 0 0 0 1 0 0 0 0 1:0.757576 2:0.323232 3:1 4:0.818182 5:0.919192 6:0.444444 7:0.69697 8:0.686869 9:0.444444 10:1 11:0.16 12:0.58 13:0.13 14:0.1 
0 0 0 0 1 0 0 0 0 1:0.181818 2:0.727273 3:0.535354 4:0.909091 5:1 6:1 7:0.989899 8:0.777778 9:0.858586 10:0.515152 11:0.78 12:0.26 13:0.43 14:0.08 
0 0 1 0 0 0 0 0 0 1:0.434343 2:0.838384 3:0.79798 4:1 5:0.838384 6:0.727273 7:0.494949 8:0.59596 9:1 10:0.484848 11:0.86 12:0.16 13:0.33 14:0.23 
0 0 0 0 1 0 0 0 0 1:0.828283 2:0.414141 3:1 4:0.979798 5:0.969697 6:0.929293 7:0.707071 8:0.808081 9:0.434343 10:1 11:0.15 12:0.58 13:0.04 14:0.07 
1 0 0 0 1 1 0 0 0 1:0.69697 2:0.939394 3:0.979798 4:1 5:1 6:0.787879 7:0.69697 8:0.606061 9:0.747475 10:0.343434 11:0.62 12:0.12 13:0.26 
1 0 1 0.66336013411365591 1 1 1 1 1 1:0.909091 2:0.353535 3:1 4:0.616162 5:0.828283 6:0.565657 7:0.59596 8:0.69697 9:0.383838 10:1 11:0.22 12:0.78 13:0.04 14:0.39 
1 0 0 0 1 0 0 0 0 1:0.747475 2:0.79798 3:0.929293 4:1 5:1 6:0.808081 7:0.79798 8:0.585859 9:0.656566 10:0.343434 11:0.66 12:0.09 13:0.34 14:0.04 
1 1 0 0 0 1 0 1 1 1:0.111111 2:0.89899 3:0.666667 4:1 5:0.707071 6:0.69697 7:0.252525 8:0.434343 9:0.707071 10:0.464646 11:1 12:0.19 13:0.5 14:0.14 
1 0 0 0 1 0.33989345905885554 0 0 0 1:0.777778 2:0.353535 3:1 4:0.787879 5:0.989899 6:0.848485 7:0.666667 8:0.69697 9:0.40404 10:1 11:0.16 12:0.63 13:0.24 14:0.16 
0 0 0 0 0 1 0 0 0 1:0.252525 2:0.79798 3:0.494949 4:1 5:1 6:0.949495 7:0.575758 8:0.717172 9:0.494949 10:0.464646 11:0.9 12:0.2 13:0.53 14:0.05 
0 0 1 0 0 0 1 0 1 1:0.131313 2:0.818182 3:0.444444 4:1 5:0.565657 6:0.737374 7:0.424242 8:0.525253 9:1 10:0.505051 11:1 12:0.25 13:0.58 14:0.05 
0 0 0 0 1 0 0 0 0 1:0.181818 2:0.919192 3:0.575758 4:1 5:1 6:1 7:0.939394 8:0.787879 9:0.727273 10:0.545455 11:0.69 12:0.25 13:0.4 14:0.05 
0 0 1 0 0 0 0 0 0 1:0.292929 2:0.838384 3:0.353535 4:1 5:0.787879 6:0.89899 7:0.555556 8:0.626263 9:0.858586 10:0.505051 11:1 12:0.26 13:0.61 14:0.04 
0.56845224845579823 0 1 0 0 0 0 0 0 1:0.79798 2:0.373737 3:1 4:0.949495 5:0.949495 6:0.565657 7:0.707071 8:0.505051 9:0.505051 10:1 11:0.31 12:0.95 13:0.02 14:0.36 
1 0 1 0 1 0 1 1 1 1:0.838384 2:0.292929 3:1 4:0.353535 5:0.747475 6:0.272727 7:0.515152 8:0.888889 9:0.515152 10:1 11:0.27 12:0.64 13:0.06 14:0.06 
0 0 1 0 0 0.75617992205186202 0 0 0 1:0.353535 2:0.868687 3:0.232323 4:1 5:0.767677 6:1 7:0.636364 8:0.69697 9:0.737374 10:0.515152 11:1 12:0.26 13:0.62 14:0.02 
0 1 0 0 0 0 0 0 0 1:0.373737 2:0.848485 3:0.686869 4:1 5:0.757576 6:0.747475 7:0.545455 8:0.494949 9:1 10:0.333333 11:0.77 12:0.11 13:0.28 14:0.08 
0 0 1 0 0 0 0 0 0 1:0.424242 2:0.828283 3:0.535354 4:1 5:0.727273 6:0.787879 7:0.505051 8:0.59596 9:1 10:0.484848 11:0.88 12:0.19 13:0.42 14:0.1 
0 0 0 0 1 0 0 0 0 1:0.30303 2:0.808081 3:0.575758 4:1 5:1 6:1 7:0.808081 8:0.757576 9:0.646465 10:0.494949 11:0.78 12:0.22 13:0.41 14:0.07 
0 0 0 0 1 0 0 0 0 1:0.222222 2:0.838384 3:0.555556 4:1 5:1 6:0.929293 7:0.79798 8:0.727273 9:0.676768 10:0.505051 11:0.76 12:0.28 13:0.42 14:0.12 
1 0 1 0 1 0 0 0 0 1:0.69697 2:0.131313 3:0.969697 4:0.656566 5:1 6:1 7:0.787879 8:0.656566 9:0.545455 10:0.939394 11:0.27 12:0.9 13:0.41 14:0.02 
0 0.83291095352859756 1 0 0 1 1 0 1 1:0.373737 2:0.838384 3:0.222222 4:1 5:0.676768 6:0.929293 7:0.40404 8:0.636364 9:0.777778 10:0.515152 11:1 12:0.24 13:0.6 14:0.01 
1 0 0 0 1 0 0 0 0 1:0.373737 2:0.838384 3:0.69697 4:1 5:0.959596 6:0.808081 7:0.757576 8:0.535354 9:1 10:0.262626 11:0.75 12:0.01 13:0.29 14:0.24 
0 1 1 1 0 1 1 1 1 1:0.878788 2:0.444444 3:1 4:0.656566 5:0.717172 6:0.262626 7:0.474747 8:0.585859 9:0.424242 10:1 11:0.21 12:0.6 13:0.07 14:0.04 
0 0 1 0 0 0 0 0 0 1:0.474747 2:0.626263 3:0.414141 4:1 5:0.939394 6:0.989899 7:0.939394 8:0.616162 9:0.89899 10:0.535354 11:1 12:0.19 13:0.51 14:0.11 
0 0 0 0 0 1 0 1 0 1:0.212121 2:0.828283 3:0.616162 4:1 5:0.919192 6:0.777778 7:0.505051 8:0.525253 9:0.545455 10:0.363636 11:1 12:0.17 13:0.55 14:0.07 
0 1 0 1 0 0 1 1 1 1:0.838384 2:0.363636 3:1 4:0.585859 5:0.757576 6:0.232323 7:0.484848 8:0.69697 9:0.424242 10:1 11:0.21 12:0.6 13:0.07 14:0.06 
0 0 0 0 0 1 0 0 0 1:0.141414 2:0.909091 3:0.676768 4:1 5:0.808081 6:0.818182 7:0.434343 8:0.555556 9:0.585859 10:0.383838 11:1 12:0.2 13:0.54 14:0.01 
0 0 0.52034409427797901 0 0 0 0 0 0 1:0.555556 2:0.868687 3:0.909091 4:1 5:0.808081 6:0.717172 7:0.606061 8:0.575758 9:1 10:0.40404 11:0.87 12:0.12 13:0.38 14:0.12 
1 0 0 1 1 0.32428996176581903 0 0 0 1:0.484848 2:0.777778 3:0.686869 4:1 5:1 6:0.949495 7:0.757576 8:0.717172 9:0.606061 10:0.454545 11:0.59 12:0.18 13:0.33 14:0.12 
0 0 0 0 1 0 0 0 0 1:0.313131 2:0.888889 3:0.666667 4:1 5:1 6:0.929293 7:0.787879 8:0.707071 9:0.656566 10:0.464646 11:0.68 12:0.22 13:0.4 14:0.06 
1 1 0 1 1 0 0 1 0 1:0.444444 2:0.919192 3:0.686869 4:1 5:0.686869 6:0.69697 7:0.59596 8:0.434343 9:1 10:0.272727 11:0.78 12:0.04 13:0.33 14:0.15 
0 0 1 0 0 1 0 0 0.98896069614545767 1:0.505051 2:1 3:0.929293 4:0.949495 5:0.636364 6:0.727273 7:0.69697 8:0.606061 9:1 10:0.383838 11:0.82 12:0.12 13:0.38 14:0.07 
1 0 0 0 1 0 0 0 0 1:0.777778 2:0.333333 3:0.959596 4:0.868687 5:1 6:1 7:0.818182 8:0.585859 9:0.626263 10:0.666667 11:0.39 12:0.55 13:0.15 14:0.11 
1 0 0 1 1 1 0 1 0 1:0.535354 2:0.858586 3:0.838384 4:1 5:1 6:0.787879 7:0.707071 8:0.585859 9:0.555556 10:0.333333 11:0.62 12:0.09 13:0.22 14:0.15 
0 0 0 0 1 0 0 0 0 1:0.444444 2:0.838384 3:0.727273 4:1 5:1 6:0.979798 7:0.818182 8:0.717172 9:0.686869 10:0.424242 11:0.61 12:0.14 13:0.31 14:0.02 
0 0 0 0 0 1 0 1 0 1:0.0505051 2:0.848485 3:0.545455 4:1 5:0.69697 6:0.808081 7:0.313131 8:0.545455 9:0.676768 10:0.424242 11:1 12:0.2 13:0.56 14:0.01 
0 1 0 0 0 1 0 0 0 1:0.818182 2:0.393939 3:1 4:0.79798 5:0.79798 6:0.424242 7:0.525253 8:0.535354 9:0.444444 10:1 11:0.25 12:0.63 13:0.03 14:0.04 
0 1 0 0 0 0 0 0 0 1:0.10101 2:0.909091 3:0.40404 4:1 5:0.636364 6:0.787879 7:0.525253 8:0.494949 9:0.838384 10:0.282828 11:1 12:0.08 13:0.51 14:0.02 
0 0 0 0 1 0 0 0 0 1:0.383838 2:0.828283 3:0.575758 4:1 5:1 6:0.89899 7:0.79798 8:0.626263 9:0.939394 10:0.363636 11:0.8 12:0.09 13:0.35 14:0.17 
0 0.33110544831970573 0 0 1 0 0 0 0 1:0.818182 2:0.373737 3:1 4:0.787879 5:0.838384 6:0.454545 7:0.555556 8:0.59596 9:0.373737 10:1 11:0.18 12:0.56 13:0.12 14:0.06 
0 0 0 0 1 0 0 0 0 1:0.858586 2:0.292929 3:1 4:0.646465 5:0.888889 6:0.494949 7:0.59596 8:0.737374 9:0.363636 10:1 11:0.14 12:0.55 13:0.09 
0 0 1 0 0 0 0 0 0 1:0.565657 2:0.818182 3:0.808081 4:1 5:0.838384 6:0.777778 7:0.565657 8:0.565657 9:1 10:0.505051 11:0.86 12:0.2 13:0.47 14:0.02 
0 0 0 0 1 0 0 0 0 1:0.424242 2:0.818182 3:0.59596 4:1 5:1 6:0.909091 7:0.737374 8:0.676768 9:0.59596 10:0.494949 11:0.77 12:0.26 13:0.41 14:0.1 
0 0 1 0 0 0 0 0 0 1:0.393939 2:0.838384 3:0.606061 4:1 5:0.868687 6:0.828283 7:0.525253 8:0.59596 9:0.959596 10:0.464646 11:1 12:0.23 13:0.55 14:0.05 
0 0 0 0 1 0 0 0 0 1:0.40404 2:0.777778 3:0.676768 4:1 5:0.777778 6:0.828283 7:0.69697 8:0.565657 9:1 10:0.333333 11:0.82 12:0.05 13:0.41 14:0.09 
0 0 1 0 0 0 0 0 0 1:0.242424 2:0.747475 3:0.363636 4:0.979798 5:0.919192 6:1 7:1 8:0.747475 9:0.676768 10:0.505051 11:0.97 12:0.27 13:0.51 14:0.09 
1 0 0 0 0 0 0 0 0 1:0.818182 2:0.939394 3:1 4:1 5:0.959596 6:0.787879 7:0.89899 8:0.545455 9:0.989899 10:0.292929 11:0.74 12:0.11 13:0.37 14:0.06 
1 0 0 0 0 1 0 0 0 1:0.676768 2:0.89899 3:1 4:1 5:1 6:0.79798 7:0.787879 8:0.585859 9:0.707071 10:0.343434 11:0.73 12:0.11 13:0.39 14:0.03 
1 0 1 0 1 0 0 0 1 1:0.0606061 2:0.777778 3:0.323232 4:0.959596 5:0.888889 6:1 7:1 8:0.79798 9:0.636364 10:0.59596 11:0.74 12:0.36 13:0.46 14:0.14 
0 0 0 0 1 1 0 0 0 1:0.949495 2:0.474747 3:1 4:0.919192 5:0.848485 6:0.545455 7:0.606061 8:0.777778 9:0.333333 10:1 11:0.05 12:0.48 13:0.03 14:0.15 
1 0 0 1 1 0 0 1 0 1:0.747475 2:0.242424 3:1 4:0.89899 5:0.828283 6:0.444444 7:0.555556 8:0.585859 9:0.464646 10:1 11:0.18 12:0.43 13:0.06 14:0.19 
0 0 0 0 0.66370197567772948 0 0 0 0 1:0.59596 2:0.818182 3:0.707071 4:1 5:1 6:0.868687 7:0.727273 8:0.59596 9:1 10:0.353535 11:0.79 12:0.08 13:0.37 14:0.17 
0 0.082367818013064115 0 0 0 0 1 0 0 1:0.030303 2:0.838384 3:0.494949 4:1 5:0.565657 6:0.787879 7:0.383838 8:0.515152 9:0.89899 10:0.40404 11:1 12:0.15 13:0.52 14:0.05 
0 0 0.79559719343151836 0 0 0 0 0 0 1:0.474747 2:0.858586 3:0.636364 4:1 5:0.939394 6:0.79798 7:0.575758 8:0.535354 9:1 10:0.515152 11:0.87 12:0.19 13:0.43 14:0.07 
0 0 1 0 0 1 0 0 1 1:0.40404 2:0.979798 3:0.818182 4:1 5:0.646465 6:0.707071 7:0.565657 8:0.606061 9:1 10:0.474747 11:0.87 12:0.17 13:0.45 14:0.07 
0 0 0 0 1 0 0 0 0 1:0.454545 2:0.777778 3:0.484848 4:1 5:1 6:0.929293 7:0.777778 8:0.646465 9:0.858586 10:0.383838 11:0.87 12:0.1 13:0.36 14:0.19 
0 0 0 0 1 0 0 0 0 1:0.333333 2:0.868687 3:0.69697 4:1 5:1 6:0.919192 7:0.828283 8:0.666667 9:0.727273 10:0.393939 11:0.77 12:0.14 13:0.41 14:0.01 
1 0 0 1 1 0 0 1 0 1:0.282828 2:0.757576 3:0.515152 4:1 5:1 6:0.959596 7:0.858586 8:0.69697 9:0.575758 10:0.454545 11:0.55 12:0.29 13:0.51 14:0.05 
0 0 0.258416571862714 0 1 0 0 0 0 1:0.747475 2:0.232323 3:1 4:0.636364 5:0.949495 6:0.565657 7:0.656566 8:0.959596 9:0.494949 10:1 11:0.19 12:0.64 13:0.22 14:0.03 
1 0 1 0 0.99307003245973569 1 0 0 0 1:0.848485 2:0.373737 3:1 4:0.878788 5:0.939394 6:0.858586 7:0.666667 8:0.636364 9:0.40404 10:1 11:0.21 12:0.82 13:0.3 14:0.01 
0 0 1 0 1 0 1 0 1 1:0.444444 2:0.747475 3:0.212121 4:0.989899 5:0.69697 6:1 7:1 8:0.79798 9:0.616162 10:0.494949 11:0.88 12:0.23 13:0.48 14:0.08 
0 1 1 0 0 1 1 1 1 1:0.030303 2:0.808081 3:0.343434 4:1 5:0.444444 6:0.747475 7:0.242424 8:0.555556 9:0.818182 10:0.525253 11:1 12:0.25 13:0.57 14:0.06 
0 0 0 0 1 0 0 0 0 1:0.828283 2:0.363636 3:1 4:0.838384 5:0.979798 6:0.757576 7:0.757576 8:0.79798 9:0.434343 10:1 11:0.13 12:0.62 13:0.15 14:0.04 
1 0 1 0 1 0 0 0 0 1:0.707071 2:0.393939 3:0.909091 4:0.848485 5:1 6:0.919192 7:0.747475 8:0.676768 9:0.474747 10:1 11:0.22 12:0.7 13:0.03 14:0.22 
1 0 0 1 1 1 0 0.74898904047352255 0 1:0.414141 2:0.89899 3:0.737374 4:1 5:1 6:0.868687 7:0.69697 8:0.69697 9:0.454545 10:0.494949 11:0.56 12:0.19 13:0.35 14:0.05 
0 0 1 0 0 0.42221253422424893 0 1 0 1:0.818182 2:0.454545 3:1 4:0.878788 5:0.909091 6:0.444444 7:0.676768 8:0.484848 9:0.424242 10:1 11:0.25 12:0.83 13:0.06 14:0.23 
0 0 0 0 0 0 1 1 0.34528049605393085 1:0.010101 2:0.828283 3:0.313131 4:1 5:0.686869 6:0.838384 7:0.40404 8:0.585859 9:0.757576 10:0.393939 11:1 12:0.15 13:0.54 14:0.1 
0 0 0 0 0 1 0 0 0 1:0.373737 2:0.888889 3:0.838384 4:1 5:0.787879 6:0.727273 7:0.454545 8:0.484848 9:0.909091 10:0.414141 11:1 12:0.16 13:0.52 14:0.07 
1 0 0 0 1 0 0 0 0 1:0.646465 2:0.010101 3:0.939394 4:0.575758 5:1 6:0.979798 7:0.878788 8:0.717172 9:0.585859 10:1 11:0.28 12:0.69 13:0.05 14:0.24 
0 0 0 0 1 0 0 0 0 1:0.222222 2:0.757576 3:0.515152 4:1 5:1 6:0.979798 7:0.787879 8:0.707071 9:0.626263 10:0.494949 11:0.82 12:0.19 13:0.49 14:0.07 
0 0 1 0 1 1 0 0 0 1:0.939394 2:0.454545 3:1 4:0.676768 5:0.79798 6:0.585859 7:0.59596 8:0.929293 9:0.40404 10:1 11:0.15 12:0.62 13:0.14 14:0.02 
1 0 0 1 1 1 0 1 0 1:0.848485 2:0.424242 3:1 4:1 5:0.949495 6:0.848485 7:0.737374 8:0.434343 9:0.565657 10:0.323232 11:0.37 12:0.5 13:0.16 14:0.09 
1 0 1 0 1 0 0.86194576314741622 0 1 1:0.858586 2:0.323232 3:1 4:0.59596 5:0.808081 6:0.575758 7:0.585859 8:0.959596 9:0.434343 10:1 11:0.14 12:0.62 13:0.2 14:0.06 
1 0 0 0 1 0 0 0 0 1:0.434343 2:0.717172 3:0.686869 4:1 5:1 6:0.858586 7:0.666667 8:0.606061 9:0.757576 10:0.484848 11:0.77 12:0.13 13:0.37 14:0.19 
0 0 0 0 1 0 0 0 0 1:0.343434 2:0.767677 3:0.434343 4:1 5:1 6:0.989899 7:0.707071 8:0.686869 9:0.79798 10:0.383838 11:0.9 12:0.07 13:0.33 14:0.24 
0 0 0 0 0 0 0 1 0 1:0.161616 2:0.636364 3:0.373737 4:1 5:0.979798 6:0.939394 7:0.626263 8:0.616162 9:0.666667 10:0.484848 11:1 12:0.15 13:0.42 14:0.17 
1 0 1 0 1 0 0 0 0 1:0.545455 2:0.878788 3:0.828283 4:1 5:0.707071 6:0.69697 7:0.888889 8:0.676768 9:1 10:0.30303 11:0.74 12:0.01 13:0.33 14:0.24 
1 0 0 1 1 0 1 1 0 1:0.656566 2:0.020202 3:0.929293 4:0.515152 5:1 6:1 7:0.909091 8:0.838384 9:0.646465 10:0.444444 11:0.46 12:0.27 13:0.21 14:0.65 
1 0 1 0 1 0 0 0 0 1:0.252525 2:0.79798 3:0.525253 4:1 5:1 6:0.979798 7:0.929293 8:0.757576 9:0.545455 10:0.585859 11:0.71 12:0.37 13:0.37 14:0.17 
1 0 1 0 1 0 0 1 0 1:0.888889 2:0.313131 3:1 4:0.69697 5:0.969697 6:0.727273 7:0.69697 8:0.666667 9:0.424242 10:1 11:0.27 12:0.9 13:0.05 14:0.52 
1 0.43441713262751042 1 0 1 1 0 0 1 1:1 2:0.474747 3:0.989899 4:0.585859 5:0.767677 6:0.606061 7:0.535354 8:0.909091 9:0.343434 10:1 11:0.15 12:0.59 13:0.01 14:0.11 
1 0 0 1 1 1 0 0 0 1:0.606061 2:0.909091 3:0.878788 4:1 5:1 6:0.808081 7:0.777778 8:0.606061 9:0.626263 10:0.373737 11:0.6 12:0.14 13:0.34 14:0.01 
0 0 1 0 0 0 0 0 0 1:0.494949 2:0.838384 3:0.656566 4:1 5:0.747475 6:0.747475 7:0.505051 8:0.505051 9:1 10:0.414141 11:0.97 12:0.13 13:0.49 14:0.07 
0 0 0 0 0 1 0 0 0 1:0.0808081 2:0.959596 3:0.717172 4:1 5:0.959596 6:0.767677 7:0.40404 8:0.585859 9:0.565657 10:0.454545 11:1 12:0.23 13:0.68 14:0.05 
1 0 0 0 1 0 0 1 0 1:0.848485 2:0.323232 3:1 4:0.818182 5:0.79798 6:0.505051 7:0.555556 8:0.666667 9:0.444444 10:1 11:0.17 12:0.53 13:0.11 14:0.2 
0 0 0 1 1 0 0 1 0 1:0.686869 2:0.282828 3:1 4:0.767677 5:0.969697 6:0.383838 7:0.636364 8:0.606061 9:0.373737 10:1 11:0.1 12:0.47 13:0.02 14:0.15 
0 0 0 0 1 0 0 0 0 1:0.282828 2:0.868687 3:0.656566 4:1 5:1 6:0.969697 7:0.737374 8:0.757576 9:0.686869 10:0.515152 11:0.72 12:0.29 13:0.38 14:0.12 
0 0 0 0 1 0 0 0 0 1:0.787879 2:0.262626 3:1 4:0.838384 5:0.989899 6:0.818182 7:0.747475 8:0.838384 9:0.515152 10:1 11:0.28 12:0.55 13:0.11 14:0.02 
1 0 0 1 1 1 0 1 0 1:0.242424 2:0.787879 3:0.585859 4:1 5:1 6:0.878788 7:0.626263 8:0.626263 9:0.343434 10:0.40404 11:0.8 12:0.21 13:0.54 14:0.06 
0 0 0 0 1 0 0 0 0 1:0.222222 2:0.666667 3:0.30303 4:0.939394 5:0.89899 6:1 7:0.79798 8:0.747475 9:0.757576 10:0.434343 11:1 12:0.14 13:0.56 14:0.05 
1 1 1 1 1 0 1 1 1 1:0.888889 2:0.0909091 3:1 4:0.454545 5:0.818182 6:0.10101 7:0.575758 8:0.313131 9:0.494949 10:0.939394 11:0.43 12:1 13:0.18 14:0.52 
0 0 0 0 0 1 0 0 0 1:0.232323 2:0.989899 3:0.767677 4:1 5:0.949495 6:0.69697 7:0.434343 8:0.505051 9:0.727273 10:0.464646 11:1 12:0.18 13:0.55 14:0.08 
0 0 0 0 1 0 0 0 0 1:0.383838 2:0.838384 3:0.636364 4:1 5:0.828283 6:0.767677 7:0.707071 8:0.525253 9:1 10:0.30303 11:0.8 12:0.06 13:0.31 14:0.18 
0 0 0 0 0 1 0 0 0 1:0.0505051 2:0.969697 3:0.626263 4:1 5:0.949495 6:0.787879 7:0.474747 8:0.59596 9:0.666667 10:0.515152 11:1 12:0.28 13:0.56 14:0.08 
0 0 1 0 0 1 0 0 0 1:0.525253 2:0.919192 3:0.747475 4:1 5:0.717172 6:0.707071 7:0.636364 8:0.59596 9:1 10:0.434343 11:0.78 12:0.15 13:0.32 14:0.1 
1 0 0 0 1 0 0 0 0 1:0.878788 2:0.292929 3:1 4:0.676768 5:0.89899 6:0.59596 7:0.616162 8:0.717172 9:0.363636 10:1 11:0.16 12:0.7 13:0.27 14:0.01 
1 0 0 1 1 1 0 1 0 1:0.292929 2:0.777778 3:0.40404 4:1 5:1 6:0.828283 7:0.585859 8:0.616162 9:0.393939 10:0.555556 11:0.85 12:0.3 13:0.62 14:0.09 
0 0 0 0 0 1 0 0 0 1:0.414141 2:0.838384 3:0.69697 4:1 5:1 6:0.868687 7:0.686869 8:0.646465 9:0.545455 10:0.424242 11:0.86 12:0.23 13:0.51 14:0.05 
1 0 1 0 0 0 1 1 1 1:0.848485 2:0.373737 3:1 4:0.59596 5:0.848485 6:0.333333 7:0.585859 8:0.757576 9:0.494949 10:1 11:0.26 12:0.68 13:0.05 14:0.24 
1 0 0 0 1 0 0 0 0 1:0.69697 2:0.868687 3:0.959596 4:1 5:1 6:0.767677 7:0.777778 8:0.565657 9:0.757576 10:0.323232 11:0.72 12:0.09 13:0.37 14:0.05 
0 0 0 0 1 0 0 0 0 1:0.161616 2:0.878788 3:0.555556 4:1 5:1 6:0.989899 7:0.919192 8:0.747475 9:0.606061 10:0.545455 11:0.7 12:0.29 13:0.42 14:0.09 
1 0 0 0 1 1 0 0 0 1:0.141414 2:0.868687 3:0.545455 4:1 5:1 6:0.989899 7:0.838384 8:0.767677 9:0.515152 10:0.565657 11:0.63 12:0.33 13:0.41 14:0.1 
1 0 0 1 1 1 0 1 0 1:0.545455 2:0.818182 3:0.525253 4:1 5:1 6:0.858586 7:0.808081 8:0.585859 9:0.373737 10:0.383838 11:0.78 12:0.24 13:0.54 14:0.03 
0 0 0 0 0 0.71297539526384601 0 0 0 1:0.292929 2:0.878788 3:0.757576 4:1 5:1 6:0.767677 7:0.616162 8:0.494949 9:0.525253 10:0.353535 11:0.94 12:0.17 13:0.51 14:0.03 
1 1 0 1 0 1 1 1 1 1:0.010101 2:0.858586 3:0.454545 4:1 5:0.616162 6:0.737374 7:0.252525 8:0.474747 9:0.59596 10:0.434343 11:1 12:0.23 13:0.61 14:0.08 
1 0 0 0 1 0 0 0 0 1:0.919192 2:0.414141 3:1 4:0.89899 5:1 6:1 7:0.828283 8:0.707071 9:0.626263 10:0.565657 11:0.4 12:0.44 13:0.17 14:0.14 
0 0 1 0 0 0 0 0 1 1:0.30303 2:0.868687 3:0.585859 4:1 5:0.585859 6:0.686869 7:0.737374 8:0.636364 9:1 10:0.414141 11:0.84 12:0.11 13:0.44 
0 0 1 0 1 0 0 0 0 1:0.848485 2:0.424242 3:1 4:0.676768 5:0.868687 6:0.494949 7:0.606061 8:0.919192 9:0.434343 10:1 11:0.14 12:0.55 13:0.08 14:0.08 
1 0 0 0.22487654366088375 1 1 0 1 0 1:0.191919 2:0.909091 3:0.585859 4:1 5:1 6:0.909091 7:0.838384 8:0.707071 9:0.515152 10:0.525253 11:0.64 12:0.32 13:0.39 14:0.12 
1 1 0 0.72075493933585966 1 0 0 0.80837696075232102 1 1:0.363636 2:0.888889 3:0.727273 4:1 5:0.575758 6:0.717172 7:0.808081 8:0.585859 9:1 10:0.282828 11:0.75 12:0.02 13:0.3 14:0.23 
0 1 0 1 0 0 1 1 1 1:0.89899 2:0.353535 3:1 4:0.525253 5:0.757576 6:0.141414 7:0.505051 8:0.666667 9:0.454545 10:1 11:0.2 12:0.61 13:0.1 14:0.07 
1 0 1 0 1 0 0 0 0 1:0.0707071 2:0.808081 3:0.414141 4:0.979798 5:0.919192 6:1 7:1 8:0.787879 9:0.626263 10:0.59596 11:0.65 12:0.36 13:0.44 14:0.14 
0 0 1 0 1 0 0 0 0 1:0.040404 2:0.89899 3:0.454545 4:0.979798 5:0.888889 6:1 7:1 8:0.808081 9:0.767677 10:0.585859 11:0.62 12:0.34 13:0.37 14:0.14 
0 1 0 1 0 0 0 1 0 1:0.838384 2:0.40404 3:1 4:0.858586 5:0.747475 6:0.323232 7:0.515152 8:0.535354 9:0.444444 10:1 11:0.19 12:0.51 13:0.02 14:0.13 
0 0 0 0 1 0 0 0 0 1:0.20202 2:0.808081 3:0.515152 4:1 5:1 6:1 7:0.848485 8:0.757576 9:0.636364 10:0.525253 11:0.83 12:0.29 13:0.44 14:0.13 
1 0 0 0 1 0 0 0 0 1:0.505051 2:0.767677 3:0.737374 4:1 5:1 6:0.777778 7:0.717172 8:0.484848 9:0.939394 10:0.323232 11:0.8 12:0.04 13:0.33 14:0.24 
0 0 1 0 0 0 0 0 0 1:0.0808081 2:0.79798 3:0.232323 4:0.979798 5:0.878788 6:1 7:0.777778 8:0.717172 9:0.646465 10:0.515152 11:1 12:0.3 13:0.64 14:0.05 
1 1 1 0 0 0 1 1 1 1:0.848485 2:0.353535 3:1 4:0.444444 5:0.737374 6:0.232323 7:0.505051 8:0.79798 9:0.555556 10:1 11:0.31 12:0.61 13:0.1 14:0.06 
1 0 1 0 1 1 0 1 0 1:0.59596 2:0.888889 3:0.686869 4:1 5:1 6:0.878788 7:0.686869 8:0.676768 9:0.474747 10:0.464646 11:0.76 12:0.29 13:0.4 14:0.13 
0 0 0 0 0 0 0 1 0 1:0.272727 2:0.737374 3:0.565657 4:1 5:0.808081 6:0.737374 7:0.373737 8:0.464646 9:0.777778 10:0.484848 11:1 12:0.18 13:0.49 14:0.12 
0 1 0 0 0 0 0 0 0 1:0.454545 2:0.878788 3:0.777778 4:1 5:0.787879 6:0.666667 7:0.646465 8:0.464646 9:1 10:0.313131 11:0.75 12:0.07 13:0.37 14:0.05 
0 0 0 0 1 0 0 0 0 1:0.353535 2:0.777778 3:0.656566 4:1 5:0.828283 6:0.818182 7:0.808081 8:0.585859 9:1 10:0.292929 11:0.82 12:0.03 13:0.38 14:0.16 
0 0 1 0 0 1 0 0 0.055982731772032515 1:0.545455 2:0.939394 3:0.292929 4:1 5:0.838384 6:0.989899 7:0.626263 8:0.656566 9:0.767677 10:0.575758 11:1 12:0.31 13:0.6 14:0.03 
0.8155208467005548 1 0 1 0 1 1 1 1 1:0.030303 2:0.888889 3:0.424242 4:1 5:0.626263 6:0.787879 7:0.272727 8:0.545455 9:0.626263 10:0.40404 11:1 12:0.25 13:0.53 14:0.09 
1 1 0 1 1 0 1 1 1 1:0.232323 2:0.747475 3:0.232323 4:1 5:0.69697 6:0.808081 7:0.59596 8:0.474747 9:0.646465 10:0.40404 11:1 12:0.16 13:0.49 14:0.2 
-0 0 0 1 1 0 0 1 0 1:0.030303 2:0.919192 3:0.444444 4:1 5:1 6:0.909091 7:0.585859 8:0.515152 9:0.313131 10:0.040404 11:0.15 12:0.38 13:0.65 14:0.38 
-1 0 1 0 1 1 0 0.39040434031690324 0 1:0.939394 2:0.434343 3:1 4:0.838384 5:0.818182 6:1 7:0.464646 8:0.929293 9:0.0909091 10:0.89899 11:0.88 12:0.23 13:0.41 14:0.26 
-0 0 0 0 0 1 0 1 0 1:0.868687 2:0.424242 3:1 4:0.676768 5:0.575758 6:0.626263 7:0.0707071 8:0.333333 9:0.010101 10:0.282828 11:0.51 12:0.34 13:1 14:0.41 
-0 0 0 0.4198280585703299 0 0 0 0 0 1:0.848485 2:0.474747 3:1 4:1 5:0.818182 6:0.868687 7:0.383838 8:0.555556 9:0.292929 11:0.25 12:0.28 13:0.88 14:0.33 
-1 1 1 0 0 1 1 1 1 1:0.939394 2:0.686869 3:1 4:0.969697 5:0.686869 6:0.717172 7:0.333333 8:0.484848 9:0.89899 10:0.313131 11:1 12:0.5 13:0.19 14:0.49 
-0 0 0 1 1 0 0 0 0 1:0.949495 2:0.484848 3:1 4:1 5:0.979798 6:0.848485 7:0.626263 8:0.494949 9:0.30303 10:0.121212 11:0.13 12:0.27 13:0.6 14:0.29 
-0 0 1 1 1 1 1 1 1 2:0.909091 3:0.494949 4:1 5:0.575758 6:0.666667 7:0.313131 8:0.313131 9:0.151515 10:0.373737 11:0.4 12:0.49 13:1 14:0.49 
-1 0.13819581245843449 0 1 1 0 0 0 0 1:0.989899 2:0.494949 3:1 4:1 5:0.909091 6:0.535354 7:0.565657 8:0.313131 9:0.686869 10:0.121212 11:0.7 12:0.28 13:0.31 14:0.23 
-0 0 0 1 0 0 0 0 0 1:0.959596 2:0.363636 3:1 4:1 5:0.888889 6:0.858586 7:0.424242 8:0.545455 9:0.292929 10:0.0909091 11:0.38 12:0.75 13:0.41 
-0 0 0 0 1 0 0 0 0 1:0.939394 2:0.383838 3:1 4:0.858586 5:1 6:1 7:0.878788 8:0.69697 9:0.686869 10:0.454545 11:0.47 12:0.32 13:0.24 14:0.4 
-0 0 0 0 0 0 0 1 0 1:0.777778 2:0.353535 3:1 4:0.676768 5:0.717172 6:0.69697 7:0.343434 8:0.555556 9:0.262626 10:0.20202 11:0.39 12:0.5 13:1 14:0.57 
-1 1 0 1 1 0 0 1 0 1:0.959596 2:0.40404 3:1 4:1 5:0.878788 6:0.585859 7:0.484848 8:0.333333 9:0.525253 10:0.030303 11:0.64 12:0.33 13:0.08 14:0.34 
-1 0.025860217763180381 0 1 1 1 0 0.71768291251950622 0 1:0.0909091 2:0.989899 3:0.353535 4:0.979798 5:1 6:1 7:0.909091 8:0.676768 9:0.575758 10:0.333333 11:0.24 12:0.03 13:0.36 14:0.22 
-0 0 1 0 1 0 0 1 0 1:0.888889 2:0.40404 3:0.939394 4:0.868687 5:1 6:1 7:0.979798 8:0.79798 9:0.747475 10:0.676768 11:0.5 12:0.59 13:0.25 14:0.6 
-1 0 0 1 1 1 0 0 0 1:0.242424 2:1 3:0.707071 4:0.929293 5:0.767677 6:0.565657 7:0.585859 8:0.191919 9:0.292929 10:0.272727 11:0.5 12:0.25 13:1 14:0.14 
-0 0 0 1 1 0 0 0 0 1:0.777778 2:0.505051 3:1 4:1 5:0.787879 6:0.858586 7:0.434343 8:0.616162 9:0.10101 10:0.434343 11:0.01 12:0.28 13:0.73 14:0.34 
-0 0 0 0 0 1 0 0 0 1:1 2:0.525253 3:0.969697 4:0.909091 5:0.686869 6:0.717172 7:0.282828 8:0.30303 9:0.040404 10:0.343434 11:0.46 12:0.49 13:1 14:0.41 
-0 0 0 1 1 0 0 0 0 1:0.666667 2:0.454545 3:0.909091 4:1 5:1 6:0.828283 7:0.555556 8:0.515152 9:0.141414 10:0.212121 11:0.29 12:0.28 13:0.85 14:0.29 
-0 0 0 0 1 0 0 1 0 1:0.919192 2:0.323232 3:1 4:0.969697 5:0.828283 6:0.818182 7:0.40404 8:0.585859 9:1 10:0.0808081 11:0.82 12:0.37 13:0.07 14:0.45 
-0 0 0 0 1 0 0 0 0 1:0.979798 2:0.292929 3:1 4:0.656566 5:0.979798 6:1 7:0.929293 8:0.757576 9:0.707071 10:0.555556 11:0.46 12:0.47 13:0.17 14:0.43 
-0 0 0 1 1 1 0 1 0 1:0.0707071 2:0.969697 3:0.626263 4:1 5:0.666667 6:0.646465 7:0.555556 8:0.292929 9:0.444444 10:0.262626 11:0.29 12:0.4 13:1 14:0.4 
-0 0 0 0 0 0 0 1 0 1:0.959596 2:0.444444 3:1 4:0.555556 5:0.676768 6:0.505051 7:0.323232 8:0.474747 9:0.282828 10:0.313131 11:0.5 12:0.5 13:1 14:0.52 
-0 0 0 0 0 0 0 1 0 1:0.868687 2:0.383838 3:1 4:0.727273 5:0.808081 6:0.676768 7:0.373737 8:0.464646 9:0.212121 10:0.343434 11:0.59 12:0.52 13:1 14:0.64 
-1 0 0 1 1 1 0 0 0 1:0.333333 2:0.767677 3:0.767677 4:1 5:1 6:0.737374 7:0.747475 8:0.424242 9:0.393939 10:0.151515 11:0.24 12:0.79 13:0.26 
-0 0 0 1 0 0 0 0 0 1:0.727273 2:0.272727 3:1 4:0.676768 5:0.868687 6:0.686869 7:0.434343 8:0.626263 10:0.444444 11:0.54 12:0.23 13:1 14:0.32 
-0 0 0 1 1 0 0 0 0 1:0.010101 2:1 3:0.737374 4:1 5:1 6:0.757576 7:0.646465 8:0.454545 9:0.343434 10:0.141414 11:0.17 12:0.33 13:0.74 14:0.37 
-0 0 0 0 1 0 0 0 0 1:0.868687 2:0.393939 3:1 4:1 5:0.979798 6:0.888889 7:0.59596 8:0.777778 9:0.20202 10:0.616162 11:0.25 12:0.31 13:0.61 14:0.45 
-0 0 0 0 0 1 0 1 0 1:0.959596 2:0.454545 3:1 4:0.636364 5:0.666667 6:0.444444 7:0.30303 8:0.111111 9:0.0909091 10:0.292929 11:0.5 12:0.55 13:1 14:0.68 
-0 1 0 1 1 1 0 1 1 1:0.10101 2:1 3:0.585859 4:0.979798 5:0.575758 6:0.585859 7:0.414141 8:0.20202 9:0.242424 10:0.343434 11:0.49 12:0.4 13:1 14:0.41 
-0 0 0 1 1 0 0 0 0 1:0.89899 2:0.585859 3:1 4:1 5:0.787879 6:0.717172 7:0.393939 8:0.545455 9:0.393939 11:0.09 12:0.3 13:0.84 14:0.31 
-0 1 0 1 0 0 1 1 1 1:1 2:0.363636 3:0.939394 4:0.464646 5:0.545455 6:0.454545 7:0.141414 8:0.363636 9:0.0505051 10:0.282828 11:0.53 12:0.34 13:1 14:0.37 
-0 0 0 1 0 0 0 0 0 1:0.848485 2:0.333333 3:1 4:1 5:0.939394 6:0.818182 7:0.444444 8:0.484848 9:0.10101 10:0.020202 11:0.29 12:0.31 13:0.96 14:0.31 
-0 0 0 1 0 0 0 0 0 1:0.949495 2:0.424242 3:1 4:1 5:0.929293 6:0.636364 7:0.616162 8:0.323232 9:0.282828 11:0.01 12:0.36 13:0.72 14:0.36 
-1 0 1 0 1 1 0 1 0.79944587801934908 1:0.111111 2:0.969697 3:1 4:0.575758 5:0.979798 6:1 7:0.838384 8:0.929293 9:0.616162 10:0.707071 11:0.41 12:0.46 13:0.21 14:0.32 
-0 0 0 0 1 0 0 0 0 1:0.919192 2:0.30303 3:0.969697 4:0.959596 5:1 6:1 7:0.737374 8:0.717172 9:0.363636 10:0.565657 11:0.18 12:0.33 13:0.73 14:0.37 
-0 0 0 1 1 1 0 1 0 1:0.212121 2:0.969697 3:0.616162 4:1 5:0.59596 6:0.616162 7:0.505051 8:0.232323 9:0.373737 10:0.30303 11:0.37 12:0.42 13:1 14:0.44 
-0 0 0.37885788505060403 0 1 0 0 0 0 1:0.737374 2:0.121212 3:1 4:0.545455 5:1 6:1 7:0.979798 8:0.787879 9:0.79798 10:0.585859 11:0.55 12:0.45 13:0.28 14:0.42 
-0 0 1 0 0 1 0 1 0 1:0.89899 2:0.525253 3:1 4:0.858586 5:0.747475 6:0.747475 7:0.373737 8:0.656566 9:0.929293 10:0.030303 11:1 12:0.33 13:0.42 14:0.4 
-0 0 0 1 1 1 0 1 0 1:0.121212 2:0.949495 3:0.616162 4:1 5:0.717172 6:0.606061 7:0.575758 8:0.181818 9:0.363636 10:0.30303 11:0.47 12:0.37 13:1 14:0.35 
-0 0 0 1 0 0 0 0 0 1:0.262626 2:1 3:1 4:0.929293 5:0.777778 6:0.616162 7:0.525253 8:0.30303 9:0.272727 10:0.121212 11:0.03 12:0.33 13:0.92 14:0.35 
-0 0 0 1 1 0 0 0 0 1:1 2:0.131313 3:0.959596 4:0.747475 5:0.969697 6:1 7:0.888889 8:0.606061 9:0.707071 10:0.393939 11:0.48 12:0.36 13:0.23 14:0.47 
-0 0 0 1 0 0 0 0 0 1:0.121212 2:0.919192 3:0.848485 4:1 5:0.969697 6:0.707071 7:0.676768 8:0.343434 9:0.30303 10:0.111111 11:0.25 12:0.34 13:1 14:0.3 
-0 0 1 0 1 0 0 0 0 1:0.939394 2:0.272727 3:1 4:0.646465 5:1 6:1 7:0.969697 8:0.787879 9:0.747475 10:0.606061 11:0.51 12:0.5 13:0.26 14:0.48 
-1 0 1 0 0 1 0 0 0 1:0.949495 2:0.363636 3:0.989899 4:0.767677 5:1 6:1 7:0.737374 8:0.979798 9:0.363636 10:0.949495 11:0.7 12:0.13 13:0.77 14:0.31 
-0 0 0 1 0 0 0 0 0 1:0.939394 2:0.212121 3:1 4:0.707071 5:0.939394 6:0.69697 7:0.505051 8:0.606061 9:0.414141 10:0.0808081 11:0.52 12:0.32 13:1 14:0.2 
-1 1 1 1 1 1 1 1 1 1:0.252525 2:0.969697 3:0.282828 4:1 5:0.747475 6:0.989899 7:1 8:0.828283 9:0.818182 10:0.606061 11:0.56 12:0.39 13:0.27 14:0.2 
-1 0 0 1 1 0 0 1 0 1:0.010101 2:0.777778 3:0.343434 4:0.979798 5:1 6:1 7:0.838384 8:0.646465 9:0.535354 10:0.313131 11:0.2 12:0.29 13:0.6 14:0.33 
-1 0 0 0 1 0 0 0 0 1:0.959596 2:0.262626 3:1 4:0.727273 5:0.989899 6:1 7:0.828283 8:0.848485 9:0.59596 10:0.59596 11:0.4 12:0.33 13:0.2 14:0.08 
-1 1 1 0 1 1 1 1 1 1:0.181818 2:1 3:0.686869 4:0.919192 5:0.676768 6:0.525253 7:0.525253 8:0.141414 9:0.666667 10:1 11:0.27 12:0.54 13:0.47 14:0.56 
-1 0 0 1 1 0 0 0 0 1:0.909091 2:0.181818 3:0.969697 4:0.686869 5:1 6:1 7:0.848485 8:0.838384 9:0.616162 10:0.585859 11:0.41 12:0.33 13:0.21 14:0.07 
-0 1 0 1 0 0 0 0 0 1:0.969697 2:0.757576 3:1 4:1 5:0.737374 6:0.616162 7:0.393939 8:0.323232 9:0.0505051 10:0.030303 11:0.11 12:0.22 13:0.91 14:0.24 
-0 0 0 0 0 1 0 1 0 1:0.747475 2:0.333333 3:1 4:0.646465 5:0.656566 6:0.565657 7:0.0909091 8:0.282828 9:0.121212 10:0.40404 11:0.57 12:0.51 13:1 14:0.62 
-0 1 0 0 1 0 0 1 0 1:1 2:0.444444 3:0.989899 4:0.828283 5:0.787879 6:0.707071 7:0.383838 8:0.656566 9:1 10:0.222222 11:0.55 12:0.4 13:0.06 14:0.48 
-0 0 0 1 0 1 0 1 0 1:0.010101 2:1 3:0.575758 4:0.989899 5:0.626263 6:0.666667 7:0.373737 8:0.333333 9:0.181818 10:0.313131 11:0.42 12:0.44 13:1 14:0.44 
-1 0 1 0 1 0 0 1 0 1:0.141414 2:0.919192 3:0.939394 4:0.555556 5:0.979798 6:1 7:1 8:0.656566 9:0.787879 10:0.454545 11:0.53 12:0.37 13:0.27 14:0.43 
-0 0 0 1 1 0 0 0 0 1:0.828283 2:0.414141 3:1 4:1 5:0.858586 6:0.747475 7:0.424242 8:0.494949 9:0.10101 10:0.141414 11:0.02 12:0.27 13:0.69 14:0.29 
-1 0 0 1 1 0.77832128903172204 1 1 0 1:0.131313 2:0.636364 3:0.171717 4:1 5:1 6:0.949495 7:0.838384 8:0.666667 9:0.494949 10:0.272727 11:0.3 12:0.39 13:0.72 14:0.42 
-0 0 0 1 0 1 0 1 0 1:0.242424 2:1 3:0.575758 4:0.959596 5:0.808081 6:0.686869 7:0.535354 8:0.333333 9:0.282828 10:0.333333 11:0.48 12:0.44 13:1 14:0.48 
-0 0 0 1 1 1 0 1 0 1:0.040404 2:0.848485 3:0.434343 4:1 5:0.717172 6:0.707071 7:0.515152 8:0.323232 9:0.20202 10:0.333333 11:0.5 12:0.41 13:1 14:0.45 
-0 0 0 1 1 0 0 0 0 1:0.979798 2:0.494949 3:1 4:1 5:0.959596 6:0.727273 7:0.626263 8:0.424242 9:0.30303 10:0.121212 11:0.11 12:0.19 13:0.46 14:0.32 
-0 0.55038280280020002 0 1 1 0 1 1 1 1:0.89899 2:0.212121 3:1 4:0.383838 5:0.585859 6:0.363636 7:0.10101 8:0.30303 9:0.20202 10:0.313131 11:0.6 12:0.35 13:1 14:0.39 
-1 0 1 1 1 1 0 0 0.70572893280011817 1:0.131313 2:0.909091 3:0.959596 4:0.555556 5:1 6:1 7:0.89899 8:0.868687 9:0.656566 10:0.616162 11:0.44 12:0.35 13:0.22 14:0.1 
-0 0 0 1 1 0 0 0 0 1:0.464646 2:0.818182 3:0.828283 4:1 5:1 6:0.666667 7:0.666667 8:0.323232 9:0.272727 11:0.14 12:0.41 13:0.78 14:0.35 
-0 0 1 0 1 0 0 0.4433192492933184 0 1:0.808081 2:0.0606061 3:0.959596 4:0.575758 5:1 6:1 7:1 8:0.888889 9:0.747475 10:0.767677 11:0.5 12:0.67 13:0.25 14:0.56 
-0.18486529073303962 0 1 0 1 0 0 0 0 1:0.969697 2:0.434343 3:0.989899 4:1 5:1 6:0.939394 7:0.979798 8:0.676768 9:0.747475 10:0.555556 11:0.5 12:0.52 13:0.25 14:0.54 
-1 1 1 0 0 1 0 1 0 1:1 2:0.505051 3:0.989899 4:1 5:0.777778 6:0.79798 7:0.414141 8:0.59596 9:0.0606061 10:0.787879 11:0.98 12:0.27 13:0.3 14:0.38 
-0 0 0 1 0 0 0 0 0 1:1 2:0.545455 3:1 4:1 5:0.888889 6:0.717172 7:0.565657 8:0.454545 9:0.242424 10:0.323232 11:0.1 12:0.32 13:0.69 14:0.32 
-0 0 0 1 1 0 0 0 0 1:0.0707071 2:0.828283 3:0.686869 4:1 5:1 6:0.686869 7:0.818182 8:0.333333 9:0.505051 10:0.141414 11:0.22 12:0.37 13:0.89 14:0.39 
-1 0 0 0 1 1 0 0 0 1:0.909091 2:0.333333 3:1 4:1 5:0.767677 6:0.989899 7:0.373737 8:0.707071 9:0.89899 10:0.0606061 11:0.85 12:0.3 13:0.25 
-0 0 0 1 1 0 0 1 0 2:0.989899 3:0.575758 4:1 5:1 6:0.909091 7:0.686869 8:0.606061 9:0.323232 10:0.292929 11:0.01 12:0.33 13:0.57 14:0.36 
-1 0 1 0 1 0 1 0 1 1:0.909091 2:0.0606061 3:0.979798 4:0.464646 5:1 6:0.848485 7:0.939394 8:1 9:0.717172 10:0.848485 11:0.47 12:0.66 13:0.24 14:0.52 
-0 1 1 1 0 1 1 1 1 1:0.383838 2:0.939394 3:0.464646 4:1 5:0.464646 6:0.606061 7:0.252525 8:0.222222 9:0.020202 10:0.383838 11:0.5 12:0.5 13:1 14:0.63 
-0 0 0.63263803953269204 0 0 1 1 1 1 1:0.818182 2:0.30303 3:1 4:0.474747 5:0.565657 6:0.494949 7:0.040404 8:0.343434 9:0.313131 10:0.272727 11:0.66 12:0.44 13:1 14:0.62 
-0 0 0 1 0 0 0 1 0 1:1 2:0.494949 3:0.909091 4:0.676768 5:0.59596 6:0.575758 7:0.282828 8:0.252525 9:0.0808081 10:0.171717 11:0.23 12:0.45 13:1 14:0.49 
-1 1 1 1 1 1 1 1 1 1:0.10101 2:0.828283 3:0.40404 4:1 5:0.464646 6:0.666667 7:0.242424 8:0.343434 9:0.0707071 10:0.30303 11:0.49 12:0.32 13:1 14:0.31 
-0 1 0 1 1 1 1 1 1 2:1 3:0.464646 4:0.959596 5:0.515152 6:0.59596 7:0.454545 8:0.232323 9:0.393939 10:0.252525 11:0.41 12:0.37 13:1 14:0.41 
-0 0 0 1 1 0 0 1 0 1:0.10101 2:0.808081 3:0.59596 4:1 5:1 6:0.888889 7:0.686869 8:0.545455 9:0.30303 10:0.232323 11:0.07 12:0.39 13:0.64 14:0.43 
-0 0 0 1 0 0 0 0 0 1:0.232323 2:1 3:1 4:0.989899 5:0.929293 6:0.777778 7:0.636364 8:0.474747 9:0.383838 10:0.161616 11:0.19 12:0.31 13:0.72 14:0.38 
-0 0 0 1 1 0 0 1 0 1:0.0909091 2:0.707071 3:0.565657 4:1 5:0.909091 6:0.757576 7:0.646465 8:0.363636 9:0.292929 10:0.10101 11:0.3 12:0.31 13:1 14:0.33 
-0 0 0 1 0 0 0 0 0 1:0.353535 2:1 3:1 4:0.989899 5:0.818182 6:0.646465 7:0.59596 8:0.313131 9:0.353535 10:0.20202 11:0.25 12:0.33 13:0.92 14:0.34 
-0 0 0 1 0 0 0 1 0 1:0.424242 2:1 3:0.858586 4:0.848485 5:0.717172 6:0.555556 7:0.505051 8:0.272727 9:0.393939 10:0.222222 11:0.28 12:0.38 13:1 14:0.42 
-0 1 0 1 0 0 0 1 0 1:1 2:0.616162 3:0.888889 4:0.707071 5:0.585859 6:0.535354 7:0.282828 8:0.393939 9:0.010101 10:0.191919 11:0.05 12:0.42 13:1 14:0.49 
-1 0 1 1 1 1 0 0 0 1:0.919192 2:0.414141 3:0.969697 4:0.858586 5:1 6:0.717172 7:0.535354 8:0.59596 9:0.393939 10:0.555556 11:0.22 12:1 13:0.21 
-1 0 0 0 1 0 0 0 0 1:0.828283 2:0.363636 3:0.989899 4:0.808081 5:1 6:1 7:0.737374 8:0.838384 9:0.353535 10:0.646465 11:0.33 12:0.08 13:0.55 14:0.27 
-0 0 0 0 1 0 0 0 0 1:1 2:0.020202 3:1 4:0.515152 5:0.989899 6:1 7:1 8:0.727273 9:0.858586 10:0.494949 11:0.57 12:0.32 13:0.27 14:0.34 
-0 0 0 0 0 1 0 0 0 1:0.959596 2:0.636364 3:1 4:1 5:0.727273 6:0.89899 7:0.40404 8:0.767677 9:0.0707071 10:0.525253 11:0.25 12:0.26 13:1 14:0.3 
-0 0 1 0.22870372251623566 1 0 1 1 1 1:1 2:0.212121 3:0.858586 4:0.59596 5:0.79798 6:1 7:0.79798 8:0.838384 9:0.646465 10:0.656566 11:0.42 12:0.51 13:0.18 14:0.47 
-1 0 0 0.17550710202119685 1 0 0 0 0 1:0.919192 2:0.212121 3:0.989899 4:0.676768 5:1 6:1 7:0.868687 8:0.828283 9:0.636364 10:0.555556 11:0.44 12:0.32 13:0.23 14:0.16 
-0 0 0 1 0 0 0 0 0 1:0.858586 2:0.727273 3:1 4:1 5:0.959596 6:0.707071 7:0.606061 8:0.353535 9:0.242424 10:0.020202 11:0.06 12:0.38 13:0.85 14:0.43 
-1 0 1 1 1 1 0 1 0 1:0.020202 2:0.969697 3:0.383838 4:1 5:1 6:0.787879 7:0.626263 8:0.383838 9:0.262626 10:0.757576 11:0.07 12:0.92 13:0.33 14:0.35 
-1 0 1 1 1 1 0 0 0 1:0.0808081 2:0.89899 3:1 4:0.59596 5:1 6:1 7:0.848485 8:0.868687 9:0.626263 10:0.59596 11:0.42 12:0.31 13:0.22 14:0.17 
-0 0 0 1 1 0 0 0 0 1:0.010101 2:0.979798 3:0.79798 4:1 5:1 6:0.747475 7:0.555556 8:0.383838 9:0.252525 10:0.040404 11:0.01 12:0.28 13:0.8 14:0.29 
-0 0 0 0.98951080947006975 0 0 0 0 0 1:0.20202 2:0.919192 3:0.848485 4:1 5:0.89899 6:0.666667 7:0.666667 8:0.333333 9:0.484848 10:0.252525 11:0.27 12:0.43 13:1 14:0.42 
-1 1 1 1 1 1 0 0 0.73748871656523518 1:0.777778 2:0.969697 3:0.494949 4:0.989899 5:1 6:1 7:0.89899 8:0.808081 9:0.636364 10:0.555556 11:0.42 12:0.29 13:0.27 
-0 0 0 1 1 0 0 1 0 1:0.0909091 2:0.777778 3:0.393939 4:1 5:1 6:0.989899 7:0.69697 8:0.525253 9:0.282828 10:0.111111 11:0.07 12:0.45 13:0.7 14:0.55 
-0 1 0 1 0 0 0 0 0 1:0.969697 2:0.424242 3:1 4:0.575758 5:0.616162 6:0.40404 7:0.161616 8:0.252525 9:0.0707071 10:0.353535 11:0.54 12:0.34 13:1 14:0.33 
-0 0 0 1 1 0 0 0 0 1:0.161616 2:1 3:0.787879 4:0.919192 5:1 6:0.757576 7:0.717172 8:0.434343 9:0.484848 10:0.0909091 11:0.24 12:0.31 13:0.71 14:0.33 
-1 0.12170723823546639 1 1 1 1 0 0 0 1:0.909091 2:0.969697 3:0.515152 4:1 5:1 6:0.929293 7:1 8:0.686869 9:0.777778 10:0.464646 11:0.58 12:0.24 13:0.44 
-1 0 0 0 1 0 0 0 0 1:0.919192 2:0.323232 3:0.989899 4:0.838384 5:1 6:1 7:0.919192 8:0.666667 9:0.707071 10:0.444444 11:0.47 12:0.3 13:0.21 14:0.27 
-1 0 0 1 1 0 0 0 0 1:0.959596 2:0.464646 3:0.949495 4:1 5:1 6:0.707071 7:0.727273 8:0.515152 9:0.363636 10:0.40404 11:0.26 12:0.2 13:0.52 14:0.33 
-1 0 0 0 1 0 0 0.14082653648128474 0 1:0.878788 2:0.393939 3:1 4:0.787879 5:0.858586 6:0.666667 7:0.434343 8:0.636364 9:1 10:0.141414 11:0.7 12:0.32 13:0.23 14:0.37 
-0 0 0 0 0 1 0.26354149498493029 1 1 1:0.959596 2:0.343434 3:1 4:0.494949 5:0.616162 6:0.353535 7:0.20202 8:0.151515 9:0.010101 10:0.40404 11:0.46 12:0.52 13:1 14:0.55 
-0 0 0 1 0 0 0 1 0 1:1 2:0.494949 3:0.989899 4:0.464646 5:0.686869 6:0.313131 7:0.343434 8:0.191919 9:0.0909091 10:0.282828 11:0.44 12:0.44 13:1 14:0.47 
-0 0 0 0.29263860338369202 1 0 0 0 0 1:0.828283 2:0.323232 3:0.919192 4:1 5:1 6:0.949495 7:0.686869 8:0.59596 9:0.343434 10:0.292929 11:0.26 12:0.31 13:0.86 14:0.36 
-0 0 0 1 0 0 0 0 0 1:0.949495 2:0.272727 3:1 4:0.494949 5:0.686869 6:0.424242 7:0.262626 8:0.323232 9:0.131313 10:0.353535 11:0.57 12:0.36 13:1 14:0.41 
-0 0 0 1 0 0 0 0 0 1:0.828283 2:0.494949 3:1 4:0.919192 5:0.747475 6:0.656566 7:0.373737 8:0.353535 9:0.333333 10:0.0505051 11:0.28 12:0.34 13:1 14:0.36 
-0 0 0 0 0 1 0 0 0 1:0.929293 2:0.565657 3:1 4:1 5:0.838384 6:0.888889 7:0.444444 8:0.818182 9:0.040404 10:0.626263 11:0.39 12:0.26 13:1 14:0.35 
-0 0 0 1 0 0 0 0 0 1:0.909091 2:0.414141 3:1 4:0.626263 5:0.757576 6:0.525253 7:0.373737 8:0.535354 9:0.393939 10:0.030303 11:0.48 12:0.29 13:1 14:0.36 
-0 0 1 0 0 1 0 1 0 1:0.909091 2:0.454545 3:1 4:0.848485 5:0.79798 6:0.909091 7:0.393939 8:0.878788 9:0.989899 10:0.212121 11:1 12:0.52 13:0.5 14:0.49 
-0 0 0 1 0 0 1 1 1 1:0.89899 2:0.323232 3:1 4:0.474747 5:0.59596 6:0.494949 7:0.151515 8:0.383838 9:0.141414 10:0.252525 11:0.58 12:0.34 13:1 14:0.42 
-0 0 0 1 1 0 0 0 0 1:0.818182 2:0.555556 3:1 4:1 5:0.909091 6:0.707071 7:0.565657 8:0.373737 9:0.232323 10:0.020202 11:0.05 12:0.33 13:0.7 14:0.36 
-0 0 0 0 0 1 0 1 0 1:0.868687 2:0.363636 3:1 4:0.585859 5:0.636364 6:0.444444 7:0.141414 8:0.262626 9:0.191919 10:0.373737 11:0.6 12:0.44 13:1 14:0.51 
-0 0 0 1 1 0 0 0 0 1:0.808081 2:0.333333 3:1 4:0.616162 5:0.727273 6:0.535354 7:0.353535 8:0.383838 9:0.111111 10:0.151515 11:0.5 12:0.27 13:1 14:0.3 
-1 1 1 1 1 1 1 1 1 1:0.858586 2:0.272727 3:1 4:0.464646 5:0.707071 6:0.222222 7:0.323232 8:0.131313 9:0.383838 10:0.474747 11:0.47 12:1 13:0.52 
-0 0 0 1 1 0 0 0 0 1:0.0808081 2:0.909091 3:0.555556 4:1 5:1 6:0.868687 7:0.79798 8:0.424242 9:0.565657 10:0.212121 11:0.24 12:0.34 13:0.95 14:0.36 
-0 0 0 0 0 0 0 1 0 1:0.949495 2:0.424242 3:1 4:0.656566 5:0.646465 6:0.606061 7:0.242424 8:0.464646 9:0.10101 10:0.313131 11:0.41 12:0.44 13:1 14:0.55 
-1 0 0 0 1 0 0 0 0 1:0.89899 2:0.272727 3:0.959596 4:0.858586 5:1 6:1 7:0.969697 8:0.707071 9:0.747475 10:0.545455 11:0.49 12:0.44 13:0.23 14:0.42 
-0 0 0 1 0 0 0 1 0 1:0.383838 2:0.878788 3:0.818182 4:1 5:1 6:0.676768 7:0.676768 8:0.333333 9:0.333333 10:0.151515 11:0.1 12:0.45 13:0.78 14:0.5 
-0 0 1 0 1 1 1 1 1 1:0.0909091 2:1 3:0.989899 4:0.505051 5:1 6:0.949495 7:0.888889 8:1 9:0.666667 10:0.909091 11:0.44 12:0.76 13:0.22 14:0.69 
-0 0 0 0 1 0 0 0 0 1:1 2:0.727273 3:0.989899 4:1 5:0.828283 6:0.828283 7:0.505051 8:0.666667 9:0.191919 10:0.424242 11:0.02 12:0.27 13:0.7 14:0.28 
-1 0 0 1 1 0 0 0 0 1:0.979798 2:0.0909091 3:1 4:0.606061 5:0.979798 6:1 7:0.848485 8:0.767677 9:0.626263 10:0.464646 11:0.43 12:0.2 13:0.23 14:0.03 
-0 0 0 1 0 0 0 0 0 1:0.989899 2:0.727273 3:1 4:1 5:0.79798 6:0.555556 7:0.464646 8:0.323232 9:0.0606061 10:0.0909091 11:0.07 12:0.33 13:0.81 14:0.35 
-0 0 0 0 0 0 0 1 0 1:0.919192 2:0.545455 3:1 4:0.676768 5:0.666667 6:0.545455 7:0.313131 8:0.414141 9:0.010101 10:0.272727 11:0.35 12:0.44 13:1 14:0.5 
-0 0 0 1 0 0 0 0 0 1:0.969697 2:0.676768 3:1 4:0.656566 5:0.686869 6:0.545455 7:0.343434 8:0.535354 9:0.30303 11:0.32 12:0.25 13:1 14:0.33 
-0 0 0 1 0 0 0 0 0 1:0.737374 2:0.353535 3:1 4:0.636364 5:0.737374 6:0.535354 7:0.363636 8:0.363636 9:0.222222 10:0.111111 11:0.38 12:0.39 13:1 14:0.43 
-0 0 0 0 0 0.1007229735470634 0 1 0 1:0.787879 2:0.414141 3:1 4:0.565657 5:0.676768 6:0.494949 7:0.30303 8:0.525253 9:0.232323 10:0.313131 11:0.44 12:0.5 13:1 14:0.53 
-0 0 0 1 1 0 0 0 0 1:0.919192 2:0.434343 3:1 4:1 5:0.919192 6:0.656566 7:0.616162 8:0.363636 9:0.30303 10:0.0909091 11:0.07 12:0.19 13:0.58 14:0.31 
-1 0 1 0 1 1 1 1 1 1:0.0808081 2:0.919192 3:0.959596 4:0.464646 5:1 6:0.929293 7:0.959596 8:1 9:0.707071 10:0.757576 11:0.47 12:0.51 13:0.23 14:0.27 
-0 0 0 0 0 0 0 1 0 1:0.868687 2:0.555556 3:1 4:0.79798 5:0.69697 6:0.616162 7:0.343434 8:0.555556 9:0.10101 10:0.272727 11:0.11 12:0.43 13:1 14:0.49 
-0 0 0 1 0 0 0 1 0 1:0.808081 2:0.40404 3:1 4:0.59596 5:0.717172 6:0.424242 7:0.343434 8:0.191919 9:0.040404 10:0.343434 11:0.48 12:0.49 13:1 14:0.48 
-0 0 0 1 0 0 0 0 0 1:0.111111 2:0.959596 3:0.747475 4:1 5:1 6:0.686869 7:0.737374 8:0.343434 9:0.464646 10:0.222222 11:0.13 12:0.43 13:0.98 14:0.44 
-0 0 0 1 0 0 0 0 0 1:0.141414 2:1 3:0.989899 4:0.969697 5:1 6:0.777778 7:0.676768 8:0.40404 9:0.393939 10:0.010101 11:0.29 12:0.36 13:0.81 14:0.45 
-0 0 0 1 1 1 0 1 0 1:0.030303 2:0.989899 3:0.494949 4:1 5:1 6:0.969697 7:0.646465 8:0.565657 9:0.363636 10:0.111111 11:0.16 12:0.39 13:0.55 14:0.45 
-1 1 1 0 1 1 0 1 1 1:0.242424 2:1 3:0.757576 4:0.949495 5:0.747475 6:0.626263 7:0.575758 8:0.282828 9:0.535354 10:1 11:0.24 12:0.61 13:0.43 14:0.54 
-0 0 1 0 1 0 0 0 0 1:0.808081 2:0.10101 3:1 4:0.545455 5:0.969697 6:1 7:0.959596 8:0.858586 9:0.757576 10:0.656566 11:0.51 12:0.48 13:0.26 14:0.38 
-0 0 0 1 0 0 0 0 0 1:0.767677 2:0.222222 3:1 4:0.666667 5:0.727273 6:0.636364 7:0.353535 8:0.40404 9:0.0505051 10:0.232323 11:0.33 12:0.44 13:1 14:0.45 
-0 0 0 1 1 0 0 0 0 1:0.181818 2:1 3:0.838384 4:0.888889 5:0.838384 6:0.585859 7:0.626263 8:0.282828 9:0.363636 10:0.0808081 11:0.16 12:0.32 13:1 14:0.31 
-0 0 0 0 0 0 0 1 0 1:0.828283 2:0.353535 3:1 4:0.656566 5:0.777778 6:0.525253 7:0.383838 8:0.40404 9:0.232323 10:0.333333 11:0.56 12:0.5 13:1 14:0.55 
-0 0 0 1 1 0 0 1 0 1:0.121212 2:0.757576 3:0.636364 4:1 5:0.868687 6:0.717172 7:0.515152 8:0.343434 9:0.10101 10:0.141414 11:0.35 12:0.37 13:1 14:0.36 
-0 0 0 1 0 0 0 0 0 1:1 2:0.575758 3:0.939394 4:1 5:0.909091 6:0.606061 7:0.585859 8:0.313131 9:0.191919 10:0.0707071 11:0.2 12:0.33 13:0.8 14:0.34 
-1 0 0 1 1 0 0 0 0 1:0.989899 2:0.262626 3:1 4:0.636364 5:0.949495 6:1 7:0.868687 8:0.767677 9:0.626263 10:0.575758 11:0.36 12:0.41 13:0.07 14:0.32 
-0 0 0 0 1 0 0 0 0 1:1 2:0.292929 3:0.989899 4:0.666667 5:0.969697 6:1 7:0.929293 8:0.717172 9:0.747475 10:0.525253 11:0.51 12:0.44 13:0.23 14:0.52 
-1 0 0 1 1 1 0 0 0 1:0.313131 2:0.777778 3:0.919192 4:1 5:1 6:0.717172 7:0.676768 8:0.373737 9:0.282828 10:0.0505051 11:0.32 12:0.81 13:0.35 
-1 0 1 0 0 1 0 1 0 1:1 2:0.535354 3:0.979798 4:0.909091 5:0.848485 6:0.707071 7:0.515152 8:0.616162 9:0.161616 10:0.737374 11:1 12:0.32 13:0.42 14:0.37 
-0 0 0 1 0 0 0 0 0 1:1 2:0.636364 3:0.949495 4:1 5:0.878788 6:0.717172 7:0.494949 8:0.464646 9:0.10101 10:0.181818 11:0.18 12:0.3 13:0.84 14:0.27 
-0 0 0 1 1 0 0 0 0 1:0.919192 2:0.383838 3:1 4:1 5:0.989899 6:0.777778 7:0.646465 8:0.434343 9:0.313131 10:0.0808081 11:0.04 12:0.24 13:0.56 14:0.34 
-0 0 0 1 0 0 0 0 0 1:0.909091 2:0.292929 3:1 4:0.474747 5:0.69697 6:0.515152 7:0.323232 8:0.414141 9:0.262626 10:0.252525 11:0.64 12:0.28 13:1 14:0.31 
-0 0 0 1 0 0 0 0 0 1:0.818182 2:0.414141 3:1 4:0.767677 5:0.818182 6:0.616162 7:0.40404 8:0.464646 9:0.141414 10:0.252525 11:0.5 12:0.36 13:1 14:0.3 
-0 0 0 1 0 0 0 0 0 1:0.939394 2:0.454545 3:1 4:1 5:0.969697 6:0.818182 7:0.616162 8:0.474747 9:0.292929 10:0.161616 11:0.18 12:0.34 13:0.74 14:0.38 
-0 0 0 1 0 0 0 1 0 1:0.121212 2:0.929293 3:0.787879 4:1 5:0.868687 6:0.717172 7:0.494949 8:0.353535 9:0.20202 10:0.0909091 11:0.14 12:0.46 13:1 14:0.49 
-0 0 1 0 1 0 0 0 0 1:0.929293 2:0.313131 3:0.989899 4:0.808081 5:1 6:1 7:0.919192 8:0.838384 9:0.686869 10:0.69697 11:0.46 12:0.6 13:0.23 14:0.59 
-0 0 0 0 0 0 0 1 0 1:0.79798 2:0.373737 3:1 4:0.656566 5:0.707071 6:0.565657 7:0.333333 8:0.373737 9:0.30303 10:0.30303 11:0.46 12:0.57 13:1 14:0.68 
-1 1 1 1 1 1 1 1 1 1:0.818182 2:0.242424 3:1 4:0.515152 5:0.727273 6:0.434343 7:0.333333 8:0.313131 9:0.282828 10:0.494949 11:0.34 12:1 13:0.39 
-0 0 0 1 1 0 0 0 0 1:0.89899 2:0.474747 3:1 4:1 5:0.949495 6:0.818182 7:0.636364 8:0.555556 9:0.313131 10:0.414141 11:0.17 12:0.24 13:0.7 14:0.26 
-1 0 0 0 0 1 0 0 0 1:0.949495 2:0.424242 3:1 4:1 5:0.919192 6:0.848485 7:0.69697 8:0.474747 9:0.313131 10:0.535354 11:0.93 12:0.35 13:0.5 14:0.38 
-0 0 0 1 0 0 0 0 0 1:0.79798 2:0.575758 3:1 4:1 5:0.808081 6:0.616162 7:0.434343 8:0.252525 9:0.040404 10:0.292929 11:0.08 12:0.35 13:0.75 14:0.34 
-0.17037591706881336 0 0 1 1 1 0 1 0 1:0.151515 2:0.949495 3:0.454545 4:1 5:1 6:0.949495 7:0.717172 8:0.626263 9:0.383838 10:0.313131 11:0.06 12:0.32 13:0.56 14:0.35 
-0 0 0.36027601516134183 0 0 0 0 1 0 1:0.939394 2:0.474747 3:1 4:0.848485 5:0.79798 6:0.777778 7:0.40404 8:0.747475 9:0.959596 11:1 12:0.32 13:0.45 14:0.37 
-0 0 0 0 1 0 0 0 0 1:0.959596 2:0.252525 3:1 4:0.757576 5:1 6:1 7:0.989899 8:0.636364 9:0.79798 10:0.464646 11:0.54 12:0.4 13:0.26 14:0.39 
-1 1 0 1 1 1 1 0 1 1:0.959596 2:0.464646 3:1 4:0.707071 5:0.69697 6:0.666667 7:0.343434 8:0.575758 9:1 11:0.74 12:0.17 13:0.19 14:0.18 
-0 0 0 1 0 0 0 0 0 1:0.79798 2:0.434343 3:1 4:0.737374 5:0.69697 6:0.515152 7:0.323232 8:0.191919 9:0.040404 10:0.292929 11:0.45 12:0.41 13:1 14:0.41 
-1 1 1 1 1 1 0 0 0.85800342725229917 1:0.959596 2:0.575758 3:1 4:0.757576 5:0.747475 6:0.505051 7:0.373737 8:0.333333 9:0.0707071 10:0.333333 11:0.26 12:1 13:0.28 
-0 0 0 1 1 0 0 1 0 1:0.171717 2:0.737374 3:0.282828 4:1 5:1 6:0.878788 7:0.727273 8:0.464646 9:0.30303 10:0.0808081 11:0.14 12:0.29 13:0.96 14:0.34 
-1 1 1 0 0 1 0.37468592583833937 1 0.49775201435191535 1:0.939394 2:0.606061 3:1 4:0.959596 5:0.727273 6:0.787879 7:0.353535 8:0.676768 9:1 10:0.313131 11:0.88 12:0.54 13:0.17 14:0.52 
-1 0 1 0 1 1 0 1 0 1:0.30303 2:0.89899 3:0.626263 4:1 5:1 6:0.757576 7:0.747475 8:0.353535 9:0.555556 10:0.959596 11:0.34 12:0.61 13:0.43 14:0.45 
-1 0 1 1 1 1 0 1 0 1:0.0505051 2:0.848485 3:0.464646 4:1 5:0.757576 6:0.777778 7:0.555556 8:0.383838 9:0.353535 10:0.282828 11:0.47 12:0.39 13:1 14:0.33 
-0 0 0 0 1 0 0 0 0 1:1 2:0.494949 3:0.929293 4:1 5:0.929293 6:0.909091 7:0.636364 8:0.737374 9:0.30303 10:0.535354 11:0.18 12:0.23 13:0.66 14:0.29 
-1 0 0 0 1 0 0 0 0 1:0.959596 2:0.0909091 3:1 4:0.585859 5:0.989899 6:1 7:0.868687 8:0.929293 9:0.636364 10:0.686869 11:0.43 12:0.44 13:0.22 14:0.25 
-1 0 0 1 1 0 0 0 0 1:0.040404 2:0.939394 3:0.656566 4:1 5:1 6:0.757576 7:0.979798 8:0.484848 9:0.707071 10:0.212121 11:0.34 12:0.25 13:0.78 14:0.37 
-0 0 0 0 0 0 0 1 0 1:0.717172 2:0.282828 3:1 4:0.585859 5:0.787879 6:0.575758 7:0.222222 8:0.414141 9:0.292929 10:0.292929 11:0.65 12:0.47 13:1 14:0.64 
-0 0 0 1 1 0 0 0 0 1:1 2:0.606061 3:1 4:1 5:0.929293 6:0.626263 7:0.636364 8:0.353535 9:0.323232 10:0.131313 11:0.09 12:0.29 13:0.47 14:0.42 
-0 0 1 0 1 0 0 0 0 1:0.717172 2:0.313131 3:0.909091 4:0.767677 5:1 6:1 7:0.878788 8:0.868687 9:0.444444 10:0.747475 11:0.61 12:0.15 13:0.89 14:0.34 
-0 0 0 1 0 0 0 0 0 1:0.878788 2:0.515152 3:1 4:1 5:0.767677 6:0.747475 7:0.383838 8:0.434343 9:0.010101 10:0.161616 11:0.15 12:0.3 13:0.87 14:0.38 
-0 0 0 1 1 0 0 0 0 1:0.79798 2:0.292929 3:1 4:0.737374 5:0.808081 6:0.818182 7:0.424242 8:0.747475 9:0.030303 10:0.383838 11:0.44 12:0.16 13:1 14:0.2 
-0 0 0 1 1 0 0 0 0 1:0.131313 2:1 3:0.828283 4:1 5:1 6:0.838384 7:0.666667 8:0.474747 9:0.464646 10:0.0808081 11:0.27 12:0.33 13:0.75 14:0.32 
-0 0 0 1 1 1 0 1 0 1:0.111111 2:0.989899 3:0.484848 4:1 5:1 6:0.929293 7:0.646465 8:0.616162 9:0.272727 10:0.313131 11:0.11 12:0.35 13:0.72 14:0.39 
-1 1 1 0 1 1 0 1 0 1:1 2:0.59596 3:0.969697 4:1 5:0.727273 6:0.818182 7:0.353535 8:0.636364 9:0.878788 10:0.141414 11:0.89 12:0.38 13:0.23 14:0.4 
-1 0 0.79410546848403096 1 1 1 0 0 0 1:0.010101 2:0.929293 3:0.969697 4:0.494949 5:0.979798 6:1 7:1 8:0.717172 9:0.777778 10:0.464646 11:0.53 12:0.31 13:0.26 14:0.27 
-0 0 0 1 1 0 0 0 0 1:0.030303 2:0.909091 3:0.464646 4:1 5:1 6:0.868687 7:0.676768 8:0.434343 9:0.444444 10:0.242424 11:0.05 12:0.36 13:0.76 14:0.35 
-0 0 0 1 0 0 0 0 0 1:0.838384 2:0.494949 3:1 4:1 5:0.858586 6:0.69697 7:0.434343 8:0.484848 9:0.20202 10:0.0707071 11:0.2 12:0.28 13:0.84 14:0.3 
-1 0 0 1 1 1 0 0 0 1:0.0808081 2:0.919192 3:0.929293 4:1 5:1 6:0.757576 7:0.666667 8:0.373737 9:0.353535 10:0.0505051 11:0.32 12:0.88 13:0.37 
-1 0 0 1 1 1 0.90487874937168966 1 1 1:0.010101 2:0.909091 3:0.474747 4:1 5:0.626263 6:0.646465 7:0.505051 8:0.242424 9:0.292929 10:0.292929 11:0.5 12:0.35 13:1 14:0.35 
-0 0 0 1 1 0 0 0 0 1:1 2:0.191919 3:0.979798 4:0.777778 5:0.979798 6:1 7:0.919192 8:0.606061 9:0.717172 10:0.323232 11:0.48 12:0.15 13:0.22 14:0.25 
-0 0 0 1 0 0 0 0 0 1:0.808081 2:0.222222 3:1 4:0.727273 5:0.959596 6:0.515152 7:0.454545 8:0.252525 9:0.111111 10:0.181818 11:0.46 12:0.42 13:1 14:0.48 
-0 0 0 0 1 0 0 0 0 1:0.888889 2:0.40404 3:1 4:0.888889 5:0.929293 6:1 7:0.616162 8:0.838384 9:0.30303 10:0.636364 11:0.27 12:0.17 13:0.54 14:0.34 
-0 0 0 1 1 0 0 1 0 1:0.10101 2:0.909091 3:0.565657 4:1 5:1 6:0.929293 7:0.656566 8:0.616162 9:0.323232 10:0.282828 11:0.05 12:0.35 13:0.6 14:0.37 
-0 0 0 1 0 1 0 1 0 1:0.212121 2:1 3:0.686869 4:0.969697 5:0.727273 6:0.606061 7:0.555556 8:0.242424 9:0.313131 10:0.292929 11:0.46 12:0.39 13:1 14:0.4 
-0 0 0 0 0 0 0 1 0 1:0.868687 2:0.454545 3:1 4:0.717172 5:0.717172 6:0.606061 7:0.343434 8:0.414141 9:0.222222 10:0.292929 11:0.49 12:0.5 13:1 14:0.58 
-0 0 0 1 1 0 0 0 0 1:0.121212 2:0.848485 3:0.757576 4:1 5:1 6:0.686869 7:0.737374 8:0.343434 9:0.393939 11:0.12 12:0.33 13:0.81 14:0.37 
-0 0 1 0 0 0 0 1 0 1:0.717172 2:0.272727 3:1 4:0.525253 5:0.767677 6:0.525253 7:0.232323 8:0.414141 9:0.353535 10:0.333333 11:0.68 12:0.49 13:1 14:0.67 
-0 0 0 0 0 0.1283841043155772 0 0 0 1:0.979798 2:0.414141 3:1 4:0.646465 5:0.636364 6:0.464646 7:0.222222 8:0.20202 9:0.020202 10:0.393939 11:0.51 12:0.46 13:1 14:0.49 
-0 0 0 1 1 0 0 0 0 1:0.828283 2:0.252525 3:0.89899 4:1 5:1 6:0.717172 7:0.676768 8:0.373737 9:0.333333 10:0.0606061 11:0.03 12:0.19 13:0.46 14:0.41 
-1 0 0 0 1 0 0 0 0 1:0.868687 2:0.020202 3:0.969697 4:0.515152 5:1 6:1 7:0.959596 8:1 9:0.69697 10:0.707071 11:0.47 12:0.4 13:0.24 14:0.15 
-1 1 0 1 1 1 1 1 1 1:0.0808081 2:0.929293 3:0.40404 4:1 5:0.585859 6:0.585859 7:0.40404 8:0.151515 9:0.10101 10:0.363636 11:0.5 12:0.34 13:1 14:0.25 
-0 0 0 1 0 1 0 1 0 1:0.656566 2:0.20202 3:1 4:0.494949 5:0.777778 6:0.414141 7:0.323232 8:0.232323 9:0.0808081 10:0.393939 11:0.54 12:0.55 13:1 14:0.69 
-0 0 0 1 1 0 0 0 0 1:0.333333 2:1 3:0.89899 4:0.969697 5:1 6:0.727273 7:0.636364 8:0.444444 9:0.333333 10:0.141414 11:0.15 12:0.32 13:0.57 14:0.3 
-1 0 0 1 1 1 0 1 0 1:0.252525 2:0.727273 3:0.343434 4:1 5:1 6:0.969697 7:0.777778 8:0.676768 9:0.454545 10:0.343434 11:0.26 12:0.31 13:0.52 14:0.3 
-0 0 0 1 0.32786726760457097 0 0 0 0 1:0.919192 2:0.393939 3:1 4:1 5:0.989899 6:0.838384 7:0.646465 8:0.474747 9:0.323232 10:0.121212 11:0.12 12:0.26 13:0.74 14:0.28 
-0 0 0 0 0 1 0 1 0 1:0.939394 2:0.727273 3:1 4:0.808081 5:0.636364 6:0.555556 7:0.262626 8:0.464646 9:0.040404 10:0.333333 11:0.19 12:0.45 13:1 14:0.45 
-0 0 0 0 0 0 0 1 0 1:0.929293 2:0.393939 3:1 4:0.59596 5:0.636364 6:0.606061 7:0.191919 8:0.545455 9:0.242424 10:0.292929 11:0.57 12:0.4 13:1 14:0.42 
-0 0 0 1 1 0 0 0 0 1:0.848485 2:0.20202 3:1 4:0.717172 5:0.838384 6:0.646465 7:0.424242 8:0.555556 9:0.363636 11:0.42 12:0.28 13:1 14:0.28 
-0 0 0 1 0 0 0 1 0 1:0.787879 2:0.252525 3:1 4:0.545455 5:0.757576 6:0.363636 7:0.30303 8:0.151515 9:0.10101 10:0.393939 11:0.55 12:0.52 13:1 14:0.62 
-0 0 0 1 1 0 0 1 0 1:0.131313 2:0.828283 3:0.505051 4:1 5:1 6:0.838384 7:0.535354 8:0.494949 9:0.151515 10:0.141414 11:0.11 12:0.34 13:0.92 14:0.38 
-0 0 0 1 1 0 1 1 1 1:0.79798 2:0.232323 3:1 4:0.454545 5:0.686869 6:0.464646 7:0.292929 8:0.464646 9:0.181818 10:0.292929 11:0.58 12:0.36 13:1 14:0.38 
-0 0 1 0 1 0.01959205558112833 0.91146202667036413 1 1 1:0.949495 2:0.383838 3:1 4:0.737374 5:0.757576 6:0.818182 7:0.323232 8:0.757576 9:1 10:0.363636 11:0.59 12:0.47 13:0.16 14:0.48 
-0.78732689893111341 1 1 1 1 1 1 1 1 1:0.030303 2:1 3:0.353535 4:0.989899 5:0.434343 6:0.585859 7:0.383838 8:0.191919 9:0.282828 10:0.30303 11:0.49 12:0.39 13:1 14:0.42 
-0 0 0 1 0 0 0 0 0 1:0.79798 2:0.313131 3:1 4:0.636364 5:0.757576 6:0.575758 7:0.353535 8:0.454545 9:0.10101 10:0.292929 11:0.47 12:0.39 13:1 14:0.41 
-1 1 1 0 1 1 1 1 1 1:0.949495 2:0.616162 3:1 4:0.959596 5:0.707071 6:0.575758 7:0.353535 8:0.30303 9:1 10:0.191919 11:0.94 12:0.38 13:0.01 14:0.42 
-0 0 0 1 0 0 0 0 0 1:0.757576 2:0.414141 3:1 4:0.656566 5:0.747475 6:0.454545 7:0.373737 8:0.424242 9:0.212121 10:0.181818 11:0.45 12:0.36 13:1 14:0.39 
-1 1 1 1 1 1 1 1 1 1:0.0505051 2:0.979798 3:0.494949 4:1 5:0.757576 6:0.666667 7:0.636364 8:0.232323 9:0.666667 10:1 11:0.25 12:0.52 13:0.46 14:0.58 
-1 1 0 1 1 1 0 0 0 1:0.828283 2:0.626263 3:1 4:1 5:0.818182 6:0.838384 7:0.515152 8:0.575758 9:0.222222 10:0.222222 11:0.29 12:0.76 13:0.33 
-0 0 0 0 1 0 0 1 0 1:0.868687 2:0.363636 3:0.959596 4:0.979798 5:1 6:1 7:0.868687 8:0.79798 9:0.646465 10:0.626263 11:0.44 12:0.52 13:0.22 14:0.62 
-0 0 0 0 0 0 0 0.33033319776245401 0 1:0.939394 2:0.444444 3:1 4:0.535354 5:0.676768 6:0.464646 7:0.333333 8:0.393939 9:0.121212 10:0.282828 11:0.47 12:0.41 13:1 14:0.46 
-1 1 1 1 1 1 0.47517922464212897 1 1 1:1 2:0.666667 3:0.939394 4:0.828283 5:0.646465 6:0.565657 7:0.323232 8:0.40404 9:0.191919 10:0.282828 11:0.31 12:1 13:0.32 
-0.67717713860848072 1 0.78652414465510245 1 0 1 0 0 0 1:0.989899 2:0.808081 3:1 4:0.929293 5:0.747475 6:0.646465 7:0.373737 8:0.393939 9:0.232323 10:0.141414 11:0.3 12:1 13:0.32 
-1 0 0 1 1 1 0 0 0 1:0.828283 2:0.272727 3:1 4:0.848485 5:0.878788 6:0.737374 7:0.424242 8:0.424242 9:0.0707071 10:0.373737 11:0.2 12:1 13:0.25 
-0 0 0 1 1 0 0 0 0 1:0.989899 2:0.0707071 3:0.989899 4:0.69697 5:1 6:1 7:0.989899 8:0.59596 9:0.777778 10:0.323232 11:0.52 12:0.15 13:0.25 14:0.22 
-0 0 0 1 1 0 0 0 0 1:0.040404 2:1 3:0.929293 4:0.969697 5:1 6:0.737374 7:0.646465 8:0.40404 9:0.363636 10:0.0707071 11:0.05 12:0.24 13:0.89 14:0.23 
-0 0 0 1 1 0 0 0 0 1:0.181818 2:0.939394 3:0.777778 4:1 5:1 6:0.818182 7:0.666667 8:0.494949 9:0.333333 10:0.191919 11:0.13 12:0.31 13:0.74 14:0.33 
-0 0 0 1 1 0 0 0 0 1:0.969697 2:0.0909091 3:1 4:0.545455 5:0.929293 6:1 7:0.888889 8:0.717172 9:0.666667 10:0.454545 11:0.45 12:0.37 13:0.18 14:0.41 
-0 0 0 0 1 0 0 0 0 1:0.89899 2:0.424242 3:1 4:1 5:0.89899 6:0.909091 7:0.565657 8:0.717172 9:0.242424 10:0.494949 11:0.14 12:0.26 13:0.74 14:0.38 
-0 0 0 1 0 0 0 0 0 1:0.939394 2:0.454545 3:1 4:1 5:0.989899 6:0.757576 7:0.535354 8:0.545455 9:0.040404 10:0.282828 11:0.3 12:0.28 13:0.84 14:0.17 
-1 0.016068776520233183 1 0 1 1 1 1 1 1:0.0909091 2:0.949495 3:0.636364 4:1 5:0.818182 6:0.666667 7:0.69697 8:0.292929 9:0.727273 10:1 11:0.33 12:0.52 13:0.38 14:0.42 
-0 0 0 1 0 0 0 0 0 1:0.010101 2:0.909091 3:0.858586 4:1 5:0.979798 6:0.666667 7:0.606061 8:0.323232 9:0.181818 10:0.181818 11:0.08 12:0.43 13:1 14:0.4 
-0 0 1 0 1 0 0 0 0 1:0.777778 2:0.171717 3:0.959596 4:0.585859 5:0.949495 6:1 7:1 8:0.858586 9:0.818182 10:0.656566 11:0.56 12:0.52 13:0.29 14:0.47 
-0 1 0 1 1 0 1 1 1 1:0.838384 2:0.30303 3:1 4:0.424242 5:0.59596 6:0.383838 7:0.151515 8:0.262626 9:0.131313 10:0.262626 11:0.57 12:0.3 13:1 14:0.33 
-0 0 0 1 0 0 0 0 0 1:0.40404 2:0.959596 3:0.989899 4:1 5:1 6:0.737374 7:0.575758 8:0.373737 9:0.272727 10:0.0606061 11:0.16 12:0.45 13:0.8 14:0.34 
-1 0 0 0 1 0 0 0 0 1:0.969697 2:0.292929 3:0.959596 4:0.707071 5:0.979798 6:1 7:1 8:0.666667 9:0.828283 10:0.464646 11:0.56 12:0.32 13:0.28 14:0.24 
-0 0 0 0.11834664803779395 1 0 0 1 0 1:1 2:0.454545 3:0.959596 4:0.909091 5:0.939394 6:1 7:0.818182 8:0.717172 9:0.585859 10:0.525253 11:0.33 12:0.49 13:0.05 14:0.66 
-0 0 0 1 0 0 0 0 0 1:0.878788 2:0.545455 3:1 4:1 5:0.868687 6:0.646465 7:0.474747 8:0.383838 9:0.030303 10:0.181818 11:0.22 12:0.35 13:0.87 14:0.42 
-0 0 0 0 0 0 0 1 0 1:0.979798 2:0.575758 3:1 4:0.545455 5:0.666667 6:0.545455 7:0.313131 8:0.686869 9:0.323232 10:0.151515 11:0.42 12:0.36 13:1 14:0.46 
-1 0 1 0 1 1 1 1 1 1:0.333333 2:0.909091 3:0.979798 4:0.414141 5:1 6:0.828283 7:0.939394 8:1 9:0.707071 10:0.858586 11:0.46 12:0.62 13:0.23 14:0.46 
-0 0 0 1 0 0 0 0 0 1:0.89899 2:0.40404 3:1 4:0.575758 5:0.777778 6:0.414141 7:0.393939 8:0.313131 9:0.040404 10:0.232323 11:0.51 12:0.35 13:1 14:0.36 
-1 0 0 0 1 0 0 0 0 1:0.959596 2:0.20202 3:0.969697 4:0.787879 5:1 6:1 7:0.979798 8:0.666667 9:0.757576 10:0.474747 11:0.5 12:0.33 13:0.23 14:0.31 
-0 0 0 0 1 0 0 0 0 1:0.949495 2:0.242424 3:0.969697 4:0.787879 5:1 6:1 7:0.919192 8:0.666667 9:0.717172 10:0.454545 11:0.49 12:0.35 13:0.25 14:0.37 
-0 0 0 1 0 0 0 1 0 1:0.919192 2:0.444444 3:1 4:0.525253 5:0.676768 6:0.393939 7:0.323232 8:0.30303 9:0.040404 10:0.313131 11:0.47 12:0.43 13:1 14:0.45 
-0 0 1 0 0 0 1 1 1 1:0.929293 2:0.424242 3:1 4:0.676768 5:0.747475 6:0.59596 7:0.373737 8:0.616162 9:1 10:0.232323 11:0.83 12:0.41 13:0.34 14:0.45 
-1 0 1 1 1 1 0.29405456813873299 1 0 1:0.0606061 2:0.888889 3:0.434343 4:1 5:1 6:0.79798 7:0.686869 8:0.393939 9:0.464646 10:0.909091 11:0.15 12:0.85 13:0.35 14:0.35 
-0 0 0 1 0 0 0 0 0 1:0.888889 2:0.333333 3:1 4:0.565657 5:0.717172 6:0.505051 7:0.333333 8:0.434343 9:0.111111 10:0.272727 11:0.55 12:0.36 13:1 14:0.37 
-1 0 1 1 1 0 0 1 1 1:0.171717 2:0.868687 3:0.919192 4:0.494949 5:0.959596 6:1 7:1 8:0.707071 9:0.777778 10:0.464646 11:0.54 12:0.33 13:0.27 14:0.35 
-0 0 0 1 0 0 0 0 0 1:0.858586 2:0.565657 3:1 4:1 5:0.777778 6:0.707071 7:0.454545 8:0.353535 9:0.131313 10:0.292929 11:0.04 12:0.32 13:0.74 14:0.34 
-0 0 1 0 1 0 1 1 0 1:0.777778 2:0.222222 3:0.909091 4:0.606061 5:0.969697 6:1 7:1 8:0.868687 9:0.747475 10:0.777778 11:0.5 12:0.71 13:0.24 14:0.68 
-0 0 0 1 1 0 0 0 0 1:0.828283 2:0.20202 3:1 4:0.616162 5:0.929293 6:0.565657 7:0.454545 8:0.505051 9:0.282828 10:0.0909091 11:0.56 12:0.21 13:1 14:0.28 
-0 0.5702289569940503 0 0 0 0 0 0 0 1:0.989899 2:0.909091 3:1 4:0.787879 5:0.686869 6:0.59596 7:0.343434 8:0.494949 9:0.161616 10:0.020202 11:0.09 12:0.28 13:1 14:0.37 
-0 0 0 0 1 0 0 0 0 1:0.929293 2:0.505051 3:1 4:1 5:0.888889 6:0.989899 7:0.585859 8:0.79798 9:0.272727 10:0.535354 11:0.26 12:0.27 13:0.51 14:0.45 
-1 1 0 1 1 1 1 1 1 2:0.868687 3:0.373737 4:1 5:0.484848 6:0.626263 7:0.333333 8:0.212121 9:0.151515 10:0.282828 11:0.49 12:0.24 13:1 14:0.22 
-0 0 0 0 1 0 0 0 0 1:1 2:0.262626 3:1 4:0.636364 5:0.989899 6:1 7:0.959596 8:0.777778 9:0.727273 10:0.494949 11:0.47 12:0.33 13:0.13 14:0.36 
-0 0 0 1 1 0 0 0 0 1:0.888889 2:0.353535 3:1 4:0.575758 5:0.717172 6:0.535354 7:0.353535 8:0.555556 9:0.272727 10:0.10101 11:0.48 12:0.27 13:1 14:0.3 
-1 0 1 1 1 1 1 1 1 1:0.030303 2:0.858586 3:0.535354 4:1 5:0.848485 6:0.717172 7:0.79798 8:0.313131 9:0.757576 10:1 11:0.37 12:0.48 13:0.4 14:0.38 
-1 1 0 0 1 1 0 1 0 1:1 2:0.555556 3:0.959596 4:1 5:0.767677 6:0.727273 7:0.424242 8:0.444444 9:0.0909091 10:0.525253 11:0.85 12:0.31 13:0.3 14:0.33 
-0.65904701630343998 0 1 0 0 0 0 0 0 1:0.909091 2:0.313131 3:1 4:0.646465 5:0.969697 6:0.919192 7:0.757576 8:1 9:0.373737 10:0.949495 11:0.68 12:0.25 13:0.91 14:0.35 
-0 0 0 0 0 0.7620559760129183 0 0 0 1:0.838384 2:0.454545 3:1 4:0.959596 5:0.878788 6:0.939394 7:0.494949 8:0.828283 9:0.10101 10:0.616162 11:0.45 12:0.26 13:1 14:0.26 
-1 0 0 1 1 0 0 0 0 1:1 2:0.0909091 3:0.89899 4:0.555556 5:0.909091 6:1 7:0.919192 8:0.686869 9:0.707071 10:0.393939 11:0.48 12:0.17 13:0.21 14:0.12 
-0 0 0 1 1 0 0 0 0 1:0.878788 2:0.525253 3:0.959596 4:1 5:1 6:0.727273 7:0.656566 8:0.494949 9:0.30303 10:0.252525 11:0.04 12:0.34 13:0.48 14:0.33 
-0 0 0 1 1 0 0 0 0 1:0.868687 2:0.0505051 3:0.969697 4:0.636364 5:1 6:1 7:0.929293 8:0.707071 9:0.717172 10:0.494949 11:0.49 12:0.34 13:0.25 14:0.3 
-0 0 0 0 0 0 0 1 0 1:0.717172 2:0.282828 3:1 4:0.606061 5:0.818182 6:0.585859 7:0.333333 8:0.464646 9:0.232323 10:0.393939 11:0.62 12:0.49 13:1 14:0.64 
-1 0 1 1 1 1 0 1 0.85609079676413491 1:0.0808081 2:0.969697 3:0.555556 4:1 5:0.909091 6:0.717172 7:0.737374 8:0.353535 9:0.575758 10:1 11:0.22 12:0.63 13:0.34 14:0.34 
-0 0 0 0 0 0 0 1 0 1:0.929293 2:0.424242 3:1 4:0.69697 5:0.717172 6:0.676768 7:0.333333 8:0.555556 9:0.30303 10:0.313131 11:0.52 12:0.48 13:1 14:0.53 
-1 0 0 1 1 0 0 0 0 1:0.020202 2:0.89899 3:0.40404 4:1 5:1 6:1 7:0.888889 8:0.676768 9:0.535354 10:0.323232 11:0.19 12:0.15 13:0.54 14:0.23 
-0 0 0 1 0 0 0 0 0 1:1 2:0.444444 3:0.919192 4:1 5:0.777778 6:0.666667 7:0.383838 8:0.30303 10:0.0909091 11:0.27 12:0.28 13:0.93 14:0.34 
-1 0 0 1 1 0 0 0 0 1:1 2:0.232323 3:0.979798 4:0.989899 5:1 6:1 7:0.89899 8:0.585859 9:0.69697 10:0.323232 11:0.47 12:0.19 13:0.23 14:0.28 
-0 0 0 0.026231440370709659 0 0 0 0 0 1:0.909091 2:0.444444 3:1 4:0.868687 5:0.919192 6:0.606061 7:0.444444 8:0.292929 9:0.212121 10:0.030303 11:0.4 12:0.39 13:1 14:0.38 
-0 0 0 1 1 0 0 0 0 1:0.787879 2:0.222222 3:1 4:0.656566 5:0.777778 6:0.656566 7:0.383838 8:0.555556 9:0.292929 11:0.41 12:0.27 13:1 14:0.29 
-0 1 0 1 0 1 0 1 0 1:0.282828 2:1 3:0.717172 4:0.79798 5:0.646465 6:0.515152 7:0.373737 8:0.242424 9:0.010101 10:0.212121 11:0.25 12:0.47 13:1 14:0.49 
-1 0 1 0 1 0 0 0 0 1:0.939394 2:0.0707071 3:0.989899 4:0.545455 5:1 6:0.949495 7:0.888889 8:1 9:0.646465 10:0.818182 11:0.41 12:0.55 13:0.2 14:0.26 
-0 0 0 0 0 0 0 1 0 1:0.828283 2:0.292929 3:1 4:0.606061 5:0.777778 6:0.636364 7:0.383838 8:0.515152 9:0.30303 10:0.232323 11:0.61 12:0.48 13:1 14:0.57 
-1 1 1 0 0 1 0 1 0 1:1 2:0.636364 3:1 4:1 5:0.69697 6:0.878788 7:0.313131 8:0.565657 9:0.959596 10:0.292929 11:0.82 12:0.43 13:0.16 14:0.44 
-0 0 0 0 0 1 0 1 0 1:0.949495 2:0.40404 3:1 4:0.656566 5:0.666667 6:0.585859 7:0.212121 8:0.464646 9:0.191919 10:0.363636 11:0.55 12:0.48 13:1 14:0.51 
-0 0 0 0 0 1 0 0 0.8345586431619143 1:1 2:0.434343 3:0.969697 4:0.535354 5:0.606061 6:0.40404 7:0.222222 8:0.222222 9:0.0808081 10:0.373737 11:0.52 12:0.44 13:1 14:0.41 
-0 0 0.10261272441823477 1 0 1 0 1 0 1:0.181818 2:1 3:0.606061 4:0.979798 5:0.616162 6:0.555556 7:0.494949 8:0.131313 9:0.282828 10:0.343434 11:0.5 12:0.4 13:1 14:0.39 
-0 0 0 1 1 0 0 0 0 1:0.0707071 2:0.919192 3:0.666667 4:1 5:0.868687 6:0.818182 7:0.616162 8:0.393939 9:0.30303 10:0.131313 11:0.38 12:0.3 13:1 14:0.27 
-1 1 1 0 1 1 0 0 0 1:0.979798 2:0.666667 3:1 4:1 5:0.717172 6:0.878788 7:0.353535 8:0.717172 9:0.535354 10:0.181818 11:0.31 12:0.87 13:0.32 
-1 0 0 1 1 0 0 0 0 1:0.30303 2:0.939394 3:0.848485 4:1 5:1 6:0.767677 7:0.777778 8:0.484848 9:0.585859 10:0.20202 11:0.43 12:0.19 13:0.51 14:0.25 
-0 0 1 0 0 1 0 0 0 1:1 2:0.545455 3:0.979798 4:1 5:0.79798 6:0.979798 7:0.505051 8:0.79798 9:0.212121 10:0.717172 11:0.91 12:0.28 13:0.71 14:0.43 
-0 0 0 1 1 0 0 0 0 1:0.909091 2:0.40404 3:1 4:1 5:0.939394 6:0.737374 7:0.616162 8:0.444444 9:0.30303 10:0.141414 11:0.04 12:0.16 13:0.47 14:0.32 
-1 0 0 0 1 0 0 0 0 1:0.979798 2:0.191919 3:0.989899 4:0.636364 5:1 6:1 7:0.878788 8:0.919192 9:0.636364 10:0.666667 11:0.43 12:0.41 13:0.22 14:0.22 
-0 0 0 1 1 0 0 0 0 1:0.929293 2:0.636364 3:1 4:1 5:0.818182 6:0.777778 7:0.505051 8:0.515152 9:0.191919 10:0.262626 11:0.01 12:0.29 13:0.63 14:0.32 
-0.93640432853873445 0 1 0 1 1 0 1 0 1:0.0909091 2:0.858586 3:0.969697 4:0.494949 5:0.989899 6:1 7:1 8:0.787879 9:0.777778 10:0.626263 11:0.53 12:0.5 13:0.26 14:0.47 
-1 0 1 0 1 1 0 1 0.51213952300917442 1:0.292929 2:0.929293 3:0.69697 4:1 5:0.878788 6:0.626263 7:0.858586 8:0.222222 9:0.848485 10:1 11:0.3 12:0.5 13:0.34 14:0.34 
-0 0 0 1 0 0 0 1 0 1:0.141414 2:0.939394 3:0.575758 4:1 5:1 6:0.69697 7:0.707071 8:0.333333 9:0.30303 10:0.131313 11:0.3 12:0.57 13:0.91 14:0.57 
-0 0 0 1 0 0 0 0 0 1:1 2:0.505051 3:0.848485 4:1 5:0.737374 6:0.626263 7:0.363636 8:0.252525 9:0.141414 10:0.111111 11:0.38 12:0.31 13:1 14:0.37 
-0 0 0 1 0 0 0 0 0 1:0.79798 2:0.343434 3:1 4:0.989899 5:0.818182 6:1 7:0.444444 8:0.606061 9:0.111111 10:0.191919 11:0.18 12:0.34 13:0.92 14:0.31 
-0 0 0 0 0.62812367443942496 0 0 0 0 1:0.89899 2:0.393939 3:1 4:0.969697 5:0.929293 6:1 7:0.535354 8:0.979798 9:0.131313 10:0.707071 11:0.32 12:0.19 13:0.91 14:0.27 
-0 1 1 1 1 1 1 1 1 1:0.0606061 2:1 3:0.393939 4:0.888889 5:0.363636 6:0.474747 7:0.20202 8:0.0808081 9:0.020202 10:0.393939 11:0.48 12:0.58 13:1 14:0.65 
-1 0 0 0 1 0 0 0 0 1:0.959596 2:0.444444 3:1 4:1 5:0.989899 6:0.787879 7:0.828283 8:0.59596 9:0.626263 10:0.444444 11:0.42 12:0.36 13:0.21 14:0.33 
-1 0 0 1 1 0 0 0 0 1:1 2:0.151515 3:0.909091 4:0.686869 5:0.939394 6:1 7:0.89899 8:0.646465 9:0.69697 10:0.444444 11:0.45 12:0.31 13:0.18 14:0.2 
-0 0 0 0 0 1 0 1 0 1:0.858586 2:0.474747 3:1 4:0.919192 5:0.747475 6:0.838384 7:0.212121 8:0.454545 9:0.010101 10:0.282828 11:0.49 12:0.49 13:1 14:0.62 
-1 0 1 0 1 0.53944371019562098 0 0 0.18560084419151149 1:0.212121 2:0.929293 3:0.949495 4:0.494949 5:0.969697 6:1 7:1 8:0.666667 9:0.808081 10:0.424242 11:0.56 12:0.28 13:0.28 14:0.3 
-1 0 0 1 1 0 0 0 0 1:0.020202 2:0.939394 3:1 4:0.757576 5:1 6:1 7:0.919192 8:0.636364 9:0.69697 10:0.383838 11:0.46 12:0.26 13:0.21 14:0.33 
-0 0 1 0 1 0 0.1487321085082447 0 0 1:0.818182 2:0.0909091 3:0.989899 4:0.535354 5:0.989899 6:0.979798 7:1 8:1 9:0.79798 10:0.777778 11:0.55 12:0.62 13:0.28 14:0.57 
-1 0 1 0 1 1 0 0 0 1:0.888889 2:0.434343 3:1 4:0.909091 5:0.888889 6:0.767677 7:0.525253 8:0.626263 9:0.161616 10:0.828283 11:1 12:0.15 13:0.5 14:0.2 
-1 1 1 0 1 1 0 1 1 1:0.10101 2:1 3:0.656566 4:0.959596 5:0.79798 6:0.646465 7:0.676768 8:0.30303 9:0.59596 10:1 11:0.25 12:0.56 13:0.42 14:0.5 
-1 0 1 0 1 1 0 1 1 1:0.111111 2:0.929293 3:0.969697 4:0.565657 5:1 6:1 7:0.878788 8:0.939394 9:0.656566 10:0.747475 11:0.43 12:0.57 13:0.22 14:0.4 
-0 1 0 1 0 0 0 0 0 1:1 2:0.545455 3:0.939394 4:0.717172 5:0.626263 6:0.535354 7:0.30303 8:0.313131 9:0.121212 10:0.0707071 11:0.39 12:0.28 13:1 14:0.27 
-0 0 0 1 0 0 0 0 0 1:0.848485 2:0.40404 3:1 4:0.616162 5:0.727273 6:0.565657 7:0.353535 8:0.484848 9:0.262626 10:0.191919 11:0.53 12:0.32 13:1 14:0.35 
-0 0 0.24323974102579571 0 1 0 1 1 0.056527701385971497 1:0.909091 2:0.262626 3:1 4:0.686869 5:0.828283 6:0.59596 7:0.414141 8:0.535354 9:1 10:0.212121 11:0.76 12:0.44 13:0.23 14:0.49 
-0 0 0 1 0 0 0 0 0 1:1 2:0.636364 3:0.979798 4:1 5:0.79798 6:0.545455 7:0.40404 8:0.131313 9:0.010101 10:0.040404 11:0.2 12:0.3 13:0.86 14:0.36 
-0 1 0 0 0 0 0 0 0 1:1 2:0.848485 3:0.969697 4:1 5:0.686869 6:0.646465 7:0.373737 8:0.272727 9:0.0606061 10:0.121212 11:0.13 12:0.34 13:0.92 14:0.41 
-1 0 0 0 1 1 0 0 0 1:0.888889 2:0.434343 3:1 4:0.919192 5:0.929293 6:1 7:0.606061 8:0.929293 9:0.282828 10:0.818182 11:0.38 12:0.18 13:0.71 14:0.32 
-1 0 0 1 1 1 0 1 0 1:0.0909091 2:0.888889 3:0.555556 4:1 5:0.757576 6:0.606061 7:0.646465 8:0.151515 9:0.363636 10:0.30303 11:0.5 12:0.3 13:1 14:0.3 
-0 0 0 1 1 0 0 0 0 1:0.181818 2:1 3:0.949495 4:1 5:1 6:0.717172 7:0.727273 8:0.424242 9:0.484848 10:0.121212 11:0.33 12:0.25 13:0.75 14:0.32 
-1 0 1 0 0 1 0 0 0 1:0.959596 2:0.585859 3:1 4:1 5:0.737374 6:0.949495 7:0.353535 8:0.747475 9:0.969697 10:0.0606061 11:0.97 12:0.28 13:0.34 14:0.3 
-0 0 0 1 1 0 0 0 0 1:0.0505051 2:0.989899 3:0.767677 4:1 5:0.878788 6:0.676768 7:0.616162 8:0.343434 9:0.515152 10:0.212121 11:0.26 12:0.31 13:1 14:0.25 
-0 0 0 1 0 0 0 0 0 1:0.919192 2:0.191919 3:1 4:0.676768 5:0.939394 6:0.484848 7:0.454545 8:0.232323 9:0.131313 10:0.151515 11:0.44 12:0.48 13:1 14:0.56 
-0 0 0 0 0 0 0 1 0 1:0.777778 2:0.333333 3:1 4:0.666667 5:0.828283 6:0.656566 7:0.393939 8:0.535354 9:0.333333 10:0.272727 11:0.62 12:0.46 13:1 14:0.63 
-0.12339221230144164 0 0 0 1 0 0 0 0 1:0.969697 2:0.10101 3:1 4:0.616162 5:0.979798 6:1 7:0.848485 8:0.939394 9:0.616162 10:0.717172 11:0.42 12:0.48 13:0.21 14:0.44 
-0 0 0 1 0 0 0 0 0 1:0.313131 2:0.949495 3:0.888889 4:1 5:1 6:0.79798 7:0.636364 8:0.40404 9:0.464646 11:0.31 12:0.36 13:0.91 14:0.37 
-0 0 0 1 0 0 0 0 0 1:0.89899 2:0.59596 3:1 4:1 5:0.828283 6:0.717172 7:0.464646 8:0.393939 9:0.121212 10:0.030303 11:0.25 12:0.29 13:0.92 14:0.29 
-0 1 0 1 0 1 0 0 0 1:0.969697 2:0.40404 3:1 4:0.585859 5:0.515152 6:0.444444 7:0.161616 8:0.0808081 9:0.040404 10:0.444444 11:0.52 12:0.44 13:1 14:0.39 
-1 0 0 0 1 0 0 0 0 1:0.959596 2:0.444444 3:0.979798 4:1 5:1 6:0.969697 7:0.828283 8:0.767677 9:0.616162 10:0.59596 11:0.39 12:0.52 13:0.17 14:0.55 
-0 1 0 1 1 1 1 1 1 1:0.888889 2:0.252525 3:1 4:0.343434 5:0.505051 6:0.313131 7:0.121212 8:0.121212 9:0.212121 10:0.313131 11:0.6 12:0.4 13:1 14:0.46 
-0 0 0 0 1 0 0 0 0 1:0.939394 2:0.252525 3:1 4:0.787879 5:0.959596 6:1 7:0.666667 8:0.808081 9:0.323232 10:0.565657 11:0.18 12:0.2 13:0.63 14:0.34 
-0 0 0 1 0 0 0 0 0 1:0.79798 2:0.525253 3:1 4:1 5:0.767677 6:0.69697 7:0.373737 8:0.313131 9:0.010101 10:0.0808081 11:0.19 12:0.27 13:0.89 14:0.34 
-0 0.53436956900728161 0 1 0 0 0 0 0 1:1 2:0.616162 3:0.969697 4:1 5:0.757576 6:0.676768 7:0.454545 8:0.333333 9:0.161616 10:0.222222 11:0.07 12:0.33 13:0.72 14:0.36 
-0 0 0 1 0 0 0 0 0 1:0.828283 2:0.313131 3:1 4:0.838384 5:0.737374 6:0.676768 7:0.353535 8:0.363636 9:0.0606061 10:0.222222 11:0.18 12:0.45 13:1 14:0.52 
-0 0 1 0 1 0 0 0 0 1:1 2:0.323232 3:1 4:0.666667 5:0.989899 6:1 7:0.939394 8:0.888889 9:0.676768 10:0.666667 11:0.44 12:0.51 13:0.17 14:0.5 
-0 0 0 1 0 0 0 0 0 1:0.949495 2:0.515152 3:1 4:0.585859 5:0.747475 6:0.494949 7:0.363636 8:0.535354 9:0.181818 10:0.040404 11:0.43 12:0.27 13:1 14:0.37 
-1 0 1 0 1 1 1 1 1 1:0.020202 2:0.959596 3:0.525253 4:1 5:0.808081 6:0.676768 7:0.828283 8:0.272727 9:0.717172 10:1 11:0.34 12:0.51 13:0.41 14:0.43 
-0 0 0 1 0 0 0 0 0 1:0.474747 2:0.878788 3:1 4:1 5:0.919192 6:0.626263 7:0.555556 8:0.292929 9:0.151515 10:0.141414 11:0.3 12:0.39 13:0.91 14:0.38 
-0 0 0 0 0 0 0 1 0 1:0.929293 2:0.535354 3:1 4:0.79798 5:0.686869 6:0.69697 7:0.343434 8:0.656566 9:0.272727 10:0.262626 11:0.19 12:0.47 13:1 14:0.52 
-0 0 0 0 0 0 0 1 0 1:0.89899 2:0.484848 3:1 4:0.59596 5:0.666667 6:0.545455 7:0.313131 8:0.646465 9:0.20202 10:0.272727 11:0.28 12:0.48 13:1 14:0.53 
-0 0 0 1 1 0 0 0 0 1:0.979798 2:0.484848 3:1 4:1 5:0.989899 6:0.878788 7:0.646465 8:0.606061 9:0.323232 10:0.333333 11:0.21 12:0.18 13:0.44 14:0.41 
-0 0 0 1 0 0 0 0 0 1:0.909091 2:0.272727 3:1 4:0.727273 5:0.909091 6:0.545455 7:0.454545 8:0.393939 9:0.272727 10:0.0707071 11:0.44 12:0.38 13:1 14:0.45 
-1 1 1 1 1 1 1 1 1 1:0.0707071 2:0.989899 3:0.474747 4:1 5:0.747475 6:0.676768 7:0.656566 8:0.242424 9:0.626263 10:1 11:0.25 12:0.51 13:0.37 14:0.41 
-0 0 0 1 0 1 0 1 0 1:0.030303 2:1 3:0.585859 4:0.89899 5:0.656566 6:0.555556 7:0.555556 8:0.212121 9:0.383838 10:0.292929 11:0.16 12:0.49 13:1 14:0.47 
-0.38882045370609258 -0 0.17686549874716567 0 0 1 0 0 0 1:1 2:0.989899 3:0.888889 4:1 5:0.454545 6:0.747475 7:0.141414 8:0.474747 9:0.191919 10:0.424242 11:0.96 12:0.1 13:0.24 14:0.22 
-0 -0 0 0 0 1 0 0 0 1:1 2:0.939394 3:0.727273 4:1 5:0.393939 6:0.737374 7:0.121212 8:0.454545 9:0.111111 10:0.373737 11:0.67 12:0.22 13:0.2 14:0.28 
-0 -0 0 0 1 0 0 0 0 1:0.545455 2:1 3:0.323232 4:0.717172 5:0.171717 6:0.434343 7:0.181818 8:0.141414 9:0.69697 10:1 11:0.2 12:0.4 13:0.23 14:0.01 
-0 -0 0 0 0 1 0 0 1 1:0.838384 2:1 3:0.575758 4:0.828283 5:0.343434 6:0.545455 7:0.232323 8:0.252525 9:0.474747 10:1 11:0.15 12:0.65 13:0.35 14:0.24 
-0 -0 0 1 1 1 0 0 1 1:0.606061 2:0.848485 3:0.464646 4:1 5:0.0707071 6:0.69697 7:0.333333 8:0.40404 9:0.0606061 10:1 11:0.11 12:0.55 13:0.24 14:0.09 
-0 -0.64517107673459551 0 0 0 0 0 1 0 1:1 2:1 3:0.676768 4:0.787879 5:0.444444 6:0.565657 7:0.272727 8:0.333333 9:0.212121 10:0.10101 11:0.72 12:0.62 13:0.18 14:0.2 
-0 -0 0 0 0 0 1 1 1 1:0.848485 2:1 3:0.484848 4:0.868687 5:0.111111 6:0.565657 7:0.212121 8:0.444444 9:1 10:0.141414 11:0.78 12:0.47 13:0.18 14:0.59 
-0 -0 0 1 0 0 1 1 1 1:0.545455 2:1 3:0.20202 4:0.727273 5:0.0606061 6:0.414141 7:0.161616 8:0.0909091 9:0.656566 10:1 11:0.24 12:0.55 13:0.4 14:0.32 
-0 -0 0 0 0.51738767093280313 0 0 0 0 1:0.525253 2:1 3:0.515152 4:0.828283 5:0.171717 6:0.515152 7:0.181818 8:0.444444 9:1 10:0.161616 11:0.52 12:0.37 13:0.28 14:0.13 
-0 -0 0 0 0 0.59077332873624444 1 1 0 1:1 2:1 3:0.616162 4:0.868687 5:0.20202 6:0.59596 7:0.262626 8:0.30303 9:0.929293 10:0.0606061 11:0.87 12:0.37 13:0.32 14:0.55 
-1 -0 1 0 0 1 1 0 1 1:0.989899 2:1 3:0.606061 4:0.777778 5:0.363636 6:0.393939 7:0.40404 8:0.989899 9:1 10:0.323232 11:0.47 12:0.5 13:0.28 
-0 -0 0 1 0 0 0 0 0 1:1 2:1 3:0.646465 4:0.787879 5:0.383838 6:0.555556 7:0.161616 8:0.313131 9:0.0707071 10:0.040404 11:0.49 12:0.47 13:0.18 14:0.12 
-0 -0 0 1 0 0 0 0 0 1:0.727273 2:1 3:0.474747 4:0.69697 5:0.222222 6:0.40404 7:0.20202 8:0.0808081 9:0.686869 11:1 12:0.22 13:0.46 14:0.17 
-0 -0 0 0 0 0 0 0 1 1:0.717172 2:1 3:0.313131 4:0.79798 5:0.0808081 6:0.484848 7:0.121212 8:0.151515 9:0.585859 10:1 11:0.24 12:0.59 13:0.41 14:0.31 
-0 -0 0 0 0 0 1 1 0.62743189637301122 1:0.737374 2:1 3:0.494949 4:0.989899 5:0.121212 6:0.666667 7:0.30303 8:0.343434 9:1 10:0.0909091 11:0.79 12:0.43 13:0.1 14:0.52 
-0 -1 0 1 1 0 0 1 0 1:1 2:0.949495 3:0.868687 4:1 5:0.484848 6:0.737374 7:0.151515 8:0.424242 9:0.0505051 10:0.0505051 11:0.52 12:0.48 13:0.29 14:0.39 
-1 -1 1 0 0 1 1 1 1 1:0.707071 2:1 3:0.494949 4:0.868687 5:0.313131 6:0.494949 7:0.313131 8:0.10101 9:0.757576 10:1 11:0.32 12:0.51 13:0.49 14:0.41 
-1 -1 0.36520299009204554 1 1 1 1 1 1 1:0.454545 2:1 3:0.181818 4:0.767677 5:0.484848 6:0.191919 7:0.414141 8:1 9:0.0606061 10:0.767677 11:0.28 12:0.27 13:0.17 
-1 -1 0 1 1 1 0 0 0 1:0.707071 2:0.818182 3:1 4:1 5:0.434343 6:0.686869 7:0.343434 8:0.0707071 9:0.89899 10:0.111111 11:0.75 12:0.32 13:0.05 14:0.11 
-0 -0 0 0 0 1 0 0 0 1:1 2:1 3:0.59596 4:0.939394 5:0.323232 6:0.616162 7:0.212121 8:0.282828 9:0.464646 10:0.979798 11:0.12 12:0.58 13:0.35 14:0.27 
-0 -0 0 0 0 0 0 0 1 1:0.808081 2:1 3:0.323232 4:0.878788 5:0.494949 6:0.10101 7:0.0808081 8:0.767677 9:0.0505051 10:1 11:0.42 12:0.37 13:0.33 14:0.1 
-1 -1 1 0.54061495111789049 1 1 0 1 0 1:1 2:0.767677 3:0.919192 4:1 5:0.484848 6:0.757576 7:0.171717 8:0.474747 9:0.141414 10:0.373737 11:0.75 12:0.23 13:0.29 14:0.27 
-0 -0 0 0 0.21138133869147363 0 0 0 0 1:1 2:0.989899 3:0.59596 4:1 5:0.333333 6:0.777778 7:0.131313 8:0.525253 9:0.262626 10:0.0505051 11:0.37 12:0.09 13:0.06 14:0.27 
-0 -0 0 0 0 1 0 0 0 1:0.888889 2:0.89899 3:0.484848 4:1 5:0.131313 6:0.727273 7:0.10101 8:0.40404 9:0.484848 10:0.161616 11:1 12:0.28 13:0.41 14:0.24 
-0 -0 0 0 0 1 0 0 0 1:1 2:1 3:0.575758 4:0.858586 5:0.262626 6:0.656566 7:0.0606061 8:0.424242 9:0.171717 10:0.333333 11:0.72 12:0.14 13:0.43 14:0.29 
-0.23919805880133671 -0 0 0 1 0.55855169457619203 0 0 1 1:0.737374 2:1 3:0.272727 4:0.777778 5:0.515152 6:0.232323 7:0.363636 8:1 9:0.0505051 10:0.757576 11:0.26 12:0.13 13:0.19 
-0 -0 0 0 0 0.070891639694596179 0 0 0 1:1 2:1 3:0.636364 4:0.989899 5:0.282828 6:0.777778 7:0.030303 8:0.505051 9:0.171717 10:0.292929 11:0.42 12:0.26 13:0.22 
-1 -1 1 1 1 1 0 1 0 1:0.373737 2:0.757576 3:0.575758 4:1 5:0.20202 6:0.646465 7:0.262626 8:0.434343 9:1 10:0.212121 11:0.45 12:0.36 13:0.22 14:0.08 
-0 -0 0 0 0 1 0 0 0 1:1 2:1 3:0.656566 4:0.89899 5:0.242424 6:0.585859 7:0.232323 8:0.353535 9:0.979798 10:0.111111 11:0.62 12:0.34 13:0.26 
-1 -0 0.93346032930611134 0 1 0 0 0 1 1:0.767677 2:1 3:0.545455 4:0.747475 5:0.393939 6:0.474747 7:0.353535 8:0.20202 9:0.636364 10:1 11:0.16 12:0.49 13:0.21 14:0.1 
-0 -0 1 0 0 0 1 1 1 1:0.848485 2:1 3:0.707071 4:1 5:0.242424 6:0.676768 7:0.313131 8:0.30303 9:1 10:0.151515 11:0.78 12:0.49 13:0.07 14:0.67 
-1 -1 1 0.16143651305590329 1 1 1 1 1 1:0.393939 2:0.979798 3:0.505051 4:1 5:0.606061 6:0.10101 7:0.151515 8:0.929293 9:1 10:0.363636 11:0.18 12:0.51 13:0.24 14:0.19 
-0 -0 0 0 0 0 1 1 0 1:0.969697 2:1 3:0.565657 4:0.818182 5:0.232323 6:0.505051 7:0.191919 8:0.313131 9:1 10:0.111111 11:0.91 12:0.42 13:0.25 14:0.56 
-0 -0 0 0 0 1 0 0 0 1:0.747475 2:1 3:0.393939 4:0.89899 5:0.10101 6:0.585859 7:0.262626 8:0.313131 9:0.979798 10:0.040404 11:1 12:0.28 13:0.38 14:0.16 
-0 -1 0 0 0 1 0 0.46361368523434965 0 1:1 2:1 3:0.79798 4:1 5:0.373737 6:0.707071 7:0.10101 8:0.333333 9:0.30303 10:0.808081 11:0.12 12:0.53 13:0.45 14:0.45 
-0 -0.51068110118029841 0 0 0 0 1 1 1 1:0.565657 2:1 3:0.191919 4:0.767677 5:0.484848 6:0.010101 7:0.181818 8:0.454545 9:1 10:0.121212 11:0.83 12:0.38 13:0.35 14:0.26 
-0 -0 0 0 0 0.22228231680040719 0 0 0 1:1 2:1 3:0.474747 4:0.959596 5:0.141414 6:0.636364 7:0.30303 8:0.242424 9:0.949495 10:0.0707071 11:0.94 12:0.38 13:0.25 14:0.31 
-0 -0 0.086643155188011883 0 0 0 1 0 1 1:1 2:1 3:0.525253 4:0.909091 5:0.151515 6:0.575758 7:0.191919 8:0.484848 9:0.989899 10:0.232323 11:0.64 12:0.56 13:0.05 14:0.53 
-0 -0 0 0 1 0 0 0 0 1:1 2:1 3:0.737374 4:0.919192 5:0.434343 6:0.626263 7:0.181818 8:0.313131 9:0.212121 10:0.666667 11:0.06 12:0.38 13:0.24 14:0.05 
-1 -0 0 0 0 1 1 1 1 1:0.454545 2:1 3:0.30303 4:0.858586 5:0.040404 6:0.555556 7:0.232323 8:0.343434 9:0.909091 11:1 12:0.28 13:0.47 14:0.32 
-0 -1 0 1 1 0 0.97377289575069714 1 1 1:0.232323 2:1 3:0.0606061 4:0.717172 5:0.414141 6:0.0505051 7:0.121212 8:0.59596 9:0.0808081 10:1 11:0.29 12:0.43 13:0.23 14:0.09 
-0.27409284486242669 -0 0 0 0 0 0 0 0.67617480190487578 1:0.59596 2:1 3:0.323232 4:0.828283 5:0.484848 6:0.0707071 7:0.10101 8:0.676768 9:1 10:0.292929 11:0.48 12:0.38 13:0.32 14:0.05 
-0 -0 0 1 1 0 0 1 1 1:0.545455 2:1 3:0.212121 4:0.89899 5:0.535354 6:0.111111 7:0.151515 8:0.575758 9:0.030303 10:1 11:0.2 12:0.56 13:0.25 14:0.18 
-0 -0 0 0 0 1 1 0 0 1:0.757576 2:1 3:0.363636 4:0.757576 5:0.0707071 6:0.494949 7:0.20202 8:0.40404 9:1 10:0.0707071 11:0.95 12:0.29 13:0.34 14:0.21 
-0 -0 0 1 1 0 0 1 1 1:0.373737 2:1 3:0.151515 4:0.79798 5:0.020202 6:0.494949 7:0.191919 8:0.474747 9:0.040404 10:1 11:0.2 12:0.47 13:0.24 14:0.22 
-0 -0 0 0 0 0 1 0 0 1:0.747475 2:1 3:0.434343 4:0.69697 5:0.222222 6:0.333333 7:0.464646 8:0.030303 9:1 10:0.0505051 11:0.89 12:0.29 13:0.36 14:0.26 
-0.40756212161436944 -0 0 1 1 0 0 0 0 1:0.454545 2:1 3:0.0808081 4:0.777778 5:0.505051 6:0.030303 7:0.232323 8:0.363636 9:1 10:0.0606061 11:0.67 12:0.24 13:0.22 14:0.06 
-0 -1 0 1 1 0 0 1 0 1:1 2:0.838384 3:0.919192 4:1 5:0.393939 6:0.737374 8:0.393939 9:0.0505051 10:0.666667 11:0.03 12:0.58 13:0.39 14:0.43 
-0 -0 0 1 1 0 0 0 1 1:0.666667 2:1 3:0.232323 4:0.777778 5:0.484848 6:0.181818 7:0.434343 8:1 9:0.0909091 10:0.646465 11:0.28 12:0.1 13:0.18 
-0 -0 0 0 0 0 1 1 1 1:0.484848 2:1 3:0.131313 4:0.727273 5:0.383838 6:0.0909091 7:0.040404 8:0.636364 9:1 10:0.242424 11:0.57 12:0.44 13:0.01 14:0.38 
-0 -0 0 0 0 1 0 0 0 1:0.69697 2:1 3:0.444444 4:0.909091 5:0.10101 6:0.59596 7:0.222222 8:0.414141 9:1 10:0.030303 11:0.86 12:0.32 13:0.31 14:0.27 
-0 -0 0 0 0 0 1 1 1 1:0.575758 2:1 3:0.161616 4:0.767677 5:0.464646 6:0.0707071 7:0.151515 8:0.565657 9:1 10:0.20202 11:0.68 12:0.42 13:0.09 14:0.37 
-0 -0 0 0 0 1 0 0 0 1:0.727273 2:1 3:0.343434 4:0.929293 5:0.0505051 6:0.606061 7:0.242424 8:0.414141 9:1 10:0.171717 11:0.72 12:0.42 13:0.19 14:0.21 
-0 -0 0 0 0 1 0 0 0 1:0.737374 2:1 3:0.363636 4:0.858586 5:0.0505051 6:0.555556 7:0.212121 8:0.444444 9:1 10:0.0909091 11:0.55 12:0.32 13:0.34 
-0 -1 0 1 1 0 0 0.30133765365628212 0 1:1 2:0.878788 3:0.767677 4:1 5:0.424242 6:0.79798 7:0.161616 8:0.535354 9:0.0505051 10:0.232323 11:0.24 12:0.4 13:0.22 14:0.26 
-0 -0 0 0 0 1 1 0.39426924714537953 1 1:0.707071 2:1 3:0.393939 4:0.69697 5:0.181818 6:0.343434 7:0.20202 8:0.787879 9:0.030303 10:1 11:0.35 12:0.42 13:0.43 14:0.21 
-0 -0 0 0.45199644828633745 0 0 0 0 0 1:1 2:1 3:0.59596 4:0.909091 5:0.30303 6:0.686869 7:0.111111 8:0.434343 9:0.030303 10:0.161616 11:0.34 12:0.46 13:0.2 14:0.21 
-0 -0 0 0 1 0 0 0 0 1:1 2:1 3:0.737374 4:0.878788 5:0.454545 6:0.686869 7:0.212121 8:0.464646 9:0.232323 10:0.020202 11:0.36 12:0.11 13:0.07 14:0.23 
-0 -0 0 1 0 0 0 0.80785219078648662 0 1:1 2:1 3:0.585859 4:0.89899 5:0.353535 6:0.616162 7:0.181818 8:0.323232 9:0.0909091 10:0.020202 11:0.42 12:0.42 13:0.27 14:0.37 
-0 -0 0 0 1 0 0 0 0 1:0.515152 2:1 3:0.313131 4:0.828283 5:0.10101 6:0.525253 7:0.20202 8:0.363636 9:1 10:0.131313 11:0.48 12:0.22 13:0.05 14:0.01 
-0 -0 0 0 1 0 0 0 0 1:1 2:1 3:0.686869 4:0.909091 5:0.424242 6:0.717172 7:0.171717 8:0.484848 9:0.212121 10:0.151515 11:0.34 12:0.11 13:0.03 14:0.1 
-1 -0 0.43346183006980615 0 0 1 0 0 0 1:0.787879 2:0.89899 3:0.676768 4:1 5:0.282828 6:0.666667 7:0.333333 8:0.010101 9:0.949495 10:1 11:0.27 12:0.05 13:0.2 
-1 -1 1 0 1 1 0 1 0 1:1 2:0.989899 3:0.717172 4:1 5:0.535354 6:0.707071 7:0.434343 8:0.40404 9:0.414141 10:0.0909091 11:0.69 12:0.47 13:0.25 14:0.29 
-1 -1 0.33940514737557842 1 1 1 0 0 0 1:0.818182 2:0.848485 3:1 4:1 5:0.484848 6:0.676768 7:0.353535 8:0.191919 9:0.939394 10:0.020202 11:0.53 12:0.27 13:0.35 14:0.08 
-0 -0 0 0.77564585467135694 0 0 1 1 1 1:0.545455 2:1 3:0.191919 4:0.686869 5:0.020202 6:0.353535 7:0.030303 8:0.020202 9:0.717172 10:1 11:0.31 12:0.68 13:0.57 14:0.45 
-0 -1 0 1 1 0 0 1 0 1:1 2:1 3:0.828283 4:0.848485 5:0.626263 6:0.59596 7:0.434343 8:0.333333 9:0.313131 10:0.0505051 11:0.5 12:0.36 13:0.21 14:0.15 
-0 -0 0 0 1 0 0 0 0 1:1 2:1 3:0.757576 4:0.949495 5:0.494949 6:0.717172 7:0.252525 8:0.484848 9:0.0505051 10:0.252525 11:0.46 12:0.02 13:0.25 14:0.2 
-0.72556090229266479 -1 1 0.67134862717593657 0 1 0 1 1 1:0.878788 2:0.949495 3:1 4:1 5:0.484848 6:0.727273 7:0.111111 8:0.414141 9:0.181818 10:0.0909091 11:0.97 12:0.85 13:0.18 14:0.17 
-0.73088192478539415 -0 0 1 1 1 0 0 0 1:0.454545 2:1 3:0.272727 4:0.979798 5:0.0606061 6:0.636364 7:0.121212 8:0.282828 9:0.545455 10:0.0505051 11:1 12:0.15 13:0.46 14:0.17 
-0 -0 0 0 0 0 1 0 0 1:0.717172 2:1 3:0.30303 4:0.767677 5:0.030303 6:0.494949 7:0.20202 8:0.393939 9:1 10:0.040404 11:0.88 12:0.28 13:0.28 14:0.36 
