svm_type nu_svc
kernel_type sigmoid
gamma 0.071428571428571425
coef0 0
nr_class 10
total_sv 4364
rho 0.13106763019377329 1.3680927213097971 -3.8662733788253774 1.7238215832168378 2.1309515840500488 -0.0046616833477635426 0.63072638480921217 0.61599482423068008 0.17684090659240609 0.75009953467675528 -1.1155406405838106 8.0618630581947048 2.5172081819302643 -0.0093743450282543408 0.33583672933344433 0.35296558486101348 0.10094922762019745 -2.8599605712322487 0.23456633184276235 -0.67429028177091255 -1.6446514395439371 -0.84941357080808144 -0.95226044778915675 -1.3124159741420252 1.7287500736276862 2.226981573498811 2.1656971134336946 3.3418740908931635 2.7461906102809741 3.3208826774891924 -1.4962438333471015 -2.5769850093691526 -0.51755358756493242 -2.6595081920964296 -0.74164287139657625 -0.17037512670104354 0.8925202207195474 0.45577260647042767 0.26027888086349404 -0.34554394693273938 -1.2446106727303432 -0.56770876628357148 0.033391244744868404 -2.3205024004044867 -0.86430951593368277
label 9 8 4 7 1 2 6 5 0 3
probA -5.1160554527431366 -7.4501488328551257 -4.7987406804135171 -6.9709763231109028 -3.63453740606134 -8.3069138081537321 -7.8669890232083484 -6.4163278193747963 -7.0582800664480168 -8.4264867752798747 -5.9881852751578686 -2.1658001851942172 -1.9857057168252383 -3.5549938444211207 -8.8815121897865961 -3.6255419540004716 -7.0485454278516979 -7.302837981399338 -7.6526845517778259 -7.0660213262774496 -5.1010049942440396 -8.5680373272787413 -7.6856588333827638 -5.9826267652453113 -7.9359884269855971 -4.1322970884046084 -6.8679248709865979 -5.5138682307469589 -4.7182165403844003 -4.547274602897164 -2.9039691502185727 -7.30683270279384 -7.422990276362051 -5.4277286814502776 -7.5653422849000327 -4.0143862299490021 -6.8516722925937446 -3.3040290017673684 -6.0748354311945301 -5.6836785190216874 -1.3813615931208871 -4.1325501155489066 -3.7106411543689832 -3.0749909191854226 -4.2201423328237828
probB 1.6507992615436269 0.35103734785247859 0.11074130601015911 1.4133196739580571 -0.23858748675138669 5.0200357111983527 1.8997004631505752 2.6945358646282749 1.5000887500340503 -0.50429354765640089 -1.3848259330025239 -0.10940534591886593 -0.24264447234651854 0.15244374535499644 -0.654198660317028 0.46597457390347446 -0.30357324283115938 -0.14309833412537337 0.1392550199207323 2.0415404697511459 2.1121621336820069 1.2705510161152422 0.97237331308484765 -0.097591841126475981 0.13170535058916202 -0.80014089773005959 2.5648523182369463 0.74136535949998805 0.53496081044876953 0.81893784982902462 0.66711833595318082 1.218498421552513 0.579462632891658 2.3284048134558835 0.46138048811605248 0.26650929709743637 0.93243772427893445 0.47399827793659072 0.22685795130650482 -0.017121686016287635 0.1325601108065288 -0.0044555808419243208 0.461205993859025 -0.089666647467749494 -0.17165096495287296
nr_sv 435 480 403 443 428 468 428 404 449 426
SV
0.27308051179955301 0 0 0.20414355286703892 0.86752124680062048 0.21040934442825179 0 0 0.14463596667326714 1:0.262626 2:0.858586 3:0.494949 4:1 5:1 6:0.949495 7:0.636364 8:0.717172 9:0.494949 10:0.464646 11:0.8 12:0.21 13:0.53 14:0.03 
0 0 0 0 0.86752124680062048 0 0 0 0 1:0.292929 2:0.868687 3:0.646465 4:1 5:0.828283 6:0.79798 7:0.727273 8:0.606061 9:1 10:0.383838 11:0.81 12:0.14 13:0.41 14:0.04 
0.27308051179955301 0.14451098422371114 0.76693211709212883 0.20414355286703892 0.86752124680062048 0.21040934442825179 0.11294720624643283 0.17754117481977469 0.14463596667326714 1:0.848485 2:0.383838 3:1 4:0.838384 5:0.939394 6:0.616162 7:0.646465 8:0.767677 9:0.464646 10:1 11:0.22 12:0.63 13:0.25 14:0.08 
0 0.14451098422371114 0.76693211709212883 0 0 0 0.11294720624643283 0 0.14463596667326714 1:0.444444 2:0.868687 3:0.838384 4:1 5:0.656566 6:0.666667 7:0.787879 8:0.636364 9:1 10:0.323232 11:0.8 12:0.36 13:0.25 
0.27308051179955301 0 0 0 0 0 0 0 0 1:0.505051 2:0.787879 3:0.777778 4:1 5:1 6:0.787879 7:0.666667 8:0.525253 9:0.959596 10:0.414141 11:0.96 12:0.13 13:0.49 14:0.11 
0.27308051179955301 0.14451098422371114 0.76693211709212883 0 0.86752124680062048 0.21040934442825179 0.11294720624643283 0.17754117481977469 0.14463596667326714 1:0.828283 2:0.424242 3:1 4:0.717172 5:0.757576 6:0.343434 7:0.505051 8:0.686869 9:0.444444 10:1 11:0.21 12:0.59 13:0.05 
0 0.14451098422371114 0.76693211709212883 0 0.86752124680062048 0.21040934442825179 0.11294720624643283 0.17754117481977469 0.14463596667326714 1:0.292929 2:0.848485 3:0.676768 4:1 5:0.535354 6:0.777778 7:0.59596 8:0.646465 9:1 10:0.454545 11:0.85 12:0.15 13:0.38 14:0.16 
0 0 0.76693211709212883 0 0.86752124680062048 0 0 0 0 1:0.585859 2:0.727273 3:0.474747 4:1 5:0.989899 6:0.949495 7:0.808081 8:0.626263 9:0.929293 10:0.434343 11:1 12:0.13 13:0.5 14:0.11 
0.27308051179955301 0 0.76693211709212883 0.20414355286703892 0.86752124680062048 0.21040934442825179 0.11294720624643283 0.17754117481977469 0.14463596667326714 1:0.767677 2:0.171717 3:1 4:0.616162 5:1 6:0.707071 7:0.717172 8:0.717172 9:0.40404 10:1 11:0.17 12:0.75 13:0.32 14:0.04 
0.27308051179955301 0 0 0.20414355286703892 0 0.21040934442825179 0.11294720624643283 0.17754117481977469 0.14463596667326714 1:0.030303 2:0.848485 3:0.383838 4:1 5:0.828283 6:0.848485 7:0.565657 8:0.59596 9:0.585859 10:0.40404 11:1 12:0.21 13:0.62 14:0.01 
0 0.14451098422371114 0.76693211709212883 0 0 0.21040934442825179 0.11294720624643283 0 0.14463596667326714 1:0.494949 2:0.888889 3:0.656566 4:1 5:0.818182 6:0.727273 7:0.494949 8:0.535354 9:1 10:0.474747 11:0.93 12:0.17 13:0.47 14:0.03 
0.27308051179955301 0 0 0 0.86752124680062048 0 0 0 0 1:0.353535 2:0.69697 3:0.525253 4:0.989899 5:1 6:1 7:0.878788 8:0.676768 9:0.848485 10:0.424242 11:0.91 12:0.13 13:0.47 14:0.12 
0.27308051179955301 0 0 0.20414355286703892 0.86752124680062048 0 0 0 0 1:0.444444 2:0.767677 3:0.737374 4:1 5:1 6:0.868687 7:0.737374 8:0.575758 9:0.808081 10:0.393939 11:0.74 12:0.06 13:0.37 14:0.11 
0.27308051179955301 0.14451098422371114 0.76693211709212883 0.20414355286703892 0.86752124680062048 0.21040934442825179 0.11294720624643283 0.17754117481977469 0.14463596667326714 1:0.878788 2:0.353535 3:1 4:0.69697 5:0.868687 6:0.676768 7:0.606061 8:0.69697 9:0.333333 10:1 11:0.15 12:0.64 13:0.01 14:0.17 
0.27308051179955301 0 0 0 0 0 0 0 0 1:0.464646 2:0.858586 3:0.868687 4:1 5:1 6:0.737374 7:0.666667 8:0.505051 9:0.969697 10:0.313131 11:0.96 12:0.07 13:0.48 14:0.07 
0 0 0 0 0 0.21040934442825179 0.11294720624643283 0.17754117481977469 0.14463596667326714 1:0.040404 2:0.848485 3:0.494949 4:1 5:0.787879 6:0.767677 7:0.535354 8:0.494949 9:0.848485 10:0.434343 11:1 12:0.22 13:0.56 14:0.02 
0.27308051179955301 0 0 0.20414355286703892 0.86752124680062048 0 0 0 0 1:0.505051 2:0.767677 3:0.676768 4:1 5:1 6:0.858586 7:0.747475 8:0.59596 9:0.818182 10:0.363636 11:0.84 12:0.08 13:0.42 14:0.08 
0.27308051179955301 0.14451098422371114 0.76693211709212883 0 0 0.21040934442825179 0 0 0 1:0.575758 2:1 3:1 4:0.929293 5:0.959596 6:0.686869 7:0.535354 8:0.575758 9:0.828283 10:0.444444 11:0.81 12:0.17 13:0.45 14:0.03 
0.27308051179955301 0.14451098422371114 0.76693211709212883 0.20414355286703892 0.86752124680062048 0.21040934442825179 0.11294720624643283 0.17754117481977469 0.14463596667326714 1:0.818182 2:0.353535 3:1 4:0.878788 5:0.929293 6:0.626263 7:0.646465 8:0.686869 9:0.474747 10:1 11:0.21 12:0.6 13:0.08 14:0.09 
0.27308051179955301 0 0 0.20414355286703892 0.86752124680062048 0.21040934442825179 0 0 0.14463596667326714 1:0.010101 2:0.959596 3:0.525253 4:1 5:1 6:0.909091 7:0.666667 8:0.707071 9:0.545455 10:0.484848 11:0.79 12:0.24 13:0.46 14:0.06 
0.27308051179955301 0 0.76693211709212883 0.20414355286703892 0.86752124680062048 0 0.11294720624643283 0.17096551272373739 0.14463596667326714 1:0.242424 2:0.848485 3:0.474747 4:1 5:1 6:0.969697 7:0.919192 8:0.757576 9:0.646465 10:0.565657 11:0.7 12:0.33 13:0.44 14:0.13 
0.27308051179955301 0 0 0.20414355286703892 0.86752124680062048 0.21040934442825179 0.11294720624643283 0.17754117481977469 0.14463596667326714 1:0.0505051 2:0.878788 3:0.515152 4:1 5:1 6:0.919192 7:0.828283 8:0.707071 9:0.535354 10:0.515152 11:0.65 12:0.32 13:0.48 14:0.12 
0 0.14451098422371114 0.76693211709212883 0 0 0.21040934442825179 0.11294720624643283 0.17754117481977469 0.14463596667326714 1:0.282828 2:0.828283 3:0.444444 4:1 5:0.878788 6:0.777778 7:0.40404 8:0.525253 9:0.858586 10:0.434343 11:1 12:0.12 13:0.36 14:0.24 
0.27308051179955301 0.14451098422371114 0.76693211709212883 0 0.86752124680062048 0.21040934442825179 0.11294720624643283 0.17754117481977469 0.14463596667326714 1:0.919192 2:0.434343 3:1 4:0.79798 5:0.878788 6:0.424242 7:0.666667 8:0.707071 9:0.444444 10:1 11:0.23 12:0.54 13:0.07 14:0.02 
0 0.14451098422371114 0.76693211709212883 0 0.86752124680062048 0 0.11294720624643283 0.17754117481977469 0.14463596667326714 1:0.0909091 2:0.727273 3:0.323232 4:1 5:0.59596 6:0.818182 7:0.585859 8:0.626263 9:1 10:0.40404 11:0.92 12:0.06 13:0.43 14:0.18 
0.27308051179955301 0.14451098422371114 0.76693211709212883 0.20414355286703892 0.86752124680062048 0.21040934442825179 0.11294720624643283 0.17754117481977469 0.14463596667326714 1:0.888889 2:0.333333 3:1 4:0.606061 5:0.848485 6:0.515152 7:0.59596 8:0.656566 9:0.363636 10:1 11:0.21 12:0.86 13:0.04 14:0.44 
0.27308051179955301 0 0.76693211709212883 0.20414355286703892 0.86752124680062048 0.21040934442825179 0.11294720624643283 0.17754117481977469 0.14463596667326714 1:0.808081 2:0.191919 3:1 4:0.636364 5:1 6:1 7:0.848485 8:0.717172 9:0.59596 10:0.343434 11:0.42 12:0.46 13:0.21 14:0.79 
0.27308051179955301 0 0 0.20414355286703892 0.60273222065649557 0 0 0 0 1:0.606061 2:0.737374 3:0.777778 4:1 5:1 6:0.787879 7:0.727273 8:0.515152 9:0.868687 10:0.393939 11:0.87 12:0.12 13:0.41 14:0.14 
0 0.14451098422371114 0 0.20414355286703892 0 0 0.11294720624643283 0.17754117481977469 0 1:0.373737 2:0.777778 3:0.515152 4:1 5:0.969697 6:0.787879 7:0.575758 8:0.515152 9:0.777778 10:0.40404 11:1 12:0.11 13:0.38 14:0.2 
0 0.14451098422371114 0.76693211709212883 0 0 0.21040934442825179 0.11294720624643283 0.17754117481977469 0.14463596667326714 1:0.383838 2:0.939394 3:0.737374 4:1 5:0.616162 6:0.737374 7:0.656566 8:0.666667 9:1 10:0.444444 11:0.85 12:0.16 13:0.36 14:0.12 
0 0.14451098422371114 0.76693211709212883 0 0 0.21040934442825179 0.11294720624643283 0 0.14463596667326714 1:0.171717 2:0.818182 3:0.525253 4:1 5:0.757576 6:0.787879 7:0.444444 8:0.636364 9:0.89899 10:0.444444 11:1 12:0.14 13:0.52 14:0.05 
0.27308051179955301 0.14451098422371114 0.76693211709212883 0.20414355286703892 0.86752124680062048 0.21040934442825179 0.11294720624643283 0.17754117481977469 0.14463596667326714 1:0.888889 2:0.373737 3:1 4:0.646465 5:0.848485 6:0.545455 7:0.59596 8:0.686869 9:0.363636 10:1 11:0.18 12:0.81 13:0.45 14:0.01 
0.27308051179955301 0.14451098422371114 0.76693211709212883 0 0.047908714443969803 0.21040934442825179 0.11294720624643283 0.17754117481977469 0.14463596667326714 1:0.585859 2:0.848485 3:0.838384 4:1 5:0.818182 6:0.787879 7:0.59596 8:0.555556 9:1 10:0.474747 11:0.74 12:0.28 13:0.37 14:0.14 
0.27308051179955301 0 0 0.20414355286703892 0.86752124680062048 0 0 0 0 1:0.434343 2:0.818182 3:0.787879 4:1 5:1 6:0.808081 7:0.727273 8:0.555556 9:0.818182 10:0.444444 11:0.8 12:0.17 13:0.42 14:0.13 
0 0 0 0 0.86752124680062048 0 0 0 0 1:0.262626 2:0.838384 3:0.555556 4:1 5:1 6:0.89899 7:0.79798 8:0.646465 9:0.858586 10:0.353535 11:0.9 12:0.05 13:0.46 14:0.04 
0 0 0 0.20414355286703892 0 0 0 0 0 1:0.121212 2:0.868687 3:0.606061 4:1 5:1 6:0.858586 7:0.686869 8:0.585859 9:0.727273 10:0.505051 11:0.87 12:0.21 13:0.46 14:0.05 
0.27308051179955301 0 0.76693211709212883 0 0 0.21040934442825179 0 0 0 1:0.585859 2:0.858586 3:0.59596 4:1 5:0.959596 6:0.909091 7:0.707071 8:0.626263 9:0.868687 10:0.464646 11:1 12:0.21 13:0.57 14:0.02 
0 0.14451098422371114 0.76693211709212883 0 0 0 0.11294720624643283 0.17754117481977469 0.14463596667326714 1:0.393939 2:0.818182 3:0.575758 4:1 5:0.787879 6:0.767677 7:0.565657 8:0.616162 9:1 10:0.434343 11:0.83 12:0.16 13:0.37 14:0.11 
0.27308051179955301 0 0 0 0.86752124680062048 0 0 0 0 1:0.464646 2:0.727273 3:0.606061 4:1 5:1 6:0.828283 7:0.787879 8:0.515152 9:0.959596 10:0.373737 11:0.9 12:0.06 13:0.43 14:0.17 
0 0.14451098422371114 0.76693211709212883 0 0 0.21040934442825179 0.11294720624643283 0.17754117481977469 0.14463596667326714 1:0.191919 2:0.838384 3:0.575758 4:1 5:0.585859 6:0.737374 7:0.525253 8:0.525253 9:1 10:0.414141 11:0.98 12:0.15 13:0.53 14:0.01 
0.27308051179955301 0 0 0.20414355286703892 0.86752124680062048 0.21040934442825179 0 0 0.14463596667326714 1:0.323232 2:0.919192 3:0.717172 4:1 5:1 6:0.878788 7:0.79798 8:0.686869 9:0.606061 10:0.484848 11:0.67 12:0.27 13:0.35 14:0.12 
0.27308051179955301 0 0.76693211709212883 0.20414355286703892 0.86752124680062048 0.21040934442825179 0.11294720624643283 0.17754117481977469 0.14463596667326714 1:0.555556 2:0.707071 3:0.393939 4:0.979798 5:0.929293 6:1 7:0.848485 8:0.646465 9:0.717172 10:0.494949 11:1 12:0.21 13:0.54 14:0.12 
0 0 0 0 0.86752124680062048 0 0.11294720624643283 0 0.14463596667326714 2:0.656566 3:0.272727 4:0.929293 5:0.808081 6:1 7:0.717172 8:0.747475 9:0.818182 10:0.424242 11:1 12:0.12 13:0.54 14:0.02 
0.27308051179955301 0.14451098422371114 0.76693211709212883 0.20414355286703892 0.86752124680062048 0.21040934442825179 0.11294720624643283 0.17754117481977469 0.14463596667326714 1:0.30303 2:0.979798 3:0.494949 4:1 5:1 6:0.818182 7:0.606061 8:0.585859 9:0.282828 10:0.424242 11:0.95 12:0.32 13:0.65 14:0.12 
0 0.14451098422371114 0.76693211709212883 0.20414355286703892 0 0.21040934442825179 0.11294720624643283 0.17754117481977469 0.14463596667326714 1:0.191919 2:0.878788 3:0.575758 4:1 5:0.888889 6:0.787879 7:0.424242 8:0.565657 9:0.666667 10:0.484848 11:1 12:0.25 13:0.59 14:0.02 
0.27308051179955301 0.14451098422371114 0 0.20414355286703892 0.86752124680062048 0.21040934442825179 0 0 0 1:0.525253 2:0.979798 3:0.878788 4:1 5:1 6:0.79798 7:0.777778 8:0.59596 9:0.575758 10:0.393939 11:0.57 12:0.17 13:0.35 14:0.03 
0.27308051179955301 0.14451098422371114 0.76693211709212883 0.20414355286703892 0.86752124680062048 0.21040934442825179 0 0.17754117481977469 0 1:0.646465 2:1 3:0.929293 4:0.919192 5:0.707071 6:0.676768 7:0.79798 8:0.464646 9:1 10:0.232323 11:0.7 12:0.06 13:0.34 14:0.07 
0.27308051179955301 0.14451098422371114 0.76693211709212883 0.20414355286703892 0.86752124680062048 0.21040934442825179 0.11294720624643283 0.17754117481977469 0.14463596667326714 1:0.838384 2:0.343434 3:1 4:0.686869 5:0.808081 6:0.646465 7:0.545455 8:1 9:0.363636 10:0.909091 11:0.09 12:0.48 13:0.15 14:0.12 
0.27308051179955301 0 0 0.20414355286703892 0.86752124680062048 0.21040934442825179 0 0 0 1:0.292929 2:0.818182 3:0.636364 4:1 5:1 6:0.838384 7:0.676768 8:0.616162 9:0.616162 10:0.464646 11:0.85 12:0.23 13:0.5 14:0.03 
0.27308051179955301 0.14451098422371114 0.76693211709212883 0 0.86752124680062048 0 0.11294720624643283 0.17754117481977469 0.14463596667326714 1:0.89899 2:0.262626 3:1 4:0.808081 5:0.949495 6:0.565657 7:0.717172 8:0.686869 9:0.505051 10:1 11:0.29 12:0.56 13:0.13 14:0.07 
0 0 0 0 0 0.21040934442825179 0.11294720624643283 0 0.14463596667326714 1:0.10101 2:0.919192 3:0.555556 4:1 5:0.828283 6:0.818182 7:0.515152 8:0.585859 9:0.868687 10:0.383838 11:1 12:0.14 13:0.55 
0 0.14451098422371114 0 0.20414355286703892 0 0.21040934442825179 0.11294720624643283 0.17754117481977469 0.14463596667326714 2:0.89899 3:0.464646 4:1 5:0.737374 6:0.828283 7:0.525253 8:0.565657 9:0.666667 10:0.313131 11:1 12:0.12 13:0.51 14:0.01 
0.27308051179955301 0 0.76693211709212883 0.20414355286703892 0.86752124680062048 0.21040934442825179 0.11294720624643283 0.17754117481977469 0.14463596667326714 1:0.040404 2:0.818182 3:0.020202 4:1 5:0.858586 6:0.89899 7:0.848485 8:0.636364 9:0.272727 10:0.414141 11:1 12:0.24 13:0.84 14:0.02 
0.27308051179955301 0 0 0.20414355286703892 0 0.21040934442825179 0 0 0 1:0.373737 2:0.939394 3:0.89899 4:1 5:0.939394 6:0.787879 7:0.585859 8:0.565657 9:0.676768 10:0.323232 11:1 12:0.12 13:0.54 14:0.01 
0 0.14451098422371114 0.76693211709212883 0 0 0.21040934442825179 0.11294720624643283 0.17754117481977469 0.14463596667326714 1:0.131313 2:0.858586 3:0.515152 4:1 5:0.59596 6:0.757576 7:0.40404 8:0.545455 9:1 10:0.515152 11:0.98 12:0.27 13:0.6 14:0.08 
0 0 0 0 0.86752124680062048 0 0 0 0 1:0.191919 2:0.79798 3:0.535354 4:1 5:1 6:0.949495 7:0.737374 8:0.646465 9:0.828283 10:0.40404 11:0.93 12:0.09 13:0.47 14:0.02 
0 0 0 0 0.86752124680062048 0 0.11294720624643283 0.17754117481977469 0.14463596667326714 1:0.0707071 2:0.808081 3:0.474747 4:1 5:0.979798 6:0.89899 7:0.767677 8:0.626263 9:1 10:0.272727 11:0.86 12:0.35 13:0.09 14:0.35 
0 0.14451098422371114 0.76693211709212883 0 0 0.21040934442825179 0 0 0 1:0.575758 2:0.939394 3:0.838384 4:1 5:0.818182 6:0.737374 7:0.454545 8:0.565657 9:0.919192 10:0.414141 11:1 12:0.14 13:0.52 14:0.01 
0.27308051179955301 0.14451098422371114 0.76693211709212883 0.20414355286703892 0.86752124680062048 0.21040934442825179 0.11294720624643283 0.17754117481977469 0.14463596667326714 1:0.818182 2:0.353535 3:1 4:0.828283 5:0.878788 6:0.636364 7:0.616162 8:0.828283 9:0.474747 10:1 11:0.16 12:0.57 13:0.14 14:0.13 
0.27308051179955301 0.14451098422371114 0.76693211709212883 0 0 0.21040934442825179 0.11294720624643283 0 0.14463596667326714 1:0.565657 2:0.757576 3:0.464646 4:1 5:0.888889 6:0.949495 7:0.616162 8:0.636364 9:0.707071 10:0.484848 11:1 12:0.23 13:0.57 14:0.01 
0 0 0.76693211709212883 0 0.86752124680062048 0.21040934442825179 0.11294720624643283 0 0.14463596667326714 1:0.212121 2:0.767677 3:0.333333 4:1 5:0.89899 6:0.989899 7:0.646465 8:0.666667 9:0.717172 10:0.555556 11:1 12:0.28 13:0.58 14:0.02 
0.27308051179955301 0.14451098422371114 0.76693211709212883 0 0.86752124680062048 0 0.11294720624643283 0.17754117481977469 0.14463596667326714 1:0.464646 2:0.909091 3:0.79798 4:1 5:0.656566 6:0.69697 7:0.808081 8:0.646465 9:1 10:0.363636 11:0.76 12:0.06 13:0.36 14:0.18 
0.27308051179955301 0 0.76693211709212883 0.20414355286703892 0.86752124680062048 0 0.11294720624643283 0.17754117481977469 0.14463596667326714 1:0.141414 2:0.858586 3:0.484848 4:1 5:1 6:0.989899 7:0.929293 8:0.777778 9:0.565657 10:0.59596 11:0.64 12:0.36 13:0.42 14:0.15 
0.27308051179955301 0 0.76693211709212883 0.20414355286703892 0.86752124680062048 0 0.11294720624643283 0 0.14463596667326714 1:0.111111 2:0.909091 3:0.545455 4:0.979798 5:1 6:1 7:1 8:0.828283 9:0.666667 10:0.636364 11:0.54 12:0.39 13:0.37 14:0.14 
0.27308051179955301 0 0 0 0 0 0 0 0 1:0.545455 2:0.818182 3:0.949495 4:1 5:0.979798 6:0.828283 7:0.636364 8:0.616162 9:0.909091 10:0.373737 11:1 12:0.13 13:0.49 14:0.08 
0.27308051179955301 0.14451098422371114 0.76693211709212883 0 0.86752124680062048 0.21040934442825179 0.11294720624643283 0.17754117481977469 0.14463596667326714 1:0.909091 2:0.40404 3:1 4:0.666667 5:0.757576 6:0.525253 7:0.606061 8:0.989899 9:0.474747 10:1 11:0.15 12:0.54 13:0.06 14:0.07 
0 0.14451098422371114 0.76693211709212883 0 0 0.21040934442825179 0.11294720624643283 0.17754117481977469 0.14463596667326714 1:0.272727 2:0.878788 3:0.575758 4:1 5:0.606061 6:0.737374 7:0.454545 8:0.535354 9:0.949495 10:0.444444 11:1 12:0.2 13:0.54 14:0.05 
0 0.14451098422371114 0.76693211709212883 0 0 0.21040934442825179 0.11294720624643283 0.17754117481977469 0.14463596667326714 1:0.121212 2:0.868687 3:0.10101 4:1 5:0.585859 6:0.949495 7:0.313131 8:0.646465 9:0.808081 10:0.555556 11:1 12:0.29 13:0.56 14:0.08 
0 0 0 0.20414355286703892 0 0.21040934442825179 0.11294720624643283 0.17754117481977469 0.14463596667326714 1:0.171717 2:0.777778 3:0.525253 4:1 5:0.848485 6:0.848485 7:0.474747 8:0.606061 9:0.707071 10:0.454545 11:1 12:0.2 13:0.56 14:0.05 
0 0 0.76693211709212883 0 0.86752124680062048 0 0.11294720624643283 0 0.14463596667326714 1:0.020202 2:0.868687 3:0.494949 4:1 5:1 6:1 7:0.777778 8:0.757576 9:0.757576 10:0.515152 11:0.9 12:0.3 13:0.47 14:0.13 
0 0.14451098422371114 0.76693211709212883 0 0 0.21040934442825179 0.11294720624643283 0.17754117481977469 0.14463596667326714 1:0.181818 2:0.808081 3:0.545455 4:1 5:0.777778 6:0.79798 7:0.414141 8:0.606061 9:0.878788 10:0.424242 11:1 12:0.13 13:0.53 14:0.06 
0 0.14451098422371114 0.76693211709212883 0.20414355286703892 0 0.21040934442825179 0.11294720624643283 0.17754117481977469 0.14463596667326714 1:0.313131 2:0.878788 3:0.20202 4:1 5:0.656566 6:0.939394 7:0.444444 8:0.646465 9:0.686869 10:0.535354 11:1 12:0.29 13:0.64 14:0.03 
0.27308051179955301 0.14451098422371114 0.76693211709212883 0.20414355286703892 0.86752124680062048 0.21040934442825179 0.11294720624643283 0.17754117481977469 0.14463596667326714 1:0.828283 2:0.363636 3:1 4:0.808081 5:0.89899 6:0.646465 7:0.606061 8:1 9:0.444444 10:0.969697 11:0.15 12:0.54 13:0.14 14:0.07 
0.27308051179955301 0 0 0.20414355286703892 0.86752124680062048 0.21040934442825179 0 0 0 1:0.222222 2:0.888889 3:0.676768 4:1 5:1 6:0.878788 7:0.676768 8:0.666667 9:0.626263 10:0.444444 11:0.9 12:0.25 13:0.5 14:0.08 
0 0 0 0.20414355286703892 0.86752124680062048 0 0 0 0 1:0.0808081 2:0.777778 3:0.474747 4:1 5:1 6:0.939394 7:0.777778 8:0.626263 9:0.848485 10:0.353535 11:0.73 12:0.06 13:0.19 14:0.29 
0.27308051179955301 0.14451098422371114 0.76693211709212883 0.20414355286703892 0 0.21040934442825179 0.11294720624643283 0.17754117481977469 0.14463596667326714 1:0.181818 2:0.929293 3:0.656566 4:1 5:0.777778 6:0.777778 7:0.40404 8:0.575758 9:0.626263 10:0.40404 11:1 12:0.23 13:0.53 14:0.09 
0 0.14451098422371114 0.76693211709212883 0 0 0.21040934442825179 0.11294720624643283 0.17754117481977469 0.14463596667326714 1:0.141414 2:0.89899 3:0.585859 4:1 5:0.707071 6:0.737374 7:0.494949 8:0.545455 9:0.989899 10:0.414141 11:1 12:0.13 13:0.53 14:0.1 
0 0.14451098422371114 0 0 0.86752124680062048 0 0.11294720624643283 0 0.14463596667326714 1:0.252525 2:0.929293 3:0.606061 4:1 5:0.686869 6:0.737374 7:0.787879 8:0.545455 9:1 10:0.313131 11:0.81 12:0.08 13:0.41 14:0.04 
0 0 0.76693211709212883 0 0 0.21040934442825179 0.11294720624643283 0 0.14463596667326714 1:0.0808081 2:0.828283 3:0.292929 4:1 5:0.838384 6:0.949495 7:0.636364 8:0.666667 9:0.848485 10:0.494949 11:1 12:0.23 13:0.57 14:0.03 
0 0.14451098422371114 0.76693211709212883 0.20414355286703892 0 0.21040934442825179 0.11294720624643283 0.17754117481977469 0.14463596667326714 1:0.0606061 2:0.939394 3:0.535354 4:1 5:0.757576 6:0.79798 7:0.292929 8:0.626263 9:0.727273 10:0.424242 11:1 12:0.17 13:0.6 14:0.06 
0 0.14451098422371114 0.76693211709212883 0 0 0.21040934442825179 0 0.17754117481977469 0 1:0.313131 2:0.848485 3:0.59596 4:1 5:0.878788 6:0.808081 7:0.464646 8:0.585859 9:0.808081 10:0.424242 11:1 12:0.15 13:0.54 14:0.04 
0 0.14451098422371114 0.76693211709212883 0.20414355286703892 0 0.21040934442825179 0.11294720624643283 0.17754117481977469 0.14463596667326714 1:0.242424 2:0.89899 3:0.232323 4:1 5:0.606061 6:0.89899 7:0.30303 8:0.636364 9:0.767677 10:0.525253 11:1 12:0.27 13:0.68 14:0.04 
0 0 0 0 0.86752124680062048 0 0 0 0 1:0.111111 2:0.878788 3:0.525253 4:1 5:1 6:0.939394 7:0.676768 8:0.686869 9:0.79798 10:0.383838 11:0.95 12:0.1 13:0.51 14:0.06 
0.088195910666600208 0 0 0.20414355286703892 0.86752124680062048 0 0 0 0 1:0.252525 2:0.838384 3:0.656566 4:1 5:1 6:0.828283 7:0.787879 8:0.545455 9:0.848485 10:0.343434 11:0.9 12:0.09 13:0.44 14:0.1 
0 0.14451098422371114 0 0.20414355286703892 0 0.21040934442825179 0 0 0 1:0.30303 2:0.89899 3:0.666667 4:1 5:0.868687 6:0.838384 7:0.575758 8:0.606061 9:0.787879 10:0.343434 11:1 12:0.1 13:0.52 14:0.04 
0.27308051179955301 0 0 0.20414355286703892 0.86752124680062048 0.21040934442825179 0 0.17754117481977469 0 1:0.353535 2:0.89899 3:0.767677 4:1 5:1 6:0.878788 7:0.656566 8:0.676768 9:0.464646 10:0.484848 11:0.73 12:0.27 13:0.42 14:0.06 
0 0 0 0 0.86752124680062048 0 0 0 0 1:0.232323 2:0.828283 3:0.575758 4:1 5:0.858586 6:0.828283 7:0.656566 8:0.565657 9:1 10:0.343434 11:0.87 12:0.06 13:0.42 14:0.13 
0.27308051179955301 0.14451098422371114 0 0.20414355286703892 0.86752124680062048 0 0 0.17754117481977469 0 1:0.575758 2:0.909091 3:0.929293 4:1 5:0.767677 6:0.727273 7:0.969697 8:0.484848 9:1 10:0.191919 11:0.7 12:0.26 13:0.07 14:0.28 
0 0.14451098422371114 0 0.20414355286703892 0 0.21040934442825179 0.11294720624643283 0.17754117481977469 0.14463596667326714 1:0.030303 2:0.929293 3:0.494949 4:1 5:0.818182 6:0.787879 7:0.484848 8:0.494949 9:0.69697 10:0.444444 11:1 12:0.19 13:0.56 14:0.1 
0 0 0 0 0 0 0.11294720624643283 0 0 1:0.111111 2:0.818182 3:0.40404 4:1 5:0.838384 6:0.838384 7:0.535354 8:0.505051 9:0.878788 10:0.424242 11:1 12:0.1 13:0.5 14:0.06 
0.27308051179955301 0.14451098422371114 0 0.20414355286703892 0 0.21040934442825179 0 0.17754117481977469 0 1:0.292929 2:0.79798 3:0.656566 4:1 5:0.878788 6:0.767677 7:0.474747 8:0.505051 9:0.707071 10:0.434343 11:1 12:0.18 13:0.52 14:0.05 
0 0.14451098422371114 0.76693211709212883 0 0 0.21040934442825179 0.11294720624643283 0.17754117481977469 0.14463596667326714 1:0.0606061 2:0.848485 3:0.282828 4:1 5:0.272727 6:0.69697 7:0.252525 8:0.545455 9:0.828283 10:0.575758 11:1 12:0.31 13:0.55 14:0.11 
0.27308051179955301 0.14451098422371114 0 0.20414355286703892 0 0 0 0 0 1:0.373737 2:0.89899 3:0.767677 4:1 5:0.79798 6:0.757576 7:0.666667 8:0.545455 9:1 10:0.343434 11:0.82 12:0.08 13:0.39 14:0.14 
0 0.14451098422371114 0 0 0 0 0.040032340819594885 0.17754117481977469 0 1:0.292929 2:0.787879 3:0.717172 4:1 5:0.949495 6:0.707071 7:0.585859 8:0.393939 9:1 10:0.30303 11:0.84 12:0.27 13:0.04 14:0.27 
0.27308051179955301 0.14451098422371114 0.76693211709212883 0 0 0.21040934442825179 0.11294720624643283 0.17754117481977469 0.14463596667326714 1:0.484848 2:0.848485 3:0.838384 4:1 5:0.888889 6:0.808081 7:0.474747 8:0.606061 9:0.89899 10:0.484848 11:1 12:0.3 13:0.51 14:0.14 
0 0 0 0.20414355286703892 0.86752124680062048 0 0 0 0 1:0.10101 2:0.838384 3:0.515152 4:1 5:1 6:0.959596 7:0.828283 8:0.656566 9:0.717172 10:0.494949 11:0.87 12:0.16 13:0.45 14:0.11 
0.27308051179955301 0.14451098422371114 0 0.20414355286703892 0.86752124680062048 0.21040934442825179 0.11294720624643283 0.17754117481977469 0.14463596667326714 1:0.151515 2:0.777778 3:0.40404 4:1 5:0.888889 6:0.838384 7:0.373737 8:0.606061 9:0.282828 10:0.40404 11:1 12:0.25 13:0.84 14:0.02 
0.27308051179955301 0.14451098422371114 0 0.20414355286703892 0.86752124680062048 0 0 0.17754117481977469 0 1:0.666667 2:0.757576 3:0.868687 4:1 5:0.959596 6:0.737374 7:0.69697 8:0.494949 9:1 10:0.252525 11:0.76 12:0.01 13:0.34 14:0.2 
0 0 0.76693211709212883 0 0 0 0 0 0 1:0.616162 2:0.767677 3:0.757576 4:1 5:0.949495 6:0.828283 7:0.555556 8:0.575758 9:0.949495 10:0.515152 11:1 12:0.21 13:0.55 14:0.02 
0.27308051179955301 0 0 0.20414355286703892 0.86752124680062048 0 0 0 0 1:0.353535 2:0.767677 3:0.646465 4:1 5:1 6:0.828283 7:0.737374 8:0.515152 9:0.79798 10:0.40404 11:0.88 12:0.14 13:0.44 14:0.1 
0.27308051179955301 0.14451098422371114 0 0.20414355286703892 0 0.21040934442825179 0.11294720624643283 0.17754117481977469 0.14463596667326714 1:0.0909091 2:0.848485 3:0.525253 4:1 5:0.868687 6:0.777778 7:0.40404 8:0.545455 9:0.636364 10:0.464646 11:1 12:0.21 13:0.56 14:0.09 
0 0 0 0 0 0.21040934442825179 0.11294720624643283 0 0.14463596667326714 1:0.0606061 2:0.89899 3:0.565657 4:1 5:0.858586 6:0.808081 7:0.454545 8:0.616162 9:0.919192 10:0.444444 11:1 12:0.18 13:0.58 
0.27308051179955301 0 0 0.20414355286703892 0.86752124680062048 0.21040934442825179 0 0.17754117481977469 0.14463596667326714 1:0.313131 2:0.89899 3:0.646465 4:1 5:1 6:0.89899 7:0.747475 8:0.707071 9:0.585859 10:0.494949 11:0.68 12:0.27 13:0.39 14:0.1 
0.27308051179955301 0 0.76693211709212883 0.20414355286703892 0 0.21040934442825179 0 0.17754117481977469 0 1:0.393939 2:0.79798 3:0.59596 4:1 5:1 6:0.888889 7:0.585859 8:0.636364 9:0.59596 10:0.474747 11:1 12:0.27 13:0.6 14:0.02 
0 0 0 0 0.86752124680062048 0 0 0 0 1:0.292929 2:0.828283 3:0.59596 4:1 5:1 6:0.858586 7:0.666667 8:0.59596 9:0.939394 10:0.424242 11:0.75 12:0.14 13:0.27 14:0.16 
0 0.14451098422371114 0.76693211709212883 0 0 0 0.11294720624643283 0.17754117481977469 0.14463596667326714 1:0.333333 2:0.787879 3:0.656566 4:1 5:0.828283 6:0.717172 7:0.515152 8:0.505051 9:1 10:0.484848 11:0.91 12:0.13 13:0.43 14:0.14 
0.27308051179955301 0.14451098422371114 0.76693211709212883 0.20414355286703892 0.86752124680062048 0.21040934442825179 0.11294720624643283 0.17754117481977469 0.14463596667326714 1:0.777778 2:0.353535 3:1 4:0.808081 5:0.868687 6:0.616162 7:0.565657 8:0.838384 9:0.505051 10:1 11:0.18 12:0.57 13:0.12 14:0.13 
0 0 0 0 0 0 0.11294720624643283 0 0.14463596667326714 2:0.848485 3:0.454545 4:1 5:0.69697 6:0.878788 7:0.545455 8:0.575758 9:0.969697 10:0.383838 11:1 12:0.1 13:0.51 14:0.02 
0 0.14451098422371114 0.76693211709212883 0 0 0.21040934442825179 0.11294720624643283 0.17754117481977469 0.14463596667326714 1:0.181818 2:0.888889 3:0.59596 4:1 5:0.535354 6:0.686869 7:0.464646 8:0.494949 9:1 10:0.474747 11:0.99 12:0.2 13:0.54 14:0.02 
0.27308051179955301 0 0 0.20414355286703892 0.86752124680062048 0 0 0 0 1:0.575758 2:0.838384 3:0.909091 4:1 5:1 6:0.838384 7:0.767677 8:0.59596 9:0.868687 10:0.343434 11:0.8 12:0.1 13:0.41 14:0.01 
0 0.14451098422371114 0.76693211709212883 0 0.86752124680062048 0.21040934442825179 0.11294720624643283 0.17754117481977469 0.14463596667326714 1:0.484848 2:0.949495 3:0.818182 4:1 5:0.676768 6:0.676768 7:0.727273 8:0.656566 9:1 10:0.40404 11:0.74 12:0.12 13:0.29 14:0.21 
0.27308051179955301 0 0 0 0 0 0 0 0 1:0.525253 2:0.919192 3:0.989899 4:1 5:1 6:0.737374 7:0.606061 8:0.525253 9:0.828283 10:0.383838 11:0.95 12:0.13 13:0.48 14:0.06 
0 0 0.76693211709212883 0.20414355286703892 0.86752124680062048 0 0.11294720624643283 0.17754117481977469 0.14463596667326714 1:0.121212 2:0.808081 3:0.232323 4:1 5:0.888889 6:0.969697 7:1 8:0.747475 9:0.626263 10:0.515152 11:0.97 12:0.22 13:0.55 14:0.12 
0.27308051179955301 0.14451098422371114 0 0.20414355286703892 0.86752124680062048 0 0 0 0 1:0.464646 2:0.858586 3:0.727273 4:1 5:0.888889 6:0.747475 7:0.676768 8:0.484848 9:1 10:0.272727 11:0.82 12:0.04 13:0.38 14:0.13 
0.27308051179955301 0.14451098422371114 0.76693211709212883 0.20414355286703892 0.86752124680062048 0.21040934442825179 0.11294720624643283 0.17754117481977469 0.14463596667326714 1:0.777778 2:0.333333 3:1 4:0.79798 5:0.909091 6:0.626263 7:0.565657 8:0.565657 9:0.424242 10:1 11:0.25 12:0.72 13:0.24 14:0.01 
0.27308051179955301 0 0.76693211709212883 0 0 0.21040934442825179 0.11294720624643283 0.17754117481977469 0.14463596667326714 1:0.424242 2:0.767677 3:0.525253 4:1 5:0.949495 6:0.939394 7:0.676768 8:0.666667 9:0.79798 10:0.525253 11:1 12:0.29 13:0.57 14:0.07 
0.27308051179955301 0.14451098422371114 0 0.20414355286703892 0 0.21040934442825179 0.11294720624643283 0.17754117481977469 0.14463596667326714 1:0.0606061 2:0.888889 3:0.515152 4:1 5:0.808081 6:0.818182 7:0.454545 8:0.585859 9:0.545455 10:0.363636 11:1 12:0.18 13:0.56 14:0.03 
0 0.14451098422371114 0 0 0.86752124680062048 0 0.11294720624643283 0 0 1:0.252525 2:0.838384 3:0.626263 4:1 5:0.727273 6:0.79798 7:0.707071 8:0.59596 9:1 10:0.363636 11:0.84 12:0.09 13:0.41 14:0.1 
0.27308051179955301 0 0 0.20414355286703892 0.86752124680062048 0.21040934442825179 0.11294720624643283 0.17754117481977469 0.14463596667326714 1:0.0606061 2:0.89899 3:0.545455 4:1 5:0.929293 6:0.818182 7:0.787879 8:0.535354 9:0.40404 10:0.30303 11:0.1 12:0.4 13:1 
0.27308051179955301 0 0 0 0 0 0 0 0 1:0.515152 2:0.939394 3:1 4:1 5:0.979798 6:0.767677 7:0.717172 8:0.545455 9:0.989899 10:0.353535 11:0.92 12:0.13 13:0.44 14:0.1 
0.27308051179955301 0.14451098422371114 0 0.20414355286703892 0 0 0 0 0 1:0.656566 2:1 3:1 4:0.939394 5:0.909091 6:0.686869 7:0.686869 8:0.464646 9:0.949495 10:0.232323 11:0.74 12:0.02 13:0.36 14:0.09 
0 0.14451098422371114 0.76693211709212883 0 0.86752124680062048 0 0.11294720624643283 0 0.14463596667326714 1:0.505051 2:0.858586 3:0.767677 4:1 5:0.636364 6:0.69697 7:0.888889 8:0.575758 9:1 10:0.262626 11:0.75 12:0.35 13:0.18 
0.27308051179955301 0 0 0.20414355286703892 0 0 0 0 0 1:0.515152 2:0.959596 3:0.838384 4:1 5:1 6:0.787879 7:0.727273 8:0.575758 9:0.838384 10:0.343434 11:0.9 12:0.11 13:0.47 14:0.05 
0 0.14451098422371114 0.76693211709212883 0.20414355286703892 0.86752124680062048 0.21040934442825179 0.11294720624643283 0.17754117481977469 0.14463596667326714 1:0.141414 2:0.737374 3:0.222222 4:1 5:0.717172 6:0.919192 7:0.525253 8:0.59596 9:0.747475 10:0.444444 11:1 12:0.18 13:0.55 14:0.01 
0.27308051179955301 0 0.76693211709212883 0.20414355286703892 0.86752124680062048 0.21040934442825179 0.11294720624643283 0.17754117481977469 0.14463596667326714 1:0.79798 2:0.333333 3:1 4:0.858586 5:1 6:0.828283 7:0.727273 8:0.505051 9:0.494949 10:1 11:0.37 12:0.85 13:0.12 14:0.36 
0.27308051179955301 0 0 0.20414355286703892 0.86752124680062048 0.21040934442825179 0 0.17754117481977469 0 1:0.232323 2:0.929293 3:0.484848 4:1 5:1 6:0.89899 7:0.666667 8:0.626263 9:0.494949 10:0.343434 11:0.97 12:0.17 13:0.54 14:0.06 
0.27308051179955301 0.14451098422371114 0.76693211709212883 0.20414355286703892 0.86752124680062048 0.21040934442825179 0.11294720624643283 0.17754117481977469 0.14463596667326714 1:0.868687 2:0.373737 3:1 4:0.878788 5:0.878788 6:0.676768 7:0.575758 8:0.464646 9:0.383838 10:1 11:0.28 12:0.96 13:0.41 14:0.01 
0.27308051179955301 0.14451098422371114 0.76693211709212883 0.20414355286703892 0.86752124680062048 0.21040934442825179 0.11294720624643283 0.17754117481977469 0.14463596667326714 1:0.858586 2:0.363636 3:1 4:0.848485 5:0.929293 6:0.717172 7:0.666667 8:0.939394 9:0.353535 10:1 11:0.04 12:0.53 13:0.06 14:0.11 
0.27308051179955301 0 0.76693211709212883 0.20414355286703892 0.86752124680062048 0 0.11294720624643283 0.17754117481977469 0.14463596667326714 1:0.686869 2:0.040404 3:0.919192 4:0.616162 5:1 6:1 7:0.818182 8:0.79798 9:0.525253 10:0.969697 11:0.26 12:0.97 13:0.02 14:0.38 
0.27308051179955301 0.14451098422371114 0.76693211709212883 0.20414355286703892 0 0.21040934442825179 0.11294720624643283 0.17754117481977469 0.14463596667326714 1:0.292929 2:0.858586 3:0.666667 4:1 5:0.767677 6:0.767677 7:0.525253 8:0.494949 9:0.777778 10:0.393939 11:1 12:0.17 13:0.56 14:0.05 
0 0.14451098422371114 0.76693211709212883 0 0 0.21040934442825179 0.11294720624643283 0.17754117481977469 0.14463596667326714 1:0.0808081 2:0.818182 3:0.515152 4:1 5:0.656566 6:0.808081 7:0.373737 8:0.545455 9:0.888889 10:0.444444 11:1 12:0.17 13:0.55 14:0.07 
0 0 0.76693211709212883 0 0.86752124680062048 0 0.11294720624643283 0 0.14463596667326714 1:0.010101 2:0.545455 3:0.171717 4:0.858586 5:0.69697 6:1 7:0.979798 8:0.787879 9:0.747475 10:0.494949 11:1 12:0.15 13:0.52 14:0.15 
0.27308051179955301 0.14451098422371114 0.76693211709212883 0.20414355286703892 0.86752124680062048 0.21040934442825179 0.11294720624643283 0.17754117481977469 0.14463596667326714 1:0.979798 2:0.333333 3:1 4:0.525253 5:0.777778 6:0.464646 7:0.464646 8:0.717172 9:0.252525 10:1 11:0.08 12:0.68 13:0.36 14:0.08 
0.27308051179955301 0 0 0.20414355286703892 0.86752124680062048 0 0 0 0 1:0.575758 2:0.858586 3:0.818182 4:1 5:1 6:0.79798 7:0.727273 8:0.59596 9:0.838384 10:0.353535 11:0.75 12:0.16 13:0.37 14:0.09 
0 0.14451098422371114 0.76693211709212883 0 0 0 0 0 0 1:0.323232 2:0.848485 3:0.686869 4:1 5:0.777778 6:0.777778 7:0.525253 8:0.555556 9:1 10:0.434343 11:0.93 12:0.16 13:0.48 14:0.01 
0.27308051179955301 0.14451098422371114 0.76693211709212883 0 0.86752124680062048 0.21040934442825179 0.11294720624643283 0.17754117481977469 0.14463596667326714 1:0.939394 2:0.444444 3:1 4:0.69697 5:0.757576 6:0.313131 7:0.575758 8:0.858586 9:0.515152 10:1 11:0.22 12:0.56 13:0.02 14:0.01 
0.27308051179955301 0 0 0.20414355286703892 0.86752124680062048 0 0 0 0 1:0.565657 2:0.818182 3:0.646465 4:1 5:1 6:0.878788 7:0.888889 8:0.636364 9:0.787879 10:0.383838 11:0.75 12:0.13 13:0.39 14:0.02 
0.27308051179955301 0.14451098422371114 0.76693211709212883 0.20414355286703892 0.86752124680062048 0.21040934442825179 0.11294720624643283 0.17754117481977469 0.14463596667326714 1:0.757576 2:0.222222 3:1 4:0.616162 5:0.848485 6:0.40404 7:0.515152 8:0.585859 9:0.464646 10:1 11:0.24 12:0.71 13:0.28 14:0.16 
0 0.14451098422371114 0.76693211709212883 0 0.86752124680062048 0 0.11294720624643283 0.17754117481977469 0.14463596667326714 1:0.383838 2:0.828283 3:0.626263 4:1 5:0.777778 6:0.777778 7:0.707071 8:0.606061 9:1 10:0.383838 11:0.78 12:0.11 13:0.36 14:0.17 
0 0.14451098422371114 0 0 0.86752124680062048 0 0.11294720624643283 0.17754117481977469 0.14463596667326714 1:0.010101 2:0.787879 3:0.474747 4:1 5:0.767677 6:0.828283 7:0.59596 8:0.525253 9:1 10:0.272727 11:0.83 12:0.23 13:0.01 14:0.3 
0.27308051179955301 0 0 0.20414355286703892 0.86752124680062048 0 0 0 0 1:0.545455 2:0.888889 3:0.848485 4:1 5:1 6:0.808081 7:0.777778 8:0.59596 9:0.686869 10:0.343434 11:0.64 12:0.09 13:0.33 14:0.03 
0.27308051179955301 0 0 0.20414355286703892 0.86752124680062048 0.21040934442825179 0 0 0 1:0.181818 2:0.909091 3:0.575758 4:1 5:1 6:0.878788 7:0.686869 8:0.59596 9:0.505051 10:0.363636 11:0.93 12:0.17 13:0.53 14:0.01 
0.27308051179955301 0.14451098422371114 0.76693211709212883 0.20414355286703892 0.86752124680062048 0.21040934442825179 0.11294720624643283 0.17754117481977469 0.14463596667326714 1:0.878788 2:0.171717 3:1 4:0.676768 5:0.969697 6:0.585859 7:0.69697 8:0.545455 9:0.494949 10:1 11:0.37 12:0.84 13:0.11 14:0.35 
0 0 0 0.20414355286703892 0.86752124680062048 0 0.11294720624643283 0.17754117481977469 0 1:0.121212 2:0.777778 3:0.444444 4:1 5:0.969697 6:0.868687 7:0.686869 8:0.575758 9:0.757576 10:0.464646 11:1 12:0.15 13:0.49 14:0.19 
0.27308051179955301 0.14451098422371114 0.76693211709212883 0 0 0.21040934442825179 0 0 0 1:0.575758 2:0.828283 3:0.848485 4:1 5:0.929293 6:0.767677 7:0.494949 8:0.565657 9:0.939394 10:0.393939 11:1 12:0.11 13:0.5 14:0.11 
0.27308051179955301 0 0 0.20414355286703892 0.86752124680062048 0 0 0 0 1:0.505051 2:0.79798 3:0.707071 4:1 5:1 6:0.858586 7:0.787879 8:0.636364 9:0.525253 10:0.434343 11:0.62 12:0.19 13:0.41 14:0.01 
0.27308051179955301 0.14451098422371114 0.76693211709212883 0.20414355286703892 0.86752124680062048 0.21040934442825179 0.11294720624643283 0.17754117481977469 0.14463596667326714 1:0.828283 2:0.424242 3:1 4:0.767677 5:0.777778 6:0.444444 7:0.484848 8:0.606061 9:0.434343 10:1 11:0.21 12:0.58 13:0.04 14:0.06 
0 0 0 0.20414355286703892 0 0.21040934442825179 0 0.17754117481977469 0 1:0.191919 2:0.838384 3:0.59596 4:1 5:0.929293 6:0.828283 7:0.59596 8:0.575758 9:0.727273 10:0.424242 11:1 12:0.22 13:0.54 14:0.05 
0 0.14451098422371114 0.76693211709212883 0 0 0.21040934442825179 0.11294720624643283 0 0.14463596667326714 1:0.414141 2:0.868687 3:0.79798 4:1 5:0.69697 6:0.717172 7:0.575758 8:0.616162 9:1 10:0.454545 11:0.87 12:0.15 13:0.42 14:0.03 
0 0.14451098422371114 0 0.20414355286703892 0 0.21040934442825179 0 0 0 1:0.232323 2:0.878788 3:0.707071 4:1 5:0.848485 6:0.767677 7:0.525253 8:0.525253 9:0.828283 10:0.363636 11:1 12:0.14 13:0.52 14:0.05 
0.27308051179955301 0 0 0.20414355286703892 0.86752124680062048 0 0 0 0 1:0.818182 2:0.434343 3:0.979798 4:1 5:1 6:0.929293 7:0.747475 8:0.525253 9:0.545455 10:0.777778 11:0.35 12:0.58 13:0.13 14:0.07 
0.27308051179955301 0.14451098422371114 0 0.20414355286703892 0 0.21040934442825179 0.11294720624643283 0.17754117481977469 0.14463596667326714 1:0.30303 2:0.69697 3:0.464646 4:1 5:0.909091 6:0.747475 7:0.505051 8:0.494949 9:0.707071 10:0.474747 11:1 12:0.18 13:0.51 14:0.17 
0 0 0 0 0.86752124680062048 0 0 0 0 1:0.333333 2:0.777778 3:0.59596 4:1 5:1 6:0.808081 7:0.69697 8:0.565657 9:0.939394 10:0.383838 11:0.89 12:0.09 13:0.39 14:0.17 
0.27308051179955301 0.14451098422371114 0 0.20414355286703892 0.86752124680062048 0.21040934442825179 0 0.17754117481977469 0 1:0.868687 2:0.454545 3:1 4:1 5:0.979798 6:0.757576 7:0.767677 8:0.444444 9:0.575758 10:0.666667 11:0.37 12:0.55 13:0.15 14:0.12 
0 0 0.76693211709212883 0 0 0 0.11294720624643283 0 0.14463596667326714 1:0.0606061 2:0.838384 3:0.444444 4:1 5:0.787879 6:0.828283 7:0.525253 8:0.656566 9:1 10:0.515152 11:0.93 12:0.19 13:0.5 14:0.05 
0.27308051179955301 0 0 0.20414355286703892 0.86752124680062048 0 0 0 0 1:0.777778 2:0.252525 3:0.939394 4:0.949495 5:1 6:1 7:0.818182 8:0.565657 9:0.606061 10:0.616162 11:0.37 12:0.57 13:0.14 
0.27308051179955301 0.14451098422371114 0 0.20414355286703892 0.86752124680062048 0 0 0 0 1:0.888889 2:0.454545 3:1 4:1 5:0.979798 6:0.838384 7:0.777778 8:0.505051 9:0.575758 10:0.707071 11:0.35 12:0.5 13:0.14 14:0.05 
0.27308051179955301 0.14451098422371114 0.76693211709212883 0 0.86752124680062048 0.21040934442825179 0.11294720624643283 0.17754117481977469 0.14463596667326714 1:0.818182 2:0.40404 3:1 4:0.89899 5:0.878788 6:0.686869 7:0.585859 8:0.727273 9:0.474747 10:1 11:0.19 12:0.56 13:0.03 14:0.05 
0 0.14451098422371114 0 0 0 0 0 0 0 1:0.464646 2:0.838384 3:0.646465 4:1 5:0.848485 6:0.747475 7:0.666667 8:0.454545 9:1 10:0.343434 11:0.86 12:0.09 13:0.41 14:0.08 
0.27308051179955301 0.14451098422371114 0 0.20414355286703892 0 0 0 0.17754117481977469 0 1:0.474747 2:0.747475 3:0.767677 4:1 5:1 6:0.717172 7:0.484848 8:0.515152 9:0.828283 10:0.393939 11:0.93 12:0.08 13:0.39 14:0.25 
0 0 0 0 0.86752124680062048 0 0 0 0 1:0.252525 2:0.878788 3:0.606061 4:1 5:1 6:0.939394 7:0.878788 8:0.666667 9:0.969697 10:0.393939 11:0.78 12:0.17 13:0.4 14:0.06 
0.27308051179955301 0.14451098422371114 0.76693211709212883 0 0.86752124680062048 0.21040934442825179 0.11294720624643283 0.17754117481977469 0.14463596667326714 1:0.787879 2:0.343434 3:1 4:0.707071 5:0.828283 6:0.444444 7:0.545455 8:0.838384 9:0.464646 10:1 11:0.2 12:0.57 13:0.03 
0 0 0.76693211709212883 0 0.86752124680062048 0 0 0 0 1:0.0606061 2:0.848485 3:0.484848 4:0.969697 5:0.969697 6:1 7:1 8:0.767677 9:0.858586 10:0.474747 11:0.88 12:0.2 13:0.46 14:0.07 
0.27308051179955301 0.14451098422371114 0.76693211709212883 0.20414355286703892 0.86752124680062048 0.21040934442825179 0.11294720624643283 0.17754117481977469 0.14463596667326714 1:0.777778 2:0.343434 3:1 4:0.737374 5:0.858586 6:0.414141 7:0.545455 8:0.565657 9:0.30303 10:1 11:0.08 12:0.58 13:0.08 14:0.08 
0.25259611015048089 0 0 0.20414355286703892 0.86752124680062048 0.21040934442825179 0 0 0 1:0.111111 2:0.79798 3:0.393939 4:1 5:0.808081 6:0.89899 7:0.636364 8:0.59596 9:0.636364 10:0.292929 11:1 12:0.09 13:0.53 14:0.01 
0.27308051179955301 0 0.76693211709212883 0.20414355286703892 0.86752124680062048 0.21040934442825179 0.11294720624643283 0.17754117481977469 0.14463596667326714 1:0.79798 2:0.424242 3:0.929293 4:0.909091 5:1 6:0.959596 7:0.79798 8:0.747475 9:0.565657 10:1 11:0.36 12:0.9 13:0.14 14:0.48 
0 0 0.76693211709212883 0 0 0 0 0 0 1:0.292929 2:0.828283 3:0.606061 4:1 5:0.929293 6:0.808081 7:0.525253 8:0.585859 9:0.888889 10:0.474747 11:1 12:0.19 13:0.56 
0.27308051179955301 0.14451098422371114 0.76693211709212883 0.20414355286703892 0 0.21040934442825179 0.11294720624643283 0.17754117481977469 0.14463596667326714 1:0.111111 2:0.727273 3:0.212121 4:1 5:0.717172 6:0.79798 7:0.252525 8:0.535354 9:0.555556 10:0.464646 11:1 12:0.2 13:0.5 14:0.18 
0.27308051179955301 0 0 0.20414355286703892 0 0.21040934442825179 0 0 0.14463596667326714 1:0.242424 2:0.919192 3:0.666667 4:1 5:1 6:0.868687 7:0.616162 8:0.686869 9:0.69697 10:0.464646 11:0.88 12:0.23 13:0.46 14:0.08 
0 0 0 0 0.86752124680062048 0 0 0 0 1:0.252525 2:0.878788 3:0.535354 4:1 5:1 6:0.888889 7:0.939394 8:0.585859 9:0.949495 10:0.343434 11:0.77 12:0.06 13:0.3 14:0.12 
0 0.14451098422371114 0.76693211709212883 0 0 0 0.11294720624643283 0 0.14463596667326714 1:0.333333 2:0.888889 3:0.676768 4:1 5:0.777778 6:0.79798 7:0.606061 8:0.666667 9:1 10:0.474747 11:0.95 12:0.19 13:0.51 
0.27308051179955301 0.14451098422371114 0.76693211709212883 0.20414355286703892 0.86752124680062048 0.21040934442825179 0.11294720624643283 0.17754117481977469 0.14463596667326714 1:0.818182 2:0.373737 3:1 4:0.707071 5:0.787879 6:0.393939 7:0.505051 8:0.585859 9:0.40404 10:1 11:0.2 12:0.64 13:0.09 14:0.05 
0.27308051179955301 0 0.76693211709212883 0.20414355286703892 0.86752124680062048 0 0.11294720624643283 0.17754117481977469 0.14463596667326714 1:0.717172 2:0.171717 3:1 4:0.676768 5:0.979798 6:0.626263 7:0.727273 8:0.888889 9:0.40404 10:1 11:0.05 12:0.53 13:0.06 14:0.12 
0 0 0.76693211709212883 0 0 0 0.11294720624643283 0 0.14463596667326714 1:0.0909091 2:0.767677 3:0.363636 4:1 5:0.89899 6:0.878788 7:0.717172 8:0.565657 9:0.989899 10:0.515152 11:1 12:0.18 13:0.48 14:0.17 
0 0 0.76693211709212883 0 0.86752124680062048 0 0.11294720624643283 0.17754117481977469 0.14463596667326714 1:0.383838 2:0.777778 3:0.242424 4:0.969697 5:0.737374 6:1 7:1 8:0.808081 9:0.848485 10:0.565657 11:0.72 12:0.32 13:0.46 14:0.1 
0.27308051179955301 0.14451098422371114 0.76693211709212883 0.20414355286703892 0.86752124680062048 0.21040934442825179 0.11294720624643283 0.17754117481977469 0.14463596667326714 1:0.818182 2:0.434343 3:1 4:0.686869 5:0.808081 6:0.373737 7:0.535354 8:0.676768 9:0.454545 10:1 11:0.2 12:0.61 13:0.06 14:0.06 
0 0.14451098422371114 0.76693211709212883 0.20414355286703892 0.86752124680062048 0.21040934442825179 0.11294720624643283 0.17754117481977469 0.14463596667326714 1:0.333333 2:0.989899 3:0.131313 4:0.979798 5:0.676768 6:1 7:0.838384 8:0.676768 9:0.69697 10:0.424242 11:1 12:0.11 13:0.53 14:0.08 
0.27308051179955301 0.14451098422371114 0.76693211709212883 0.20414355286703892 0.86752124680062048 0.21040934442825179 0 0 0.14463596667326714 1:0.868687 2:0.434343 3:1 4:0.89899 5:0.888889 6:0.727273 7:0.636364 8:0.828283 9:0.363636 10:1 11:0.09 12:0.56 13:0.06 14:0.01 
0.27308051179955301 0 0 0.20414355286703892 0.86752124680062048 0.21040934442825179 0 0.17754117481977469 0 1:0.282828 2:0.757576 3:0.444444 4:1 5:1 6:0.89899 7:0.747475 8:0.626263 9:0.424242 10:0.393939 11:0.98 12:0.24 13:0.63 14:0.04 
0 0.14451098422371114 0.76693211709212883 0 0 0.21040934442825179 0.11294720624643283 0.17754117481977469 0.14463596667326714 1:0.141414 2:0.767677 3:0.414141 4:1 5:0.757576 6:0.868687 7:0.40404 8:0.616162 9:0.929293 10:0.555556 11:1 12:0.29 13:0.58 14:0.07 
0 0.14451098422371114 0.76693211709212883 0 0 0.21040934442825179 0.11294720624643283 0 0.14463596667326714 1:0.343434 2:0.79798 3:0.494949 4:1 5:0.626263 6:0.717172 7:0.585859 8:0.535354 9:1 10:0.40404 11:0.89 12:0.13 13:0.46 
0 0 0 0 0 0.21040934442825179 0.11294720624643283 0 0 1:0.111111 2:0.858586 3:0.616162 4:1 5:0.919192 6:0.858586 7:0.535354 8:0.636364 9:0.808081 10:0.454545 11:1 12:0.22 13:0.62 14:0.05 
0.27308051179955301 0 0 0.20414355286703892 0 0 0 0 0 1:0.252525 2:0.818182 3:0.676768 4:1 5:1 6:0.818182 7:0.717172 8:0.515152 9:0.69697 10:0.454545 11:0.9 12:0.2 13:0.48 14:0.09 
0 0.14451098422371114 0.76693211709212883 0 0 0 0.11294720624643283 0 0.14463596667326714 1:0.343434 2:0.919192 3:0.606061 4:1 5:0.808081 6:0.747475 7:0.585859 8:0.59596 9:1 10:0.424242 11:0.86 12:0.1 13:0.4 14:0.07 
0 0 0 0 0 0.21040934442825179 0 0 0 1:0.121212 2:0.838384 3:0.656566 4:1 5:0.89899 6:0.79798 7:0.515152 8:0.535354 9:0.747475 10:0.505051 11:1 12:0.24 13:0.6 14:0.01 
0.27308051179955301 0.14451098422371114 0.76693211709212883 0 0 0.21040934442825179 0 0 0 1:0.666667 2:0.929293 3:1 4:1 5:0.878788 6:0.767677 7:0.585859 8:0.555556 9:0.868687 10:0.333333 11:0.92 12:0.09 13:0.46 14:0.04 
0 0.14451098422371114 0.76693211709212883 0 0 0.21040934442825179 0 0.17754117481977469 0.14463596667326714 1:0.343434 2:0.89899 3:0.878788 4:1 5:0.808081 6:0.787879 7:0.434343 8:0.616162 9:0.939394 10:0.434343 11:1 12:0.18 13:0.54 14:0.08 
0 0.14451098422371114 0.76693211709212883 0 0 0.21040934442825179 0.11294720624643283 0 0.14463596667326714 1:0.191919 2:0.848485 3:0.616162 4:1 5:0.707071 6:0.717172 7:0.444444 8:0.515152 9:0.979798 10:0.464646 11:1 12:0.17 13:0.53 
0.27308051179955301 0 0 0.20414355286703892 0.86752124680062048 0.21040934442825179 0 0 0 1:0.454545 2:0.919192 3:0.727273 4:1 5:1 6:0.828283 7:0.656566 8:0.656566 9:0.727273 10:0.434343 11:0.75 12:0.2 13:0.37 14:0.08 
0.27308051179955301 0.14451098422371114 0.76693211709212883 0.20414355286703892 0.86752124680062048 0.21040934442825179 0.11294720624643283 0.17754117481977469 0.14463596667326714 1:0.858586 2:0.393939 3:1 4:0.848485 5:0.888889 6:0.525253 7:0.626263 8:0.525253 9:0.40404 10:1 11:0.26 12:0.74 13:0.04 14:0.22 
0.27308051179955301 0.14451098422371114 0.76693211709212883 0.20414355286703892 0 0.21040934442825179 0 0.17754117481977469 0.14463596667326714 1:0.414141 2:0.979798 3:0.888889 4:1 5:0.727273 6:0.717172 7:0.585859 8:0.515152 9:1 10:0.313131 11:0.88 12:0.03 13:0.41 14:0.19 
0.27308051179955301 0 0 0.20414355286703892 0 0 0 0 0 1:0.484848 2:0.858586 3:0.838384 4:1 5:1 6:0.757576 7:0.737374 8:0.515152 9:0.989899 10:0.292929 11:0.81 12:0.06 13:0.38 14:0.11 
0.27308051179955301 0.14451098422371114 0.76693211709212883 0.20414355286703892 0.86752124680062048 0.21040934442825179 0.11294720624643283 0.17754117481977469 0.14463596667326714 1:0.878788 2:0.494949 3:1 4:0.828283 5:0.848485 6:0.515152 7:0.606061 8:0.616162 9:0.373737 10:1 11:0.18 12:0.57 13:0.01 14:0.03 
0.27308051179955301 0 0.76693211709212883 0.20414355286703892 0.86752124680062048 0.21040934442825179 0.11294720624643283 0.17754117481977469 0.14463596667326714 1:0.89899 2:0.373737 3:1 4:0.767677 5:0.949495 6:0.676768 7:0.686869 8:0.868687 9:0.494949 10:1 11:0.19 12:0.7 13:0.32 14:0.06 
0 0 0.76693211709212883 0 0 0 0 0 0 1:0.313131 2:0.818182 3:0.626263 4:1 5:1 6:0.888889 7:0.646465 8:0.626263 9:0.909091 10:0.535354 11:0.94 12:0.24 13:0.51 14:0.05 
0 0 0.76693211709212883 0 0.86752124680062048 0 0.11294720624643283 0 0 1:0.272727 2:0.747475 3:0.414141 4:1 5:0.868687 6:0.949495 7:0.676768 8:0.606061 9:0.868687 10:0.414141 11:1 12:0.1 13:0.51 14:0.12 
0.27308051179955301 0.14451098422371114 0.76693211709212883 0.20414355286703892 0.86752124680062048 0.21040934442825179 0.11294720624643283 0.17754117481977469 0.14463596667326714 1:0.959596 2:0.505051 3:1 4:0.979798 5:0.878788 6:0.868687 7:0.606061 8:0.525253 9:0.414141 10:1 11:0.27 12:0.68 13:0.07 14:0.17 
0 0.14451098422371114 0.76693211709212883 0 0 0.21040934442825179 0.11294720624643283 0.17754117481977469 0.14463596667326714 1:0.40404 2:0.818182 3:0.636364 4:1 5:0.828283 6:0.767677 7:0.454545 8:0.525253 9:0.929293 10:0.414141 11:1 12:0.19 13:0.52 14:0.06 
0.27308051179955301 0 0.76693211709212883 0.20414355286703892 0.86752124680062048 0 0.11294720624643283 0.17754117481977469 0.14463596667326714 1:0.121212 2:0.717172 3:0.262626 4:0.979798 5:0.929293 6:1 7:1 8:0.747475 9:0.575758 10:0.535354 11:0.85 12:0.37 13:0.56 14:0.14 
0.27308051179955301 0.14451098422371114 0.76693211709212883 0.20414355286703892 0.86752124680062048 0.21040934442825179 0.11294720624643283 0.17754117481977469 0.14463596667326714 1:0.838384 2:0.383838 3:1 4:0.787879 5:0.777778 6:0.383838 7:0.545455 8:0.666667 9:0.474747 10:1 11:0.21 12:0.62 13:0.15 14:0.1 
0 0.14451098422371114 0 0 0 0.21040934442825179 0 0.17754117481977469 0 1:0.373737 2:0.818182 3:0.79798 4:1 5:0.878788 6:0.717172 7:0.383838 8:0.494949 9:0.838384 10:0.464646 11:1 12:0.14 13:0.47 14:0.13 
0.27308051179955301 0.14451098422371114 0.76693211709212883 0.20414355286703892 0.86752124680062048 0.21040934442825179 0 0 0.14463596667326714 1:0.858586 2:0.444444 3:1 4:0.949495 5:0.929293 6:0.747475 7:0.686869 8:0.949495 9:0.383838 10:1 11:0.07 12:0.5 13:0.01 14:0.12 
0 0.14451098422371114 0 0 0 0.21040934442825179 0 0.17754117481977469 0 1:0.282828 2:0.888889 3:0.838384 4:1 5:0.79798 6:0.727273 7:0.353535 8:0.494949 9:0.939394 10:0.373737 11:1 12:0.09 13:0.41 14:0.17 
0.27308051179955301 0.14451098422371114 0.76693211709212883 0.20414355286703892 0.86752124680062048 0.17009486080609545 0.11294720624643283 0.17754117481977469 0.14463596667326714 1:0.757576 2:0.323232 3:1 4:0.818182 5:0.919192 6:0.444444 7:0.69697 8:0.686869 9:0.444444 10:1 11:0.16 12:0.58 13:0.13 14:0.1 
0.27308051179955301 0.14451098422371114 0.76693211709212883 0 0 0.21040934442825179 0 0.17754117481977469 0 1:0.414141 2:0.939394 3:0.888889 4:1 5:0.707071 6:0.757576 7:0.676768 8:0.555556 9:1 10:0.333333 11:0.84 12:0.08 13:0.37 14:0.15 
0 0 0.76693211709212883 0 0.86752124680062048 0 0.11294720624643283 0 0 1:0.181818 2:0.727273 3:0.535354 4:0.909091 5:1 6:1 7:0.989899 8:0.777778 9:0.858586 10:0.515152 11:0.78 12:0.26 13:0.43 14:0.08 
0 0.14451098422371114 0.76693211709212883 0 0 0 0 0 0 1:0.494949 2:0.909091 3:0.777778 4:1 5:0.848485 6:0.737374 7:0.707071 8:0.606061 9:1 10:0.373737 11:0.81 12:0.1 13:0.41 14:0.04 
0.27308051179955301 0.14451098422371114 0.76693211709212883 0 0 0 0 0 0 1:0.686869 2:0.79798 3:0.929293 4:1 5:0.929293 6:0.767677 7:0.626263 8:0.545455 9:1 10:0.414141 11:0.79 12:0.2 13:0.41 14:0.07 
0 0.14451098422371114 0.76693211709212883 0 0 0.21040934442825179 0.11294720624643283 0.17754117481977469 0.14463596667326714 1:0.434343 2:0.838384 3:0.79798 4:1 5:0.838384 6:0.727273 7:0.494949 8:0.59596 9:1 10:0.484848 11:0.86 12:0.16 13:0.33 14:0.23 
0 0 0.76693211709212883 0 0 0 0 0 0 1:0.30303 2:0.838384 3:0.59596 4:1 5:0.828283 6:0.848485 7:0.656566 8:0.636364 9:1 10:0.444444 11:0.82 12:0.17 13:0.42 
0.27308051179955301 0.14451098422371114 0 0 0 0 0 0 0 1:0.646465 2:0.777778 3:0.767677 4:1 5:1 6:0.757576 7:0.656566 8:0.525253 9:0.989899 10:0.313131 11:0.83 12:0.07 13:0.35 14:0.11 
0 0.14451098422371114 0.76693211709212883 0 0 0 0.11294720624643283 0 0.14463596667326714 1:0.161616 2:0.79798 3:0.474747 4:1 5:0.69697 6:0.767677 7:0.555556 8:0.535354 9:1 10:0.444444 11:0.91 12:0.13 13:0.48 14:0.06 
0.27308051179955301 0 0 0.20414355286703892 0.86752124680062048 0 0 0.17754117481977469 0 1:0.232323 2:0.777778 3:0.585859 4:1 5:1 6:0.909091 7:0.707071 8:0.585859 9:0.606061 10:0.464646 11:0.88 12:0.19 13:0.48 14:0.13 
0 0.14451098422371114 0.76693211709212883 0 0 0 0 0 0 1:0.40404 2:0.79798 3:0.606061 4:1 5:0.828283 6:0.777778 7:0.646465 8:0.575758 9:1 10:0.434343 11:0.84 12:0.17 13:0.45 
0 0 0 0 0.86752124680062048 0 0 0 0 1:0.272727 2:0.808081 3:0.59596 4:1 5:1 6:0.848485 7:0.808081 8:0.565657 9:0.949495 10:0.383838 11:0.91 12:0.12 13:0.44 14:0.11 
0.27308051179955301 0 0.76693211709212883 0.20414355286703892 0.86752124680062048 0 0 0 0.14463596667326714 1:0.828283 2:0.414141 3:1 4:0.979798 5:0.969697 6:0.929293 7:0.707071 8:0.808081 9:0.434343 10:1 11:0.15 12:0.58 13:0.04 14:0.07 
0 0 0.76693211709212883 0 0 0.21040934442825179 0.11294720624643283 0.17754117481977469 0.14463596667326714 1:0.0808081 2:0.777778 3:0.383838 4:1 5:0.858586 6:0.868687 7:0.505051 8:0.575758 9:0.787879 10:0.494949 11:1 12:0.19 13:0.54 14:0.11 
0 0.14451098422371114 0 0 0 0 0 0 0 1:0.515152 2:0.79798 3:0.818182 4:1 5:0.888889 6:0.717172 7:0.515152 8:0.464646 9:0.979798 10:0.323232 11:1 12:0.09 13:0.5 14:0.01 
0.27308051179955301 0.14451098422371114 0 0.20414355286703892 0.86752124680062048 0 0 0 0 1:0.69697 2:0.939394 3:0.979798 4:1 5:1 6:0.787879 7:0.69697 8:0.606061 9:0.747475 10:0.343434 11:0.62 12:0.12 13:0.26 
0.27308051179955301 0.14451098422371114 0.76693211709212883 0.20414355286703892 0.86752124680062048 0.21040934442825179 0.11294720624643283 0.17754117481977469 0.14463596667326714 1:0.909091 2:0.353535 3:1 4:0.616162 5:0.828283 6:0.565657 7:0.59596 8:0.69697 9:0.383838 10:1 11:0.22 12:0.78 13:0.04 14:0.39 
0.27308051179955301 0.14451098422371114 0 0.20414355286703892 0.86752124680062048 0 0 0 0 1:0.747475 2:0.79798 3:0.929293 4:1 5:1 6:0.808081 7:0.79798 8:0.585859 9:0.656566 10:0.343434 11:0.66 12:0.09 13:0.34 14:0.04 
0 0.14451098422371114 0.76693211709212883 0 0 0.21040934442825179 0.11294720624643283 0 0.14463596667326714 1:0.262626 2:0.808081 3:0.424242 4:1 5:0.858586 6:0.838384 7:0.515152 8:0.59596 9:0.838384 10:0.424242 11:1 12:0.16 13:0.54 14:0.01 
0.27308051179955301 0.14451098422371114 0.76693211709212883 0.071730078344272016 0.86752124680062048 0.21040934442825179 0.11294720624643283 0.17754117481977469 0.14463596667326714 1:0.828283 2:0.343434 3:1 4:0.858586 5:0.878788 6:0.414141 7:0.626263 8:0.515152 9:0.464646 10:1 11:0.27 12:0.6 13:0.04 14:0.02 
0.27308051179955301 0 0 0 0 0 0 0.17754117481977469 0 1:0.393939 2:0.838384 3:0.787879 4:1 5:1 6:0.777778 7:0.646465 8:0.575758 9:0.868687 10:0.434343 11:0.87 12:0.25 13:0.42 14:0.14 
0 0.14451098422371114 0 0.20414355286703892 0 0.21040934442825179 0.11294720624643283 0.17754117481977469 0.14463596667326714 1:0.111111 2:0.89899 3:0.666667 4:1 5:0.707071 6:0.69697 7:0.252525 8:0.434343 9:0.707071 10:0.464646 11:1 12:0.19 13:0.5 14:0.14 
0.27308051179955301 0 0.76693211709212883 0.20414355286703892 0.86752124680062048 0.21040934442825179 0.11294720624643283 0.17754117481977469 0.14463596667326714 1:0.777778 2:0.353535 3:1 4:0.787879 5:0.989899 6:0.848485 7:0.666667 8:0.69697 9:0.40404 10:1 11:0.16 12:0.63 13:0.24 14:0.16 
0.27308051179955301 0 0 0.20414355286703892 0.86752124680062048 0.21040934442825179 0 0.081992380854007466 0 1:0.252525 2:0.79798 3:0.494949 4:1 5:1 6:0.949495 7:0.575758 8:0.717172 9:0.494949 10:0.464646 11:0.9 12:0.2 13:0.53 14:0.05 
0 0.14451098422371114 0.76693211709212883 0 0 0.21040934442825179 0.11294720624643283 0.17754117481977469 0.14463596667326714 1:0.131313 2:0.818182 3:0.444444 4:1 5:0.565657 6:0.737374 7:0.424242 8:0.525253 9:1 10:0.505051 11:1 12:0.25 13:0.58 14:0.05 
0 0 0 0 0.86752124680062048 0 0 0 0 1:0.181818 2:0.919192 3:0.575758 4:1 5:1 6:1 7:0.939394 8:0.787879 9:0.727273 10:0.545455 11:0.69 12:0.25 13:0.4 14:0.05 
0 0.14451098422371114 0.76693211709212883 0 0 0.21040934442825179 0.11294720624643283 0.17754117481977469 0.14463596667326714 1:0.292929 2:0.838384 3:0.353535 4:1 5:0.787879 6:0.89899 7:0.555556 8:0.626263 9:0.858586 10:0.505051 11:1 12:0.26 13:0.61 14:0.04 
0 0 0 0 0.86752124680062048 0 0.11294720624643283 0 0 1:0.030303 2:0.767677 3:0.414141 4:1 5:0.969697 6:0.949495 7:0.767677 8:0.616162 9:0.89899 10:0.484848 11:1 12:0.15 13:0.49 14:0.12 
0 0.14451098422371114 0.76693211709212883 0 0 0.21040934442825179 0.11294720624643283 0.17754117481977469 0.14463596667326714 1:0.222222 2:0.868687 3:0.565657 4:1 5:0.656566 6:0.717172 7:0.555556 8:0.59596 9:0.979798 10:0.393939 11:1 12:0.08 13:0.46 14:0.15 
0 0.14451098422371114 0.76693211709212883 0 0 0.21040934442825179 0.11294720624643283 0.17754117481977469 0 1:0.515152 2:0.909091 3:0.717172 4:1 5:0.868687 6:0.69697 7:0.565657 8:0.424242 9:1 10:0.444444 11:0.9 12:0.15 13:0.43 14:0.12 
0.27308051179955301 0.14451098422371114 0 0.13241347452276689 0 0 0 0 0 1:0.585859 2:0.878788 3:0.888889 4:1 5:1 6:0.69697 7:0.59596 8:0.525253 9:0.828283 10:0.434343 11:0.84 12:0.14 13:0.42 14:0.07 
0.27308051179955301 0.14451098422371114 0.76693211709212883 0.20414355286703892 0.86752124680062048 0.21040934442825179 0.11294720624643283 0.17754117481977469 0.14463596667326714 1:0.79798 2:0.373737 3:1 4:0.949495 5:0.949495 6:0.565657 7:0.707071 8:0.505051 9:0.505051 10:1 11:0.31 12:0.95 13:0.02 14:0.36 
0 0.14451098422371114 0 0.20414355286703892 0 0.21040934442825179 0.11294720624643283 0.17754117481977469 0.14463596667326714 1:0.131313 2:0.888889 3:0.565657 4:1 5:0.89899 6:0.777778 7:0.484848 8:0.545455 9:0.69697 10:0.383838 11:1 12:0.12 13:0.52 14:0.09 
0.27308051179955301 0 0 0.20414355286703892 0.86752124680062048 0 0 0 0 1:0.464646 2:0.737374 3:0.676768 4:1 5:1 6:0.878788 7:0.737374 8:0.59596 9:0.616162 10:0.333333 11:0.96 12:0.18 13:0.52 14:0.04 
0.27308051179955301 0.14451098422371114 0.76693211709212883 0.20414355286703892 0.86752124680062048 0.21040934442825179 0.11294720624643283 0.17754117481977469 0.14463596667326714 1:0.89899 2:0.444444 3:1 4:0.848485 5:0.878788 6:0.565657 7:0.636364 8:0.686869 9:0.393939 10:1 11:0.17 12:0.67 13:0.01 14:0.17 
0.27308051179955301 0.14451098422371114 0.76693211709212883 0 0.86752124680062048 0.21040934442825179 0.11294720624643283 0.17754117481977469 0.14463596667326714 1:0.838384 2:0.292929 3:1 4:0.353535 5:0.747475 6:0.272727 7:0.515152 8:0.888889 9:0.515152 10:1 11:0.27 12:0.64 13:0.06 14:0.06 
0 0.14451098422371114 0.76693211709212883 0 0.86752124680062048 0.21040934442825179 0.11294720624643283 0.17754117481977469 0.14463596667326714 1:0.353535 2:0.868687 3:0.232323 4:1 5:0.767677 6:1 7:0.636364 8:0.69697 9:0.737374 10:0.515152 11:1 12:0.26 13:0.62 14:0.02 
0.27308051179955301 0 0 0.20414355286703892 0.86752124680062048 0 0 0 0 1:0.040404 2:0.757576 3:0.373737 4:1 5:1 6:0.979798 7:0.878788 8:0.686869 9:0.474747 10:0.434343 11:0.95 12:0.26 13:0.61 14:0.02 
0 0.14451098422371114 0 0 0.86752124680062048 0 0 0 0 1:0.313131 2:0.939394 3:0.69697 4:1 5:0.757576 6:0.767677 7:0.676768 8:0.535354 9:1 10:0.343434 11:0.78 12:0.09 13:0.37 14:0.09 
0 0.14451098422371114 0 0 0 0 0 0 0 1:0.373737 2:0.848485 3:0.686869 4:1 5:0.757576 6:0.747475 7:0.545455 8:0.494949 9:1 10:0.333333 11:0.77 12:0.11 13:0.28 14:0.08 
0.27308051179955301 0 0 0.20414355286703892 0 0 0 0 0 1:0.252525 2:0.848485 3:0.676768 4:1 5:0.909091 6:0.787879 7:0.676768 8:0.535354 9:0.828283 10:0.393939 11:1 12:0.16 13:0.56 14:0.07 
0.27308051179955301 0 0 0.20414355286703892 0 0 0 0 0 1:0.40404 2:0.818182 3:0.656566 4:1 5:1 6:0.777778 7:0.616162 8:0.505051 9:0.767677 10:0.424242 11:0.95 12:0.13 13:0.49 14:0.08 
0 0 0 0 0.86752124680062048 0 0.11294720624643283 0 0.14463596667326714 1:0.040404 2:0.727273 3:0.242424 4:0.989899 5:0.747475 6:1 7:0.626263 8:0.69697 9:0.79798 10:0.393939 11:1 12:0.09 13:0.51 14:0.04 
0 0.14451098422371114 0 0 0 0.21040934442825179 0.11294720624643283 0.17754117481977469 0.14463596667326714 1:0.161616 2:0.909091 3:0.626263 4:1 5:0.656566 6:0.747475 7:0.555556 8:0.525253 9:1 10:0.353535 11:0.94 12:0.1 13:0.4 14:0.09 
0.27308051179955301 0 0 0.20414355286703892 0 0 0 0 0 1:0.434343 2:0.79798 3:0.737374 4:1 5:1 6:0.787879 7:0.737374 8:0.494949 9:0.838384 10:0.383838 11:0.86 12:0.12 13:0.42 14:0.09 
0 0.14451098422371114 0.76693211709212883 0 0 0.21040934442825179 0.11294720624643283 0.17754117481977469 0.14463596667326714 1:0.424242 2:0.828283 3:0.535354 4:1 5:0.727273 6:0.787879 7:0.505051 8:0.59596 9:1 10:0.484848 11:0.88 12:0.19 13:0.42 14:0.1 
0.27308051179955301 0 0 0.20414355286703892 0.86752124680062048 0 0 0 0 1:0.30303 2:0.808081 3:0.575758 4:1 5:1 6:1 7:0.808081 8:0.757576 9:0.646465 10:0.494949 11:0.78 12:0.22 13:0.41 14:0.07 
0.27308051179955301 0 0 0 0 0 0 0 0 1:0.333333 2:0.737374 3:0.616162 4:1 5:1 6:0.858586 7:0.686869 8:0.59596 9:0.747475 10:0.474747 11:0.9 12:0.19 13:0.5 14:0.01 
0 0.14451098422371114 0 0.20414355286703892 0 0.21040934442825179 0.11294720624643283 0.17754117481977469 0 1:0.232323 2:0.808081 3:0.565657 4:1 5:0.848485 6:0.757576 7:0.585859 8:0.464646 9:0.818182 10:0.40404 11:1 12:0.15 13:0.53 14:0.05 
0.27308051179955301 0 0 0.20414355286703892 0.86752124680062048 0 0.11294720624643283 0 0.14463596667326714 1:0.222222 2:0.838384 3:0.555556 4:1 5:1 6:0.929293 7:0.79798 8:0.727273 9:0.676768 10:0.505051 11:0.76 12:0.28 13:0.42 14:0.12 
0.27308051179955301 0 0.76693211709212883 0.20414355286703892 0.86752124680062048 0.21040934442825179 0.11294720624643283 0.17754117481977469 0.14463596667326714 1:0.69697 2:0.131313 3:0.969697 4:0.656566 5:1 6:1 7:0.787879 8:0.656566 9:0.545455 10:0.939394 11:0.27 12:0.9 13:0.41 14:0.02 
0 0.14451098422371114 0.76693211709212883 0 0 0.21040934442825179 0.11294720624643283 0.17754117481977469 0.14463596667326714 1:0.373737 2:0.838384 3:0.222222 4:1 5:0.676768 6:0.929293 7:0.40404 8:0.636364 9:0.777778 10:0.515152 11:1 12:0.24 13:0.6 14:0.01 
0 0 0.76693211709212883 0 0 0 0.11294720624643283 0 0.14463596667326714 1:0.333333 2:0.868687 3:0.505051 4:1 5:0.989899 6:0.838384 7:0.505051 8:0.535354 9:1 10:0.535354 11:1 12:0.18 13:0.35 14:0.16 
0 0 0 0 0.86752124680062048 0 0 0 0 1:0.10101 2:0.818182 3:0.444444 4:1 5:0.929293 6:0.909091 7:0.767677 8:0.636364 9:0.818182 10:0.393939 11:1 12:0.14 13:0.53 14:0.03 
0 0 0.76693211709212883 0 0.86752124680062048 0 0.11294720624643283 0 0 1:0.222222 2:0.707071 3:0.40404 4:1 5:0.878788 6:0.929293 7:0.636364 8:0.59596 9:0.989899 10:0.424242 11:1 12:0.09 13:0.5 14:0.12 
0.27308051179955301 0 0 0.20414355286703892 0.86752124680062048 0 0 0 0 1:0.373737 2:0.838384 3:0.69697 4:1 5:0.959596 6:0.808081 7:0.757576 8:0.535354 9:1 10:0.262626 11:0.75 12:0.01 13:0.29 14:0.24 
0.27308051179955301 0.13208830495613838 0 0.20414355286703892 0.86752124680062048 0 0 0.17754117481977469 0.14463596667326714 1:0.666667 2:0.343434 3:0.979798 4:0.878788 5:1 6:0.636364 7:0.646465 8:0.484848 9:0.383838 10:1 11:0.22 12:0.63 13:0.08 14:0.01 
0.27308051179955301 0.14451098422371114 0.76693211709212883 0.20414355286703892 0.86752124680062048 0.21040934442825179 0.11294720624643283 0.17754117481977469 0.14463596667326714 1:0.878788 2:0.444444 3:1 4:0.656566 5:0.717172 6:0.262626 7:0.474747 8:0.585859 9:0.424242 10:1 11:0.21 12:0.6 13:0.07 14:0.04 
0.27308051179955301 0.14451098422371114 0.76693211709212883 0.20414355286703892 0.86752124680062048 0.21040934442825179 0.11294720624643283 0.17754117481977469 0.14463596667326714 1:0.818182 2:0.292929 3:1 4:0.747475 5:0.858586 6:0.494949 7:0.545455 8:0.575758 9:0.393939 10:1 11:0.21 12:0.62 13:0.08 14:0.02 
0 0.14451098422371114 0.76693211709212883 0 0 0.21040934442825179 0.11294720624643283 0.17754117481977469 0.14463596667326714 1:0.151515 2:0.868687 3:0.525253 4:1 5:0.818182 6:0.818182 7:0.393939 8:0.555556 9:0.747475 10:0.494949 11:1 12:0.2 13:0.56 14:0.04 
0 0 0.76693211709212883 0 0.86752124680062048 0 0.11294720624643283 0 0 1:0.474747 2:0.626263 3:0.414141 4:1 5:0.939394 6:0.989899 7:0.939394 8:0.616162 9:0.89899 10:0.535354 11:1 12:0.19 13:0.51 14:0.11 
0 0 0 0 0.86752124680062048 0 0.11294720624643283 0 0 1:0.141414 2:0.727273 3:0.40404 4:1 5:0.868687 6:0.929293 7:0.59596 8:0.636364 9:0.989899 10:0.424242 11:1 12:0.08 13:0.5 14:0.11 
0 0 0.76693211709212883 0 0 0 0 0 0 1:0.262626 2:0.848485 3:0.676768 4:1 5:1 6:0.858586 7:0.535354 8:0.686869 9:0.838384 10:0.484848 11:0.98 12:0.23 13:0.54 14:0.05 
0 0.048550425323500547 0 0 0 0.21040934442825179 0 0 0 1:0.252525 2:0.939394 3:0.747475 4:1 5:0.919192 6:0.767677 7:0.444444 8:0.585859 9:0.808081 10:0.424242 11:1 12:0.11 13:0.51 14:0.01 
0.27308051179955301 0.14451098422371114 0 0.20414355286703892 0.86752124680062048 0 0 0 0 1:0.454545 2:0.989899 3:0.818182 4:1 5:0.818182 6:0.717172 7:0.767677 8:0.555556 9:1 10:0.30303 11:0.75 12:0.07 13:0.38 14:0.06 
0.27308051179955301 0 0 0.20414355286703892 0.86752124680062048 0 0 0 0 1:0.181818 2:0.707071 3:0.545455 4:1 5:1 6:0.989899 7:0.727273 8:0.656566 9:0.545455 10:0.434343 11:0.97 12:0.22 13:0.55 14:0.04 
0 0.14451098422371114 0 0 0 0 0.11294720624643283 0 0.14463596667326714 1:0.161616 2:0.909091 3:0.494949 4:1 5:0.757576 6:0.767677 7:0.626263 8:0.585859 9:1 10:0.373737 11:0.84 12:0.1 13:0.35 14:0.12 
0 0 0 0 0 0 0.11294720624643283 0 0 1:0.20202 2:0.767677 3:0.575758 4:1 5:0.949495 6:0.808081 7:0.666667 8:0.515152 9:0.959596 10:0.474747 11:1 12:0.17 13:0.52 14:0.11 
0.27308051179955301 0.14451098422371114 0 0.20414355286703892 0 0.21040934442825179 0 0.17754117481977469 0 1:0.212121 2:0.828283 3:0.616162 4:1 5:0.919192 6:0.777778 7:0.505051 8:0.525253 9:0.545455 10:0.363636 11:1 12:0.17 13:0.55 14:0.07 
0.27308051179955301 0.14451098422371114 0.76693211709212883 0.20414355286703892 0.86752124680062048 0.21040934442825179 0.11294720624643283 0.17754117481977469 0.14463596667326714 1:0.838384 2:0.363636 3:1 4:0.585859 5:0.757576 6:0.232323 7:0.484848 8:0.69697 9:0.424242 10:1 11:0.21 12:0.6 13:0.07 14:0.06 
0.27308051179955301 0.14451098422371114 0 0.20414355286703892 0 0.21040934442825179 0 0.17754117481977469 0.14463596667326714 1:0.141414 2:0.909091 3:0.676768 4:1 5:0.808081 6:0.818182 7:0.434343 8:0.555556 9:0.585859 10:0.383838 11:1 12:0.2 13:0.54 14:0.01 
0 0.14451098422371114 0.76693211709212883 0 0 0 0 0 0 1:0.555556 2:0.868687 3:0.909091 4:1 5:0.808081 6:0.717172 7:0.606061 8:0.575758 9:1 10:0.40404 11:0.87 12:0.12 13:0.38 14:0.12 
0 0 0.76693211709212883 0 0 0 0 0 0 1:0.434343 2:0.828283 3:0.69697 4:1 5:0.929293 6:0.767677 7:0.585859 8:0.494949 9:0.929293 10:0.434343 11:1 12:0.16 13:0.53 14:0.03 
0 0 0 0.20414355286703892 0 0.21040934442825179 0 0.17754117481977469 0 1:0.151515 2:0.868687 3:0.656566 4:1 5:0.858586 6:0.808081 7:0.474747 8:0.565657 9:0.767677 10:0.454545 11:1 12:0.21 13:0.6 14:0.02 
0.27308051179955301 0 0 0.20414355286703892 0.86752124680062048 0 0 0 0 1:0.484848 2:0.777778 3:0.686869 4:1 5:1 6:0.949495 7:0.757576 8:0.717172 9:0.606061 10:0.454545 11:0.59 12:0.18 13:0.33 14:0.12 
0.27308051179955301 0 0 0.20414355286703892 0.86752124680062048 0 0 0 0 1:0.313131 2:0.888889 3:0.666667 4:1 5:1 6:0.929293 7:0.787879 8:0.707071 9:0.656566 10:0.464646 11:0.68 12:0.22 13:0.4 14:0.06 
0.27308051179955301 0.14451098422371114 0 0.20414355286703892 0 0.21040934442825179 0.11294720624643283 0.17754117481977469 0.14463596667326714 1:0.444444 2:0.919192 3:0.686869 4:1 5:0.686869 6:0.69697 7:0.59596 8:0.434343 9:1 10:0.272727 11:0.78 12:0.04 13:0.33 14:0.15 
0 0.14451098422371114 0.76693211709212883 0 0 0.21040934442825179 0.11294720624643283 0 0.14463596667326714 1:0.505051 2:1 3:0.929293 4:0.949495 5:0.636364 6:0.727273 7:0.69697 8:0.606061 9:1 10:0.383838 11:0.82 12:0.12 13:0.38 14:0.07 
0.27308051179955301 0 0 0.20414355286703892 0.86752124680062048 0 0 0.17754117481977469 0 1:0.777778 2:0.333333 3:0.959596 4:0.868687 5:1 6:1 7:0.818182 8:0.585859 9:0.626263 10:0.666667 11:0.39 12:0.55 13:0.15 14:0.11 
0 0.14451098422371114 0 0 0 0 0.11294720624643283 0 0 1:0.191919 2:0.909091 3:0.606061 4:1 5:0.707071 6:0.777778 7:0.585859 8:0.505051 9:1 10:0.333333 11:0.86 12:0.11 13:0.37 14:0.01 
0.27308051179955301 0 0 0 0 0 0 0 0 1:0.414141 2:0.89899 3:0.909091 4:1 5:1 6:0.757576 7:0.555556 8:0.565657 9:0.858586 10:0.484848 11:0.89 12:0.17 13:0.46 14:0.12 
0.27308051179955301 0.14451098422371114 0 0.20414355286703892 0.86752124680062048 0 0 0.17754117481977469 0 1:0.535354 2:0.858586 3:0.838384 4:1 5:1 6:0.787879 7:0.707071 8:0.585859 9:0.555556 10:0.333333 11:0.62 12:0.09 13:0.22 14:0.15 
0.27308051179955301 0 0 0.20414355286703892 0.86752124680062048 0 0 0 0 1:0.444444 2:0.838384 3:0.727273 4:1 5:1 6:0.979798 7:0.818182 8:0.717172 9:0.686869 10:0.424242 11:0.61 12:0.14 13:0.31 14:0.02 
0 0.14451098422371114 0.76693211709212883 0 0 0.21040934442825179 0.11294720624643283 0.17754117481977469 0.14463596667326714 1:0.0606061 2:0.888889 3:0.535354 4:1 5:0.686869 6:0.757576 7:0.393939 8:0.515152 9:0.909091 10:0.444444 11:1 12:0.19 13:0.52 14:0.06 
0 0.14451098422371114 0 0.20414355286703892 0 0.21040934442825179 0.11294720624643283 0.17754117481977469 0.14463596667326714 1:0.0505051 2:0.848485 3:0.545455 4:1 5:0.69697 6:0.808081 7:0.313131 8:0.545455 9:0.676768 10:0.424242 11:1 12:0.2 13:0.56 14:0.01 
0.27308051179955301 0 0 0.20414355286703892 0.86752124680062048 0 0 0.17754117481977469 0 1:0.141414 2:0.717172 3:0.464646 4:1 5:0.878788 6:0.888889 7:0.515152 8:0.59596 9:0.747475 10:0.343434 11:1 12:0.07 13:0.5 14:0.11 
0 0 0.76693211709212883 0 0.86752124680062048 0 0 0 0 1:0.565657 2:0.818182 3:0.575758 4:1 5:0.959596 6:0.89899 7:0.717172 8:0.606061 9:1 10:0.444444 11:0.86 12:0.15 13:0.44 14:0.04 
0.27308051179955301 0.14451098422371114 0.76693211709212883 0.20414355286703892 0.86752124680062048 0.21040934442825179 0.11294720624643283 0.17754117481977469 0.14463596667326714 1:0.818182 2:0.393939 3:1 4:0.79798 5:0.79798 6:0.424242 7:0.525253 8:0.535354 9:0.444444 10:1 11:0.25 12:0.63 13:0.03 14:0.04 
0 0.14451098422371114 0 0.20414355286703892 0 0.21040934442825179 0.11294720624643283 0.17754117481977469 0.14463596667326714 1:0.10101 2:0.909091 3:0.40404 4:1 5:0.636364 6:0.787879 7:0.525253 8:0.494949 9:0.838384 10:0.282828 11:1 12:0.08 13:0.51 14:0.02 
0 0.14451098422371114 0.76693211709212883 0 0 0.21040934442825179 0.11294720624643283 0.17754117481977469 0.14463596667326714 1:0.181818 2:0.707071 3:0.292929 4:1 5:0.777778 6:0.888889 7:0.494949 8:0.646465 9:0.808081 10:0.454545 11:1 12:0.17 13:0.56 14:0.03 
0.27308051179955301 0 0 0.1531076646502792 0.86752124680062048 0 0 0 0 1:0.383838 2:0.828283 3:0.575758 4:1 5:1 6:0.89899 7:0.79798 8:0.626263 9:0.939394 10:0.363636 11:0.8 12:0.09 13:0.35 14:0.17 
0.27308051179955301 0 0 0.20414355286703892 0.86752124680062048 0 0.11294720624643283 0.17754117481977469 0 1:0.131313 2:0.757576 3:0.484848 4:1 5:0.89899 6:0.838384 7:0.727273 8:0.515152 9:0.676768 10:0.383838 11:1 12:0.17 13:0.54 14:0.08 
0 0.14451098422371114 0 0 0 0 0.11294720624643283 0.17754117481977469 0 1:0.444444 2:0.79798 3:0.686869 4:1 5:0.848485 6:0.747475 7:0.565657 8:0.525253 9:1 10:0.444444 11:0.81 12:0.14 13:0.33 14:0.14 
0.27308051179955301 0.14451098422371114 0.76693211709212883 0.20414355286703892 0.86752124680062048 0.21040934442825179 0.11294720624643283 0.17754117481977469 0.14463596667326714 1:0.818182 2:0.373737 3:1 4:0.787879 5:0.838384 6:0.454545 7:0.555556 8:0.59596 9:0.373737 10:1 11:0.18 12:0.56 13:0.12 14:0.06 
0.27308051179955301 0.14451098422371114 0.76693211709212883 0.20414355286703892 0.86752124680062048 0.21040934442825179 0.11294720624643283 0.17754117481977469 0.14463596667326714 1:0.858586 2:0.292929 3:1 4:0.646465 5:0.888889 6:0.494949 7:0.59596 8:0.737374 9:0.363636 10:1 11:0.14 12:0.55 13:0.09 
0 0.14451098422371114 0.76693211709212883 0 0 0 0 0 0 1:0.565657 2:0.818182 3:0.808081 4:1 5:0.838384 6:0.777778 7:0.565657 8:0.565657 9:1 10:0.505051 11:0.86 12:0.2 13:0.47 14:0.02 
0.27308051179955301 0 0 0.20414355286703892 0.86752124680062048 0.21040934442825179 0 0.17754117481977469 0.14463596667326714 1:0.424242 2:0.818182 3:0.59596 4:1 5:1 6:0.909091 7:0.737374 8:0.676768 9:0.59596 10:0.494949 11:0.77 12:0.26 13:0.41 14:0.1 
0 0.14451098422371114 0.76693211709212883 0 0.86752124680062048 0 0.11294720624643283 0 0 1:0.414141 2:0.787879 3:0.666667 4:1 5:0.777778 6:0.787879 7:0.707071 8:0.59596 9:1 10:0.383838 11:0.85 12:0.1 13:0.41 14:0.14 
0 0.14451098422371114 0.76693211709212883 0 0 0.21040934442825179 0.11294720624643283 0.17754117481977469 0.14463596667326714 1:0.393939 2:0.838384 3:0.606061 4:1 5:0.868687 6:0.828283 7:0.525253 8:0.59596 9:0.959596 10:0.464646 11:1 12:0.23 13:0.55 14:0.05 
0 0 0.76693211709212883 0.20414355286703892 0.86752124680062048 0 0 0 0 1:0.282828 2:0.818182 3:0.434343 4:1 5:0.929293 6:0.919192 7:0.676768 8:0.626263 9:0.767677 10:0.393939 11:1 12:0.13 13:0.53 14:0.04 
0.068828746882248409 0.14451098422371114 0 0 0.86752124680062048 0 0 0 0 1:0.40404 2:0.777778 3:0.676768 4:1 5:0.777778 6:0.828283 7:0.69697 8:0.565657 9:1 10:0.333333 11:0.82 12:0.05 13:0.41 14:0.09 
0 0 0.76693211709212883 0 0.86752124680062048 0 0.11294720624643283 0 0.14463596667326714 1:0.242424 2:0.747475 3:0.363636 4:0.979798 5:0.919192 6:1 7:1 8:0.747475 9:0.676768 10:0.505051 11:0.97 12:0.27 13:0.51 14:0.09 
0.27308051179955301 0 0 0.20414355286703892 0.86752124680062048 0 0 0.17754117481977469 0 1:0.313131 2:0.79798 3:0.707071 4:1 5:1 6:0.848485 7:0.616162 8:0.606061 9:0.777778 10:0.494949 11:0.83 12:0.14 13:0.4 14:0.2 
0.27308051179955301 0.14451098422371114 0.76693211709212883 0.20414355286703892 0.86752124680062048 0 0 0 0 1:0.818182 2:0.939394 3:1 4:1 5:0.959596 6:0.787879 7:0.89899 8:0.545455 9:0.989899 10:0.292929 11:0.74 12:0.11 13:0.37 14:0.06 
0 0 0.76693211709212883 0.20414355286703892 0 0.21040934442825179 0.11294720624643283 0.17754117481977469 0.14463596667326714 1:0.0606061 2:0.959596 3:0.585859 4:1 5:1 6:0.888889 7:0.646465 8:0.666667 9:0.707071 10:0.515152 11:0.92 12:0.31 13:0.52 14:0.12 
0.27308051179955301 0 0 0.20414355286703892 0.86752124680062048 0 0 0 0 1:0.676768 2:0.89899 3:1 4:1 5:1 6:0.79798 7:0.787879 8:0.585859 9:0.707071 10:0.343434 11:0.73 12:0.11 13:0.39 14:0.03 
0.27308051179955301 0 0.76693211709212883 0.20414355286703892 0.86752124680062048 0 0.11294720624643283 0.17754117481977469 0.14463596667326714 1:0.0606061 2:0.777778 3:0.323232 4:0.959596 5:0.888889 6:1 7:1 8:0.79798 9:0.636364 10:0.59596 11:0.74 12:0.36 13:0.46 14:0.14 
0.27308051179955301 0 0.76693211709212883 0.20414355286703892 0.86752124680062048 0.21040934442825179 0.11294720624643283 0.17754117481977469 0.14463596667326714 1:0.151515 2:0.777778 3:0.434343 4:1 5:0.949495 6:0.949495 7:0.747475 8:0.656566 9:0.505051 10:0.424242 11:1 12:0.31 13:0.59 14:0.09 
0.27308051179955301 0.14451098422371114 0.76693211709212883 0.20414355286703892 0.86752124680062048 0.21040934442825179 0.11294720624643283 0.17754117481977469 0.14463596667326714 1:0.949495 2:0.474747 3:1 4:0.919192 5:0.848485 6:0.545455 7:0.606061 8:0.777778 9:0.333333 10:1 11:0.05 12:0.48 13:0.03 14:0.15 
0.27308051179955301 0.14451098422371114 0 0.20414355286703892 0.86752124680062048 0.21040934442825179 0.11294720624643283 0.17754117481977469 0.14463596667326714 1:0.747475 2:0.242424 3:1 4:0.89899 5:0.828283 6:0.444444 7:0.555556 8:0.585859 9:0.464646 10:1 11:0.18 12:0.43 13:0.06 14:0.19 
0.27308051179955301 0 0 0.20414355286703892 0.86752124680062048 0 0 0 0 1:0.363636 2:0.747475 3:0.676768 4:1 5:1 6:0.828283 7:0.717172 8:0.535354 9:0.676768 10:0.444444 11:0.86 12:0.18 13:0.45 14:0.09 
0.27308051179955301 0 0 0 0.86752124680062048 0 0 0 0 1:0.59596 2:0.818182 3:0.707071 4:1 5:1 6:0.868687 7:0.727273 8:0.59596 9:1 10:0.353535 11:0.79 12:0.08 13:0.37 14:0.17 
0 0.14451098422371114 0.76693211709212883 0 0 0.21040934442825179 0.11294720624643283 0.17754117481977469 0.14463596667326714 1:0.030303 2:0.838384 3:0.494949 4:1 5:0.565657 6:0.787879 7:0.383838 8:0.515152 9:0.89899 10:0.40404 11:1 12:0.15 13:0.52 14:0.05 
0.27308051179955301 0.14451098422371114 0.76693211709212883 0.20414355286703892 0.86752124680062048 0.21040934442825179 0.11294720624643283 0.17754117481977469 0.14463596667326714 1:0.767677 2:0.282828 3:1 4:0.777778 5:0.868687 6:0.545455 7:0.585859 8:0.666667 9:0.494949 10:1 11:0.23 12:0.66 13:0.12 14:0.07 
0 0.14451098422371114 0.76693211709212883 0 0 0 0 0 0 1:0.474747 2:0.858586 3:0.636364 4:1 5:0.939394 6:0.79798 7:0.575758 8:0.535354 9:1 10:0.515152 11:0.87 12:0.19 13:0.43 14:0.07 
0 0.14451098422371114 0.76693211709212883 0 0 0.21040934442825179 0.11294720624643283 0.17754117481977469 0.14463596667326714 1:0.40404 2:0.979798 3:0.818182 4:1 5:0.646465 6:0.707071 7:0.565657 8:0.606061 9:1 10:0.474747 11:0.87 12:0.17 13:0.45 14:0.07 
0.27308051179955301 0 0 0.20414355286703892 0.86752124680062048 0 0 0 0 1:0.454545 2:0.777778 3:0.484848 4:1 5:1 6:0.929293 7:0.777778 8:0.646465 9:0.858586 10:0.383838 11:0.87 12:0.1 13:0.36 14:0.19 
0.27308051179955301 0 0 0.20414355286703892 0.86752124680062048 0 0 0 0 1:0.333333 2:0.868687 3:0.69697 4:1 5:1 6:0.919192 7:0.828283 8:0.666667 9:0.727273 10:0.393939 11:0.77 12:0.14 13:0.41 14:0.01 
0.27308051179955301 0 0 0.20414355286703892 0.86752124680062048 0 0 0 0 1:0.282828 2:0.757576 3:0.515152 4:1 5:1 6:0.959596 7:0.858586 8:0.69697 9:0.575758 10:0.454545 11:0.55 12:0.29 13:0.51 14:0.05 
0 0 0 0 0 0 0.11294720624643283 0 0 1:0.0808081 2:0.858586 3:0.525253 4:1 5:0.959596 6:0.808081 7:0.636364 8:0.545455 9:0.929293 10:0.474747 11:1 12:0.18 13:0.51 14:0.11 
0.27308051179955301 0 0.76693211709212883 0 0.86752124680062048 0 0.11294720624643283 0.17754117481977469 0.14463596667326714 1:0.747475 2:0.232323 3:1 4:0.636364 5:0.949495 6:0.565657 7:0.656566 8:0.959596 9:0.494949 10:1 11:0.19 12:0.64 13:0.22 14:0.03 
0.27308051179955301 0.14451098422371114 0.76693211709212883 0.20414355286703892 0.86752124680062048 0.21040934442825179 0.11294720624643283 0.17754117481977469 0.14463596667326714 1:0.848485 2:0.373737 3:1 4:0.878788 5:0.939394 6:0.858586 7:0.666667 8:0.636364 9:0.40404 10:1 11:0.21 12:0.82 13:0.3 14:0.01 
0.27308051179955301 0.14451098422371114 0.76693211709212883 0.20414355286703892 0.86752124680062048 0.21040934442825179 0.11294720624643283 0.17754117481977469 0.14463596667326714 1:0.444444 2:0.747475 3:0.212121 4:0.989899 5:0.69697 6:1 7:1 8:0.79798 9:0.616162 10:0.494949 11:0.88 12:0.23 13:0.48 14:0.08 
0 0.14451098422371114 0.76693211709212883 0 0 0.21040934442825179 0.11294720624643283 0.17754117481977469 0.14463596667326714 1:0.030303 2:0.808081 3:0.343434 4:1 5:0.444444 6:0.747475 7:0.242424 8:0.555556 9:0.818182 10:0.525253 11:1 12:0.25 13:0.57 14:0.06 
0 0.14451098422371114 0 0.20414355286703892 0 0.21040934442825179 0.11294720624643283 0.17754117481977469 0.14463596667326714 1:0.151515 2:0.888889 3:0.424242 4:1 5:0.858586 6:0.888889 7:0.555556 8:0.606061 9:0.787879 10:0.323232 11:1 12:0.05 13:0.49 14:0.11 
0 0 0.76693211709212883 0 0 0 0.11294720624643283 0.17754117481977469 0.14463596667326714 1:0.363636 2:0.808081 3:0.424242 4:1 5:0.959596 6:0.868687 7:0.606061 8:0.606061 9:0.858586 10:0.464646 11:1 12:0.16 13:0.48 14:0.14 
0 0.14451098422371114 0 0 0 0.21040934442825179 0 0 0 1:0.353535 2:0.89899 3:0.858586 4:1 5:0.868687 6:0.727273 7:0.464646 8:0.484848 9:0.919192 10:0.434343 11:1 12:0.16 13:0.53 14:0.01 
0.27308051179955301 0 0.76693211709212883 0.20414355286703892 0.86752124680062048 0 0.044678063865229725 0.17754117481977469 0.14463596667326714 1:0.828283 2:0.363636 3:1 4:0.838384 5:0.979798 6:0.757576 7:0.757576 8:0.79798 9:0.434343 10:1 11:0.13 12:0.62 13:0.15 14:0.04 
0 0.14451098422371114 0 0.20414355286703892 0 0.21040934442825179 0.11294720624643283 0.17754117481977469 0.14463596667326714 1:0.141414 2:0.787879 3:0.494949 4:1 5:0.737374 6:0.777778 7:0.383838 8:0.515152 9:0.818182 10:0.414141 11:1 12:0.14 13:0.54 14:0.04 
0.27308051179955301 0 0.76693211709212883 0.20414355286703892 0.86752124680062048 0.21040934442825179 0.11294720624643283 0.17754117481977469 0.14463596667326714 1:0.707071 2:0.393939 3:0.909091 4:0.848485 5:1 6:0.919192 7:0.747475 8:0.676768 9:0.474747 10:1 11:0.22 12:0.7 13:0.03 14:0.22 
0.27308051179955301 0 0 0.20414355286703892 0.86752124680062048 0.21040934442825179 0 0 0 1:0.414141 2:0.89899 3:0.737374 4:1 5:1 6:0.868687 7:0.69697 8:0.69697 9:0.454545 10:0.494949 11:0.56 12:0.19 13:0.35 14:0.05 
0.27308051179955301 0.14451098422371114 0.76693211709212883 0.20414355286703892 0.86752124680062048 0.21040934442825179 0.11294720624643283 0.17754117481977469 0.14463596667326714 1:0.818182 2:0.454545 3:1 4:0.878788 5:0.909091 6:0.444444 7:0.676768 8:0.484848 9:0.424242 10:1 11:0.25 12:0.83 13:0.06 14:0.23 
0 0.14451098422371114 0.76693211709212883 0.20414355286703892 0 0.21040934442825179 0.11294720624643283 0.17754117481977469 0.14463596667326714 1:0.010101 2:0.828283 3:0.313131 4:1 5:0.686869 6:0.838384 7:0.40404 8:0.585859 9:0.757576 10:0.393939 11:1 12:0.15 13:0.54 14:0.1 
0 0.14451098422371114 0.76693211709212883 0 0 0.21040934442825179 0 0.17754117481977469 0 1:0.373737 2:0.888889 3:0.838384 4:1 5:0.787879 6:0.727273 7:0.454545 8:0.484848 9:0.909091 10:0.414141 11:1 12:0.16 13:0.52 14:0.07 
0.27308051179955301 0 0 0 0 0 0 0 0 1:0.515152 2:0.79798 3:0.838384 4:1 5:1 6:0.747475 7:0.575758 8:0.525253 9:0.909091 10:0.474747 11:0.89 12:0.1 13:0.44 14:0.16 
0.27308051179955301 0 0.76693211709212883 0 0.86752124680062048 0 0.11294720624643283 0.17754117481977469 0.14463596667326714 1:0.646465 2:0.010101 3:0.939394 4:0.575758 5:1 6:0.979798 7:0.878788 8:0.717172 9:0.585859 10:1 11:0.28 12:0.69 13:0.05 14:0.24 
0.27308051179955301 0 0 0.20414355286703892 0.86752124680062048 0 0 0 0 1:0.222222 2:0.757576 3:0.515152 4:1 5:1 6:0.979798 7:0.787879 8:0.707071 9:0.626263 10:0.494949 11:0.82 12:0.19 13:0.49 14:0.07 
0.27308051179955301 0.14451098422371114 0.76693211709212883 0.20414355286703892 0.86752124680062048 0.21040934442825179 0.11294720624643283 0.17754117481977469 0.14463596667326714 1:0.939394 2:0.454545 3:1 4:0.676768 5:0.79798 6:0.585859 7:0.59596 8:0.929293 9:0.40404 10:1 11:0.15 12:0.62 13:0.14 14:0.02 
0.27308051179955301 0.14451098422371114 0 0.20414355286703892 0.86752124680062048 0.21040934442825179 0 0.17754117481977469 0 1:0.848485 2:0.424242 3:1 4:1 5:0.949495 6:0.848485 7:0.737374 8:0.434343 9:0.565657 10:0.323232 11:0.37 12:0.5 13:0.16 14:0.09 
0.27308051179955301 0.14451098422371114 0.76693211709212883 0.20414355286703892 0.86752124680062048 0.21040934442825179 0.11294720624643283 0.17754117481977469 0.14463596667326714 1:0.858586 2:0.323232 3:1 4:0.59596 5:0.808081 6:0.575758 7:0.585859 8:0.959596 9:0.434343 10:1 11:0.14 12:0.62 13:0.2 14:0.06 
0 0.14451098422371114 0.76693211709212883 0.20414355286703892 0 0.21040934442825179 0.11294720624643283 0.17754117481977469 0.14463596667326714 1:0.212121 2:0.747475 3:0.464646 4:1 5:0.737374 6:0.818182 7:0.464646 8:0.525253 9:0.838384 10:0.434343 11:1 12:0.17 13:0.54 14:0.09 
0.27308051179955301 0 0.76693211709212883 0.20414355286703892 0.86752124680062048 0.21040934442825179 0.11294720624643283 0.17754117481977469 0.14463596667326714 1:0.171717 2:0.727273 3:0.282828 4:1 5:0.919192 6:0.979798 7:0.606061 8:0.707071 9:0.545455 10:0.484848 11:1 12:0.24 13:0.65 14:0.02 
0 0.14451098422371114 0.76693211709212883 0 0 0 0.11294720624643283 0 0 1:0.454545 2:0.888889 3:0.626263 4:1 5:0.959596 6:0.777778 7:0.585859 8:0.525253 9:1 10:0.464646 11:1 12:0.18 13:0.5 14:0.09 
0.27308051179955301 0 0 0 0 0 0 0 0 1:0.626263 2:0.919192 3:1 4:1 5:0.989899 6:0.757576 7:0.666667 8:0.545455 9:0.909091 10:0.333333 11:0.96 12:0.1 13:0.48 14:0.04 
0.27308051179955301 0 0 0.20414355286703892 0.86752124680062048 0 0 0.10212445606180454 0 1:0.434343 2:0.717172 3:0.686869 4:1 5:1 6:0.858586 7:0.666667 8:0.606061 9:0.757576 10:0.484848 11:0.77 12:0.13 13:0.37 14:0.19 
0.27308051179955301 0 0 0.20414355286703892 0.86752124680062048 0 0 0.17754117481977469 0 1:0.343434 2:0.767677 3:0.434343 4:1 5:1 6:0.989899 7:0.707071 8:0.686869 9:0.79798 10:0.383838 11:0.9 12:0.07 13:0.33 14:0.24 
0 0 0 0.20414355286703892 0.86752124680062048 0 0.11294720624643283 0.17754117481977469 0 1:0.161616 2:0.636364 3:0.373737 4:1 5:0.979798 6:0.939394 7:0.626263 8:0.616162 9:0.666667 10:0.484848 11:1 12:0.15 13:0.42 14:0.17 
0.27308051179955301 0.14451098422371114 0.76693211709212883 0.20414355286703892 0.86752124680062048 0 0.11294720624643283 0.17754117481977469 0.14463596667326714 1:0.545455 2:0.878788 3:0.828283 4:1 5:0.707071 6:0.69697 7:0.888889 8:0.676768 9:1 10:0.30303 11:0.74 12:0.01 13:0.33 14:0.24 
0.27308051179955301 0 0 0.20414355286703892 0 0 0 0 0 1:0.575758 2:0.878788 3:0.959596 4:1 5:1 6:0.818182 7:0.808081 8:0.565657 9:0.878788 10:0.292929 11:0.85 12:0.07 13:0.42 14:0.05 
0.27308051179955301 0 0.76693211709212883 0.20414355286703892 0.86752124680062048 0 0.11294720624643283 0.17754117481977469 0.14463596667326714 1:0.656566 2:0.020202 3:0.929293 4:0.515152 5:1 6:1 7:0.909091 8:0.838384 9:0.646465 10:0.444444 11:0.46 12:0.27 13:0.21 14:0.65 
0.27308051179955301 0 0.76693211709212883 0.20414355286703892 0.86752124680062048 0 0.11294720624643283 0.17754117481977469 0.14463596667326714 1:0.252525 2:0.79798 3:0.525253 4:1 5:1 6:0.979798 7:0.929293 8:0.757576 9:0.545455 10:0.585859 11:0.71 12:0.37 13:0.37 14:0.17 
0.27308051179955301 0.14451098422371114 0.76693211709212883 0.20414355286703892 0.86752124680062048 0.21040934442825179 0.11294720624643283 0.17754117481977469 0.14463596667326714 1:0.888889 2:0.313131 3:1 4:0.69697 5:0.969697 6:0.727273 7:0.69697 8:0.666667 9:0.424242 10:1 11:0.27 12:0.9 13:0.05 14:0.52 
0 0.14451098422371114 0.76693211709212883 0 0 0.21040934442825179 0.11294720624643283 0.17754117481977469 0.14463596667326714 1:0.161616 2:0.777778 3:0.454545 4:1 5:0.747475 6:0.838384 7:0.434343 8:0.565657 9:0.939394 10:0.414141 11:1 12:0.12 13:0.51 14:0.13 
0.27308051179955301 0.14451098422371114 0.76693211709212883 0.20414355286703892 0.86752124680062048 0.21040934442825179 0.11294720624643283 0.17754117481977469 0.14463596667326714 1:1 2:0.474747 3:0.989899 4:0.585859 5:0.767677 6:0.606061 7:0.535354 8:0.909091 9:0.343434 10:1 11:0.15 12:0.59 13:0.01 14:0.11 
0.27308051179955301 0.14451098422371114 0 0 0 0 0 0.17754117481977469 0 1:0.40404 2:0.79798 3:0.727273 4:1 5:0.919192 6:0.757576 7:0.565657 8:0.494949 9:1 10:0.393939 11:0.86 12:0.09 13:0.37 14:0.23 
0.27308051179955301 0.14451098422371114 0 0.20414355286703892 0 0.21040934442825179 0 0.17754117481977469 0 1:0.191919 2:0.888889 3:0.585859 4:1 5:0.878788 6:0.747475 7:0.545455 8:0.494949 9:0.636364 10:0.30303 11:1 12:0.08 13:0.53 14:0.02 
0 0.14451098422371114 0.76693211709212883 0 0 0 0.11294720624643283 0 0.14463596667326714 1:0.181818 2:0.737374 3:0.424242 4:1 5:0.69697 6:0.79798 7:0.525253 8:0.525253 9:1 10:0.414141 11:0.98 12:0.12 13:0.5 14:0.04 
0 0 0.76693211709212883 0 0 0 0.11294720624643283 0.17754117481977469 0.14463596667326714 1:0.020202 2:0.737374 3:0.323232 4:1 5:0.808081 6:0.919192 7:0.505051 8:0.636364 9:0.848485 10:0.464646 11:1 12:0.16 13:0.53 14:0.09 
0 0 0.76693211709212883 0 0.86752124680062048 0 0 0 0 1:0.343434 2:0.777778 3:0.494949 4:1 5:1 6:0.909091 7:0.777778 8:0.606061 9:0.878788 10:0.464646 11:0.95 12:0.16 13:0.47 14:0.07 
0.27308051179955301 0 0 0.20414355286703892 0 0.21040934442825179 0 0 0 1:0.323232 2:0.888889 3:0.737374 4:1 5:0.929293 6:0.808081 7:0.535354 8:0.59596 9:0.737374 10:0.373737 11:1 12:0.16 13:0.56 
0.27308051179955301 0.14451098422371114 0 0.20414355286703892 0.86752124680062048 0 0 0 0 1:0.606061 2:0.909091 3:0.878788 4:1 5:1 6:0.808081 7:0.777778 8:0.606061 9:0.626263 10:0.373737 11:0.6 12:0.14 13:0.34 14:0.01 
0 0.14451098422371114 0.76693211709212883 0 0 0.21040934442825179 0.11294720624643283 0.17754117481977469 0.14463596667326714 1:0.494949 2:0.838384 3:0.656566 4:1 5:0.747475 6:0.747475 7:0.505051 8:0.505051 9:1 10:0.414141 11:0.97 12:0.13 13:0.49 14:0.07 
0.27308051179955301 0 0 0 0 0 0 0 0 1:0.434343 2:0.79798 3:0.79798 4:1 5:1 6:0.848485 7:0.717172 8:0.585859 9:0.919192 10:0.373737 11:0.93 12:0.14 13:0.49 14:0.03 
0.27308051179955301 0 0 0.20414355286703892 0 0.21040934442825179 0 0 0 1:0.0909091 2:0.868687 3:0.575758 4:1 5:0.919192 6:0.838384 7:0.636364 8:0.575758 9:0.616162 10:0.353535 11:1 12:0.17 13:0.55 14:0.01 
0.27308051179955301 0 0 0.20414355286703892 0 0.21040934442825179 0 0.17754117481977469 0.14463596667326714 1:0.0808081 2:0.959596 3:0.717172 4:1 5:0.959596 6:0.767677 7:0.40404 8:0.585859 9:0.565657 10:0.454545 11:1 12:0.23 13:0.68 14:0.05 
0 0 0.76693211709212883 0 0 0 0 0 0 1:0.343434 2:0.858586 3:0.666667 4:1 5:1 6:0.838384 7:0.565657 8:0.656566 9:0.949495 10:0.434343 11:0.96 12:0.12 13:0.48 14:0.11 
0.27308051179955301 0.14451098422371114 0.76693211709212883 0.20414355286703892 0.86752124680062048 0.21040934442825179 0.11294720624643283 0.17754117481977469 0.14463596667326714 1:0.848485 2:0.323232 3:1 4:0.818182 5:0.79798 6:0.505051 7:0.555556 8:0.666667 9:0.444444 10:1 11:0.17 12:0.53 13:0.11 14:0.2 
0.27308051179955301 0.14451098422371114 0 0.20414355286703892 0.86752124680062048 0 0.11294720624643283 0.17754117481977469 0.14463596667326714 1:0.686869 2:0.282828 3:1 4:0.767677 5:0.969697 6:0.383838 7:0.636364 8:0.606061 9:0.373737 10:1 11:0.1 12:0.47 13:0.02 14:0.15 
0 0.14451098422371114 0.42866031947615146 0 0 0.21040934442825179 0 0 0 1:0.313131 2:0.878788 3:0.646465 4:1 5:0.828283 6:0.757576 7:0.494949 8:0.545455 9:0.939394 10:0.373737 11:1 12:0.12 13:0.52 14:0.01 
0.27308051179955301 0 0.53000482688900952 0.20414355286703892 0.86752124680062048 0 0 0 0.14463596667326714 1:0.282828 2:0.868687 3:0.656566 4:1 5:1 6:0.969697 7:0.737374 8:0.757576 9:0.686869 10:0.515152 11:0.72 12:0.29 13:0.38 14:0.12 
0 0 0 0 0 0 0.11294720624643283 0 0.14463596667326714 1:0.020202 2:0.858586 3:0.333333 4:1 5:0.848485 6:0.888889 7:0.505051 8:0.636364 9:1 10:0.444444 11:0.96 12:0.13 13:0.42 14:0.11 
0.27308051179955301 0 0.76693211709212883 0 0.86752124680062048 0 0 0 0.14463596667326714 1:0.787879 2:0.262626 3:1 4:0.838384 5:0.989899 6:0.818182 7:0.747475 8:0.838384 9:0.515152 10:1 11:0.28 12:0.55 13:0.11 14:0.02 
0.27308051179955301 0 0 0.20414355286703892 0.86752124680062048 0.21040934442825179 0 0.17754117481977469 0 1:0.242424 2:0.787879 3:0.585859 4:1 5:1 6:0.878788 7:0.626263 8:0.626263 9:0.343434 10:0.40404 11:0.8 12:0.21 13:0.54 14:0.06 
0 0 0.76693211709212883 0 0.86752124680062048 0 0.11294720624643283 0 0 1:0.222222 2:0.666667 3:0.30303 4:0.939394 5:0.89899 6:1 7:0.79798 8:0.747475 9:0.757576 10:0.434343 11:1 12:0.14 13:0.56 14:0.05 
0.27308051179955301 0.14451098422371114 0.76693211709212883 0.20414355286703892 0.86752124680062048 0.21040934442825179 0.11294720624643283 0.17754117481977469 0.14463596667326714 1:0.888889 2:0.0909091 3:1 4:0.454545 5:0.818182 6:0.10101 7:0.575758 8:0.313131 9:0.494949 10:0.939394 11:0.43 12:1 13:0.18 14:0.52 
0 0 0 0 0.86752124680062048 0 0 0 0 1:0.111111 2:0.969697 3:0.555556 4:1 5:0.969697 6:0.868687 7:1 8:0.626263 9:0.949495 10:0.383838 11:0.82 12:0.1 13:0.41 14:0.12 
0 0.14451098422371114 0 0.20414355286703892 0 0.21040934442825179 0 0.17754117481977469 0.14463596667326714 1:0.232323 2:0.989899 3:0.767677 4:1 5:0.949495 6:0.69697 7:0.434343 8:0.505051 9:0.727273 10:0.464646 11:1 12:0.18 13:0.55 14:0.08 
0 0.14451098422371114 0 0.20414355286703892 0.86752124680062048 0 0 0.17754117481977469 0 1:0.383838 2:0.838384 3:0.636364 4:1 5:0.828283 6:0.767677 7:0.707071 8:0.525253 9:1 10:0.30303 11:0.8 12:0.06 13:0.31 14:0.18 
0 0 0 0.20414355286703892 0 0.21040934442825179 0.11294720624643283 0.17754117481977469 0.14463596667326714 1:0.0505051 2:0.969697 3:0.626263 4:1 5:0.949495 6:0.787879 7:0.474747 8:0.59596 9:0.666667 10:0.515152 11:1 12:0.28 13:0.56 14:0.08 
0 0.14451098422371114 0.76693211709212883 0 0 0.21040934442825179 0.11294720624643283 0 0.14463596667326714 1:0.525253 2:0.919192 3:0.747475 4:1 5:0.717172 6:0.707071 7:0.636364 8:0.59596 9:1 10:0.434343 11:0.78 12:0.15 13:0.32 14:0.1 
0.27308051179955301 0.14451098422371114 0.76693211709212883 0 0.86752124680062048 0 0.11294720624643283 0 0.14463596667326714 1:0.909091 2:0.373737 3:1 4:0.808081 5:0.909091 6:0.666667 7:0.616162 8:1 9:0.393939 10:0.979798 11:0.16 12:0.51 13:0.05 
0.27308051179955301 0.14451098422371114 0.76693211709212883 0.20414355286703892 0.86752124680062048 0.21040934442825179 0.11294720624643283 0.17754117481977469 0.14463596667326714 1:0.878788 2:0.292929 3:1 4:0.676768 5:0.89899 6:0.59596 7:0.616162 8:0.717172 9:0.363636 10:1 11:0.16 12:0.7 13:0.27 14:0.01 
0.27308051179955301 0 0.76693211709212883 0.20414355286703892 0.86752124680062048 0.21040934442825179 0.11294720624643283 0.17754117481977469 0.14463596667326714 1:0.292929 2:0.777778 3:0.40404 4:1 5:1 6:0.828283 7:0.585859 8:0.616162 9:0.393939 10:0.555556 11:0.85 12:0.3 13:0.62 14:0.09 
0 0 0.76693211709212883 0 0.86752124680062048 0 0.11294720624643283 0.17754117481977469 0.14463596667326714 1:0.222222 2:0.727273 3:0.292929 4:1 5:0.79798 6:0.929293 7:0.59596 8:0.606061 9:0.89899 10:0.434343 11:1 12:0.1 13:0.5 14:0.15 
0.27308051179955301 0 0 0.20414355286703892 0.86752124680062048 0.21040934442825179 0 0.17754117481977469 0 1:0.414141 2:0.838384 3:0.69697 4:1 5:1 6:0.868687 7:0.686869 8:0.646465 9:0.545455 10:0.424242 11:0.86 12:0.23 13:0.51 14:0.05 
0.27308051179955301 0.14451098422371114 0.76693211709212883 0.20414355286703892 0.86752124680062048 0.21040934442825179 0.11294720624643283 0.17754117481977469 0.14463596667326714 1:0.848485 2:0.373737 3:1 4:0.59596 5:0.848485 6:0.333333 7:0.585859 8:0.757576 9:0.494949 10:1 11:0.26 12:0.68 13:0.05 14:0.24 
0 0.14451098422371114 0 0 0 0 0.11294720624643283 0 0.14463596667326714 1:0.131313 2:0.959596 3:0.666667 4:1 5:0.757576 6:0.757576 7:0.525253 8:0.585859 9:1 10:0.393939 11:0.88 12:0.11 13:0.36 14:0.05 
0 0 0.76693211709212883 0 0 0.21040934442825179 0.11294720624643283 0 0.14463596667326714 1:0.141414 2:0.868687 3:0.454545 4:1 5:0.868687 6:0.828283 7:0.484848 8:0.585859 9:0.868687 10:0.464646 11:1 12:0.19 13:0.54 14:0.01 
0.27308051179955301 0.14451098422371114 0 0.20414355286703892 0.86752124680062048 0 0 0 0 1:0.69697 2:0.868687 3:0.959596 4:1 5:1 6:0.767677 7:0.777778 8:0.565657 9:0.757576 10:0.323232 11:0.72 12:0.09 13:0.37 14:0.05 
0.27308051179955301 0 0 0.20414355286703892 0.86752124680062048 0 0 0 0.14463596667326714 1:0.161616 2:0.878788 3:0.555556 4:1 5:1 6:0.989899 7:0.919192 8:0.747475 9:0.606061 10:0.545455 11:0.7 12:0.29 13:0.42 14:0.09 
0 0 0.76693211709212883 0 0 0 0.11294720624643283 0 0.14463596667326714 1:0.10101 2:0.79798 3:0.363636 4:1 5:0.828283 6:0.888889 7:0.494949 8:0.646465 9:1 10:0.535354 11:0.97 12:0.24 13:0.54 14:0.04 
0 0 0.76693211709212883 0 0.86752124680062048 0 0.11294720624643283 0 0.14463596667326714 1:0.030303 2:0.767677 3:0.282828 4:1 5:0.79798 6:0.979798 7:0.676768 8:0.686869 9:0.929293 10:0.454545 11:1 12:0.13 13:0.52 14:0.04 
0.27308051179955301 0.14451098422371114 0.76693211709212883 0 0 0 0 0 0 1:0.535354 2:1 3:0.959596 4:0.929293 5:0.808081 6:0.717172 7:0.767677 8:0.535354 9:1 10:0.292929 11:0.83 12:0.07 13:0.41 14:0.08 
0.27308051179955301 0 0 0.20414355286703892 0.86752124680062048 0 0 0 0 1:0.525253 2:0.727273 3:0.686869 4:1 5:1 6:0.838384 7:0.777778 8:0.525253 9:0.727273 10:0.434343 11:0.9 12:0.16 13:0.46 14:0.12 
0.27308051179955301 0 0 0.20414355286703892 0.86752124680062048 0.15291695253657681 0 0 0.14463596667326714 1:0.141414 2:0.868687 3:0.545455 4:1 5:1 6:0.989899 7:0.838384 8:0.767677 9:0.515152 10:0.565657 11:0.63 12:0.33 13:0.41 14:0.1 
0 0 0.76693211709212883 0 0 0.21040934442825179 0.11294720624643283 0.17754117481977469 0.14463596667326714 1:0.171717 2:0.777778 3:0.525253 4:1 5:0.89899 6:0.808081 7:0.424242 8:0.565657 9:0.89899 10:0.545455 11:1 12:0.22 13:0.52 14:0.16 
0.27308051179955301 0.14451098422371114 0 0 0.86752124680062048 0 0 0.17754117481977469 0.14463596667326714 1:0.393939 2:0.959596 3:0.828283 4:1 5:0.808081 6:0.717172 7:0.727273 8:0.606061 9:1 10:0.343434 11:0.79 12:0.06 13:0.35 14:0.19 
0.27308051179955301 0.14451098422371114 0 0.20414355286703892 0.86752124680062048 0.21040934442825179 0 0.17754117481977469 0 1:0.545455 2:0.818182 3:0.525253 4:1 5:1 6:0.858586 7:0.808081 8:0.585859 9:0.373737 10:0.383838 11:0.78 12:0.24 13:0.54 14:0.03 
0.27308051179955301 0 0 0.20414355286703892 0 0.21040934442825179 0 0.17754117481977469 0 1:0.292929 2:0.878788 3:0.757576 4:1 5:1 6:0.767677 7:0.616162 8:0.494949 9:0.525253 10:0.353535 11:0.94 12:0.17 13:0.51 14:0.03 
0.27308051179955301 0.14451098422371114 0 0.20414355286703892 0 0.21040934442825179 0.11294720624643283 0.17754117481977469 0.14463596667326714 1:0.010101 2:0.858586 3:0.454545 4:1 5:0.616162 6:0.737374 7:0.252525 8:0.474747 9:0.59596 10:0.434343 11:1 12:0.23 13:0.61 14:0.08 
0.27308051179955301 0 0.76693211709212883 0.20414355286703892 0.86752124680062048 0 0 0.17754117481977469 0 1:0.919192 2:0.414141 3:1 4:0.89899 5:1 6:1 7:0.828283 8:0.707071 9:0.626263 10:0.565657 11:0.4 12:0.44 13:0.17 14:0.14 
0 0.14451098422371114 0.76693211709212883 0 0 0 0.11294720624643283 0 0.14463596667326714 1:0.30303 2:0.868687 3:0.585859 4:1 5:0.585859 6:0.686869 7:0.737374 8:0.636364 9:1 10:0.414141 11:0.84 12:0.11 13:0.44 
0.27308051179955301 0.14451098422371114 0.76693211709212883 0 0.86752124680062048 0 0.11294720624643283 0.17754117481977469 0.14463596667326714 1:0.79798 2:0.353535 3:1 4:0.808081 5:0.919192 6:0.484848 7:0.646465 8:0.858586 9:0.525253 10:1 11:0.24 12:0.57 13:0.04 14:0.06 
0 0.14451098422371114 0.76693211709212883 0 0 0.21040934442825179 0.11294720624643283 0 0.14463596667326714 1:0.30303 2:0.808081 3:0.505051 4:1 5:0.828283 6:0.848485 7:0.494949 8:0.616162 9:0.878788 10:0.40404 11:1 12:0.14 13:0.53 14:0.05 
0.27308051179955301 0.14451098422371114 0.76693211709212883 0.20414355286703892 0.86752124680062048 0.21040934442825179 0.11294720624643283 0.17754117481977469 0.14463596667326714 1:0.848485 2:0.424242 3:1 4:0.676768 5:0.868687 6:0.494949 7:0.606061 8:0.919192 9:0.434343 10:1 11:0.14 12:0.55 13:0.08 14:0.08 
0.27308051179955301 0 0 0.20414355286703892 0 0 0 0 0 1:0.606061 2:0.878788 3:1 4:1 5:0.959596 6:0.808081 7:0.747475 8:0.59596 9:0.79798 10:0.353535 11:0.81 12:0.13 13:0.44 14:0.01 
0.27308051179955301 0 0 0.20414355286703892 0.86752124680062048 0.21040934442825179 0.11294720624643283 0.17754117481977469 0.14463596667326714 1:0.191919 2:0.909091 3:0.585859 4:1 5:1 6:0.909091 7:0.838384 8:0.707071 9:0.515152 10:0.525253 11:0.64 12:0.32 13:0.39 14:0.12 
0.27308051179955301 0.14451098422371114 0.76693211709212883 0.20414355286703892 0.86752124680062048 0.21040934442825179 0.11294720624643283 0.17754117481977469 0.14463596667326714 1:0.363636 2:0.888889 3:0.727273 4:1 5:0.575758 6:0.717172 7:0.808081 8:0.585859 9:1 10:0.282828 11:0.75 12:0.02 13:0.3 14:0.23 
