svm_type nu_svc
kernel_type sigmoid
gamma 0.125
coef0 0
nr_class 2
total_sv 176
rho -16.855944689211334
label 1 -1
probA -0.34018772309204365
probB -0.25749439822655085
nr_sv 87 89
SV
360.59558485582517 1:0.588235 2:0.583756 6:0.52608 7:0.0248778 8:0.166667 
360.59558485582517 1:0.588235 2:0.705584 3:0.655738 6:0.403875 7:0.605509 8:0.75 
360.59558485582517 1:0.0588235 2:0.522843 3:0.245902 4:0.633333 5:0.0981087 6:0.645306 7:0.0466459 8:0.25 
360.59558485582517 1:0.176471 2:0.639594 3:0.721311 4:0.683333 5:0.277778 6:0.585693 7:0.278099 8:0.125 
360.59558485582517 1:0.470588 2:0.502538 3:0.688525 6:0.527571 7:0.137717 8:0.604167 
360.59558485582517 1:0.764706 2:0.736041 3:0.672131 4:0.316667 5:0.130024 6:0.33085 7:0.0741892 8:0.75 
360.59558485582517 1:0.294118 2:0.593909 3:0.754098 6:0.508197 7:0.11506 8:0.354167 
360.59558485582517 1:0.294118 2:0.553299 3:0.614754 4:0.433333 6:0.536513 7:0.207908 8:0.8125 
360.59558485582517 1:0.588235 2:0.619289 3:0.639344 4:0.516667 6:0.411326 7:0.192803 8:0.5 
360.59558485582517 1:0.235294 2:0.522843 3:0.491803 4:0.55 5:0.22695 6:0.357675 7:0.394491 8:0.25 
360.59558485582517 1:0.647059 2:0.700508 3:0.622951 6:0.494784 7:0.151932 8:0.291667 
360.59558485582517 1:0.176471 2:0.913706 3:0.52459 4:0.416667 5:0.0827423 6:0.506706 7:0.0857397 8:0.104167 
360.59558485582517 1:0.411765 2:0.675127 3:0.688525 6:0.599106 7:0.274545 8:0.333333 
360.59558485582517 1:0.411765 2:0.807107 3:0.52459 6:0.408346 7:0.0959574 8:0.395833 
360.59558485582517 1:0.411765 2:0.761421 3:0.540984 4:0.7 5:0.404255 6:0.517139 7:0.284318 8:0.4375 
360.59558485582517 2:0.507614 3:0.721311 4:1 5:0.130024 6:0.697466 7:0.392714 8:0.208333 
360.59558485582517 2:0.741117 3:0.672131 6:0.603577 7:0.756553 8:0.479167 
360.59558485582517 2:0.532995 3:0.52459 4:0.683333 5:0.167849 6:0.61848 7:0.0422035 8:0.0208333 
360.59558485582517 1:0.117647 2:0.715736 3:0.47541 4:0.566667 5:0.1513 6:0.37854 7:0.275877 8:0.0625 
360.59558485582517 1:0.117647 2:0.553299 3:0.754098 6:0.636364 7:0.340737 8:0.6875 
360.59558485582517 1:0.235294 2:0.741117 3:0.696721 4:0.45 5:0.118203 6:0.4307 7:0.0493114 8:0.125 
360.59558485582517 1:0.294118 2:0.705584 3:0.52459 4:0.583333 5:0.165485 6:0.42623 7:0.147934 8:0.104167 
360.59558485582517 1:0.235294 2:0.654822 3:0.704918 4:0.333333 5:0.319149 6:0.5231 7:0.0679698 8:0.0416667 
360.59558485582517 1:0.294118 2:0.482234 3:0.590164 4:0.55 6:0.561848 7:0.12972 8:0.125 
270.84012683859902 1:0.411765 2:0.42132 3:0.639344 4:0.433333 5:0.0839243 6:0.436662 7:0.306086 8:0.3125 
297.81744347037875 1:0.117647 2:0.558376 3:0.606557 4:0.483333 5:0.147754 6:0.482861 7:0.275433 8:0.125 
360.59558485582517 1:0.117647 2:0.720812 3:0.672131 4:0.3 5:0.0756501 6:0.368107 7:0.303421 
360.59558485582517 1:0.352941 2:0.730964 3:0.590164 4:0.45 5:0.269504 6:0.505216 7:0.0786317 8:0.395833 
360.59558485582517 1:0.0588235 2:0.639594 3:0.459016 4:0.483333 5:0.179669 6:0.42772 7:0.321191 
360.59558485582517 1:0.235294 2:0.730964 3:0.47541 4:0.466667 5:0.165485 6:0.439642 7:0.0928476 8:0.333333 
360.59558485582517 1:0.352941 2:0.563452 3:0.52459 4:0.65 6:0.509687 7:0.080853 8:0.0625 
360.59558485582517 1:0.294118 2:0.670051 3:0.655738 6:0.399404 7:0.0479787 8:1 
360.59558485582517 1:0.176471 2:0.609137 3:0.57377 4:0.5 5:0.159574 6:0.639344 7:0.166148 8:0.1875 
360.59558485582517 1:0.470588 2:0.426396 3:0.606557 4:0.516667 6:0.57079 7:0.16837 8:0.375 
112.72555417187758 1:0.294118 2:0.532995 3:0.590164 4:0.483333 5:0.384161 6:0.549926 7:0.035984 8:0.145833 
360.59558485582517 1:0.176471 2:0.649746 3:0.639344 6:0.314456 7:0.0844069 8:0.708333 
360.59558485582517 1:0.235294 2:0.781726 3:0.508197 4:0.516667 5:0.335697 6:0.488823 7:0.0706353 8:0.0416667 
360.59558485582517 1:0.117647 2:0.538071 3:0.52459 4:0.583333 5:0.140662 6:0.454545 7:0.587295 8:0.270833 
360.59558485582517 1:0.294118 2:0.746193 3:0.639344 6:0.502235 7:0.0621946 8:0.916667 
360.59558485582517 1:0.0588235 2:0.690355 3:0.606557 4:0.833333 5:0.241135 6:0.557377 7:0.142603 8:0.0625 
360.59558485582517 1:0.0588235 2:0.77665 3:0.672131 4:0.7 5:0.573286 6:0.605067 7:0.270546 8:0.0416667 
194.05262926559305 1:0.235294 2:0.766497 3:0.737705 4:0.633333 6:0.442623 7:0.0959574 8:0.3125 
278.11898756177908 2:0.57868 3:0.655738 4:0.566667 5:0.336879 6:0.658718 7:0.039538 8:0.125 
360.59558485582517 1:0.176471 2:0.751269 3:0.540984 4:0.416667 6:0.484352 7:0.079076 8:0.0208333 
360.59558485582517 1:0.235294 2:0.609137 3:0.557377 6:0.441133 7:0.28032 8:0.270833 
360.59558485582517 1:0.0588235 2:0.401015 3:0.491803 4:0.7 5:0.0567376 6:0.648286 7:0.266548 8:0.0416667 
360.59558485582517 1:0.294118 2:0.725888 3:0.639344 6:0.670641 7:0.0497557 8:0.541667 
360.59558485582517 1:0.235294 2:0.715736 3:0.606557 6:0.411326 7:0.073745 8:0.395833 
360.59558485582517 1:0.529412 2:0.624365 3:0.57377 4:0.733333 5:0.111111 6:0.493294 7:0.131497 8:0.395833 
360.59558485582517 1:0.117647 2:0.741117 3:0.622951 4:0.583333 5:0.229314 6:0.5693 7:0.111506 8:0.166667 
360.59558485582517 1:0.588235 2:0.619289 3:0.557377 6:0.464978 7:0.0799645 8:0.416667 
360.59558485582517 2:0.837563 3:0.737705 4:0.55 5:0.803783 6:0.779434 7:0.155042 8:0.0416667 
360.59558485582517 1:0.529412 2:0.629442 3:0.57377 4:0.55 5:0.475177 6:0.527571 7:0.0906264 8:0.270833 
360.59558485582517 1:0.529412 2:0.538071 3:0.42623 6:0.464978 7:0.134163 8:0.4375 
360.59558485582517 1:0.176471 2:0.563452 3:0.459016 4:0.65 6:0.448584 7:0.212794 8:0.1875 
360.59558485582517 1:0.0588235 2:0.979695 3:0.409836 4:0.266667 5:0.443262 6:0.385991 7:0.256331 8:0.0625 
360.59558485582517 1:0.176471 2:0.969543 3:0.557377 4:0.25 5:0.153664 6:0.460507 7:0.0981786 8:0.270833 
360.59558485582517 1:0.176471 2:0.720812 3:0.655738 4:0.25 6:0.482861 7:0.0541981 8:0.875 
360.59558485582517 1:0.294118 2:0.48731 3:0.606557 4:0.3 5:0.0791962 6:0.500745 7:0.408263 8:0.458333 
360.59558485582517 1:0.117647 2:0.649746 3:0.52459 4:0.7 6:0.596125 7:0.454465 8:0.0625 
360.59558485582517 1:0.764706 2:0.538071 3:0.57377 6:0.509687 7:0.0768547 8:0.645833 
360.59558485582517 1:0.117647 2:0.507614 3:0.57377 4:0.866667 5:0.0673759 6:0.603577 7:0.266104 8:0.0833333 
360.59558485582517 1:0.294118 2:0.57868 3:0.606557 6:0.371088 7:0.295869 8:0.75 
360.59558485582517 1:0.588235 2:0.654822 3:0.622951 4:0.466667 5:0.144208 6:0.535022 7:0.0897379 8:0.375 
360.59558485582517 1:0.411765 2:0.675127 3:0.721311 4:0.25 5:0.183215 6:0.482861 7:0.0817414 8:0.333333 
360.59558485582517 1:0.411765 2:0.690355 3:0.606557 4:0.433333 5:0.159574 6:0.387481 7:0.252777 8:0.625 
360.59558485582517 1:0.294118 2:0.786802 3:0.688525 4:0.733333 5:0.644208 6:0.576751 7:0.240338 8:0.270833 
360.59558485582517 1:0.294118 2:0.548223 3:0.590164 4:0.716667 5:0.0886525 6:0.538003 7:0.0821857 8:0.25 
360.59558485582517 2:0.817259 3:0.409836 6:0.326379 7:0.0781875 8:0.916667 
360.59558485582517 1:0.352941 2:0.766497 3:0.508197 4:0.516667 5:0.141844 6:0.529061 7:0.272768 8:0.145833 
360.59558485582517 1:0.470588 2:0.568528 3:0.590164 6:0.351714 7:0.338516 8:0.770833 
360.59558485582517 1:0.117647 2:0.609137 3:0.622951 4:0.616667 5:0.124113 6:0.591654 7:0.0608618 8:0.166667 
360.59558485582517 2:0.538071 3:0.57377 4:0.616667 5:0.174941 6:0.587183 7:0.234118 8:0.0208333 
360.59558485582517 1:0.176471 2:0.583756 3:0.540984 4:0.65 5:0.165485 6:0.567809 7:0.0319858 8:0.145833 
171.09187782149459 1:0.235294 2:0.654822 3:0.491803 4:0.2 5:0.27305 6:0.409836 7:0.199467 8:0.208333 
360.59558485582517 1:0.588235 2:0.908629 3:0.57377 6:0.5231 7:0.0541981 8:0.333333 
360.59558485582517 1:0.470588 2:0.598985 3:0.590164 4:0.316667 6:0.344262 7:0.621057 8:0.520833 
360.59558485582517 1:0.705882 2:0.538071 3:0.655738 6:0.351714 7:0.0262106 8:0.479167 
360.59558485582517 2:0.837563 3:0.622951 4:0.716667 5:0.301418 6:0.71386 7:0.0804087 8:0.104167 
231.6826306932723 2:0.593909 6:0.503726 7:0.379387 8:0.479167 
156.49977824217547 1:0.294118 2:0.619289 3:0.704918 6:0.517139 7:0.0941804 8:0.25 
360.59558485582517 1:0.470588 2:0.482234 3:0.590164 6:0.548435 7:0.180809 8:0.75 
360.59558485582517 1:0.0588235 2:0.705584 3:0.377049 4:0.316667 5:0.0981087 6:0.42772 7:0.255886 8:0.0208333 
360.59558485582517 1:0.294118 2:0.80203 3:0.57377 6:0.444113 7:0.0573079 8:0.875 
360.59558485582517 1:0.235294 2:0.746193 3:0.606557 4:0.416667 5:0.346336 6:0.520119 7:0.136384 8:0.1875 
360.59558485582517 1:0.294118 2:0.502538 3:0.442623 4:0.466667 5:0.0981087 6:0.506706 7:0.187028 8:0.1875 
360.59558485582517 1:0.117647 2:0.619289 3:0.42623 4:0.716667 5:0.186761 6:0.539493 7:0.327854 8:0.145833 
-360.59558485582517 1:0.352941 2:0.751269 3:0.590164 4:0.583333 6:0.500745 7:0.243892 8:0.604167 
-360.59558485582517 1:0.176471 2:0.395939 3:0.409836 4:0.533333 5:0.104019 6:0.461997 7:0.075522 8:0.104167 
-360.59558485582517 1:0.117647 2:1 3:0.57377 4:0.75 5:0.641844 6:0.454545 7:0.0355398 8:0.666667 
-360.59558485582517 1:0.470588 2:0.634518 3:0.786885 7:0.068414 8:0.6875 
-360.59558485582517 1:0.0588235 2:0.959391 3:0.491803 4:0.383333 5:1 6:0.448584 7:0.142159 8:0.791667 
-360.59558485582517 1:0.294118 2:0.84264 3:0.590164 4:0.316667 5:0.206856 6:0.384501 7:0.226122 8:0.625 
-360.59558485582517 1:0.411765 2:0.507614 6:0.447094 7:0.180364 8:0.229167 
-360.59558485582517 2:0.598985 3:0.688525 4:0.783333 5:0.271868 6:0.682563 7:0.210129 8:0.208333 
-360.59558485582517 1:0.411765 2:0.543147 3:0.606557 6:0.441133 7:0.0781875 8:0.208333 
-360.59558485582517 1:0.0588235 2:0.583756 3:0.57377 4:0.5 5:0.113475 6:0.515648 7:0.200355 8:0.229167 
-360.59558485582517 1:0.529412 2:0.604061 3:0.655738 4:0.583333 6:0.432191 7:0.0821857 8:0.166667 
-360.59558485582517 1:0.647059 2:0.725888 3:0.770492 4:0.55 5:0.172577 6:0.545455 7:0.0781875 8:0.625 
-360.59558485582517 1:0.588235 2:0.634518 3:0.57377 4:0.433333 5:0.135934 6:0.463487 7:0.0564194 8:0.416667 
-360.59558485582517 1:0.529412 2:0.517766 3:0.622951 4:0.616667 6:0.490313 7:0.260773 8:0.520833 
-360.59558485582517 1:0.117647 2:0.456853 3:0.557377 4:0.7 6:0.5693 7:0.188805 8:0.125 
-360.59558485582517 1:0.235294 2:0.563452 3:0.590164 4:0.783333 5:0.244681 6:0.552906 7:0.582852 8:0.729167 
-360.59558485582517 1:0.529412 2:0.86802 3:0.901639 4:0.4 5:0.283688 6:0.676602 7:0.285651 8:0.6875 
-360.59558485582517 1:0.411765 2:0.522843 3:0.540984 4:0.533333 6:0.582712 7:0.11817 8:0.208333 
-360.59558485582517 1:0.470588 2:0.893401 3:0.737705 4:0.566667 5:0.35461 6:0.502235 7:0.172812 8:0.770833 
-360.59558485582517 1:0.411765 2:0.949239 3:0.557377 4:0.65 5:0.359338 6:0.561848 7:0.0781875 8:0.416667 
-360.59558485582517 1:0.470588 2:0.675127 3:0.590164 6:0.490313 7:0.0852954 8:0.375 
-360.59558485582517 1:0.411765 2:0.57868 3:0.540984 6:0.488823 7:0.0799645 8:0.4375 
-360.59558485582517 2:0.553299 3:0.721311 4:0.5 6:0.484352 7:0.34518 8:0.354167 
-360.59558485582517 1:0.117647 2:0.507614 3:0.540984 4:0.333333 5:0.106383 6:0.490313 7:0.350511 8:0.145833 
-360.59558485582517 2:0.664975 6:0.643815 7:0.0852954 8:0.104167 
-360.59558485582517 1:0.294118 2:0.695431 3:0.885246 6:0.727273 7:0.0661928 8:0.333333 
-360.59558485582517 1:0.882353 2:0.690355 3:0.57377 4:0.533333 5:0.130024 6:0.552906 7:0.0333185 8:0.458333 
-254.06882018319925 1:0.235294 2:0.680203 3:0.590164 6:0.354694 7:0.0884052 8:0.8125 
-360.59558485582517 1:0.0588235 2:0.619289 3:0.737705 4:0.85 5:0.260047 6:0.740686 7:0.109729 8:0.208333 
-360.59558485582517 2:0.482234 3:0.696721 4:0.416667 5:0.0425532 6:0.557377 7:0.0750777 8:0.0625 
-124.13313260971019 1:0.176471 2:0.86802 3:0.590164 4:0.55 5:0.159574 6:0.496274 7:0.0537539 8:0.0625 
-360.59558485582517 1:0.470588 2:0.786802 3:0.508197 4:0.433333 5:0.585106 6:0.506706 7:0.206575 8:0.520833 
-360.59558485582517 1:0.411765 2:0.812183 3:0.442623 4:0.533333 5:0.206856 6:0.454545 7:0.226566 8:0.375 
-360.59558485582517 1:0.294118 2:0.629442 3:0.606557 6:0.506706 7:0.0630831 8:0.354167 
-360.59558485582517 2:0.573604 3:0.622951 6:0.496274 7:0.0888494 8:0.0416667 
-125.93073217296492 1:0.0588235 2:0.446701 3:0.245902 4:0.7 5:0.117021 6:0.819672 7:0.185695 8:0.104167 
-360.59558485582517 1:0.0588235 2:0.593909 3:0.721311 4:0.4 5:0.171395 6:0.514158 7:0.14438 8:0.395833 
-360.59558485582517 2:0.532995 3:0.688525 6:0.415797 7:0.294536 8:0.854167 
-360.59558485582517 1:0.235294 2:0.878173 3:0.57377 4:0.233333 5:0.198582 6:0.442623 7:0.125722 8:0.25 
-78.068546979262564 1:0.176471 2:0.862944 3:0.52459 4:0.616667 5:0.265957 6:0.514158 7:0.123501 8:0.1875 
-238.58436093887752 1:0.588235 2:0.548223 3:0.540984 6:0.482861 7:0.0861839 8:0.4375 
-62.334844165037289 1:0.529412 2:0.791878 3:0.704918 4:0.466667 5:0.183215 6:0.511177 7:0.493558 8:0.4375 
-360.59558485582517 1:0.411765 2:0.771574 3:0.721311 4:0.733333 6:0.745157 7:0.11506 8:0.3125 
-360.59558485582517 1:1 2:0.827411 3:0.590164 4:0.683333 5:0.134752 6:0.609538 7:0.328299 8:0.541667 
-360.59558485582517 2:0.664975 3:0.721311 6:0.470939 7:0.295424 8:0.229167 
-360.59558485582517 1:0.352941 2:0.527919 3:0.606557 4:0.3 5:0.184397 6:0.445604 7:0.286095 8:0.416667 
-360.59558485582517 1:0.352941 2:0.517766 3:0.672131 6:0.459016 7:0.0453132 8:0.3125 
-360.59558485582517 1:0.352941 2:0.680203 3:0.57377 4:0.383333 5:0.153664 6:0.527571 7:0.206131 8:0.166667 
-32.053682091263973 1:0.470588 2:0.908629 3:0.590164 4:0.7 5:0.153664 6:0.487332 7:0.284762 8:0.3125 
-108.47574791784909 2:0.654822 3:0.901639 4:0.766667 5:0.153664 6:1 7:0.107064 8:0.104167 
-360.59558485582517 1:0.470588 2:0.918782 3:0.557377 4:0.6 5:0.585106 6:0.448584 7:0.238561 8:0.8125 
-360.59558485582517 1:0.0588235 2:0.649746 3:0.803279 4:0.683333 5:0.0685579 6:0.4769 7:0.552199 8:0.25 
-360.59558485582517 1:0.470588 2:0.553299 3:0.622951 4:0.65 5:0.134752 6:0.415797 7:0.249667 8:0.208333 
-360.59558485582517 1:0.294118 2:0.705584 3:0.655738 4:0.583333 5:0.189125 6:0.470939 7:0.125722 8:0.0833333 
-360.59558485582517 1:0.176471 2:0.705584 3:0.442623 6:0.38152 7:0.143936 8:0.0208333 
-360.59558485582517 1:0.0588235 2:0.573604 3:0.52459 4:0.583333 6:0.500745 7:0.206575 
-360.59558485582517 1:0.647059 2:0.786802 3:0.622951 4:0.466667 5:0.177305 6:0.496274 7:0.566415 8:0.625 
-360.59558485582517 1:0.176471 2:0.715736 6:0.447094 7:0.303421 8:0.125 
-360.59558485582517 1:0.235294 2:0.624365 3:0.508197 6:0.4769 7:0.0657486 8:0.291667 
-360.59558485582517 2:0.700508 6:0.540984 7:0.379831 8:0.0833333 
-360.59558485582517 1:0.117647 2:0.741117 6:0.409836 7:0.071968 8:0.145833 
-360.59558485582517 1:0.588235 2:0.51269 3:0.704918 4:0.616667 6:0.679583 7:0.470013 8:0.354167 
-360.59558485582517 1:0.411765 2:0.538071 3:0.491803 4:0.4 6:0.394933 7:0.0968458 8:0.166667 
-360.59558485582517 2:0.741117 3:0.57377 6:0.564829 7:0.113727 8:0.145833 
-360.59558485582517 1:0.117647 2:0.548223 3:0.655738 6:0.402385 7:0.0804087 8:0.645833 
-360.59558485582517 1:0.0588235 2:0.604061 3:0.704918 4:0.65 5:0.260047 6:0.679583 7:0.3243 8:0.166667 
-360.59558485582517 2:0.543147 3:0.508197 4:0.5 5:0.0874704 6:0.545455 7:0.301644 8:0.0833333 
-360.59558485582517 1:0.117647 2:0.741117 3:0.57377 4:0.633333 5:0.425532 6:0.417288 7:0.11506 8:0.166667 
-360.59558485582517 1:0.823529 2:0.507614 3:0.639344 4:0.416667 5:0.217494 6:0.545455 7:0.148378 8:0.520833 
-360.59558485582517 2:0.847716 6:0.481371 7:0.338072 8:0.1875 
-360.59558485582517 1:0.117647 2:0.730964 3:0.47541 4:0.55 5:0.159574 6:0.470939 7:0.152821 8:0.0833333 
-360.59558485582517 1:0.294118 2:0.583756 3:0.803279 6:0.788376 7:0.0581964 8:0.145833 
-360.59558485582517 1:0.588235 2:0.817259 3:0.557377 4:0.383333 5:0.156028 6:0.38003 7:0.110173 8:0.541667 
-360.59558485582517 2:0.649746 3:0.557377 4:0.316667 5:0.212766 6:0.454545 7:0.583296 8:0.0833333 
-360.59558485582517 1:0.117647 2:0.629442 3:0.557377 4:0.466667 5:0.242317 6:0.490313 7:0.354065 8:0.1875 
-360.59558485582517 1:0.117647 2:0.786802 3:0.606557 4:0.283333 5:0.113475 6:0.396423 7:0.157708 8:0.125 
-360.59558485582517 1:0.411765 2:0.553299 3:0.655738 4:0.516667 6:0.535022 7:0.466015 8:0.458333 
-360.59558485582517 1:0.176471 2:0.923858 3:0.606557 6:0.454545 7:0.118614 8:0.166667 
-360.59558485582517 1:0.176471 2:0.568528 3:0.606557 4:0.5 6:0.470939 7:0.0528654 8:0.0833333 
-360.59558485582517 2:0.629442 3:0.57377 4:0.333333 6:0.408346 7:0.0781875 8:0.3125 
-360.59558485582517 1:0.764706 2:0.771574 3:0.737705 4:0.55 5:0.034279 6:0.399404 7:0.290093 8:0.458333 
-360.59558485582517 1:0.0588235 2:0.619289 3:0.52459 4:0.533333 5:0.184397 6:0.5231 7:0.272768 8:0.1875 
-360.59558485582517 1:0.117647 2:0.517766 3:0.704918 4:0.6 5:0.141844 6:0.678092 7:0.0217681 8:0.0416667 
-360.59558485582517 1:0.294118 2:0.583756 3:0.622951 6:0.464978 7:0.117725 8:0.479167 
-360.59558485582517 1:0.294118 3:0.655738 4:0.533333 6:0.611028 7:0.119058 8:0.333333 
-328.58357615117944 1:0.0588235 2:0.634518 3:0.409836 4:0.666667 5:0.1974 6:0.496274 7:0.392714 8:0.145833 
-360.59558485582517 1:0.352941 2:0.629442 3:0.590164 6:0.411326 7:0.128832 8:0.166667 
-360.59558485582517 1:0.0588235 2:0.675127 3:0.836066 4:0.466667 5:0.165485 6:0.488823 7:0.0693025 8:0.5 
-360.59558485582517 1:0.705882 2:0.71066 3:0.672131 4:0.716667 5:0.384161 6:0.584203 7:0.199911 8:0.770833 
