svm_type c_svc
kernel_type polynomial
degree 3
gamma 0.125
coef0 0
nr_class 2
total_sv 211
rho 1.0653814956489283
label 0 1
probA -18.833642805589971
probB -17.511500751174783
nr_sv 105 106
SV
1 2:0.994975 3:0.6 4:0.507937 5:0.36828 6:0.615499 7:0.181042 8:0.116667 
1 1:0.117647 2:0.673367 3:0.636364 6:0.4307 7:0.198121 8:0.0333333 
1 1:0.176471 2:0.562814 3:0.672727 4:0.47619 6:0.470939 7:0.0508113 8:0.0666667 
1 1:0.411765 2:0.532663 3:0.545455 4:0.380952 6:0.394933 7:0.0930828 8:0.133333 
1 1:0.470588 2:0.909548 3:0.618182 4:0.571429 5:0.665323 6:0.448584 7:0.229291 8:0.65 
1 1:0.294118 2:0.79397 3:0.763636 4:0.650794 5:0.282258 6:0.587183 7:0.135354 8:0.133333 
1 1:0.235294 2:0.728643 3:0.745455 4:0.285714 6:0.484352 7:0.0670367 8:0.816667 
1 1:0.470588 2:0.603015 6:0.447094 7:0.0448335 8:0.283333 
1 1:0.176471 2:0.648241 3:0.581818 4:0.460317 5:0.15457 6:0.393443 7:0.060205 8:0.116667 
1 1:0.294118 2:0.949749 3:0.581818 4:0.52381 5:0.436828 6:0.464978 7:0.215628 8:0.133333 
1 1:0.117647 2:0.467337 3:0.581818 4:0.507937 5:0.215054 6:0.566319 7:0.254483 8:0.0333333 
1 1:0.176471 2:0.869347 3:0.763636 4:0.52381 5:0.637097 6:0.532042 7:0.0768574 8:0.0166667 
1 2:0.708543 6:0.631893 7:0.0542272 8:0.133333 
1 1:0.529412 2:0.512563 3:0.690909 4:0.587302 6:0.490313 7:0.25064 8:0.416667 
1 1:0.411765 2:0.547739 3:0.727273 4:0.492063 6:0.535022 7:0.447908 8:0.366667 
1 1:0.352941 2:0.673367 3:0.727273 4:0.587302 5:0.497312 6:0.688525 7:0.0683177 8:0.416667 
1 1:0.529412 2:0.859296 3:1 4:0.380952 5:0.322581 6:0.676602 7:0.274552 8:0.55 
1 1:0.235294 2:0.673367 3:0.654545 6:0.354694 7:0.0849701 8:0.65 
1 1:0.0588235 2:0.904523 6:0.645306 7:0.087105 8:0.333333 
1 1:0.411765 2:0.738693 3:0.690909 6:0.587183 7:0.0764304 8:0.366667 
1 1:0.176471 2:0.708543 6:0.447094 7:0.291631 8:0.1 
1 1:0.117647 2:0.643216 3:0.709091 4:0.587302 5:0.244624 6:0.645306 7:0.489325 8:0.166667 
1 1:0.411765 2:0.974874 3:0.618182 4:0.444444 6:0.535022 7:0.284799 8:0.333333 
1 1:0.176471 2:0.663317 3:0.727273 6:0.512668 7:0.138343 8:0.383333 
1 1:0.352941 2:0.673367 3:0.636364 4:0.365079 5:0.174731 6:0.527571 7:0.198121 8:0.133333 
1 1:0.588235 2:0.577889 7:0.0781383 8:0.15 
1 1:0.529412 2:0.824121 3:0.763636 4:0.333333 6:0.459016 7:0.32152 8:0.183333 
1 1:0.117647 2:0.623116 3:0.618182 4:0.444444 5:0.275538 6:0.490313 7:0.340307 8:0.15 
1 1:0.647059 2:0.683417 3:0.763636 4:0.555556 5:0.174731 6:0.421759 7:0.0777114 8:0.35 
1 1:0.294118 2:0.939698 3:0.690909 4:0.428571 5:0.278226 6:0.649776 7:0.408198 8:0.533333 
1 1:0.352941 2:0.979899 3:0.636364 6:0.460507 7:0.106746 8:0.166667 
1 1:0.529412 2:0.78392 3:0.781818 4:0.444444 5:0.208333 6:0.511177 7:0.474381 8:0.35 
1 1:0.529412 2:0.562814 3:0.745455 4:0.507937 5:0.235215 6:0.509687 7:0.0777114 8:0.25 
1 1:0.117647 2:0.98995 3:0.636364 4:0.714286 5:0.729839 6:0.454545 7:0.0341588 8:0.533333 
1 2:0.522613 3:0.581818 4:0.587302 5:0.0860215 6:0.500745 7:0.184458 8:0.0166667 
1 1:0.764706 2:0.633166 3:0.818182 6:0.646796 7:0.215628 8:0.35 
1 1:0.294118 2:0.577889 3:0.890909 6:0.788376 7:0.0559351 8:0.116667 
1 1:0.176471 2:0.819095 3:0.636364 4:0.285714 5:0.141129 6:0.470939 7:0.0811272 8:0.116667 
1 2:0.904523 3:0.709091 4:1 5:0.0188172 6:0.885246 7:1 8:0.0666667 
1 2:0.839196 6:0.481371 7:0.324936 8:0.15 
1 1:0.235294 2:0.547739 3:0.581818 4:0.698413 5:0.133065 6:0.518629 7:0.353117 8:0.0833333 
1 1:0.529412 2:0.728643 3:0.727273 4:0.730159 5:0.174731 6:0.564829 7:0.238685 8:0.316667 
1 1:0.235294 2:0.869347 3:0.636364 4:0.222222 5:0.225806 6:0.442623 7:0.120837 8:0.2 
1 1:0.470588 2:0.934673 3:0.818182 4:0.555556 5:0.302419 6:0.514158 7:0.14731 8:0.266667 
1 1:0.0588235 2:0.844221 3:0.8 4:0.460317 6:0.52161 7:0.353117 8:0.516667 
1 1:0.176471 2:0.859296 3:0.654545 4:0.52381 5:0.181452 6:0.496274 7:0.0516652 8:0.05 
1 1:0.0588235 2:0.643216 3:0.890909 4:0.650794 5:0.077957 6:0.4769 7:0.530743 8:0.2 
1 1:0.176471 2:0.869347 3:0.709091 4:0.619048 5:0.248656 6:0.503726 7:0.380871 8:0.166667 
1 2:0.899497 3:0.454545 4:0.571429 5:0.21371 6:0.563338 7:0.160974 8:0.0166667 
1 1:0.235294 2:0.477387 3:0.581818 6:0.4769 7:0.0354398 8:0.166667 
1 1:0.0588235 2:0.577889 3:0.636364 4:0.47619 5:0.129032 6:0.515648 7:0.19257 8:0.183333 
1 1:0.176471 2:0.79397 3:0.636364 4:0.47619 5:0.44086 6:0.529061 7:0.113578 8:0.233333 
1 2:0.81407 3:0.690909 4:0.888889 5:0.134409 6:0.792847 7:0.290777 8:0.0666667 
1 1:1 2:0.819095 3:0.654545 4:0.650794 5:0.153226 6:0.609538 7:0.315542 8:0.433333 
1 1:0.529412 2:0.924623 3:0.772727 4:0.238095 6:0.447094 7:0.484629 8:0.466667 
1 2:0.944724 3:0.745455 4:0.222222 5:0.248656 6:0.4769 7:0.257899 8:0.0166667 
1 1:0.705882 2:0.462312 3:0.563636 4:0.111111 5:0.346774 6:0.411326 7:0.362084 8:0.383333 
1 1:0.117647 2:0.79397 3:0.818182 6:0.470939 7:0.310418 8:0.75 
1 1:0.411765 2:0.984925 3:0.818182 6:0.593145 7:0.159266 8:0.333333 
1 1:0.411765 2:0.909548 3:0.763636 4:0.333333 5:0.258065 6:0.535022 7:0.216909 8:0.5 
1 2:0.658291 3:0.8 6:0.470939 7:0.283945 8:0.183333 
1 2:0.904523 3:0.818182 4:0.412698 5:0.120968 6:0.543964 7:0.100769 8:0.233333 
1 1:0.0588235 2:0.567839 3:0.581818 4:0.555556 6:0.500745 7:0.198548 
1 1:0.0588235 2:0.58794 3:0.8 4:0.380952 5:0.194892 6:0.514158 7:0.13877 8:0.316667 
1 2:0.703518 3:0.590909 4:0.412698 5:0.174731 6:0.634873 7:0.150726 8:0.05 
1 1:0.0588235 2:0.477387 3:0.745455 4:0.396825 5:0.241935 6:0.52161 7:0.0661827 8:0.366667 
1 1:0.470588 2:0.628141 3:0.872727 7:0.0657558 8:0.55 
1 1:0.176471 2:0.854271 3:0.581818 4:0.587302 5:0.302419 6:0.514158 7:0.118702 8:0.15 
1 1:0.0588235 2:1 3:0.690909 4:0.68254 6:0.639344 7:0.561913 8:0.0166667 
1 1:0.529412 2:0.829146 3:0.8 6:0.453055 7:0.0956447 8:0.466667 
1 2:0.60804 3:0.6 4:0.47619 5:0.221774 6:0.511177 7:0.0533732 8:0.2 
1 1:0.411765 2:0.487437 3:0.690909 4:0.507937 5:0.122312 6:0.609538 7:0.338599 8:0.183333 
1 1:0.176471 2:0.60804 3:0.472727 6:0.536513 7:0.0209223 8:0.0666667 
1 1:0.294118 2:0.547739 3:0.563636 4:0.650794 5:0.173387 6:0.533532 7:0.186166 8:0.0666667 
1 1:0.235294 2:0.557789 3:0.654545 4:0.746032 5:0.278226 6:0.552906 7:0.560205 8:0.583333 
1 1:0.235294 2:0.859296 3:0.654545 6:0.649776 7:0.171221 8:0.0833333 
1 1:0.0588235 2:0.613065 3:0.818182 4:0.809524 5:0.295699 6:0.740686 7:0.105465 8:0.166667 
1 1:0.235294 2:0.723618 3:0.745455 4:0.507937 6:0.573771 7:0.203245 8:0.266667 
1 1:0.117647 2:0.527638 3:0.727273 4:0.714286 5:0.25672 6:0.502235 7:0.270282 8:0.133333 
1 1:0.0588235 2:0.442211 3:0.272727 4:0.666667 5:0.133065 6:0.819672 7:0.17848 8:0.0833333 
1 1:0.294118 2:0.683417 3:0.763636 4:0.650794 5:0.11828 6:0.52161 7:0.088813 8:0.233333 
1 2:0.693467 3:0.545455 4:0.555556 5:0.224462 6:0.515648 7:0.194705 
1 1:0.352941 2:0.522613 3:0.672727 4:0.285714 5:0.209677 6:0.445604 7:0.274979 8:0.333333 
1 1:0.529412 2:0.703518 3:0.854545 6:0.487332 7:0.280102 8:0.4 
1 1:0.117647 2:0.592965 3:0.727273 6:0.639344 7:0.262596 
1 1:0.117647 2:0.512563 3:0.781818 4:0.571429 5:0.16129 6:0.678092 7:0.0209223 8:0.0333333 
1 1:0.235294 2:0.919598 6:0.423249 7:0.0572161 8:0.25 
1 1:0.0588235 2:0.864322 3:0.618182 4:0.777778 5:0.778226 6:0.631893 7:0.266439 8:0.116667 
1 1:0.411765 2:0.537688 3:0.672727 6:0.441133 7:0.0751494 8:0.166667 
1 2:0.59799 6:0.482861 7:0.0269001 8:0.05 
1 1:0.470588 2:0.778894 3:0.563636 4:0.412698 5:0.665323 6:0.506706 7:0.198548 8:0.416667 
1 1:0.176471 2:0.849246 3:0.672727 4:0.301587 5:0.168011 6:0.445604 7:0.0811272 8:0.166667 
1 1:0.529412 2:0.78392 3:0.781818 6:0.369598 7:0.0649018 8:0.533333 
1 1:0.176471 2:0.884422 3:0.781818 4:0.428571 5:0.209677 6:0.496274 7:0.459436 8:0.516667 
1 2:0.728643 6:0.658718 7:0.235696 8:0.166667 
1 1:0.352941 2:0.974874 3:0.709091 6:0.350224 7:0.0217763 8:0.633333 
1 1:0.235294 2:0.683417 3:0.636364 6:0.464978 7:0.471392 8:0.0166667 
1 1:0.235294 2:0.733668 3:0.836364 6:0.464978 7:0.19684 8:0.666667 
1 1:0.411765 2:0.798995 3:0.6 6:0.453055 7:0.130231 8:0.25 
1 1:0.0588235 2:0.839196 3:0.672727 4:0.269841 5:0.193548 6:0.348733 7:0.157558 8:0.2 
1 1:0.647059 2:0.557789 3:0.763636 4:0.634921 6:0.697466 7:0.361657 8:0.4 
1 1:0.176471 2:0.969849 3:0.636364 4:0.492063 6:0.520119 7:0.0695986 8:0.0666667 
1 1:0.0588235 2:0.643216 3:0.436364 4:0.714286 5:0.260753 6:0.603577 7:0.228437 8:0.05 
1 1:0.588235 2:0.648241 3:0.563636 4:0.571429 6:0.614009 7:0.154996 8:0.283333 
1 2:0.547739 3:0.8 4:0.47619 6:0.484352 7:0.331768 8:0.283333 
-1 1:0.235294 2:0.58794 3:0.581818 4:0.428571 5:0.16129 6:0.494784 7:0.0649018 8:0.05 
-1 1:0.0588235 2:0.562814 3:0.654545 4:0.47619 5:0.236559 6:0.512668 7:0.192143 8:0.0666667 
-1 2:0.733668 3:0.745455 6:0.603577 7:0.727156 8:0.383333 
-1 1:0.411765 2:0.472362 3:0.581818 4:0.396825 5:0.106183 6:0.496274 7:0.28181 8:0.333333 
-1 1:0.588235 2:0.472362 3:0.654545 4:0.285714 6:0.344262 7:0.220751 8:0.583333 
-1 1:0.117647 2:0.613065 3:0.545455 4:0.285714 5:0.142473 6:0.444113 7:0.272844 8:0.0166667 
-1 1:0.411765 2:0.798995 3:0.581818 6:0.408346 7:0.0922289 8:0.316667 
-1 1:0.0588235 2:0.698492 3:0.418182 4:0.301587 5:0.111559 6:0.42772 7:0.245944 8:0.0166667 
-1 1:0.352941 2:0.527638 3:0.636364 4:0.507937 5:0.0913978 6:0.459016 7:0.0187874 8:0.266667 
-1 1:0.294118 2:0.482412 3:0.672727 4:0.285714 5:0.0900538 6:0.500745 7:0.3924 8:0.366667 
-1 1:0.235294 2:0.773869 3:0.654545 4:0.460317 5:0.169355 6:0.466468 7:0.111016 8:0.266667 
-1 1:0.352941 2:0.517588 3:0.654545 4:0.507937 5:0.255376 6:0.561848 7:0.105038 8:0.566667 
-1 1:0.470588 2:0.633166 3:0.8 4:0.571429 5:0.145161 6:0.573771 7:0.115713 8:0.466667 
-1 2:0.678392 3:0.854545 4:0.730159 5:0.194892 6:0.605067 7:0.087959 8:0.0833333 
-1 1:0.294118 2:0.663317 3:0.727273 6:0.399404 7:0.0461144 8:0.8 
-1 2:0.472362 3:0.636364 4:0.428571 5:0.15457 6:0.648286 7:0.114859 
-1 1:0.529412 2:0.623116 3:0.636364 4:0.52381 5:0.540323 6:0.527571 7:0.087105 8:0.216667 
-0.75604192384233304 1:0.294118 2:0.683417 3:0.745455 7:0.239966 8:0.8 
-1 1:0.411765 2:0.683417 3:0.818182 6:0.445604 7:0.0563621 8:0.483333 
-1 1:0.588235 2:0.341709 3:0.963636 4:0.365079 5:0.0658602 6:0.529061 7:0.088386 8:0.433333 
-1 1:0.176471 2:0.959799 3:0.618182 4:0.238095 5:0.174731 6:0.460507 7:0.0943638 8:0.216667 
-1 2:0.61809 3:0.8 4:0.587302 6:0.52459 7:0.0508113 8:0.133333 
-1 1:0.235294 2:0.613065 3:0.618182 6:0.52161 7:0.134927 8:0.133333 
-1 1:0.294118 2:0.532663 3:0.745455 4:0.47619 6:0.588674 7:0.088813 8:0.283333 
-1 1:0.470588 2:0.592965 3:0.654545 4:0.301587 6:0.344262 7:0.596926 8:0.416667 
-1 1:0.117647 2:0.527638 3:0.527273 4:0.634921 5:0.126344 6:0.520119 7:0.0627669 8:0.0666667 
-1 1:0.176471 2:0.482412 3:0.709091 4:0.619048 6:0.555887 7:0.0683177 8:0.316667 
-1 1:0.352941 2:0.834171 3:0.672727 6:0.396423 7:0.0964987 8:0.75 
-1 1:0.0588235 2:0.733668 3:0.509091 6:0.442623 7:0.207515 8:0.133333 
-1 1:0.235294 2:0.61809 3:0.727273 4:0.238095 5:0.236559 6:0.4769 7:0.15585 8:0.216667 
-1 2:0.633166 3:0.763636 4:0.460317 5:0.288978 6:0.457526 7:0.188728 8:0.05 
-1 1:0.176471 2:0.623116 3:0.727273 4:0.52381 5:0.174731 6:0.494784 7:0.0969257 8:0.0833333 
-1 1:0.294118 2:0.572864 3:0.672727 6:0.371088 7:0.284372 8:0.6 
-1 1:0.235294 2:0.648241 3:0.545455 4:0.190476 5:0.310484 6:0.409836 7:0.191716 8:0.166667 
-1 1:0.411765 2:0.628141 3:0.781818 6:0.560358 7:0.0964987 8:0.5 
-1 1:0.294118 2:0.386935 3:0.745455 4:0.650794 5:0.0564516 6:0.533532 7:0.0333049 8:0.233333 
-1 1:0.0588235 2:0.396985 3:0.545455 4:0.666667 5:0.0645161 6:0.648286 7:0.256191 8:0.0333333 
-1 1:0.705882 2:0.60804 3:0.709091 4:0.269841 6:0.394933 7:0.0772844 8:0.683333 
-1 1:0.529412 2:0.603015 3:0.654545 4:0.349206 5:0.0752688 6:0.309985 7:0.279675 8:0.45 
-1 1:0.0588235 2:0.698492 3:0.563636 4:0.650794 5:0.645161 6:0.606557 7:0.195559 
-1 1:0.176471 2:0.79397 3:0.581818 4:0.206349 5:0.520161 6:0.464978 7:0.0926558 8:0.05 
-1 1:0.352941 2:0.758794 3:0.563636 4:0.492063 5:0.16129 6:0.529061 7:0.262169 8:0.116667 
-1 1:0.294118 2:0.61809 3:0.672727 4:0.634921 5:0.103495 6:0.508197 7:0.0815542 8:0.116667 
-1 1:0.294118 2:0.738693 3:0.681818 6:0.445604 7:0.152007 8:0.116667 
-1 1:0.117647 2:0.462312 3:0.690909 4:0.31746 6:0.360656 7:0.691716 8:0.116667 
-1 1:0.176471 2:0.713568 3:0.727273 4:0.238095 6:0.482861 7:0.0520922 8:0.7 
-1 1:0.117647 2:0.61809 3:0.436364 4:0.507937 5:0.221774 6:0.627422 7:0.188728 8:0.0833333 
-1 1:0.294118 2:0.718593 3:0.709091 6:0.670641 7:0.0478224 8:0.433333 
-1 1:0.117647 2:0.532663 3:0.581818 4:0.555556 5:0.159946 6:0.454545 7:0.564475 8:0.216667 
-1 2:0.58794 3:0.6 4:0.492063 5:0.252688 6:0.459016 7:0.177199 8:0.0166667 
-1 1:0.647059 2:0.638191 3:0.963636 6:0.581222 7:0.0478224 8:0.5 
-1 1:0.294118 2:0.542714 3:0.654545 4:0.68254 5:0.100806 6:0.538003 7:0.0789923 8:0.2 
-1 1:0.470588 2:0.974874 3:0.727273 6:0.388972 7:0.201964 8:0.766667 
-1 1:0.352941 2:0.723618 3:0.654545 4:0.428571 5:0.306452 6:0.505216 7:0.0755764 8:0.316667 
-1 1:0.176471 2:0.61809 3:0.909091 4:0.555556 5:0.322581 6:0.853949 7:0.342442 8:0.0166667 
-1 2:0.572864 3:0.727273 4:0.539683 5:0.383065 6:0.658718 7:0.0380017 8:0.1 
-1 1:0.294118 2:0.613065 3:0.781818 6:0.517139 7:0.0905209 8:0.2 
-1 1:0.117647 2:0.648241 3:0.672727 4:0.412698 5:0.275538 6:0.494784 7:0.219044 8:0.0666667 
-1 1:0.0588235 2:0.572864 3:0.6 4:0.571429 5:0.268817 6:0.567809 7:0.0900939 
-1 1:0.705882 2:0.703518 3:0.772727 4:0.52381 6:0.557377 7:0.0708796 8:0.333333 
-1 2:0.688442 3:0.636364 4:0.603175 6:0.494784 7:0.0392827 8:0.0166667 
-1 1:0.117647 2:0.532663 3:0.509091 4:0.428571 5:0.221774 6:0.432191 7:0.148591 8:0.0166667 
-0.29311127502269796 2:0.663317 3:0.709091 6:0.482861 7:0.1345 
-1 1:0.529412 2:0.61809 3:0.636364 4:0.698413 5:0.126344 6:0.493294 7:0.126388 8:0.316667 
-1 2:0.502513 3:0.8 4:0.952381 5:0.147849 6:0.697466 7:0.377455 8:0.166667 
-1 1:0.588235 2:0.577889 3:0.890909 6:0.357675 7:0.403074 8:0.216667 
-1 1:0.176471 2:0.557789 3:0.818182 4:0.190476 5:0.104839 6:0.423249 7:0.178053 8:0.133333 
-1 2:0.467337 3:0.909091 4:0.619048 5:0.0967742 6:0.646796 7:0.402647 8:0.233333 
-1 1:0.235294 2:0.497487 3:0.618182 4:0.603175 6:0.488823 7:0.028608 8:0.2 
-1 1:0.117647 2:0.60804 3:0.636364 4:0.507937 5:0.127688 6:0.582712 7:0.345004 8:0.0333333 
-1 1:0.117647 2:0.562814 3:0.681818 4:0.507937 6:0.532042 7:0.029889 
-1 1:0.235294 2:0.603015 3:0.618182 6:0.441133 7:0.269428 8:0.216667 
-1 1:0.0588235 2:0.487437 3:0.636364 4:0.634921 6:0.567809 7:0.059778 8:0.15 
-1 1:0.117647 2:0.502513 3:0.490909 4:0.444444 5:0.141129 6:0.563338 7:0.179334 8:0.05 
-1 1:0.0588235 2:0.628141 3:0.636364 4:0.380952 5:0.147849 6:0.362146 7:0.0610589 8:0.0666667 
-1 1:0.117647 2:0.708543 3:0.527273 4:0.539683 5:0.172043 6:0.37854 7:0.265158 8:0.05 
-1 1:0.176471 2:0.502513 3:0.618182 4:0.365079 5:0.108871 6:0.470939 7:0.371904 8:0.116667 
-1 1:0.352941 2:0.462312 3:0.563636 4:0.507937 5:0.169355 6:0.4769 7:0.0029889 8:0.416667 
-1 1:0.294118 2:0.738693 3:0.709091 6:0.502235 7:0.059778 8:0.733333 
-1 1:0.588235 2:0.507538 3:0.690909 4:0.761905 5:0.241935 6:0.490313 7:0.0397096 8:0.7 
-1 1:0.0588235 2:0.623116 3:0.545455 4:0.507937 6:0.533532 7:0.186166 
-0.950846801134969 1:0.470588 2:0.477387 3:0.654545 6:0.548435 7:0.173783 8:0.6 
-1 1:0.0588235 2:0.623116 3:0.672727 4:0.571429 6:0.414307 7:0.00939368 8:0.15 
-1 1:0.0588235 2:0.723618 3:0.745455 4:0.634921 6:0.615499 7:0.225875 8:0.116667 
-1 1:0.529412 2:0.773869 3:0.709091 4:0.47619 5:0.134409 6:0.460507 7:0.0367208 8:0.4 
-1 1:0.0588235 2:0.582915 3:0.709091 4:0.460317 5:0.241935 6:0.538003 7:0.17848 8:0.0666667 
-1 1:0.294118 2:0.778894 3:0.763636 4:0.698413 5:0.732527 6:0.576751 7:0.230999 8:0.216667 
-1 1:0.176471 2:0.557789 3:0.509091 4:0.619048 6:0.448584 7:0.204526 8:0.15 
-1 1:0.352941 2:0.829146 3:0.618182 4:0.412698 5:0.225806 6:0.500745 7:0.236123 8:0.466667 
-1 1:0.117647 2:0.562814 3:0.781818 4:0.666667 5:0.215054 6:0.57228 7:0.0717336 8:0.116667 
-1 1:0.0588235 2:0.60804 3:0.709091 4:0.619048 5:0.0994624 6:0.581222 7:0.0781383 8:0.116667 
-1 1:0.411765 2:0.683417 3:0.672727 4:0.412698 5:0.181452 6:0.387481 7:0.242955 8:0.5 
-1 1:0.294118 2:0.58794 3:0.836364 6:0.508197 7:0.110589 8:0.283333 
-1 1:0.294118 2:0.477387 3:0.654545 4:0.52381 6:0.561848 7:0.12468 8:0.1 
-1 1:0.235294 2:0.658291 3:0.618182 4:0.333333 5:0.223118 6:0.493294 7:0.0350128 8:0.116667 
-1 1:0.235294 2:0.758794 3:0.818182 4:0.603175 6:0.442623 7:0.0922289 8:0.25 
-1 1:0.0588235 2:0.653266 3:0.545455 4:0.365079 5:0.228495 6:0.42623 7:0.262169 
-1 1:0.0588235 2:0.678392 3:0.490909 6:0.397914 7:0.260034 8:0.683333 
-1 2:0.763819 3:0.745455 4:0.619048 5:0.365591 6:0.61848 7:0.0819812 8:0.1 
-1 1:0.352941 2:0.919598 3:0.854545 6:0.608048 7:0.590521 8:0.4 
-1 1:0.235294 2:0.582915 3:0.654545 4:0.190476 5:0.116935 6:0.329359 7:0.164389 8:0.266667 
-1 1:0.294118 2:0.517588 3:0.981818 4:0.587302 6:0.584203 7:0.0969257 8:0.733333 
-1 1:0.176471 2:0.743719 3:0.6 4:0.396825 6:0.484352 7:0.0760034 8:0.0166667 
-1 1:0.0588235 2:0.542714 3:0.545455 4:0.730159 5:0.239247 6:0.529061 7:0.143894 8:0.05 
-1 1:0.470588 2:0.497487 3:0.763636 6:0.527571 7:0.132365 8:0.483333 
-1 1:0.294118 2:0.643216 3:0.727273 6:0.515648 7:0.028181 8:0.4 
