svm_type nu_svc
kernel_type sigmoid
gamma 0.071428571428571425
coef0 0
nr_class 10
total_sv 4563
rho -1.3658512378905734 -1.5361003721728992 -1.307632974945768 -0.88185863795170227 -0.73679587882020847 -0.99640437927048808 0.24280542893603993 -2.7843387083502718 -0.68003935070029142 -0.05909592200318433 0.24426442658566111 0.58307061851362851 0.14460130052589601 0.6454138705539233 1.7298028758802488 -3.6163552351632977 2.0958094800938527 -0.47200375556493701 -0.35056764984683059 0.094979549998851318 -0.4373743671513452 2.7872414548810145 -1.9247772381810659 0.36378189859492049 2.1300058306453029 -0.12382675933607236 0.80836316884229886 0.76024664916559104 -3.2820143494289367 -0.27337386155418825 -0.29000055063494684 0.093918555978780155 0.57166815919654812 -2.990992934062954 -0.87302215139206063 0.39056071392094172 8.4371978351851045 -1.0328698934773539 2.3769954484155895 2.7646748110888204 -2.7257257139165216 -0.44204716633237484 -1.739110111362735 -1.4853600196493399 2.2843035293064244
label 4 9 6 3 5 8 0 1 7 2
probA -7.5459756667814943 -4.6649246305041325 -5.7523086500403515 -7.997098042195776 -7.7177195706787591 -6.6591984107180169 -7.1910258843520509 -7.5213189005992733 -7.1364917737699942 -8.1154920343717247 -7.2243355402676537 -8.2132355887311306 -6.25854957118817 -6.6322314650550975 -7.0407436958039922 -4.4287335002272021 -3.830802117597111 -3.8586683680564726 -6.0781493724690447 -3.9017182598077684 -1.1465287205040751 -7.3826018600322607 -6.3976762510661773 -4.1632802664393278 -2.9454241415409523 -7.0325338165499653 -3.7908830202145509 -7.7898131437146381 -4.6583253522679646 -5.8216792679909162 -8.5618019174713691 -3.6245797555508594 -7.4663121853068821 -5.8956892323021783 -6.4919162165355466 -3.6857324952074153 -2.0634644319915165 -5.5840045849183637 -2.074190831646427 -5.3828873315753345 -4.7708090874339204 -3.2022410006688724 -7.7733779686151872 -2.9448703446174629 -3.7399975796502889
probB -0.43612534303889544 1.6614234771527794 0.010837208367357349 1.089330555500245 0.36055379191715375 0.87132493296500968 -0.3980615220509337 0.04079892629235405 2.1893458939426047 4.5461203776179335 1.5507026871447764 1.9098300886675432 2.4763717781015848 2.8242815060747866 1.6281114526403615 0.089269440613300721 -0.23192913030609069 -0.046148330464807923 -0.065390358546736221 0.11042706231774954 0.13909116393133517 -1.0067178516161519 -2.3105556970112739 -0.060438564416667388 0.12905106437334121 0.25513209979327106 0.14277023018589166 -0.68432669951674652 -0.96040607886367424 -0.095108613004843759 0.62896085016482639 0.48738454586331492 -0.69111209166856846 -0.75351008087353466 -0.52282260517940704 0.54182764870620603 -0.21417752212867322 -1.302406835588453 -0.21978983027349078 -2.3789730736381642 -0.69376519770069145 -0.38695499118380389 -0.064631245287713995 0.66319332725609614 -0.64886556064042711
nr_sv 435 441 460 450 414 476 474 462 486 465
SV
0.13600309723266157 0.2275321060407918 0.18391286419901146 0.13131936521636287 0.11748193729627605 0.21803107994269744 0 0.18225589315146537 0.10203595748332724 1:0.989899 2:0.969697 3:0.464646 4:1 5:0.0707071 6:0.737374 7:0.40404 8:0.272727 9:0.10101 10:0.848485 11:1 12:0.22 13:0.38 14:0.24 
0.13600309723266157 0 0 0 0 0 0 0.18225589315146537 0 1:0.969697 2:1 3:0.505051 4:1 5:0.131313 6:0.676768 7:0.313131 8:0.272727 9:1 10:0.121212 11:0.73 12:0.32 13:0.1 14:0.1 
0 0 0 0 0 0.21803107994269744 0.12394596498984151 0 0 1:1 2:1 3:0.545455 4:0.787879 5:0.212121 6:0.545455 7:0.262626 8:0.131313 9:0.606061 10:0.121212 11:0.53 12:0.39 13:0.02 14:0.37 
0.13600309723266157 0.2275321060407918 0.18391286419901146 0.13131936521636287 0.11748193729627605 0.21803107994269744 0.12394596498984151 0.18225589315146537 0.10203595748332724 1:0.767677 2:1 3:0.545455 4:0.747475 5:0.393939 6:0.474747 7:0.353535 8:0.20202 9:0.636364 10:1 11:0.16 12:0.49 13:0.21 14:0.1 
0 0 0.18391286419901146 0 0 0 0 0.18225589315146537 0 1:1 2:1 3:0.393939 4:0.828283 5:0.010101 6:0.505051 7:0.151515 8:0.666667 9:0.0808081 10:0.888889 11:0.38 12:0.18 13:0.32 14:0.11 
0 0 0 0 0.11748193729627605 0 0.12394596498984151 0 0 1:1 2:1 3:0.59596 4:0.888889 5:0.252525 6:0.646465 7:0.020202 8:0.353535 9:0.030303 10:0.424242 11:0.51 12:0.26 13:0.12 14:0.31 
0 0.1867254593756712 0 0 0.11748193729627605 0 0.12394596498984151 0 0.10203595748332724 1:1 2:1 3:0.616162 4:0.858586 5:0.292929 6:0.656566 7:0.0606061 8:0.40404 9:0.111111 10:0.353535 11:0.59 12:0.18 13:0.17 14:0.25 
0 0.2275321060407918 0 0 0.11748193729627605 0 0.12394596498984151 0 0.10203595748332724 1:1 2:1 3:0.656566 4:0.848485 5:0.383838 6:0.606061 7:0.151515 8:0.333333 9:0.0909091 10:0.020202 11:0.45 12:0.36 13:0.22 14:0.12 
0 0 0 0.13131936521636287 0 0 0 0 0 1:0.757576 2:1 3:0.353535 4:0.747475 5:0.0909091 6:0.464646 7:0.161616 8:0.424242 9:1 10:0.111111 11:0.63 12:0.31 13:0.03 14:0.23 
0 0 0 0 0 0 0.12394596498984151 0 0 1:1 2:1 3:0.555556 4:0.909091 5:0.242424 6:0.676768 7:0.030303 8:0.424242 9:0.141414 10:0.363636 11:0.61 12:0.2 13:0.12 14:0.24 
0 0 0.18391286419901146 0.13131936521636287 0 0 0 0 0 1:0.888889 2:1 3:0.414141 4:0.838384 5:0.111111 6:0.525253 7:0.0606061 8:0.191919 9:0.59596 10:1 11:0.2 12:0.5 13:0.38 14:0.19 
0.13600309723266157 0.2275321060407918 0.18391286419901146 0.13131936521636287 0.11748193729627605 0.21803107994269744 0.12394596498984151 0.18225589315146537 0.10203595748332724 1:0.969697 2:1 3:0.606061 4:0.949495 5:0.333333 6:0.59596 7:0.242424 8:0.222222 9:0.646465 10:1 11:0.25 12:0.53 13:0.44 14:0.31 
0 0 0.18391286419901146 0.13131936521636287 0 0 0 0 0 1:0.727273 2:1 3:0.252525 4:0.777778 5:0.040404 6:0.424242 7:0.121212 8:0.0707071 9:0.686869 10:1 11:0.31 12:0.44 13:0.36 14:0.09 
0 0 0.18391286419901146 0 0 0 0 0 0 1:1 2:1 3:0.474747 4:0.888889 5:0.111111 6:0.646465 7:0.373737 8:0.141414 9:0.111111 10:0.787879 11:0.7 12:0.26 13:0.03 14:0.23 
0.13600309723266157 0.2275321060407918 0.18391286419901146 0.13131936521636287 0.11748193729627605 0.21803107994269744 0.12394596498984151 0.18225589315146537 0.10203595748332724 1:0.545455 2:1 3:0.151515 4:0.888889 5:0.585859 6:0.030303 7:0.272727 8:0.333333 9:1 11:0.9 12:0.25 13:0.32 14:0.1 
0.13600309723266157 0 0 0 0.11748193729627605 0 0 0.18225589315146537 0.10203595748332724 1:1 2:1 3:0.656566 4:0.89899 5:0.242424 6:0.585859 7:0.232323 8:0.353535 9:0.979798 10:0.111111 11:0.62 12:0.34 13:0.26 
0 0 0 0 0.11748193729627605 0 0.12394596498984151 0 0 1:1 2:1 3:0.575758 4:0.848485 5:0.222222 6:0.585859 7:0.292929 8:0.0808081 9:0.575758 10:0.040404 11:0.6 12:0.34 13:0.07 14:0.25 
0.13600309723266157 0.2275321060407918 0.18391286419901146 0.13131936521636287 0.11748193729627605 0.21803107994269744 0.12394596498984151 0.18225589315146537 0.10203595748332724 1:0.474747 2:1 3:0.151515 4:0.787879 5:0.454545 6:0.111111 7:0.111111 8:0.545455 9:1 10:0.0909091 11:0.75 12:0.29 13:0.33 14:0.16 
0.13600309723266157 0.2275321060407918 0 0.13131936521636287 0.11748193729627605 0.21803107994269744 0 0.18225589315146537 0 1:1 2:1 3:0.494949 4:0.979798 5:0.151515 6:0.666667 7:0.292929 8:0.252525 9:0.79798 10:0.0707071 11:0.81 12:0.34 13:0.29 14:0.24 
0 0.2275321060407918 0.18391286419901146 0.024387512867411445 0 0.21803107994269744 0 0 0 1:1 2:1 3:0.525253 4:0.808081 5:0.242424 6:0.535354 7:0.10101 8:0.242424 9:0.373737 10:0.989899 11:0.08 12:0.65 13:0.29 14:0.25 
0 0 0 0.13131936521636287 0 0.21803107994269744 0 0 0 1:1 2:1 3:0.545455 4:0.787879 5:0.181818 6:0.525253 7:0.242424 8:0.252525 9:0.888889 10:0.0707071 11:0.75 12:0.34 13:0.07 14:0.37 
0 0 0 0 0.11748193729627605 0.21803107994269744 0.12394596498984151 0 0 1:1 2:1 3:0.555556 4:0.929293 5:0.20202 6:0.626263 7:0.30303 8:0.181818 9:0.787879 10:0.0505051 11:0.77 12:0.37 13:0.17 14:0.29 
0.13600309723266157 0.2275321060407918 0.18391286419901146 0.13131936521636287 0.11748193729627605 0.21803107994269744 0.12394596498984151 0.18225589315146537 0.10203595748332724 1:0.40404 2:1 3:0.0505051 4:0.888889 5:0.565657 6:0.111111 7:0.242424 8:0.535354 9:0.030303 10:1 11:0.24 12:0.55 13:0.25 14:0.17 
0 0.2275321060407918 0.18391286419901146 0.13131936521636287 0.11748193729627605 0.21803107994269744 0 0.18225589315146537 0 1:0.909091 2:1 3:0.474747 4:0.787879 5:0.222222 6:0.494949 7:0.171717 8:0.171717 9:0.616162 10:1 11:0.18 12:0.55 13:0.38 14:0.34 
0.13600309723266157 0 0 0 0.11748193729627605 0 0.12394596498984151 0 0.10203595748332724 1:1 2:1 3:0.676768 4:0.868687 5:0.393939 6:0.606061 7:0.111111 8:0.333333 9:0.040404 10:0.414141 11:0.59 12:0.2 13:0.08 14:0.15 
0 0 0 0 0.11748193729627605 0 0.097080483417579758 0 0 1:1 2:1 3:0.575758 4:0.808081 5:0.262626 6:0.555556 8:0.272727 9:0.525253 10:0.040404 11:0.53 12:0.3 13:0.27 
0.13600309723266157 0.2275321060407918 0.18391286419901146 0.13131936521636287 0.11748193729627605 0.21803107994269744 0.12394596498984151 0.18225589315146537 0.10203595748332724 1:0.454545 2:1 3:0.30303 4:0.858586 5:0.040404 6:0.555556 7:0.232323 8:0.343434 9:0.909091 11:1 12:0.28 13:0.47 14:0.32 
0 0 0 0 0.11748193729627605 0 0.12394596498984151 0 0.10203595748332724 1:1 2:1 3:0.585859 4:0.919192 5:0.242424 6:0.646465 7:0.323232 8:0.030303 9:0.525253 10:0.010101 11:0.48 12:0.3 13:0.01 14:0.33 
0 0.2275321060407918 0 0 0.11748193729627605 0.21803107994269744 0.12394596498984151 0 0.10203595748332724 1:1 2:0.929293 3:0.636364 4:1 5:0.292929 6:0.717172 7:0.0909091 8:0.414141 9:0.111111 10:0.10101 11:0.72 12:0.66 13:0.24 14:0.14 
0.13600309723266157 0.2275321060407918 0.18391286419901146 0.13131936521636287 0.11748193729627605 0.21803107994269744 0.12394596498984151 0.18225589315146537 0.10203595748332724 1:0.545455 2:1 3:0.212121 4:0.89899 5:0.535354 6:0.111111 7:0.151515 8:0.575758 9:0.030303 10:1 11:0.2 12:0.56 13:0.25 14:0.18 
0 0 0.18391286419901146 0.13131936521636287 0 0.21803107994269744 0 0.18225589315146537 0 1:0.747475 2:1 3:0.30303 4:0.89899 5:0.020202 6:0.585859 7:0.242424 8:0.383838 9:1 10:0.131313 11:0.75 12:0.39 13:0.11 14:0.29 
0 0.2275321060407918 0.18391286419901146 0.13131936521636287 0.11748193729627605 0.21803107994269744 0 0.18225589315146537 0 1:1 2:1 3:0.454545 4:0.89899 5:0.121212 6:0.59596 7:0.272727 8:0.292929 9:0.828283 10:0.151515 11:0.85 12:0.49 13:0.3 14:0.43 
0.13600309723266157 0 0.18391286419901146 0.13131936521636287 0 0.21803107994269744 0.12394596498984151 0.18225589315146537 0.10203595748332724 1:0.545455 2:1 3:0.171717 4:0.777778 5:0.484848 6:0.040404 7:0.191919 8:0.454545 9:1 10:0.111111 11:0.68 12:0.29 13:0.1 14:0.22 
0 0.2275321060407918 0 0 0.11748193729627605 0.21803107994269744 0.12394596498984151 0 0.10203595748332724 1:1 2:1 3:0.616162 4:0.808081 5:0.343434 6:0.575758 7:0.171717 8:0.323232 9:0.30303 10:0.0606061 11:0.76 12:0.49 13:0.18 14:0.17 
0 0.2275321060407918 0.18391286419901146 0.13131936521636287 0.11748193729627605 0.21803107994269744 0 0 0 1:0.949495 2:1 3:0.545455 4:0.777778 5:0.242424 6:0.505051 7:0.0808081 8:0.222222 9:0.393939 10:1 11:0.15 12:0.64 13:0.34 14:0.23 
0.13600309723266157 0 0 0 0.11748193729627605 0 0.12394596498984151 0 0.10203595748332724 1:1 2:1 3:0.606061 4:0.909091 5:0.262626 6:0.676768 7:0.383838 8:0.010101 9:0.393939 10:0.535354 11:0.27 12:0.15 13:0.2 
0.13600309723266157 0.2275321060407918 0.18391286419901146 0.13131936521636287 0.11748193729627605 0.21803107994269744 0.12394596498984151 0.18225589315146537 0.10203595748332724 1:0.373737 2:0.757576 3:0.575758 4:1 5:0.20202 6:0.646465 7:0.262626 8:0.434343 9:1 10:0.212121 11:0.45 12:0.36 13:0.22 14:0.08 
0.13600309723266157 0.2275321060407918 0 0.13131936521636287 0.11748193729627605 0.21803107994269744 0.12394596498984151 0.18225589315146537 0.10203595748332724 1:0.919192 2:1 3:0.828283 4:0.888889 5:0.363636 6:0.585859 7:0.262626 8:0.292929 9:1 10:0.0707071 11:0.9 12:0.3 13:0.2 14:0.23 
0.13600309723266157 0.2275321060407918 0 0.13131936521636287 0.11748193729627605 0.21803107994269744 0.12394596498984151 0.18225589315146537 0.10203595748332724 1:0.747475 2:1 3:0.434343 4:0.69697 5:0.222222 6:0.333333 7:0.464646 8:0.030303 9:1 10:0.0505051 11:0.89 12:0.29 13:0.36 14:0.26 
0.13600309723266157 0.2275321060407918 0.18391286419901146 0.13131936521636287 0 0.21803107994269744 0.12394596498984151 0 0.10203595748332724 1:0.151515 2:1 3:0.10101 4:0.707071 5:0.040404 6:0.383838 7:0.282828 8:0.10101 9:0.848485 10:0.10101 11:1 12:0.28 13:0.46 14:0.18 
0.13600309723266157 0.2275321060407918 0.18391286419901146 0 0.11748193729627605 0.21803107994269744 0.12394596498984151 0.18225589315146537 0.10203595748332724 1:0.858586 2:0.707071 3:1 4:1 5:0.575758 6:0.787879 7:0.232323 8:0.505051 9:0.161616 10:0.272727 11:0.43 12:0.25 13:0.02 14:0.21 
0.13600309723266157 0.2275321060407918 0.18391286419901146 0.13131936521636287 0 0.21803107994269744 0 0.18225589315146537 0 1:0.727273 2:1 3:0.343434 4:0.929293 5:0.0505051 6:0.606061 7:0.242424 8:0.414141 9:1 10:0.171717 11:0.72 12:0.42 13:0.19 14:0.21 
0.13600309723266157 0.2275321060407918 0.18391286419901146 0 0.11748193729627605 0.21803107994269744 0.12394596498984151 0.18225589315146537 0.10203595748332724 1:1 2:1 3:0.717172 4:0.878788 5:0.515152 6:0.59596 7:0.333333 8:0.30303 9:0.313131 10:0.747475 11:0.04 12:0.51 13:0.25 14:0.24 
0 0 0 0 0 0 0.12394596498984151 0 0 1:1 2:1 3:0.525253 4:0.868687 5:0.232323 6:0.585859 7:0.010101 8:0.30303 9:0.494949 10:0.030303 11:0.62 12:0.3 13:0.12 14:0.32 
0.13600309723266157 0 0 0.13131936521636287 0 0 0 0.18225589315146537 0.10203595748332724 1:0.737374 2:1 3:0.363636 4:0.858586 5:0.0505051 6:0.555556 7:0.212121 8:0.444444 9:1 10:0.0909091 11:0.55 12:0.32 13:0.34 
0.13600309723266157 0 0 0 0 0 0.12394596498984151 0.18225589315146537 0.10203595748332724 1:0.656566 2:1 3:0.494949 4:0.858586 5:0.20202 6:0.555556 7:0.252525 8:0.252525 9:1 10:0.151515 11:0.53 12:0.33 13:0.15 14:0.07 
0.13600309723266157 0.2275321060407918 0.18391286419901146 0 0.11748193729627605 0.21803107994269744 0.12394596498984151 0 0.10203595748332724 1:1 2:1 3:0.656566 4:0.858586 5:0.40404 6:0.575758 7:0.232323 8:0.282828 9:0.262626 10:0.787879 11:0.02 12:0.56 13:0.21 14:0.26 
0 0 0.18391286419901146 0 0 0 0 0 0 1:0.727273 2:1 3:0.444444 4:0.787879 5:0.171717 6:0.484848 7:0.0606061 8:0.151515 9:0.484848 10:1 11:0.14 12:0.55 13:0.21 14:0.12 
0 0 0 0 0 0 0.12394596498984151 0 0 1:1 2:1 3:0.555556 4:0.858586 5:0.222222 6:0.606061 7:0.292929 8:0.131313 9:0.585859 10:0.0606061 11:0.47 12:0.33 13:0.01 14:0.27 
0.13600309723266157 0 0.18391286419901146 0.13131936521636287 0 0.21803107994269744 0.12394596498984151 0.18225589315146537 0.10203595748332724 1:0.585859 2:1 3:0.191919 4:0.777778 5:0.454545 6:0.0707071 7:0.121212 8:0.656566 9:1 10:0.222222 11:0.46 12:0.36 13:0.14 14:0.14 
0.13600309723266157 0.2275321060407918 0.18391286419901146 0.13131936521636287 0.11748193729627605 0.21803107994269744 0.12394596498984151 0.18225589315146537 0.10203595748332724 1:0.69697 2:1 3:0.444444 4:0.858586 5:0.10101 6:0.525253 7:0.141414 8:0.565657 9:1 10:0.252525 11:0.67 12:0.57 13:0.67 
0.13600309723266157 0.2275321060407918 0.18391286419901146 0.13131936521636287 0.11748193729627605 0.21803107994269744 0.12394596498984151 0.18225589315146537 0.10203595748332724 1:0.151515 2:1 3:0.565657 4:0.545455 5:0.545455 6:0.434343 7:0.111111 8:0.161616 9:0.0505051 10:0.767677 11:0.45 12:0.98 13:1 14:1 
0.13600309723266157 0.2275321060407918 0.18391286419901146 0.13131936521636287 0.11748193729627605 0.21803107994269744 0.12394596498984151 0.18225589315146537 0.10203595748332724 1:0.848485 2:1 3:0.707071 4:1 5:0.242424 6:0.676768 7:0.313131 8:0.30303 9:1 10:0.151515 11:0.78 12:0.49 13:0.07 14:0.67 
0 0 0 0.13131936521636287 0 0.21803107994269744 0 0 0 1:0.787879 2:1 3:0.414141 4:0.808081 5:0.0909091 6:0.535354 7:0.252525 8:0.232323 9:1 10:0.040404 11:0.88 12:0.31 13:0.08 14:0.4 
0.13600309723266157 0 0 0 0 0 0 0.16752481562790175 0 1:0.969697 2:1 3:0.626263 4:0.89899 5:0.292929 6:0.555556 7:0.10101 8:0.191919 9:0.474747 10:1 11:0.22 12:0.39 13:0.27 14:0.04 
0 0 0 0 0 0 0 0.18225589315146537 0 1:0.919192 2:1 3:0.454545 4:0.818182 5:0.0707071 6:0.474747 7:0.10101 8:0.69697 9:1 10:0.313131 11:0.26 12:0.32 13:0.14 14:0.02 
0 0.2275321060407918 0.18391286419901146 0.13131936521636287 0.11748193729627605 0.21803107994269744 0.12394596498984151 0.18225589315146537 0.10203595748332724 1:0.818182 2:1 3:0.636364 4:0.747475 5:0.151515 6:0.454545 7:0.121212 8:0.727273 10:1 11:0.2 12:0.27 13:0.27 14:0.47 
0.13600309723266157 0 0 0 0 0 0 0.18225589315146537 0 1:0.808081 2:1 3:0.313131 4:0.818182 5:0.0505051 6:0.545455 7:0.262626 8:0.222222 9:1 10:0.969697 11:0.25 12:0.16 13:0.18 
0 0.2275321060407918 0 0 0.11748193729627605 0.21803107994269744 0.12394596498984151 0 0.10203595748332724 1:1 2:1 3:0.575758 4:0.858586 5:0.262626 6:0.656566 7:0.0606061 8:0.424242 9:0.171717 10:0.333333 11:0.72 12:0.14 13:0.43 14:0.29 
0 0 0 0.13131936521636287 0 0.21803107994269744 0 0.18225589315146537 0 1:0.858586 2:1 3:0.363636 4:0.909091 5:0.0606061 6:0.59596 7:0.262626 8:0.353535 9:1 10:0.040404 11:0.83 12:0.31 13:0.2 14:0.25 
0.13600309723266157 0.2275321060407918 0.18391286419901146 0.13131936521636287 0 0.21803107994269744 0.12394596498984151 0.18225589315146537 0 1:0.545455 2:1 3:0.343434 4:0.838384 5:0.0808081 6:0.575758 7:0.292929 8:0.242424 9:0.030303 10:0.919192 11:1 12:0.25 13:0.31 14:0.16 
0 0.2275321060407918 0.18391286419901146 0.13131936521636287 0.11748193729627605 0.21803107994269744 0.12394596498984151 0 0.10203595748332724 1:1 2:1 3:0.565657 4:0.909091 5:0.212121 6:0.656566 7:0.353535 8:0.0909091 9:0.040404 10:0.555556 11:0.65 12:0.31 13:0.27 14:0.51 
0 0 0.18391286419901146 0 0 0 0 0 0 1:1 2:1 3:0.474747 4:0.818182 5:0.161616 6:0.545455 7:0.0606061 8:0.232323 9:0.414141 10:0.959596 11:0.12 12:0.6 13:0.33 14:0.28 
0.13600309723266157 0.2275321060407918 0.18391286419901146 0 0.11748193729627605 0.21803107994269744 0.12394596498984151 0.18225589315146537 0.10203595748332724 1:1 2:1 3:0.848485 4:0.858586 5:0.59596 6:0.616162 7:0.40404 8:0.353535 9:0.282828 10:0.0808081 11:0.58 12:0.46 13:0.21 14:0.21 
0.13600309723266157 0.2275321060407918 0.18391286419901146 0.13131936521636287 0.11748193729627605 0.21803107994269744 0.12394596498984151 0.18225589315146537 0.10203595748332724 1:0.525253 2:1 3:0.343434 4:0.929293 5:0.0505051 6:0.606061 7:0.272727 8:0.353535 9:0.959596 10:0.111111 11:1 12:0.42 13:0.37 14:0.28 
0 0.2275321060407918 0 0 0.11748193729627605 0.21803107994269744 0.12394596498984151 0 0.10203595748332724 1:1 2:1 3:0.59596 4:0.909091 5:0.30303 6:0.686869 7:0.111111 8:0.434343 9:0.030303 10:0.161616 11:0.34 12:0.46 13:0.2 14:0.21 
0 0 0.18391286419901146 0.13131936521636287 0 0.21803107994269744 0 0.18225589315146537 0 1:0.858586 2:1 3:0.40404 4:0.787879 5:0.0909091 6:0.494949 7:0.171717 8:0.444444 9:1 10:0.10101 11:0.78 12:0.36 13:0.22 14:0.29 
0.13600309723266157 0.2275321060407918 0.18391286419901146 0 0.11748193729627605 0.21803107994269744 0.12394596498984151 0.18225589315146537 0.10203595748332724 1:1 2:0.868687 3:0.959596 4:1 5:0.484848 6:0.727273 7:0.10101 8:0.434343 9:0.0909091 10:0.59596 11:0.73 12:0.27 13:0.16 14:0.27 
0 0 0 0.13131936521636287 0 0 0 0 0 1:0.515152 2:1 3:0.141414 4:0.858586 6:0.525253 7:0.191919 8:0.444444 9:1 10:0.0505051 11:0.64 12:0.18 13:0.12 14:0.08 
0.13600309723266157 0.2275321060407918 0.18391286419901146 0.13131936521636287 0.11748193729627605 0.21803107994269744 0.12394596498984151 0.18225589315146537 0.10203595748332724 1:1 2:1 3:0.616162 4:0.757576 5:0.333333 6:0.484848 7:0.181818 8:0.191919 9:0.545455 10:1 11:0.16 12:0.58 13:0.34 14:0.32 
0 0 0 0 0 0 0.12394596498984151 0 0 1:1 2:0.989899 3:0.585859 4:1 5:0.262626 6:0.717172 7:0.0505051 8:0.393939 9:0.0505051 10:0.424242 11:0.55 12:0.29 13:0.06 14:0.15 
0.13600309723266157 0.2275321060407918 0 0 0.11748193729627605 0.21803107994269744 0.12394596498984151 0.18225589315146537 0.10203595748332724 1:1 2:1 3:0.757576 4:0.949495 5:0.494949 6:0.717172 7:0.252525 8:0.484848 9:0.0505051 10:0.252525 11:0.46 12:0.02 13:0.25 14:0.2 
0.13600309723266157 0 0 0 0.11748193729627605 0 0.12394596498984151 0 0.10203595748332724 1:1 2:1 3:0.686869 4:0.909091 5:0.424242 6:0.717172 7:0.171717 8:0.484848 9:0.212121 10:0.151515 11:0.34 12:0.11 13:0.03 14:0.1 
0.13600309723266157 0.2275321060407918 0 0 0.11748193729627605 0 0.12394596498984151 0 0.10203595748332724 1:1 2:1 3:0.737374 4:0.919192 5:0.434343 6:0.626263 7:0.181818 8:0.313131 9:0.212121 10:0.666667 11:0.06 12:0.38 13:0.24 14:0.05 
0 0.2275321060407918 0.05294425348630781 0.13131936521636287 0 0.21803107994269744 0 0.18225589315146537 0 1:1 2:1 3:0.535354 4:0.828283 5:0.191919 6:0.545455 7:0.232323 8:0.333333 9:0.919192 10:0.111111 11:0.79 12:0.38 13:0.16 14:0.46 
0.13600309723266157 0 0.18391286419901146 0.13131936521636287 0 0 0 0.18225589315146537 0 1:0.59596 2:1 3:0.343434 4:0.747475 5:0.0707071 6:0.464646 7:0.161616 8:0.454545 9:1 10:0.111111 11:0.7 12:0.26 13:0.25 14:0.06 
0.13600309723266157 0.2275321060407918 0.18391286419901146 0.13131936521636287 0 0.21803107994269744 0.12394596498984151 0.18225589315146537 0.10203595748332724 1:0.474747 2:1 3:0.383838 4:0.888889 5:0.131313 6:0.555556 7:0.111111 8:0.181818 9:0.565657 10:1 11:0.17 12:0.52 13:0.3 14:0.15 
0 0.2275321060407918 0 0 0 0.21803107994269744 0 0 0 1:0.969697 2:1 3:0.474747 4:0.919192 5:0.141414 6:0.555556 7:0.030303 8:0.161616 9:0.626263 10:0.030303 11:1 12:0.34 13:0.3 14:0.34 
0.13600309723266157 0.2275321060407918 0.18391286419901146 0.13131936521636287 0 0.05629990214616009 0.12394596498984151 0 0.10203595748332724 1:0.313131 2:1 3:0.111111 4:0.757576 5:0.474747 7:0.20202 8:0.383838 9:1 10:0.0808081 11:0.64 12:0.21 13:0.18 14:0.03 
0 0.2275321060407918 0 0 0.11748193729627605 0.21803107994269744 0.12394596498984151 0 0.10203595748332724 1:1 2:1 3:0.585859 4:0.89899 5:0.353535 6:0.616162 7:0.181818 8:0.323232 9:0.0909091 10:0.020202 11:0.42 12:0.42 13:0.27 14:0.37 
0.13600309723266157 0.2275321060407918 0.18391286419901146 0.13131936521636287 0.11748193729627605 0.21803107994269744 0.12394596498984151 0.18225589315146537 0.10203595748332724 1:1 2:1 3:0.575758 4:0.888889 5:0.333333 6:0.545455 7:0.242424 8:0.171717 9:0.575758 10:0.787879 11:0.32 12:0.39 13:0.48 14:0.27 
0 0.2275321060407918 0.18391286419901146 0.13131936521636287 0 0.21803107994269744 0 0 0 1:0.606061 2:1 3:0.272727 4:0.727273 5:0.10101 6:0.434343 7:0.181818 8:0.111111 9:0.69697 10:1 11:0.22 12:0.49 13:0.36 14:0.21 
0.13600309723266157 0.2275321060407918 0.18391286419901146 0 0.11748193729627605 0.21803107994269744 0.12394596498984151 0.18225589315146537 0.10203595748332724 1:1 2:0.909091 3:0.959596 4:1 5:0.494949 6:0.69697 7:0.0808081 8:0.393939 9:0.0505051 10:0.757576 11:0.93 12:0.26 13:0.28 14:0.21 
0.13600309723266157 0.2275321060407918 0 0.13131936521636287 0.11748193729627605 0.21803107994269744 0.12394596498984151 0 0.10203595748332724 1:0.69697 2:1 3:0.484848 4:0.818182 5:0.252525 6:0.515152 7:0.181818 8:0.191919 9:0.616162 10:0.020202 11:1 12:0.19 13:0.43 14:0.2 
0.13600309723266157 0.2275321060407918 0.18391286419901146 0 0.11748193729627605 0 0.12394596498984151 0.18225589315146537 0.10203595748332724 1:0.969697 2:0.888889 3:0.676768 4:1 5:0.313131 6:0.676768 7:0.121212 8:0.313131 9:0.383838 10:1 11:0.1 12:0.46 13:0.26 14:0.1 
0.13600309723266157 0.2275321060407918 0.18391286419901146 0.13131936521636287 0 0.21803107994269744 0 0.18225589315146537 0 1:1 2:1 3:0.464646 4:0.959596 5:0.0909091 6:0.686869 7:0.363636 8:0.313131 9:0.0707071 10:0.878788 11:0.84 12:0.25 13:0.26 14:0.25 
0.13600309723266157 0.2275321060407918 0.18391286419901146 0.13131936521636287 0.11748193729627605 0.21803107994269744 0.12394596498984151 0.18225589315146537 0.10203595748332724 1:0.262626 2:1 3:0.0707071 4:0.727273 5:0.444444 6:0.10101 7:0.161616 8:0.505051 9:1 10:0.020202 11:0.82 12:0.2 13:0.37 14:0.09 
0 0 0 0.13131936521636287 0 0.21803107994269744 0 0.18225589315146537 0 1:1 2:1 3:0.525253 4:0.767677 5:0.171717 6:0.494949 7:0.181818 8:0.414141 9:0.969697 10:0.151515 11:0.68 12:0.4 13:0.11 14:0.35 
0 0 0.18391286419901146 0 0 0.21803107994269744 0.12394596498984151 0 0 1:1 2:1 3:0.585859 4:0.828283 5:0.232323 6:0.565657 7:0.282828 8:0.111111 10:0.727273 11:0.62 12:0.26 13:0.07 14:0.43 
0 0 0 0 0.11748193729627605 0.21803107994269744 0.12394596498984151 0 0.10203595748332724 1:1 2:1 3:0.626263 4:0.929293 5:0.232323 6:0.636364 7:0.292929 8:0.20202 9:0.69697 10:0.171717 11:0.47 12:0.46 13:0.03 14:0.33 
0.13600309723266157 0.2275321060407918 0.18391286419901146 0 0.11748193729627605 0.21803107994269744 0.12394596498984151 0.18225589315146537 0.10203595748332724 1:1 2:0.858586 3:0.89899 4:1 5:0.484848 6:0.707071 7:0.151515 8:0.373737 9:0.141414 10:0.676768 11:0.04 12:0.53 13:0.37 14:0.27 
0.13600309723266157 0.2275321060407918 0.18391286419901146 0 0.11748193729627605 0.21803107994269744 0.12394596498984151 0 0.10203595748332724 1:1 2:0.919192 3:0.636364 4:1 5:0.363636 6:0.767677 7:0.191919 8:0.494949 9:0.10101 10:0.20202 11:0.22 12:0.35 13:0.26 14:0.4 
0.13600309723266157 0.2275321060407918 0.18391286419901146 0.13131936521636287 0.11748193729627605 0.21803107994269744 0.12394596498984151 0.18225589315146537 0.10203595748332724 1:0.606061 2:0.848485 3:0.464646 4:1 5:0.0707071 6:0.69697 7:0.333333 8:0.40404 9:0.0606061 10:1 11:0.11 12:0.55 13:0.24 14:0.09 
0 0 0.18391286419901146 0 0 0 0 0.18225589315146537 0 1:1 2:1 3:0.424242 4:0.838384 5:0.111111 6:0.575758 7:0.30303 8:0.161616 9:0.040404 10:0.909091 11:0.98 12:0.15 13:0.21 14:0.11 
0 0 0.18391286419901146 0.13131936521636287 0 0 0 0 0 1:0.686869 2:1 3:0.262626 4:0.787879 5:0.020202 6:0.505051 7:0.0707071 8:0.20202 9:0.505051 10:1 11:0.03 12:0.56 13:0.22 14:0.28 
0 0 0.18391286419901146 0.13131936521636287 0 0 0 0 0 1:0.59596 2:1 3:0.181818 4:0.757576 6:0.444444 7:0.020202 8:0.121212 9:0.555556 10:1 11:0.2 12:0.44 13:0.27 14:0.05 
0 0 0 0 0 0 0 0.18225589315146537 0 1:1 2:1 3:0.434343 4:0.79798 5:0.10101 6:0.464646 7:0.10101 8:0.555556 9:1 10:0.292929 11:0.55 12:0.44 13:0.19 
0 0.2275321060407918 0.18391286419901146 0.13131936521636287 0 0.21803107994269744 0 0 0 1:0.717172 2:1 3:0.313131 4:0.79798 5:0.0808081 6:0.484848 7:0.121212 8:0.151515 9:0.585859 10:1 11:0.24 12:0.59 13:0.41 14:0.31 
0 0.2275321060407918 0 0 0.11748193729627605 0.21803107994269744 0.12394596498984151 0 0.10203595748332724 1:1 2:1 3:0.626263 4:0.989899 5:0.282828 6:0.737374 7:0.020202 8:0.424242 9:0.0505051 10:0.40404 11:0.66 12:0.22 13:0.25 14:0.31 
0.13600309723266157 0.2275321060407918 0.18391286419901146 0 0.11748193729627605 0 0.12394596498984151 0.18225589315146537 0.10203595748332724 1:1 2:0.969697 3:0.686869 4:1 5:0.333333 6:0.686869 7:0.121212 8:0.323232 9:0.30303 10:0.89899 11:0.04 12:0.55 13:0.24 14:0.1 
0 0.2275321060407918 0.18391286419901146 0.13131936521636287 0 0 0 0 0 1:0.828283 2:1 3:0.494949 4:0.848485 5:0.171717 6:0.515152 7:0.0909091 8:0.131313 9:0.585859 10:1 11:0.24 12:0.51 13:0.36 14:0.18 
0.13600309723266157 0.2275321060407918 0.18391286419901146 0.13131936521636287 0.11748193729627605 0.21803107994269744 0.12394596498984151 0.18225589315146537 0.10203595748332724 1:1 2:1 3:0.575758 4:0.949495 5:0.191919 6:0.707071 7:0.424242 8:0.0606061 9:0.121212 10:0.575758 11:0.97 12:0.21 13:0.54 14:0.33 
0 0 0 0 0.11748193729627605 0 0 0 0 1:1 2:1 3:0.515152 4:0.868687 5:0.161616 6:0.59596 7:0.282828 8:0.161616 9:0.707071 10:0.030303 11:0.58 12:0.29 13:0.3 
0.13600309723266157 0.2275321060407918 0.18391286419901146 0.13131936521636287 0.11748193729627605 0.21803107994269744 0.12394596498984151 0.18225589315146537 0.10203595748332724 1:0.626263 2:1 3:0.242424 4:0.79798 5:0.474747 6:0.111111 7:0.535354 8:1 9:0.232323 10:0.69697 11:0.43 12:0.21 13:0.2 
0.13600309723266157 0.2275321060407918 0.18391286419901146 0 0 0 0 0.18225589315146537 0.10203595748332724 1:1 2:0.808081 3:0.515152 4:1 5:0.0505051 6:0.747475 7:0.383838 8:0.30303 9:0.0505051 10:0.89899 11:0.68 12:0.3 13:0.1 14:0.19 
0.13600309723266157 0.2275321060407918 0.18391286419901146 0.13131936521636287 0.11748193729627605 0.21803107994269744 0.12394596498984151 0.18225589315146537 0.10203595748332724 1:0.737374 2:1 3:0.242424 4:0.919192 5:0.626263 6:0.020202 7:0.313131 8:0.383838 9:0.0505051 10:1 11:0.09 12:0.74 13:0.25 14:0.38 
0 0.2275321060407918 0 0 0.11748193729627605 0.21803107994269744 0.12394596498984151 0 0.10203595748332724 1:1 2:1 3:0.626263 4:0.787879 5:0.343434 6:0.565657 7:0.111111 8:0.333333 9:0.030303 10:0.0808081 11:0.44 12:0.6 13:0.21 14:0.2 
0 0.2275321060407918 0.18391286419901146 0.13131936521636287 0 0.21803107994269744 0 0.18225589315146537 0 1:0.757576 2:1 3:0.333333 4:0.767677 5:0.0606061 6:0.474747 7:0.161616 8:0.464646 9:1 10:0.121212 11:0.78 12:0.37 13:0.21 14:0.29 
0 0.2275321060407918 0.18391286419901146 0.13131936521636287 0 0 0 0 0 1:0.848485 2:1 3:0.363636 4:0.787879 5:0.121212 6:0.464646 7:0.131313 8:0.131313 9:0.666667 10:1 11:0.26 12:0.51 13:0.4 14:0.21 
0.13600309723266157 0.2275321060407918 0 0.13131936521636287 0 0.21803107994269744 0 0.18225589315146537 0.10203595748332724 1:0.747475 2:1 3:0.393939 4:0.89899 5:0.10101 6:0.585859 7:0.262626 8:0.313131 9:0.979798 10:0.040404 11:1 12:0.28 13:0.38 14:0.16 
0.13600309723266157 0 0.18391286419901146 0 0 0 0 0.18225589315146537 0 1:0.858586 2:1 3:0.464646 4:0.808081 5:0.131313 6:0.545455 7:0.262626 8:0.212121 9:0.878788 10:1 11:0.26 12:0.34 13:0.28 
0 0.2275321060407918 0.18391286419901146 0.13131936521636287 0 0.21803107994269744 0 0 0 1:0.545455 2:1 3:0.191919 4:0.686869 5:0.020202 6:0.353535 7:0.030303 8:0.020202 9:0.717172 10:1 11:0.31 12:0.68 13:0.57 14:0.45 
0 0 0.18391286419901146 0 0 0 0 0.18225589315146537 0 1:1 2:1 3:0.464646 4:0.878788 5:0.171717 6:0.545455 7:0.151515 8:0.171717 9:0.565657 10:0.949495 11:0.29 12:0.51 13:0.38 14:0.16 
0.13600309723266157 0.2275321060407918 0.18391286419901146 0.13131936521636287 0.11748193729627605 0.21803107994269744 0.12394596498984151 0.18225589315146537 0.10203595748332724 1:0.393939 2:1 3:0.20202 4:0.888889 5:0.545455 6:0.0909091 7:0.171717 8:0.545455 9:1 10:0.141414 11:0.56 12:0.27 13:0.26 14:0.01 
0.13600309723266157 0 0 0 0 0 0 0.18225589315146537 0 1:0.929293 2:1 3:0.474747 4:0.888889 5:0.111111 6:0.585859 7:0.242424 8:0.424242 9:1 10:0.171717 11:0.61 12:0.43 13:0.29 
0.13600309723266157 0 0 0 0.11748193729627605 0 0.12394596498984151 0 0.10203595748332724 1:1 2:0.989899 3:0.646465 4:1 5:0.323232 6:0.767677 7:0.10101 8:0.505051 9:0.212121 10:0.20202 11:0.52 12:0.19 13:0.11 14:0.2 
0.13600309723266157 0 0 0 0 0 0.12394596498984151 0.18225589315146537 0.10203595748332724 1:0.646465 2:0.838384 3:0.393939 4:1 5:0.0606061 6:0.676768 7:0.30303 8:0.333333 9:1 10:0.0707071 11:0.64 12:0.24 13:0.11 14:0.03 
0.13600309723266157 0 0.18391286419901146 0.13131936521636287 0.11748193729627605 0.21803107994269744 0.12394596498984151 0.18225589315146537 0.10203595748332724 1:0.727273 2:0.979798 3:0.343434 4:1 5:0.585859 6:0.121212 7:0.707071 8:0.0707071 9:1 10:0.444444 11:0.29 12:0.41 13:0.09 
0.13600309723266157 0.2275321060407918 0 0 0.11748193729627605 0.21803107994269744 0.12394596498984151 0.18225589315146537 0.10203595748332724 1:1 2:0.878788 3:0.616162 4:1 5:0.222222 6:0.848485 7:0.535354 8:0.030303 9:0.171717 10:0.383838 11:0.58 12:0.26 13:0.18 14:0.32 
0 0 0 0 0.11748193729627605 0 0.12394596498984151 0 0.10203595748332724 1:1 2:1 3:0.565657 4:0.969697 5:0.181818 6:0.737374 7:0.434343 8:0.0808081 9:0.121212 10:0.555556 11:0.63 12:0.2 13:0.1 14:0.2 
0 0.0056386389668151796 0.18391286419901146 0.13131936521636287 0 0 0 0.18225589315146537 0 1:0.919192 2:1 3:0.444444 4:0.878788 5:0.181818 6:0.525253 7:0.191919 8:0.131313 9:0.686869 10:1 11:0.31 12:0.48 13:0.37 14:0.13 
0 0 0 0 0.11748193729627605 0 0.12394596498984151 0 0 1:1 2:1 3:0.575758 4:0.878788 5:0.232323 6:0.606061 8:0.30303 9:0.131313 10:0.666667 11:0.01 12:0.48 13:0.27 14:0.19 
0 0 0.18391286419901146 0.13131936521636287 0 0 0 0 0 1:0.727273 2:1 3:0.30303 4:0.787879 5:0.030303 6:0.474747 7:0.141414 8:0.484848 9:1 10:0.131313 11:0.66 12:0.33 13:0.1 14:0.28 
0.13600309723266157 0.2275321060407918 0.18391286419901146 0.13131936521636287 0.11748193729627605 0.21803107994269744 0.12394596498984151 0.18225589315146537 0.10203595748332724 1:0.979798 2:1 3:0.636364 4:0.858586 5:0.373737 6:0.535354 7:0.30303 8:0.191919 9:0.717172 10:1 11:0.26 12:0.51 13:0.39 14:0.24 
0.13600309723266157 0 0 0.13131936521636287 0 0.21803107994269744 0 0.18225589315146537 0 1:1 2:1 3:0.484848 4:0.929293 5:0.20202 6:0.616162 7:0.313131 8:0.111111 9:0.878788 10:0.0707071 11:0.93 12:0.34 13:0.16 14:0.22 
0.13600309723266157 0 0 0 0 0 0 0.18225589315146537 0 1:1 2:1 3:0.454545 4:0.929293 5:0.10101 6:0.616162 7:0.252525 8:0.414141 9:0.959596 10:0.171717 11:0.55 12:0.31 13:0.35 14:0.02 
0.13600309723266157 0.2275321060407918 0.18391286419901146 0.13131936521636287 0.11748193729627605 0.21803107994269744 0 0.18225589315146537 0 1:0.969697 2:1 3:0.565657 4:0.818182 5:0.232323 6:0.505051 7:0.191919 8:0.313131 9:1 10:0.111111 11:0.91 12:0.42 13:0.25 14:0.56 
0.13600309723266157 0.2275321060407918 0.18391286419901146 0 0.11748193729627605 0.21803107994269744 0.12394596498984151 0.18225589315146537 0.10203595748332724 1:1 2:1 3:0.89899 4:0.959596 5:0.444444 6:0.707071 7:0.131313 8:0.424242 9:0.151515 10:0.111111 11:0.78 12:0.72 13:0.16 14:0.18 
0.13600309723266157 0.2275321060407918 0 0 0.11748193729627605 0.21803107994269744 0.12394596498984151 0 0.10203595748332724 1:1 2:1 3:0.757576 4:0.969697 5:0.434343 6:0.69697 7:0.151515 8:0.393939 9:0.0505051 10:0.333333 11:0.43 12:0.31 13:0.09 14:0.32 
0.13600309723266157 0 0 0 0.11748193729627605 0 0 0.18225589315146537 0.10203595748332724 1:1 2:1 3:0.636364 4:0.777778 5:0.353535 6:0.494949 7:0.212121 8:0.161616 9:0.545455 10:0.89899 11:0.17 12:0.45 13:0.24 14:0.17 
0 0.2275321060407918 0.18391286419901146 0.13131936521636287 0.11748193729627605 0.21803107994269744 0.12394596498984151 0.18225589315146537 0.10203595748332724 1:1 2:1 3:0.565657 4:0.89899 5:0.313131 6:0.59596 7:0.141414 8:0.292929 9:0.252525 10:0.888889 11:0.07 12:0.7 13:0.34 14:0.43 
0 0 0.18391286419901146 0 0 0 0 0 0 1:0.737374 2:1 3:0.272727 4:0.888889 5:0.010101 6:0.585859 8:0.252525 9:0.40404 10:1 11:0.1 12:0.52 13:0.26 14:0.06 
0.13600309723266157 0.2275321060407918 0 0 0.11748193729627605 0 0.12394596498984151 0 0.10203595748332724 1:1 2:1 3:0.69697 4:0.959596 5:0.414141 6:0.717172 7:0.151515 8:0.454545 9:0.181818 10:0.262626 11:0.54 12:0.19 13:0.07 14:0.27 
0.13600309723266157 0.2275321060407918 0.18391286419901146 0.13131936521636287 0 0.21803107994269744 0.12394596498984151 0.18225589315146537 0.10203595748332724 1:0.393939 2:1 3:0.20202 4:0.858586 5:0.484848 6:0.010101 7:0.0909091 8:0.525253 9:1 10:0.181818 11:0.61 12:0.33 13:0.14 14:0.16 
0.13600309723266157 0.2275321060407918 0.18391286419901146 0 0.11748193729627605 0.21803107994269744 0.12394596498984151 0.18225589315146537 0.10203595748332724 1:1 2:1 3:0.79798 4:1 5:0.373737 6:0.707071 7:0.10101 8:0.333333 9:0.30303 10:0.808081 11:0.12 12:0.53 13:0.45 14:0.45 
0 0 0.18391286419901146 0.13131936521636287 0 0 0 0 0 1:0.474747 2:1 3:0.232323 4:0.747475 5:0.040404 6:0.393939 7:0.010101 8:0.040404 9:0.585859 10:1 11:0.26 12:0.43 13:0.3 14:0.05 
0 0.2275321060407918 0.18391286419901146 0 0.11748193729627605 0.21803107994269744 0.12394596498984151 0 0 1:1 2:1 3:0.535354 4:0.868687 5:0.191919 6:0.59596 7:0.030303 8:0.262626 9:0.262626 10:0.707071 11:0.16 12:0.53 13:0.44 14:0.45 
0 0.2275321060407918 0.18391286419901146 0.13131936521636287 0 0 0 0.18225589315146537 0 1:0.888889 2:1 3:0.424242 4:0.929293 5:0.020202 6:0.575758 7:0.141414 8:0.565657 9:0.010101 10:1 11:0.29 12:0.43 13:0.35 14:0.24 
0 0.2275321060407918 0.18391286419901146 0.13131936521636287 0 0 0 0.18225589315146537 0 1:0.777778 2:1 3:0.353535 4:0.777778 5:0.0505051 6:0.393939 7:0.121212 8:0.707071 10:1 11:0.35 12:0.43 13:0.28 14:0.03 
0 0 0 0 0.11748193729627605 0 0.12394596498984151 0 0.10203595748332724 1:1 2:1 3:0.555556 4:0.929293 5:0.222222 6:0.646465 7:0.30303 8:0.171717 9:0.646465 10:0.030303 11:0.61 12:0.22 13:0.17 14:0.09 
0 0.2275321060407918 0 0.13131936521636287 0.11748193729627605 0.21803107994269744 0.12394596498984151 0 0.10203595748332724 1:1 2:1 3:0.636364 4:0.868687 5:0.272727 6:0.585859 7:0.292929 8:0.0606061 9:0.717172 10:0.020202 11:0.76 12:0.31 13:0.2 14:0.49 
0 0.2275321060407918 0.18391286419901146 0 0 0 0 0 0 1:0.808081 2:1 3:0.464646 4:0.959596 5:0.131313 6:0.616162 7:0.0505051 8:0.212121 9:0.525253 10:1 11:0.19 12:0.46 13:0.34 14:0.12 
0.13600309723266157 0.2275321060407918 0.18391286419901146 0.13131936521636287 0.11748193729627605 0.21803107994269744 0.12394596498984151 0.18225589315146537 0.10203595748332724 1:0.737374 2:1 3:0.494949 4:0.989899 5:0.121212 6:0.666667 7:0.30303 8:0.343434 9:1 10:0.0909091 11:0.79 12:0.43 13:0.1 14:0.52 
0 0 0 0.13131936521636287 0 0.21803107994269744 0 0.18225589315146537 0 1:0.989899 2:1 3:0.40404 4:0.888889 5:0.030303 6:0.606061 7:0.252525 8:0.414141 9:1 10:0.030303 11:0.75 12:0.33 13:0.16 14:0.38 
0.13600309723266157 0 0.18391286419901146 0.13131936521636287 0 0 0.12394596498984151 0 0.10203595748332724 1:0.545455 2:1 3:0.161616 4:0.757576 5:0.494949 6:0.020202 7:0.212121 8:0.40404 9:1 10:0.0909091 11:0.62 12:0.24 13:0.1 14:0.08 
0 0 0.18391286419901146 0.13131936521636287 0 0.21803107994269744 0 0.18225589315146537 0 1:0.787879 2:1 3:0.343434 4:0.79798 5:0.0505051 6:0.515152 7:0.212121 8:0.424242 9:1 10:0.0505051 11:0.75 12:0.31 13:0.17 14:0.31 
0 0 0.18391286419901146 0 0 0 0 0.18225589315146537 0 1:1 2:0.949495 3:0.454545 4:1 5:0.0808081 6:0.707071 7:0.363636 8:0.20202 9:0.020202 10:0.79798 11:0.67 12:0.29 13:0.03 14:0.31 
0.13600309723266157 0.2275321060407918 0 0 0.11748193729627605 0 0.12394596498984151 0 0.10203595748332724 1:1 2:1 3:0.656566 4:0.939394 5:0.373737 6:0.69697 7:0.141414 8:0.444444 9:0.171717 10:0.252525 11:0.55 12:0.16 13:0.11 14:0.24 
0.13600309723266157 0 0 0 0.11748193729627605 0 0.12394596498984151 0 0 1:1 2:1 3:0.656566 4:0.89899 5:0.252525 6:0.656566 7:0.393939 8:0.030303 9:0.111111 10:0.616162 11:0.8 12:0.19 13:0.1 14:0.16 
0 0.2275321060407918 0 0 0.11748193729627605 0.21803107994269744 0.12394596498984151 0 0.10203595748332724 1:1 2:1 3:0.69697 4:0.919192 5:0.363636 6:0.646465 7:0.0707071 8:0.353535 10:0.030303 11:0.52 12:0.54 13:0.2 14:0.15 
0 0 0 0 0.11748193729627605 0 0.12394596498984151 0 0 1:1 2:1 3:0.565657 4:0.808081 5:0.222222 6:0.575758 7:0.343434 8:0.0606061 9:0.0808081 10:0.606061 11:0.68 12:0.2 13:0.2 14:0.22 
0 0 0.18391286419901146 0 0 0.21803107994269744 0.12394596498984151 0 0 1:1 2:1 3:0.505051 4:0.808081 5:0.151515 6:0.555556 7:0.020202 8:0.262626 9:0.232323 10:0.787879 11:0.03 12:0.58 13:0.29 14:0.38 
0.13600309723266157 0 0 0.13131936521636287 0 0.21803107994269744 0 0.18225589315146537 0 1:0.89899 2:1 3:0.525253 4:0.727273 5:0.181818 6:0.454545 7:0.151515 8:0.40404 9:1 10:0.0707071 11:0.81 12:0.26 13:0.2 14:0.29 
0 0 0 0.13131936521636287 0 0.21803107994269744 0 0 0 1:1 2:1 3:0.545455 4:0.858586 5:0.171717 6:0.59596 7:0.272727 8:0.252525 9:0.787879 10:0.131313 11:0.63 12:0.42 13:0.1 14:0.41 
0.13600309723266157 0.2275321060407918 0.18391286419901146 0.13131936521636287 0.11748193729627605 0.21803107994269744 0.12394596498984151 0.18225589315146537 0.10203595748332724 1:0.878788 2:0.949495 3:1 4:1 5:0.484848 6:0.727273 7:0.111111 8:0.414141 9:0.181818 10:0.0909091 11:0.97 12:0.85 13:0.18 14:0.17 
0.13600309723266157 0 0.18391286419901146 0.13131936521636287 0 0 0 0.18225589315146537 0 1:0.717172 2:1 3:0.262626 4:0.808081 5:0.464646 6:0.0505051 7:0.0808081 8:0.555556 9:1 10:0.181818 11:0.63 12:0.3 13:0.16 14:0.14 
0 0 0 0 0.11748193729627605 0 0.12394596498984151 0 0.10203595748332724 1:1 2:1 3:0.59596 4:0.818182 5:0.323232 6:0.575758 7:0.131313 8:0.30303 9:0.10101 10:0.020202 11:0.5 12:0.46 13:0.19 14:0.08 
0.13600309723266157 0.2275321060407918 0 0 0.11748193729627605 0 0 0.18225589315146537 0.10203595748332724 1:1 2:1 3:0.656566 4:1 5:0.242424 6:0.686869 7:0.343434 8:0.131313 9:0.767677 10:0.717172 11:0.34 12:0.1 13:0.51 
0 0 0 0.13131936521636287 0 0 0 0.18225589315146537 0 1:1 2:1 3:0.444444 4:0.848485 5:0.111111 6:0.545455 7:0.191919 8:0.444444 9:0.939394 10:0.191919 11:0.59 12:0.45 13:0.03 14:0.31 
0.13600309723266157 0.2275321060407918 0.18391286419901146 0.13131936521636287 0.11748193729627605 0.21803107994269744 0.12394596498984151 0.18225589315146537 0.10203595748332724 1:0.717172 2:0.858586 3:0.414141 4:1 5:0.030303 6:0.666667 7:0.262626 8:0.444444 10:1 11:0.14 12:0.57 13:0.27 14:0.12 
0.13600309723266157 0.2275321060407918 0.18391286419901146 0.13131936521636287 0.11748193729627605 0.21803107994269744 0.12394596498984151 0.18225589315146537 0.10203595748332724 1:0.585859 2:1 3:0.232323 4:0.747475 5:0.454545 6:0.151515 7:0.484848 8:1 9:0.121212 10:0.59596 11:0.32 12:0.03 13:0.25 
0 0 0 0.13131936521636287 0 0 0 0.18225589315146537 0 1:0.808081 2:1 3:0.292929 4:0.79798 5:0.010101 6:0.515152 7:0.20202 8:0.444444 9:1 10:0.10101 11:0.72 12:0.35 13:0.21 14:0.19 
0 0 0 0.13131936521636287 0 0 0 0 0 1:0.777778 2:1 3:0.333333 4:0.787879 5:0.0808081 6:0.515152 7:0.232323 8:0.282828 9:1 10:0.0606061 11:0.76 12:0.23 13:0.13 14:0.09 
0 0.2275321060407918 0.18391286419901146 0.13131936521636287 0 0.21803107994269744 0.12394596498984151 0.18225589315146537 0.10203595748332724 1:0.616162 2:1 3:0.353535 4:0.919192 5:0.111111 6:0.565657 7:0.111111 8:0.181818 9:0.606061 10:1 11:0.22 12:0.51 13:0.41 14:0.27 
0.13600309723266157 0.2275321060407918 0 0 0.11748193729627605 0.21803107994269744 0.12394596498984151 0.18225589315146537 0.10203595748332724 1:1 2:1 3:0.878788 4:0.989899 5:0.484848 6:0.737374 7:0.161616 8:0.464646 9:0.151515 10:0.363636 11:0.73 12:0.16 13:0.2 14:0.2 
0 0.2275321060407918 0.18391286419901146 0 0.11748193729627605 0.21803107994269744 0.12394596498984151 0 0.10203595748332724 1:1 2:1 3:0.59596 4:0.838384 5:0.282828 6:0.565657 7:0.10101 8:0.252525 9:0.343434 10:0.828283 11:0.12 12:0.53 13:0.37 14:0.31 
0.13600309723266157 0.2275321060407918 0.18391286419901146 0.13131936521636287 0.11748193729627605 0.21803107994269744 0.12394596498984151 0.18225589315146537 0.10203595748332724 1:1 2:1 3:0.616162 4:0.858586 5:0.343434 6:0.545455 7:0.212121 8:0.181818 9:0.545455 10:0.848485 11:0.27 12:0.47 13:0.48 14:0.4 
0 0 0 0.13131936521636287 0 0 0 0.089925786397449234 0 1:1 2:1 3:0.454545 4:0.79798 5:0.10101 6:0.525253 7:0.222222 8:0.383838 9:1 10:0.111111 11:0.73 12:0.33 13:0.07 14:0.25 
0 0 0 0.13131936521636287 0 0.21803107994269744 0 0 0 1:0.929293 2:1 3:0.383838 4:0.808081 5:0.0909091 6:0.454545 7:0.10101 8:0.0606061 9:0.707071 10:0.010101 11:1 12:0.35 13:0.37 14:0.32 
0.13600309723266157 0.2275321060407918 0.18391286419901146 0.13131936521636287 0.11748193729627605 0.21803107994269744 0.12394596498984151 0.18225589315146537 0.10203595748332724 1:0.59596 2:1 3:0.323232 4:0.828283 5:0.484848 6:0.0707071 7:0.10101 8:0.676768 9:1 10:0.292929 11:0.48 12:0.38 13:0.32 14:0.05 
0.13600309723266157 0.2275321060407918 0.18391286419901146 0.13131936521636287 0.11748193729627605 0.21803107994269744 0.12394596498984151 0.18225589315146537 0.10203595748332724 1:0.333333 2:1 3:0.313131 4:1 5:0.0707071 6:0.636364 7:0.262626 8:0.40404 9:1 10:0.0909091 11:0.76 12:0.42 13:0.19 14:0.6 
0.13600309723266157 0.2275321060407918 0 0 0.11748193729627605 0.21803107994269744 0.12394596498984151 0 0.10203595748332724 1:1 2:1 3:0.707071 4:0.868687 5:0.444444 6:0.646465 7:0.20202 8:0.40404 9:0.030303 10:0.151515 11:0.34 12:0.53 13:0.16 14:0.22 
0.13600309723266157 0 0 0 0 0 0 0.18225589315146537 0 1:1 2:1 3:0.474747 4:1 5:0.0808081 6:0.676768 7:0.30303 8:0.343434 9:1 11:0.76 12:0.29 13:0.19 14:0.15 
0 0 0 0 0.11748193729627605 0 0 0 0 1:1 2:1 3:0.575758 4:0.777778 5:0.242424 6:0.525253 7:0.0707071 8:0.232323 9:0.30303 10:0.818182 11:0.13 12:0.45 13:0.31 14:0.14 
0.13600309723266157 0 0 0 0 0 0 0.18225589315146537 0 1:0.929293 2:1 3:0.515152 4:0.909091 5:0.222222 6:0.565657 7:0.10101 8:0.191919 9:0.59596 10:1 11:0.29 12:0.41 13:0.3 
0.13600309723266157 0 0 0.13131936521636287 0 0 0 0.18225589315146537 0 1:0.787879 2:1 3:0.454545 4:0.818182 5:0.121212 6:0.515152 7:0.171717 8:0.474747 9:1 10:0.171717 11:0.58 12:0.37 13:0.27 
0 0.2275321060407918 0.18391286419901146 0.13131936521636287 0.11748193729627605 0.21803107994269744 0.12394596498984151 0 0.10203595748332724 1:1 2:1 3:0.545455 4:0.929293 5:0.222222 6:0.585859 7:0.10101 8:0.141414 9:0.525253 10:0.767677 11:0.31 12:0.41 13:0.62 14:0.51 
0 0.2275321060407918 0 0 0.11748193729627605 0.21803107994269744 0.12394596498984151 0 0.10203595748332724 1:1 2:1 3:0.646465 4:0.787879 5:0.383838 6:0.555556 7:0.161616 8:0.313131 9:0.0707071 10:0.040404 11:0.49 12:0.47 13:0.18 14:0.12 
0.13600309723266157 0.2275321060407918 0.18391286419901146 0.13131936521636287 0 0.21803107994269744 0 0.18225589315146537 0 1:0.777778 2:1 3:0.40404 4:0.818182 5:0.131313 6:0.515152 7:0.181818 8:0.414141 9:1 10:0.111111 11:0.91 12:0.38 13:0.29 14:0.38 
0.13600309723266157 0.2275321060407918 0.18391286419901146 0.13131936521636287 0.11748193729627605 0.21803107994269744 0.12394596498984151 0.18225589315146537 0.10203595748332724 1:0.717172 2:1 3:0.212121 4:0.838384 5:0.535354 6:0.040404 7:0.20202 8:0.494949 9:1 10:0.141414 11:0.75 12:0.42 13:0.21 14:0.34 
0 0 0.18391286419901146 0.13131936521636287 0 0 0 0 0 1:0.747475 2:1 3:0.454545 4:0.686869 5:0.212121 6:0.363636 7:0.111111 8:0.020202 9:0.656566 10:1 11:0.26 12:0.45 13:0.34 14:0.13 
0 0.2275321060407918 0.18391286419901146 0.13131936521636287 0 0.21803107994269744 0 0.18225589315146537 0 1:0.828283 2:1 3:0.333333 4:0.787879 5:0.0707071 6:0.515152 7:0.222222 8:0.363636 9:1 10:0.111111 11:0.93 12:0.38 13:0.28 14:0.33 
0.13600309723266157 0.2275321060407918 0.18391286419901146 0.13131936521636287 0.11748193729627605 0.21803107994269744 0.12394596498984151 0.18225589315146537 0.10203595748332724 1:0.959596 2:0.979798 3:0.828283 4:1 5:0.464646 6:0.676768 7:0.252525 8:0.313131 9:0.484848 10:1 11:0.18 12:0.53 13:0.39 14:0.27 
0.13600309723266157 0.2275321060407918 0.18391286419901146 0.13131936521636287 0.11748193729627605 0.21803107994269744 0 0.18225589315146537 0.10203595748332724 1:0.969697 2:1 3:0.525253 4:0.767677 5:0.313131 6:0.434343 7:0.383838 8:0.0808081 9:0.89899 10:1 11:0.31 12:0.51 13:0.49 14:0.36 
0.13600309723266157 0.2275321060407918 0.18391286419901146 0.13131936521636287 0.11748193729627605 0 0.12394596498984151 0.18225589315146537 0.10203595748332724 1:0.919192 2:1 3:0.353535 4:0.868687 5:0.505051 6:0.0707071 7:0.10101 8:0.818182 9:0.0606061 10:1 11:0.4 12:0.27 13:0.36 14:0.1 
0 0 0 0.13131936521636287 0.11748193729627605 0.21803107994269744 0.12394596498984151 0 0.10203595748332724 1:1 2:1 3:0.656566 4:0.919192 5:0.252525 6:0.626263 7:0.262626 8:0.262626 9:0.757576 10:0.151515 11:0.56 12:0.5 13:0.05 14:0.46 
0 0 0.18391286419901146 0.13131936521636287 0 0.21803107994269744 0 0 0 1:0.494949 2:1 3:0.191919 4:0.747475 5:0.010101 6:0.454545 7:0.161616 8:0.424242 9:1 10:0.0909091 11:0.73 12:0.32 13:0.16 14:0.24 
0 0 0 0 0.11748193729627605 0 0.12394596498984151 0 0.10203595748332724 1:1 2:1 3:0.646465 4:0.89899 5:0.313131 6:0.666667 7:0.040404 8:0.393939 9:0.0707071 10:0.393939 11:0.36 12:0.27 13:0.2 
0 0.2275321060407918 0 0 0.11748193729627605 0.21803107994269744 0.12394596498984151 0 0 1:1 2:1 3:0.575758 4:0.929293 5:0.242424 6:0.69697 7:0.0505051 8:0.424242 9:0.151515 10:0.363636 11:0.6 12:0.23 13:0.18 14:0.37 
0.13600309723266157 0.2275321060407918 0.18391286419901146 0.046918433784320014 0.11748193729627605 0.21803107994269744 0.12394596498984151 0.18225589315146537 0.10203595748332724 1:1 2:1 3:0.757576 4:0.959596 5:0.414141 6:0.676768 7:0.212121 8:0.363636 9:0.292929 10:0.040404 11:0.87 12:0.67 13:0.25 14:0.18 
0.13600309723266157 0 0.18391286419901146 0.13131936521636287 0 0 0 0.18225589315146537 0 1:0.626263 2:1 3:0.353535 4:0.828283 5:0.0808081 6:0.484848 7:0.121212 8:0.565657 9:1 10:0.262626 11:0.51 12:0.42 13:0.14 14:0.14 
0.13600309723266157 0.2275321060407918 0.18391286419901146 0 0.11748193729627605 0.21803107994269744 0.12394596498984151 0.18225589315146537 0.10203595748332724 1:0.969697 2:0.89899 3:0.666667 4:1 5:0.252525 6:0.707071 7:0.383838 8:0.030303 9:0.0505051 10:0.737374 11:1 12:0.26 13:0.27 14:0.18 
0.13600309723266157 0.2275321060407918 0 0 0.11748193729627605 0.21803107994269744 0.12394596498984151 0.15116479040486935 0.10203595748332724 1:1 2:0.909091 3:0.666667 4:1 5:0.262626 6:0.707071 7:0.343434 8:0.161616 9:0.676768 10:0.030303 11:0.58 12:0.34 13:0.23 14:0.15 
0.13600309723266157 0 0 0 0.11748193729627605 0 0.12394596498984151 0.18225589315146537 0.10203595748332724 1:0.777778 2:0.79798 3:0.474747 4:1 5:0.10101 6:0.656566 7:0.262626 8:0.424242 9:1 10:0.181818 11:0.42 12:0.36 13:0.06 14:0.18 
0 0 0.18391286419901146 0.13131936521636287 0 0 0 0 0 1:1 2:1 3:0.464646 4:0.818182 5:0.121212 6:0.565657 7:0.30303 8:0.0707071 9:0.0505051 10:0.919192 11:0.97 12:0.2 13:0.05 14:0.27 
0.13600309723266157 0.2275321060407918 0.18391286419901146 0.13131936521636287 0.11748193729627605 0.21803107994269744 0 0.18225589315146537 0.10203595748332724 1:0.89899 2:1 3:0.525253 4:0.757576 5:0.282828 6:0.454545 7:0.252525 8:0.121212 9:0.666667 10:1 11:0.24 12:0.51 13:0.37 14:0.28 
0.13600309723266157 0 0 0 0.11748193729627605 0 0.12394596498984151 0 0.10203595748332724 1:1 2:1 3:0.676768 4:0.959596 5:0.373737 6:0.69697 7:0.131313 8:0.434343 9:0.131313 10:0.353535 11:0.51 12:0.23 13:0.03 14:0.28 
0.13600309723266157 0.2275321060407918 0.18391286419901146 0.13131936521636287 0.11748193729627605 0.21803107994269744 0.12394596498984151 0.18225589315146537 0.10203595748332724 1:0.909091 2:1 3:0.656566 4:0.878788 5:0.30303 6:0.575758 7:0.141414 8:0.252525 9:0.494949 10:1 11:0.17 12:0.67 13:0.45 14:0.47 
0.13600309723266157 0.2275321060407918 0.18391286419901146 0.13131936521636287 0 0.21803107994269744 0 0.18225589315146537 0.10203595748332724 1:0.484848 2:1 3:0.131313 4:0.727273 5:0.383838 6:0.0909091 7:0.040404 8:0.636364 9:1 10:0.242424 11:0.57 12:0.44 13:0.01 14:0.38 
0.13600309723266157 0 0 0 0.11748193729627605 0 0.12394596498984151 0 0.10203595748332724 1:1 2:1 3:0.555556 4:1 5:0.181818 6:0.747475 7:0.424242 8:0.111111 9:0.0909091 10:0.616162 11:0.68 12:0.14 13:0.15 14:0.12 
0.13600309723266157 0.2275321060407918 0.18391286419901146 0.13131936521636287 0.11748193729627605 0.21803107994269744 0.12394596498984151 0.18225589315146537 0.10203595748332724 1:0.565657 2:1 3:0.191919 4:0.767677 5:0.484848 6:0.010101 7:0.181818 8:0.454545 9:1 10:0.121212 11:0.83 12:0.38 13:0.35 14:0.26 
0 0 0 0 0 0.21803107994269744 0.12394596498984151 0 0 1:1 2:1 3:0.565657 4:0.838384 5:0.232323 6:0.575758 7:0.282828 8:0.111111 9:0.686869 10:0.040404 11:0.64 12:0.32 13:0.04 14:0.35 
0.13600309723266157 0 0.18391286419901146 0.13131936521636287 0 0 0 0 0.10203595748332724 1:0.636364 2:1 3:0.191919 4:0.787879 5:0.484848 6:0.010101 7:0.171717 8:0.484848 9:1 10:0.141414 11:0.59 12:0.25 13:0.17 14:0.03 
0.13600309723266157 0 0 0 0.11748193729627605 0 0 0.18225589315146537 0.10203595748332724 1:1 2:1 3:0.555556 4:0.919192 5:0.212121 6:0.656566 7:0.333333 8:0.0707071 9:0.555556 10:0.707071 11:0.29 12:0.25 13:0.4 
0 0 0.18391286419901146 0.13131936521636287 0 0.21803107994269744 0 0.18225589315146537 0 1:1 2:1 3:0.525253 4:0.909091 5:0.151515 6:0.575758 7:0.191919 8:0.484848 9:0.989899 10:0.232323 11:0.64 12:0.56 13:0.05 14:0.53 
0.13600309723266157 0.2275321060407918 0.18391286419901146 0 0.11748193729627605 0.21803107994269744 0.12394596498984151 0.18225589315146537 0.10203595748332724 1:1 2:0.949495 3:0.868687 4:1 5:0.484848 6:0.757576 7:0.161616 8:0.464646 9:0.131313 10:0.393939 11:0.66 12:0.25 13:0.19 14:0.25 
0.13600309723266157 0.2275321060407918 0.18391286419901146 0.13131936521636287 0.11748193729627605 0.21803107994269744 0.12394596498984151 0.18225589315146537 0.10203595748332724 1:0.707071 2:1 3:0.393939 4:0.69697 5:0.181818 6:0.343434 7:0.20202 8:0.787879 9:0.030303 10:1 11:0.35 12:0.42 13:0.43 14:0.21 
0 0.2275321060407918 0.18391286419901146 0.13131936521636287 0 0 0 0 0 1:0.717172 2:1 3:0.424242 4:0.737374 5:0.181818 6:0.474747 7:0.030303 8:0.191919 9:0.353535 10:1 11:0.16 12:0.58 13:0.28 14:0.1 
0.13600309723266157 0.2275321060407918 0.18391286419901146 0.13131936521636287 0 0.21803107994269744 0.12394596498984151 0 0.10203595748332724 1:0.212121 2:1 3:0.0707071 4:0.717172 5:0.40404 6:0.040404 7:0.0909091 8:0.565657 9:1 10:0.20202 11:0.51 12:0.33 13:0.06 14:0.13 
0 0.2275321060407918 0.18391286419901146 0.13131936521636287 0 0.21803107994269744 0 0.18225589315146537 0 1:0.878788 2:1 3:0.373737 4:0.848485 5:0.171717 6:0.484848 7:0.181818 8:0.111111 9:0.646465 10:1 11:0.28 12:0.53 13:0.46 14:0.31 
0.13600309723266157 0.2275321060407918 0.18391286419901146 0.13131936521636287 0 0 0 0.18225589315146537 0 1:0.59596 2:1 3:0.272727 4:0.878788 5:0.0606061 6:0.585859 7:0.272727 8:0.323232 9:0.010101 10:1 11:0.87 12:0.15 13:0.22 14:0.04 
0 0 0 0.13131936521636287 0 0.21803107994269744 0 0.18225589315146537 0 1:1 2:1 3:0.464646 4:0.989899 5:0.0909091 6:0.69697 7:0.313131 8:0.313131 9:0.878788 11:0.75 12:0.32 13:0.16 14:0.32 
0 0 0 0.13131936521636287 0 0 0 0 0 1:0.727273 2:1 3:0.222222 4:0.828283 5:0.020202 6:0.525253 7:0.212121 8:0.414141 9:1 10:0.131313 11:0.53 12:0.32 13:0.09 14:0.13 
0.13600309723266157 0 0.18391286419901146 0 0.11748193729627605 0 0.12394596498984151 0 0.10203595748332724 1:1 2:1 3:0.616162 4:0.828283 5:0.353535 6:0.565657 7:0.222222 8:0.252525 9:0.414141 10:0.808081 11:0.1 12:0.43 13:0.23 14:0.18 
0 0 0 0.13131936521636287 0 0.21803107994269744 0.12394596498984151 0 0 1:1 2:1 3:0.545455 4:0.808081 5:0.212121 6:0.555556 7:0.242424 8:0.242424 9:0.737374 10:0.111111 11:0.58 12:0.39 13:0.08 14:0.4 
0.13600309723266157 0.2275321060407918 0.18391286419901146 0.13131936521636287 0.11748193729627605 0.21803107994269744 0.12394596498984151 0.18225589315146537 0.10203595748332724 1:0.636364 2:1 3:0.444444 4:0.868687 5:0.0505051 6:0.575758 7:0.222222 8:0.484848 9:1 10:0.20202 11:0.55 12:0.43 13:0.34 14:0.22 
0.13600309723266157 0.2275321060407918 0.18391286419901146 0 0.11748193729627605 0.21803107994269744 0.12394596498984151 0 0.10203595748332724 1:1 2:1 3:0.767677 4:0.939394 5:0.464646 6:0.707071 7:0.222222 8:0.424242 9:0.131313 10:0.111111 11:0.5 12:0.42 13:0.2 14:0.29 
0.13600309723266157 0.2275321060407918 0 0.13131936521636287 0.11748193729627605 0.21803107994269744 0.12394596498984151 0.18225589315146537 0 1:0.808081 2:1 3:0.494949 4:0.787879 5:0.222222 6:0.515152 7:0.161616 8:0.212121 9:0.69697 10:0.141414 11:1 12:0.31 13:0.44 14:0.19 
0 0 0 0.13131936521636287 0 0 0 0 0 1:1 2:1 3:0.464646 4:0.787879 5:0.131313 6:0.525253 7:0.252525 8:0.232323 9:0.929293 10:0.010101 11:0.95 12:0.25 13:0.14 14:0.25 
0 0 0 0.13131936521636287 0 0.21803107994269744 0 0 0 1:1 2:1 3:0.434343 4:0.888889 5:0.10101 6:0.606061 7:0.292929 8:0.222222 9:0.838384 11:0.88 12:0.28 13:0.28 14:0.29 
0 0 0 0.13131936521636287 0 0 0 0.18225589315146537 0 1:0.838384 2:1 3:0.363636 4:0.818182 5:0.0606061 6:0.545455 7:0.242424 8:0.343434 9:1 10:0.0606061 11:0.85 12:0.3 13:0.23 14:0.19 
0 0 0 0 0.11748193729627605 0 0.12394596498984151 0 0.10203595748332724 1:1 2:1 3:0.69697 4:0.929293 5:0.363636 6:0.676768 7:0.10101 8:0.40404 9:0.10101 10:0.373737 11:0.48 12:0.25 13:0.02 14:0.35 
0 0 0 0.13131936521636287 0 0 0 0.18225589315146537 0 1:0.929293 2:1 3:0.454545 4:0.777778 5:0.121212 6:0.505051 7:0.20202 8:0.373737 9:1 10:0.0707071 11:0.78 12:0.28 13:0.15 14:0.22 
0.13600309723266157 0.2275321060407918 0.18391286419901146 0.13131936521636287 0.11748193729627605 0.21803107994269744 0.12394596498984151 0.18225589315146537 0.10203595748332724 1:1 2:1 3:0.626263 4:0.808081 5:0.434343 6:0.545455 7:0.383838 8:0.272727 9:0.414141 11:0.68 12:0.49 13:0.25 14:0.27 
0 0 0.18391286419901146 0 0 0 0 0 0 1:0.939394 2:1 3:0.515152 4:0.777778 5:0.232323 6:0.494949 7:0.121212 8:0.20202 9:0.464646 10:1 11:0.15 12:0.53 13:0.3 14:0.18 
0 0 0.18391286419901146 0.13131936521636287 0 0 0 0 0 1:0.777778 2:1 3:0.323232 4:0.818182 5:0.111111 6:0.484848 7:0.131313 8:0.111111 9:0.59596 10:1 11:0.26 12:0.5 13:0.32 14:0.13 
0.13600309723266157 0.2275321060407918 0.18391286419901146 0.13131936521636287 0.11748193729627605 0.21803107994269744 0 0.18225589315146537 0 1:0.949495 2:1 3:0.494949 4:0.818182 5:0.181818 6:0.575758 7:0.30303 8:0.171717 9:0.0505051 10:0.727273 11:1 12:0.14 13:0.44 14:0.12 
0.13600309723266157 0 0.18391286419901146 0.13131936521636287 0.11748193729627605 0.21803107994269744 0.12394596498984151 0 0.10203595748332724 1:0.767677 2:1 3:0.282828 4:0.79798 5:0.525253 6:0.010101 7:0.20202 8:0.444444 9:1 10:0.0505051 11:0.68 12:0.29 13:0.14 14:0.27 
0.13600309723266157 0 0 0 0 0 0 0 0.10203595748332724 1:1 2:1 3:0.474747 4:0.969697 5:0.111111 6:0.676768 7:0.323232 8:0.20202 9:0.757576 10:0.626263 11:0.27 12:0.02 13:0.27 
0 0.2275321060407918 0.18391286419901146 0.13131936521636287 0.11748193729627605 0.21803107994269744 0.12394596498984151 0.18225589315146537 0.10203595748332724 1:0.626263 2:1 3:0.424242 4:0.888889 5:0.141414 6:0.575758 7:0.0909091 8:0.222222 9:0.494949 10:1 11:0.18 12:0.63 13:0.43 14:0.5 
0 0 0 0 0.11748193729627605 0 0.12394596498984151 0 0.10203595748332724 1:1 2:1 3:0.676768 4:0.888889 5:0.353535 6:0.69697 7:0.111111 8:0.454545 9:0.030303 10:0.171717 11:0.33 12:0.4 13:0.09 14:0.13 
0.13600309723266157 0.2275321060407918 0.18391286419901146 0.13131936521636287 0.11748193729627605 0.21803107994269744 0.12394596498984151 0 0.10203595748332724 1:1 2:1 3:0.717172 4:0.828283 5:0.454545 6:0.585859 7:0.282828 8:0.343434 9:0.191919 10:0.0808081 11:0.62 12:0.6 13:0.22 14:0.29 
0.13600309723266157 0.2275321060407918 0.18391286419901146 0.13131936521636287 0.11748193729627605 0.21803107994269744 0.12394596498984151 0.18225589315146537 0.10203595748332724 1:1 2:1 3:0.59596 4:0.939394 5:0.323232 6:0.616162 7:0.212121 8:0.282828 9:0.464646 10:0.979798 11:0.12 12:0.58 13:0.35 14:0.27 
0 0 0 0.13131936521636287 0.11748193729627605 0.21803107994269744 0.12394596498984151 0 0.10203595748332724 1:1 2:1 3:0.59596 4:0.919192 5:0.191919 6:0.626263 7:0.292929 8:0.232323 9:0.828283 10:0.10101 11:0.69 12:0.41 13:0.05 14:0.49 
0 0 0.18391286419901146 0.13131936521636287 0 0 0 0.18225589315146537 0 1:0.777778 2:1 3:0.424242 4:0.757576 5:0.0909091 6:0.464646 7:0.151515 8:0.565657 9:1 10:0.232323 11:0.51 12:0.44 13:0.09 14:0.23 
0 0 0.18391286419901146 0 0.11748193729627605 0.017508780865882905 0.12394596498984151 0 0 1:1 2:1 3:0.565657 4:0.777778 5:0.242424 6:0.525253 7:0.111111 8:0.252525 9:0.292929 10:0.878788 11:0.07 12:0.65 13:0.28 14:0.21 
0.13600309723266157 0.2275321060407918 0 0 0.11748193729627605 0.21803107994269744 0.12394596498984151 0 0.10203595748332724 1:1 2:1 3:0.69697 4:0.858586 5:0.292929 6:0.59596 7:0.282828 8:0.10101 9:0.69697 10:0.0808081 11:0.76 12:0.32 13:0.16 14:0.35 
0.13600309723266157 0 0 0 0 0 0 0 0 1:1 2:1 3:0.575758 4:0.89899 5:0.191919 6:0.59596 7:0.262626 8:0.323232 9:0.979798 10:0.0707071 11:0.64 12:0.21 13:0.02 14:0.08 
0.13600309723266157 0.2275321060407918 0.18391286419901146 0 0.11748193729627605 0.21803107994269744 0.12394596498984151 0.18225589315146537 0.10203595748332724 1:1 2:0.969697 3:0.575758 4:1 5:0.171717 6:0.757576 7:0.464646 8:0.111111 9:0.151515 10:0.616162 11:0.85 12:0.18 13:0.28 14:0.24 
0 0 0 0 0 0 0.12394596498984151 0 0 1:1 2:1 3:0.535354 4:0.89899 5:0.212121 6:0.606061 7:0.30303 8:0.020202 9:0.575758 10:0.0505051 11:0.62 12:0.35 13:0.04 14:0.33 
0 0 0 0 0.11748193729627605 0 0 0 0.10203595748332724 1:1 2:1 3:0.626263 4:0.838384 5:0.313131 6:0.545455 7:0.121212 8:0.212121 9:0.424242 10:0.808081 11:0.17 12:0.36 13:0.28 14:0.08 
0.13600309723266157 0 0 0 0.11748193729627605 0 0.12394596498984151 0 0.10203595748332724 1:1 2:1 3:0.656566 4:0.79798 5:0.40404 6:0.555556 7:0.222222 8:0.282828 9:0.171717 10:0.535354 11:0.38 12:0.18 13:0.12 
0.13600309723266157 0.2275321060407918 0.18391286419901146 0.13131936521636287 0 0.21803107994269744 0.12394596498984151 0.18225589315146537 0.10203595748332724 1:0.515152 2:1 3:0.181818 4:0.727273 5:0.434343 6:0.0505051 7:0.131313 8:0.575758 9:1 10:0.161616 11:0.6 12:0.36 13:0.19 14:0.2 
0 0 0 0 0.11748193729627605 0 0 0 0 1:1 2:1 3:0.565657 4:0.868687 5:0.252525 6:0.575758 7:0.131313 8:0.252525 9:0.424242 10:0.868687 11:0.13 12:0.45 13:0.28 14:0.1 
0 0.2275321060407918 0.18391286419901146 0.13131936521636287 0.11748193729627605 0.21803107994269744 0.12394596498984151 0.18225589315146537 0.10203595748332724 1:0.888889 2:1 3:0.515152 4:0.737374 5:0.292929 6:0.424242 7:0.181818 8:0.10101 9:0.626263 10:1 11:0.23 12:0.56 13:0.44 14:0.41 
0 0 0 0 0 0 0.12394596498984151 0 0 1:1 2:1 3:0.606061 4:0.818182 5:0.292929 6:0.575758 7:0.0505051 8:0.292929 9:0.434343 10:0.010101 11:0.43 12:0.21 13:0.02 14:0.09 
0.13600309723266157 0.2275321060407918 0.18391286419901146 0.13131936521636287 0.11748193729627605 0.21803107994269744 0.12394596498984151 0.18225589315146537 0.10203595748332724 1:1 2:1 3:0.676768 4:0.787879 5:0.444444 6:0.565657 7:0.272727 8:0.333333 9:0.212121 10:0.10101 11:0.72 12:0.62 13:0.18 14:0.2 
0 0 0.18391286419901146 0 0 0 0 0 0 1:1 2:1 3:0.474747 4:0.838384 5:0.141414 6:0.525253 8:0.181818 9:0.464646 10:1 11:0.24 12:0.6 13:0.39 14:0.19 
0 0.2275321060407918 0 0 0.11748193729627605 0.21803107994269744 0.12394596498984151 0 0.10203595748332724 1:1 2:1 3:0.585859 4:0.89899 5:0.282828 6:0.616162 7:0.030303 8:0.30303 9:0.141414 10:0.636364 11:0.1 12:0.52 13:0.37 14:0.29 
0.13600309723266157 0 0 0 0.11748193729627605 0 0.12394596498984151 0 0.10203595748332724 1:1 2:1 3:0.636364 4:0.808081 5:0.383838 6:0.545455 7:0.232323 8:0.252525 9:0.363636 10:0.757576 11:0.11 12:0.41 13:0.24 14:0.1 
0 0 0 0 0.11748193729627605 0 0.12394596498984151 0 0.10203595748332724 1:1 2:1 3:0.636364 4:0.929293 5:0.353535 6:0.666667 7:0.131313 8:0.353535 9:0.10101 10:0.474747 11:0.04 12:0.34 13:0.19 14:0.03 
0.13600309723266157 0.2275321060407918 0.18391286419901146 0.13131936521636287 0.11748193729627605 0.21803107994269744 0.12394596498984151 0.18225589315146537 0.10203595748332724 1:1 2:0.989899 3:0.717172 4:1 5:0.535354 6:0.707071 7:0.434343 8:0.40404 9:0.414141 10:0.0909091 11:0.69 12:0.47 13:0.25 14:0.29 
0 0.2275321060407918 0.18391286419901146 0.13131936521636287 0.11748193729627605 0.21803107994269744 0 0.18225589315146537 0.10203595748332724 1:0.989899 2:1 3:0.535354 4:0.767677 5:0.252525 6:0.515152 7:0.161616 8:0.222222 9:0.505051 10:1 11:0.14 12:0.61 13:0.35 14:0.27 
0 0 0.18391286419901146 0.13131936521636287 0 0 0 0.18225589315146537 0 1:0.818182 2:1 3:0.383838 4:0.777778 5:0.161616 6:0.474747 7:0.181818 8:0.161616 9:0.656566 10:1 11:0.21 12:0.44 13:0.31 14:0.13 
0 0 0 0 0.11748193729627605 0 0.12394596498984151 0 0.10203595748332724 1:1 2:0.989899 3:0.59596 4:1 5:0.333333 6:0.777778 7:0.131313 8:0.525253 9:0.262626 10:0.0505051 11:0.37 12:0.09 13:0.06 14:0.27 
0.13600309723266157 0.2275321060407918 0.18391286419901146 0.13131936521636287 0.11748193729627605 0.21803107994269744 0.12394596498984151 0.18225589315146537 0.10203595748332724 1:0.646465 2:1 3:0.444444 4:0.89899 5:0.131313 6:0.565657 7:0.222222 8:0.424242 9:1 10:0.151515 11:0.8 12:0.45 13:0.35 14:0.27 
0 0 0 0 0.11748193729627605 0 0 0 0 1:1 2:1 3:0.474747 4:0.848485 5:0.141414 6:0.565657 7:0.242424 8:0.282828 9:0.838384 10:0.10101 11:0.65 12:0.3 13:0.38 14:0.09 
0.13600309723266157 0 0 0 0.11748193729627605 0 0 0.18225589315146537 0 1:1 2:1 3:0.585859 4:0.828283 5:0.30303 6:0.515152 7:0.191919 8:0.181818 9:0.515152 10:0.909091 11:0.25 12:0.48 13:0.27 14:0.07 
0.13600309723266157 0 0 0 0.11748193729627605 0 0.12394596498984151 0 0.10203595748332724 1:1 2:1 3:0.666667 4:0.959596 5:0.282828 6:0.666667 7:0.323232 8:0.141414 9:0.69697 11:0.71 12:0.18 13:0.19 14:0.1 
0.13600309723266157 0 0.18391286419901146 0.13131936521636287 0.11748193729627605 0.21803107994269744 0.12394596498984151 0.18225589315146537 0.10203595748332724 1:0.666667 2:1 3:0.282828 4:0.727273 5:0.373737 6:0.0808081 7:0.777778 8:0.0909091 9:1 10:0.464646 11:0.41 12:0.37 13:0.1 14:0.02 
0.13600309723266157 0 0.18391286419901146 0.13131936521636287 0 0.21803107994269744 0 0.18225589315146537 0 1:0.838384 2:1 3:0.525253 4:0.777778 5:0.171717 6:0.494949 7:0.191919 8:0.383838 9:1 10:0.131313 11:0.7 12:0.37 13:0.03 14:0.34 
0 0 0.18391286419901146 0.13131936521636287 0 0 0 0 0 1:0.575758 2:1 3:0.272727 4:0.747475 5:0.030303 6:0.424242 7:0.0808081 8:0.585859 9:1 10:0.232323 11:0.41 12:0.34 13:0.01 14:0.09 
0.13600309723266157 0.2275321060407918 0.18391286419901146 0.13131936521636287 0 0 0 0.18225589315146537 0.10203595748332724 1:0.585859 2:1 3:0.242424 4:0.747475 5:0.414141 6:0.0505051 7:0.0505051 8:0.606061 9:1 10:0.242424 11:0.54 12:0.33 13:0.25 14:0.06 
0.13600309723266157 0 0 0 0 0 0 0.18225589315146537 0.10203595748332724 1:0.838384 2:1 3:0.454545 4:0.979798 5:0.121212 6:0.59596 7:0.181818 8:0.525253 9:1 10:0.313131 11:0.33 12:0.36 13:0.1 14:0.04 
0 0 0 0 0.11748193729627605 0 0.12394596498984151 0 0 1:1 2:1 3:0.535354 4:0.828283 5:0.222222 6:0.555556 7:0.040404 8:0.232323 9:0.313131 10:0.767677 11:0.11 12:0.46 13:0.34 14:0.28 
0.13600309723266157 0.2275321060407918 0.18391286419901146 0.13131936521636287 0.11748193729627605 0.21803107994269744 0.12394596498984151 0.18225589315146537 0.10203595748332724 1:0.949495 2:0.848485 3:1 4:1 5:0.606061 6:0.707071 7:0.40404 8:0.353535 9:0.494949 10:0.929293 11:0.03 12:0.58 13:0.3 14:0.26 
0 0.2275321060407918 0.18391286419901146 0.13131936521636287 0 0.21803107994269744 0 0 0 1:0.707071 2:1 3:0.262626 4:0.747475 5:0.0505051 6:0.383838 7:0.20202 8:0.020202 9:0.767677 10:1 11:0.31 12:0.51 13:0.52 14:0.38 
0.12149235680911935 0 0.18391286419901146 0 0 0 0 0.18225589315146537 0 1:1 2:1 3:0.414141 4:0.828283 5:0.20202 6:0.555556 7:0.171717 8:0.262626 9:0.333333 10:1 11:0.71 12:0.18 13:0.07 
0 0 0.18391286419901146 0 0 0 0 0 0 1:0.868687 2:1 3:0.474747 4:1 5:0.161616 6:0.666667 7:0.0505051 8:0.30303 9:0.373737 10:1 11:0.12 12:0.52 13:0.29 14:0.04 
0.13600309723266157 0.2275321060407918 0.18391286419901146 0.13131936521636287 0.11748193729627605 0.21803107994269744 0.12394596498984151 0.18225589315146537 0.10203595748332724 1:0.848485 2:1 3:0.676768 4:0.989899 5:0.181818 6:0.69697 7:0.323232 8:0.262626 9:1 10:0.0707071 11:0.87 12:0.42 13:0.19 14:0.59 
0.13600309723266157 0.2275321060407918 0.18391286419901146 0.13131936521636287 0.11748193729627605 0.21803107994269744 0.12394596498984151 0 0.10203595748332724 1:0.484848 2:1 3:0.151515 4:0.787879 5:0.484848 6:0.040404 7:0.171717 8:0.484848 9:1 10:0.030303 11:0.59 12:0.24 13:0.24 14:0.19 
0.13600309723266157 0.19142199499932611 0.18391286419901146 0.13131936521636287 0 0.21803107994269744 0 0.047024340448443128 0.10203595748332724 1:0.454545 2:1 3:0.111111 4:0.717172 5:0.373737 6:0.131313 7:0.040404 8:0.626263 9:1 10:0.242424 11:0.54 12:0.42 13:0.01 14:0.33 
0.13600309723266157 0.2275321060407918 0.18391286419901146 0.13131936521636287 0.11748193729627605 0.21803107994269744 0.12394596498984151 0.18225589315146537 0.10203595748332724 1:0.707071 2:1 3:0.494949 4:0.868687 5:0.313131 6:0.494949 7:0.313131 8:0.10101 9:0.757576 10:1 11:0.32 12:0.51 13:0.49 14:0.41 
0 0.2275321060407918 0.18391286419901146 0.13131936521636287 0 0.21803107994269744 0 0.18225589315146537 0 1:0.808081 2:1 3:0.383838 4:0.767677 5:0.161616 6:0.414141 7:0.212121 8:0.040404 9:0.777778 10:1 11:0.31 12:0.45 13:0.46 14:0.27 
0.13600309723266157 0 0 0 0 0 0 0 0 1:0.69697 2:1 3:0.424242 4:0.818182 5:0.151515 6:0.484848 7:0.151515 8:0.40404 9:1 10:0.20202 11:0.47 12:0.31 13:0.12 14:0.04 
0 0.11308676248605071 0 0.13131936521636287 0.029370484324069013 0.21803107994269744 0 0.18225589315146537 0 1:1 2:1 3:0.535354 4:0.969697 5:0.131313 6:0.666667 7:0.313131 8:0.272727 9:0.909091 10:0.030303 11:0.84 12:0.35 13:0.15 14:0.47 
0.13600309723266157 0.2275321060407918 0.18391286419901146 0 0.11748193729627605 0.21803107994269744 0.12394596498984151 0.18225589315146537 0.10203595748332724 1:1 2:0.939394 3:0.727273 4:1 5:0.393939 6:0.737374 7:0.121212 8:0.454545 9:0.111111 10:0.373737 11:0.67 12:0.22 13:0.2 14:0.28 
0.13600309723266157 0.2275321060407918 0.18391286419901146 0.13131936521636287 0.11748193729627605 0.21803107994269744 0.12394596498984151 0.18225589315146537 0.10203595748332724 1:0.656566 2:1 3:0.343434 4:0.686869 5:0.222222 6:0.323232 7:0.424242 8:0.979798 10:1 11:0.32 12:0.43 13:0.37 14:0.18 
0 0 0 0.13131936521636287 0 0 0 0 0 1:0.565657 2:1 3:0.212121 4:0.808081 5:0.030303 6:0.515152 7:0.222222 8:0.353535 9:1 10:0.0808081 11:0.67 12:0.27 13:0.07 14:0.15 
0.13600309723266157 0.2275321060407918 0.18391286419901146 0 0.11748193729627605 0.21803107994269744 0.12394596498984151 0.18225589315146537 0.10203595748332724 1:1 2:0.989899 3:0.808081 4:1 5:0.424242 6:0.737374 7:0.121212 8:0.434343 9:0.0707071 10:0.434343 11:0.6 12:0.27 13:0.13 14:0.35 
0.13600309723266157 0.2275321060407918 0.18391286419901146 0.13131936521636287 0.11748193729627605 0.21803107994269744 0.12394596498984151 0 0.10203595748332724 1:0.454545 2:1 3:0.0808081 4:0.777778 5:0.505051 6:0.030303 7:0.232323 8:0.363636 9:1 10:0.0606061 11:0.67 12:0.24 13:0.22 14:0.06 
0.13600309723266157 0.2275321060407918 0 0.13131936521636287 0.11748193729627605 0.21803107994269744 0 0.18225589315146537 0.10203595748332724 1:0.909091 2:1 3:0.555556 4:0.909091 5:0.181818 6:0.616162 7:0.292929 8:0.212121 9:1 10:0.040404 11:0.99 12:0.33 13:0.19 14:0.44 
0.13600309723266157 0 0.18391286419901146 0.13131936521636287 0 0.21803107994269744 0.12394596498984151 0.18225589315146537 0.10203595748332724 1:0.656566 2:1 3:0.20202 4:0.848485 5:0.545455 6:0.030303 7:0.222222 8:0.474747 9:1 10:0.111111 11:0.62 12:0.36 13:0.06 14:0.25 
0.13600309723266157 0.2275321060407918 0.18391286419901146 0.13131936521636287 0.11748193729627605 0.21803107994269744 0.12394596498984151 0.18225589315146537 0.10203595748332724 1:0.606061 2:1 3:0.212121 4:0.707071 5:0.0808081 6:0.333333 7:0.323232 8:0.878788 9:0.030303 10:1 11:0.37 12:0.5 13:0.5 14:0.3 
0.13600309723266157 0 0 0.060013418564631417 0 0 0 0.18225589315146537 0.10203595748332724 1:0.676768 2:1 3:0.40404 4:0.939394 5:0.121212 6:0.606061 7:0.262626 8:0.313131 9:1 10:0.191919 11:0.6 12:0.32 13:0.09 14:0.07 
0.13600309723266157 0.2275321060407918 0.18391286419901146 0.13131936521636287 0.11748193729627605 0.21803107994269744 0.12394596498984151 0.18225589315146537 0.10203595748332724 1:0.969697 2:1 3:0.828283 4:0.949495 5:0.393939 6:0.686869 7:0.0909091 8:0.414141 9:0.0909091 10:0.131313 11:0.97 12:1 13:0.17 14:0.09 
0 0 0 0.13131936521636287 0 0 0 0 0 1:0.717172 2:1 3:0.313131 4:0.757576 5:0.040404 6:0.464646 7:0.141414 8:0.464646 9:1 10:0.111111 11:0.59 12:0.24 13:0.03 14:0.17 
0.13600309723266157 0 0.18391286419901146 0.13131936521636287 0 0 0.060085895059795884 0 0.10203595748332724 1:0.616162 2:1 3:0.252525 4:0.777778 5:0.444444 6:0.0707071 7:0.0808081 8:0.535354 9:1 10:0.0707071 11:0.62 12:0.2 13:0.17 14:0.11 
0 0 0.18391286419901146 0.13131936521636287 0 0 0 0.18225589315146537 0 1:0.69697 2:1 3:0.272727 4:0.848485 5:0.010101 6:0.515152 7:0.161616 8:0.525253 9:1 10:0.212121 11:0.52 12:0.44 13:0.06 14:0.28 
0.13600309723266157 0.2275321060407918 0.18391286419901146 0.13131936521636287 0.11748193729627605 0.21803107994269744 0.12394596498984151 0.18225589315146537 0.10203595748332724 1:0.646465 2:1 3:0.555556 4:1 5:0.161616 6:0.666667 7:0.30303 8:0.353535 9:1 10:0.0505051 11:0.73 12:0.38 13:0.1 14:0.55 
0.13600309723266157 0.2275321060407918 0.18391286419901146 0 0.11748193729627605 0.21803107994269744 0.12394596498984151 0.18225589315146537 0.10203595748332724 1:0.878788 2:0.848485 3:1 4:1 5:0.59596 6:0.747475 7:0.252525 8:0.474747 9:0.181818 10:0.333333 11:0.8 12:0.18 13:0.3 14:0.3 
0 0 0 0.13131936521636287 0 0.21803107994269744 0 0 0 1:1 2:1 3:0.424242 4:0.888889 5:0.0606061 6:0.606061 7:0.272727 8:0.30303 9:0.868687 10:0.0707071 11:0.71 12:0.38 13:0.11 14:0.45 
0.13600309723266157 0.2275321060407918 0.18391286419901146 0.13131936521636287 0.11748193729627605 0.21803107994269744 0 0.18225589315146537 0.10203595748332724 1:0.989899 2:1 3:0.606061 4:0.777778 5:0.363636 6:0.393939 7:0.40404 8:0.989899 9:1 10:0.323232 11:0.47 12:0.5 13:0.28 
0.13600309723266157 0.2275321060407918 0.18391286419901146 0.13131936521636287 0.11748193729627605 0 0.12394596498984151 0.18225589315146537 0.10203595748332724 1:0.737374 2:1 3:0.272727 4:0.777778 5:0.515152 6:0.232323 7:0.363636 8:1 9:0.0505051 10:0.757576 11:0.26 12:0.13 13:0.19 
0.13600309723266157 0.2275321060407918 0.18391286419901146 0.13131936521636287 0.11748193729627605 0 0.12394596498984151 0.18225589315146537 0.10203595748332724 1:0.717172 2:1 3:0.252525 4:0.939394 5:0.616162 6:0.272727 7:0.373737 8:1 9:0.030303 10:0.666667 11:0.24 12:0.21 13:0.01 
0 0 0 0 0.11748193729627605 0 0.12394596498984151 0 0 1:1 2:1 3:0.616162 4:0.888889 5:0.272727 6:0.636364 8:0.333333 9:0.424242 10:0.010101 11:0.45 12:0.32 13:0.05 14:0.23 
0 0 0.18391286419901146 0.13131936521636287 0 0 0 0 0 1:0.939394 2:1 3:0.555556 4:0.737374 5:0.262626 6:0.454545 7:0.141414 8:0.121212 9:0.606061 10:1 11:0.2 12:0.49 13:0.31 14:0.19 
0 0.2275321060407918 0 0 0.11748193729627605 0 0.12394596498984151 0 0 1:1 2:1 3:0.565657 4:0.848485 5:0.252525 6:0.616162 7:0.010101 8:0.353535 9:0.0606061 10:0.434343 11:0.7 12:0.2 13:0.24 14:0.22 
0.13600309723266157 0 0.18391286419901146 0.13131936521636287 0 0.21803107994269744 0.12394596498984151 0.18225589315146537 0.10203595748332724 1:0.575758 2:1 3:0.20202 4:0.848485 5:0.515152 6:0.020202 7:0.161616 8:0.505051 9:1 10:0.161616 11:0.6 12:0.35 13:0.12 14:0.19 
0.13600309723266157 0 0 0.13131936521636287 0 0 0 0.18225589315146537 0 1:1 2:1 3:0.585859 4:0.727273 5:0.252525 6:0.444444 7:0.141414 8:0.323232 9:0.969697 10:0.171717 11:0.81 12:0.38 13:0.09 14:0.28 
0 0.2275321060407918 0.18391286419901146 0.13131936521636287 0 0.21803107994269744 0 0.18225589315146537 0 1:0.686869 2:1 3:0.262626 4:0.868687 6:0.565657 7:0.242424 8:0.343434 10:0.909091 11:1 12:0.21 13:0.45 14:0.27 
0.13600309723266157 0.2275321060407918 0.18391286419901146 0.13131936521636287 0.11748193729627605 0.21803107994269744 0.12394596498984151 0.18225589315146537 0.10203595748332724 1:0.242424 2:0.89899 3:0.414141 4:1 5:0.141414 6:0.626263 7:0.252525 8:0.414141 9:1 10:0.020202 11:0.8 12:0.28 13:0.59 14:0.06 
0.13600309723266157 0.2275321060407918 0 0.13131936521636287 0 0.21803107994269744 0 0.18225589315146537 0 1:1 2:1 3:0.474747 4:0.959596 5:0.141414 6:0.636364 7:0.30303 8:0.242424 9:0.949495 10:0.0707071 11:0.94 12:0.38 13:0.25 14:0.31 
0.13600309723266157 0.2275321060407918 0.18391286419901146 0.13131936521636287 0 0.21803107994269744 0 0.18225589315146537 0 1:0.515152 2:1 3:0.20202 4:0.747475 5:0.040404 6:0.484848 7:0.212121 8:0.333333 10:1 11:0.95 12:0.22 13:0.35 14:0.16 
0.13600309723266157 0.2275321060407918 0.18391286419901146 0 0.11748193729627605 0.21803107994269744 0.12394596498984151 0.18225589315146537 0.10203595748332724 1:1 2:0.868687 3:0.656566 4:1 5:0.272727 6:0.676768 7:0.10101 8:0.30303 9:0.40404 10:0.919192 11:0.18 12:0.51 13:0.42 14:0.24 
0 0 0 0 0.11748193729627605 0 0.12394596498984151 0 0.10203595748332724 1:1 2:1 3:0.606061 4:0.818182 5:0.282828 6:0.565657 7:0.0707071 8:0.282828 9:0.212121 10:0.656566 11:0.03 12:0.45 13:0.2 14:0.15 
0.13600309723266157 0 0.18391286419901146 0.13131936521636287 0 0.21803107994269744 0 0.18225589315146537 0.10203595748332724 1:0.737374 2:1 3:0.252525 4:0.777778 5:0.474747 6:0.010101 7:0.151515 8:0.555556 9:1 10:0.191919 11:0.56 12:0.4 13:0.09 14:0.25 
0.13600309723266157 0.2275321060407918 0.18391286419901146 0.13131936521636287 0.11748193729627605 0.21803107994269744 0.12394596498984151 0.18225589315146537 0.10203595748332724 1:0.565657 2:0.939394 3:0.383838 4:1 5:0.10101 6:0.686869 7:0.343434 8:0.222222 9:0.030303 10:0.969697 11:1 12:0.24 13:0.41 14:0.05 
0.13600309723266157 0.2275321060407918 0 0.13131936521636287 0.11748193729627605 0.21803107994269744 0.12394596498984151 0.18225589315146537 0 1:0.89899 2:1 3:0.515152 4:0.818182 5:0.212121 6:0.535354 7:0.232323 8:0.232323 9:0.818182 10:0.040404 11:1 12:0.23 13:0.42 14:0.22 
0.13600309723266157 0.2275321060407918 0.18391286419901146 0.13131936521636287 0.11748193729627605 0.21803107994269744 0.12394596498984151 0.18225589315146537 0.10203595748332724 1:0.838384 2:1 3:0.575758 4:0.828283 5:0.343434 6:0.545455 7:0.232323 8:0.252525 9:0.474747 10:1 11:0.15 12:0.65 13:0.35 14:0.24 
0.13600309723266157 0.2275321060407918 0.18391286419901146 0.13131936521636287 0.11748193729627605 0.21803107994269744 0.12394596498984151 0.18225589315146537 0.10203595748332724 1:0.505051 2:0.878788 3:0.40404 4:1 5:0.0909091 6:0.626263 7:0.0909091 8:0.191919 9:0.565657 10:1 11:0.26 12:0.53 13:0.42 14:0.26 
0 0 0 0.13131936521636287 0 0 0 0 0 1:0.505051 2:1 3:0.20202 4:0.767677 5:0.010101 6:0.484848 7:0.191919 8:0.444444 9:1 10:0.161616 11:0.51 12:0.27 13:0.04 14:0.07 
0.13600309723266157 0.2275321060407918 0.18391286419901146 0.13131936521636287 0 0.21803107994269744 0.12394596498984151 0.18225589315146537 0.10203595748332724 1:0.535354 2:1 3:0.333333 4:0.747475 5:0.0505051 6:0.424242 7:0.10101 8:0.69697 9:1 10:0.272727 11:0.44 12:0.46 13:0.36 14:0.21 
0.13600309723266157 0.2275321060407918 0 0 0.11748193729627605 0.21803107994269744 0.12394596498984151 0.18225589315146537 0.10203595748332724 1:1 2:0.909091 3:0.848485 4:1 5:0.484848 6:0.777778 7:0.171717 8:0.515152 9:0.222222 10:0.242424 11:0.69 12:0.09 13:0.3 14:0.2 
0.13600309723266157 0 0 0 0.11748193729627605 0.21803107994269744 0.12394596498984151 0 0.10203595748332724 1:1 2:1 3:0.808081 4:0.808081 5:0.383838 6:0.545455 7:0.272727 8:0.0707071 9:0.747475 10:0.030303 11:0.66 12:0.31 13:0.12 14:0.25 
0.13600309723266157 0.2275321060407918 0.18391286419901146 0.13131936521636287 0.11748193729627605 0.21803107994269744 0 0.18225589315146537 0.10203595748332724 1:0.949495 2:1 3:0.656566 4:0.808081 5:0.30303 6:0.515152 7:0.111111 8:0.171717 9:0.525253 10:1 11:0.18 12:0.56 13:0.35 14:0.28 
0.13600309723266157 0 0.18391286419901146 0.13131936521636287 0.11748193729627605 0 0 0.18225589315146537 0.10203595748332724 1:0.969697 2:1 3:0.535354 4:0.828283 5:0.474747 6:0.020202 7:0.0909091 8:0.838384 9:1 10:0.383838 11:0.14 12:0.51 13:0.08 14:0.18 
0 0 0.18391286419901146 0.13131936521636287 0 0.21803107994269744 0 0.18225589315146537 0 1:1 2:1 3:0.484848 4:0.909091 5:0.121212 6:0.616162 7:0.272727 8:0.323232 9:0.89899 10:0.141414 11:0.75 12:0.45 13:0.08 14:0.49 
0.13600309723266157 0.2275321060407918 0.18391286419901146 0.13131936521636287 0.11748193729627605 0.21803107994269744 0.12394596498984151 0.18225589315146537 0.10203595748332724 1:0.393939 2:0.979798 3:0.505051 4:1 5:0.606061 6:0.10101 7:0.151515 8:0.929293 9:1 10:0.363636 11:0.18 12:0.51 13:0.24 14:0.19 
0 0.2275321060407918 0 0 0.11748193729627605 0.21803107994269744 0.12394596498984151 0 0.10203595748332724 1:1 2:1 3:0.606061 4:0.929293 5:0.282828 6:0.707071 7:0.020202 8:0.424242 9:0.0707071 10:0.373737 11:0.66 12:0.18 13:0.29 14:0.29 
0.13600309723266157 0.2275321060407918 0 0.13131936521636287 0.11748193729627605 0.21803107994269744 0.12394596498984151 0.18225589315146537 0.10203595748332724 1:0.676768 2:1 3:0.545455 4:0.828283 5:0.262626 6:0.555556 7:0.262626 8:0.131313 9:1 10:0.010101 11:0.73 12:0.27 13:0.52 14:0.11 
0.13600309723266157 0 0 0 0.11748193729627605 0 0.12394596498984151 0 0.10203595748332724 1:1 2:1 3:0.707071 4:0.939394 5:0.373737 6:0.69697 7:0.10101 8:0.414141 9:0.121212 10:0.393939 11:0.51 12:0.26 13:0.05 14:0.23 
0.13600309723266157 0.2275321060407918 0.18391286419901146 0.13131936521636287 0.11748193729627605 0.21803107994269744 0.12394596498984151 0.18225589315146537 0.10203595748332724 1:1 2:1 3:0.535354 4:0.919192 5:0.181818 6:0.666667 7:0.343434 8:0.212121 9:0.0505051 10:0.707071 11:0.89 12:0.25 13:0.48 14:0.46 
0 0.2275321060407918 0 0 0.11748193729627605 0 0.12394596498984151 0 0.10203595748332724 1:1 2:1 3:0.656566 4:0.878788 5:0.313131 6:0.656566 7:0.0606061 8:0.383838 9:0.0909091 10:0.434343 11:0.62 12:0.18 13:0.14 14:0.22 
0 0.2275321060407918 0.18391286419901146 0.13131936521636287 0.11748193729627605 0.21803107994269744 0.12394596498984151 0.18225589315146537 0 1:0.989899 2:1 3:0.666667 4:0.848485 5:0.212121 6:0.575758 8:0.262626 9:0.353535 10:1 11:0.18 12:0.77 13:0.47 14:0.59 
0.13600309723266157 0.2275321060407918 0.18391286419901146 0 0.11748193729627605 0.21803107994269744 0.12394596498984151 0.18225589315146537 0.10203595748332724 1:0.878788 2:1 3:1 4:0.989899 5:0.515152 6:0.737374 7:0.131313 8:0.454545 9:0.131313 10:0.565657 11:0.84 12:0.2 13:0.18 14:0.26 
0 0.2275321060407918 0 0 0.11748193729627605 0.1994344757945932 0.12394596498984151 0 0.10203595748332724 1:1 2:1 3:0.606061 4:0.909091 5:0.292929 6:0.69697 7:0.0606061 8:0.40404 9:0.10101 10:0.0606061 11:0.48 12:0.39 13:0.2 14:0.22 
0.13600309723266157 0 0.18391286419901146 0.13131936521636287 0 0 0 0 0.10203595748332724 1:0.525253 2:1 3:0.262626 4:0.89899 5:0.0505051 6:0.545455 7:0.191919 8:0.454545 9:1 10:0.151515 11:0.53 12:0.34 13:0.06 14:0.19 
0.13600309723266157 0.2275321060407918 0.18391286419901146 0 0.11748193729627605 0 0.12394596498984151 0 0.10203595748332724 1:1 2:1 3:0.69697 4:0.808081 5:0.373737 6:0.555556 7:0.131313 8:0.262626 9:0.313131 10:0.858586 11:0.07 12:0.53 13:0.22 14:0.16 
0.13600309723266157 0.2275321060407918 0.18391286419901146 0.13131936521636287 0.11748193729627605 0.21803107994269744 0.12394596498984151 0.18225589315146537 0.10203595748332724 1:0.69697 2:1 3:0.444444 4:0.909091 5:0.10101 6:0.59596 7:0.222222 8:0.414141 9:1 10:0.030303 11:0.86 12:0.32 13:0.31 14:0.27 
0 0 0 0.13131936521636287 0 0 0 0.18225589315146537 0 1:0.818182 2:1 3:0.393939 4:0.808081 5:0.0505051 6:0.515152 7:0.171717 8:0.505051 9:1 10:0.151515 11:0.58 12:0.35 13:0.08 14:0.2 
0 0.2275321060407918 0.18391286419901146 0.13131936521636287 0.11748193729627605 0.21803107994269744 0.12394596498984151 0.18225589315146537 0.10203595748332724 1:0.838384 2:1 3:0.515152 4:0.737374 5:0.272727 6:0.454545 7:0.151515 8:0.161616 9:0.545455 10:1 11:0.21 12:0.61 13:0.38 14:0.26 
0 0.2275321060407918 0.18391286419901146 0.13131936521636287 0.11748193729627605 0.21803107994269744 0.12394596498984151 0 0.10203595748332724 1:1 2:1 3:0.707071 4:0.949495 5:0.292929 6:0.636364 8:0.262626 9:0.313131 10:0.818182 11:0.19 12:0.54 13:0.51 14:0.48 
0.13600309723266157 0.2275321060407918 0.18391286419901146 0.13131936521636287 0 0 0 0.18225589315146537 0 1:0.787879 2:1 3:0.505051 4:0.848485 5:0.252525 6:0.505051 7:0.141414 8:0.121212 9:0.616162 10:1 11:0.21 12:0.49 13:0.31 14:0.15 
0.13600309723266157 0.2275321060407918 0 0 0.11748193729627605 0.21803107994269744 0.12394596498984151 0.18225589315146537 0.10203595748332724 1:1 2:1 3:0.828283 4:0.848485 5:0.626263 6:0.59596 7:0.434343 8:0.333333 9:0.313131 10:0.0505051 11:0.5 12:0.36 13:0.21 14:0.15 
0.13600309723266157 0 0 0 0.11748193729627605 0 0.12394596498984151 0 0.10203595748332724 1:1 2:1 3:0.676768 4:0.808081 5:0.393939 6:0.565657 7:0.191919 8:0.272727 9:0.232323 10:0.585859 11:0.1 12:0.36 13:0.25 14:0.14 
0 0.2275321060407918 0.18391286419901146 0.13131936521636287 0 0 0 0 0 1:0.565657 2:1 3:0.323232 4:0.939394 5:0.0707071 6:0.585859 7:0.020202 8:0.212121 9:0.474747 10:1 11:0.15 12:0.57 13:0.32 14:0.19 
0.13600309723266157 0.2275321060407918 0.18391286419901146 0.13131936521636287 0 0.21803107994269744 0 0.18225589315146537 0.10203595748332724 1:0.838384 2:1 3:0.585859 4:0.989899 5:0.151515 6:0.717172 7:0.414141 8:0.191919 9:0.111111 10:1 11:0.94 12:0.22 13:0.04 14:0.27 
0.13600309723266157 0.2275321060407918 0.18391286419901146 0.13131936521636287 0.11748193729627605 0.21803107994269744 0.12394596498984151 0.18225589315146537 0.10203595748332724 1:0.242424 2:0.747475 3:0.848485 4:1 5:0.484848 6:0.717172 7:0.171717 8:0.393939 9:0.0606061 10:0.505051 11:1 12:0.28 13:0.49 14:0.29 
0 0 0 0 0 0 0.12394596498984151 0 0 1:1 2:1 3:0.555556 4:0.79798 5:0.252525 6:0.545455 8:0.262626 9:0.10101 10:0.686869 11:0.04 12:0.5 13:0.19 14:0.14 
0.11651306334803839 0 0 0 0 0 0 0.18225589315146537 0 1:0.969697 2:1 3:0.505051 4:0.767677 5:0.181818 6:0.474747 7:0.171717 8:0.434343 9:1 10:0.151515 11:0.65 12:0.31 13:0.12 14:0.14 
0.13600309723266157 0.2275321060407918 0 0 0.11748193729627605 0 0.12394596498984151 0 0.10203595748332724 1:1 2:1 3:0.676768 4:0.959596 5:0.363636 6:0.747475 7:0.131313 8:0.505051 9:0.212121 10:0.20202 11:0.54 12:0.1 13:0.15 14:0.18 
0 0 0 0 0.11748193729627605 0 0.12394596498984151 0 0 1:1 2:1 3:0.616162 4:0.878788 5:0.252525 6:0.606061 7:0.292929 8:0.131313 9:0.676768 10:0.010101 11:0.63 12:0.23 13:0.12 14:0.13 
0.13600309723266157 0.2275321060407918 0.18391286419901146 0.13131936521636287 0.11748193729627605 0.21803107994269744 0.12394596498984151 0.18225589315146537 0.10203595748332724 1:0.757576 2:1 3:0.59596 4:1 5:0.191919 6:0.626263 7:0.181818 8:0.454545 9:1 10:0.161616 11:0.6 12:0.37 13:0.08 14:0.32 
0 0 0 0 0 0 0.12394596498984151 0 0 1:1 2:1 3:0.535354 4:0.878788 5:0.212121 6:0.636364 7:0.343434 8:0.0505051 9:0.0606061 10:0.565657 11:0.65 12:0.21 13:0.14 14:0.21 
0 0 0 0 0.11748193729627605 0 0.12394596498984151 0 0.10203595748332724 1:1 2:1 3:0.555556 4:0.828283 5:0.272727 6:0.555556 7:0.0909091 8:0.272727 9:0.20202 10:0.686869 11:0.06 12:0.52 13:0.28 14:0.23 
0.13600309723266157 0.2275321060407918 0.18391286419901146 0.13131936521636287 0 0 0.12394596498984151 0.18225589315146537 0.10203595748332724 1:0.525253 2:1 3:0.252525 4:0.686869 5:0.0808081 6:0.333333 7:0.171717 8:0.787879 9:0.010101 10:1 11:0.32 12:0.38 13:0.28 14:0.01 
0 0.2275321060407918 0.18391286419901146 0.13131936521636287 0 0.21803107994269744 0 0.18225589315146537 0 1:0.79798 2:1 3:0.313131 4:0.808081 5:0.0606061 6:0.515152 7:0.20202 8:0.393939 9:1 10:0.0808081 11:0.88 12:0.3 13:0.28 14:0.22 
0.13600309723266157 0.2275321060407918 0.18391286419901146 0 0 0.21803107994269744 0 0.18225589315146537 0 1:1 2:1 3:0.656566 4:0.989899 5:0.222222 6:0.686869 7:0.343434 8:0.161616 10:0.939394 11:0.86 12:0.3 13:0.1 14:0.29 
0.13600309723266157 0.2275321060407918 0.18391286419901146 0 0.11748193729627605 0.21803107994269744 0.12394596498984151 0.18225589315146537 0.10203595748332724 1:1 2:1 3:0.686869 4:0.888889 5:0.454545 6:0.59596 7:0.262626 8:0.292929 9:0.313131 10:0.676768 11:0.18 12:0.4 13:0.35 14:0.18 
0.13600309723266157 0.2275321060407918 0.18391286419901146 0 0.11748193729627605 0 0 0 0 1:1 2:1 3:0.727273 4:0.828283 5:0.313131 6:0.585859 7:0.030303 8:0.323232 9:0.030303 10:0.656566 11:0.88 12:0.18 13:0.2 14:0.18 
0 0.2275321060407918 0.18391286419901146 0.13131936521636287 0.11748193729627605 0.21803107994269744 0.12394596498984151 0 0 1:1 2:0.979798 3:0.484848 4:1 5:0.121212 6:0.686869 7:0.0505051 8:0.292929 9:0.393939 10:0.929293 11:0.13 12:0.61 13:0.41 14:0.41 
0.13600309723266157 0.2275321060407918 0.18391286419901146 0.13131936521636287 0.11748193729627605 0 0.12394596498984151 0.18225589315146537 0.10203595748332724 1:1 2:1 3:0.343434 4:0.909091 5:0.565657 7:0.171717 8:0.666667 9:0.0909091 10:0.959596 11:0.39 12:0.27 13:0.33 14:0.16 
0 0 0 0 0 0 0 0.18225589315146537 0 1:0.878788 2:1 3:0.484848 4:0.848485 5:0.111111 6:0.515152 7:0.121212 8:0.545455 9:1 10:0.252525 11:0.42 12:0.35 13:0.12 14:0.05 
0 0 0 0 0.11748193729627605 0 0.12394596498984151 0 0 1:1 2:1 3:0.606061 4:0.878788 5:0.292929 6:0.636364 7:0.0606061 8:0.353535 9:0.040404 10:0.414141 11:0.49 12:0.23 13:0.06 14:0.25 
0 0 0 0 0 0 0.12394596498984151 0 0 1:1 2:1 3:0.535354 4:0.848485 5:0.20202 6:0.59596 7:0.323232 8:0.010101 9:0.040404 10:0.515152 11:0.54 12:0.22 13:0.01 14:0.17 
0.13600309723266157 0.2275321060407918 0.18391286419901146 0.13131936521636287 0 0 0.12394596498984151 0.18225589315146537 0.10203595748332724 1:0.484848 2:1 3:0.161616 4:0.707071 5:0.383838 6:0.10101 7:0.0606061 8:0.656566 9:1 10:0.232323 11:0.48 12:0.33 13:0.21 14:0.08 
0.13600309723266157 0.2275321060407918 0.18391286419901146 0.13131936521636287 0.11748193729627605 0 0 0.18225589315146537 0.10203595748332724 1:0.79798 2:1 3:0.262626 4:0.777778 5:0.414141 6:0.20202 7:0.0505051 8:0.989899 9:0.0707071 10:1 11:0.37 12:0.19 13:0.3 14:0.1 
0.13600309723266157 0.2275321060407918 0.18391286419901146 0.13131936521636287 0.11748193729627605 0.21803107994269744 0.090725551502307364 0.18225589315146537 0.10203595748332724 1:1 2:1 3:0.565657 4:0.777778 5:0.282828 6:0.505051 7:0.212121 8:0.181818 9:0.606061 10:0.969697 11:0.21 12:0.57 13:0.4 14:0.35 
0 0.2275321060407918 0.18391286419901146 0.13131936521636287 0.11748193729627605 0.21803107994269744 0.12394596498984151 0.18225589315146537 0.10203595748332724 1:0.909091 2:1 3:0.515152 4:0.888889 5:0.232323 6:0.565657 7:0.121212 8:0.212121 9:0.565657 10:1 11:0.23 12:0.6 13:0.49 14:0.43 
0 0.2275321060407918 0 0 0.11748193729627605 0.21803107994269744 0.12394596498984151 0 0.10203595748332724 1:1 2:1 3:0.545455 4:0.939394 5:0.181818 6:0.69697 7:0.353535 8:0.111111 9:0.020202 10:0.565657 11:0.66 12:0.3 13:0.2 14:0.35 
0 0.2275321060407918 0.18391286419901146 0.13131936521636287 0.11748193729627605 0.21803107994269744 0.12394596498984151 0.18225589315146537 0.10203595748332724 1:0.777778 2:1 3:0.505051 4:0.828283 5:0.242424 6:0.515152 7:0.10101 8:0.191919 9:0.515152 10:1 11:0.22 12:0.64 13:0.46 14:0.37 
0 0.2275321060407918 0.18391286419901146 0.13131936521636287 0 0.21803107994269744 0 0 0 1:0.656566 2:1 3:0.272727 4:0.838384 5:0.0707071 6:0.494949 7:0.131313 8:0.131313 9:0.606061 10:1 11:0.21 12:0.51 13:0.36 14:0.28 
0.13600309723266157 0 0 0 0.11748193729627605 0 0.12394596498984151 0 0.10203595748332724 1:1 2:1 3:0.616162 4:0.838384 5:0.343434 6:0.565657 7:0.181818 8:0.232323 9:0.393939 10:0.717172 11:0.18 12:0.37 13:0.31 14:0.14 
0.13600309723266157 0.2275321060407918 0.18391286419901146 0.13131936521636287 0 0 0 0.18225589315146537 0 1:0.545455 2:1 3:0.383838 4:0.848485 5:0.111111 6:0.484848 7:0.161616 8:0.111111 9:0.777778 10:1 11:0.27 12:0.41 13:0.38 14:0.09 
0.13600309723266157 0.2275321060407918 0.18391286419901146 0.13131936521636287 0.11748193729627605 0.21803107994269744 0.12394596498984151 0.18225589315146537 0.10203595748332724 1:0.747475 2:0.939394 3:0.616162 4:1 5:0.212121 6:0.666667 7:0.292929 8:0.343434 9:1 10:0.0707071 11:0.78 12:0.43 13:0.16 14:0.59 
0.13600309723266157 0.2275321060407918 0 0 0.11748193729627605 0 0.12394596498984151 0.18225589315146537 0.10203595748332724 1:0.828283 2:1 3:0.717172 4:0.848485 5:0.272727 6:0.555556 7:0.212121 8:0.505051 9:1 10:0.151515 11:0.46 12:0.37 13:0.29 14:0.11 
0.13600309723266157 0.2275321060407918 0 0 0.11748193729627605 0 0 0.18225589315146537 0.10203595748332724 1:1 2:1 3:0.717172 4:0.888889 5:0.292929 6:0.585859 7:0.242424 8:0.30303 9:0.919192 10:0.111111 11:0.79 12:0.32 13:0.19 14:0.18 
0.13600309723266157 0 0.18391286419901146 0.13131936521636287 0 0 0.12394596498984151 0 0.10203595748332724 1:0.585859 2:1 3:0.191919 4:0.787879 5:0.494949 6:0.010101 7:0.191919 8:0.424242 9:1 10:0.0606061 11:0.69 12:0.22 13:0.12 14:0.12 
0.13600309723266157 0 0 0 0.11748193729627605 0 0 0.18225589315146537 0 1:1 2:1 3:0.555556 4:0.818182 5:0.181818 6:0.555556 7:0.242424 8:0.292929 9:0.868687 10:0.010101 11:0.84 12:0.16 13:0.3 14:0.09 
0 0 0 0 0.11748193729627605 0 0.12394596498984151 0 0 1:1 2:1 3:0.626263 4:0.89899 5:0.252525 6:0.626263 7:0.010101 8:0.323232 9:0.535354 11:0.6 12:0.31 13:0.07 14:0.3 
0.13600309723266157 0 0.18391286419901146 0.13131936521636287 0 0 0 0.18225589315146537 0 1:0.59596 2:1 3:0.191919 4:0.757576 5:0.383838 6:0.0909091 8:0.686869 9:1 10:0.323232 11:0.56 12:0.4 13:0.15 14:0.1 
0.13600309723266157 0.2275321060407918 0.039012178613197918 0 0.11748193729627605 0 0 0.18225589315146537 0.10203595748332724 1:1 2:0.969697 3:0.757576 4:1 5:0.282828 6:0.717172 7:0.383838 8:0.141414 9:0.0707071 10:0.949495 11:0.78 12:0.22 13:0.16 
0.13600309723266157 0 0 0 0.11748193729627605 0 0.12394596498984151 0 0.10203595748332724 1:1 2:1 3:0.737374 4:0.878788 5:0.454545 6:0.686869 7:0.212121 8:0.464646 9:0.232323 10:0.020202 11:0.36 12:0.11 13:0.07 14:0.23 
0.13600309723266157 0 0 0.13131936521636287 0.11748193729627605 0.21803107994269744 0 0.18225589315146537 0 1:1 2:1 3:0.616162 4:0.888889 5:0.222222 6:0.606061 7:0.282828 8:0.191919 9:0.909091 10:0.0606061 11:0.84 12:0.33 13:0.11 14:0.31 
0.13600309723266157 0.2275321060407918 0 0 0.11748193729627605 0.21803107994269744 0.12394596498984151 0.18225589315146537 0.10203595748332724 1:0.818182 2:0.848485 3:1 4:1 5:0.484848 6:0.676768 7:0.353535 8:0.191919 9:0.939394 10:0.020202 11:0.53 12:0.27 13:0.35 14:0.08 
0 0.2275321060407918 0.18391286419901146 0 0.11748193729627605 0.21803107994269744 0.12394596498984151 0 0 1:1 2:1 3:0.545455 4:0.909091 5:0.20202 6:0.646465 7:0.333333 8:0.161616 9:0.020202 10:0.656566 11:0.69 12:0.25 13:0.19 14:0.25 
0 0 0.18391286419901146 0 0 0 0 0 0 1:1 2:1 3:0.515152 4:0.79798 5:0.191919 6:0.515152 7:0.0505051 8:0.191919 9:0.444444 10:0.989899 11:0.12 12:0.59 13:0.3 14:0.25 
0 0 0.18391286419901146 0 0 0 0.12394596498984151 0.18225589315146537 0.10203595748332724 1:0.959596 2:0.979798 3:0.434343 4:1 5:0.040404 6:0.717172 7:0.353535 8:0.373737 9:0.0707071 10:1 11:0.06 12:0.61 13:0.21 14:0.11 
0 0 0.18391286419901146 0 0 0 0 0 0 1:0.686869 2:1 3:0.373737 4:0.818182 5:0.121212 6:0.535354 7:0.0606061 8:0.232323 9:0.40404 10:1 11:0.04 12:0.57 13:0.16 14:0.08 
0 0.2275321060407918 0 0 0.11748193729627605 0.21803107994269744 0.12394596498984151 0 0.10203595748332724 1:1 2:0.939394 3:0.626263 4:1 5:0.292929 6:0.707071 7:0.0707071 8:0.383838 9:0.0505051 10:0.0505051 11:0.57 12:0.54 13:0.19 14:0.1 
0 0.2275321060407918 0.18391286419901146 0.13131936521636287 0.11748193729627605 0.21803107994269744 0.12394596498984151 0 0 1:1 2:1 3:0.494949 4:0.808081 5:0.151515 6:0.535354 7:0.040404 8:0.242424 9:0.333333 10:0.888889 11:0.14 12:0.7 13:0.41 14:0.49 
0 0.2275321060407918 0 0 0 0.21803107994269744 0.12394596498984151 0 0 1:1 2:1 3:0.484848 4:0.919192 5:0.181818 6:0.636364 7:0.111111 8:0.30303 9:0.383838 10:0.020202 11:0.91 12:0.56 13:0.22 14:0.24 
0 0.2275321060407918 0.18391286419901146 0 0.11748193729627605 0.21803107994269744 0.12394596498984151 0 0.10203595748332724 1:1 2:1 3:0.606061 4:0.929293 5:0.323232 6:0.646465 7:0.141414 8:0.323232 9:0.242424 10:0.636364 11:0.06 12:0.44 13:0.33 14:0.37 
0 0.2275321060407918 0 0 0 0 0 0.18225589315146537 0 1:1 2:1 3:0.525253 4:0.989899 5:0.141414 6:0.606061 7:0.0909091 8:0.151515 9:0.656566 10:0.989899 11:0.32 12:0.42 13:0.45 14:0.2 
0 0.2275321060407918 0.18391286419901146 0.13131936521636287 0.11748193729627605 0.21803107994269744 0.12394596498984151 0 0 1:1 2:1 3:0.575758 4:0.858586 5:0.222222 6:0.565657 8:0.232323 9:0.292929 10:0.89899 11:0.13 12:0.64 13:0.4 14:0.42 
0 0.2275321060407918 0.18391286419901146 0.13131936521636287 0 0.21803107994269744 0.12394596498984151 0 0 1:0.727273 2:1 3:0.343434 4:0.808081 5:0.0909091 6:0.505051 7:0.10101 8:0.181818 9:0.585859 10:1 11:0.19 12:0.62 13:0.44 14:0.47 
0 0 0 0.13131936521636287 0 0 0 0 0 1:0.747475 2:1 3:0.343434 4:0.818182 5:0.010101 6:0.525253 7:0.20202 8:0.434343 9:1 10:0.0707071 11:0.68 12:0.31 13:0.16 14:0.21 
0 0 0.18391286419901146 0.13131936521636287 0 0 0 0 0 1:0.525253 2:1 3:0.222222 4:0.747475 5:0.020202 6:0.474747 7:0.191919 8:0.40404 9:1 10:0.0505051 11:0.67 12:0.25 13:0.08 14:0.16 
0 0.2275321060407918 0.18391286419901146 0.13131936521636287 0 0 0 0 0 1:0.686869 2:1 3:0.424242 4:0.919192 5:0.141414 6:0.575758 7:0.040404 8:0.20202 9:0.494949 10:1 11:0.2 12:0.48 13:0.34 14:0.15 
0.13600309723266157 0.2275321060407918 0.18391286419901146 0.13131936521636287 0.11748193729627605 0.21803107994269744 0.12394596498984151 0.18225589315146537 0.10203595748332724 1:0.848485 2:1 3:0.555556 4:0.717172 5:0.414141 6:0.383838 7:0.545455 8:0.0606061 9:1 10:0.949495 11:0.3 12:0.46 13:0.37 14:0.23 
0 0 0 0 0.11748193729627605 0 0.12394596498984151 0 0.10203595748332724 1:1 2:1 3:0.676768 4:0.777778 5:0.363636 6:0.545455 7:0.121212 8:0.282828 9:0.10101 10:0.505051 11:0.02 12:0.41 13:0.2 14:0.2 
0.13600309723266157 0.2275321060407918 0.18391286419901146 0.13131936521636287 0.11748193729627605 0.21803107994269744 0.12394596498984151 0.18225589315146537 0.10203595748332724 1:0.454545 2:1 3:0.181818 4:0.767677 5:0.484848 6:0.191919 7:0.414141 8:1 9:0.0606061 10:0.767677 11:0.28 12:0.27 13:0.17 
0.13600309723266157 0 0 0 0.11748193729627605 0.21803107994269744 0 0.18225589315146537 0.10203595748332724 1:1 2:1 3:0.777778 4:0.959596 5:0.313131 6:0.656566 7:0.323232 8:0.10101 9:0.888889 10:0.10101 11:0.85 12:0.35 13:0.03 14:0.24 
0 0.2275321060407918 0.18391286419901146 0.13131936521636287 0.11748193729627605 0.21803107994269744 0.12394596498984151 0 0.10203595748332724 1:1 2:1 3:0.575758 4:0.828283 5:0.292929 6:0.565657 7:0.191919 8:0.252525 9:0.414141 10:0.79798 11:0.09 12:0.47 13:0.31 14:0.39 
0.13600309723266157 0 0.18391286419901146 0.13131936521636287 0 0 0.12394596498984151 0.18225589315146537 0.10203595748332724 1:0.646465 2:1 3:0.242424 4:0.929293 5:0.555556 6:0.10101 7:0.151515 8:0.59596 9:1 10:0.191919 11:0.5 12:0.28 13:0.09 14:0.01 
0.13600309723266157 0 0 0.13131936521636287 0 0 0.12394596498984151 0 0.10203595748332724 1:0.79798 2:1 3:0.272727 4:0.959596 5:0.626263 6:0.020202 7:0.252525 8:0.444444 9:1 10:0.040404 11:0.57 12:0.24 13:0.01 14:0.12 
0.13600309723266157 0 0 0 0 0 0 0.18225589315146537 0 1:0.949495 2:1 3:0.565657 4:0.838384 5:0.323232 6:0.494949 7:0.212121 8:0.111111 9:0.656566 10:1 11:0.24 12:0.47 13:0.22 14:0.06 
0.13600309723266157 0 0 0.13131936521636287 0 0 0 0.18225589315146537 0 1:0.828283 2:1 3:0.40404 4:0.979798 5:0.0606061 6:0.626263 7:0.222222 8:0.464646 9:1 10:0.171717 11:0.58 12:0.39 13:0.11 14:0.15 
0 0 0 0 0 0 0 0.18225589315146537 0 1:0.919192 2:1 3:0.363636 4:1 6:0.676768 7:0.282828 8:0.40404 9:1 10:0.040404 11:0.67 12:0.32 13:0.08 14:0.23 
0 0 0.18391286419901146 0.13131936521636287 0 0 0 0 0 1:0.777778 2:1 3:0.292929 4:0.737374 5:0.040404 6:0.434343 7:0.121212 8:0.59596 9:1 10:0.252525 11:0.48 12:0.39 13:0.02 14:0.15 
0 0.2275321060407918 0.18391286419901146 0.13131936521636287 0 0.21803107994269744 0 0 0 1:0.848485 2:1 3:0.373737 4:0.79798 5:0.121212 6:0.474747 7:0.10101 8:0.131313 9:0.575758 10:1 11:0.22 12:0.58 13:0.43 14:0.42 
0.13600309723266157 0.2275321060407918 0.18391286419901146 0.13131936521636287 0.11748193729627605 0.21803107994269744 0.12394596498984151 0.18225589315146537 0.10203595748332724 1:0.343434 2:0.909091 3:0.454545 4:1 5:0.191919 6:0.646465 7:0.030303 8:0.282828 9:0.373737 10:1 11:0.2 12:0.38 13:0.37 14:0.08 
0 0 0 0.13131936521636287 0 0.21803107994269744 0 0 0 1:0.676768 2:1 3:0.222222 4:0.777778 5:0.010101 6:0.505051 7:0.232323 8:0.313131 9:1 10:0.0707071 11:0.85 12:0.3 13:0.15 14:0.24 
0 0.2275321060407918 0 0 0.11748193729627605 0.21803107994269744 0 0 0 1:1 2:1 3:0.545455 4:0.808081 5:0.232323 6:0.494949 7:0.0808081 8:0.141414 9:0.535354 10:0.868687 11:0.24 12:0.43 13:0.41 14:0.31 
0 0.2275321060407918 0.18391286419901146 0.13131936521636287 0 0 0 0.18225589315146537 0 1:0.878788 2:1 3:0.292929 4:0.787879 5:0.040404 6:0.535354 7:0.272727 8:0.242424 9:0.020202 10:1 11:0.92 12:0.25 13:0.15 14:0.26 
0 0 0.18391286419901146 0 0 0 0 0 0 1:0.767677 2:1 3:0.272727 4:0.79798 5:0.030303 6:0.515152 7:0.010101 8:0.222222 9:0.434343 10:1 11:0.11 12:0.51 13:0.28 14:0.14 
0.13600309723266157 0.2275321060407918 0.18391286419901146 0.13131936521636287 0 0.053803461107409974 0 0.18225589315146537 0.10203595748332724 1:0.686869 2:1 3:0.414141 4:0.808081 5:0.212121 6:0.515152 7:0.191919 8:0.20202 9:0.59596 10:1 11:0.15 12:0.51 13:0.28 14:0.16 
0.13600309723266157 0 0 0 0 0 0 0.18225589315146537 0.10203595748332724 1:0.949495 2:1 3:0.555556 4:0.929293 5:0.171717 6:0.616162 7:0.262626 8:0.363636 9:1 10:0.0707071 11:0.74 12:0.32 13:0.15 14:0.16 
0 0.2275321060407918 0.18391286419901146 0 0.11748193729627605 0.21803107994269744 0.12394596498984151 0 0 1:1 2:1 3:0.555556 4:0.818182 5:0.262626 6:0.545455 7:0.0505051 8:0.262626 9:0.191919 10:0.909091 11:0.1 12:0.69 13:0.3 14:0.22 
