svm_type nu_svc
kernel_type polynomial
degree 3
gamma 0.125
coef0 0
nr_class 2
total_sv 191
rho -1.7573242527672261
label 1 -1
probA -0.77497177299626807
probB -0.26538593069188771
nr_sv 98 93
SV
334.98763535723714 1:0.294118 2:0.588832 3:0.606557 6:0.38152 7:0.0546424 8:0.1875 
2684.5270875885667 1:0.588235 2:0.583756 6:0.52608 7:0.0248778 8:0.166667 
2684.5270875885667 1:0.235294 2:0.558376 3:0.754098 6:0.560358 7:0.0501999 8:0.1875 
1655.498271325454 1:0.588235 2:0.705584 3:0.655738 6:0.403875 7:0.605509 8:0.75 
2325.2967599284302 1:0.0588235 2:0.522843 3:0.245902 4:0.633333 5:0.0981087 6:0.645306 7:0.0466459 8:0.25 
2684.5270875885667 1:0.176471 2:0.639594 3:0.721311 4:0.683333 5:0.277778 6:0.585693 7:0.278099 8:0.125 
2684.5270875885667 1:0.470588 2:0.502538 3:0.688525 6:0.527571 7:0.137717 8:0.604167 
2684.5270875885667 1:0.764706 2:0.736041 3:0.672131 4:0.316667 5:0.130024 6:0.33085 7:0.0741892 8:0.75 
2684.5270875885667 1:0.294118 2:0.593909 3:0.754098 6:0.508197 7:0.11506 8:0.354167 
2684.5270875885667 1:0.588235 2:0.619289 3:0.639344 4:0.516667 6:0.411326 7:0.192803 8:0.5 
2274.2246009913274 1:0.235294 2:0.522843 3:0.491803 4:0.55 5:0.22695 6:0.357675 7:0.394491 8:0.25 
2684.5270875885667 1:0.647059 2:0.700508 3:0.622951 6:0.494784 7:0.151932 8:0.291667 
2684.5270875885667 1:0.176471 2:0.913706 3:0.52459 4:0.416667 5:0.0827423 6:0.506706 7:0.0857397 8:0.104167 
2684.5270875885667 1:0.411765 2:0.675127 3:0.688525 6:0.599106 7:0.274545 8:0.333333 
2684.5270875885667 1:0.411765 2:0.807107 3:0.52459 6:0.408346 7:0.0959574 8:0.395833 
2684.5270875885667 1:0.0588235 2:0.741117 3:0.459016 6:0.442623 7:0.215904 8:0.166667 
2684.5270875885667 1:0.0588235 2:0.51269 3:0.409836 4:0.25 5:0.0425532 6:0.360656 7:0.199023 8:0.104167 
2684.5270875885667 1:0.411765 2:0.761421 3:0.540984 4:0.7 5:0.404255 6:0.517139 7:0.284318 8:0.4375 
2684.5270875885667 2:0.507614 3:0.721311 4:1 5:0.130024 6:0.697466 7:0.392714 8:0.208333 
2684.5270875885667 2:0.741117 3:0.672131 6:0.603577 7:0.756553 8:0.479167 
2684.5270875885667 1:0.117647 2:0.715736 3:0.47541 4:0.566667 5:0.1513 6:0.37854 7:0.275877 8:0.0625 
2684.5270875885667 1:0.117647 2:0.553299 3:0.754098 6:0.636364 7:0.340737 8:0.6875 
2684.5270875885667 1:0.235294 2:0.741117 3:0.696721 4:0.45 5:0.118203 6:0.4307 7:0.0493114 8:0.125 
2684.5270875885667 1:0.294118 2:0.705584 3:0.52459 4:0.583333 5:0.165485 6:0.42623 7:0.147934 8:0.104167 
2684.5270875885667 1:0.294118 2:0.482234 3:0.590164 4:0.55 6:0.561848 7:0.12972 8:0.125 
559.81754771377462 1:0.411765 2:0.42132 3:0.639344 4:0.433333 5:0.0839243 6:0.436662 7:0.306086 8:0.3125 
2684.5270875885667 1:0.117647 2:0.558376 3:0.606557 4:0.483333 5:0.147754 6:0.482861 7:0.275433 8:0.125 
328.52382497990862 1:0.764706 2:0.538071 3:0.590164 4:0.9 6:0.545455 7:0.0444247 8:0.5 
2684.5270875885667 1:0.117647 2:0.507614 3:0.557377 4:0.416667 5:0.0839243 6:0.573771 7:0.109285 8:0.104167 
2684.5270875885667 1:0.235294 2:0.624365 3:0.655738 4:0.25 5:0.208038 6:0.4769 7:0.16215 8:0.270833 
2684.5270875885667 1:0.411765 2:0.411168 3:0.639344 4:0.666667 5:0.0567376 6:0.695976 7:0.0812972 8:0.4375 
1407.8367517631859 1:0.117647 2:0.720812 3:0.672131 4:0.3 5:0.0756501 6:0.368107 7:0.303421 
2684.5270875885667 1:0.352941 2:0.730964 3:0.590164 4:0.45 5:0.269504 6:0.505216 7:0.0786317 8:0.395833 
2684.5270875885667 1:0.352941 2:0.472081 3:0.409836 4:0.5 5:0.0756501 6:0.42772 7:0.123501 8:0.0416667 
2684.5270875885667 1:0.0588235 2:0.766497 3:0.491803 6:0.388972 7:0.0448689 8:0.0208333 
1564.439988842913 1:0.117647 2:0.431472 3:0.532787 6:0.590164 7:0.378498 8:0.125 
2684.5270875885667 1:0.0588235 2:0.639594 3:0.459016 4:0.483333 5:0.179669 6:0.42772 7:0.321191 
2684.5270875885667 1:0.235294 2:0.730964 3:0.47541 4:0.466667 5:0.165485 6:0.439642 7:0.0928476 8:0.333333 
2684.5270875885667 1:0.294118 2:0.395939 3:0.393443 6:0.502235 7:0.255886 8:0.0833333 
2074.4201831161881 1:0.235294 2:0.492386 3:0.491803 4:0.383333 6:0.420268 7:0.16215 8:0.0208333 
1858.2858228738589 1:0.352941 2:0.563452 3:0.52459 4:0.65 6:0.509687 7:0.080853 8:0.0625 
754.49421675416681 1:0.294118 2:0.670051 3:0.655738 6:0.399404 7:0.0479787 8:1 
2684.5270875885667 1:0.176471 2:0.609137 3:0.57377 4:0.5 5:0.159574 6:0.639344 7:0.166148 8:0.1875 
2684.5270875885667 1:0.470588 2:0.426396 3:0.606557 4:0.516667 6:0.57079 7:0.16837 8:0.375 
2684.5270875885667 1:0.117647 2:0.634518 3:0.491803 4:0.333333 5:0.165485 6:0.503726 7:0.00444247 8:0.208333 
2684.5270875885667 2:0.654822 3:0.655738 6:0.464978 7:0.277654 8:0.166667 
2684.5270875885667 1:0.176471 2:0.649746 3:0.639344 6:0.314456 7:0.0844069 8:0.708333 
2684.5270875885667 1:0.0588235 2:0.700508 3:0.672131 6:0.597615 7:0.070191 8:0.145833 
1270.9428914309215 2:0.548223 3:0.557377 4:0.333333 6:0.406855 7:0.314971 8:0.229167 
2423.343487516182 1:0.352941 2:0.522843 3:0.590164 4:0.533333 5:0.224586 6:0.561848 7:0.109285 8:0.708333 
2684.5270875885667 2:0.746193 3:0.696721 4:0.9 6:0.637854 7:0.131941 8:0.0625 
2353.5847880712417 1:0.411765 2:0.908629 3:0.778689 4:0.516667 6:0.509687 7:0.0382052 8:0.8125 
2684.5270875885667 1:0.352941 2:0.634518 3:0.557377 4:0.5 5:0.141844 6:0.447094 7:0.171479 8:0.229167 
283.41912141590171 1:0.411765 2:0.604061 6:0.375559 7:0.0581964 8:0.333333 
1899.5460350289584 1:0.411765 2:0.720812 3:0.491803 4:0.55 5:0.224586 6:0.42921 7:0.270546 8:0.833333 
2033.129088277288 1:0.235294 2:1 3:0.57377 4:0.65 5:0.879433 6:0.546945 7:1 8:0.208333 
1408.8047125381993 2:0.593909 3:0.655738 4:0.516667 5:0.0626478 6:0.673621 7:0.00488672 8:0.0625 
2684.5270875885667 1:0.235294 2:0.619289 3:0.557377 6:0.52161 7:0.140382 8:0.166667 
2684.5270875885667 1:0.117647 2:0.741117 3:0.622951 4:0.583333 5:0.229314 6:0.5693 7:0.111506 8:0.166667 
2684.5270875885667 1:0.588235 2:0.619289 3:0.557377 6:0.464978 7:0.0799645 8:0.416667 
588.63379969526318 2:0.837563 3:0.737705 4:0.55 5:0.803783 6:0.779434 7:0.155042 8:0.0416667 
2684.5270875885667 1:0.529412 2:0.629442 3:0.57377 4:0.55 5:0.475177 6:0.527571 7:0.0906264 8:0.270833 
992.98492977140086 1:0.117647 2:0.654822 3:0.688525 6:0.417288 7:0.0915149 8:0.125 
2684.5270875885667 1:0.0588235 2:0.979695 3:0.409836 4:0.266667 5:0.443262 6:0.385991 7:0.256331 8:0.0625 
2684.5270875885667 1:0.176471 2:0.969543 3:0.557377 4:0.25 5:0.153664 6:0.460507 7:0.0981786 8:0.270833 
2684.5270875885667 1:0.176471 2:0.720812 3:0.655738 4:0.25 6:0.482861 7:0.0541981 8:0.875 
1909.4556976556808 1:0.294118 2:0.48731 3:0.606557 4:0.3 5:0.0791962 6:0.500745 7:0.408263 8:0.458333 
2684.5270875885667 1:0.117647 2:0.649746 3:0.52459 4:0.7 6:0.596125 7:0.454465 8:0.0625 
2684.5270875885667 1:0.176471 2:0.619289 3:0.639344 6:0.342772 7:0.0781875 8:0.395833 
1386.6631125253239 1:0.764706 2:0.538071 3:0.57377 6:0.509687 7:0.0768547 8:0.645833 
1044.8614306834877 1:0.117647 2:0.507614 3:0.57377 4:0.866667 5:0.0673759 6:0.603577 7:0.266104 8:0.0833333 
2684.5270875885667 1:0.588235 2:0.654822 3:0.622951 4:0.466667 5:0.144208 6:0.535022 7:0.0897379 8:0.375 
2684.5270875885667 1:0.411765 2:0.675127 3:0.721311 4:0.25 5:0.183215 6:0.482861 7:0.0817414 8:0.333333 
2684.5270875885667 1:0.411765 2:0.690355 3:0.606557 4:0.433333 5:0.159574 6:0.387481 7:0.252777 8:0.625 
2684.5270875885667 1:0.294118 2:0.786802 3:0.688525 4:0.733333 5:0.644208 6:0.576751 7:0.240338 8:0.270833 
2684.5270875885667 2:0.817259 3:0.409836 6:0.326379 7:0.0781875 8:0.916667 
2684.5270875885667 1:0.352941 2:0.766497 3:0.508197 4:0.516667 5:0.141844 6:0.529061 7:0.272768 8:0.145833 
2684.5270875885667 1:0.176471 2:0.761421 3:0.622951 6:0.312966 7:0.0573079 8:0.333333 
1391.3273592612527 2:0.538071 3:0.57377 4:0.616667 5:0.174941 6:0.587183 7:0.234118 8:0.0208333 
1464.0861311305785 1:0.176471 2:0.573604 3:0.409836 4:0.166667 5:0.100473 6:0.439642 7:0.243447 8:0.0833333 
876.60141414147017 1:0.235294 2:0.654822 3:0.491803 4:0.2 5:0.27305 6:0.409836 7:0.199467 8:0.208333 
2684.5270875885667 1:0.588235 2:0.908629 3:0.57377 6:0.5231 7:0.0541981 8:0.333333 
2684.5270875885667 1:0.470588 2:0.598985 3:0.590164 4:0.316667 6:0.344262 7:0.621057 8:0.520833 
504.67826518793566 1:0.705882 2:0.538071 3:0.655738 6:0.351714 7:0.0262106 8:0.479167 
2684.5270875885667 2:0.837563 3:0.622951 4:0.716667 5:0.301418 6:0.71386 7:0.0804087 8:0.104167 
2684.5270875885667 2:0.593909 6:0.503726 7:0.379387 8:0.479167 
2684.5270875885667 1:0.294118 2:0.619289 3:0.704918 6:0.517139 7:0.0941804 8:0.25 
2684.5270875885667 1:0.470588 2:0.639594 3:0.721311 4:0.6 5:0.12766 6:0.573771 7:0.120391 8:0.583333 
2684.5270875885667 1:0.0588235 2:0.705584 3:0.377049 4:0.316667 5:0.0981087 6:0.42772 7:0.255886 8:0.0208333 
2684.5270875885667 1:0.176471 2:0.588832 6:0.350224 7:0.0484229 8:0.0416667 
2571.7271017823696 1:0.235294 2:0.467005 3:0.655738 6:0.628912 7:0.0706353 8:0.166667 
2684.5270875885667 1:0.235294 2:0.695431 3:0.688525 6:0.464978 7:0.077299 8:0.1875 
55.159572171459452 1:0.705882 2:0.446701 3:0.606557 4:0.666667 5:0.0638298 6:0.52608 7:0.133274 8:0.5625 
2684.5270875885667 1:0.294118 2:0.80203 3:0.57377 6:0.444113 7:0.0573079 8:0.875 
2684.5270875885667 1:0.235294 2:0.746193 3:0.606557 4:0.416667 5:0.346336 6:0.520119 7:0.136384 8:0.1875 
2684.5270875885667 1:0.294118 2:0.502538 3:0.442623 4:0.466667 5:0.0981087 6:0.506706 7:0.187028 8:0.1875 
2684.5270875885667 1:0.117647 2:0.619289 3:0.42623 4:0.716667 5:0.186761 6:0.539493 7:0.327854 8:0.145833 
2684.5270875885667 2:0.472081 3:0.819672 4:0.65 5:0.0851064 6:0.646796 7:0.418925 8:0.291667 
-2684.5270875885667 1:0.352941 2:0.751269 3:0.590164 4:0.583333 6:0.500745 7:0.243892 8:0.604167 
-2684.5270875885667 1:0.176471 2:0.395939 3:0.409836 4:0.533333 5:0.104019 6:0.461997 7:0.075522 8:0.104167 
-2684.5270875885667 1:0.470588 2:0.634518 3:0.786885 7:0.068414 8:0.6875 
-295.81042899843567 1:0.0588235 2:0.959391 3:0.491803 4:0.383333 5:1 6:0.448584 7:0.142159 8:0.791667 
-2684.5270875885667 1:0.294118 2:0.84264 3:0.590164 4:0.316667 5:0.206856 6:0.384501 7:0.226122 8:0.625 
-2684.5270875885667 1:0.411765 2:0.507614 6:0.447094 7:0.180364 8:0.229167 
-2684.5270875885667 2:0.598985 3:0.688525 4:0.783333 5:0.271868 6:0.682563 7:0.210129 8:0.208333 
-2684.5270875885667 1:0.411765 2:0.543147 3:0.606557 6:0.441133 7:0.0781875 8:0.208333 
-2684.5270875885667 1:0.0588235 2:0.583756 3:0.57377 4:0.5 5:0.113475 6:0.515648 7:0.200355 8:0.229167 
-2684.5270875885667 1:0.529412 2:0.604061 3:0.655738 4:0.583333 6:0.432191 7:0.0821857 8:0.166667 
-2684.5270875885667 1:0.647059 2:0.725888 3:0.770492 4:0.55 5:0.172577 6:0.545455 7:0.0781875 8:0.625 
-2684.5270875885667 1:0.588235 2:0.634518 3:0.57377 4:0.433333 5:0.135934 6:0.463487 7:0.0564194 8:0.416667 
-2684.5270875885667 1:0.411765 2:0.746193 3:0.622951 6:0.587183 7:0.0795202 8:0.458333 
-2684.5270875885667 1:0.176471 2:0.80203 3:0.622951 4:0.6 5:0.289598 6:0.470939 7:0.343403 8:0.145833 
-2684.5270875885667 1:0.529412 2:0.517766 3:0.622951 4:0.616667 6:0.490313 7:0.260773 8:0.520833 
-2684.5270875885667 1:0.117647 2:0.456853 3:0.557377 4:0.7 6:0.5693 7:0.188805 8:0.125 
-2684.5270875885667 1:0.235294 2:0.563452 3:0.590164 4:0.783333 5:0.244681 6:0.552906 7:0.582852 8:0.729167 
-2684.5270875885667 1:0.411765 2:0.522843 3:0.540984 4:0.533333 6:0.582712 7:0.11817 8:0.208333 
-1459.1847258581629 1:0.411765 2:0.949239 3:0.557377 4:0.65 5:0.359338 6:0.561848 7:0.0781875 8:0.416667 
-2684.5270875885667 1:0.470588 2:0.675127 3:0.590164 6:0.490313 7:0.0852954 8:0.375 
-2684.5270875885667 1:0.411765 2:0.57868 3:0.540984 6:0.488823 7:0.0799645 8:0.4375 
-2684.5270875885667 2:0.553299 3:0.721311 4:0.5 6:0.484352 7:0.34518 8:0.354167 
-2684.5270875885667 1:0.117647 2:0.507614 3:0.540984 4:0.333333 5:0.106383 6:0.490313 7:0.350511 8:0.145833 
-467.63954428735877 1:0.764706 2:0.639594 3:0.737705 6:0.646796 7:0.224345 8:0.4375 
-846.34637680011315 2:0.664975 6:0.643815 7:0.0852954 8:0.104167 
-1764.8366455323567 1:0.294118 2:0.695431 3:0.885246 6:0.727273 7:0.0661928 8:0.333333 
-896.7990448528119 1:0.882353 2:0.690355 3:0.57377 4:0.533333 5:0.130024 6:0.552906 7:0.0333185 8:0.458333 
-2684.5270875885667 1:0.235294 2:0.680203 3:0.590164 6:0.354694 7:0.0884052 8:0.8125 
-2684.5270875885667 1:0.0588235 2:0.619289 3:0.737705 4:0.85 5:0.260047 6:0.740686 7:0.109729 8:0.208333 
-2684.5270875885667 1:0.0588235 2:0.827411 3:0.590164 6:0.581222 7:0.508219 8:0.25 
-2684.5270875885667 2:0.482234 3:0.696721 4:0.416667 5:0.0425532 6:0.557377 7:0.0750777 8:0.0625 
-2684.5270875885667 1:0.176471 2:0.86802 3:0.590164 4:0.55 5:0.159574 6:0.496274 7:0.0537539 8:0.0625 
-2684.5270875885667 1:0.470588 2:0.786802 3:0.508197 4:0.433333 5:0.585106 6:0.506706 7:0.206575 8:0.520833 
-2684.5270875885667 1:0.411765 2:0.812183 3:0.442623 4:0.533333 5:0.206856 6:0.454545 7:0.226566 8:0.375 
-2684.5270875885667 1:0.235294 2:0.741117 3:0.754098 6:0.464978 7:0.204798 8:0.833333 
-2684.5270875885667 1:0.294118 2:0.629442 3:0.606557 6:0.506706 7:0.0630831 8:0.354167 
-2684.5270875885667 2:0.573604 3:0.622951 6:0.496274 7:0.0888494 8:0.0416667 
-2684.5270875885667 1:0.0588235 2:0.446701 3:0.245902 4:0.7 5:0.117021 6:0.819672 7:0.185695 8:0.104167 
-2684.5270875885667 1:0.0588235 2:0.593909 3:0.721311 4:0.4 5:0.171395 6:0.514158 7:0.14438 8:0.395833 
-2684.5270875885667 2:0.532995 3:0.688525 6:0.415797 7:0.294536 8:0.854167 
-2684.5270875885667 1:0.235294 2:0.878173 3:0.57377 4:0.233333 5:0.198582 6:0.442623 7:0.125722 8:0.25 
-2684.5270875885667 1:0.529412 2:0.619289 3:0.459016 6:0.496274 7:0.46024 8:0.25 
-2684.5270875885667 1:0.176471 2:0.862944 3:0.52459 4:0.616667 5:0.265957 6:0.514158 7:0.123501 8:0.1875 
-2684.5270875885667 1:0.588235 2:0.548223 3:0.540984 6:0.482861 7:0.0861839 8:0.4375 
-2684.5270875885667 1:0.294118 2:0.80203 3:0.688525 4:0.683333 5:0.248227 6:0.587183 7:0.140826 8:0.166667 
-2684.5270875885667 1:0.176471 2:0.543147 3:0.508197 4:0.216667 5:0.0567376 6:0.341282 7:0.266548 8:0.0416667 
-2684.5270875885667 1:0.235294 2:0.553299 3:0.52459 4:0.733333 5:0.117021 6:0.518629 7:0.367392 8:0.104167 
-2684.5270875885667 1:0.235294 2:0.751269 3:0.491803 4:0.45 5:0.375887 6:0.460507 7:0.0319858 8:0.166667 
-2684.5270875885667 1:0.411765 2:0.93401 3:0.688525 4:0.55 6:0.529061 7:0.123056 8:0.416667 
-2684.5270875885667 2:0.71066 3:0.532787 4:0.433333 5:0.153664 6:0.634873 7:0.156819 8:0.0625 
-2684.5270875885667 1:0.529412 2:0.568528 3:0.672131 4:0.533333 5:0.206856 6:0.509687 7:0.080853 8:0.3125 
-2684.5270875885667 1:0.294118 2:0.553299 3:0.508197 4:0.683333 5:0.152482 6:0.533532 7:0.193692 8:0.0833333 
-2684.5270875885667 1:0.294118 2:0.431472 3:0.606557 4:0.366667 6:0.432191 7:0.509107 8:0.229167 
-2684.5270875885667 1:0.294118 2:0.568528 3:0.540984 6:0.563338 7:0.0812972 8:0.416667 
-2684.5270875885667 2:0.898477 3:0.491803 4:0.483333 5:0.565012 6:0.515648 7:0.441582 
-982.90577561548275 1:0.117647 2:0.80203 3:0.737705 6:0.470939 7:0.322968 8:0.9375 
-2684.5270875885667 1:0.235294 2:0.720812 3:0.704918 6:0.655738 7:0.251888 8:0.0208333 
-1891.4284948508973 1:0.352941 2:0.680203 3:0.655738 4:0.616667 5:0.437352 6:0.688525 7:0.0710795 8:0.520833 
-376.84427808586548 1:0.529412 2:0.832487 3:0.688525 4:0.35 6:0.459016 7:0.334518 8:0.229167 
-2684.5270875885667 1:0.176471 2:0.705584 3:0.442623 6:0.38152 7:0.143936 8:0.0208333 
-2684.5270875885667 1:0.352941 2:0.604061 3:0.409836 4:0.366667 5:0.208038 6:0.403875 7:0.550866 8:0.25 
-2684.5270875885667 1:0.705882 2:0.467005 3:0.508197 4:0.116667 5:0.304965 6:0.411326 7:0.376721 8:0.479167 
-2684.5270875885667 1:0.0588235 2:0.573604 3:0.52459 4:0.583333 6:0.500745 7:0.206575 
-2684.5270875885667 1:0.176471 2:0.715736 6:0.447094 7:0.303421 8:0.125 
-2684.5270875885667 1:0.235294 2:0.624365 3:0.508197 6:0.4769 7:0.0657486 8:0.291667 
-1069.355329038734 2:0.700508 6:0.540984 7:0.379831 8:0.0833333 
-2684.5270875885667 1:0.117647 2:0.741117 6:0.409836 7:0.071968 8:0.145833 
-2684.5270875885667 1:0.411765 2:0.538071 3:0.491803 4:0.4 6:0.394933 7:0.0968458 8:0.166667 
-2684.5270875885667 2:0.741117 3:0.57377 6:0.564829 7:0.113727 8:0.145833 
-2684.5270875885667 1:0.411765 2:0.817259 3:0.704918 6:0.453055 7:0.0386495 8:0.541667 
-2684.5270875885667 1:0.117647 2:0.548223 3:0.655738 6:0.402385 7:0.0804087 8:0.645833 
-2684.5270875885667 2:0.543147 3:0.508197 4:0.5 5:0.0874704 6:0.545455 7:0.301644 8:0.0833333 
-183.39052873324323 1:0.0588235 2:0.649746 3:0.393443 4:0.75 5:0.229314 6:0.603577 7:0.237672 8:0.0625 
-2684.5270875885667 1:0.117647 2:0.741117 3:0.57377 4:0.633333 5:0.425532 6:0.417288 7:0.11506 8:0.166667 
-1872.6267111137633 1:0.823529 2:0.507614 3:0.639344 4:0.416667 5:0.217494 6:0.545455 7:0.148378 8:0.520833 
-2684.5270875885667 1:0.117647 2:0.730964 3:0.47541 4:0.55 5:0.159574 6:0.470939 7:0.152821 8:0.0833333 
-1891.6453345786617 1:0.294118 2:0.583756 3:0.803279 6:0.788376 7:0.0581964 8:0.145833 
-2684.5270875885667 1:0.588235 2:0.817259 3:0.557377 4:0.383333 5:0.156028 6:0.38003 7:0.110173 8:0.541667 
-2684.5270875885667 2:0.649746 3:0.557377 4:0.316667 5:0.212766 6:0.454545 7:0.583296 8:0.0833333 
-2684.5270875885667 1:0.117647 2:0.629442 3:0.557377 4:0.466667 5:0.242317 6:0.490313 7:0.354065 8:0.1875 
-2684.5270875885667 1:0.117647 2:0.786802 3:0.606557 4:0.283333 5:0.113475 6:0.396423 7:0.157708 8:0.125 
-1142.3077787283507 1:0.411765 2:0.553299 3:0.655738 4:0.516667 6:0.535022 7:0.466015 8:0.458333 
-2466.1450750508934 1:0.176471 2:0.923858 3:0.606557 6:0.454545 7:0.118614 8:0.166667 
-1115.662758355817 1:0.352941 2:0.984772 3:0.639344 6:0.350224 7:0.0226566 8:0.791667 
-2684.5270875885667 1:0.176471 2:0.568528 3:0.606557 4:0.5 6:0.470939 7:0.0528654 8:0.0833333 
-2684.5270875885667 2:0.629442 3:0.57377 4:0.333333 6:0.408346 7:0.0781875 8:0.3125 
-2684.5270875885667 1:0.0588235 2:0.619289 3:0.52459 4:0.533333 5:0.184397 6:0.5231 7:0.272768 8:0.1875 
-2684.5270875885667 1:0.117647 2:0.517766 3:0.704918 4:0.6 5:0.141844 6:0.678092 7:0.0217681 8:0.0416667 
-2684.5270875885667 1:0.294118 2:0.583756 3:0.622951 6:0.464978 7:0.117725 8:0.479167 
-2684.5270875885667 1:0.294118 3:0.655738 4:0.533333 6:0.611028 7:0.119058 8:0.333333 
-2684.5270875885667 1:0.235294 2:0.741117 3:0.639344 6:0.573771 7:0.196357 8:0.958333 
-2684.5270875885667 1:0.352941 2:0.629442 3:0.590164 6:0.411326 7:0.128832 8:0.166667 
-2082.156098330443 1:0.176471 2:0.878173 3:0.672131 4:0.8 5:0.549645 6:0.57228 7:0.914705 8:0.0833333 
