svm_type c_svc
kernel_type rbf
gamma 0.071428571428571425
nr_class 10
total_sv 4398
rho -1.1155054308266052 -1.514749641100116 -0.036887974862289653 -0.94019947550125449 -1.9546332045887458 -0.11141649661866285 -1.534753153793341 -1.0447718111626225 -1.1965386307874453 1.4362987885856724 0.08320997620994719 0.93589740622585582 0.091018543658169471 0.96065489946045568 0.42743945917810883 1.2151105442129095 0.11577250950231419 0.67136282169305328 2.2482995813971978 0.31493740141707038 0.80974446601376182 -0.40592518854717857 1.6053546301817856 -0.80848074401876013 0.43801918131737033 -0.75380459339261485 0.78700623331077468 -0.77049120946329985 -0.90797527642735543 -0.76382495655904659 -0.16573479411081929 0.13269745324736712 -0.56075632729394809 -0.23921675890135691 -0.91843195692902113 2.8885058618241706 1.643430580565689 0.76961290147292161 0.47024638897264898 -1.7339776359218841 -1.4489895935155741 -1.0222187294429828 1.3044674677706385 0.073324282918909356 -1.6121453934078289
label 6 9 8 2 1 3 5 7 0 4
probA -4.9702393931906794 -4.6975107201063446 -5.0578414075890121 -5.5667619925291083 -4.003020068647678 -5.0233753927768277 -5.1830787927804929 -3.7241452076226529 -4.9035972159415637 -3.9857396197074992 -3.8664113038004033 -4.7589553611916404 -5.3424825028064031 -5.3001933405103276 -4.9901613907946132 -5.3118534554891097 -5.2148927366841953 -3.0496043625389087 -3.3623077470273728 -5.261007636392188 -5.1417876830216152 -4.2280190861643847 -3.4289553784300675 -4.9171444997542286 -2.7248970971700324 -5.3111523786908466 -5.1738601529896249 -4.5362690756358646 -3.8599255942930686 -4.5100398862974576 -5.1585726112784664 -5.1419680391575735 -5.0202651868481265 -4.9500863467680825 -4.6474430411956922 -3.2435724808040192 -3.6554457570557304 -3.8220520912135032 -4.6139481784421159 -4.6275028648216967 -3.4477715226922738 -4.8818621049998363 -5.2826734487595735 -5.2693182994930376 -4.6408013194602606
probB -1.2250256698316035 0.77053474311213432 -0.41360025849127624 -0.30201820893819925 0.0017986011325138009 0.34087033617654755 -0.55798794895701764 0.57512366027111261 -1.2451835413098185 0.47991712632040373 0.28824771783340497 0.44800648955049854 0.4477830333544372 0.59709846941209288 0.42999837168409771 1.6074512278473023 0.46624666288370537 -0.48349327617534926 -0.26102611251332303 0.14889466090263043 0.29876118662631956 -0.61021288247234651 0.40034997050277543 0.19492859411524516 -0.68536655390416412 -0.086656415380425025 0.079058518812378881 0.94402958457793684 0.83956498327680107 -1.2170574646259049 0.10411590376838249 0.124560500577701 -0.32984225801296302 1.5556308657988041 0.11365792229906191 -0.097284902915739255 -0.48217390620681133 -0.10832349683791773 -0.19740107587714056 -0.41130377687175362 0.37171771294522538 -0.55232124623957402 0.43045144135316243 0.075651884220844415 -0.53690468380988343
nr_sv 471 418 531 534 456 407 338 457 563 223
SV
0 0 0 0 0 0 0 1 0 1:0.252525 2:1 3:0.373737 4:0.777778 5:0.656566 6:0.373737 7:0.444444 8:0.141414 9:0.323232 10:0.767677 11:0.34 12:0.97 13:1 14:1 
1 0.11050139963239801 0 0 0 0 1 0 0 1:0.414141 2:0.959596 3:1 4:1 5:0.79798 6:0.979798 7:0.313131 8:0.757576 9:0.575758 10:0.59596 11:0.86 12:0.28 13:0.48 14:0.14 
0 0 0 0 0 0 0 0 1 1:1 2:0.949495 3:0.676768 4:1 5:0.333333 6:0.979798 7:0.181818 8:0.606061 9:0.525253 10:0.606061 11:0.61 12:0.2 13:0.31 14:0.02 
0 1 0 0 0 0 0 1 0 1:0.474747 2:0.939394 3:0.727273 4:0.484848 5:0.666667 6:0.787879 7:0.323232 8:0.252525 9:0.181818 10:0.393939 11:0.21 12:0.83 13:1 14:1 
0 1 0 1 0 0 0 1 0 1:0.020202 2:0.787879 3:0.353535 4:0.585859 5:0.878788 6:0.383838 7:0.656566 8:0.141414 9:0.131313 10:0.545455 11:0.27 12:0.89 13:1 14:1 
1 0 0 0 1 0 1 1 0 1:0.191919 2:1 3:0.787879 4:0.929293 5:0.59596 6:0.939394 7:0.191919 8:0.727273 9:0.545455 10:0.545455 11:1 12:0.29 13:0.53 14:0.14 
0 0 1 1 0 0 0 0 0 1:0.181818 2:0.727273 3:0.111111 4:0.606061 5:0.767677 6:0.353535 7:0.565657 8:0.0808081 9:0.181818 10:0.585859 11:0.12 12:0.94 13:1 14:1 
0 1 0 0 0 0 0 0 0 1:0.515152 2:0.949495 3:1 4:1 5:0.69697 6:0.909091 7:0.252525 8:0.767677 9:0.252525 10:0.545455 11:0.64 12:0.43 13:0.43 14:0.14 
0 0 0 0 0 0 0 0 1 1:1 2:0.949495 3:0.545455 4:1 5:0.121212 6:0.878788 7:0.030303 8:0.616162 9:0.454545 10:0.464646 11:0.7 12:0.2 13:0.39 14:0.1 
0 1 1 1 0 0 0 1 0 1:0.656566 3:0.636364 4:0.252525 5:0.525253 6:0.626263 7:0.252525 8:0.111111 9:0.111111 10:0.515152 11:0.33 12:0.91 13:1 14:1 
0 0 0 0 1 1 1 0 1 1:1 2:1 3:0.636364 4:0.979798 5:0.252525 6:0.848485 7:0.353535 8:0.626263 9:0.757576 10:0.575758 11:0.75 12:0.24 13:0.42 14:0.01 
0 0 0 0 1 0 1 0 1 1:1 2:0.929293 3:0.787879 4:0.919192 5:0.232323 6:1 7:0.666667 8:0.414141 9:0.434343 10:0.919192 11:0.28 12:0.67 13:0.25 14:0.02 
0 0 0 0 0 0 0 0 1 1:1 2:0.969697 3:0.484848 4:1 5:0.10101 6:0.818182 7:0.0909091 8:0.505051 9:0.535354 10:0.515152 11:0.76 12:0.29 13:0.47 14:0.05 
0 0 0 0 0 0 0 1 0 1:0.313131 2:0.868687 3:0.252525 4:0.616162 5:0.646465 6:0.282828 7:0.444444 8:0.181818 9:0.343434 10:0.747475 11:0.3 12:1 13:1 14:1 
0 0 0 0 0 0 0 1 1 1:1 2:0.939394 3:0.616162 4:1 5:0.20202 6:0.787879 7:0.171717 8:0.434343 9:0.676768 10:0.505051 11:0.86 12:0.21 13:0.46 14:0.1 
0 1 1 1 0 0 0 1 0 1:0.0707071 2:0.919192 3:0.575758 4:0.636364 5:1 6:0.292929 7:0.727273 8:0.111111 9:0.212121 10:0.606061 11:0.03 12:0.97 13:0.9 14:1 
0 0 1 0 1 0 0 1 1 1:1 2:1 3:0.565657 4:1 5:0.282828 6:0.767677 7:0.212121 8:0.535354 9:0.646465 10:0.525253 11:0.61 12:0.16 13:0.22 14:0.09 
0 0 0 0 0 1 1 1 1 1:0.878788 2:0.888889 3:0.454545 4:1 5:0.121212 6:0.757576 7:0.222222 8:0.424242 9:0.757576 10:0.494949 11:1 12:0.21 13:0.55 14:0.06 
0 0 0 0 0 0 0 1 0 1:0.59596 2:0.909091 3:0.131313 4:0.79798 5:0.494949 6:0.585859 7:0.555556 8:0.0606061 9:0.030303 10:0.444444 11:0.41 12:0.91 13:1 14:1 
0 0 0 0 1 1 0 1 0 1:0.252525 2:0.89899 3:0.161616 4:0.636364 5:0.59596 6:0.333333 7:0.525253 8:0.191919 9:0.313131 10:0.727273 11:0.31 12:0.96 13:1 14:1 
0 0 0 0 1 1 0 1 0 1:0.646465 2:0.272727 3:0.353535 4:0.40404 5:0.181818 6:0.030303 7:0.040404 8:0.393939 9:0.0606061 10:0.787879 11:0.5 12:0.97 13:1 14:1 
0 0 0 0 0 0 0 0 1 1:0.636364 2:0.888889 3:1 4:1 5:0.464646 6:0.868687 7:0.0606061 8:0.636364 9:0.242424 10:0.525253 11:0.74 12:0.43 13:0.51 14:0.14 
0 0 0 0 0 0 0 1 0 1:0.212121 2:0.707071 3:0.545455 4:0.434343 5:0.414141 6:0.10101 8:0.363636 9:0.121212 10:0.707071 11:0.53 12:0.91 13:1 14:1 
0 0 0 0 0 0 0 1 1 1:1 2:1 3:0.505051 4:1 5:0.10101 6:0.808081 7:0.0808081 8:0.505051 9:0.565657 10:0.545455 11:0.73 12:0.22 13:0.37 14:0.14 
0 0 1 0 1 0 0 0 1 1:1 2:1 3:0.535354 4:0.989899 5:0.151515 6:0.787879 7:0.505051 8:0.474747 9:0.505051 10:0.757576 11:0.27 12:0.47 13:0.01 14:0.01 
1 0 0 0 0 0 0 0 0 1:0.191919 2:0.979798 3:0.969697 4:1 5:1 6:0.989899 7:0.30303 8:0.878788 9:0.40404 10:0.565657 11:0.97 12:0.3 13:0.57 14:0.13 
0 1 0 0 0 0 0 0 0.72493387713555357 1:0.717172 2:0.959596 3:1 4:1 5:0.565657 6:0.949495 7:0.30303 8:0.646465 9:0.484848 10:0.505051 11:0.67 12:0.29 13:0.39 14:0.03 
1 1 1 0 1 1 1 1 1 1:0.939394 2:0.969697 3:0.555556 4:0.959596 5:1 6:0.040404 7:0.666667 8:0.575758 9:0.525253 10:1 11:0.27 12:0.63 13:0.11 14:0.01 
1 1 1 0 1 0 1 0 0 1:0.040404 2:0.858586 3:0.767677 4:1 5:0.79798 6:0.989899 7:0.858586 8:0.191919 9:0.626263 10:1 11:0.48 12:0.81 13:0.13 14:0.01 
0 0 0 0 0 0 0 1 0 1:0.131313 2:0.919192 3:0.636364 4:0.656566 5:0.606061 6:0.767677 7:0.0606061 8:0.40404 9:0.222222 10:0.545455 11:0.3 12:0.95 13:1 14:1 
0 0 0 0 0 0 0 1 0 1:0.424242 2:0.989899 3:0.0707071 4:0.676768 5:0.727273 6:0.737374 7:0.616162 8:0.242424 9:0.0606061 10:0.484848 11:0.2 12:0.96 13:1 14:1 
0 0 0 0 0 0 0 1 0 1:0.30303 2:0.808081 3:0.535354 4:0.454545 5:0.505051 6:0.0505051 7:0.0606061 8:0.414141 9:0.121212 10:0.838384 11:0.55 12:0.96 13:1 14:1 
1 0 1 1 1 1 1 0 1 1:0.0606061 2:0.909091 3:0.565657 4:1 5:0.0707071 6:0.959596 7:0.535354 8:0.565657 9:0.494949 10:1 11:0.21 12:0.46 13:0.01 14:0.14 
0 0 0 0 1 1 1 1 0.83285214781645922 1:0.555556 2:1 3:1 4:0.979798 5:0.262626 6:0.969697 7:0.232323 8:0.656566 9:0.777778 10:0.474747 11:0.95 12:0.11 13:0.32 14:0.26 
0 0 0 0 1 0 0 0 1 1:0.30303 2:0.939394 3:1 4:1 5:0.656566 6:0.959596 7:0.040404 8:0.787879 9:0.494949 10:0.686869 11:0.37 12:0.92 13:0.1 14:0.22 
0 0 0 0 0 0 0 1 0 1:0.515152 2:1 3:0.474747 4:0.656566 5:0.909091 6:0.444444 7:0.474747 8:0.0909091 9:0.191919 10:0.484848 11:0.39 12:0.98 13:1 14:1 
0 1 0 1 0 0 0 0 0 1:0.40404 2:0.868687 3:0.626263 4:0.616162 5:0.616162 6:0.838384 7:0.232323 8:0.0707071 9:0.0505051 10:0.434343 11:0.11 12:0.93 13:1 14:1 
1 1 0 0 1 0 0 1 0 1:0.393939 2:0.989899 3:1 4:0.868687 5:0.424242 6:1 7:0.292929 8:0.555556 9:0.727273 10:0.434343 11:0.98 12:0.09 13:0.38 14:0.31 
1 1 1 1 1 1 1 1 1 1:1 2:0.949495 3:0.515152 4:0.989899 5:1 6:0.171717 7:0.676768 8:0.69697 9:0.646465 10:0.818182 11:0.28 12:0.42 13:0.01 14:0.07 
1 1 1 1 1 0 1 0 0 1:0.535354 2:0.919192 3:0.89899 4:1 5:1 6:0.949495 7:0.626263 8:0.888889 9:0.323232 10:0.656566 11:0.52 12:0.33 13:0.32 14:0.02 
1 1 1 1 0.94592364461017753 0 1 1 0 1:0.323232 2:0.747475 3:0.676768 4:1 5:1 6:0.979798 7:0.515152 8:0.919192 9:0.363636 10:0.505051 11:0.79 12:0.35 13:0.47 14:0.06 
0 0 0 0 1 1 1 0 0 1:0.0505051 2:0.767677 3:0.222222 4:0.494949 5:0.30303 6:0.030303 7:0.121212 8:0.646465 9:0.212121 10:0.959596 11:0.6 12:1 13:1 14:1 
0 0 0 1 0 0 0 1 0 1:0.59596 2:0.969697 3:0.030303 4:0.828283 5:0.616162 6:0.434343 7:0.929293 9:0.111111 10:0.454545 11:0.11 12:0.94 13:1 14:1 
1 1 1 0 0 0 1 1 0 1:0.464646 2:0.929293 3:0.919192 4:1 5:1 6:0.959596 7:0.545455 8:0.838384 9:0.59596 10:0.565657 11:0.83 12:0.25 13:0.45 14:0.05 
0 0 0 1 0 0 0 0 0 1:0.181818 2:1 3:0.515152 4:0.747475 5:0.727273 6:1 7:0.272727 8:0.262626 9:0.020202 10:0.454545 11:0.01 12:0.94 13:0.92 14:0.99 
0 0 0 0 0 0 0 0 1 1:1 2:0.989899 3:0.545455 4:1 5:0.212121 6:0.787879 7:0.262626 8:0.505051 9:0.737374 10:0.464646 11:0.87 12:0.19 13:0.47 14:0.01 
0 0 0 0 1 0 1 0 1 1:1 2:0.888889 3:0.626263 4:0.939394 5:0.131313 6:1 7:0.121212 8:0.646465 9:0.606061 10:0.59596 11:0.78 12:0.2 13:0.35 14:0.12 
0 0 0 0 1 1 0 1 1 1:1 2:1 3:0.434343 4:0.989899 5:0.0505051 6:0.727273 7:0.141414 8:0.474747 9:0.646465 10:0.59596 11:0.85 12:0.26 13:0.49 14:0.12 
0 0 0 0 0 0 0 1 0 1:0.323232 2:0.929293 3:0.545455 4:0.606061 5:0.575758 6:0.909091 7:0.242424 8:0.363636 9:0.282828 10:0.525253 11:0.36 12:1 13:1 14:0.93 
0 1 0 0 0 0 0 1 0 1:0.181818 2:0.909091 3:0.171717 4:0.494949 5:0.878788 6:0.494949 7:0.878788 8:0.040404 9:0.232323 10:0.505051 11:0.29 12:0.91 13:1 14:1 
0 0 0 0 1 1 0 1 0 1:0.222222 2:0.89899 3:0.424242 4:0.474747 5:0.373737 6:0.040404 7:0.020202 8:0.555556 9:0.222222 10:0.858586 11:0.6 12:0.98 13:1 14:1 
1 0 1 0 1 1 1 1 1 1:1 2:1 3:0.565657 4:0.939394 5:0.282828 6:0.757576 7:0.474747 8:0.626263 9:0.828283 10:0.484848 11:0.71 12:0.19 13:0.36 14:0.04 
1 1 0 0 0 0 1 1 0 1:0.40404 2:0.909091 3:1 4:1 5:0.989899 6:0.989899 7:0.444444 8:0.858586 9:0.393939 10:0.565657 11:0.89 12:0.39 13:0.57 14:0.09 
0 1 0 1 0 0 0 0 0 1:0.141414 2:0.888889 3:0.676768 4:0.868687 5:0.686869 6:0.858586 7:0.242424 8:0.20202 9:0.030303 10:0.444444 11:0.08 12:0.86 13:1 14:1 
1 0 0 0 1 0 0 1 0 2:0.969697 3:0.676768 4:0.979798 5:0.383838 6:1 7:0.20202 8:0.626263 9:0.545455 10:0.494949 11:1 12:0.25 13:0.46 14:0.19 
0 0 1 1 0 0 0 0 0 1:0.212121 2:0.89899 3:0.040404 4:0.545455 5:0.676768 6:0.515152 7:0.757576 8:0.0808081 9:0.030303 10:0.424242 11:0.17 12:0.87 13:1 14:1 
0 0 0 0 0 0 0 0 1 1:1 2:0.989899 3:0.565657 4:1 5:0.171717 6:0.787879 7:0.151515 8:0.444444 9:0.606061 10:0.515152 11:0.78 12:0.22 13:0.39 14:0.07 
0 0 0 0 0 0 0 1 1 1:0.646465 2:0.949495 3:0.272727 4:0.717172 5:0.515152 6:0.323232 7:0.232323 8:0.151515 9:0.141414 10:0.585859 11:0.48 12:0.89 13:1 14:1 
1 1 1 1 0 1 1 1 1 1:1 2:0.848485 3:0.656566 4:1 5:0.353535 6:0.777778 7:0.494949 8:0.494949 9:0.89899 10:0.353535 11:0.87 12:0.02 13:0.44 14:0.04 
0 0 0 0 0 0 0 1 0 1:0.424242 2:0.979798 3:0.686869 4:0.565657 5:0.484848 6:0.616162 7:0.0606061 8:0.141414 9:0.161616 10:0.494949 11:0.34 12:0.95 13:1 14:1 
0 1 1 1 0 0 0 0 0 1:0.626263 2:0.909091 3:1 4:1 5:0.747475 6:0.919192 7:0.40404 8:0.767677 9:0.30303 10:0.494949 11:0.56 12:0.27 13:0.36 14:0.01 
0 0 0 1 0 0 0 0 0 1:0.232323 2:0.848485 3:0.020202 4:0.494949 5:0.838384 6:0.515152 7:0.585859 8:0.040404 10:0.515152 11:0.11 12:0.94 13:1 14:1 
0 0 0 0 0 1 1 0 0 1:0.989899 2:1 3:0.656566 4:1 5:0.171717 6:0.939394 7:0.292929 8:0.565657 9:0.858586 10:0.484848 11:1 12:0.15 13:0.48 14:0.12 
0 0 0 0 0 0 0 1 0 1:0.252525 2:0.79798 3:0.222222 4:0.555556 5:0.59596 6:0.232323 7:0.272727 8:0.232323 9:0.121212 10:0.676768 11:0.47 12:0.97 13:1 14:1 
0 0 0 0 0 0 0 1 1 1:0.909091 2:0.252525 3:0.565657 4:0.515152 5:0.212121 6:0.0707071 7:0.030303 8:0.383838 9:0.030303 10:0.808081 11:0.41 12:1 13:1 14:0.98 
0 0 0 0 0 0 0 0 1 1:0.353535 2:0.79798 3:0.636364 4:0.363636 5:0.40404 6:0.242424 8:0.0707071 9:0.0606061 10:0.535354 11:0.43 12:0.88 13:1 14:1 
0 0 0 0 0 0 0 0 1 1:1 2:0.878788 3:0.717172 4:1 5:0.262626 6:0.878788 7:0.0505051 8:0.575758 9:0.333333 10:0.505051 11:0.68 12:0.37 13:0.43 14:0.08 
1 1 1 1 0.39723319759923237 1 1 1 1 1:0.949495 2:0.89899 3:0.69697 4:0.949495 5:1 6:0.656566 7:0.686869 8:0.585859 9:1 10:0.262626 11:0.53 12:0.16 13:0.13 
0 1 0 0 0 0 0 0 1 1:0.545455 2:0.949495 3:1 4:1 5:0.535354 6:0.909091 7:0.272727 8:0.545455 9:0.535354 10:0.525253 11:0.76 12:0.3 13:0.43 14:0.01 
1 0 0 0 1 1 1 1 0 1:0.0707071 2:0.676768 3:0.333333 4:0.363636 5:0.393939 6:0.0707071 7:0.424242 8:0.232323 9:0.717172 10:0.606061 11:0.87 12:1 13:1 
0 1 0 0 0 0 0 1 0 1:0.59596 2:0.909091 3:0.848485 4:0.181818 5:0.363636 6:0.818182 7:0.262626 8:0.30303 9:0.020202 10:0.292929 11:0.4 12:0.74 13:1 14:1 
0 0 0 0 1 0 0 0 0 1:0.40404 2:0.959596 3:0.161616 4:0.757576 5:0.494949 6:0.363636 7:0.30303 8:0.333333 10:0.858586 11:0.49 12:0.98 13:1 14:1 
0 0 1 0 0 0 0 0 0 1:0.616162 2:0.989899 3:1 4:1 5:0.616162 6:0.959596 7:0.282828 8:0.848485 9:0.323232 10:0.565657 11:0.55 12:0.32 13:0.38 14:0.08 
0 0 0 0 0 0 0 1 0 1:0.313131 2:0.959596 3:0.666667 4:0.606061 5:0.575758 6:0.737374 7:0.131313 8:0.232323 9:0.191919 10:0.494949 11:0.38 12:0.91 13:1 14:1 
0 1 1 1 0 0 0.37893230276728146 1 0 1:0.787879 2:0.0505051 3:0.636364 4:0.40404 5:0.505051 6:0.838384 7:0.20202 8:0.222222 9:0.151515 10:0.505051 11:0.25 12:1 13:1 14:0.94 
1 1 1 1 1 1 0 1 0 1:0.363636 2:1 3:0.131313 4:0.545455 5:0.838384 6:0.606061 7:1 8:0.191919 9:0.373737 10:0.010101 11:0.43 12:0.83 13:0.72 14:0.87 
0 0 0 0 0 0 0 1 1 1:0.353535 2:0.909091 3:0.383838 4:0.525253 5:0.393939 6:0.141414 7:0.010101 8:0.30303 9:0.181818 10:0.707071 11:0.57 12:0.91 13:1 14:1 
0 1 1 0 0 0 0 0 0 1:0.454545 2:0.89899 3:1 4:0.989899 5:1 6:1 7:0.454545 8:0.939394 9:0.111111 10:0.686869 11:0.53 12:0.4 13:0.5 14:0.06 
1 1 1 1 1 0 1 1 0 1:0.232323 2:0.79798 3:0.585859 4:0.949495 5:1 6:1 7:0.626263 8:0.919192 9:0.242424 10:0.777778 11:0.21 12:0.47 13:0.36 14:0.16 
0 0 0 0 0.19503762185000695 0 1 1 0 1:0.222222 2:0.959596 3:0.262626 4:0.535354 5:0.636364 6:0.343434 7:0.323232 8:0.111111 9:0.414141 10:0.929293 11:0.5 12:0.96 13:1 14:1 
0 0 0 0 0 1 1 1 1 1:1 2:0.939394 3:0.494949 4:1 5:0.212121 6:0.757576 7:0.292929 8:0.505051 9:0.777778 10:0.434343 11:0.87 12:0.14 13:0.48 14:0.05 
1 1 0 0 0 1 1 1 0 1:0.393939 2:0.848485 3:0.919192 4:1 5:1 6:0.979798 7:0.444444 8:0.848485 9:0.787879 10:0.646465 11:0.99 12:0.33 13:0.55 14:0.07 
0 0 0 0 1 0 0 0 0 1:0.363636 2:0.939394 3:0.525253 4:0.474747 5:0.40404 6:0.0505051 7:0.030303 8:0.444444 9:0.161616 10:0.89899 11:0.57 12:1 13:1 14:1 
0 0 0 0 1 1 1 0 1 1:1 2:1 3:0.545455 4:0.979798 5:0.252525 6:0.808081 7:0.393939 8:0.666667 9:0.777778 10:0.545455 11:0.74 12:0.25 13:0.43 14:0.01 
0 1 0.66616015821173102 0 0 0 0 0 0 1:0.0909091 2:0.868687 3:0.161616 4:0.575758 5:0.878788 6:0.494949 7:0.858586 8:0.161616 9:0.0505051 10:0.575758 11:0.21 12:0.92 13:1 14:1 
0 0 0 0 1 0 0 0 0 1:0.191919 2:0.89899 3:0.141414 4:0.656566 5:0.363636 6:0.171717 7:0.0606061 8:0.444444 9:0.141414 10:0.949495 11:0.58 12:1 13:1 14:0.87 
1 0.49747024498041098 1 0.22226372155385013 1 1 1 1 1 1:0.979798 2:1 3:0.353535 4:0.989899 5:0.686869 6:0.292929 7:0.515152 8:0.888889 9:0.484848 10:1 11:0.04 12:0.42 13:0.09 14:0.36 
0 1 0 1 0 0 0 0 0 1:0.242424 2:0.979798 3:0.636364 4:0.828283 5:0.717172 6:0.787879 7:0.212121 8:0.111111 9:0.0808081 10:0.505051 11:0.08 12:0.95 13:1 14:1 
1 1 1 0 0 0 1 1 0 1:0.636364 2:0.919192 3:1 4:1 5:0.848485 6:0.979798 7:0.464646 8:0.79798 9:0.69697 10:0.535354 11:0.82 12:0.18 13:0.43 14:0.13 
0 0 0 0 1 1 1 1 1 1:1 2:1 3:0.454545 4:0.89899 5:0.181818 6:0.707071 7:0.414141 8:0.626263 9:0.919192 10:0.555556 11:0.91 12:0.26 13:0.54 14:0.02 
1 0 0 0 1 1 1 1 1 1:0.848485 2:0.89899 3:0.343434 4:1 5:0.141414 6:0.767677 7:0.313131 8:0.525253 9:0.909091 10:0.515152 11:1 12:0.22 13:0.56 14:0.07 
1 0 1 1 1 1 1 1 0 1:0.0505051 2:0.787879 3:0.414141 4:0.949495 5:1 6:1 7:0.343434 8:0.878788 9:0.555556 10:0.616162 11:0.41 12:0.64 13:0.02 
0 1 0 0 0 0 0 1 0 1:0.818182 2:0.0808081 3:0.585859 4:0.555556 5:0.333333 6:0.40404 7:0.0909091 8:0.292929 9:0.020202 10:0.666667 11:0.42 12:0.96 13:1 14:1 
1 0 0 0 0 0 1 1 0 1:0.414141 2:0.868687 3:1 4:1 5:0.79798 6:0.959596 7:0.292929 8:0.767677 9:0.515152 10:0.616162 11:0.94 12:0.45 13:0.57 14:0.15 
0 0 0 0 1 1 1 1 0 1:0.888889 2:0.939394 3:0.555556 4:1 5:0.141414 6:0.828283 7:0.333333 8:0.555556 9:0.888889 10:0.535354 11:1 12:0.19 13:0.55 14:0.1 
0 0 0 0 0 0 0 1 0 1:0.69697 2:0.969697 3:0.272727 4:0.777778 5:0.646465 6:0.525253 7:0.565657 8:0.0808081 9:0.121212 10:0.414141 11:0.51 12:0.86 13:1 14:1 
1 1 1 1 0 0 0 1 0 1:0.525253 2:0.848485 3:0.949495 4:1 5:1 6:0.969697 7:0.575758 8:0.919192 9:0.181818 10:0.717172 11:0.38 12:0.44 13:0.39 14:0.09 
0 0 0 0.24092551004112556 0 0 0 1 0 1:0.434343 2:0.929293 3:0.0808081 4:0.636364 5:0.818182 6:0.444444 7:0.626263 8:0.0707071 9:0.121212 10:0.434343 11:0.28 12:0.88 13:1 14:1 
1 1 1 1 1 0 1 0 0 1:0.393939 2:0.919192 3:0.737374 4:0.989899 5:1 6:1 7:0.656566 8:0.919192 9:0.323232 10:0.79798 11:0.3 12:0.39 13:0.32 
1 0 0 0 0 0 1 1 0 1:0.343434 2:0.848485 3:0.888889 4:1 5:1 6:0.959596 7:0.353535 8:0.878788 9:0.323232 10:0.535354 11:0.95 12:0.4 13:0.6 14:0.06 
0 0 0 0 0 0 0 1 0 1:0.444444 2:0.828283 3:0.131313 4:0.717172 5:0.343434 6:0.505051 7:0.515152 8:0.10101 9:0.191919 10:0.434343 11:0.45 12:0.89 13:1 14:1 
1 1 1 0 0 0 1 0 0 1:0.535354 2:0.878788 3:1 4:1 5:0.828283 6:0.959596 7:0.434343 8:0.737374 9:0.585859 10:0.575758 11:0.75 12:0.29 13:0.44 14:0.03 
1 0 0 0 0 1 0 1 1 1:0.717172 2:0.939394 3:0.242424 4:1 5:0.252525 6:0.707071 7:0.242424 8:0.353535 9:0.717172 10:0.434343 11:1 12:0.18 13:0.55 14:0.02 
0 0 0 0 0 0 0 1 0 1:0.262626 2:0.646465 3:0.575758 4:0.353535 5:0.606061 6:0.242424 7:0.0909091 8:0.444444 9:0.121212 10:0.737374 11:0.56 12:0.89 13:1 14:1 
0 0 0 0 0 0 0 1 0 1:0.252525 2:0.858586 3:0.525253 4:0.626263 5:0.393939 6:0.717172 7:0.282828 8:0.020202 9:0.30303 10:0.484848 11:0.27 12:0.92 13:1 14:1 
1 1 1 1 1 1 0 1 0 1:0.0909091 2:0.909091 3:0.191919 4:0.585859 5:0.828283 6:0.555556 7:1 8:0.121212 9:0.393939 10:0.020202 11:0.42 12:0.82 13:0.6 14:1 
1 0.12936483148644551 0 1 0 0 0 0.8501664195286327 0 1:0.393939 2:0.818182 3:0.0909091 4:0.757576 5:0.585859 6:0.414141 7:0.656566 8:0.0606061 9:0.454545 10:0.313131 11:0.86 12:1 13:1 
0 0 0 0 0 0 0 1 0 1:0.585859 2:0.787879 3:0.343434 4:0.727273 5:0.717172 6:0.353535 7:0.343434 8:0.040404 9:0.232323 10:0.69697 11:0.32 12:1 13:1 14:0.97 
0 0 0 0 1 0 0 0 0 1:0.141414 2:0.79798 3:0.474747 4:0.444444 5:0.30303 6:0.505051 7:0.292929 8:0.353535 9:0.121212 10:0.757576 11:0.46 12:1 13:1 14:0.99 
0 0 0 0 0 0 0 0 1 1:0.414141 2:0.949495 3:0.636364 4:0.474747 5:0.414141 6:0.20202 7:0.171717 8:0.040404 9:0.717172 10:0.414141 11:1 12:1 13:0.98 
0 0 0 0 0 0 0 1 0 1:0.373737 2:0.848485 3:0.585859 4:0.474747 5:0.525253 6:0.676768 7:0.171717 8:0.212121 9:0.232323 10:0.494949 11:0.37 12:0.94 13:1 14:1 
0 0 0 0 0 0 0 1 0 1:0.323232 2:0.868687 3:0.161616 4:0.777778 5:0.575758 6:0.414141 7:0.454545 8:0.111111 9:0.141414 10:0.606061 11:0.42 12:0.94 13:1 14:1 
0 0 0 0 0 0 0 1 0 1:0.212121 2:0.868687 3:0.242424 4:0.545455 5:0.767677 6:0.424242 7:0.525253 8:0.10101 9:0.171717 10:0.686869 11:0.38 12:0.91 13:1 14:1 
0 0 0 0 0 0 0 1 0 1:0.262626 2:0.838384 3:0.262626 4:0.555556 5:0.737374 6:0.292929 7:0.414141 8:0.161616 9:0.262626 10:0.636364 11:0.35 12:0.94 13:1 14:1 
0 1 0 0 0 0 0 1 0 1:0.353535 2:0.808081 3:0.353535 4:0.69697 5:0.79798 6:0.353535 7:0.515152 8:0.212121 9:0.282828 10:0.626263 11:0.35 12:0.94 13:1 14:1 
0 1 1 1 0 0 0 1 0 1:0.10101 2:0.838384 3:0.656566 4:0.575758 5:0.666667 6:0.989899 7:0.40404 8:0.40404 9:0.0505051 10:0.323232 11:0.08 12:0.84 13:1 14:1 
1 1 1 1 0 0 0 0 0 1:0.515152 2:0.929293 3:0.949495 4:1 5:1 6:0.979798 7:0.535354 8:0.919192 9:0.272727 10:0.606061 11:0.58 12:0.36 13:0.42 14:0.02 
0 0 0 0 0 0 0 1 0 1:0.585859 2:0.939394 3:0.191919 4:0.656566 5:0.575758 6:0.454545 7:0.494949 8:0.010101 9:0.20202 10:0.484848 11:0.49 12:0.96 13:1 14:1 
0 0 1 1 1 0 0 0 1 1:1 2:0.979798 3:0.606061 4:1 5:0.191919 6:0.888889 7:0.575758 8:0.353535 9:0.535354 10:0.646465 11:0.37 12:0.44 13:0.02 14:0.06 
0 0 0 0 0 0 0 1 1 1:0.484848 2:0.838384 3:0.484848 4:0.616162 5:0.474747 6:0.212121 7:0.0606061 8:0.292929 9:0.0808081 10:0.717172 11:0.53 12:0.9 13:1 14:1 
0 0 0 0 0 0 0 0 1 1:1 2:1 3:0.535354 4:1 5:0.161616 6:0.848485 7:0.141414 8:0.494949 9:0.545455 10:0.464646 11:0.85 12:0.22 13:0.5 14:0.06 
1 1 1 1 0 0 0 1 1 1:0.575758 2:0.959596 3:1 4:1 5:0.626263 6:0.89899 7:0.363636 8:0.606061 9:0.606061 10:0.535354 11:0.66 12:0.24 13:0.36 14:0.11 
0 0 0 0 0 0 0 1 0 1:0.20202 2:0.79798 3:0.282828 4:0.464646 5:0.848485 6:0.434343 7:0.616162 8:0.191919 9:0.181818 10:0.666667 11:0.37 12:1 13:1 14:0.98 
0 1 0 0 0 0 0 0 0 1:0.313131 2:0.919192 3:1 4:0.989899 5:1 6:1 7:0.323232 8:0.878788 9:0.111111 10:0.474747 11:0.81 12:0.39 13:0.71 14:0.06 
0 0 0 0 0 0 0 1 0 1:0.282828 2:0.969697 3:0.30303 4:0.69697 5:0.606061 6:0.414141 7:0.494949 8:0.191919 9:0.161616 10:0.59596 11:0.41 12:0.98 13:1 14:1 
0 0 1 0 0 0 0 1 0 1:0.131313 2:0.808081 3:0.555556 4:0.474747 5:0.59596 6:1 7:0.292929 8:0.494949 9:0.171717 10:0.515152 11:0.18 12:0.97 13:0.97 14:1 
0 0 0 0 0 0 0 1 0 1:0.242424 2:0.838384 3:0.555556 4:0.535354 5:0.464646 6:0.161616 7:0.040404 8:0.343434 9:0.0909091 10:0.717172 11:0.52 12:0.9 13:1 14:1 
1 1 1 1 0 0 1 0 0 1:0.606061 2:0.878788 3:0.979798 4:1 5:1 6:0.949495 7:0.616162 8:0.888889 9:0.313131 10:0.636364 11:0.56 12:0.33 13:0.38 14:0.03 
0 1 0.066908388112572478 1 0 0 0 1 0 1:0.808081 2:0.151515 3:0.585859 4:0.737374 5:0.383838 6:0.646465 7:0.0707071 8:0.0505051 9:0.030303 10:0.494949 11:0.33 12:0.88 13:1 14:1 
0 0 0 0 0 0 0 1 1 1:1 2:0.939394 3:0.525253 4:1 5:0.20202 6:0.838384 7:0.131313 8:0.515152 9:0.616162 10:0.434343 11:0.81 12:0.14 13:0.43 14:0.17 
0 0 0 0 0 0 0 0 1 1:1 2:0.808081 3:0.646465 4:0.969697 5:0.232323 6:1 7:0.0606061 8:0.636364 9:0.40404 10:0.565657 11:0.65 12:0.25 13:0.31 14:0.05 
0 0 0 0 0 0 0 0 1 1:1 2:1 3:0.535354 4:0.989899 5:0.141414 6:0.79798 7:0.191919 8:0.464646 9:0.636364 10:0.555556 11:0.8 12:0.24 13:0.46 14:0.02 
1 1 1 0 1 1 1 1 0 1:0.969697 2:0.939394 3:0.606061 4:1 5:0.272727 6:0.767677 7:0.666667 8:0.707071 9:1 10:0.464646 11:0.86 12:0.08 13:0.43 14:0.12 
1 1 1 1 0 0 0 1 0 1:0.656566 2:0.919192 3:1 4:1 5:0.848485 6:0.909091 7:0.454545 8:0.717172 9:0.494949 10:0.424242 11:0.83 12:0.24 13:0.46 14:0.03 
0 0 0 0 0 1 0 1 0 1:0.10101 2:0.656566 3:0.424242 4:0.383838 5:0.393939 6:0.040404 8:0.434343 9:0.212121 10:0.727273 11:0.61 12:0.88 13:1 14:1 
0 0 0 0 0 0 0 1 0 1:0.434343 2:0.79798 3:0.20202 4:0.676768 5:0.737374 6:0.373737 7:0.616162 8:0.040404 9:0.141414 10:0.505051 11:0.33 12:0.9 13:1 14:1 
0 1 1 1 0 0 0 1 0 1:0.272727 2:0.848485 3:0.10101 4:0.626263 5:0.818182 6:0.363636 7:0.878788 8:0.0808081 10:0.454545 11:0.16 12:0.88 13:1 14:1 
0 0 0 0 1 0 0 0 0 1:0.262626 2:0.838384 3:0.191919 4:0.505051 5:0.373737 6:0.10101 7:0.010101 8:0.464646 9:0.0808081 10:0.929293 11:0.54 12:1 13:1 14:0.99 
1 1 1 1 0 0 0 1 1 1:1 2:0.919192 3:0.787879 4:1 5:0.464646 6:0.888889 7:0.454545 8:0.606061 9:0.676768 10:0.363636 11:0.66 12:0.09 13:0.34 14:0.01 
1 0 1 0 1 0.76238949575565873 1 1 0 1:0.333333 2:0.929293 3:0.919192 4:1 5:0.525253 6:0.919192 7:0.727273 8:0.484848 9:0.606061 10:1 11:0.4 12:0.86 13:0.1 14:0.26 
1 1 1 1 0 1 0 1 0 1:0.0606061 2:0.858586 3:0.212121 4:0.626263 5:0.949495 6:0.535354 7:1 8:0.0808081 9:0.292929 11:0.46 12:0.93 13:0.75 14:1 
0 0 0 0 0 0 0 1 1 1:1 2:1 3:0.646465 4:0.939394 5:0.333333 6:0.828283 7:0.262626 8:0.494949 9:0.666667 10:0.393939 11:0.76 12:0.12 13:0.4 14:0.07 
1 1 1 1 0 1 1 1 0 1:0.10101 2:0.868687 3:0.191919 4:0.525253 5:0.949495 6:0.525253 7:1 8:0.111111 9:0.282828 10:0.414141 11:0.86 12:0.71 13:1 
1 1 1 1 0 0 1 1 0 1:0.575758 2:0.848485 3:1 4:1 5:0.868687 6:0.939394 7:0.515152 8:0.717172 9:0.585859 10:0.424242 11:0.85 12:0.27 13:0.47 14:0.02 
0 0.26570630964821107 0 0 0 0 0 1 0 1:0.444444 2:0.929293 3:0.59596 4:0.747475 5:0.686869 6:0.888889 7:0.282828 8:0.181818 9:0.141414 10:0.424242 11:0.26 12:0.93 13:1 14:1 
1 1 1 0 0 0 1 1 0 1:0.353535 2:0.89899 3:0.787879 4:1 5:1 6:0.979798 7:0.494949 8:0.878788 9:0.313131 10:0.585859 11:0.76 12:0.37 13:0.47 14:0.05 
0 0 0 0 1 0.68197894710338802 0 1 0 1:0.212121 2:0.787879 3:0.292929 4:0.525253 5:0.535354 6:0.232323 7:0.313131 8:0.121212 9:0.414141 10:0.858586 11:0.49 12:0.96 13:1 14:1 
1 1 0 0 0 0 1 1 0 1:0.515152 2:0.89899 3:1 4:1 5:0.59596 6:0.919192 7:0.313131 8:0.59596 9:0.787879 10:0.565657 11:0.86 12:0.22 13:0.44 14:0.14 
0 0 0 0 0 0 0 1 1 1:0.292929 2:0.939394 3:0.727273 4:1 5:0.282828 6:0.909091 7:0.0505051 8:0.515152 9:0.505051 10:0.454545 11:1 12:0.24 13:0.45 14:0.14 
0 0 0 0 1 1 0 1 0 1:0.333333 2:0.959596 3:0.454545 4:0.525253 5:0.353535 6:0.111111 7:0.010101 8:0.464646 9:0.272727 10:0.767677 11:0.63 12:0.92 13:1 14:1 
0 0 0 0 0 0 0 1 1 1:1 2:0.848485 3:0.585859 4:0.979798 5:0.10101 6:1 7:0.0505051 8:0.585859 9:0.333333 10:0.474747 11:0.68 12:0.23 13:0.3 14:0.1 
0 0 0 0 1 0 0 0 0 1:0.131313 2:0.909091 3:0.0606061 4:0.545455 5:0.353535 6:0.161616 7:0.030303 8:0.505051 9:0.030303 10:0.979798 11:0.52 12:1 13:1 14:0.97 
0 1 0 0 0 0 1 1 0 1:0.888889 2:0.0909091 3:0.545455 4:0.505051 5:0.292929 6:0.474747 7:0.171717 8:0.222222 9:0.191919 10:0.656566 11:0.49 12:0.94 13:1 14:1 
0 0 1 1 0 0 0 1 0 1:0.323232 2:0.858586 3:0.0808081 4:0.646465 5:0.747475 6:0.707071 7:0.717172 8:0.242424 9:0.020202 10:0.454545 11:0.12 12:0.93 13:1 14:1 
0 0 0 1 0 0 0 0 0 1:0.151515 2:0.828283 3:0.464646 4:0.656566 5:0.616162 6:0.858586 7:0.222222 8:0.181818 9:0.0707071 10:0.474747 11:0.12 12:0.94 13:1 14:1 
0 0 0 0 1 0 0 0 0 1:0.383838 2:0.959596 3:0.232323 4:0.636364 5:0.424242 6:0.272727 7:0.0606061 8:0.444444 9:0.141414 10:0.929293 11:0.46 12:1 13:1 14:1 
0 1 0.61044086821000432 1 0 0 0 0 0 1:0.131313 2:0.767677 3:0.555556 4:0.909091 5:0.545455 6:0.939394 7:0.10101 8:0.252525 9:0.0707071 10:0.454545 11:0.02 12:0.91 13:1 14:1 
0 0 0 0 1 0 0 0 0 1:0.171717 2:0.848485 3:0.40404 4:0.454545 5:0.363636 7:0.020202 8:0.464646 9:0.0606061 10:0.909091 11:0.53 12:0.97 13:1 14:1 
1 1 0.54675619524894581 0 0 0 1 1 0 1:0.292929 2:0.808081 3:0.868687 4:1 5:1 6:0.979798 7:0.363636 8:0.858586 9:0.454545 10:0.535354 11:0.99 12:0.32 13:0.59 14:0.02 
0 0 0 0 1 1 0 1 1 1:0.454545 2:0.828283 3:0.40404 4:0.515152 5:0.373737 6:0.141414 7:0.171717 8:0.313131 9:0.353535 10:0.646465 11:0.59 12:0.87 13:1 14:1 
0 0 0 1 0 0 0 1 0 1:0.363636 2:0.818182 3:0.171717 4:0.808081 5:0.575758 6:0.454545 7:0.555556 8:0.010101 9:0.111111 10:0.464646 11:0.37 12:0.9 13:1 14:1 
0 0 0 0 0 0.85265965377934039 1 1 1 1:0.929293 2:0.909091 3:0.393939 4:1 5:0.141414 6:0.787879 7:0.222222 8:0.353535 9:0.717172 10:0.525253 11:1 12:0.21 13:0.57 14:0.06 
0 0 0 0 0 0 0 1 0 1:0.292929 2:0.858586 3:0.454545 4:0.585859 5:0.515152 6:0.171717 7:0.0808081 8:0.292929 9:0.10101 10:0.737374 11:0.52 12:0.94 13:1 14:1 
0 0 0 0 0 0 0 0 0.54898105730014413 1:0.343434 2:0.939394 3:0.656566 4:0.505051 5:0.535354 6:0.474747 7:0.121212 9:0.161616 10:0.464646 11:0.35 12:0.94 13:1 14:1 
0 0 0 0 0 0 0 1 0 1:0.252525 2:0.737374 3:0.181818 4:0.484848 5:0.636364 6:0.20202 7:0.191919 9:0.242424 10:0.636364 11:0.45 12:0.87 13:1 14:1 
1 0 0.065100328493043966 0 1 1 1 1 0 1:0.959596 2:1 3:0.69697 4:1 5:0.343434 6:0.79798 7:0.565657 8:0.59596 9:1 10:0.454545 11:0.9 12:0.13 13:0.46 14:0.08 
0 0 0 0 0 0 1 1 0 1:0.909091 2:0.0909091 3:0.565657 4:0.474747 5:0.292929 6:0.191919 7:0.0707071 8:0.333333 9:0.111111 10:0.787879 11:0.49 12:1 13:1 14:0.91 
0 0 0 0 0 0 0 1 0 1:0.535354 2:0.959596 3:0.59596 4:0.666667 5:0.868687 6:0.333333 7:0.474747 8:0.131313 9:0.252525 10:0.717172 11:0.4 12:1 13:1 14:0.99 
1 1 1 0 0 0 1 1 0 1:0.393939 2:0.89899 3:0.868687 4:1 5:0.808081 6:0.929293 7:0.383838 8:0.707071 9:0.69697 10:0.454545 11:1 12:0.23 13:0.52 14:0.06 
1 1 1 1 0 0 0 1 0 1:0.656566 2:0.909091 3:1 4:1 5:0.89899 6:0.888889 7:0.525253 8:0.767677 9:0.282828 10:0.515152 11:0.58 12:0.3 13:0.38 14:0.04 
1 0 0 0 0 1 0 0 0 1:0.161616 2:1 3:0.161616 4:0.686869 5:0.59596 6:0.353535 7:0.292929 8:0.191919 9:0.727273 10:0.40404 11:0.91 12:1 13:0.92 
0 0 0 0 0 0 0 0 1 1:0.555556 2:1 3:0.141414 4:0.69697 5:0.414141 6:0.323232 7:0.010101 8:0.292929 9:0.121212 10:0.757576 11:0.41 12:0.99 13:1 14:0.97 
0 0 0 0 1 1 1 1 1 1:1 2:0.979798 3:0.575758 4:1 5:0.222222 6:0.89899 7:0.313131 8:0.59596 9:0.717172 10:0.565657 11:0.69 12:0.19 13:0.33 14:0.14 
1 1 0 0 1 1 1 0 1 1:1 2:0.959596 3:0.707071 4:1 5:0.414141 6:0.787879 7:0.484848 8:0.555556 9:0.909091 10:0.505051 11:0.82 12:0.16 13:0.42 14:0.01 
0 0 0 0 0 0 0 0 1 1:0.636364 2:1 3:0.212121 4:0.686869 5:0.545455 6:0.343434 7:0.151515 8:0.151515 9:0.111111 10:0.626263 11:0.42 12:0.97 13:1 14:0.96 
0 0 0 0 0 0 0 1 0 1:0.474747 2:0.888889 3:1 4:1 5:0.616162 6:0.919192 7:0.222222 8:0.656566 9:0.575758 10:0.545455 11:0.92 12:0.36 13:0.51 14:0.13 
0 0 0 0 0 0 0 1 0 1:0.555556 2:0.969697 3:0.40404 4:0.626263 5:0.686869 6:0.252525 7:0.282828 8:0.0505051 9:0.272727 10:0.717172 11:0.45 12:0.94 13:1 14:1 
0 0 0 0 0 0 0 1 0 1:0.131313 2:0.858586 3:0.575758 4:0.575758 5:0.626263 6:0.767677 7:0.20202 8:0.262626 9:0.131313 10:0.545455 11:0.36 12:0.93 13:1 14:1 
0 0 0 0 0 0 0 1 0 1:0.20202 2:0.888889 3:0.333333 4:0.575758 5:0.616162 6:0.212121 7:0.30303 8:0.0707071 9:0.393939 10:0.787879 11:0.48 12:0.96 13:1 14:1 
1 1 0 1 0 0.69881123064743567 0 0 0 1:0.0505051 2:1 3:0.151515 4:0.606061 5:0.808081 6:0.434343 7:0.656566 8:0.0808081 9:0.545455 10:0.151515 11:0.96 12:1 13:0.99 
0 0 0 0 0 0 0 0 1 1:1 2:0.969697 3:0.494949 4:1 5:0.111111 6:0.878788 7:0.0505051 8:0.474747 9:0.363636 10:0.464646 11:0.78 12:0.25 13:0.5 14:0.02 
0 0 0 1 0 0 0 0 0 1:0.272727 2:0.767677 3:0.0909091 4:0.757576 5:0.606061 6:0.40404 7:0.656566 8:0.0505051 9:0.020202 10:0.525253 11:0.27 12:0.95 13:1 14:1 
0 1 0 0 0 0 0 1 0 1:0.565657 2:0.959596 3:0.868687 4:0.454545 5:0.646465 6:0.626263 7:0.141414 8:0.0606061 9:0.020202 10:0.383838 11:0.43 12:0.84 13:1 14:1 
1 0 1 1 1 1 1 1 1 1:1 2:1 3:0.373737 4:0.868687 5:0.010101 6:0.616162 7:0.474747 8:0.505051 9:0.939394 10:0.272727 11:0.7 12:0.04 13:0.02 14:0.28 
0 0 0 0 0 0 1 0 0 1:0.363636 2:0.888889 3:0.969697 4:1 5:0.59596 6:0.949495 7:0.141414 8:0.717172 9:0.717172 10:0.626263 11:1 12:0.35 13:0.6 14:0.08 
1 1 0 1 0 1 1 1 0.35720052918209871 1:0.787879 2:0.252525 3:0.535354 4:0.69697 5:0.242424 6:0.252525 7:0.0909091 8:0.323232 9:0.69697 10:0.292929 11:1 12:1 13:0.95 
0 0 0 0 0 0 0 0 1 1:1 2:0.969697 3:0.474747 4:1 5:0.111111 6:0.79798 7:0.0808081 8:0.414141 9:0.505051 10:0.525253 11:0.8 12:0.28 13:0.49 14:0.05 
1 1 1 0 0 0 1 1 0 1:0.393939 2:0.919192 3:1 4:1 5:0.969697 6:0.939394 7:0.424242 8:0.767677 9:0.565657 10:0.535354 11:0.89 12:0.27 13:0.55 14:0.08 
1 1 1 1 0 0 0 1 0 1:0.545455 2:0.828283 3:1 4:1 5:0.878788 6:0.919192 7:0.393939 8:0.777778 9:0.232323 10:0.424242 11:0.68 12:0.31 13:0.48 14:0.05 
0 0 0 0 0.48213612238014064 0.65765892020547623 0 0 0 1:0.212121 2:0.818182 3:0.161616 4:0.454545 5:0.414141 6:0.0909091 8:0.414141 9:0.131313 10:0.818182 11:0.56 12:0.94 13:1 14:1 
1 1 1 1 0 0 0 1 0 1:0.0505051 2:0.737374 3:0.363636 4:0.575758 5:1 6:0.444444 7:0.909091 8:0.010101 9:0.252525 10:0.454545 11:0.2 12:0.85 13:0.85 14:1 
0 0 1 0 0 0 0 1 0 1:0.272727 2:0.868687 4:0.555556 5:0.757576 6:0.747475 7:0.666667 8:0.272727 10:0.454545 11:0.18 12:0.94 13:1 14:1 
0 1 1 1 0 0 0 1 0 1:0.444444 2:0.848485 3:0.929293 4:1 5:1 6:0.979798 7:0.474747 8:0.878788 9:0.0606061 10:0.616162 11:0.48 12:0.48 13:0.48 14:0.18 
0 1 0.28593028276458582 1 0 0 0 -0 0 1:0.292929 2:0.969697 3:0.929293 4:1 5:1 6:0.989899 7:0.333333 8:0.929293 10:0.585859 11:0.62 12:0.43 13:0.53 14:0.13 
1 0 0 0 0.83282094290405562 1 1 0 0 1:0.191919 2:0.959596 3:0.171717 4:0.646465 5:0.525253 6:0.292929 7:0.262626 8:0.313131 9:0.747475 10:0.434343 11:1 12:1 13:0.96 
0 1 1 0 0 0.63959918964614781 1 1 0 1:1 2:0.151515 3:0.656566 4:0.444444 5:0.333333 6:0.656566 7:0.383838 8:0.272727 9:0.171717 10:0.616162 11:0.4 12:0.94 13:1 14:0.99 
0 0 0 0 0 0 0 0 1 1:1 2:0.969697 3:0.565657 4:1 5:0.252525 6:0.868687 7:0.20202 8:0.505051 9:0.626263 10:0.444444 11:0.75 12:0.12 13:0.37 14:0.03 
0 0 0 0 0 0 1 0 0 1:0.272727 2:0.939394 3:0.959596 4:1 5:0.828283 6:0.939394 7:0.212121 8:0.757576 9:0.494949 10:0.636364 11:1 12:0.41 13:0.66 14:0.09 
0 0 0 0 0 0 0 0 1 1:1 2:0.979798 3:0.535354 4:1 5:0.121212 6:0.828283 7:0.10101 8:0.484848 9:0.525253 10:0.545455 11:0.73 12:0.27 13:0.46 14:0.05 
0 0 0 0 0 0 0 0 1 1:0.262626 2:0.888889 3:0.636364 4:0.616162 5:0.454545 6:0.535354 7:0.020202 9:0.0505051 10:0.515152 11:0.31 12:0.93 13:1 14:1 
0 0 1 1 0 0 0 0 0 1:0.161616 2:0.818182 4:0.717172 5:0.393939 6:0.575758 7:0.808081 8:0.272727 9:0.040404 10:0.454545 11:0.01 12:0.93 13:1 14:1 
1 1 1 0 0 0 1 0 0 1:0.656566 2:0.959596 3:1 4:1 5:0.888889 6:0.949495 7:0.505051 8:0.888889 9:0.646465 10:0.515152 11:0.72 12:0.15 13:0.37 14:0.01 
0 0 0 0 0 0 1 0 0 1:0.30303 2:0.858586 3:0.949495 4:1 5:0.656566 6:0.949495 7:0.0909091 8:0.767677 9:0.555556 10:0.626263 11:1 12:0.44 13:0.62 14:0.15 
0 1 0 0 0 0 0 1 0 1:0.121212 2:0.868687 3:0.40404 4:0.616162 5:0.929293 6:0.434343 7:0.777778 8:0.272727 9:0.141414 10:0.616162 11:0.39 12:0.92 13:1 14:1 
1 1 1 0 1 0 1 0 0 1:0.252525 2:0.969697 3:0.969697 4:1 5:0.626263 6:0.989899 7:0.818182 8:0.333333 9:0.585859 10:1 11:0.43 12:0.79 13:0.09 14:0.09 
0 0 0 0 1 0 0 0 0 1:0.373737 2:0.969697 3:0.20202 4:0.606061 5:0.373737 6:0.151515 7:0.030303 8:0.444444 9:0.10101 10:0.878788 11:0.55 12:1 13:1 14:0.99 
0 0 0 0 0 0 0 1 0 1:0.171717 2:0.888889 3:0.292929 4:0.616162 5:0.818182 6:0.464646 7:0.727273 8:0.191919 9:0.10101 10:0.646465 11:0.43 12:0.96 13:1 14:1 
1 0 0 0 0 0 1 0 0 1:0.383838 2:0.939394 3:1 4:1 5:0.989899 6:0.979798 7:0.353535 8:0.919192 9:0.494949 10:0.686869 11:0.93 12:0.39 13:0.61 14:0.07 
0 0 1 1 1 0 1 0 1 1:1 2:0.939394 3:0.535354 4:0.959596 5:0.0808081 6:1 7:0.59596 8:0.424242 9:0.515152 10:0.717172 11:0.24 12:0.41 13:0.13 14:0.08 
0 0 0 0 1 1 0 1 0 1:0.272727 2:0.969697 3:0.010101 4:0.69697 5:0.464646 6:0.383838 7:0.606061 8:0.232323 9:0.232323 10:0.666667 11:0.39 12:0.94 13:1 14:1 
0 0 0 0 1 1 0 1 0 1:0.0505051 2:1 3:0.606061 4:0.909091 5:0.373737 6:0.949495 7:0.0505051 8:0.666667 9:0.535354 10:0.484848 11:1 12:0.23 13:0.52 14:0.18 
0 0 0 0 0 0 0 1 0 1:0.636364 2:0.989899 3:0.222222 4:0.757576 5:0.606061 6:0.59596 7:0.565657 8:0.20202 9:0.0808081 10:0.494949 11:0.38 12:0.94 13:1 14:1 
0 1 0 0 0 0 0 1 0 1:0.484848 2:1 3:0.535354 4:0.666667 5:0.949495 6:0.313131 7:0.464646 8:0.030303 9:0.10101 10:0.575758 11:0.31 12:0.94 13:1 14:0.94 
0 0 0 0 0 0 0 1 0 1:0.484848 2:0.848485 3:0.484848 4:0.606061 5:0.707071 6:0.242424 7:0.262626 8:0.0707071 9:0.363636 10:0.787879 11:0.42 12:0.99 13:1 14:1 
1 1 1 0.087329413848732038 1 1 1 1 1 1:0.979798 2:0.666667 3:0.929293 4:0.464646 5:1 6:0.181818 7:0.676768 8:0.444444 9:0.545455 10:1 11:0.33 12:0.73 13:0.17 14:0.07 
1 0 0 0 0 0 1 1 0 1:0.232323 2:0.909091 3:0.818182 4:1 5:0.878788 6:0.949495 7:0.323232 8:0.818182 9:0.505051 10:0.505051 11:1 12:0.32 13:0.53 14:0.04 
0 0 0 0 0 0 0 1 1 1:0.424242 2:0.949495 3:0.191919 4:0.646465 5:0.444444 6:0.242424 7:0.0808081 8:0.262626 9:0.191919 10:0.707071 11:0.55 12:0.91 13:1 14:1 
1 1 1 0 1 0 1 1 0 1:0.454545 2:0.919192 3:0.767677 4:1 5:1 6:0.969697 7:0.555556 8:0.89899 9:0.494949 10:0.545455 11:0.81 12:0.33 13:0.41 14:0.12 
0 1 1 1 0 0 0 1 0 1:0.949495 2:0.040404 3:0.575758 4:0.868687 5:0.59596 6:0.848485 7:0.151515 8:0.181818 9:0.111111 10:0.474747 11:0.13 12:0.93 13:1 14:1 
0 0 0 0 1 0 0 0 0 1:0.191919 2:0.838384 3:0.383838 4:0.444444 5:0.424242 6:0.0808081 7:0.0606061 8:0.464646 9:0.141414 10:0.909091 11:0.57 12:1 13:1 14:0.88 
0 0 0 0 0 0 0 0.4223170816823551 0 1:0.191919 2:0.909091 3:0.262626 4:0.606061 5:0.656566 6:0.343434 7:0.464646 8:0.20202 9:0.10101 10:0.656566 11:0.44 12:0.95 13:1 14:1 
0 0 0 0 0 0 0 1 0 1:0.575758 2:0.434343 3:0.383838 4:0.747475 5:0.0808081 6:0.545455 7:0.242424 8:0.292929 9:0.141414 10:0.626263 11:0.49 12:0.9 13:1 14:1 
0 0 0 0 0 0 0 1 0 1:0.444444 2:0.878788 3:0.272727 4:0.656566 5:0.59596 6:0.30303 7:0.323232 8:0.141414 9:0.242424 10:0.565657 11:0.56 12:0.91 13:1 14:1 
0 0 0 0 0 0 0 1 0 1:0.383838 2:0.949495 3:0.0808081 4:0.717172 5:0.626263 6:0.474747 7:0.565657 8:0.0808081 9:0.181818 10:0.464646 11:0.38 12:0.92 13:1 14:1 
1 1 1 1 1 0 1 1 0 1:0.30303 2:0.808081 3:0.69697 4:0.979798 5:1 6:1 7:0.575758 8:0.868687 9:0.414141 10:0.575758 11:0.78 12:0.32 13:0.42 14:0.09 
0.56981268645224903 0 0 0 0 0 1 0 1 1:1 2:0.949495 3:0.707071 4:1 5:0.353535 6:0.838384 7:0.333333 8:0.474747 9:0.828283 10:0.474747 11:0.91 12:0.17 13:0.49 14:0.04 
1 1 1 0 0 1 1 1 0 1:0.676768 2:0.818182 3:1 4:1 5:0.989899 6:0.909091 7:0.676768 8:0.747475 9:0.949495 10:0.474747 11:0.8 12:0.21 13:0.41 14:0.07 
1 1 1 1 1 0 1 1 0 1:0.20202 2:0.79798 3:0.59596 4:0.949495 5:1 6:1 7:0.545455 8:0.868687 9:0.363636 10:0.515152 11:0.76 12:0.28 13:0.46 14:0.02 
0 0 1 0 0 0 1 0 1 1:1 2:0.969697 3:0.616162 4:1 5:0.323232 6:0.858586 7:0.373737 8:0.606061 9:0.717172 10:0.505051 11:0.63 12:0.21 13:0.36 
1 1 0 0 0 0 1 0 0 1:0.393939 2:0.878788 3:0.949495 4:1 5:0.878788 6:1 7:0.393939 8:0.767677 9:0.717172 10:0.606061 11:1 12:0.33 13:0.58 14:0.07 
1 1 1 0.21884934297467001 0 0 1 1 0 1:0.565657 2:0.858586 3:1 4:1 5:1 6:0.939394 7:0.555556 8:0.777778 9:0.585859 10:0.444444 11:0.88 12:0.22 13:0.47 14:0.02 
0 0 0 0 0 0 0 1 1 1:0.525253 2:0.858586 3:0.585859 4:0.494949 5:0.515152 6:0.111111 7:0.0505051 8:0.242424 9:0.171717 10:0.616162 11:0.53 12:0.89 13:1 14:1 
0 0 0 0 0 0 0 1 0 1:0.515152 2:1 3:0.272727 4:0.747475 5:0.626263 6:0.353535 7:0.40404 8:0.171717 9:0.151515 10:0.656566 11:0.47 12:0.99 13:1 14:0.99 
0 0 1 0 1 1 1 1 0 1:1 2:0.959596 3:0.656566 4:1 5:0.252525 6:0.939394 7:0.424242 8:0.69697 9:0.868687 10:0.545455 11:0.76 12:0.19 13:0.33 14:0.16 
0 1 0 1 0 0 0 0 0 1:0.222222 2:0.929293 3:0.292929 4:0.636364 5:0.89899 6:0.353535 7:0.585859 8:0.111111 9:0.111111 10:0.535354 11:0.13 12:0.91 13:1 14:1 
0 1 0 1 0 0 0 1 0 1:0.333333 2:0.616162 3:0.505051 4:0.959596 5:0.545455 6:0.555556 7:0.494949 8:0.121212 9:0.0505051 10:0.555556 11:0.38 12:1 13:1 14:0.9 
0 0 0 0 0 0 0 1 0 1:0.535354 2:0.919192 3:0.040404 4:0.686869 5:0.505051 6:0.515152 7:0.494949 8:0.020202 9:0.111111 10:0.424242 11:0.45 12:0.86 13:1 14:1 
1 1 1 1 0 0 0 1 0 1:0.323232 2:0.787879 3:0.828283 4:0.989899 5:1 6:1 7:0.464646 8:0.838384 9:0.616162 10:0.212121 11:0.38 12:0.53 13:0.14 14:0.01 
0 0 0 0 1 1 0 0 0 1:0.181818 2:0.767677 3:0.191919 4:0.434343 5:0.353535 6:0.141414 7:0.0606061 8:0.515152 9:0.0707071 10:0.878788 11:0.54 12:0.99 13:1 14:1 
0 0 0 0 0 0 0 0 1 1:1 2:0.949495 3:0.737374 4:1 5:0.242424 6:0.888889 7:0.161616 8:0.525253 9:0.717172 10:0.444444 11:0.99 12:0.19 13:0.53 14:0.03 
0 0 0 0 1 1 1 1 0 1:0.292929 2:0.707071 3:0.191919 4:0.515152 5:0.393939 6:0.111111 7:0.0606061 8:0.515152 9:0.232323 10:0.838384 11:0.61 12:0.95 13:1 14:1 
0 0 0 0 0 0 0 1 0 1:0.151515 2:1 3:0.626263 4:0.606061 5:0.626263 6:1 7:0.242424 8:0.454545 9:0.181818 10:0.434343 11:0.29 12:0.9 13:0.98 14:1 
0 0 0 0 0 0 0 1 1 1:0.676768 2:0.929293 3:0.232323 4:0.818182 5:0.272727 6:0.383838 7:0.444444 8:0.020202 9:0.0707071 10:0.656566 11:0.48 12:0.99 13:1 14:1 
0 0 0 0 0 0 0 0 1 1:1 2:0.979798 3:0.565657 4:1 5:0.222222 6:0.828283 7:0.111111 8:0.464646 9:0.424242 10:0.444444 11:0.77 12:0.24 13:0.45 14:0.01 
0 1 0 0.67594738321186187 0 0 0 1 0.1823086381938534 1:0.929293 2:0.10101 3:0.565657 4:0.686869 5:0.373737 6:0.414141 7:0.030303 8:0.131313 9:0.040404 10:0.606061 11:0.35 12:0.94 13:1 14:1 
0 0 0 0 0 0 0 0 1 1:0.686869 2:0.979798 3:0.181818 4:0.747475 5:0.505051 6:0.454545 7:0.242424 8:0.0808081 9:0.10101 10:0.616162 11:0.38 12:1 13:1 14:0.98 
1 0 0 0 1 1 1 1 0 1:0.787879 2:0.89899 3:0.606061 4:1 5:0.252525 6:0.727273 7:0.434343 8:0.59596 9:0.969697 10:0.494949 11:1 12:0.17 13:0.51 14:0.08 
0 1 1 0 0 0 0 0 0 1:0.555556 2:0.919192 3:1 4:1 5:0.868687 6:0.989899 7:0.434343 8:0.868687 9:0.272727 10:0.535354 11:0.68 12:0.36 13:0.45 14:0.06 
0 0 0 0 0 0 0 1 0 1:0.161616 2:0.989899 3:0.383838 4:0.717172 5:0.939394 6:0.414141 7:0.646465 8:0.151515 9:0.242424 10:0.737374 11:0.27 12:1 13:1 14:0.99 
1 0 0 0 0 0 0 0 0 1:0.151515 2:0.888889 3:0.757576 4:1 5:1 6:1 7:0.313131 8:0.89899 9:0.212121 10:0.616162 11:0.81 12:0.41 13:0.67 14:0.03 
0 0 0 0 1 1 0 0 0 1:0.262626 2:0.949495 3:0.171717 4:0.555556 5:0.373737 6:0.222222 7:0.030303 8:0.505051 9:0.20202 10:0.909091 11:0.6 12:1 13:1 14:0.99 
0 0 0 0 0 0 0 1 1 1:0.414141 2:0.909091 3:0.474747 4:0.515152 5:0.515152 6:0.141414 7:0.0707071 8:0.30303 9:0.10101 10:0.69697 11:0.53 12:0.9 13:1 14:1 
1 1 1 1 0 0 0 1 0 1:0.010101 2:0.707071 3:0.313131 4:0.606061 5:1 6:0.434343 7:1 8:0.282828 9:0.040404 10:0.494949 11:0.23 12:0.89 13:0.98 14:1 
1 1 1 1 0 0 0 0 0 1:0.535354 2:0.848485 3:1 4:1 5:0.989899 6:0.979798 7:0.484848 8:0.858586 9:0.222222 10:0.59596 11:0.63 12:0.34 13:0.5 14:0.01 
0 0 0 0 0 0 0 0 1 1:1 2:0.939394 3:0.656566 4:1 5:0.232323 6:0.858586 7:0.181818 8:0.505051 9:0.646465 10:0.393939 11:0.9 12:0.14 13:0.48 14:0.03 
0 0 0 1 0 0 0 0 1 1:0.30303 2:1 3:0.575758 4:0.737374 5:0.444444 6:0.565657 7:0.010101 8:0.0909091 9:0.0505051 10:0.454545 11:0.17 12:0.9 13:1 14:0.97 
1 1 1 0 0 0 1 1 0 1:0.515152 2:0.868687 3:1 4:1 5:0.919192 6:0.949495 7:0.434343 8:0.767677 9:0.707071 10:0.505051 11:0.94 12:0.22 13:0.47 14:0.05 
0 0 0 0 0 1 1 1 1 1:1 2:0.858586 3:0.626263 4:1 5:0.191919 6:0.777778 7:0.212121 8:0.424242 9:0.757576 10:0.464646 11:0.9 12:0.13 13:0.36 14:0.24 
0 0 0 0 0 0 0 1 0 1:0.0505051 2:0.878788 3:0.282828 4:0.505051 5:0.818182 6:0.393939 7:0.555556 8:0.141414 9:0.181818 10:0.666667 11:0.4 12:0.95 13:1 14:1 
1 1 1 1 0 0 0 1 1 1:0.69697 2:0.909091 3:1 4:1 5:0.606061 6:0.858586 7:0.343434 8:0.59596 9:0.59596 10:0.494949 11:0.64 12:0.21 13:0.34 14:0.15 
1 0 0 0 0 0 1 0 0 1:0.343434 2:0.959596 3:0.868687 4:1 5:0.737374 6:0.989899 7:0.272727 8:0.767677 9:0.59596 10:0.555556 11:1 12:0.35 13:0.53 14:0.09 
0 0 0 0 0 0 0 0 1 1:1 2:0.838384 3:0.555556 4:0.959596 5:0.010101 6:1 7:0.020202 8:0.575758 9:0.363636 10:0.515152 11:0.78 12:0.31 13:0.46 14:0.1 
0 1 0 1 0 0 0 1 0 1:0.535354 2:0.868687 3:1 4:1 5:0.717172 6:0.959596 7:0.30303 8:0.757576 9:0.292929 10:0.444444 11:0.79 12:0.42 13:0.47 14:0.14 
1 0 1 0 1 1 1 1 1 1:0.929293 2:0.929293 3:0.434343 4:1 5:0.252525 6:0.727273 7:0.525253 8:0.505051 9:1 10:0.454545 11:0.86 12:0.12 13:0.38 14:0.13 
0.023990002612155177 1 1 0 1 1 1 1 0 1:0.20202 2:0.818182 3:0.353535 4:0.59596 5:0.818182 6:0.313131 7:0.818182 8:0.363636 9:0.272727 10:0.575758 11:0.34 12:0.89 13:1 14:1 
1 1 1 1 0 0 0 1 0 1:0.272727 2:0.878788 3:0.747475 4:1 5:1 6:0.989899 7:0.505051 8:0.868687 9:0.0707071 10:0.69697 11:0.32 12:0.45 13:0.47 14:0.12 
0 0 0 0 0 0 0 1 0 1:0.282828 2:0.69697 3:0.555556 4:0.353535 5:0.424242 6:0.010101 7:0.020202 8:0.414141 9:0.121212 10:0.757576 11:0.56 12:0.9 13:1 14:1 
0 0 0 0 0 0 0 0 1 1:1 2:1 3:0.474747 4:1 5:0.0808081 6:0.747475 7:0.0707071 8:0.515152 9:0.606061 10:0.555556 11:0.85 12:0.25 13:0.49 14:0.05 
1 1 0 0 0 0 1 0 0 1:0.59596 2:0.919192 3:1 4:1 5:0.636364 6:0.979798 7:0.313131 8:0.717172 9:0.656566 10:0.59596 11:0.76 12:0.29 13:0.4 14:0.07 
0 1 0 0 0 0 0 1 0 1:0.333333 2:0.959596 3:0.424242 4:0.626263 5:0.888889 6:0.363636 7:0.646465 8:0.131313 9:0.111111 10:0.535354 11:0.26 12:0.93 13:1 14:1 
0 0 0 0.18320272877062316 0 0 0 0 0 1:0.0707071 2:0.727273 3:0.606061 4:0.626263 5:0.343434 6:0.737374 7:0.0505051 8:0.0505051 9:0.0606061 10:0.505051 11:0.25 12:0.91 13:1 14:1 
0 1 0 1 0 0 0 1 0 1:0.222222 2:0.69697 3:0.434343 4:0.59596 5:0.89899 6:0.353535 7:0.575758 8:0.121212 9:0.0808081 10:0.555556 11:0.27 12:0.94 13:1 14:1 
0 0 0 0 0 0 0 1 0 1:0.464646 2:0.909091 3:0.363636 4:0.626263 5:0.646465 6:0.262626 7:0.20202 8:0.0808081 9:0.393939 10:0.909091 11:0.49 12:1 13:1 14:0.91 
0 0 0 0 0 0 0 0 1 1:1 2:0.939394 3:0.89899 4:1 5:0.444444 6:0.888889 7:0.232323 8:0.585859 9:0.656566 10:0.464646 11:0.85 12:0.2 13:0.47 14:0.03 
0 1 1 1 0 0 0 1 0 1:0.868687 2:0.0808081 3:0.464646 4:0.79798 5:0.535354 6:0.79798 7:0.0606061 8:0.232323 9:0.010101 10:0.494949 11:0.25 12:0.91 13:1 14:1 
0 0 0 0 0 0 0 1 0 1:0.383838 2:0.858586 3:0.0505051 4:0.888889 5:0.383838 6:0.464646 7:0.525253 8:0.0505051 9:0.0909091 10:0.585859 11:0.42 12:0.96 13:1 14:1 
0 0 0 0 0 0 0 0 1 1:1 2:0.979798 3:0.656566 4:1 5:0.292929 6:0.89899 7:0.161616 8:0.59596 9:0.474747 10:0.474747 11:0.64 12:0.17 13:0.34 14:0.06 
0 0 0 0 0 0 0 0 0.65634121916689625 1:0.393939 2:0.848485 4:0.59596 5:0.424242 6:0.454545 7:0.252525 8:0.010101 9:0.0808081 10:0.525253 11:0.42 12:0.89 13:1 14:1 
1 1 1 1 0 0 0 1 0 1:0.434343 2:0.888889 3:1 4:1 5:0.909091 6:0.929293 7:0.343434 8:0.787879 9:0.323232 10:0.545455 11:0.73 12:0.29 13:0.54 14:0.11 
0 0 0 0 0 0 0 1 1 1:0.464646 2:0.959596 3:0.343434 4:0.616162 5:0.434343 6:0.171717 7:0.040404 8:0.282828 9:0.171717 10:0.707071 11:0.56 12:0.91 13:1 14:1 
1 1 1 0 0 0 1 0 0 1:0.535354 2:0.878788 3:1 4:1 5:0.848485 6:0.939394 7:0.373737 8:0.79798 9:0.585859 10:0.585859 11:0.83 12:0.29 13:0.47 14:0.01 
1 1 1 1 0 0 1 0.39500526832675725 0 1:0.89899 2:0.848485 3:1 4:1 5:0.636364 6:0.969697 7:0.585859 8:0.676768 9:0.79798 10:0.373737 11:0.72 12:0.08 13:0.36 14:0.01 
1 1 1 0 0 0 1 1 0 1:0.373737 2:0.767677 3:0.858586 4:0.969697 5:1 6:1 7:0.40404 8:0.919192 9:0.222222 10:0.555556 11:0.8 12:0.44 13:0.56 14:0.12 
1 1 1 1 1 0 1 1 0 1:0.40404 2:0.818182 3:0.767677 4:0.979798 5:1 6:1 7:0.585859 8:0.89899 9:0.272727 10:0.686869 11:0.54 12:0.42 13:0.39 14:0.13 
0 0 0 0 1 1 1 0 1 1:1 2:1 3:0.525253 4:0.979798 5:0.272727 6:0.767677 7:0.333333 8:0.565657 9:0.787879 10:0.525253 11:0.76 12:0.24 13:0.39 14:0.04 
0 0 0 0.553494211151078 0 0 0 0 0 1:0.494949 2:0.919192 3:1 4:1 5:0.505051 6:0.959596 7:0.212121 8:0.59596 9:0.424242 10:0.414141 11:0.86 12:0.31 13:0.49 
0 0 0 0 0 1 1 0.6885917024959356 0 1:0.262626 2:0.939394 4:0.626263 5:0.555556 6:0.666667 7:0.636364 8:0.181818 9:0.545455 10:0.20202 11:1 12:1 13:1 
0 1 1 1 1 1 1 1 0 1:0.20202 2:0.515152 3:0.474747 4:0.383838 5:0.494949 6:1 7:0.505051 8:0.676768 9:0.252525 10:0.282828 11:0.08 12:0.83 13:0.85 14:1 
0 0 0 0 0 0 0 1 0 1:0.333333 2:0.888889 3:0.636364 4:0.464646 5:0.484848 6:0.606061 7:0.0707071 8:0.242424 9:0.323232 10:0.525253 11:0.45 12:1 13:1 14:0.92 
1 1 1 1 0 0 1 1 0 1:0.535354 2:0.858586 3:0.878788 4:1 5:1 6:0.989899 7:0.636364 8:0.888889 9:0.353535 10:0.636364 11:0.5 12:0.31 13:0.32 14:0.01 
1 0 1 1 1 0 1 1 0 1:0.333333 2:0.838384 3:0.828283 4:1 5:1 6:0.989899 7:0.272727 8:0.818182 9:0.525253 10:0.646465 11:0.39 12:0.84 13:0.01 14:0.13 
0 0 0 0 1 0 1 0 1 1:1 2:0.979798 3:0.59596 4:1 5:0.111111 6:0.989899 7:0.272727 8:0.636364 9:0.727273 10:0.575758 11:0.78 12:0.21 13:0.39 14:0.03 
0 0 1 0 1 0 1 0 1 1:1 2:0.959596 3:0.414141 4:1 5:0.0707071 6:0.757576 7:0.424242 8:0.545455 9:0.414141 10:0.919192 11:0.2 12:0.62 13:0.06 14:0.08 
1 1 1 1 0.9129625315197718 0 1 1 1 1:1 2:0.969697 3:0.686869 4:1 5:0.383838 6:0.858586 7:0.585859 8:0.616162 9:0.777778 10:0.353535 11:0.63 12:0.09 13:0.3 14:0.02 
0 0 1 0 1 1 1 1 1 1:1 2:0.919192 3:0.454545 4:1 5:0.10101 6:0.777778 7:0.363636 8:0.555556 9:0.858586 10:0.424242 11:0.81 12:0.28 13:0.05 14:0.41 
0 0 0 0 0 0 0 1 0 1:0.333333 2:1 3:0.0808081 4:0.676768 5:0.606061 6:0.646465 7:0.666667 8:0.232323 9:0.020202 10:0.444444 11:0.2 12:0.92 13:1 14:0.99 
0 0 0 0 1 1 0 1 1 1:0.424242 2:0.818182 3:0.20202 4:0.505051 5:0.343434 6:0.141414 7:0.0707071 8:0.313131 9:0.292929 10:0.656566 11:0.64 12:0.85 13:1 14:1 
1 1 1 0.3847224089298904 0 0 1 1 1 1:1 2:0.888889 3:0.79798 4:1 5:0.40404 6:0.909091 7:0.464646 8:0.626263 9:0.69697 10:0.373737 11:0.77 12:0.09 13:0.4 14:0.04 
0 1 1 0 1 0 1 1 1 1:1 2:0.808081 3:0.828283 4:0.959596 5:0.252525 6:1 7:0.878788 8:0.151515 9:0.535354 10:0.686869 11:0.4 12:0.87 13:0.06 14:0.34 
1 1 1 1 1 0 0 1 0 1:0.0909091 2:0.808081 3:0.40404 4:0.585859 5:1 6:0.454545 7:0.888889 8:0.30303 9:0.020202 10:0.484848 11:0.1 12:0.93 13:0.75 14:1 
0 0 0 0 0 0 1 1 0 1:0.89899 2:0.212121 3:0.616162 4:0.787879 5:0.444444 6:0.555556 7:0.212121 8:0.393939 9:0.030303 10:0.929293 11:0.25 12:0.99 13:1 14:1 
1 1 1 1 1 1 1 1 1 1:1 2:0.89899 3:0.474747 4:1 5:0.878788 6:0.0707071 7:0.59596 8:0.59596 9:0.515152 10:0.858586 11:0.22 12:0.5 13:0.08 14:0.12 
1 0 0 0.019670021047488585 0 1 1 1 0 1:0.292929 2:0.848485 3:0.191919 4:0.656566 5:0.737374 6:0.373737 7:0.454545 8:0.161616 9:0.646465 10:0.30303 11:1 12:1 13:0.98 
0 0 0 0 0 1 0 1 0 1:0.767677 2:0.949495 3:0.191919 4:0.808081 5:0.424242 6:0.585859 7:0.757576 8:0.181818 9:0.141414 10:0.353535 11:0.38 12:0.85 13:1 14:1 
0 0 1 0 1 0 1 0 1 1:1 2:0.979798 3:0.747475 4:0.959596 5:0.212121 6:1 7:0.828283 8:0.373737 9:0.656566 10:0.79798 11:0.42 12:0.56 13:0.06 14:0.05 
0 0 0 1 0 0 0 0 1 1:1 2:0.808081 3:0.656566 4:1 5:0.282828 6:0.818182 7:0.040404 8:0.515152 9:0.30303 10:0.444444 11:0.68 12:0.28 13:0.46 14:0.02 
0 0 0 0 0 0 0 0 1 1:0.373737 2:0.919192 3:0.141414 4:0.717172 5:0.414141 6:0.434343 7:0.242424 8:0.0707071 9:0.0707071 10:0.606061 11:0.4 12:0.93 13:1 14:1 
0 0 0 0 0 0 0 1 0 1:0.282828 2:0.878788 3:0.222222 4:0.565657 5:0.727273 6:0.393939 7:0.505051 8:0.121212 9:0.111111 10:0.575758 11:0.42 12:0.94 13:1 14:1 
0 0 0 0 0 0 1 1 1 1:1 2:1 3:0.676768 4:0.949495 5:0.252525 6:0.979798 7:0.262626 8:0.545455 9:0.69697 10:0.525253 11:0.73 12:0.15 13:0.35 14:0.16 
0 0 0 0 0 0 0 0 1 1:1 2:0.969697 3:0.555556 4:1 5:0.212121 6:0.828283 7:0.171717 8:0.494949 9:0.525253 10:0.464646 11:0.68 12:0.22 13:0.37 14:0.06 
0 0 0 1 0 0 0 0 0 1:0.282828 2:0.838384 4:0.727273 5:0.636364 6:0.474747 7:0.646465 8:0.0505051 10:0.464646 11:0.26 12:0.89 13:1 14:1 
0 0 0 0 1 0 0.20486153164235965 1 0 1:0.767677 2:0.393939 3:0.636364 4:0.535354 5:0.272727 6:0.424242 7:0.262626 8:0.353535 9:0.121212 10:0.717172 11:0.49 12:0.96 13:1 14:1 
1 1 1 1 0 0 1 1 0 1:0.656566 2:0.828283 3:1 4:1 5:0.979798 6:0.979798 7:0.585859 8:0.878788 9:0.282828 10:0.666667 11:0.49 12:0.38 13:0.38 14:0.1 
0 1 0 0 0 0 0 0 0 1:0.141414 2:0.909091 3:0.222222 4:0.646465 5:0.919192 6:0.454545 7:0.676768 8:0.0909091 9:0.131313 10:0.626263 11:0.07 12:0.97 13:1 14:1 
0 1 0 1 0 0 0 1 0 1:0.20202 2:0.878788 3:0.565657 4:0.878788 5:0.575758 6:0.878788 7:0.171717 8:0.141414 9:0.0707071 10:0.414141 11:0.12 12:0.83 13:1 14:1 
0 0 0 0 0 0 0 1 0 1:0.434343 2:0.828283 3:0.171717 4:0.606061 5:0.59596 6:0.343434 7:0.343434 8:0.141414 9:0.252525 10:0.555556 11:0.51 12:0.9 13:1 14:1 
1 1 1 0 0 0 1 0 0 1:0.535354 2:0.888889 3:1 4:1 5:0.707071 6:0.909091 7:0.414141 8:0.636364 9:0.626263 10:0.494949 11:0.83 12:0.27 13:0.49 14:0.02 
0 0 0 0 0 0 0 1 0 1:0.444444 2:1 3:0.131313 4:0.686869 5:0.606061 6:0.414141 7:0.454545 8:0.020202 9:0.141414 10:0.494949 11:0.42 12:0.91 13:1 14:0.96 
0 0 0 0 0 0 0 1 0 1:0.515152 2:0.767677 3:0.212121 4:0.59596 5:0.616162 6:0.292929 7:0.373737 8:0.151515 9:0.0707071 10:0.69697 11:0.52 12:0.86 13:1 14:1 
0 0 1 0 1 0 1 0 1 1:0.919192 2:0.929293 3:0.727273 4:0.919192 5:0.111111 6:1 7:0.69697 8:0.484848 9:0.494949 10:1 11:0.27 12:0.65 13:0.05 14:0.07 
0 1 0 0 0 0 0 0 0 1:0.525253 2:0.939394 3:1 4:1 5:0.59596 6:0.89899 7:0.272727 8:0.646465 9:0.414141 10:0.515152 11:0.72 12:0.35 13:0.46 14:0.07 
1 1 1 0 1 0 1 0 0 1:0.292929 2:0.89899 3:1 4:1 5:0.646465 6:0.929293 7:0.757576 8:0.363636 9:0.606061 10:1 11:0.42 12:0.78 13:0.12 14:0.08 
0 0.2743254067535259 0 0 0 0 0 1 0 1:0.161616 2:0.848485 3:0.292929 4:0.535354 5:0.909091 6:0.454545 7:0.69697 8:0.252525 9:0.131313 10:0.616162 11:0.32 12:0.93 13:1 14:1 
1 1 0 0 0 0 1 0 0 1:1 2:0.828283 3:0.969697 4:1 5:0.454545 6:0.939394 7:0.454545 8:0.666667 9:0.828283 10:0.414141 11:0.99 12:0.11 13:0.51 14:0.03 
1 0 0 0 0 0 1 1 0 1:0.424242 2:1 3:0.979798 4:0.959596 5:0.767677 6:0.969697 7:0.363636 8:0.69697 9:0.59596 10:0.525253 11:1 12:0.2 13:0.47 14:0.14 
1 0 0 0 0 0 1 0 0 1:0.393939 2:0.878788 3:0.989899 4:1 5:0.777778 6:0.939394 7:0.242424 8:0.747475 9:0.737374 10:0.686869 11:1 12:0.42 13:0.62 14:0.13 
0 1 1 0 0 0 0 1 0 1:0.767677 2:0.373737 3:0.575758 4:0.747475 5:0.292929 6:0.717172 7:0.444444 8:0.272727 9:0.20202 10:0.59596 11:0.36 12:0.91 13:1 14:1 
0 1 0 0 0 0 0 0 0 1:0.171717 2:0.787879 3:0.292929 4:0.656566 5:0.777778 6:0.353535 7:0.515152 8:0.0909091 9:0.191919 10:0.606061 11:0.21 12:0.95 13:1 14:1 
0 0 0 0 0 0 0 1 0 1:0.0707071 2:0.69697 3:0.424242 4:0.494949 5:0.434343 6:0.141414 7:0.0909091 8:0.363636 9:0.111111 10:0.676768 11:0.55 12:0.86 13:1 14:1 
0 0 0 0 0 0 0 1 0 1:0.393939 2:0.989899 3:0.505051 4:0.656566 5:0.787879 6:0.252525 7:0.383838 8:0.262626 9:0.0707071 10:0.767677 11:0.46 12:1 13:1 14:0.94 
1 0 1 0 1 1 1 0 1 1:0.151515 2:0.979798 3:0.747475 4:1 5:0.474747 6:0.939394 7:0.717172 8:0.545455 9:0.575758 10:1 11:0.33 12:0.77 13:0.04 14:0.18 
1 1 1 1 0 0 1 0 0 1:0.363636 2:0.909091 3:0.838384 4:1 5:1 6:0.959596 7:0.515152 8:0.868687 9:0.313131 10:0.565657 11:0.74 12:0.38 13:0.41 14:0.01 
0 0 0 0 0 0 0 1 0 1:0.40404 2:1 3:0.646465 4:0.40404 5:0.424242 6:0.606061 7:0.111111 8:0.0505051 9:0.232323 10:0.464646 11:0.42 12:0.93 13:1 14:0.98 
0 0 0 0 0 0 0 0 1 1:0.515152 2:1 3:0.171717 4:0.636364 5:0.474747 6:0.353535 7:0.10101 8:0.181818 9:0.0707071 10:0.666667 11:0.41 12:0.97 13:1 14:0.98 
1 0 0 0 0 0 1 0 0 1:0.424242 2:0.868687 3:1 4:1 5:0.767677 6:0.979798 7:0.282828 8:0.767677 9:0.59596 10:0.585859 11:0.95 12:0.32 13:0.54 14:0.04 
0 1 1 1 0 0 0 1 0 1:0.686869 2:0.0909091 3:0.535354 4:0.666667 5:0.363636 6:0.464646 7:0.131313 8:0.121212 9:0.161616 10:0.535354 11:0.34 12:0.92 13:1 14:1 
1 1 0 0 0 0 1 0 0 1:0.434343 2:0.888889 3:0.969697 4:1 5:0.757576 6:0.929293 7:0.353535 8:0.666667 9:0.878788 10:0.59596 11:1 12:0.29 13:0.57 14:0.06 
0 1 1 1 0 0 0 0 0 1:0.171717 2:0.909091 3:0.858586 4:1 5:1 6:0.989899 7:0.353535 8:0.848485 10:0.484848 11:0.7 12:0.37 13:0.68 14:0.02 
1 1 1 1 1 1 1 1 1 1:0.777778 2:0.858586 3:0.606061 4:1 5:1 6:0.0606061 7:0.636364 8:0.616162 9:0.505051 10:1 11:0.25 12:0.63 13:0.07 14:0.05 
0 0 0 0 0 0 0 0 1 1:0.262626 2:0.949495 3:0.616162 4:0.585859 5:0.464646 6:0.414141 8:0.030303 9:0.040404 10:0.535354 11:0.31 12:0.95 13:1 14:1 
0 0 0 0 0 0 0 1 0 1:0.545455 2:0.989899 3:0.545455 4:0.676768 5:0.767677 6:0.252525 7:0.373737 8:0.121212 9:0.191919 10:0.555556 11:0.49 12:0.92 13:1 14:1 
1 0 0 0 0 0 1 0 0 1:0.0707071 2:0.89899 3:0.808081 4:1 5:0.757576 6:0.969697 7:0.111111 8:0.79798 9:0.636364 10:0.69697 11:1 12:0.44 13:0.66 14:0.15 
1 1 1 1 1 1 0.80857055543401479 1 0 1:0.171717 2:0.949495 3:0.131313 4:0.646465 5:0.767677 6:0.565657 7:1 8:0.121212 9:0.484848 10:0.111111 11:0.43 12:0.88 13:0.62 14:1 
0 0 0 0 0 0 0 0 1 1:1 2:0.979798 3:0.59596 4:1 5:0.232323 6:0.868687 7:0.020202 8:0.575758 9:0.343434 10:0.505051 11:0.58 12:0.26 13:0.36 14:0.05 
0 0 0 0 0 0 0 1 0 1:0.353535 2:0.818182 3:0.313131 4:0.626263 5:0.666667 6:0.323232 7:0.363636 8:0.111111 9:0.252525 10:0.535354 11:0.5 12:0.94 13:1 14:1 
1 1 1 0 0 0 1 1 0 1:0.424242 2:0.868687 3:1 4:1 5:0.959596 6:0.929293 7:0.464646 8:0.717172 9:0.525253 10:0.474747 11:0.91 12:0.34 13:0.58 14:0.02 
1 1 1 1 0 0 0 1 0 1:0.606061 2:0.919192 3:1 4:1 5:1 6:0.939394 7:0.616162 8:0.828283 9:0.292929 10:0.59596 11:0.49 12:0.27 13:0.36 14:0.06 
0 0 0 0 0 0 1 0 0 1:0.424242 2:0.89899 3:1 4:1 5:0.747475 6:0.959596 7:0.010101 8:0.848485 9:0.444444 10:0.69697 11:0.91 12:0.47 13:0.64 14:0.15 
0 1 0 0 0 0 0 1 0 1:0.888889 2:0.131313 3:0.717172 4:0.343434 5:0.585859 6:0.525253 7:0.111111 8:0.131313 9:0.10101 10:0.636364 11:0.42 12:0.97 13:1 14:1 
1 0 1 0 0 0 0 0 1 1:1 2:1 3:0.717172 4:0.989899 5:0.353535 6:0.777778 7:0.333333 8:0.535354 9:0.787879 10:0.464646 11:0.64 12:0.13 13:0.19 14:0.02 
1 1 1 0 1 1 1 1 0 1:0.535354 2:0.868687 3:0.717172 4:1 5:1 6:1 7:0.686869 8:1 9:0.414141 10:0.838384 11:0.44 12:0.45 13:0.28 14:0.1 
0 0 0 0 0 0 0 0 1 1:0.393939 2:0.969697 3:0.59596 4:0.535354 5:0.40404 6:0.424242 7:0.111111 8:0.121212 9:0.191919 10:0.59596 11:0.33 12:0.99 13:1 14:1 
0 0 0 0 1 0 0 0 0 1:0.040404 2:0.848485 3:0.111111 4:0.525253 5:0.292929 6:0.111111 7:0.020202 8:0.444444 9:0.0707071 10:0.848485 11:0.53 12:0.95 13:1 14:1 
0 0 0 0 0 0 0 0 1 1:0.868687 2:0.929293 3:0.585859 4:1 5:0.20202 6:0.858586 7:0.0505051 8:0.525253 9:0.686869 10:0.555556 11:1 12:0.31 13:0.59 14:0.04 
0 0 0 0 0 1 1 0 0 1:0.171717 2:1 3:0.222222 4:0.686869 5:0.565657 6:0.383838 7:0.282828 8:0.262626 9:0.747475 10:0.393939 11:0.94 12:1 13:0.99 
1 0 0 0 0 1 1 0 0 1:0.0808081 2:0.878788 3:0.0909091 4:0.484848 5:0.616162 6:0.393939 7:0.292929 8:0.212121 9:0.727273 10:0.393939 11:0.97 12:1 13:1 
1 0 0 0 0 0 1 0 0 1:0.535354 2:0.929293 3:1 4:1 5:0.59596 6:0.969697 7:0.252525 8:0.707071 9:0.747475 10:0.585859 11:0.88 12:0.29 13:0.48 14:0.05 
1 1 1 1 0 0 0 1 1 1:1 2:0.89899 3:0.676768 4:1 5:0.373737 6:0.737374 7:0.272727 8:0.373737 9:0.676768 10:0.424242 11:0.76 12:0.15 13:0.39 14:0.08 
0 0 0 0 0 0 0 0 1 1:0.292929 2:0.989899 3:0.59596 4:0.606061 5:0.424242 6:0.515152 7:0.141414 8:0.030303 9:0.141414 10:0.525253 11:0.35 12:0.94 13:1 14:1 
0 1 1 0 0 0 0 0 0 1:0.565657 2:0.888889 3:1 4:0.979798 5:0.69697 6:1 7:0.323232 8:0.777778 9:0.363636 10:0.464646 11:0.77 12:0.34 13:0.45 14:0.07 
1 1 1 1 0 0 0 1 0 1:0.656566 2:0.939394 3:1 4:1 5:0.808081 6:0.959596 7:0.494949 8:0.808081 9:0.464646 10:0.494949 11:0.54 12:0.19 13:0.26 14:0.12 
1 1 1 1 1 1 1 1 1 1:1 2:0.979798 3:0.575758 4:1 5:0.282828 6:0.808081 7:0.545455 8:0.545455 9:0.868687 10:0.313131 11:0.81 12:0.04 13:0.39 14:0.01 
0 0 0 0 1 1 1 1 0 1:0.232323 2:0.878788 3:0.454545 4:0.535354 5:0.444444 6:0.191919 7:0.232323 8:0.545455 9:0.373737 10:0.949495 11:0.51 12:0.94 13:1 14:1 
1 1 0 0 0 0 0.45168317942969427 0 0 1:0.535354 2:0.838384 3:1 4:1 5:0.79798 6:0.878788 7:0.282828 8:0.717172 9:0.585859 10:0.484848 11:0.94 12:0.23 13:0.51 14:0.01 
0 0 1 0 1 0 1 0 1 1:0.181818 2:1 3:0.757576 4:0.919192 5:0.151515 6:0.919192 7:0.545455 8:0.454545 9:0.494949 10:1 11:0.28 12:0.57 13:0.01 14:0.17 
0 0 0 0 1 1 0 1 0 1:0.30303 2:0.808081 3:0.484848 4:0.424242 5:0.373737 6:0.0606061 7:0.040404 8:0.414141 9:0.242424 10:0.727273 11:0.62 12:0.9 13:1 14:1 
0 1 0 0 0 0 1 1 0 1:0.848485 2:0.242424 3:0.636364 4:0.626263 5:0.353535 6:0.515152 7:0.292929 8:0.30303 9:0.121212 10:0.686869 11:0.44 12:0.98 13:1 14:1 
0 0 0 0 0 0 0 1 0 1:0.575758 2:0.949495 3:0.353535 4:0.676768 5:0.616162 6:0.282828 7:0.333333 8:0.181818 9:0.0707071 10:0.636364 11:0.45 12:0.91 13:1 14:1 
1 1 1 0 1 1 1 1 1 1:0.969697 2:0.939394 3:0.575758 4:1 5:0.292929 6:0.757576 7:0.666667 8:0.575758 9:1 10:0.343434 11:0.84 12:0.04 13:0.37 14:0.15 
0 0 0 0 0 0 0 0 1 1:1 2:0.979798 3:0.585859 4:1 5:0.181818 6:0.858586 7:0.0707071 8:0.535354 9:0.414141 10:0.535354 11:0.67 12:0.28 13:0.42 14:0.03 
0 0 0 0 0 0 0 1 0 1:0.353535 2:0.878788 3:1 4:1 5:0.828283 6:0.929293 7:0.242424 8:0.757576 9:0.383838 10:0.525253 11:0.97 12:0.45 13:0.6 14:0.17 
0 0 0 0 0 0 0 1 0 1:0.232323 2:0.969697 3:0.272727 4:0.656566 5:0.79798 6:0.40404 7:0.707071 8:0.0808081 9:0.0606061 10:0.505051 11:0.26 12:0.92 13:1 14:1 
1 0 0 0 0 0 1 0 0 1:0.525253 2:0.909091 3:1 4:1 5:0.858586 6:1 7:0.272727 8:0.858586 9:0.575758 10:0.636364 11:0.98 12:0.32 13:0.6 14:0.01 
1 0 0 0 1 0 1 1 1 1:1 2:0.979798 3:0.59596 4:1 5:0.343434 6:0.757576 7:0.383838 8:0.555556 9:0.747475 10:0.515152 11:0.73 12:0.21 13:0.39 14:0.05 
0 0 0 0 0 1 0 1 1 1:0.808081 2:0.959596 3:0.383838 4:1 5:0.121212 6:0.707071 7:0.121212 8:0.383838 9:0.757576 10:0.434343 11:1 12:0.16 13:0.44 14:0.06 
0 0 0 0 1 1 1 1 1 1:0.121212 2:0.939394 3:0.505051 4:0.545455 5:0.444444 6:0.333333 7:0.151515 8:0.707071 9:0.383838 10:0.979798 11:1 12:1 
1 1 1 1 0 0 1 1 0 1:0.464646 2:0.79798 3:0.79798 4:0.969697 5:1 6:1 7:0.585859 8:0.888889 9:0.282828 10:0.626263 11:0.54 12:0.33 13:0.4 14:0.04 
1 1 1 1 0 0 0 0 1 1:0.313131 2:0.949495 3:1 4:1 5:0.545455 6:0.949495 7:0.707071 8:0.0606061 9:0.444444 10:0.727273 11:0.33 12:0.78 13:0.07 14:0.11 
0 0 0 0 1 1 0 0 0 1:0.121212 2:0.929293 3:0.20202 4:0.484848 5:0.505051 6:0.232323 7:0.141414 8:0.444444 9:0.171717 10:0.919192 11:0.59 12:1 13:1 14:0.95 
0 0 0 0 0 0 0 0 1 1:0.323232 2:1 3:0.656566 4:0.272727 5:0.393939 6:0.545455 7:0.111111 9:0.0909091 10:0.454545 11:0.44 12:0.84 13:1 14:0.92 
0 0 0 0 0.71777341544136963 1 0 1 0 1:0.010101 2:0.646465 3:0.282828 4:0.343434 5:0.454545 6:0.010101 7:0.111111 8:0.40404 9:0.171717 10:0.727273 11:0.58 12:0.88 13:1 14:1 
0 1 0 0 0 0 0 1 0 1:0.30303 2:0.787879 3:0.545455 4:0.484848 5:0.69697 6:0.131313 7:0.313131 8:0.131313 9:0.373737 10:0.707071 11:0.49 12:0.86 13:1 14:1 
0 0 0 0 1 1 0 0 0 1:0.141414 2:0.727273 3:0.222222 4:0.434343 5:0.40404 6:0.0505051 8:0.434343 9:0.171717 10:0.89899 11:0.59 12:1 13:1 14:0.9 
0 0 0 0 1 1 0 0 0 1:0.181818 2:0.818182 3:0.151515 4:0.474747 5:0.444444 6:0.171717 7:0.10101 8:0.434343 9:0.171717 10:0.838384 11:0.58 12:1 13:1 14:0.95 
1 0 0 0 0 0 0 1 0 1:0.373737 2:0.929293 3:1 4:1 5:0.848485 6:0.929293 7:0.232323 8:0.828283 9:0.40404 10:0.474747 11:0.95 12:0.31 13:0.48 14:0.12 
1 0 0 0 1 0 1 1 0 1:0.383838 2:0.89899 3:0.949495 4:1 5:1 6:0.989899 7:0.444444 8:0.858586 9:0.636364 10:0.717172 11:0.91 12:0.43 13:0.53 14:0.13 
0 0 0 0 1 0 0 0 0 1:0.0909091 2:0.787879 3:0.20202 4:0.585859 5:0.353535 6:0.151515 7:0.010101 8:0.454545 9:0.10101 10:0.939394 11:0.55 12:1 13:1 14:0.86 
0.53849881687203105 0 0 0 0 0 0 1 0 1:0.717172 2:0.767677 3:0.222222 4:0.636364 5:0.727273 6:0.363636 7:0.242424 8:0.0808081 9:0.616162 10:0.323232 11:1 12:1 13:1 
0 1 0 1 0 0 0 1 0 1:0.323232 2:0.767677 3:0.59596 4:0.747475 5:0.686869 6:0.777778 7:0.252525 8:0.111111 9:0.141414 10:0.454545 11:0.23 12:0.93 13:1 14:1 
1 0 0 0 1 0 0 1 0 1:0.131313 2:1 3:0.747475 4:0.969697 5:0.737374 6:0.989899 7:0.20202 8:0.79798 9:0.414141 10:0.515152 11:1 12:0.24 13:0.51 14:0.23 
1 0 0 0 0 1 1 0 0 1:0.191919 2:0.909091 3:0.242424 4:0.666667 5:0.535354 6:0.313131 7:0.181818 8:0.313131 9:0.79798 10:0.484848 11:0.92 12:1 13:1 
0 0 0 0 0 0 0 1 0 1:0.535354 2:0.878788 3:0.232323 4:0.757576 5:0.656566 6:0.505051 7:0.464646 8:0.010101 9:0.171717 10:0.474747 11:0.5 12:0.92 13:1 14:1 
0 0 0 0 0 0 0 1 0 1:0.414141 2:1 3:0.656566 4:0.606061 5:0.565657 6:0.636364 7:0.111111 8:0.181818 9:0.141414 10:0.464646 11:0.3 12:0.9 13:1 14:0.96 
1 1 1 1 1 0.18492906168490036 0.76188577357834719 1 1 1:1 2:1 3:0.616162 4:0.979798 5:0.272727 6:0.828283 7:0.474747 8:0.565657 9:0.777778 10:0.343434 11:0.67 12:0.11 13:0.29 14:0.04 
0 0 0 0 1 1 0 0 0 1:0.040404 2:0.808081 4:0.545455 5:0.282828 6:0.212121 7:0.030303 8:0.434343 9:0.151515 10:0.79798 11:0.57 12:0.95 13:1 14:1 
0 0 0 0 0 0 0 1 0 1:0.747475 2:0.20202 3:0.545455 4:0.414141 5:0.212121 6:0.171717 7:0.030303 8:0.343434 9:0.030303 10:0.717172 11:0.42 12:0.96 13:1 14:1 
0 1 1 0 0 0 0 1 0 1:0.89899 2:0.020202 3:0.555556 4:0.505051 5:0.30303 6:0.424242 7:0.141414 8:0.212121 9:0.0808081 10:0.626263 11:0.38 12:0.93 13:1 14:1 
1 0 0 0 0 0 1 1 0 1:0.292929 2:1 3:0.89899 4:0.989899 5:0.808081 6:1 7:0.313131 8:0.777778 9:0.515152 10:0.565657 11:1 12:0.31 13:0.58 14:0.17 
0 0 0 0 0 0 1 1 0 1:0.626263 2:0.292929 3:0.494949 4:0.636364 5:0.191919 6:0.494949 7:0.222222 8:0.343434 9:0.151515 10:0.727273 11:0.53 12:0.96 13:1 14:1 
0 0 0 0 0 0 0 0 1 1:1 2:0.969697 3:0.656566 4:1 5:0.292929 6:0.878788 7:0.232323 8:0.545455 9:0.535354 10:0.585859 11:0.61 12:0.27 13:0.38 14:0.01 
0 0 0 0 0 1 0 1 0 1:0.434343 2:0.767677 3:0.181818 4:0.494949 5:0.383838 6:0.181818 7:0.0707071 8:0.30303 9:0.181818 10:0.656566 11:0.57 12:0.87 13:1 14:1 
1 1 0 0 0 0.10107671532485638 1 1 0 1:0.545455 2:0.848485 3:1 4:1 5:0.818182 6:0.939394 7:0.373737 8:0.737374 9:0.89899 10:0.646465 11:0.94 12:0.36 13:0.52 14:0.13 
0 0 0 0 0 0 0 1 0 1:0.545455 2:0.939394 3:0.0808081 4:0.777778 5:0.555556 6:0.565657 7:0.59596 8:0.030303 9:0.030303 10:0.424242 11:0.4 12:0.93 13:1 14:1 
0 0 0 0 1 0 0 0 1 1:1 2:1 3:0.575758 4:1 5:0.20202 6:0.848485 7:0.20202 8:0.616162 9:0.575758 10:0.555556 11:0.64 12:0.23 13:0.36 14:0.07 
0 1 0 0 1 0 1 1 1 1:0.343434 2:0.959596 3:1 4:1 5:0.434343 6:0.929293 7:0.727273 8:0.262626 9:0.59596 10:0.848485 11:0.46 12:0.76 13:0.17 14:0.21 
0 0 0 0 1 1 0 1 1 1:0.939394 2:0.959596 3:0.464646 4:1 5:0.0505051 6:0.747475 7:0.151515 8:0.474747 9:0.79798 10:0.40404 11:1 12:0.07 13:0.44 14:0.26 
0 0 0 0 0 1 0 1 0 1:0.111111 2:0.59596 3:0.363636 4:0.353535 5:0.40404 6:0.141414 7:0.010101 8:0.414141 9:0.262626 10:0.656566 11:0.63 12:0.84 13:1 14:1 
1 1 1 0 1 0 1 0 1 1:0.393939 2:0.878788 3:1 4:1 5:0.373737 6:0.909091 7:0.636364 8:0.40404 9:0.515152 10:0.959596 11:0.38 12:0.62 13:0.11 
0 0 0 0 0 0 0 1 0 1:0.161616 2:0.727273 3:0.343434 4:0.424242 5:0.363636 6:0.0909091 7:0.0606061 8:0.353535 9:0.171717 10:0.69697 11:0.58 12:0.87 13:1 14:1 
1 1 0.57651964043146231 1 0.44622882261062158 0 0 0 1 1:0.272727 2:0.949495 3:1 4:1 5:0.505051 6:0.969697 7:0.737374 8:0.151515 9:0.535354 10:0.858586 11:0.42 12:0.71 13:0.13 14:0.01 
0 1 0 0 0 0 0 0 0 1:0.545455 2:0.909091 3:1 4:1 5:0.636364 6:0.939394 7:0.262626 8:0.686869 9:0.525253 10:0.515152 11:0.84 12:0.32 13:0.48 14:0.07 
0 0 0 0 0 0 0 1 0 1:0.656566 2:1 3:0.444444 4:0.747475 5:0.707071 6:0.323232 7:0.454545 8:0.222222 9:0.0505051 10:0.707071 11:0.45 12:0.95 13:1 14:0.91 
1 1 1 0 0 0 0 1 0 1:0.191919 2:0.848485 3:0.262626 4:0.494949 5:0.939394 6:0.505051 7:0.868687 8:0.020202 9:0.262626 10:0.525253 11:0.32 12:0.89 13:1 14:1 
1 0.70639400896628957 1 1 0 0 0 0 0 1:0.353535 2:0.909091 3:0.616162 4:0.979798 5:1 6:1 7:0.434343 8:0.939394 10:0.646465 11:0.46 12:0.44 13:0.51 14:0.02 
0 0 0 0 0 0 0 0 0.54557618921476803 1:0.212121 2:0.979798 3:0.565657 4:0.414141 5:0.343434 6:0.0606061 7:0.020202 8:0.353535 9:0.0606061 10:0.858586 11:0.49 12:1 13:1 14:0.98 
1 1 1 1 0 0 1 1 0 1:0.555556 2:0.858586 3:0.989899 4:1 5:1 6:0.959596 7:0.535354 8:0.868687 9:0.191919 10:0.727273 11:0.45 12:0.46 13:0.42 14:0.16 
0 0 0 0 0 0 0 0 1 1:1 2:0.89899 3:0.777778 4:1 5:0.30303 6:0.878788 7:0.212121 8:0.565657 9:0.606061 10:0.515152 11:0.83 12:0.28 13:0.51 14:0.04 
0 0 0 0 1 1 1 1 0 1:0.0909091 2:0.676768 3:0.242424 4:0.333333 5:0.191919 6:0.010101 7:0.232323 8:0.656566 9:0.292929 10:0.878788 11:0.65 12:0.95 13:1 14:1 
0 1 1 0 1 0 1 0 1 1:1 2:0.929293 3:0.777778 4:0.949495 5:0.282828 6:1 7:0.818182 8:0.323232 9:0.69697 10:0.727273 11:0.45 12:0.61 13:0.18 14:0.01 
1 0 1 1 1 1 1 1 1 1:0.0909091 2:0.888889 3:0.313131 4:0.979798 5:0.353535 6:1 7:0.676768 8:0.30303 9:0.484848 10:1 11:0.29 12:0.6 13:0.01 14:0.15 
0 0 0 0 1 1 1 1 0 1:0.242424 2:0.919192 3:0.191919 4:0.40404 5:0.666667 6:0.464646 7:0.545455 8:0.191919 9:0.292929 10:0.757576 11:0.43 12:1 13:1 14:0.99 
0 0 0 1 0 0 0 0 0 2:0.838384 3:0.686869 4:0.717172 5:0.40404 6:0.939394 7:0.020202 8:0.10101 9:0.030303 10:0.444444 11:0.13 12:0.91 13:1 14:1 
0 0 0 0 0 0 0 1 0 1:0.626263 2:0.848485 3:0.252525 4:0.585859 5:0.636364 6:0.414141 7:0.525253 9:0.212121 10:0.434343 11:0.46 12:0.87 13:1 14:1 
0 0 0 0 0 0 0.77538335472573527 0 0 1:0.343434 2:0.949495 3:0.959596 4:1 5:1 6:0.969697 7:0.262626 8:0.868687 9:0.272727 10:0.656566 11:0.96 12:0.48 13:0.72 14:0.13 
1 1 1 1 0 0 0 0 0 1:0.282828 2:0.848485 3:0.818182 4:1 5:1 6:1 7:0.424242 8:0.848485 9:0.262626 10:0.505051 11:0.81 12:0.32 13:0.57 
0 0 0 0 0 0 0 1 0 1:0.69697 2:0.888889 3:0.333333 4:0.666667 5:0.707071 6:0.363636 7:0.505051 8:0.010101 9:0.222222 10:0.444444 11:0.49 12:0.88 13:1 14:1 
0 0 0 0 0 0 0 0 1 1:1 2:0.858586 3:0.707071 4:1 5:0.313131 6:0.89899 7:0.111111 8:0.606061 9:0.494949 10:0.575758 11:0.63 12:0.27 13:0.4 14:0.02 
0 0 0 0 0 1 0 1 0 1:0.0909091 2:0.818182 3:0.141414 4:0.505051 5:0.69697 6:0.353535 7:0.535354 8:0.191919 9:0.272727 10:0.727273 11:0.42 12:0.91 13:1 14:1 
1 1 0 0 0 0 1 0.77821930263078132 0 1:0.464646 2:0.878788 3:0.979798 4:1 5:0.808081 6:0.929293 7:0.30303 8:0.757576 9:0.606061 10:0.535354 11:1 12:0.31 13:0.56 14:0.07 
0 1 0 0 0 0 0 1 0 1:0.494949 2:1 3:0.272727 4:0.69697 5:0.787879 6:0.373737 7:0.646465 8:0.040404 9:0.191919 10:0.444444 11:0.37 12:0.85 13:1 14:0.96 
0 0 0 0 0 0 0 0 1 1:0.414141 2:1 3:0.10101 4:0.707071 5:0.373737 6:0.333333 7:0.161616 8:0.252525 9:0.020202 10:0.787879 11:0.5 12:0.9 13:1 14:0.85 
0 1 0 0 0 0 0 1 0 1:0.252525 2:0.878788 3:0.323232 4:0.555556 5:0.929293 6:0.353535 7:0.636364 8:0.10101 9:0.0909091 10:0.545455 11:0.31 12:0.88 13:1 14:1 
0 0 0 0 0 0 0 1 0 1:0.454545 2:0.959596 3:0.565657 4:0.69697 5:0.777778 6:0.292929 7:0.363636 9:0.242424 10:0.717172 11:0.4 12:1 13:1 14:0.95 
0 0 0 0 0 0 0 0.3990212729681929 1 1:1 2:1 3:0.626263 4:0.939394 5:0.191919 6:0.727273 7:0.121212 8:0.434343 9:0.69697 10:0.464646 11:0.89 12:0.19 13:0.46 14:0.07 
0 0 0 0 0.41587376213041627 0 0 0 0 1:0.141414 2:1 3:0.676768 4:0.383838 5:0.363636 6:0.181818 8:0.444444 9:0.0505051 10:0.888889 11:0.53 12:0.97 13:1 14:0.99 
0 0 0 0 0 0 0 1 0 1:0.262626 2:0.949495 3:0.383838 4:0.616162 5:0.747475 6:0.313131 7:0.383838 8:0.181818 9:0.111111 10:0.646465 11:0.45 12:0.97 13:1 14:1 
0 0 0 0 1 0 0 1 0 1:0.323232 2:0.848485 3:0.242424 4:0.494949 5:0.363636 6:0.131313 7:0.0505051 8:0.383838 9:0.111111 10:0.747475 11:0.56 12:0.87 13:1 14:1 
0 0 0 0 0 0 0 1 1 1:0.545455 2:1 3:0.121212 4:0.727273 5:0.454545 6:0.40404 7:0.494949 8:0.0606061 9:0.151515 10:0.555556 11:0.48 12:0.94 13:1 14:0.86 
1 1 1 1 0 0 1 1 0 1:0.616162 2:0.89899 3:1 4:1 5:0.89899 6:0.949495 7:0.535354 8:0.838384 9:0.454545 10:0.545455 11:0.64 12:0.24 13:0.35 14:0.04 
0 1 1 0 0 0 0 0 0 1:0.565657 2:0.959596 3:1 4:1 5:0.808081 6:0.949495 7:0.393939 8:0.848485 9:0.292929 10:0.59596 11:0.57 12:0.32 13:0.4 14:0.03 
0 0 0 0 0 1 0 1 0 1:0.333333 2:0.646465 3:0.414141 4:0.363636 5:0.383838 6:0.040404 7:0.0505051 8:0.343434 9:0.262626 10:0.666667 11:0.61 12:0.88 13:1 14:1 
0 0 0 0 1 0 0 1 1 1:0.343434 2:1 3:0.727273 4:1 5:0.181818 6:0.868687 7:0.0909091 8:0.525253 9:0.727273 10:0.464646 11:1 12:0.16 13:0.46 14:0.19 
0 0 0 0 0 0 0 1 0 1:0.292929 2:0.808081 3:0.343434 4:0.59596 5:0.383838 6:0.828283 7:0.40404 8:0.030303 9:0.262626 10:0.565657 11:0.39 12:1 13:1 14:0.99 
1 0 0 0 0 1 0.87506672094943083 0 0 1:0.222222 2:0.969697 3:0.0505051 4:0.535354 5:0.646465 6:0.444444 7:0.424242 8:0.111111 9:0.646465 10:0.323232 11:0.95 12:1 13:1 
1 1 1 0 1 1 1 1 1 1:1 2:0.747475 3:0.89899 4:0.585859 5:0.949495 6:0.141414 7:0.727273 8:0.393939 9:0.535354 10:1 11:0.37 12:0.69 13:0.09 14:0.07 
0 1 0 1 0 0 0 1 0 1:0.262626 2:0.89899 3:0.767677 4:0.636364 5:0.515152 6:0.717172 7:0.10101 8:0.0707071 9:0.0606061 10:0.40404 11:0.29 12:0.84 13:1 14:1 
0 0 0 0 0 0 0 1 0 1:0.373737 2:0.828283 3:0.393939 4:0.525253 5:0.545455 6:0.131313 7:0.10101 8:0.292929 9:0.0909091 10:0.707071 11:0.52 12:0.92 13:1 14:1 
0 0 0 0 0 0 0 0 1 1:1 2:0.909091 3:0.626263 4:1 5:0.171717 6:0.888889 7:0.040404 8:0.525253 9:0.414141 10:0.494949 11:0.77 12:0.32 13:0.47 14:0.04 
0 0 0 0 0 0 1 0 0 1:0.424242 2:0.919192 3:1 4:1 5:0.848485 6:0.969697 7:0.181818 8:0.89899 9:0.545455 10:0.656566 11:0.9 12:0.37 13:0.64 14:0.08 
0 0 0 0 1 1 1 1 1 1:0.939394 2:0.949495 3:0.434343 4:1 5:0.111111 6:0.767677 7:0.282828 8:0.525253 9:0.79798 10:0.444444 11:1 12:0.11 13:0.52 14:0.08 
0 0 0 0 0 0 0 1 0 1:0.282828 2:0.878788 3:0.89899 4:1 5:0.686869 6:0.949495 7:0.111111 8:0.737374 9:0.343434 10:0.575758 11:1 12:0.47 13:0.64 14:0.17 
0 0 0 0 0 0 1 0 1 1:1 2:0.828283 3:0.656566 4:0.929293 5:0.10101 6:1 7:0.020202 8:0.636364 9:0.575758 10:0.555556 11:0.91 12:0.23 13:0.47 14:0.07 
1 0 0 0 0 0 1 1 0 1:0.333333 2:0.888889 3:0.959596 4:1 5:0.929293 6:0.989899 7:0.232323 8:0.858586 9:0.59596 10:0.717172 11:1 12:0.46 13:0.63 14:0.16 
0 0 0 0 0 0 0 1 0 1:0.505051 2:0.828283 3:0.191919 4:0.777778 5:0.505051 6:0.484848 7:0.494949 8:0.030303 9:0.20202 10:0.454545 11:0.47 12:0.93 13:1 14:1 
1 1 1 1 0 1 1 1 1 1:1 2:0.89899 3:0.747475 4:1 5:0.414141 6:0.808081 7:0.626263 8:0.505051 9:0.969697 10:0.282828 11:0.85 12:0.04 13:0.42 14:0.04 
0 0 0 0 0 0 0 1 0 1:0.363636 2:0.777778 3:0.0707071 4:0.59596 5:0.555556 6:0.333333 7:0.434343 8:0.0909091 9:0.0909091 10:0.545455 11:0.43 12:0.86 13:1 14:1 
1 1 1 0 0 0 1 1 0 1:0.414141 2:0.787879 3:0.929293 4:1 5:0.888889 6:0.959596 7:0.383838 8:0.777778 9:0.505051 10:0.424242 11:1 12:0.33 13:0.56 14:0.03 
0 0 0 0 0 0 0 0 1 1:1 2:1 3:0.545455 4:0.989899 5:0.191919 6:0.929293 7:0.222222 8:0.525253 9:0.666667 10:0.535354 11:0.8 12:0.2 13:0.43 14:0.03 
1 1 0 0 0 0 1 1 0 1:0.343434 2:0.929293 3:0.939394 4:1 5:1 6:0.939394 7:0.434343 8:0.818182 9:0.464646 10:0.474747 11:0.98 12:0.31 13:0.58 14:0.06 
1 1 1 1 0 0 0 1 0 1:0.030303 2:0.727273 3:0.525253 4:0.909091 5:1 6:1 7:0.464646 8:0.878788 9:0.191919 10:0.40404 11:0.72 12:0.36 13:0.52 14:0.01 
0 0 0 0 0 0 0 1 0 1:0.111111 2:0.666667 3:0.414141 4:0.353535 5:0.565657 6:0.030303 7:0.111111 8:0.373737 9:0.111111 10:0.727273 11:0.55 12:0.87 13:1 14:1 
0 0 0 0 1 0 0 1 0 1:0.222222 2:0.747475 3:0.191919 4:0.515152 5:0.484848 6:0.161616 7:0.161616 8:0.424242 9:0.0808081 10:0.777778 11:0.53 12:0.92 13:1 14:1 
1 1 1 1 0 0 0 0 0 1:0.474747 2:0.909091 3:0.909091 4:0.989899 5:1 6:1 7:0.545455 8:0.929293 9:0.242424 10:0.626263 11:0.57 12:0.34 13:0.44 14:0.02 
0 0 0 0 0.033164302218279346 1 0 1 1 1:0.575758 2:0.383838 3:0.373737 4:0.555556 5:0.040404 6:0.262626 7:0.0505051 8:0.343434 9:0.171717 10:0.636364 11:0.59 12:0.83 13:1 14:1 
1 1 1 0 1 1 1 1 0 1:1 2:0.878788 3:0.666667 4:1 5:0.30303 6:0.79798 7:0.606061 8:0.545455 9:1 10:0.333333 11:0.95 12:0.05 13:0.45 14:0.03 
0 0 0 0 0 0 0 1 0 1:0.343434 2:0.89899 3:0.424242 4:0.606061 5:0.616162 6:0.242424 7:0.20202 8:0.181818 9:0.161616 10:0.585859 11:0.46 12:0.93 13:1 14:1 
1 1 1 0 1 0 1 0 0 1:0.020202 2:0.89899 3:0.686869 4:1 5:0.575758 6:0.979798 7:0.767677 8:0.353535 9:0.575758 10:1 11:0.44 12:0.73 13:0.09 14:0.07 
0 0 0 0 0 0 1 0 0 1:1 2:0.858586 3:0.787879 4:0.888889 5:0.141414 6:1 7:0.0707071 8:0.59596 9:0.707071 10:0.525253 11:0.99 12:0.19 13:0.43 14:0.13 
0 0 0 0 0 0 0 1 0 1:0.535354 2:1 3:0.777778 4:0.464646 5:0.616162 6:0.626263 7:0.191919 8:0.121212 9:0.171717 10:0.484848 11:0.4 12:0.95 13:1 14:0.95 
0 0 0 0 0 0 0 1 0 1:0.232323 2:0.848485 3:0.131313 4:0.626263 5:0.686869 6:0.373737 7:0.59596 8:0.232323 9:0.151515 10:0.545455 11:0.32 12:0.91 13:1 14:1 
0 0 0 0 1 1 1 1 0 1:0.141414 2:0.888889 3:0.333333 4:0.525253 5:0.494949 6:0.121212 7:0.030303 8:0.424242 9:0.868687 10:0.474747 11:0.98 12:1 13:1 
-0 0 0 1 0 0 0 0 0 1:0.161616 2:0.808081 3:0.424242 4:1 5:1 6:0.909091 7:0.747475 8:0.626263 9:0.484848 10:0.363636 11:0.98 12:0.16 13:0.62 14:0.01 
-0 0 1 0 0 0 0 0 0 1:0.262626 2:0.818182 3:0.575758 4:1 5:0.727273 6:0.828283 7:0.676768 8:0.525253 9:1 10:0.333333 11:0.76 12:0.08 13:0.38 14:0.05 
-0 1 1 0 0 0 0 0 0 1:0.828283 2:0.272727 3:1 4:0.777778 5:0.919192 6:0.848485 7:0.636364 8:0.909091 9:0.454545 10:1 11:0.17 12:0.57 13:0.05 14:0.03 
-1 0 1 0 1 0 1 0 0 1:0.939394 2:0.454545 3:1 4:0.676768 5:0.79798 6:0.585859 7:0.59596 8:0.929293 9:0.40404 10:1 11:0.15 12:0.62 13:0.14 14:0.02 
-1 0 0 0 1 1 1 1 1 1:0.878788 2:0.444444 3:1 4:0.656566 5:0.717172 6:0.262626 7:0.474747 8:0.585859 9:0.424242 10:1 11:0.21 12:0.6 13:0.07 14:0.04 
-1 1 1 0 0 0 1 0 0 1:0.484848 2:0.838384 3:0.545455 4:1 5:1 6:0.979798 7:0.717172 8:0.717172 9:0.474747 10:0.494949 11:0.81 12:0.31 13:0.49 14:0.08 
-0 0 1 0 0 0 1 0 0 1:0.242424 2:0.747475 3:0.363636 4:0.979798 5:0.919192 6:1 7:1 8:0.747475 9:0.676768 10:0.505051 11:0.97 12:0.27 13:0.51 14:0.09 
-0 1 1 0 0 0 0 1 0 1:0.848485 2:0.323232 3:1 4:0.818182 5:0.79798 6:0.505051 7:0.555556 8:0.666667 9:0.444444 10:1 11:0.17 12:0.53 13:0.11 14:0.2 
-1 1 1 1 1 1 1 1 1 1:0.979798 2:0.333333 3:1 4:0.525253 5:0.777778 6:0.464646 7:0.464646 8:0.717172 9:0.252525 10:1 11:0.08 12:0.68 13:0.36 14:0.08 
-1 0 0 0 0 0 0 0 0 1:0.323232 2:0.929293 3:0.838384 4:1 5:0.89899 6:0.777778 7:0.454545 8:0.585859 9:0.939394 10:0.464646 11:1 12:0.18 13:0.56 14:0.01 
-1 0 0 0 0 0 0 0 0 1:0.262626 2:0.828283 3:0.494949 4:1 5:0.767677 6:0.838384 7:0.353535 8:0.616162 9:0.686869 10:0.414141 11:1 12:0.17 13:0.55 14:0.03 
-0 0 1 0 0 0 1 0 0 1:0.848485 2:0.383838 3:1 4:0.838384 5:0.939394 6:0.616162 7:0.646465 8:0.767677 9:0.464646 10:1 11:0.22 12:0.63 13:0.25 14:0.08 
-0 0 1 1 0 0 0 1 0 1:0.686869 2:0.282828 3:1 4:0.767677 5:0.969697 6:0.383838 7:0.636364 8:0.606061 9:0.373737 10:1 11:0.1 12:0.47 13:0.02 14:0.15 
-1 0 0 0 0 0 0 1 0 1:0.10101 2:0.818182 3:0.585859 4:1 5:0.828283 6:0.737374 7:0.40404 8:0.494949 9:0.666667 10:0.444444 11:1 12:0.2 13:0.6 14:0.11 
-0 0 1 1 0 0 0 0 0 1:0.282828 2:0.828283 3:0.606061 4:1 5:1 6:0.969697 7:0.787879 8:0.747475 9:0.575758 10:0.484848 11:0.61 12:0.19 13:0.38 14:0.05 
-0 0 0 1 0 0 0 1 0 1:0.030303 2:0.79798 3:0.494949 4:1 5:1 6:0.909091 7:0.707071 8:0.59596 9:0.454545 10:0.434343 11:0.89 12:0.25 13:0.51 14:0.06 
-0 0 0 0 0 0 1 0 0 1:0.151515 2:0.868687 3:0.444444 4:1 5:0.929293 6:0.939394 7:0.636364 8:0.707071 9:0.848485 10:0.484848 11:1 12:0.25 13:0.53 14:0.1 
-0 0 1 0 0 0 0 0 0 1:0.40404 2:0.777778 3:0.676768 4:1 5:0.777778 6:0.828283 7:0.69697 8:0.565657 9:1 10:0.333333 11:0.82 12:0.05 13:0.41 14:0.09 
-1 0 0 0 0 0 0 0 0 1:0.373737 2:0.939394 3:0.89899 4:1 5:0.939394 6:0.787879 7:0.585859 8:0.565657 9:0.676768 10:0.323232 11:1 12:0.12 13:0.54 14:0.01 
-0 1 1 0 0 0 0 0 0 1:0.858586 2:0.363636 3:1 4:0.848485 5:0.929293 6:0.717172 7:0.666667 8:0.939394 9:0.353535 10:1 11:0.04 12:0.53 13:0.06 14:0.11 
-1 1 1 0 0 0 1 1 0 1:0.838384 2:0.333333 3:1 4:0.888889 5:0.939394 6:0.929293 7:0.686869 8:0.535354 9:0.484848 10:1 11:0.35 12:0.92 13:0.11 14:0.39 
-0 0 0 0 0 0 1 0 0 1:0.464646 2:0.848485 3:0.40404 4:1 5:0.767677 6:0.818182 7:0.606061 8:0.525253 9:1 10:0.353535 11:0.93 12:0.1 13:0.43 14:0.1 
-0 0 1 0 0 0 0 0 0 1:0.818182 2:0.40404 3:1 4:0.949495 5:0.919192 6:0.828283 7:0.616162 8:0.727273 9:0.494949 10:1 11:0.21 12:0.59 13:0.05 14:0.09 
-0 0 0 0 0 0 1 0 0 1:0.565657 2:0.818182 3:0.808081 4:1 5:0.838384 6:0.777778 7:0.565657 8:0.565657 9:1 10:0.505051 11:0.86 12:0.2 13:0.47 14:0.02 
-0 1 1 0 0 0 0 0 0 1:0.505051 2:0.767677 3:0.737374 4:1 5:1 6:0.777778 7:0.717172 8:0.484848 9:0.939394 10:0.323232 11:0.8 12:0.04 13:0.33 14:0.24 
-0 0 0 0 0 0 1 0 0 1:0.838384 2:0.383838 3:1 4:0.787879 5:0.777778 6:0.383838 7:0.545455 8:0.666667 9:0.474747 10:1 11:0.21 12:0.62 13:0.15 14:0.1 
-0 1 0 0 0 0 0 0 0 1:0.686869 2:0.79798 3:0.929293 4:1 5:0.929293 6:0.767677 7:0.626263 8:0.545455 9:1 10:0.414141 11:0.79 12:0.2 13:0.41 14:0.07 
-0 0 0 0 0 0 1 0 0 1:0.474747 2:0.626263 3:0.414141 4:1 5:0.939394 6:0.989899 7:0.939394 8:0.616162 9:0.89899 10:0.535354 11:1 12:0.19 13:0.51 14:0.11 
-0 1 1 0 0 0 1 1 0 1:0.79798 2:0.333333 3:1 4:0.858586 5:1 6:0.828283 7:0.727273 8:0.505051 9:0.494949 10:1 11:0.37 12:0.85 13:0.12 14:0.36 
-0 1 1 0 1 0 1 0 0 1:0.0707071 2:0.767677 3:0.383838 4:0.949495 5:0.858586 6:1 7:1 8:0.79798 9:0.676768 10:0.585859 11:0.73 12:0.35 13:0.4 14:0.15 
-0 1 1 0 0 0 0 1 0 1:0.010101 2:0.787879 3:0.474747 4:1 5:0.767677 6:0.828283 7:0.59596 8:0.525253 9:1 10:0.272727 11:0.83 12:0.23 13:0.01 14:0.3 
-0 0 0 0 0 0 1 0 0 1:0.141414 2:0.767677 3:0.414141 4:1 5:0.757576 6:0.868687 7:0.40404 8:0.616162 9:0.929293 10:0.555556 11:1 12:0.29 13:0.58 14:0.07 
-0 0 1 0 0 0 0 0 0 1:0.909091 2:0.373737 3:1 4:0.808081 5:0.909091 6:0.666667 7:0.616162 8:1 9:0.393939 10:0.979798 11:0.16 12:0.51 13:0.05 
-1 0 1 0 1 0 1 0 0 1:0.909091 2:0.40404 3:1 4:0.666667 5:0.757576 6:0.525253 7:0.606061 8:0.989899 9:0.474747 10:1 11:0.15 12:0.54 13:0.06 14:0.07 
-1 1 1 0 0 0 1 0 0 1:0.959596 2:0.505051 3:1 4:0.979798 5:0.878788 6:0.868687 7:0.606061 8:0.525253 9:0.414141 10:1 11:0.27 12:0.68 13:0.07 14:0.17 
-0 0 0 0 0 0 1 0 0 1:0.40404 2:0.818182 3:0.636364 4:1 5:0.828283 6:0.767677 7:0.454545 8:0.525253 9:0.929293 10:0.414141 11:1 12:0.19 13:0.52 14:0.06 
-1 1 1 1 0 0 0 0 0 1:0.414141 2:0.89899 3:0.737374 4:1 5:1 6:0.868687 7:0.69697 8:0.69697 9:0.454545 10:0.494949 11:0.56 12:0.19 13:0.35 14:0.05 
-1 0 0 0 0 0 0 0 0 1:0.313131 2:0.868687 3:0.737374 4:1 5:0.818182 6:0.747475 7:0.444444 8:0.525253 9:0.868687 10:0.424242 11:1 12:0.18 13:0.54 14:0.03 
-1 1 1 1 0.45876167349746938 0 0 1 0.050325537445684895 1:0.0606061 2:0.89899 3:0.545455 4:1 5:0.929293 6:0.818182 7:0.787879 8:0.535354 9:0.40404 10:0.30303 11:0.1 12:0.4 13:1 
-0 0 1 1 0 0 0 0 0 1:0.515152 2:0.838384 3:0.787879 4:1 5:1 6:0.838384 7:0.767677 8:0.626263 9:0.717172 10:0.333333 11:0.67 12:0.08 13:0.33 14:0.02 
-1 0 0 0 1 1 1 0 0 1:0.131313 2:0.858586 3:0.515152 4:1 5:0.59596 6:0.757576 7:0.40404 8:0.545455 9:1 10:0.515152 11:0.98 12:0.27 13:0.6 14:0.08 
-1 1 1 1 1 1 1 1 0 1:0.89899 2:0.353535 3:1 4:0.636364 5:0.888889 6:0.525253 7:0.636364 8:0.666667 9:0.40404 10:1 11:0.25 12:0.88 13:0.07 14:0.48 
-1 1 0 1 0 0 1 0 0 1:0.868687 2:0.373737 3:1 4:0.878788 5:0.878788 6:0.676768 7:0.575758 8:0.464646 9:0.383838 10:1 11:0.28 12:0.96 13:0.41 14:0.01 
-0 1 0 0 0 0 0 0 0 1:0.464646 2:0.737374 3:0.676768 4:1 5:1 6:0.878788 7:0.737374 8:0.59596 9:0.616162 10:0.333333 11:0.96 12:0.18 13:0.52 14:0.04 
-0 0 1 0 0 0 0 0 0 1:0.434343 2:0.858586 3:0.767677 4:1 5:1 6:0.848485 7:0.777778 8:0.626263 9:0.626263 10:0.393939 11:0.7 12:0.14 13:0.39 14:0.02 
-1 1 0 0 1 0 1 0 1 1:0.616162 2:1 3:0.878788 4:0.959596 5:0.59596 6:0.737374 7:0.818182 8:0.555556 9:1 10:0.30303 11:0.84 12:0.05 13:0.41 14:0.11 
-1 0 0 0 0 0 0 0 0 1:0.292929 2:0.858586 3:0.666667 4:1 5:0.767677 6:0.767677 7:0.525253 8:0.494949 9:0.777778 10:0.393939 11:1 12:0.17 13:0.56 14:0.05 
-0 0 1 0 0 0 0 0 0 1:0.424242 2:0.818182 3:0.59596 4:1 5:1 6:0.909091 7:0.737374 8:0.676768 9:0.59596 10:0.494949 11:0.77 12:0.26 13:0.41 14:0.1 
-0 1 1 1 0 0 1 0 0 1:0.69697 2:0.131313 3:0.969697 4:0.656566 5:1 6:1 7:0.787879 8:0.656566 9:0.545455 10:0.939394 11:0.27 12:0.9 13:0.41 14:0.02 
-1 1 1 0 0 0 1 1 0 1:0.79798 2:0.424242 3:0.929293 4:0.909091 5:1 6:0.959596 7:0.79798 8:0.747475 9:0.565657 10:1 11:0.36 12:0.9 13:0.14 14:0.48 
-0 0 1 0 1 1 1 0 0 1:0.383838 2:0.777778 3:0.242424 4:0.969697 5:0.737374 6:1 7:1 8:0.808081 9:0.848485 10:0.565657 11:0.72 12:0.32 13:0.46 14:0.1 
-1 0 0 0 1 0 1 0 0 1:0.40404 2:0.979798 3:0.818182 4:1 5:0.646465 6:0.707071 7:0.565657 8:0.606061 9:1 10:0.474747 11:0.87 12:0.17 13:0.45 14:0.07 
-0 0 0 1 0 0 0 0 0 1:0.525253 2:0.79798 3:0.717172 4:1 5:1 6:0.787879 7:0.757576 8:0.515152 9:0.666667 10:0.272727 11:0.89 12:0.08 13:0.45 14:0.02 
-0 0 0 0 1 1 0 0 0 1:0.0909091 2:0.727273 3:0.323232 4:1 5:0.59596 6:0.818182 7:0.585859 8:0.626263 9:1 10:0.40404 11:0.92 12:0.06 13:0.43 14:0.18 
-0 0 0 0 0 0 0 1 0 1:0.272727 2:0.737374 3:0.565657 4:1 5:0.808081 6:0.737374 7:0.373737 8:0.464646 9:0.777778 10:0.484848 11:1 12:0.18 13:0.49 14:0.12 
-0 1 1 1 0 0 0 0 0 1:0.616162 2:0.858586 3:0.868687 4:1 5:1 6:0.787879 7:0.848485 8:0.535354 9:0.848485 10:0.242424 11:0.64 12:0.04 13:0.29 14:0.12 
-0 0 1 0 0 0 0 0 0 1:0.747475 2:0.313131 3:1 4:0.79798 5:0.989899 6:0.656566 7:0.686869 8:0.676768 9:0.434343 10:1 11:0.2 12:0.6 13:0.06 14:0.01 
-0 0 0 0 0 0 0 1 0 2:0.717172 3:0.383838 4:1 5:0.89899 6:0.919192 7:0.494949 8:0.636364 9:0.515152 10:0.525253 11:1 12:0.35 13:0.6 14:0.08 
-1 0 0 0 0 0 1 0 0 1:0.444444 2:0.868687 3:0.40404 4:1 5:0.888889 6:0.959596 7:0.535354 8:0.646465 9:0.676768 10:0.545455 11:1 12:0.26 13:0.6 14:0.03 
-0 0 0 0 0 0 1 0 0 1:0.494949 2:0.838384 3:0.656566 4:1 5:0.747475 6:0.747475 7:0.505051 8:0.505051 9:1 10:0.414141 11:0.97 12:0.13 13:0.49 14:0.07 
-0 1 1 0 0 0 0 1 1 1:0.393939 2:0.878788 3:0.777778 4:1 5:0.707071 6:0.656566 7:0.676768 8:0.606061 9:1 10:0.383838 11:0.7 12:0.07 13:0.19 14:0.27 
-0 1 0 0 0 0 0 0 0 1:0.575758 2:0.858586 3:0.818182 4:1 5:1 6:0.79798 7:0.727273 8:0.59596 9:0.838384 10:0.353535 11:0.75 12:0.16 13:0.37 14:0.09 
-0 0 1 0 0 0 1 0 0 1:0.828283 2:0.363636 3:1 4:0.808081 5:0.89899 6:0.646465 7:0.606061 8:1 9:0.444444 10:0.969697 11:0.15 12:0.54 13:0.14 14:0.07 
-1 0 0 0 1 1 1 1 1 1:0.121212 2:0.868687 3:0.10101 4:1 5:0.585859 6:0.949495 7:0.313131 8:0.646465 9:0.808081 10:0.555556 11:1 12:0.29 13:0.56 14:0.08 
-0 0 1 1 0 0 0 1 0 1:0.10101 2:0.848485 3:0.30303 4:1 5:0.919192 6:0.949495 7:0.747475 8:0.626263 9:0.454545 10:0.353535 11:1 12:0.16 13:0.62 14:0.09 
-0 0 0 1 0 0 0 0 0 1:0.282828 2:0.757576 3:0.444444 4:1 5:1 6:0.89899 7:0.747475 8:0.626263 9:0.424242 10:0.393939 11:0.98 12:0.24 13:0.63 14:0.04 
-1 1 1 0 0 0 0 0 0 1:0.353535 2:0.89899 3:0.767677 4:1 5:1 6:0.878788 7:0.656566 8:0.676768 9:0.464646 10:0.484848 11:0.73 12:0.27 13:0.42 14:0.06 
-0 1 1 1 0 0 0 1 0 1:0.010101 2:0.727273 3:0.252525 4:0.979798 5:1 6:1 7:0.979798 8:0.757576 9:0.424242 10:0.545455 11:0.64 12:0.39 13:0.64 14:0.15 
-0 1 1 0 0 0 0 0 0 1:0.272727 2:0.808081 3:0.585859 4:1 5:1 6:0.939394 7:0.777778 8:0.676768 9:0.505051 10:0.434343 11:0.83 12:0.25 13:0.44 14:0.08 
-0 0 0 0 0 0 0.58440186575127295 0 1 1:0.828283 2:0.424242 3:1 4:0.717172 5:0.757576 6:0.343434 7:0.505051 8:0.686869 9:0.444444 10:1 11:0.21 12:0.59 13:0.05 
-0 0 1 0 0 0 0 0 0 1:0.20202 2:0.808081 3:0.515152 4:1 5:1 6:1 7:0.848485 8:0.757576 9:0.636364 10:0.525253 11:0.83 12:0.29 13:0.44 14:0.13 
-0 1 1 0 0 0 0.84378525859974274 0 0 1:0.646465 2:0.010101 3:0.939394 4:0.575758 5:1 6:0.979798 7:0.878788 8:0.717172 9:0.585859 10:1 11:0.28 12:0.69 13:0.05 14:0.24 
-0 0 1 0 0 0 1 0 0 1:0.848485 2:0.424242 3:1 4:0.676768 5:0.868687 6:0.494949 7:0.606061 8:0.919192 9:0.434343 10:1 11:0.14 12:0.55 13:0.08 14:0.08 
-0 0 1 0 0 0 0 0 0 1:0.010101 2:0.747475 3:0.343434 4:1 5:0.959596 6:0.949495 7:0.878788 8:0.666667 9:0.767677 10:0.383838 11:1 12:0.09 13:0.41 14:0.2 
-1 1 1 1 0 0 0 0 0 1:0.606061 2:0.909091 3:0.878788 4:1 5:1 6:0.808081 7:0.777778 8:0.606061 9:0.626263 10:0.373737 11:0.6 12:0.14 13:0.34 14:0.01 
-1 0 0 0 0 0 0 0 0 1:0.373737 2:0.888889 3:0.838384 4:1 5:0.787879 6:0.727273 7:0.454545 8:0.484848 9:0.909091 10:0.414141 11:1 12:0.16 13:0.52 14:0.07 
-0 0 0 0 0 0 1 0 0 1:0.323232 2:1 3:0.838384 4:0.949495 5:0.808081 6:0.727273 7:0.575758 8:0.555556 9:1 10:0.373737 11:0.99 12:0.13 13:0.51 14:0.02 
-0 0 1 0 0 0 0 0 0 1:0.333333 2:0.868687 3:0.69697 4:1 5:1 6:0.919192 7:0.828283 8:0.666667 9:0.727273 10:0.393939 11:0.77 12:0.14 13:0.41 14:0.01 
-1 0 0 0 0 0 0 1 0 1:0.0606061 2:0.888889 3:0.515152 4:1 5:0.808081 6:0.818182 7:0.454545 8:0.585859 9:0.545455 10:0.363636 11:1 12:0.18 13:0.56 14:0.03 
-1 1 1 1 0 0 0 1 0 1:0.545455 2:0.818182 3:0.525253 4:1 5:1 6:0.858586 7:0.808081 8:0.585859 9:0.373737 10:0.383838 11:0.78 12:0.24 13:0.54 14:0.03 
-0 0 0 0 0 0 1 0 1 1:0.525253 2:0.919192 3:0.747475 4:1 5:0.717172 6:0.707071 7:0.636364 8:0.59596 9:1 10:0.434343 11:0.78 12:0.15 13:0.32 14:0.1 
-1 0 0 0 1 0 0 1 1 1:0.0505051 2:0.868687 3:0.494949 4:1 5:0.616162 6:0.808081 7:0.212121 8:0.565657 9:0.69697 10:0.454545 11:1 12:0.2 13:0.59 14:0.04 
-0 0 1 0 0 0 0 0 0 1:0.383838 2:0.838384 3:0.636364 4:1 5:0.828283 6:0.767677 7:0.707071 8:0.525253 9:1 10:0.30303 11:0.8 12:0.06 13:0.31 14:0.18 
-0 1 1 0 0 0 0 0 0 1:0.313131 2:0.717172 3:0.565657 4:0.929293 5:1 6:1 7:0.868687 8:0.777778 9:0.616162 10:0.555556 11:0.61 12:0.3 13:0.44 14:0.07 
-1 0 0 0 0 0 0 0 0 1:0.232323 2:0.989899 3:0.767677 4:1 5:0.949495 6:0.69697 7:0.434343 8:0.505051 9:0.727273 10:0.464646 11:1 12:0.18 13:0.55 14:0.08 
-0 1 0 0 0 0 0 0 0 1:0.818182 2:0.939394 3:1 4:1 5:0.959596 6:0.787879 7:0.89899 8:0.545455 9:0.989899 10:0.292929 11:0.74 12:0.11 13:0.37 14:0.06 
-0 1 0 0 0 0 1 1 0 1:0.79798 2:0.373737 3:1 4:0.949495 5:0.949495 6:0.565657 7:0.707071 8:0.505051 9:0.505051 10:1 11:0.31 12:0.95 13:0.02 14:0.36 
-0 0 1 0.86678749340782846 0 0 0 0 0 1:0.111111 2:0.757576 3:0.464646 4:1 5:1 6:0.979798 7:0.969697 8:0.717172 9:0.515152 10:0.535354 11:0.74 12:0.3 13:0.52 14:0.05 
-0 1 1 0.15339452087747635 0 0 0 0 0 1:0.888889 2:0.454545 3:1 4:1 5:0.979798 6:0.838384 7:0.777778 8:0.505051 9:0.575758 10:0.707071 11:0.35 12:0.5 13:0.14 14:0.05 
-0.19915785179255641 0 0 0 0 0 1 0 0 1:0.444444 2:0.868687 3:0.838384 4:1 5:0.656566 6:0.666667 7:0.787879 8:0.636364 9:1 10:0.323232 11:0.8 12:0.36 13:0.25 
-0 0 0 0 1 0.86959230072142624 1 0 0 1:0.939394 2:0.292929 3:1 4:0.656566 5:0.777778 6:0.323232 7:0.515152 8:0.878788 9:0.454545 10:1 11:0.17 12:0.52 13:0.08 14:0.11 
-0 1 1 0 0 0 0 0 0 1:0.69697 2:0.868687 3:0.959596 4:1 5:1 6:0.767677 7:0.777778 8:0.565657 9:0.757576 10:0.323232 11:0.72 12:0.09 13:0.37 14:0.05 
-0 0 0 0 0 0 1 0 0 1:0.393939 2:0.818182 3:0.575758 4:1 5:0.787879 6:0.767677 7:0.565657 8:0.616162 9:1 10:0.434343 11:0.83 12:0.16 13:0.37 14:0.11 
-1 0 0 0 0 0 0 0 0 1:0.747475 2:0.858586 3:1 4:1 5:0.949495 6:0.777778 7:0.646465 8:0.565657 9:0.89899 10:0.353535 11:0.81 12:0.1 13:0.42 
-0 0 1 0 0 0 0 0 0 1:0.121212 2:0.888889 3:0.535354 4:1 5:1 6:0.969697 7:0.89899 8:0.717172 9:0.676768 10:0.474747 11:0.73 12:0.21 13:0.44 14:0.01 
-1 1 0 0 0 0 0 1 0 1:0.464646 2:0.79798 3:0.707071 4:1 5:1 6:0.888889 7:0.373737 8:0.717172 9:0.434343 10:0.474747 11:0.91 12:0.23 13:0.45 14:0.1 
-0 0 0 0 0 0 1 0 0 1:0.515152 2:0.909091 3:0.717172 4:1 5:0.868687 6:0.69697 7:0.565657 8:0.424242 9:1 10:0.444444 11:0.9 12:0.15 13:0.43 14:0.12 
-1 0 0 0 0 0 1 0 1 1:0.89899 2:0.606061 3:1 4:0.848485 5:0.828283 6:0.434343 7:0.636364 8:0.505051 9:0.474747 10:1 11:0.32 12:0.63 13:0.13 14:0.05 
-1 0 0 0 1 1 1 1 1 1:0.242424 2:0.89899 3:0.232323 4:1 5:0.606061 6:0.89899 7:0.30303 8:0.636364 9:0.767677 10:0.525253 11:1 12:0.27 13:0.68 14:0.04 
-1 1 1 1 1 1 1 1 0.25825446205274633 1:0.323232 2:0.737374 3:0.030303 4:0.929293 5:0.727273 6:1 7:0.545455 8:0.717172 9:0.373737 10:0.494949 11:1 12:0.35 13:0.73 14:0.08 
-0 0 1 0 0 0 0 0 0 1:0.767677 2:0.292929 3:1 4:0.737374 5:0.959596 6:0.555556 7:0.626263 8:0.747475 9:0.424242 10:1 11:0.14 12:0.59 13:0.13 14:0.05 
-0 0 0 0 0 0 1 0 0 1:0.616162 2:0.767677 3:0.757576 4:1 5:0.949495 6:0.828283 7:0.555556 8:0.575758 9:0.949495 10:0.515152 11:1 12:0.21 13:0.55 14:0.02 
-0 1 0 0 0 0 1 1 0 1:0.858586 2:0.393939 3:1 4:0.848485 5:0.888889 6:0.525253 7:0.626263 8:0.525253 9:0.40404 10:1 11:0.26 12:0.74 13:0.04 14:0.22 
-0 0 0 0 0 0 1 0 0 1:0.424242 2:0.767677 3:0.525253 4:1 5:0.949495 6:0.939394 7:0.676768 8:0.666667 9:0.79798 10:0.525253 11:1 12:0.29 13:0.57 14:0.07 
-0 0 1 0 0 0 0 0 0 1:0.858586 2:0.292929 3:1 4:0.646465 5:0.888889 6:0.494949 7:0.59596 8:0.737374 9:0.363636 10:1 11:0.14 12:0.55 13:0.09 
-1 0 0 0 0 0 0 0 0 1:0.424242 2:0.929293 3:0.858586 4:1 5:1 6:0.737374 7:0.606061 8:0.515152 9:0.545455 10:0.353535 11:0.98 12:0.19 13:0.56 
-0 0 0 0 0 1 0 1 0 1:0.010101 2:0.828283 3:0.313131 4:1 5:0.686869 6:0.838384 7:0.40404 8:0.585859 9:0.757576 10:0.393939 11:1 12:0.15 13:0.54 14:0.1 
-0 0 0 0 0 0 1 0 0 1:0.828283 2:0.40404 3:1 4:0.717172 5:0.808081 6:0.313131 7:0.545455 8:0.737374 9:0.474747 10:1 11:0.19 12:0.54 13:0.15 
-0 1 1 0.13956939985765476 0 1 1 1 0 1:0.686869 2:0.040404 3:0.919192 4:0.616162 5:1 6:1 7:0.818182 8:0.79798 9:0.525253 10:0.969697 11:0.26 12:0.97 13:0.02 14:0.38 
-0 0.93299717667665327 1 0 0 0 0 0 0 1:0.444444 2:0.808081 3:0.535354 4:1 5:1 6:0.89899 7:0.848485 8:0.585859 9:0.868687 10:0.30303 11:0.83 12:0.02 13:0.35 14:0.19 
-0 0 1 0 0 0 0 0 0 2:0.656566 3:0.272727 4:0.929293 5:0.808081 6:1 7:0.717172 8:0.747475 9:0.818182 10:0.424242 11:1 12:0.12 13:0.54 14:0.02 
-1 1 1 1 1 1 1 1 0 1:0.909091 2:0.353535 3:1 4:0.616162 5:0.828283 6:0.565657 7:0.59596 8:0.69697 9:0.383838 10:1 11:0.22 12:0.78 13:0.04 14:0.39 
-0 0 0 0 0 0 1 0 0 1:0.434343 2:0.838384 3:0.79798 4:1 5:0.838384 6:0.727273 7:0.494949 8:0.59596 9:1 10:0.484848 11:0.86 12:0.16 13:0.33 14:0.23 
-1 1 1 1 0 0 0 0 0 1:0.525253 2:0.979798 3:0.878788 4:1 5:1 6:0.79798 7:0.777778 8:0.59596 9:0.575758 10:0.393939 11:0.57 12:0.17 13:0.35 14:0.03 
-0 1 1 0 0 0 0 0 0 1:0.545455 2:0.79798 3:0.676768 4:1 5:0.848485 6:0.767677 7:0.676768 8:0.484848 9:1 10:0.272727 11:0.8 12:0.02 13:0.34 14:0.21 
-1 1 1 0 1 0 1 0.28855848374386578 1 1:1 2:0.474747 3:0.989899 4:0.585859 5:0.767677 6:0.606061 7:0.535354 8:0.909091 9:0.343434 10:1 11:0.15 12:0.59 13:0.01 14:0.11 
-1 0 0 0 0 0 0 0 0 1:0.141414 2:0.909091 3:0.676768 4:1 5:0.808081 6:0.818182 7:0.434343 8:0.555556 9:0.585859 10:0.383838 11:1 12:0.2 13:0.54 14:0.01 
-0 0 1 0 0 0 0 0 0 1:0.454545 2:0.777778 3:0.484848 4:1 5:1 6:0.929293 7:0.777778 8:0.646465 9:0.858586 10:0.383838 11:0.87 12:0.1 13:0.36 14:0.19 
-0 0 0 0 0 0 1 0 0 1:0.424242 2:0.828283 3:0.535354 4:1 5:0.727273 6:0.787879 7:0.505051 8:0.59596 9:1 10:0.484848 11:0.88 12:0.19 13:0.42 14:0.1 
-0 1 1 1 0 0 0 0 0 1:0.282828 2:0.757576 3:0.515152 4:1 5:1 6:0.959596 7:0.858586 8:0.69697 9:0.575758 10:0.454545 11:0.55 12:0.29 13:0.51 14:0.05 
-0 0 1 0 0 0 0 0 0 1:0.818182 2:0.40404 3:1 4:0.89899 5:0.878788 6:0.686869 7:0.585859 8:0.727273 9:0.474747 10:1 11:0.19 12:0.56 13:0.03 14:0.05 
-1 0 0 1 0 0 0 1 0 2:0.848485 3:0.393939 4:1 5:0.909091 6:0.777778 7:0.40404 8:0.515152 9:0.464646 10:0.444444 11:1 12:0.2 13:0.56 14:0.15 
-1 0 0 0 0 0 1 1 1 1:0.878788 2:0.474747 3:1 4:0.777778 5:0.767677 6:0.424242 7:0.505051 8:0.545455 9:0.40404 10:1 11:0.22 12:0.67 13:0.16 14:0.07 
-1 0 0 0 0 0 0 0 1 1:0.878788 2:0.494949 3:1 4:0.828283 5:0.848485 6:0.515152 7:0.606061 8:0.616162 9:0.373737 10:1 11:0.18 12:0.57 13:0.01 14:0.03 
-0 0 1 0 0 0 1 0 0 1:0.242424 2:0.848485 3:0.474747 4:1 5:1 6:0.969697 7:0.919192 8:0.757576 9:0.646465 10:0.565657 11:0.7 12:0.33 13:0.44 14:0.13 
-0 0 1 0 0 0 0 0 0 1:0.010101 2:0.777778 3:0.454545 4:0.989899 5:1 6:1 7:0.767677 8:0.757576 9:0.939394 10:0.373737 11:0.94 12:0.41 13:0.03 14:0.28 
-0 0 0 0 0 0 0 1 0 1:0.040404 2:0.69697 3:0.333333 4:1 5:0.848485 6:0.828283 7:0.555556 8:0.515152 9:0.747475 10:0.424242 11:1 12:0.12 13:0.41 14:0.2 
-0 0 1 0 0 0 0 0 0 1:0.343434 2:0.767677 3:0.434343 4:1 5:1 6:0.989899 7:0.707071 8:0.686869 9:0.79798 10:0.383838 11:0.9 12:0.07 13:0.33 14:0.24 
-1 0 0 0 0 0 1 0 1 1:0.838384 2:0.494949 3:1 4:0.717172 5:0.787879 6:0.363636 7:0.515152 8:0.505051 9:0.40404 10:1 11:0.27 12:0.62 13:0.03 14:0.03 
-1 0 0 0 0 0 0 0 0 1:0.232323 2:0.929293 3:0.484848 4:1 5:1 6:0.89899 7:0.666667 8:0.626263 9:0.494949 10:0.343434 11:0.97 12:0.17 13:0.54 14:0.06 
-0 1 1 1 0 0 0 1 0 1:0.535354 2:0.858586 3:0.838384 4:1 5:1 6:0.787879 7:0.707071 8:0.585859 9:0.555556 10:0.333333 11:0.62 12:0.09 13:0.22 14:0.15 
-1 0 0 0 0 0 0 0 0 1:0.252525 2:0.838384 3:0.717172 4:1 5:0.919192 6:0.777778 7:0.505051 8:0.525253 9:0.69697 10:0.484848 11:1 12:0.23 13:0.58 14:0.07 
-0 0.67272391415111155 0 0 0 0 0 0 0 1:0.151515 2:0.777778 3:0.434343 4:1 5:0.949495 6:0.949495 7:0.747475 8:0.656566 9:0.505051 10:0.424242 11:1 12:0.31 13:0.59 14:0.09 
-1 1 1 0 0 0 0 1 0 1:0.878788 2:0.353535 3:1 4:0.69697 5:0.868687 6:0.676768 7:0.606061 8:0.69697 9:0.333333 10:1 11:0.15 12:0.64 13:0.01 14:0.17 
-0 0 1 0 0 0 0 0 0 1:0.424242 2:0.777778 3:0.676768 4:1 5:1 6:0.848485 7:0.818182 8:0.575758 9:0.757576 10:0.363636 11:0.78 12:0.14 13:0.36 14:0.1 
-1 1 1 1 0 0 0 1 0 1:0.191919 2:0.909091 3:0.585859 4:1 5:1 6:0.909091 7:0.838384 8:0.707071 9:0.515152 10:0.525253 11:0.64 12:0.32 13:0.39 14:0.12 
-1 1 0 1 0 0 0 1 0 1:0.30303 2:0.979798 3:0.494949 4:1 5:1 6:0.818182 7:0.606061 8:0.585859 9:0.282828 10:0.424242 11:0.95 12:0.32 13:0.65 14:0.12 
-1 0 0 0 1 0 1 0 0 1:0.505051 2:1 3:0.929293 4:0.949495 5:0.636364 6:0.727273 7:0.69697 8:0.606061 9:1 10:0.383838 11:0.82 12:0.12 13:0.38 14:0.07 
-1 1 1 0 0 0 1 0 0 1:0.848485 2:0.373737 3:1 4:0.878788 5:0.939394 6:0.858586 7:0.666667 8:0.636364 9:0.40404 10:1 11:0.21 12:0.82 13:0.3 14:0.01 
-0 1 0 0 0 0 0 1 0 1:0.474747 2:0.747475 3:0.767677 4:1 5:1 6:0.717172 7:0.484848 8:0.515152 9:0.828283 10:0.393939 11:0.93 12:0.08 13:0.39 14:0.25 
-0 0 1 1 0 0 0 1 0 1:0.777778 2:0.343434 3:1 4:0.737374 5:0.858586 6:0.414141 7:0.545455 8:0.565657 9:0.30303 10:1 11:0.08 12:0.58 13:0.08 14:0.08 
-0 1 1 1 0 0 0 1 0 1:0.0808081 2:0.777778 3:0.474747 4:1 5:1 6:0.939394 7:0.777778 8:0.626263 9:0.848485 10:0.353535 11:0.73 12:0.06 13:0.19 14:0.29 
-0 0 0 0 1 0.38580226437692444 1 0 0 1:0.323232 2:0.89899 3:0.656566 4:1 5:0.656566 6:0.707071 7:0.626263 8:0.636364 9:1 10:0.434343 11:0.78 12:0.14 13:0.27 14:0.24 
-1 0 0 0 0 0 1 0 0 1:0.484848 2:0.848485 3:0.838384 4:1 5:0.888889 6:0.808081 7:0.474747 8:0.606061 9:0.89899 10:0.484848 11:1 12:0.3 13:0.51 14:0.14 
-1 0 0 0 1 1 1 0 0 1:0.272727 2:0.878788 3:0.575758 4:1 5:0.606061 6:0.737374 7:0.454545 8:0.535354 9:0.949495 10:0.444444 11:1 12:0.2 13:0.54 14:0.05 
-0 0 1 0 0 0 0 0 0 1:0.353535 2:0.777778 3:0.656566 4:1 5:0.828283 6:0.818182 7:0.808081 8:0.585859 9:1 10:0.292929 11:0.82 12:0.03 13:0.38 14:0.16 
-1 1 1 0 0 0 1 1 0 1:0.929293 2:0.353535 3:1 4:0.787879 5:0.979798 6:0.939394 7:0.787879 8:0.717172 9:0.565657 10:1 11:0.33 12:0.79 13:0.11 14:0.38 
-1 1 1 1 0 0 0 1 0 1:0.838384 2:0.343434 3:1 4:0.686869 5:0.808081 6:0.646465 7:0.545455 8:1 9:0.363636 10:0.909091 11:0.09 12:0.48 13:0.15 14:0.12 
-0 0 0 0 0 0 1 0 0 1:0.626263 2:0.777778 3:0.585859 4:1 5:1 6:0.939394 7:0.69697 8:0.676768 9:0.909091 10:0.474747 11:0.94 12:0.27 13:0.48 14:0.12 
-1 0 0 0 0 0 0 0 1 1:0.828283 2:0.424242 3:1 4:0.767677 5:0.777778 6:0.444444 7:0.484848 8:0.606061 9:0.434343 10:1 11:0.21 12:0.58 13:0.04 14:0.06 
-0 1 0 1 1 1 1 1 0 1:0.888889 2:0.0909091 3:1 4:0.454545 5:0.818182 6:0.10101 7:0.575758 8:0.313131 9:0.494949 10:0.939394 11:0.43 12:1 13:0.18 14:0.52 
-1 0 0 0 0 0 0 0 0 1:0.575758 2:1 3:1 4:0.929293 5:0.959596 6:0.686869 7:0.535354 8:0.575758 9:0.828283 10:0.444444 11:0.81 12:0.17 13:0.45 14:0.03 
-1 1 1 1 1 1 1 1 0 1:0.888889 2:0.333333 3:1 4:0.606061 5:0.848485 6:0.515152 7:0.59596 8:0.656566 9:0.363636 10:1 11:0.21 12:0.86 13:0.04 14:0.44 
-0 0 1 0 0 0 0 0 0 1:0.353535 2:0.69697 3:0.525253 4:0.989899 5:1 6:1 7:0.878788 8:0.676768 9:0.848485 10:0.424242 11:0.91 12:0.13 13:0.47 14:0.12 
-0 0 1 0 0 0 0 0 0 1:0.252525 2:0.878788 3:0.606061 4:1 5:1 6:0.939394 7:0.878788 8:0.666667 9:0.969697 10:0.393939 11:0.78 12:0.17 13:0.4 14:0.06 
-0 0 0 0 1 1 1 0 0 1:0.131313 2:0.818182 3:0.444444 4:1 5:0.565657 6:0.737374 7:0.424242 8:0.525253 9:1 10:0.505051 11:1 12:0.25 13:0.58 14:0.05 
-1 0 0 0 1 1 1 1 0 1:0.131313 2:0.808081 3:0.222222 4:1 5:0.808081 6:0.969697 7:0.606061 8:0.656566 9:0.59596 10:0.494949 11:1 12:0.33 13:0.6 14:0.07 
-0 1 1 0 1 0 0 0.16808814701467822 1 1:0.363636 2:0.888889 3:0.727273 4:1 5:0.575758 6:0.717172 7:0.808081 8:0.585859 9:1 10:0.282828 11:0.75 12:0.02 13:0.3 14:0.23 
-1 1 1 1 0 0 0 1 0 1:0.0505051 2:0.818182 3:0.484848 4:1 5:1 6:0.888889 7:0.69697 8:0.626263 9:0.292929 10:0.393939 11:0.85 12:0.26 13:0.6 14:0.04 
-1 0 0 0 0 0 0 1 0 1:0.0909091 2:0.848485 3:0.525253 4:1 5:0.868687 6:0.777778 7:0.40404 8:0.545455 9:0.636364 10:0.464646 11:1 12:0.21 13:0.56 14:0.09 
-0 0 1 0 0 0 0 0 0 1:0.828283 2:0.282828 3:1 4:0.878788 5:0.949495 6:0.636364 7:0.686869 8:0.727273 9:0.424242 10:1 11:0.13 12:0.5 13:0.01 14:0.1 
-1 1 1 0 0 0 1 0 0 1:0.89899 2:0.40404 3:1 4:0.828283 5:0.878788 6:0.646465 7:0.646465 8:0.686869 9:0.424242 10:1 11:0.22 12:0.66 13:0.05 14:0.14 
-0 0 1 0.57841238942392725 0 0 0 1 0 1:0.010101 2:0.818182 3:0.414141 4:1 5:1 6:0.969697 7:0.757576 8:0.727273 9:0.414141 10:0.525253 11:0.85 12:0.33 13:0.56 14:0.08 
-0 1 1 0 0 0 1 1 0 1:0.848485 2:0.343434 3:1 4:0.767677 5:0.909091 6:0.646465 7:0.646465 8:0.676768 9:0.393939 10:1 11:0.19 12:0.73 13:0.01 14:0.24 
-1 0 1 0 0 0 0 0 0 1:0.434343 2:0.858586 3:0.707071 4:1 5:1 6:0.878788 7:0.727273 8:0.686869 9:0.606061 10:0.505051 11:0.68 12:0.26 13:0.36 14:0.1 
-0 0 1 0 1 1 1 1 0 1:0.010101 2:0.545455 3:0.171717 4:0.858586 5:0.69697 6:1 7:0.979798 8:0.787879 9:0.747475 10:0.494949 11:1 12:0.15 13:0.52 14:0.15 
-0 1 1 0 0 0 1 0 0 1:0.111111 2:0.909091 3:0.545455 4:0.979798 5:1 6:1 7:1 8:0.828283 9:0.666667 10:0.636364 11:0.54 12:0.39 13:0.37 14:0.14 
-0 0 0 0 0 0 0 1 0 1:0.111111 2:0.79798 3:0.474747 4:1 5:0.828283 6:0.727273 7:0.212121 8:0.545455 9:0.707071 10:0.444444 11:1 12:0.15 13:0.4 14:0.17 
-1 0 0 0 0 0 0 0 0 1:0.282828 2:0.888889 3:0.838384 4:1 5:0.79798 6:0.727273 7:0.353535 8:0.494949 9:0.939394 10:0.373737 11:1 12:0.09 13:0.41 14:0.17 
