svm_type nu_svc
kernel_type sigmoid
gamma 0.125
coef0 0
nr_class 2
total_sv 238
rho -10.154312063240935
label 1 0
probA -0.68576470395619482
probB -0.18651306068591877
nr_sv 119 119
SV
159.45468544660949 1:0.0588235 2:0.603015 3:0.655738 4:0.888889 5:0.236407 6:0.579732 7:0.480178 8:0.333333 
159.45468544660949 1:0.411765 2:0.683417 3:0.737705 6:0.445604 7:0.0561247 8:0.483333 
159.45468544660949 1:0.705882 2:0.703518 3:0.696721 4:0.611111 6:0.557377 7:0.0712695 8:0.333333 
159.45468544660949 1:0.294118 2:0.643216 3:0.655738 6:0.515648 7:0.0267261 8:0.4 
159.45468544660949 1:0.117647 2:0.613065 3:0.491803 4:0.333333 5:0.125296 6:0.444113 7:0.28196 8:0.0166667 
159.45468544660949 1:0.705882 2:0.532663 3:0.655738 6:0.351714 7:0.023608 8:0.383333 
159.45468544660949 1:0.470588 2:0.603015 3:0.639344 6:0.372578 7:0.144766 8:0.716667 
159.45468544660949 1:0.411765 2:0.59799 6:0.375559 7:0.0556793 8:0.266667 
159.45468544660949 1:0.0588235 2:0.407035 3:0.606557 4:0.759259 5:0.0673759 6:0.690015 7:0.45078 8:0.183333 
159.45468544660949 1:0.352941 2:0.829146 3:0.557377 4:0.481481 5:0.198582 6:0.500745 7:0.243653 8:0.466667 
159.45468544660949 1:0.588235 2:0.668342 3:0.557377 6:0.402385 7:0.0717149 8:0.25 
159.45468544660949 1:0.705882 2:0.60804 3:0.639344 4:0.314815 6:0.394933 7:0.077951 8:0.683333 
159.45468544660949 1:0.0588235 2:0.768844 3:0.672131 4:0.777778 5:0.573286 6:0.605067 7:0.268597 8:0.0333333 
159.45468544660949 1:0.352941 2:0.723618 3:0.590164 4:0.5 5:0.269504 6:0.505216 7:0.0761693 8:0.316667 
159.45468544660949 1:0.235294 2:0.758794 3:0.737705 4:0.703704 6:0.442623 7:0.0935412 8:0.25 
159.45468544660949 1:0.117647 2:0.547739 3:0.754098 6:0.636364 7:0.338976 8:0.55 
159.45468544660949 1:0.352941 2:0.572864 3:0.721311 6:0.414307 7:0.0726058 8:0.75 
159.45468544660949 1:0.411765 2:0.899497 3:0.778689 4:0.574074 6:0.509687 7:0.0356347 8:0.65 
159.45468544660949 1:0.0588235 2:0.693467 3:0.672131 6:0.597615 7:0.067706 8:0.116667 
159.45468544660949 1:0.117647 2:0.788945 3:0.606557 4:0.648148 5:0.520095 6:0.587183 7:0.0222717 8:0.15 
159.45468544660949 2:0.59799 3:0.540984 4:0.5 6:0.578241 7:0.077951 8:0.0166667 
159.45468544660949 1:0.647059 2:0.517588 3:0.557377 4:0.740741 6:0.688525 7:0.0187082 8:0.35 
159.45468544660949 1:0.294118 2:0.738693 3:0.639344 6:0.502235 7:0.0596882 8:0.733333 
159.45468544660949 1:0.117647 2:0.41206 3:0.42623 4:0.407407 5:0.135934 6:0.424739 7:0.719376 8:0.0666667 
159.45468544660949 1:0.294118 2:0.778894 3:0.688525 4:0.814815 5:0.644208 6:0.576751 7:0.238307 8:0.216667 
159.45468544660949 1:0.235294 2:0.592965 3:0.57377 6:0.663189 7:0.365256 8:0.0833333 
159.45468544660949 1:0.235294 2:0.643216 3:0.57377 6:0.511177 7:0.0975501 8:0.05 
159.45468544660949 1:0.529412 2:0.61809 3:0.57377 4:0.814815 5:0.111111 6:0.493294 7:0.129176 8:0.316667 
159.45468544660949 1:0.0588235 2:0.572864 3:0.540984 4:0.666667 5:0.236407 6:0.567809 7:0.091314 
159.45468544660949 1:0.117647 2:0.59799 6:0.292101 7:0.333185 8:0.85 
159.45468544660949 1:0.117647 2:0.638191 3:0.377049 4:0.388889 5:0.395981 6:0.512668 7:0.04098 8:0.0166667 
159.45468544660949 1:0.117647 2:0.502513 3:0.57377 4:0.962963 5:0.0673759 6:0.603577 7:0.264143 8:0.0666667 
159.45468544660949 1:0.588235 2:0.577889 6:0.52608 7:0.0222717 8:0.133333 
159.45468544660949 1:0.235294 2:0.733668 3:0.696721 4:0.5 5:0.118203 6:0.4307 7:0.0467706 8:0.1 
159.45468544660949 1:0.529412 2:0.532663 3:0.42623 6:0.464978 7:0.131849 8:0.35 
159.45468544660949 1:0.117647 2:0.60804 3:0.57377 4:0.592593 5:0.112293 6:0.582712 7:0.357238 8:0.0333333 
159.45468544660949 1:0.764706 2:0.532663 3:0.57377 6:0.509687 7:0.0743875 8:0.516667 
159.45468544660949 1:0.235294 2:0.98995 3:0.57377 4:0.722222 5:0.879433 6:0.546945 7:1 8:0.166667 
159.45468544660949 1:0.470588 2:0.592965 3:0.590164 4:0.351852 6:0.344262 7:0.620045 8:0.416667 
159.45468544660949 1:0.0588235 2:0.396985 3:0.491803 4:0.777778 5:0.0567376 6:0.648286 7:0.264588 8:0.0333333 
159.45468544660949 1:0.411765 2:0.683417 3:0.606557 4:0.481481 5:0.159574 6:0.387481 7:0.25078 8:0.5 
159.45468544660949 2:0.58794 3:0.655738 4:0.574074 5:0.0626478 6:0.673621 7:0.00222717 8:0.05 
159.45468544660949 1:0.0588235 2:0.582915 3:0.639344 4:0.537037 5:0.212766 6:0.538003 7:0.183519 8:0.0666667 
159.45468544660949 1:0.470588 2:0.562814 3:0.590164 6:0.351714 7:0.336748 8:0.616667 
159.45468544660949 1:0.588235 2:0.648241 3:0.622951 4:0.518519 5:0.144208 6:0.535022 7:0.0873051 8:0.3 
159.45468544660949 1:0.117647 2:0.527638 3:0.47541 4:0.740741 5:0.111111 6:0.520119 7:0.0628062 8:0.0666667 
159.45468544660949 1:0.411765 2:0.798995 3:0.52459 6:0.408346 7:0.0935412 8:0.316667 
159.45468544660949 1:0.470588 2:0.974874 3:0.655738 6:0.388972 7:0.208018 8:0.766667 
159.45468544660949 1:0.117647 2:0.638191 3:0.47541 4:0.444444 5:0.325059 6:0.412817 7:0.675278 8:0.0666667 
159.45468544660949 1:0.588235 2:0.613065 3:0.557377 6:0.464978 7:0.0775056 8:0.333333 
159.45468544660949 1:0.0588235 2:0.698492 3:0.508197 4:0.759259 5:0.567376 6:0.606557 7:0.201336 
159.45468544660949 1:0.588235 2:0.899497 3:0.57377 6:0.5231 7:0.0516704 8:0.266667 
159.45468544660949 1:0.294118 2:0.497487 3:0.442623 4:0.518519 5:0.0981087 6:0.506706 7:0.184855 8:0.15 
159.45468544660949 1:0.352941 2:0.537688 3:0.721311 6:0.548435 7:0.286414 8:0.166667 
13.487574790895152 2:0.537688 3:0.622951 6:0.675112 7:0.268151 8:0.05 
159.45468544660949 1:0.0588235 2:0.60804 3:0.639344 4:0.722222 5:0.0874704 6:0.581222 7:0.0788419 8:0.116667 
159.45468544660949 1:0.0588235 2:0.733668 3:0.459016 6:0.442623 7:0.213808 8:0.133333 
159.45468544660949 1:0.176471 2:0.959799 3:0.557377 4:0.277778 5:0.153664 6:0.460507 7:0.0957684 8:0.216667 
159.45468544660949 1:0.529412 2:0.623116 3:0.57377 4:0.611111 5:0.475177 6:0.527571 7:0.088196 8:0.216667 
159.45468544660949 1:0.0588235 2:0.703518 3:0.606557 4:0.481481 5:0.212766 6:0.359165 7:0.331403 8:0.0333333 
159.45468544660949 1:0.470588 2:0.477387 3:0.590164 6:0.548435 7:0.178619 8:0.6 
159.45468544660949 1:0.0588235 2:0.633166 3:0.459016 4:0.537037 5:0.179669 6:0.42772 7:0.319376 
159.45468544660949 2:0.572864 3:0.655738 4:0.62963 5:0.336879 6:0.658718 7:0.036971 8:0.1 
159.45468544660949 1:0.0588235 2:0.653266 3:0.491803 4:0.425926 5:0.200946 6:0.42623 7:0.270824 
159.45468544660949 1:0.352941 2:0.542714 3:0.360656 4:0.37037 5:0.153664 6:0.357675 7:0.324722 8:0.233333 
159.45468544660949 1:0.352941 2:0.557789 3:0.52459 4:0.722222 6:0.509687 7:0.0783964 8:0.05 
159.45468544660949 2:0.708543 3:0.688525 4:0.481481 6:0.482861 7:0.155457 8:0.0166667 
159.45468544660949 1:0.294118 2:0.633166 3:0.639344 4:0.5 5:0.0260047 6:0.441133 7:0.158129 8:0.316667 
159.45468544660949 1:0.235294 2:0.723618 3:0.47541 4:0.518519 5:0.165485 6:0.439642 7:0.0904232 8:0.266667 
159.45468544660949 1:0.0588235 2:0.723618 3:0.672131 4:0.740741 6:0.615499 7:0.232962 8:0.116667 
159.45468544660949 1:0.117647 2:0.648241 6:0.573771 7:0.0979955 8:0.333333 
159.45468544660949 1:0.529412 2:0.673367 3:0.606557 4:0.611111 5:0.070922 6:0.385991 7:0.167483 8:1 
41.136596511953243 1:0.235294 2:0.663317 3:0.704918 4:0.574074 6:0.417288 7:0.14922 8:0.7 
159.45468544660949 1:0.0588235 2:0.683417 3:0.606557 4:0.925926 5:0.241135 6:0.557377 7:0.140312 8:0.05 
159.45468544660949 1:0.294118 2:0.613065 3:0.704918 6:0.517139 7:0.0917595 8:0.2 
159.45468544660949 1:0.294118 2:0.698492 3:0.52459 4:0.648148 5:0.165485 6:0.42623 7:0.145657 8:0.0833333 
159.45468544660949 1:0.588235 2:0.577889 3:0.803279 6:0.357675 7:0.417817 8:0.216667 
159.45468544660949 1:0.529412 2:0.603015 3:0.590164 4:0.407407 5:0.0661939 6:0.309985 7:0.289087 8:0.45 
159.45468544660949 1:0.411765 2:0.668342 3:0.721311 4:0.277778 5:0.183215 6:0.482861 7:0.0792873 8:0.266667 
159.45468544660949 2:0.512563 3:0.52459 4:0.851852 5:0.0921986 6:0.605067 7:0.183519 
159.45468544660949 1:0.352941 2:0.628141 3:0.557377 4:0.555556 5:0.141844 6:0.447094 7:0.169265 8:0.183333 
159.45468544660949 2:0.527638 3:0.52459 4:0.759259 5:0.167849 6:0.61848 7:0.0396437 8:0.0166667 
159.45468544660949 1:0.294118 2:0.547739 3:0.614754 4:0.481481 6:0.536513 7:0.205791 8:0.65 
159.45468544660949 1:0.294118 2:0.61809 3:0.606557 4:0.740741 5:0.0910165 6:0.508197 7:0.0824053 8:0.116667 
159.45468544660949 1:0.0588235 2:0.542714 3:0.491803 4:0.851852 5:0.210402 6:0.529061 7:0.147439 8:0.05 
159.45468544660949 1:0.117647 2:0.613065 3:0.42623 4:0.796296 5:0.186761 6:0.539493 7:0.326058 8:0.116667 
134.20438236827567 1:0.0588235 2:0.788945 3:0.590164 4:0.388889 5:0.198582 6:0.38152 7:0.0173719 8:0.05 
159.45468544660949 1:0.117647 2:0.532663 3:0.52459 4:0.648148 5:0.140662 6:0.454545 7:0.586192 8:0.216667 
159.45468544660949 1:0.235294 2:0.773869 3:0.590164 4:0.537037 5:0.148936 6:0.466468 7:0.11314 8:0.266667 
159.45468544660949 1:0.117647 2:0.603015 3:0.622951 4:0.685185 5:0.124113 6:0.591654 7:0.0583519 8:0.133333 
159.45468544660949 1:0.294118 2:0.663317 3:0.655738 6:0.399404 7:0.0454343 8:0.8 
159.45468544660949 1:0.176471 2:0.61809 3:0.819672 4:0.648148 5:0.283688 6:0.853949 7:0.354566 8:0.0166667 
159.45468544660949 1:0.0588235 2:0.824121 3:0.672131 4:0.796296 5:0.0791962 6:0.488823 7:0.114477 8:0.483333 
159.45468544660949 1:0.235294 2:0.688442 3:0.688525 6:0.464978 7:0.074833 8:0.15 
159.45468544660949 1:0.176471 2:0.904523 3:0.52459 4:0.462963 5:0.0827423 6:0.506706 7:0.0832962 8:0.0833333 
159.45468544660949 1:0.411765 2:0.753769 3:0.540984 4:0.777778 5:0.404255 6:0.517139 7:0.282405 8:0.35 
159.45468544660949 1:0.235294 2:0.613065 3:0.557377 6:0.52161 7:0.138085 8:0.133333 
159.45468544660949 2:0.738693 3:0.696721 4:1 6:0.637854 7:0.129621 8:0.05 
159.45468544660949 1:0.0588235 2:0.718593 3:0.704918 4:0.555556 5:0.390071 6:0.448584 7:0.359911 8:0.0333333 
159.45468544660949 2:0.678392 3:0.770492 4:0.851852 5:0.171395 6:0.605067 7:0.0890869 8:0.0833333 
159.45468544660949 1:0.294118 2:0.79397 3:0.57377 6:0.444113 7:0.0547884 8:0.7 
159.45468544660949 1:0.176471 2:0.603015 3:0.57377 4:0.555556 5:0.159574 6:0.639344 7:0.16392 8:0.15 
159.45468544660949 1:0.470588 2:0.552764 3:0.622951 6:0.414307 7:0.0681514 8:0.616667 
159.45468544660949 1:0.176471 2:0.79397 3:0.52459 4:0.240741 5:0.457447 6:0.464978 7:0.0939866 8:0.05 
159.45468544660949 1:0.352941 2:0.919598 3:0.770492 6:0.608048 7:0.613363 8:0.4 
159.45468544660949 1:0.0588235 2:0.698492 3:0.377049 4:0.351852 5:0.0981087 6:0.42772 7:0.253898 8:0.0166667 
75.937715971023252 1:0.647059 2:0.427136 3:0.606557 6:0.448584 7:0.0962138 8:0.233333 
159.45468544660949 1:0.352941 2:0.758794 3:0.508197 4:0.574074 5:0.141844 6:0.529061 7:0.270824 8:0.116667 
159.45468544660949 1:0.235294 2:0.773869 3:0.508197 4:0.574074 5:0.335697 6:0.488823 7:0.0681514 8:0.0333333 
159.45468544660949 1:0.352941 2:0.527638 3:0.655738 4:0.518519 6:0.484352 7:0.353675 8:0.0833333 
159.45468544660949 1:0.647059 2:0.638191 3:0.868852 6:0.581222 7:0.047216 8:0.5 
44.037542215184338 1:0.235294 2:0.58794 3:0.52459 4:0.5 5:0.141844 6:0.494784 7:0.0650334 8:0.05 
159.45468544660949 1:0.411765 2:0.713568 3:0.491803 4:0.611111 5:0.224586 6:0.42921 7:0.268597 8:0.666667 
159.45468544660949 1:0.235294 2:0.738693 3:0.606557 4:0.462963 5:0.346336 6:0.520119 7:0.134076 8:0.15 
159.45468544660949 1:0.470588 2:0.502513 3:0.622951 6:0.576751 7:0.047216 8:0.35 
159.45468544660949 2:0.58794 6:0.503726 7:0.377728 8:0.383333 
10.105559035887296 1:0.235294 2:0.648241 3:0.704918 4:0.37037 5:0.319149 6:0.5231 7:0.0654788 8:0.0333333 
159.45468544660949 1:0.588235 2:0.472362 3:0.590164 4:0.333333 6:0.344262 7:0.227617 8:0.583333 
159.45468544660949 1:0.117647 2:0.713568 3:0.672131 4:0.333333 5:0.0756501 6:0.368107 7:0.301559 
-159.45468544660949 1:0.0588235 2:0.567839 3:0.52459 4:0.648148 6:0.500745 7:0.204454 
-159.45468544660949 1:0.705882 2:0.758794 3:0.57377 4:0.740741 5:0.320331 6:0.622951 7:0.293096 8:0.283333 
-35.88976244200942 1:0.0588235 2:0.738693 3:0.770492 4:0.759259 6:0.734724 7:0.122049 8:0.1 
-159.45468544660949 1:0.352941 2:0.628141 3:0.639344 4:0.574074 6:0.411326 7:0.214254 8:0.466667 
-159.45468544660949 2:0.527638 3:0.688525 6:0.415797 7:0.29265 8:0.683333 
-159.45468544660949 1:0.0588235 2:0.869347 3:0.606557 6:0.548435 7:0.00178174 8:0.283333 
-159.45468544660949 1:0.176471 2:0.60804 3:0.42623 6:0.536513 7:0.0191537 8:0.0666667 
-159.45468544660949 1:0.882353 2:0.683417 3:0.57377 4:0.592593 5:0.130024 6:0.552906 7:0.030735 8:0.366667 
-159.45468544660949 1:0.235294 2:0.663317 6:0.490313 7:0.0971047 8:0.0333333 
-63.899039917976125 1:0.117647 2:0.643216 3:0.639344 4:0.685185 5:0.21513 6:0.645306 7:0.507795 8:0.166667 
-159.45468544660949 1:0.470588 2:0.623116 3:0.622951 4:0.444444 5:0.70922 6:0.42772 7:0.268597 8:0.516667 
-159.45468544660949 1:0.470588 2:0.603015 6:0.447094 7:0.044098 8:0.283333 
-159.45468544660949 1:0.235294 2:0.728643 3:0.672131 4:0.333333 6:0.484352 7:0.0672606 8:0.816667 
-159.45468544660949 1:0.411765 2:0.502513 6:0.447094 7:0.178174 8:0.183333 
-159.45468544660949 1:0.117647 2:0.778894 3:0.42623 4:0.5 5:0.638298 6:0.576751 7:0.0694878 8:0.0666667 
-159.45468544660949 1:0.352941 2:0.512563 3:0.672131 6:0.459016 7:0.0427617 8:0.25 
-159.45468544660949 1:0.411765 2:0.572864 3:0.52459 6:0.408346 7:0.288641 8:0.216667 
-159.45468544660949 1:0.0588235 2:0.949749 3:0.491803 4:0.425926 5:1 6:0.448584 7:0.139866 8:0.633333 
-159.45468544660949 1:0.235294 2:0.723618 3:0.672131 4:0.592593 6:0.573771 7:0.209354 8:0.266667 
-159.45468544660949 1:0.294118 2:0.623116 3:0.606557 6:0.506706 7:0.0605791 8:0.283333 
-159.45468544660949 1:0.411765 2:0.713568 3:0.737705 4:0.444444 5:0.567376 6:0.453055 7:0.0195991 8:0.366667 
-159.45468544660949 1:0.352941 2:0.59799 3:0.409836 4:0.407407 5:0.208038 6:0.403875 7:0.549666 8:0.2 
-159.45468544660949 1:0.176471 2:0.698492 3:0.442623 6:0.38152 7:0.141648 8:0.0166667 
-127.87994493328823 1:0.235294 2:0.79397 3:0.639344 6:0.490313 7:0.320267 8:0.166667 
-159.45468544660949 2:0.477387 3:0.696721 4:0.462963 5:0.0425532 6:0.557377 7:0.0726058 8:0.05 
-21.135681814315767 2:0.758794 3:0.737705 4:0.851852 6:0.627422 7:0.12784 
-159.45468544660949 2:0.592965 3:0.688525 4:0.87037 5:0.271868 6:0.682563 7:0.208018 8:0.166667 
-159.45468544660949 1:0.235294 2:0.683417 3:0.57377 6:0.464978 7:0.489087 8:0.0166667 
-159.45468544660949 1:0.294118 2:0.834171 3:0.590164 4:0.351852 5:0.206856 6:0.384501 7:0.224053 8:0.5 
-159.45468544660949 1:0.352941 3:0.557377 4:0.759259 6:0.581222 7:0.286414 8:0.333333 
-149.46845311500005 1:0.0588235 2:0.909548 3:0.52459 4:0.555556 5:0.212766 6:0.508197 7:0.108686 8:0.283333 
-159.45468544660949 1:0.294118 2:0.79397 3:0.688525 4:0.759259 5:0.248227 6:0.587183 7:0.13853 8:0.133333 
-159.45468544660949 2:0.547739 3:0.721311 4:0.555556 6:0.484352 7:0.34343 8:0.283333 
-159.45468544660949 1:0.647059 2:0.693467 3:0.606557 4:0.481481 5:0.170213 6:0.538003 7:0.21069 8:0.483333 
-159.45468544660949 1:0.294118 3:0.655738 4:0.592593 6:0.611028 7:0.116704 8:0.266667 
-159.45468544660949 1:0.117647 2:0.98995 3:0.57377 4:0.833333 5:0.641844 6:0.454545 7:0.0329621 8:0.533333 
-159.45468544660949 1:0.176471 2:0.79397 3:0.622951 4:0.666667 5:0.289598 6:0.470939 7:0.341648 8:0.116667 
-159.45468544660949 1:0.0588235 2:0.839196 3:0.606557 4:0.314815 5:0.170213 6:0.348733 7:0.161693 8:0.2 
-159.45468544660949 2:0.658291 3:0.721311 6:0.470939 7:0.293541 8:0.183333 
-159.45468544660949 1:0.117647 2:0.452261 3:0.557377 4:0.777778 6:0.5693 7:0.186637 8:0.1 
-159.45468544660949 1:0.764706 2:0.763819 3:0.737705 4:0.611111 5:0.034279 6:0.399404 7:0.288196 8:0.366667 
-159.45468544660949 2:0.678392 3:0.557377 4:0.777778 5:0.295508 6:0.630402 7:0.125167 8:0.05 
-159.45468544660949 1:0.235294 2:0.61809 3:0.508197 6:0.4769 7:0.0632517 8:0.233333 
-159.45468544660949 1:0.529412 2:0.728643 3:0.655738 4:0.851852 5:0.153664 6:0.564829 7:0.246325 8:0.316667 
-159.45468544660949 1:0.0588235 2:0.643216 3:0.803279 4:0.759259 5:0.0685579 6:0.4769 7:0.551002 8:0.2 
-159.45468544660949 1:0.529412 2:0.763819 3:0.639344 4:0.62963 5:0.202128 6:0.509687 7:0.360356 8:0.2 
-159.45468544660949 1:0.235294 2:0.58794 3:0.508197 4:0.222222 6:0.442623 7:0.131849 8:0.15 
-159.45468544660949 1:0.764706 2:0.522613 3:0.590164 6:0.464978 7:0.16971 8:0.283333 
-159.45468544660949 1:0.235294 2:0.547739 3:0.52459 4:0.814815 5:0.117021 6:0.518629 7:0.365702 8:0.0833333 
-159.45468544660949 1:0.0588235 2:0.58794 3:0.721311 4:0.444444 5:0.171395 6:0.514158 7:0.142094 8:0.316667 
-159.45468544660949 1:0.470588 2:0.668342 3:0.590164 6:0.490313 7:0.0828508 8:0.3 
-159.45468544660949 1:0.470588 2:0.547739 3:0.622951 4:0.722222 5:0.134752 6:0.415797 7:0.247661 8:0.166667 
-159.45468544660949 2:0.904523 3:0.737705 4:0.481481 5:0.106383 6:0.543964 7:0.10245 8:0.233333 
-159.45468544660949 1:0.235294 2:0.557789 3:0.590164 4:0.87037 5:0.244681 6:0.552906 7:0.581737 8:0.583333 
-159.45468544660949 1:0.294118 2:0.723618 3:0.672131 4:0.481481 5:0.336879 6:0.4769 7:0.16392 8:0.616667 
-159.45468544660949 1:0.529412 2:0.728643 3:0.721311 4:0.62963 5:0.195035 6:0.451565 7:0.306013 8:0.533333 
-159.45468544660949 1:0.117647 2:0.733668 6:0.409836 7:0.0694878 8:0.116667 
-159.45468544660949 2:0.693467 3:0.491803 4:0.648148 5:0.1974 6:0.515648 7:0.200445 
-159.45468544660949 2:0.658291 3:0.540984 4:0.740741 6:0.511177 7:0.0498886 8:0.0166667 
-159.45468544660949 1:0.588235 2:0.809045 3:0.557377 4:0.425926 5:0.156028 6:0.38003 7:0.107795 8:0.433333 
-159.45468544660949 1:0.294118 2:0.582915 3:0.606557 4:0.537037 6:0.481371 7:0.25657 8:0.233333 
-159.45468544660949 1:0.176471 2:0.708543 6:0.447094 7:0.301559 8:0.1 
-159.45468544660949 1:0.235294 2:0.628141 3:0.655738 6:0.481371 7:0.201336 8:0.1 
-159.45468544660949 2:0.708543 6:0.631893 7:0.0538976 8:0.133333 
-159.45468544660949 1:0.117647 2:0.623116 3:0.557377 4:0.518519 5:0.242317 6:0.490313 7:0.352339 8:0.15 
-159.45468544660949 1:0.0588235 2:0.613065 3:0.737705 4:0.944444 5:0.260047 6:0.740686 7:0.10735 8:0.166667 
-159.45468544660949 1:0.176471 2:0.648241 3:0.52459 4:0.537037 5:0.135934 6:0.393443 7:0.0601336 8:0.116667 
-159.45468544660949 1:0.117647 2:0.542714 3:0.655738 6:0.402385 7:0.077951 8:0.516667 
-159.45468544660949 1:0.705882 2:0.703518 3:0.672131 4:0.796296 5:0.384161 6:0.584203 7:0.197773 8:0.616667 
-159.45468544660949 2:0.658291 6:0.643815 7:0.0828508 8:0.0833333 
-159.45468544660949 1:1 2:0.819095 3:0.590164 4:0.759259 5:0.134752 6:0.609538 7:0.326503 8:0.433333 
-159.45468544660949 1:0.0588235 2:0.633166 3:0.491803 6:0.448584 7:0.11804 8:0.433333 
-159.45468544660949 2:0.537688 3:0.508197 4:0.555556 5:0.0874704 6:0.545455 7:0.299777 8:0.0666667 
-159.45468544660949 1:0.294118 2:0.562814 3:0.540984 6:0.563338 7:0.0788419 8:0.333333 
-100.28252063724516 1:0.411765 2:0.80402 3:0.442623 4:0.592593 5:0.206856 6:0.454545 7:0.224499 8:0.3 
-159.45468544660949 1:0.176471 2:0.849246 3:0.606557 4:0.351852 5:0.147754 6:0.445604 7:0.0819599 8:0.166667 
-159.45468544660949 1:0.176471 2:0.40201 3:0.672131 4:0.574074 5:0.0827423 6:0.509687 7:0.538085 8:0.1 
-159.45468544660949 1:0.235294 2:0.713568 3:0.704918 6:0.655738 7:0.249889 8:0.0166667 
-159.45468544660949 1:0.294118 2:0.688442 3:0.885246 6:0.727273 7:0.0636971 8:0.266667 
-140.91395289996069 1:0.176471 2:0.914573 3:0.606557 6:0.454545 7:0.116258 8:0.133333 
-159.45468544660949 1:0.470588 2:0.839196 3:0.868852 4:0.851852 5:0.27305 6:0.560358 7:0.0360802 8:0.366667 
-159.45468544660949 2:0.733668 3:0.57377 6:0.564829 7:0.111359 8:0.116667 
-159.45468544660949 1:0.470588 2:0.778894 3:0.508197 4:0.481481 5:0.585106 6:0.506706 7:0.204454 8:0.416667 
-159.45468544660949 1:0.235294 2:0.477387 3:0.52459 6:0.4769 7:0.0342984 8:0.166667 
-159.45468544660949 1:0.176471 2:0.819095 3:0.57377 4:0.333333 5:0.124113 6:0.470939 7:0.0819599 8:0.116667 
-159.45468544660949 1:0.294118 2:0.487437 3:0.622951 4:0.5 6:0.530551 7:0.130958 8:0.516667 
-159.45468544660949 1:0.411765 2:0.537688 3:0.606557 6:0.441133 7:0.0757238 8:0.166667 
-159.45468544660949 1:0.117647 2:0.527638 3:0.655738 4:0.833333 5:0.225768 6:0.502235 7:0.279287 8:0.133333 
-159.45468544660949 2:0.703518 3:0.532787 4:0.481481 5:0.153664 6:0.634873 7:0.154566 8:0.05 
-159.45468544660949 1:0.176471 2:0.653266 3:0.639344 4:0.425926 5:0.0933806 6:0.423249 7:0.106459 8:0.216667 
-154.65483163372153 1:0.294118 2:0.653266 3:0.672131 6:0.582712 7:0.388419 8:0.266667 
-159.45468544660949 1:0.0588235 2:0.668342 3:0.836066 4:0.518519 5:0.165485 6:0.488823 7:0.0668151 8:0.4 
-159.45468544660949 1:0.588235 2:0.628141 3:0.57377 4:0.481481 5:0.135934 6:0.463487 7:0.0538976 8:0.333333 
-159.45468544660949 1:0.294118 2:0.547739 3:0.508197 4:0.759259 5:0.152482 6:0.533532 7:0.191537 8:0.0666667 
-159.45468544660949 1:0.352941 2:0.628141 3:0.622951 6:0.503726 7:0.0164811 8:0.55 
-159.45468544660949 1:0.411765 2:0.532663 3:0.491803 4:0.444444 6:0.394933 7:0.0944321 8:0.133333 
-159.45468544660949 1:0.588235 2:0.507538 3:0.704918 4:0.685185 6:0.679583 7:0.468597 8:0.283333 
-159.45468544660949 1:0.411765 2:0.547739 3:0.655738 4:0.574074 6:0.535022 7:0.464588 8:0.366667 
-159.45468544660949 1:0.411765 2:0.979899 3:0.57377 4:0.611111 5:0.171395 6:0.374069 7:0.0351893 8:0.566667 
-159.45468544660949 1:0.0588235 2:0.628141 3:0.409836 4:0.740741 5:0.1974 6:0.496274 7:0.391091 8:0.116667 
-159.45468544660949 1:0.588235 2:0.557789 3:0.57377 4:0.5 6:0.409836 7:0.0253898 8:0.316667 
-159.45468544660949 1:0.235294 2:0.577889 3:0.590164 6:0.4307 7:0.130067 8:0.416667 
-159.45468544660949 1:0.705882 2:0.422111 3:0.590164 4:0.574074 6:0.442623 7:0.0948775 8:0.416667 
-159.45468544660949 2:0.949749 3:0.852459 4:0.462963 6:0.511177 7:0.156347 8:0.333333 
-159.45468544660949 1:0.0588235 2:0.577889 3:0.57377 4:0.555556 5:0.113475 6:0.515648 7:0.198218 8:0.183333 
-159.45468544660949 1:0.411765 2:0.517588 3:0.540984 4:0.592593 6:0.582712 7:0.115813 8:0.166667 
-159.45468544660949 1:0.0588235 2:0.477387 3:0.672131 4:0.462963 5:0.212766 6:0.52161 7:0.0663697 8:0.366667 
-159.45468544660949 2:0.693467 6:0.540984 7:0.378174 8:0.0666667 
-159.45468544660949 1:0.470588 2:0.542714 3:0.57377 6:0.454545 7:0.387973 8:0.2 
-159.45468544660949 1:0.470588 2:0.603015 3:0.704918 6:0.423249 7:0.077951 8:0.0166667 
-159.45468544660949 1:0.235294 2:0.869347 3:0.57377 4:0.259259 5:0.198582 6:0.442623 7:0.123385 8:0.2 
-3.1492398395304626 1:0.411765 2:0.763819 3:0.721311 4:0.814815 6:0.745157 7:0.112695 8:0.25 
-159.45468544660949 1:0.470588 2:0.934673 3:0.737705 4:0.648148 5:0.265957 6:0.514158 7:0.151002 8:0.266667 
-159.45468544660949 1:0.294118 2:0.683417 3:0.688525 4:0.759259 5:0.104019 6:0.52161 7:0.0899777 8:0.233333 
-159.45468544660949 1:0.294118 2:0.698492 3:0.655738 4:0.648148 5:0.189125 6:0.470939 7:0.123385 8:0.0666667 
-159.45468544660949 1:0.352941 2:0.673367 3:0.655738 4:0.685185 5:0.437352 6:0.688525 7:0.0685969 8:0.416667 
-159.45468544660949 1:0.352941 2:0.743719 3:0.590164 4:0.648148 6:0.500745 7:0.241871 8:0.483333 
-159.45468544660949 2:0.643216 3:0.557377 4:0.351852 5:0.212766 6:0.454545 7:0.582183 8:0.0666667 
-159.45468544660949 1:0.529412 2:0.562814 3:0.672131 4:0.444444 6:0.420268 7:0.53363 8:0.483333 
