svm_type c_svc
kernel_type rbf
gamma 0.125
nr_class 2
total_sv 214
rho -0.17170756628220585
label 0 1
probA -2.8731406739320011
probB -1.3438414949205502
nr_sv 107 107
SV
1 2:0.994975 3:0.6 4:0.507937 5:0.36828 6:0.615499 7:0.181042 8:0.116667 
1 1:0.117647 2:0.673367 3:0.636364 6:0.4307 7:0.198121 8:0.0333333 
1 1:0.176471 2:0.562814 3:0.672727 4:0.47619 6:0.470939 7:0.0508113 8:0.0666667 
1 1:0.411765 2:0.532663 3:0.545455 4:0.380952 6:0.394933 7:0.0930828 8:0.133333 
1 1:0.470588 2:0.909548 3:0.618182 4:0.571429 5:0.665323 6:0.448584 7:0.229291 8:0.65 
1 1:0.294118 2:0.79397 3:0.763636 4:0.650794 5:0.282258 6:0.587183 7:0.135354 8:0.133333 
1 1:0.235294 2:0.728643 3:0.745455 4:0.285714 6:0.484352 7:0.0670367 8:0.816667 
1 1:0.470588 2:0.603015 6:0.447094 7:0.0448335 8:0.283333 
1 1:0.176471 2:0.648241 3:0.581818 4:0.460317 5:0.15457 6:0.393443 7:0.060205 8:0.116667 
1 1:0.294118 2:0.949749 3:0.581818 4:0.52381 5:0.436828 6:0.464978 7:0.215628 8:0.133333 
1 1:0.117647 2:0.467337 3:0.581818 4:0.507937 5:0.215054 6:0.566319 7:0.254483 8:0.0333333 
1 1:0.176471 2:0.869347 3:0.763636 4:0.52381 5:0.637097 6:0.532042 7:0.0768574 8:0.0166667 
1 2:0.708543 6:0.631893 7:0.0542272 8:0.133333 
1 1:0.529412 2:0.512563 3:0.690909 4:0.587302 6:0.490313 7:0.25064 8:0.416667 
1 1:0.411765 2:0.547739 3:0.727273 4:0.492063 6:0.535022 7:0.447908 8:0.366667 
1 1:0.352941 2:0.673367 3:0.727273 4:0.587302 5:0.497312 6:0.688525 7:0.0683177 8:0.416667 
1 1:0.529412 2:0.859296 3:1 4:0.380952 5:0.322581 6:0.676602 7:0.274552 8:0.55 
1 1:0.235294 2:0.673367 3:0.654545 6:0.354694 7:0.0849701 8:0.65 
1 1:0.0588235 2:0.904523 6:0.645306 7:0.087105 8:0.333333 
1 1:0.411765 2:0.738693 3:0.690909 6:0.587183 7:0.0764304 8:0.366667 
1 1:0.176471 2:0.708543 6:0.447094 7:0.291631 8:0.1 
1 1:0.117647 2:0.643216 3:0.709091 4:0.587302 5:0.244624 6:0.645306 7:0.489325 8:0.166667 
1 1:0.411765 2:0.974874 3:0.618182 4:0.444444 6:0.535022 7:0.284799 8:0.333333 
1 1:0.176471 2:0.663317 3:0.727273 6:0.512668 7:0.138343 8:0.383333 
1 1:0.352941 2:0.673367 3:0.636364 4:0.365079 5:0.174731 6:0.527571 7:0.198121 8:0.133333 
1 1:0.588235 2:0.577889 7:0.0781383 8:0.15 
1 1:0.529412 2:0.824121 3:0.763636 4:0.333333 6:0.459016 7:0.32152 8:0.183333 
1 1:0.117647 2:0.623116 3:0.618182 4:0.444444 5:0.275538 6:0.490313 7:0.340307 8:0.15 
1 1:0.647059 2:0.683417 3:0.763636 4:0.555556 5:0.174731 6:0.421759 7:0.0777114 8:0.35 
1 1:0.294118 2:0.939698 3:0.690909 4:0.428571 5:0.278226 6:0.649776 7:0.408198 8:0.533333 
1 1:0.352941 2:0.979899 3:0.636364 6:0.460507 7:0.106746 8:0.166667 
1 1:0.529412 2:0.78392 3:0.781818 4:0.444444 5:0.208333 6:0.511177 7:0.474381 8:0.35 
1 1:0.529412 2:0.562814 3:0.745455 4:0.507937 5:0.235215 6:0.509687 7:0.0777114 8:0.25 
1 1:0.117647 2:0.98995 3:0.636364 4:0.714286 5:0.729839 6:0.454545 7:0.0341588 8:0.533333 
1 2:0.522613 3:0.581818 4:0.587302 5:0.0860215 6:0.500745 7:0.184458 8:0.0166667 
1 1:0.764706 2:0.633166 3:0.818182 6:0.646796 7:0.215628 8:0.35 
1 1:0.294118 2:0.577889 3:0.890909 6:0.788376 7:0.0559351 8:0.116667 
1 1:0.176471 2:0.819095 3:0.636364 4:0.285714 5:0.141129 6:0.470939 7:0.0811272 8:0.116667 
0.93522007387130068 2:0.904523 3:0.709091 4:1 5:0.0188172 6:0.885246 7:1 8:0.0666667 
1 2:0.839196 6:0.481371 7:0.324936 8:0.15 
1 1:0.235294 2:0.547739 3:0.581818 4:0.698413 5:0.133065 6:0.518629 7:0.353117 8:0.0833333 
1 1:0.529412 2:0.728643 3:0.727273 4:0.730159 5:0.174731 6:0.564829 7:0.238685 8:0.316667 
1 1:0.235294 2:0.869347 3:0.636364 4:0.222222 5:0.225806 6:0.442623 7:0.120837 8:0.2 
1 1:0.470588 2:0.934673 3:0.818182 4:0.555556 5:0.302419 6:0.514158 7:0.14731 8:0.266667 
1 1:0.0588235 2:0.844221 3:0.8 4:0.460317 6:0.52161 7:0.353117 8:0.516667 
1 1:0.176471 2:0.859296 3:0.654545 4:0.52381 5:0.181452 6:0.496274 7:0.0516652 8:0.05 
1 1:0.0588235 2:0.643216 3:0.890909 4:0.650794 5:0.077957 6:0.4769 7:0.530743 8:0.2 
1 1:0.176471 2:0.869347 3:0.709091 4:0.619048 5:0.248656 6:0.503726 7:0.380871 8:0.166667 
1 2:0.899497 3:0.454545 4:0.571429 5:0.21371 6:0.563338 7:0.160974 8:0.0166667 
1 1:0.235294 2:0.477387 3:0.581818 6:0.4769 7:0.0354398 8:0.166667 
1 1:0.0588235 2:0.577889 3:0.636364 4:0.47619 5:0.129032 6:0.515648 7:0.19257 8:0.183333 
1 1:0.176471 2:0.79397 3:0.636364 4:0.47619 5:0.44086 6:0.529061 7:0.113578 8:0.233333 
1 2:0.81407 3:0.690909 4:0.888889 5:0.134409 6:0.792847 7:0.290777 8:0.0666667 
1 1:1 2:0.819095 3:0.654545 4:0.650794 5:0.153226 6:0.609538 7:0.315542 8:0.433333 
1 1:0.117647 2:0.733668 6:0.409836 7:0.0691716 8:0.116667 
1 1:0.470588 2:0.542714 3:0.636364 6:0.454545 7:0.374466 8:0.2 
1 1:0.294118 2:0.427136 3:0.672727 4:0.349206 6:0.432191 7:0.489325 8:0.183333 
1 1:0.352941 2:0.954774 3:0.836364 6:0.529061 7:0.0853971 8:0.75 
1 1:0.411765 2:0.894472 3:0.763636 6:0.594635 7:0.108027 8:0.333333 
1 1:0.0588235 2:0.613065 3:0.581818 4:0.507937 5:0.209677 6:0.5231 7:0.262169 8:0.15 
1 1:0.588235 2:0.507538 3:0.781818 4:0.587302 6:0.679583 7:0.451751 8:0.283333 
1 1:0.235294 2:0.61809 3:0.563636 6:0.4769 7:0.0631939 8:0.233333 
1 1:0.470588 2:0.984925 3:0.690909 4:0.460317 5:0.376344 6:0.558867 7:0.225021 8:0.6 
1 2:0.648241 3:1 4:0.730159 5:0.174731 6:1 7:0.102904 8:0.0833333 
1 1:0.235294 2:0.628141 3:0.727273 6:0.481371 7:0.195559 8:0.1 
1 1:0.352941 2:0.577889 3:0.545455 4:0.619048 6:0.502235 7:0.0713066 8:0.316667 
1 1:0.294118 2:0.582915 3:0.672727 4:0.460317 6:0.481371 7:0.248506 8:0.233333 
1 1:0.647059 2:0.603015 3:0.727273 4:0.587302 5:0.201613 6:0.630402 7:0.301879 8:0.45 
1 1:0.470588 2:0.547739 3:0.690909 4:0.619048 5:0.153226 6:0.415797 7:0.239966 8:0.166667 
1 2:0.643216 3:0.618182 4:0.301587 5:0.241935 6:0.454545 7:0.560632 8:0.0666667 
1 2:0.693467 6:0.540984 7:0.365073 8:0.0666667 
1 2:0.909548 3:0.8 4:0.698413 5:0.685484 6:0.645306 7:0.0614859 8:0.0833333 
1 1:0.470588 2:0.919598 3:0.581818 6:0.347243 7:0.253629 8:0.183333 
1 1:0.117647 2:0.778894 3:0.472727 4:0.428571 5:0.725806 6:0.576751 7:0.0691716 8:0.0666667 
1 1:0.647059 2:0.678392 6:0.779434 7:0.213493 8:0.316667 
1 2:0.527638 3:0.763636 6:0.415797 7:0.283091 8:0.683333 
1 1:0.411765 2:0.844221 3:0.8 4:0.666667 5:0.431452 6:0.5693 7:0.302733 8:0.316667 
1 1:0.0588235 2:0.984925 3:0.690909 4:0.571429 5:0.334677 6:0.543964 7:0.340307 8:0.133333 
1 1:0.235294 2:0.713568 3:0.781818 6:0.655738 7:0.242101 8:0.0166667 
1 1:0.176471 2:0.914573 3:0.672727 6:0.454545 7:0.114005 8:0.133333 
1 1:0.0588235 2:0.869347 3:0.672727 6:0.548435 7:0.00426985 8:0.283333 
1 1:0.529412 2:0.763819 3:0.709091 4:0.539683 5:0.229839 6:0.509687 7:0.347993 8:0.2 
1 1:0.176471 2:0.874372 3:0.527273 4:0.349206 5:0.260753 6:0.490313 7:0.219898 8:0.25 
1 2:0.678392 3:0.618182 4:0.666667 5:0.336022 6:0.630402 7:0.122545 8:0.05 
1 1:0.411765 2:0.753769 3:0.709091 4:0.460317 5:0.169355 6:0.52459 7:0.262169 8:0.55 
1 1:0.411765 2:0.572864 3:0.6 6:0.488823 7:0.0768574 8:0.35 
1 1:0.823529 2:0.502513 3:0.709091 4:0.396825 5:0.247312 6:0.545455 7:0.142613 8:0.416667 
1 1:0.470588 2:0.98995 3:0.672727 6:0.385991 7:0.475235 8:0.3 
1 1:0.235294 2:0.733668 3:0.709091 6:0.573771 7:0.188728 8:0.766667 
1 1:0.294118 2:0.623116 3:0.672727 6:0.506706 7:0.0606319 8:0.283333 
1 1:0.294118 2:0.653266 3:0.745455 6:0.582712 7:0.374893 8:0.266667 
1 1:0.352941 3:0.618182 4:0.650794 6:0.581222 7:0.277114 8:0.333333 
1 1:0.235294 2:0.58794 3:0.563636 4:0.190476 6:0.442623 7:0.12895 8:0.15 
1 1:0.529412 2:0.728643 3:0.8 4:0.539683 5:0.221774 6:0.451565 7:0.295901 8:0.533333 
1 1:0.235294 2:0.743719 3:0.545455 4:0.428571 5:0.427419 6:0.460507 7:0.030743 8:0.133333 
1 1:0.588235 2:0.844221 3:0.672727 6:0.566319 7:0.195986 8:0.216667 
1 2:0.889447 3:0.545455 4:0.460317 5:0.642473 6:0.515648 7:0.424424 
1 2:0.81407 3:0.690909 4:0.571429 6:0.739195 7:0.122118 8:0.0833333 
1 1:0.470588 2:0.623116 3:0.690909 4:0.380952 5:0.806452 6:0.42772 7:0.260034 8:0.516667 
1 1:0.705882 2:0.703518 3:0.745455 4:0.68254 5:0.436828 6:0.584203 7:0.192143 8:0.616667 
1 1:0.764706 2:0.763819 3:0.818182 4:0.52381 5:0.0389785 6:0.399404 7:0.278822 8:0.366667 
1 2:0.949749 3:0.945455 4:0.396825 6:0.511177 7:0.152434 8:0.333333 
1 1:0.470588 2:0.773869 3:0.709091 4:0.507937 6:0.482861 7:0.15585 8:0.4 
1 1:0.117647 2:0.542714 3:0.727273 6:0.402385 7:0.0772844 8:0.516667 
1 1:0.588235 2:0.452261 3:0.772727 4:0.507937 6:0.520119 7:0.318958 8:0.583333 
1 1:0.764706 2:0.522613 3:0.654545 6:0.464978 7:0.165243 8:0.283333 
1 1:0.294118 2:0.723618 3:0.745455 4:0.412698 5:0.383065 6:0.4769 7:0.159693 8:0.616667 
-1 1:0.235294 2:0.58794 3:0.581818 4:0.428571 5:0.16129 6:0.494784 7:0.0649018 8:0.05 
-1 1:0.0588235 2:0.562814 3:0.654545 4:0.47619 5:0.236559 6:0.512668 7:0.192143 8:0.0666667 
-1 2:0.733668 3:0.745455 6:0.603577 7:0.727156 8:0.383333 
-1 1:0.411765 2:0.472362 3:0.581818 4:0.396825 5:0.106183 6:0.496274 7:0.28181 8:0.333333 
-1 1:0.588235 2:0.472362 3:0.654545 4:0.285714 6:0.344262 7:0.220751 8:0.583333 
-1 1:0.117647 2:0.613065 3:0.545455 4:0.285714 5:0.142473 6:0.444113 7:0.272844 8:0.0166667 
-1 1:0.411765 2:0.798995 3:0.581818 6:0.408346 7:0.0922289 8:0.316667 
-1 1:0.0588235 2:0.698492 3:0.418182 4:0.301587 5:0.111559 6:0.42772 7:0.245944 8:0.0166667 
-0.9947039765389315 1:0.352941 2:0.457286 6:0.444113 7:0.180615 8:0.166667 
-1 1:0.352941 2:0.527638 3:0.636364 4:0.507937 5:0.0913978 6:0.459016 7:0.0187874 8:0.266667 
-1 1:0.294118 2:0.482412 3:0.672727 4:0.285714 5:0.0900538 6:0.500745 7:0.3924 8:0.366667 
-1 1:0.235294 2:0.773869 3:0.654545 4:0.460317 5:0.169355 6:0.466468 7:0.111016 8:0.266667 
-1 1:0.352941 2:0.517588 3:0.654545 4:0.507937 5:0.255376 6:0.561848 7:0.105038 8:0.566667 
-1 1:0.470588 2:0.633166 3:0.8 4:0.571429 5:0.145161 6:0.573771 7:0.115713 8:0.466667 
-1 2:0.678392 3:0.854545 4:0.730159 5:0.194892 6:0.605067 7:0.087959 8:0.0833333 
-1 1:0.294118 2:0.663317 3:0.727273 6:0.399404 7:0.0461144 8:0.8 
-1 1:0.117647 2:0.59799 6:0.292101 7:0.321947 8:0.85 
-1 1:0.529412 2:0.623116 3:0.636364 4:0.52381 5:0.540323 6:0.527571 7:0.087105 8:0.216667 
-1 1:0.0588235 2:0.547739 3:0.545455 4:0.126984 5:0.244624 6:0.37854 7:0.37105 
-1 1:0.411765 2:0.683417 3:0.818182 6:0.445604 7:0.0563621 8:0.483333 
-1 1:0.176471 2:0.959799 3:0.618182 4:0.238095 5:0.174731 6:0.460507 7:0.0943638 8:0.216667 
-1 2:0.61809 3:0.8 4:0.587302 6:0.52459 7:0.0508113 8:0.133333 
-1 1:0.235294 2:0.613065 3:0.618182 6:0.52161 7:0.134927 8:0.133333 
-1 1:0.294118 2:0.532663 3:0.745455 4:0.47619 6:0.588674 7:0.088813 8:0.283333 
-1 1:0.470588 2:0.592965 3:0.654545 4:0.301587 6:0.344262 7:0.596926 8:0.416667 
-1 1:0.117647 2:0.527638 3:0.527273 4:0.634921 5:0.126344 6:0.520119 7:0.0627669 8:0.0666667 
-1 1:0.352941 2:0.834171 3:0.672727 6:0.396423 7:0.0964987 8:0.75 
-1 1:0.0588235 2:0.733668 3:0.509091 6:0.442623 7:0.207515 8:0.133333 
-1 1:0.235294 2:0.61809 3:0.727273 4:0.238095 5:0.236559 6:0.4769 7:0.15585 8:0.216667 
-1 2:0.633166 3:0.763636 4:0.460317 5:0.288978 6:0.457526 7:0.188728 8:0.05 
-1 1:0.176471 2:0.623116 3:0.727273 4:0.52381 5:0.174731 6:0.494784 7:0.0969257 8:0.0833333 
-1 1:0.294118 2:0.572864 3:0.672727 6:0.371088 7:0.284372 8:0.6 
-1 1:0.470588 2:0.502513 3:0.690909 6:0.576751 7:0.0478224 8:0.35 
-1 1:0.235294 2:0.648241 3:0.545455 4:0.190476 5:0.310484 6:0.409836 7:0.191716 8:0.166667 
-1 1:0.705882 2:0.532663 3:0.727273 6:0.351714 7:0.0251921 8:0.383333 
-1 1:0.411765 2:0.628141 3:0.781818 6:0.560358 7:0.0964987 8:0.5 
-1 1:0.705882 2:0.60804 3:0.709091 4:0.269841 6:0.394933 7:0.0772844 8:0.683333 
-1 1:0.529412 2:0.603015 3:0.654545 4:0.349206 5:0.0752688 6:0.309985 7:0.279675 8:0.45 
-1 1:0.0588235 2:0.698492 3:0.563636 4:0.650794 5:0.645161 6:0.606557 7:0.195559 
-1 1:0.176471 2:0.79397 3:0.581818 4:0.206349 5:0.520161 6:0.464978 7:0.0926558 8:0.05 
-1 1:0.235294 2:0.552764 3:0.6 6:0.47541 7:0.167805 8:0.133333 
-1 1:0.352941 2:0.758794 3:0.563636 4:0.492063 5:0.16129 6:0.529061 7:0.262169 8:0.116667 
-1 1:0.294118 2:0.61809 3:0.672727 4:0.634921 5:0.103495 6:0.508197 7:0.0815542 8:0.116667 
-1 1:0.294118 2:0.738693 3:0.681818 6:0.445604 7:0.152007 8:0.116667 
-1 1:0.117647 2:0.462312 3:0.690909 4:0.31746 6:0.360656 7:0.691716 8:0.116667 
-1 1:0.176471 2:0.713568 3:0.727273 4:0.238095 6:0.482861 7:0.0520922 8:0.7 
-1 1:0.117647 2:0.61809 3:0.436364 4:0.507937 5:0.221774 6:0.627422 7:0.188728 8:0.0833333 
-1 1:0.294118 2:0.718593 3:0.709091 6:0.670641 7:0.0478224 8:0.433333 
-1 1:0.117647 2:0.532663 3:0.581818 4:0.555556 5:0.159946 6:0.454545 7:0.564475 8:0.216667 
-1 2:0.58794 3:0.6 4:0.492063 5:0.252688 6:0.459016 7:0.177199 8:0.0166667 
-1 1:0.647059 2:0.638191 3:0.963636 6:0.581222 7:0.0478224 8:0.5 
-1 1:0.294118 2:0.542714 3:0.654545 4:0.68254 5:0.100806 6:0.538003 7:0.0789923 8:0.2 
-1 1:0.470588 2:0.974874 3:0.727273 6:0.388972 7:0.201964 8:0.766667 
-1 1:0.352941 2:0.723618 3:0.654545 4:0.428571 5:0.306452 6:0.505216 7:0.0755764 8:0.316667 
-1 1:0.176471 2:0.61809 3:0.909091 4:0.555556 5:0.322581 6:0.853949 7:0.342442 8:0.0166667 
-1 1:0.470588 2:0.562814 3:0.654545 6:0.351714 7:0.325363 8:0.616667 
-1 1:0.117647 2:0.547739 3:0.836364 6:0.636364 7:0.327498 8:0.55 
-1 1:0.411765 2:0.59799 6:0.375559 7:0.0559351 8:0.266667 
-1 2:0.829146 3:0.818182 4:0.52381 5:0.913978 6:0.779434 7:0.149018 8:0.0333333 
-1 1:0.411765 2:0.572864 3:0.690909 4:0.269841 5:0.147849 6:0.354694 7:0.16567 8:0.166667 
-1 1:0.176471 2:0.557789 3:0.527273 4:0.492063 5:0.0591398 6:0.439642 7:0.150299 8:0.0166667 
-1 1:0.235294 2:0.98995 3:0.636364 4:0.619048 5:1 6:0.546945 7:0.961144 8:0.166667 
-1 1:0.764706 2:0.532663 3:0.654545 4:0.857143 6:0.545455 7:0.0426985 8:0.4 
-1 1:0.352941 2:0.542714 3:0.4 4:0.31746 5:0.174731 6:0.357675 7:0.313834 8:0.233333 
-1 1:0.529412 2:0.673367 3:0.672727 4:0.52381 5:0.0806452 6:0.385991 7:0.163108 8:1 
-1 1:0.411765 2:0.753769 3:0.6 4:0.666667 5:0.459677 6:0.517139 7:0.273271 8:0.35 
-1 1:0.411765 2:0.713568 3:0.545455 4:0.52381 5:0.255376 6:0.42921 7:0.260034 8:0.666667 
-1 1:0.235294 2:0.708543 3:0.672727 6:0.411326 7:0.0708796 8:0.316667 
-1 1:0.294118 2:0.497487 3:0.490909 4:0.444444 5:0.111559 6:0.506706 7:0.179761 8:0.15 
-1 1:0.235294 2:0.723618 3:0.527273 4:0.444444 5:0.188172 6:0.439642 7:0.08924 8:0.266667 
-1 1:0.0588235 2:0.683417 3:0.672727 4:0.793651 5:0.274194 6:0.557377 7:0.137062 8:0.05 
-1 2:0.809045 3:0.454545 6:0.326379 7:0.0751494 8:0.733333 
-1 1:0.411765 2:0.512563 3:0.672727 4:0.634921 5:0.141129 6:0.554396 7:0.0538002 8:0.4 
-1 1:0.294118 2:0.547739 3:0.681818 4:0.412698 6:0.536513 7:0.199829 8:0.65 
-1 1:0.411765 2:0.407035 3:0.709091 4:0.634921 5:0.0645161 6:0.695976 7:0.0781383 8:0.35 
-1 1:0.176471 2:0.603015 3:0.636364 4:0.47619 5:0.181452 6:0.639344 7:0.159693 8:0.15 
-1 1:0.0588235 2:0.432161 3:0.6 4:0.825397 5:0.0873656 6:0.615499 7:0.358241 8:0.133333 
-1 1:0.294118 2:0.633166 3:0.709091 4:0.428571 5:0.0295699 6:0.441133 7:0.154142 8:0.316667 
-1 1:0.176471 2:0.517588 3:0.654545 4:0.47619 5:0.204301 6:0.411326 7:0.278395 8:0.1 
-1 1:0.117647 2:0.562814 3:0.709091 4:0.793651 5:0.188172 6:0.587183 7:0.0414176 8:0.05 
-1 1:0.235294 2:0.517588 3:0.545455 4:0.52381 5:0.258065 6:0.357675 7:0.379163 8:0.2 
-1 1:0.764706 2:0.532663 3:0.636364 6:0.509687 7:0.0738685 8:0.516667 
-1 1:0.294118 2:0.58794 3:0.781818 4:0.47619 5:0.141129 6:0.582712 7:0.0738685 8:0.35 
-1 1:0.176471 2:0.577889 3:0.6 4:0.619048 5:0.188172 6:0.567809 7:0.030743 8:0.116667 
-1 1:0.176471 2:0.532663 3:0.490909 4:0.333333 5:0.212366 6:0.460507 7:0.0913749 8:0.05 
-1 1:0.352941 2:0.527638 3:0.727273 4:0.444444 6:0.484352 7:0.341588 8:0.0833333 
-1 1:0.176471 2:0.904523 3:0.581818 4:0.396825 5:0.094086 6:0.506706 7:0.0824082 8:0.0833333 
-0.94051609733236918 2:0.603015 3:0.672727 4:0.285714 5:0.0846774 6:0.454545 7:0.088386 8:0.0833333 
-1 2:0.633166 3:0.781818 4:0.428571 5:0.16129 6:0.408346 7:0.186593 
-1 2:0.512563 3:0.581818 4:0.730159 5:0.104839 6:0.605067 7:0.17848 
-1 1:0.0588235 2:0.633166 3:0.509091 4:0.460317 5:0.204301 6:0.42772 7:0.308711 
-1 1:0.117647 2:0.638191 3:0.418182 4:0.333333 5:0.450269 6:0.512668 7:0.0418446 8:0.0166667 
-1 1:0.235294 2:0.552764 3:0.836364 6:0.560358 7:0.0482494 8:0.15 
-1 1:0.470588 2:0.603015 3:0.709091 6:0.372578 7:0.141332 8:0.716667 
-1 1:0.117647 2:0.562814 3:0.618182 4:0.349206 5:0.126344 6:0.508197 7:0.101196 8:0.0833333 
-1 1:0.470588 2:0.457286 3:0.745455 6:0.530551 7:0.217336 8:0.783333 
-1 1:0.705882 2:0.442211 3:0.672727 4:0.634921 5:0.0725806 6:0.52608 7:0.128096 8:0.45 
-1 2:0.673367 3:0.527273 4:0.31746 5:0.391129 6:0.393443 7:0.116994 
-1 1:0.0588235 2:0.537688 3:0.654545 4:0.47619 5:0.110215 6:0.459016 7:0.31725 8:0.05 
-1 1:0.0588235 2:0.653266 3:0.636364 4:0.206349 5:0.141129 6:0.385991 7:0.168232 8:0.0166667 
-1 2:0.698492 3:0.563636 4:0.269841 5:0.282258 6:0.329359 7:0.0550811 
-1 1:0.764706 2:0.728643 3:0.745455 4:0.301587 5:0.147849 6:0.33085 7:0.0713066 8:0.6 
-1 1:0.117647 2:0.613065 3:0.472727 4:0.68254 5:0.212366 6:0.539493 7:0.315115 8:0.116667 
-1 1:0.588235 2:0.613065 3:0.618182 6:0.464978 7:0.0768574 8:0.333333 
-1 1:0.352941 2:0.512563 3:0.818182 4:0.619048 6:0.532042 7:0.254483 8:0.116667 
-1 1:0.352941 2:0.58794 3:0.872727 6:0.42772 7:0.0337319 8:0.15 
-1 1:0.470588 2:0.371859 3:0.636364 4:0.634921 5:0.0658602 6:0.52608 7:0.26772 8:0.3 
