svm_type c_svc
kernel_type polynomial
degree 3
gamma 0.125
coef0 0
nr_class 6
total_sv 84
rho -0.99686187319842601 -0.99777770343979433 -0.99098283457603842 -0.9986183718911591 -0.99731004804474033 -0.99852191664651935 -0.97580244001132987 -0.98912363067730558 -0.99154139870495595 0.97884191708515278 -0.98876690871020567 -0.99216348487749806 -0.98881769024052424 -0.99647149309336358 -0.99731357204291271
label 1 0 2 5 3 4
probA -57.391099973252423 -363.83572963730057 -195.03021914987542 -198.30808499993918 -248.46928415297535 50.539072239210903 -169.70801272796837 -732.13158574674389 -742.55779219628084 1.1253264182634286 1.1398137672109132 -567.73523365161168 2.1255565724121785 -483.20206602050314 2.3279940660135794
probB 56.879088379885133 362.146349544602 192.55455357314756 196.49289392384392 246.0657051745936 -52.069027511808244 166.82809714778668 729.8890472934828 739.6072179913524 1.0248102962514647 -0.65157130537353847 565.76568591182092 -2.2056398316894659 481.54119748653062 -1.7685462759810182
nr_sv 33 29 6 8 5 3
SV
1 0.28685759995955934 0.50828712661838227 0 0 1:0.56848 2:0.466166 3:0.64588 4:0.274143 5:0.239286 6:0.0369642 7:0.498141 
1 0 0 0 0 1:0.208518 2:0.344361 3:0.797327 4:0.380062 5:0.591071 6:0.318815 7:0.23513 
1 0 0 0 0 1:0.4662 2:0.371428 3:0.819599 4:0.267913 5:0.525 6:0.249507 7:0.287175 
1 0 0 0 0 1:0.424057 2:0.458647 3:0.507795 4:0.35514 5:0.389286 6:0.226405 7:0.41078 9:0.485715 
1 0 0 0 0 1:0.303335 2:0.341353 3:0.846325 4:0.246106 5:0.582143 6:0.258748 7:0.274164 9:0.342857 
1 1 0 0 0 1:0.321337 2:0.356391 3:0.884187 4:0.280374 5:0.469643 6:0.277231 7:0.27881 
0 0 0.18525316321823557 0.12641054950500741 0 1:0.882355 4:0.563863 6:0.267989 7:0.731413 8:1 9:0.8 
1 0.92544813705499696 1 1 0 1:0.269975 2:0.243609 3:0.605791 4:0.417446 5:0.546429 6:0.323436 7:0.35316 
1 0 0 0 0 1:0.25988 2:0.413534 3:0.775056 4:0.442368 5:0.483928 6:0.286471 7:0.237918 
1 0 0 0 0 1:0.251099 2:0.37594 3:0.788419 4:0.370717 5:0.541071 6:0.258748 7:0.248142 
1 1 0 0 0 1:0.233097 2:0.403008 3:0.790646 4:0.299065 5:0.535714 6:0.314195 7:0.248142 
1 0 0 0 0 1:0.211149 2:0.344361 3:0.792873 4:0.389408 5:0.589286 6:0.332676 7:0.229554 
1 0 0 0 0 1:0.207638 2:0.359399 3:0.759466 4:0.401869 5:0.616071 6:0.0323431 7:0.275093 9:0.542857 
1 0.24076343979041856 0 0 0 1:0.3187 2:0.330827 3:0.832962 4:0.255451 5:0.441071 6:0.295712 7:0.328067 9:0.628571 
1 0 0 0 0 1:0.252413 2:0.390977 3:0.788419 4:0.411215 5:0.4875 6:0.314195 7:0.24907 
1 0 0.30645971016338203 0 0 1:0.201495 2:0.621053 3:0.817372 4:0.451713 5:0.367858 6:0.0739284 7:0.179368 9:0.342857 
0.15494270735186313 0 1 0.23210857466144416 0.41918246232192968 1:0.39728 2:0.488722 3:0.300668 4:0.417446 5:0.348214 6:0.1802 7:0.476766 9:0.514285 
1 0 0 0 0.76809718181290321 1:0.199296 2:0.377443 3:0.777283 4:0.367602 5:0.614286 6:0.175579 7:0.241636 
1 0 0 0 0 1:0.300704 2:0.44812 3:0.875279 4:0.389408 5:0.357143 6:0.249507 7:0.258364 9:0.428571 
1 0 0 0 0 1:0.260315 2:0.449624 3:0.819599 4:0.47352 5:0.401786 6:0.295712 7:0.227695 
0 0 1 1 1 1:0.485954 2:0.556391 4:0.221184 5:0.510714 6:0.0462049 7:0.565985 9:0.228571 
1 0 1 0.031883754300121935 0 1:0.418348 2:0.424061 3:0.465479 4:0.429906 5:0.423214 6:0.244886 7:0.384759 8:0.0857145 9:0.485715 
0.84505729264813689 0.31452267395779926 1 1 0.54024190614833068 1:0.729591 2:0.287218 4:0.11838 5:0.394643 6:0.0277235 7:0.833643 
1 0 0 0 0 1:0.275678 2:0.221052 3:0.723831 4:0.271028 5:0.667857 6:0.286471 7:0.322491 9:0.685714 
1 0 0 0 0 1:0.320898 2:0.403008 3:0.86637 4:0.323987 5:0.458928 6:0.235645 7:0.26487 
1 0 1 0 0 1:0.251978 2:0.291729 3:0.641425 4:0.442368 5:0.607143 6:0.337297 7:0.289033 
1 0.85707998832780419 0 0 0 1:0.305534 2:0.390977 3:0.857461 4:0.299065 5:0.530357 6:0.240267 7:0.25 
1 0 0 0.60959712153342649 0 1:0.209396 2:0.320301 3:0.783964 4:0.570094 5:0.508929 6:0.318815 7:0.236059 
1 0 0 0 0 1:0.260754 2:0.341353 3:0.772828 4:0.46729 5:0.519643 6:0.304953 7:0.255576 
1 0.10970051218128843 0 0 0 1:0.320018 2:0.378947 3:0.837417 4:0.320873 5:0.4625 6:0.267989 7:0.277881 
0 0.7130546798879871 1 1 0.27247844971683644 1:0.129059 2:0.529323 3:0.688196 4:0.557632 5:0.441071 6:0.508255 7:0.153346 
1 0.55257296884014606 0 0 0 1:0.24495 2:0.386466 3:0.81069 4:0.386293 5:0.485714 6:0.300333 7:0.241636 9:0.828572 
1 0 0 0 0 1:0.309484 2:0.284211 3:0.614699 4:0.168224 5:0.714285 6:0.161717 7:0.370818 9:0.571429 
-1 0 0 0 0 1:0.286658 2:0.288722 3:0.792873 4:0.314642 5:0.583928 6:0.28185 7:0.302974 9:0.4 
-1 0 1 0 0 1:0.311238 2:0.321804 3:0.775056 4:0.311527 5:0.560713 6:0.277231 7:0.27881 
-1 1 0 0.19423409863614952 0 1:0.286658 2:0.275188 3:0.783964 4:0.35514 5:0.596429 6:0.263369 7:0.289033 
-1 1 0.051412864791220925 0.29494149943701042 0 1:0.285778 2:0.372933 3:0.821827 4:0.311527 5:0.0917875 6:0.744 9:0.728571 
-1 0 0 0 0 1:0.275678 2:0.386466 3:0.801782 4:0.264798 5:0.585713 6:0.267989 7:0.254647 
-1 0.30617636872820392 0 1 0 1:0.299384 2:0.302256 3:0.775056 4:0.330218 5:0.5625 6:0.295712 7:0.302044 
-1 0 0 0 0 1:0.294559 2:0.300752 3:0.76392 4:0.280374 5:0.560713 6:0.286471 7:0.30948 9:0.857143 
-1 0 0 0 0 1:0.482003 2:0.523308 3:0.85078 4:0.056075 5:0.35 6:0.0508259 7:0.384759 
-1 0 0 0 0 1:0.280948 2:0.341353 3:0.801782 4:0.333334 5:0.567856 6:0.263369 7:0.276023 9:0.314286 
-1 0 0 0 0 1:0.280509 2:0.413534 3:0.832962 4:0.274143 5:0.567856 6:0.27261 7:0.241636 
-1 0 0.31819892516028175 0.14245213253297972 0 1:0.488147 2:0.517293 3:0.848553 4:0.152648 5:0.275 7:0.39591 
-1 0 0.48941383758305895 0 0 1:0.356017 2:0.371428 3:0.741648 4:0.308411 5:0.455357 6:0.277231 7:0.344796 9:0.314286 
-1 0 0 0 0 1:0.352506 2:0.497744 3:0.797327 4:0.336449 5:0.405357 6:0.258748 7:0.266729 
-1 0.49925927752882188 0.1409743724654384 0 1 1:0.373574 2:0.607519 3:0.83519 5:0.394643 6:0.0138617 7:0.331785 
-1 0 1 1 0 1:0.348554 2:0.475188 3:0.786191 4:0.320873 5:0.357143 6:0.235645 7:0.311338 8:0.0349205 
-1 0 0 0 0 1:0.275245 2:0.381955 3:0.806236 4:0.29595 5:0.583928 6:0.254128 7:0.245353 
-1 0 0 0 0 1:0.432839 2:0.437594 3:1 4:0.252336 5:0.351785 6:0.0277235 7:0.30855 
-1 0 0 0 0 1:0.284899 2:0.338346 3:0.788419 4:0.286605 5:0.569643 6:0.300333 7:0.288104 
-1 0 0 0 0 1:0.520194 2:0.38797 3:0.797327 4:0.165109 5:0.389286 6:0.0554456 7:0.44052 9:0.0857142 
-1 0.16322161542439828 1 0 0.51967747941162912 1:0.22081 2:0.421052 3:0.790646 4:0.389408 5:0.567856 6:0.1802 7:0.218402 
-1 0 0 0 0 1:0.330993 2:0.369925 3:0.750557 4:0.277258 5:0.519643 6:0.263369 7:0.315985 9:0.457143 
-1 0 0 0 0 1:0.211149 2:0.309775 3:0.804009 4:0.41433 5:0.564286 6:0.295712 7:0.245353 9:0.742857 
-1 0 1 0.3683722693938602 0.48032252058837077 1:0.287092 2:0.258647 3:0.603564 4:0.311527 5:0.694642 6:0.258748 7:0.337361 9:0.685714 
-1 1 1 1 1 1:0.198418 2:0.384962 3:0.768374 4:0.286605 5:0.523214 6:0.258748 7:0.291822 
-1 1 1 1 0 1:0.344604 2:0.415038 3:0.775056 4:0.330218 5:0.382142 6:0.254128 7:0.331785 
-1 0 0 0 0 1:0.279196 2:0.312782 3:0.7951 4:0.330218 5:0.573214 6:0.286471 7:0.293681 
-1 1 0 0 0 1:0.283581 2:0.312782 3:0.788419 4:0.292835 5:0.612499 6:0.267989 7:0.275093 
-1 0 1 0 0 1:0.349429 2:0.476692 3:0.830735 4:0.277258 5:0.4125 6:0.0277235 7:0.321562 
-1 0.031342738318575925 0 0 0 1:0.200176 2:0.299248 3:0.770601 4:0.395639 5:0.605356 6:0.309574 7:0.247212 9:0.685714 
-1 -1 1 0.49316449874999485 0.033772298814162549 1:0.254171 2:0.320301 3:0.797327 4:0.317757 5:0.0982285 6:0.896 9:0.728571 
-1 -1 1 1 0 1:0.290169 2:0.421052 3:0.759466 4:0.383178 5:0.398215 6:0.267989 7:0.312268 
-1 -1 1 1 1 1:0.233097 2:0.347368 3:0.757238 4:0.30218 5:0.571429 6:0.240267 7:0.292751 
-1 -1 1 1 0.96622770118583745 1:0.217299 2:0.404512 3:0.757238 4:0.28972 5:0.514286 6:0.27261 7:0.268587 
-1 -1 1 1 0 1:0.231783 2:0.215037 3:0.783964 4:0.330218 5:0.55 6:0.263369 7:0.288104 
-1 -1 1 0.50683550125000509 1 1:0.291482 2:0.437594 3:0.812917 4:0.11215 5:0.569643 6:0.0277235 7:0.325279 
-1 -1 -1 1 0 1:0.25022 2:0.630076 4:0.529595 5:0.580356 7:0.276023 8:0.504762 
-1 -1 -0 0 0 1:0.265145 2:0.604511 4:0.53271 5:0.573214 7:0.288104 8:0.504762 9:0.228571 
-1 -1 -0.52907427894374792 0.47367396858110833 0 1:0.238367 2:0.61203 4:0.529595 5:0.589286 7:0.26487 8:0.542857 
-1 -1 -0.47092572105625208 1 0 1:0.223002 2:0.521805 4:0.778816 5:0.651786 6:0.0184814 7:0.335502 8:0.126984 9:0.257143 
-1 -1 -1 1 1 1:0.232663 2:0.633082 4:0.492212 5:0.589286 7:0.301115 8:0.438095 
-1 -1 -1 0 1 1:0.175156 2:0.619549 4:0.663551 5:0.698214 7:0.275093 8:0.177778 
-1 -1 -1 1 0.51053176530335964 1:0.496928 2:0.621053 3:0.489978 4:0.551402 5:0.080358 6:0.351159 7:0.402417 
-1 -1 -1 0.52632603141889167 0.48946823469664036 1:0.213787 2:0.619549 4:0.651091 5:0.619642 7:0.30948 8:0.203174 9:0.257143 
-1 -1 -1 -1 1 1:0.351187 2:0.300752 3:0.412027 4:0.489097 5:0.514286 6:0.277231 7:0.433086 
-1 -1 -1 -1 1 1:0.550484 2:0.407519 4:0.401869 5:0.430358 6:0.147857 7:0.632899 
-1 -1 -1 -1 1 1:0.407374 2:0.398497 4:0.345795 5:0.435714 6:0.152476 7:0.657063 
-1 -1 -1 -1 0 1:0.463567 2:0.124812 3:0.418708 4:0.395639 5:0.544643 6:0.217164 7:0.555762 
-1 -1 -1 -1 0 1:0.175156 2:0.493233 3:0.596882 4:1 5:0.014286 6:0.776245 7:0.040892 8:0.698412 
-1 -1 -1 -1 -1 1:0.339334 2:0.640602 3:0.17372 4:0.451713 5:0.480357 7:0.420075 
-1 -1 -1 -1 -1 1:0.374892 2:0.57594 4:0.084112 5:0.655358 7:0.538104 
-1 -1 -1 -1 -1 2:1 4:0.0155765 5:1 7:0.113383 
