svm_type c_svc
kernel_type sigmoid
gamma 0.125
coef0 0
nr_class 2
total_sv 130
rho -1.5424512293086978
label 1 0
probA -5.9340261929795712
probB 4.6733780117451085
nr_sv 66 64
SV
1 1:0.411765 2:0.695431 3:0.789474 4:0.683333 6:0.611855 7:0.172452 8:0.367347 
1 2:0.741117 3:0.719298 6:0.774379 7:0.938292 8:0.469388 
1 2:0.604061 3:0.561404 4:0.3 5:0.108747 6:0.667304 7:0.356474 8:0.0408163 
1 1:0.764706 2:0.77665 3:0.77193 4:0.616667 5:0.165485 6:0.776291 7:0.603857 8:0.367347 
1 1:0.352941 2:0.928934 3:0.824561 6:0.780115 7:0.761983 8:0.489796 
1 1:0.0588235 2:0.725888 3:0.736842 4:0.383333 5:0.36643 6:0.810708 7:0.549862 8:0.0204082 
1 1:0.235294 2:0.609137 3:0.596491 6:0.565966 7:0.347658 8:0.265306 
1 1:0.470588 2:0.639594 3:0.649123 4:0.633333 5:0.0886525 6:0.49522 7:0.046281 8:0.367347 
1 1:0.117647 2:0.741117 3:0.666667 4:0.583333 5:0.229314 6:0.730402 7:0.138292 8:0.163265 
1 1:0.0588235 2:0.598985 3:0.508772 4:0.6 5:0.111111 6:0.636711 7:0.100826 8:0.0408163 
1 1:0.0588235 2:0.659898 3:0.614035 4:0.216667 5:0.124113 6:0.49522 7:0.21708 8:0.0204082 
1 1:0.0588235 2:0.690355 3:0.649123 4:0.833333 5:0.241135 6:0.715105 7:0.17686 8:0.0612245 
1 1:0.588235 2:0.705584 3:0.701754 6:0.518164 7:0.750964 8:0.734694 
1 1:0.352941 2:0.431472 3:0.684211 6:0.596558 7:0.167493 8:0.428571 
1 2:0.705584 3:0.54386 4:0.283333 5:0.248227 6:0.422562 7:0.0710744 
1 1:0.411765 2:0.538071 3:0.807018 4:0.3 6:0.434034 7:0.0865014 8:0.55102 
1 1:0.117647 2:0.888325 3:0.77193 6:0.437859 7:0.136639 8:0.0204082 
1 1:0.0588235 2:0.604061 3:0.77193 4:0.683333 5:0.200946 6:0.866157 7:0.236364 8:0.102041 
1 1:0.470588 2:0.639594 3:0.77193 4:0.6 5:0.12766 6:0.736138 7:0.149311 8:0.571429 
1 1:0.176471 2:0.588832 6:0.449331 7:0.0600551 8:0.0408163 
1 2:0.837563 3:0.789474 4:0.55 5:0.803783 6:1 7:0.192287 8:0.0408163 
1 1:0.352941 2:0.593909 3:0.842105 6:0.548757 7:0.0435262 8:0.183673 
0.46922799998033715 2:0.543147 3:0.666667 6:0.866157 7:0.334986 8:0.0612245 
1 1:0.411765 2:0.57868 3:0.666667 4:0.283333 5:0.130024 6:0.455067 7:0.213774 8:0.204082 
1 1:0.235294 2:0.456853 6:0.535373 7:0.293113 8:0.204082 
1 1:0.176471 2:0.634518 3:0.508772 6:0.604207 7:0.0402204 8:0.0612245 
1 1:0.117647 2:0.619289 3:0.45614 4:0.716667 5:0.186761 6:0.692161 7:0.406612 8:0.142857 
1 1:0.117647 2:0.568528 3:0.596491 4:0.366667 5:0.111111 6:0.652008 7:0.130579 8:0.102041 
1 1:0.0588235 2:0.629442 3:0.526316 4:0.533333 6:0.684512 7:0.24022 
1 1:0.117647 2:0.649746 3:0.561404 4:0.7 6:0.764818 7:0.563636 8:0.0612245 
1 1:0.294118 2:0.522843 3:0.947368 4:0.616667 6:0.749522 7:0.125069 8:0.897959 
1 1:0.294118 2:0.588832 3:0.649123 6:0.489484 7:0.0677686 8:0.183673 
1 1:0.352941 2:0.553299 3:0.526316 4:0.45 6:0.478011 7:0.0705234 8:0.122449 
1 1:0.529412 2:0.451777 3:0.54386 6:0.43021 7:0.0352617 8:0.244898 
1 1:0.235294 2:0.746193 3:0.649123 4:0.416667 5:0.346336 6:0.667304 7:0.169146 8:0.183673 
1 1:0.294118 2:0.553299 3:0.657895 4:0.433333 6:0.688337 7:0.257851 8:0.795918 
1 1:0.352941 2:0.781726 3:0.649123 4:0.533333 5:0.228132 6:0.560229 7:0.419284 8:0.367347 
1 1:0.117647 2:0.634518 3:0.526316 4:0.333333 5:0.165485 6:0.646272 7:0.00550964 8:0.204082 
1 1:0.470588 2:0.568528 3:0.631579 6:0.451243 7:0.419835 8:0.755102 
1 1:0.235294 2:0.649746 3:0.614035 6:0.655832 7:0.123967 8:0.0612245 
1 1:0.294118 2:0.558376 3:0.596491 6:0.497132 7:0.117906 8:0.183673 
1 1:0.411765 2:0.761421 3:0.578947 4:0.7 5:0.404255 6:0.66348 7:0.352617 8:0.428571 
1 1:0.470588 2:0.426396 3:0.649123 4:0.516667 6:0.732314 7:0.208815 8:0.367347 
1 2:0.746193 3:0.745614 4:0.9 6:0.818356 7:0.163636 8:0.0612245 
1 1:0.411765 2:0.629442 3:0.614035 4:0.55 5:0.254137 6:0.487572 7:0.04573 8:0.326531 
1 1:0.235294 2:0.568528 3:0.684211 4:0.666667 6:0.753346 7:0.0870523 8:0.346939 
1 1:0.176471 2:0.720812 3:0.701754 4:0.25 6:0.619503 7:0.0672176 8:0.857143 
1 2:0.685279 3:0.824561 4:0.766667 5:0.171395 6:0.776291 7:0.113499 8:0.102041 
1 1:0.352941 2:0.563452 3:0.561404 4:0.65 6:0.65392 7:0.100275 8:0.0612245 
0.4347480170424588 1:0.176471 2:0.48731 3:0.491228 4:0.566667 5:0.135934 6:0.472275 7:0.477135 8:0.367347 
1 1:0.352941 2:0.57868 3:0.77193 6:0.531549 7:0.0931129 8:0.918367 
1 1:0.294118 2:0.619289 3:0.754386 6:0.66348 7:0.116804 8:0.244898 
1 1:0.352941 2:0.467005 3:0.54386 4:0.533333 5:0.148936 6:0.611855 7:0.00385675 8:0.510204 
1 1:0.294118 2:0.786802 3:0.736842 4:0.733333 5:0.644208 6:0.739962 7:0.298072 8:0.265306 
1 1:0.0588235 2:0.71066 3:0.649123 4:0.433333 5:0.212766 6:0.460803 7:0.413223 8:0.0408163 
1 1:0.294118 2:0.670051 3:0.701754 6:0.512428 7:0.0595041 8:0.979592 
0.096023982977204048 1:0.352941 2:0.57868 7:0.061157 8:0.102041 
1 1:0.117647 2:0.796954 3:0.649123 4:0.583333 5:0.520095 6:0.753346 7:0.030854 8:0.183673 
1 1:0.588235 2:0.583756 3:0.859649 6:0.458891 7:0.52011 8:0.265306 
1 1:0.235294 2:0.664975 3:0.596491 4:0.35 5:0.196217 6:0.632887 7:0.0451791 8:0.142857 
1 1:0.235294 2:0.593909 3:0.561404 4:0.45 5:0.141844 6:0.634799 7:0.0837466 8:0.0612245 
1 1:0.235294 2:0.781726 3:0.631579 4:0.483333 5:0.148936 6:0.59847 7:0.143251 8:0.326531 
1 1:0.411765 2:0.517766 3:0.649123 4:0.666667 5:0.124113 6:0.711281 7:0.0694215 8:0.489796 
1 1:0.117647 2:0.654822 3:0.649123 4:0.433333 5:0.242317 6:0.634799 7:0.282645 8:0.0816327 
1 1:0.705882 2:0.538071 3:0.701754 6:0.451243 7:0.0325069 8:0.469388 
1 1:0.0588235 2:0.609137 3:0.701754 4:0.8 5:0.236407 6:0.743786 7:0.597245 8:0.408163 
-1 1:0.0588235 2:0.649746 3:0.77193 4:0.65 5:0.130024 6:0.697897 7:0.539394 8:0.326531 
-1 2:0.664975 3:0.578947 4:0.666667 6:0.655832 7:0.0650138 8:0.0204082 
-1 1:0.352941 2:0.989848 3:0.614035 6:0.590822 7:0.137741 8:0.204082 
-1 1:0.411765 2:0.553299 3:0.701754 4:0.516667 6:0.686425 7:0.577961 8:0.44898 
-1 1:0.117647 2:0.741117 3:0.614035 4:0.633333 5:0.425532 6:0.535373 7:0.1427 8:0.163265 
-1 1:0.411765 2:0.522843 3:0.578947 4:0.533333 6:0.74761 7:0.146556 8:0.204082 
-1 2:0.913706 3:0.789474 4:0.433333 5:0.106383 6:0.697897 7:0.130028 8:0.285714 
-1 1:0.470588 2:0.634518 3:0.842105 7:0.0848485 8:0.673469 
-1 1:0.176471 2:0.883249 3:0.508772 4:0.366667 5:0.229314 6:0.629063 7:0.283747 8:0.306122 
-1 1:0.647059 2:0.685279 6:1 7:0.275482 8:0.387755 
-1 1:0.0588235 2:0.913706 6:0.827916 7:0.112397 8:0.408163 
-1 1:0.411765 2:0.807107 3:0.578947 6:0.581262 7:0.168044 8:0.306122 
-1 1:0.235294 2:0.741117 3:0.807018 6:0.596558 7:0.253994 8:0.816327 
-1 2:0.954315 3:0.719298 4:0.233333 5:0.218676 6:0.611855 7:0.332782 8:0.0204082 
-1 1:0.352941 2:0.634518 3:0.666667 6:0.646272 7:0.0236915 8:0.673469 
-1 1:0.470588 2:0.944162 3:0.789474 4:0.583333 5:0.265957 6:0.659656 7:0.190083 8:0.326531 
-1 1:0.588235 2:0.852792 3:0.649123 6:0.726577 7:0.252893 8:0.265306 
-1 1:0.235294 2:0.730964 3:0.719298 4:0.533333 6:0.736138 7:0.262259 8:0.326531 
-1 1:0.176471 2:0.654822 3:0.807018 4:0.816667 5:0.183215 6:0.695985 7:0.490358 8:0.22449 
-1 1:1 2:0.827411 3:0.631579 4:0.683333 5:0.134752 6:0.782027 7:0.407163 8:0.530612 
-1 1:0.0588235 2:0.482234 3:0.719298 4:0.416667 5:0.212766 6:0.669216 7:0.0853994 8:0.44898 
-1 2:0.614213 3:0.578947 4:0.5 5:0.195035 6:0.655832 7:0.0688705 8:0.244898 
-1 1:0.294118 2:0.822335 3:0.912281 6:0.720841 7:0.0402204 8:0.632653 
-1 1:0.0588235 2:0.746193 3:0.824561 4:0.683333 6:0.942639 7:0.15427 8:0.122449 
-1 1:0.235294 2:0.928934 6:0.543021 7:0.0738292 8:0.306122 
-1 1:0.411765 2:0.93401 3:0.736842 4:0.55 6:0.678776 7:0.152617 8:0.408163 
-1 1:0.235294 2:0.553299 3:0.561404 4:0.733333 5:0.117021 6:0.665392 7:0.455647 8:0.102041 
-1 1:0.176471 2:0.878173 3:0.736842 4:0.55 5:0.560284 6:0.6826 7:0.0991736 8:0.0204082 
-1 1:0.294118 2:0.80203 3:0.736842 4:0.683333 5:0.248227 6:0.753346 7:0.174656 8:0.163265 
-1 1:0.294118 2:0.730964 3:0.719298 4:0.433333 5:0.336879 6:0.611855 7:0.206061 8:0.755102 
-1 1:0.117647 2:0.472081 3:0.561404 4:0.533333 5:0.189125 6:0.726577 7:0.328375 8:0.0408163 
-1 1:0.764706 2:0.80203 3:1 6:0.808795 7:0.0986226 8:0.469388 
-1 1:0.176471 2:0.80203 3:0.666667 4:0.6 5:0.289598 6:0.604207 7:0.425895 8:0.142857 
-1 1:0.294118 2:0.583756 3:0.666667 6:0.596558 7:0.146006 8:0.469388 
-1 1:0.411765 2:0.720812 3:0.789474 4:0.4 5:0.567376 6:0.581262 7:0.0275482 8:0.44898 
-1 1:0.0588235 2:0.994924 3:0.666667 4:0.6 5:0.294326 6:0.697897 7:0.439118 8:0.163265 
-1 2:0.553299 3:0.77193 4:0.5 6:0.621415 7:0.428099 8:0.346939 
-1 1:0.117647 2:0.507614 3:0.578947 4:0.333333 5:0.106383 6:0.629063 7:0.434711 8:0.142857 
-1 1:0.411765 2:0.984772 3:0.596491 4:0.466667 6:0.686425 7:0.367493 8:0.408163 
-1 1:0.117647 2:0.532995 3:0.701754 4:0.75 5:0.225768 6:0.644359 7:0.34876 8:0.163265 
-1 1:0.235294 2:0.593909 3:0.54386 4:0.2 6:0.567878 7:0.166391 8:0.183673 
-1 1:0.352941 2:0.746193 3:0.701754 6:0.564054 7:0.0550964 8:0.591837 
-1 1:0.294118 2:0.690355 3:0.736842 4:0.683333 5:0.104019 6:0.669216 7:0.114601 8:0.285714 
-1 1:0.588235 2:0.548223 3:0.578947 6:0.619503 7:0.106887 8:0.428571 
-1 1:0.352941 2:0.680203 3:0.701754 4:0.616667 5:0.437352 6:0.883365 7:0.0881543 8:0.510204 
-1 1:0.0588235 2:0.873096 3:0.596491 4:0.816667 5:0.684397 6:0.810708 7:0.343802 8:0.142857 
-1 1:0.411765 2:0.989848 3:0.614035 4:0.55 5:0.171395 6:0.479924 7:0.046832 8:0.693878 
-1 2:0.685279 3:0.596491 4:0.7 5:0.295508 6:0.808795 7:0.158127 8:0.0612245 
-1 1:0.176471 2:0.649746 3:0.631579 4:0.416667 5:0.224586 6:0.619503 7:0.259504 8:0.122449 
-1 1:0.352941 2:0.634518 3:0.684211 4:0.516667 6:0.527725 7:0.26832 8:0.571429 
-1 2:0.649746 3:0.596491 4:0.316667 5:0.212766 6:0.583174 7:0.723416 8:0.0816327 
-1 1:0.294118 2:0.959391 3:0.561404 4:0.55 5:0.384161 6:0.596558 7:0.278237 8:0.163265 
-1 1:0.411765 2:0.543147 3:0.649123 6:0.565966 7:0.0969697 8:0.204082 
-1 1:0.352941 2:0.822335 3:0.54386 6:0.464627 7:0.0550964 8:0.591837 
-1 1:0.411765 2:0.654822 3:0.596491 4:0.816667 5:0.147754 6:0.736138 7:0.198898 8:0.44898 
-1 1:0.764706 2:0.771574 3:0.789474 4:0.55 5:0.034279 6:0.512428 7:0.35978 8:0.44898 
-1 1:0.294118 2:0.84264 3:0.666667 6:0.873805 7:0.144353 8:0.122449 
-1 1:0.176471 2:0.862944 3:0.561404 4:0.616667 5:0.265957 6:0.659656 7:0.153168 8:0.183673 
-1 2:0.604061 6:0.619503 7:0.0347107 8:0.0612245 
-1 1:0.294118 2:0.852792 3:0.561404 6:0.629063 7:0.031405 8:0.408163 
-1 1:0.529412 2:0.659898 3:0.614035 6:0.65392 7:0.316253 8:0.489796 
-1 2:0.573604 3:0.666667 6:0.636711 7:0.110193 8:0.0408163 
-1 1:0.529412 2:0.832487 3:0.684211 6:0.627151 7:0.0385675 8:0.489796 
-1 1:0.352941 2:0.604061 3:0.438596 4:0.366667 5:0.208038 6:0.518164 7:0.683196 8:0.244898 
