svm_type nu_svc
kernel_type polynomial
degree 3
gamma 0.071428571428571425
coef0 0
nr_class 10
total_sv 6623
rho -0.15037801805058545 0.060703180569870681 0.15534516671041573 1.1959143296181529 -0.16058512538728673 -0.072851764756319423 -1.1363093164727289 0.2256882148699004 1.0288603224814727 0.27869767076990654 1.1168460346049827 1.123409763926732 0.33298500983586582 0.60094201540072067 -1.3972522310506956 0.60616892047345439 1.12467937056003 0.74305914855788979 2.1259191853659858 0.10582743232939071 0.25054639757769426 -0.72539026148153185 0.17647175747043997 0.68807918862838724 0.92787009403737053 0.012662283737094651 0.34612530181452078 -1.0444935155070729 0.25689231801677509 0.69240372901281244 -0.73904894287402345 -0.6320137863273122 -1.1546541506496797 -1.2540595186735088 -0.23950484057401347 0.57474443519871232 -1.5862833492829866 0.37275698844340061 0.96159865931581545 -1.604972990519056 0.06150730579120374 0.71710723440735524 1.4859512239905839 1.4929591972506882 0.74315907278589999
label 6 9 8 2 1 3 5 7 0 4
probA -7.1615026199517082 -5.6912573917924236 -5.8904645586084454 -8.3218335311704017 -5.0457565236566717 -7.4659868526480633 -6.8576716486434677 -4.5208443913937817 -6.8778104912871676 -5.2936236238101948 -4.7994081804467612 -7.7518382162850639 -8.0023401316275908 -8.9016774006301045 -6.4540855455025863 -8.6367749239370273 -9.3161948578486591 -2.9971904372133005 -3.4357523490696731 -7.3789137645369909 -10.010596346756927 -5.574755221465737 -4.4849494023356247 -8.9759496281890403 -3.2096269350448785 -7.7182103922526091 -8.4267879130191314 -5.4304218601243379 -4.2414238955378076 -10.043073532244318 -9.1036211129313482 -8.3147633599228126 -8.6995760520505279 -8.3145971884341048 -7.5791201790034366 -4.2042437652707116 -4.9461484174291321 -5.1227155539633058 -6.928481783115239 -7.3468521523818611 -4.3701887385262399 -9.2838711236698828 -8.7230242988710138 -8.5981466241283666 -7.9112479268933926
probB -3.1144535824259036 0.78095514882759132 0.33283351656994575 -1.1527675971098035 0.027212549974264959 -0.11058097282302061 -1.4481530294406533 0.73244437589429168 -3.3941175612765999 0.8021412026389122 -0.59574229047797345 0.062865263111185163 0.82311830561303367 0.29274123073504665 1.1324008736956495 2.084594204505934 -1.9406366884142461 -0.30984766701255245 -0.22222677328513329 -0.39449843936402218 -1.1432933498301432 -0.61869986441847136 0.66452428430075439 -1.3860606322729188 -1.1275121330114048 -0.016460723973392877 -0.44213132904919522 1.6362373884880057 -0.0016441921740320477 -4.9655035785553361 2.4438777868667452 1.2899415849087486 1.2730819325739517 4.0526162253131499 -0.081872620347117939 0.023106981439369928 -0.47151069515740518 0.24054857818439637 -0.77018917522785846 0.50649171590685993 0.67469408546564913 -1.7536586789224542 0.10621946257550466 -1.4670478315658224 -1.7837795307211293
nr_sv 671 624 653 707 729 663 625 602 687 662
SV
0 0 0 0 0.42678237441630845 0.34862216561378379 0 0 0 1:0.121212 2:0.878788 3:0.0909091 4:0.555556 5:0.535354 6:0.282828 7:0.292929 8:0.0909091 9:0.343434 10:0.787879 11:0.46 12:0.99 13:1 14:1 
0 0 0 0 0 0 0.29125356473654868 0 0 1:0.252525 2:1 3:0.373737 4:0.777778 5:0.656566 6:0.373737 7:0.444444 8:0.141414 9:0.323232 10:0.767677 11:0.34 12:0.97 13:1 14:1 
0.31553643661453651 0.4091659457306957 0.27831401402031936 0 0.42678237441630845 0 0.29125356473654868 0 0 1:0.414141 2:0.959596 3:1 4:1 5:0.79798 6:0.979798 7:0.313131 8:0.757576 9:0.575758 10:0.59596 11:0.86 12:0.28 13:0.48 14:0.14 
0 0 0 0 0 0.34862216561378379 0 0 0 1:0.030303 2:0.878788 3:0.181818 4:0.575758 5:0.585859 6:0.30303 7:0.232323 8:0.0505051 9:0.343434 10:0.757576 11:0.44 12:0.98 13:1 14:1 
0.31553643661453651 0.4091659457306957 0.27831401402031936 0.42556662023008907 0.42678237441630845 0 0.29125356473654868 0 0.386454348572767 1:1 2:0.949495 3:0.676768 4:1 5:0.333333 6:0.979798 7:0.181818 8:0.606061 9:0.525253 10:0.606061 11:0.61 12:0.2 13:0.31 14:0.02 
0 0 0 0 0.42678237441630845 0.34862216561378379 0 0 0.386454348572767 1:0.0505051 2:0.878788 3:0.0707071 4:0.565657 5:0.474747 6:0.272727 7:0.222222 8:0.040404 9:0.313131 10:0.727273 11:0.41 12:0.97 13:1 14:1 
0 0.4091659457306957 0.27831401402031936 0.42556662023008907 0 0 0 1.5694196670498739 0 1:0.474747 2:0.939394 3:0.727273 4:0.484848 5:0.666667 6:0.787879 7:0.323232 8:0.252525 9:0.181818 10:0.393939 11:0.21 12:0.83 13:1 14:1 
0.31553643661453651 0.4091659457306957 0.27831401402031936 0.42556662023008907 0 0 0 1.5694196670498739 0 1:0.020202 2:0.787879 3:0.353535 4:0.585859 5:0.878788 6:0.383838 7:0.656566 8:0.141414 9:0.131313 10:0.545455 11:0.27 12:0.89 13:1 14:1 
0.31553643661453651 0 0.27831401402031936 0 0.42678237441630845 0.34862216561378379 0.29125356473654868 1.5694196670498739 0.386454348572767 1:0.191919 2:1 3:0.787879 4:0.929293 5:0.59596 6:0.939394 7:0.191919 8:0.727273 9:0.545455 10:0.545455 11:1 12:0.29 13:0.53 14:0.14 
0.31553643661453651 0.4091659457306957 0.27831401402031936 0.42556662023008907 0 0.34862216561378379 0 0 0.386454348572767 1:0.181818 2:0.727273 3:0.111111 4:0.606061 5:0.767677 6:0.353535 7:0.565657 8:0.0808081 9:0.181818 10:0.585859 11:0.12 12:0.94 13:1 14:1 
0 0 0 0 0.42678237441630845 0 0 0 0 1:0.262626 2:1 3:0.171717 4:0.646465 5:0.515152 6:0.353535 7:0.191919 8:0.262626 9:0.0505051 10:0.767677 11:0.45 12:0.95 13:1 14:0.96 
0.31553643661453651 0.4091659457306957 0.27831401402031936 0.42556662023008907 0.42678237441630845 0 0.29125356473654868 1.5694196670498739 0.386454348572767 1:0.515152 2:0.949495 3:1 4:1 5:0.69697 6:0.909091 7:0.252525 8:0.767677 9:0.252525 10:0.545455 11:0.64 12:0.43 13:0.43 14:0.14 
0 0 0 0 0.42678237441630845 0.34862216561378379 0 0 0 1:0.030303 2:0.79798 3:0.020202 4:0.515152 5:0.464646 6:0.535354 7:0.545455 8:0.0909091 9:0.010101 10:0.79798 11:0.43 12:1 13:1 14:0.95 
0.31553643661453651 0.4091659457306957 0.27831401402031936 0.42556662023008907 0.42678237441630845 0.34862216561378379 0.29125356473654868 1.5694196670498739 0.386454348572767 1:1 2:0.949495 3:0.545455 4:1 5:0.121212 6:0.878788 7:0.030303 8:0.616162 9:0.454545 10:0.464646 11:0.7 12:0.2 13:0.39 14:0.1 
0.31553643661453651 0.4091659457306957 0.27831401402031936 0.42556662023008907 0.24029281758343921 0.34862216561378379 0.29125356473654868 1.5694196670498739 0.386454348572767 1:0.656566 3:0.636364 4:0.252525 5:0.525253 6:0.626263 7:0.252525 8:0.111111 9:0.111111 10:0.515152 11:0.33 12:0.91 13:1 14:1 
0.31553643661453651 0 0.27831401402031936 0 0.42678237441630845 0.34862216561378379 0.29125356473654868 0 0.386454348572767 1:1 2:1 3:0.636364 4:0.979798 5:0.252525 6:0.848485 7:0.353535 8:0.626263 9:0.757576 10:0.575758 11:0.75 12:0.24 13:0.42 14:0.01 
0 0 0 0 0.42678237441630845 0.34862216561378379 0 0 0.386454348572767 1:0.181818 2:0.828283 3:0.111111 4:0.545455 5:0.565657 6:0.30303 7:0.272727 8:0.0606061 9:0.343434 10:0.727273 11:0.41 12:0.97 13:1 14:1 
0.31553643661453651 0.4091659457306957 0.27831401402031936 0 0 0 0.29125356473654868 0 0 1:0.333333 2:0.909091 3:1 4:1 5:0.707071 6:0.959596 7:0.171717 8:0.747475 9:0.373737 10:0.59596 11:0.89 12:0.46 13:0.61 14:0.16 
0 0 0.27831401402031936 0.42556662023008907 0.42678237441630845 0.34862216561378379 0 1.5694196670498739 0.386454348572767 1:0.0909091 2:0.787879 3:0.171717 4:0.474747 5:0.383838 6:0.161616 7:0.020202 8:0.373737 9:0.0909091 10:0.707071 11:0.54 12:0.87 13:1 14:1 
0.31553643661453651 0.4091659457306957 0.27831401402031936 0.42556662023008907 0.42678237441630845 0.34862216561378379 0.29125356473654868 0 0.386454348572767 1:1 2:0.929293 3:0.787879 4:0.919192 5:0.232323 6:1 7:0.666667 8:0.414141 9:0.434343 10:0.919192 11:0.28 12:0.67 13:0.25 14:0.02 
0.31553643661453651 0 0 0.42556662023008907 0.42678237441630845 0.34862216561378379 0.29125356473654868 1.5694196670498739 0.386454348572767 1:1 2:0.969697 3:0.484848 4:1 5:0.10101 6:0.818182 7:0.0909091 8:0.505051 9:0.535354 10:0.515152 11:0.76 12:0.29 13:0.47 14:0.05 
0 0 0 0 0.42678237441630845 0.34862216561378379 0.29125356473654868 1.5694196670498739 0 1:0.313131 2:0.868687 3:0.252525 4:0.616162 5:0.646465 6:0.282828 7:0.444444 8:0.181818 9:0.343434 10:0.747475 11:0.3 12:1 13:1 14:1 
0.31553643661453651 0.4091659457306957 0 0.42556662023008907 0.42678237441630845 0.34862216561378379 0.29125356473654868 1.5694196670498739 0.386454348572767 1:1 2:0.939394 3:0.616162 4:1 5:0.20202 6:0.787879 7:0.171717 8:0.434343 9:0.676768 10:0.505051 11:0.86 12:0.21 13:0.46 14:0.1 
0.31553643661453651 0.4091659457306957 0.27831401402031936 0.42556662023008907 0 0 0 1.5694196670498739 0 1:0.0707071 2:0.919192 3:0.575758 4:0.636364 5:1 6:0.292929 7:0.727273 8:0.111111 9:0.212121 10:0.606061 11:0.03 12:0.97 13:0.9 14:1 
0.31553643661453651 0.4091659457306957 0.27831401402031936 0.42556662023008907 0.42678237441630845 0.34862216561378379 0.29125356473654868 1.5694196670498739 0.386454348572767 1:1 2:1 3:0.565657 4:1 5:0.282828 6:0.767677 7:0.212121 8:0.535354 9:0.646465 10:0.525253 11:0.61 12:0.16 13:0.22 14:0.09 
0.31553643661453651 0 0.27831401402031936 0.42556662023008907 0.42678237441630845 0.34862216561378379 0.29125356473654868 1.5694196670498739 0.386454348572767 1:0.878788 2:0.888889 3:0.454545 4:1 5:0.121212 6:0.757576 7:0.222222 8:0.424242 9:0.757576 10:0.494949 11:1 12:0.21 13:0.55 14:0.06 
0 0 0 0.42556662023008907 0 0 0 1.5694196670498739 0 1:0.59596 2:0.909091 3:0.131313 4:0.79798 5:0.494949 6:0.585859 7:0.555556 8:0.0606061 9:0.030303 10:0.444444 11:0.41 12:0.91 13:1 14:1 
0 0 0 0 0.42678237441630845 0.34862216561378379 0.29125356473654868 1.5694196670498739 0 1:0.252525 2:0.89899 3:0.161616 4:0.636364 5:0.59596 6:0.333333 7:0.525253 8:0.191919 9:0.313131 10:0.727273 11:0.31 12:0.96 13:1 14:1 
0.31553643661453651 0.4091659457306957 0 0 0 0 0.29125356473654868 0 0 1:0.282828 2:0.868687 3:1 4:1 5:0.828283 6:0.969697 7:0.0909091 8:0.838384 9:0.30303 10:0.626263 11:0.93 12:0.46 13:0.66 14:0.17 
0.31553643661453651 0.4091659457306957 0.27831401402031936 0.42556662023008907 0 0 0 0 0 1:0.111111 2:0.767677 3:0.191919 4:0.616162 5:0.777778 6:0.393939 7:0.494949 9:0.161616 10:0.636364 11:0.23 12:0.98 13:1 14:1 
0.31553643661453651 0.4091659457306957 0.27831401402031936 0.42556662023008907 0.42678237441630845 0.34862216561378379 0 1.5694196670498739 0.386454348572767 1:0.646465 2:0.272727 3:0.353535 4:0.40404 5:0.181818 6:0.030303 7:0.040404 8:0.393939 9:0.0606061 10:0.787879 11:0.5 12:0.97 13:1 14:1 
0.31553643661453651 0.4091659457306957 0.27831401402031936 0.42556662023008907 0 0 0.29125356473654868 1.5694196670498739 0.386454348572767 1:0.636364 2:0.888889 3:1 4:1 5:0.464646 6:0.868687 7:0.0606061 8:0.636364 9:0.242424 10:0.525253 11:0.74 12:0.43 13:0.51 14:0.14 
0 0.4091659457306957 0 0.42556662023008907 0 0 0 0 0 1:0.525253 2:0.919192 3:0.151515 4:0.636364 5:0.757576 6:0.393939 7:0.383838 8:0.0606061 9:0.0606061 10:0.535354 11:0.23 12:0.98 13:1 14:1 
0 0.4091659457306957 0 0.42556662023008907 0.42678237441630845 0.34862216561378379 0 1.5694196670498739 0.386454348572767 1:0.212121 2:0.707071 3:0.545455 4:0.434343 5:0.414141 6:0.10101 8:0.363636 9:0.121212 10:0.707071 11:0.53 12:0.91 13:1 14:1 
0 0.4091659457306957 0.27831401402031936 0.42556662023008907 0 0.34862216561378379 0 0 0 1:0.262626 2:0.848485 3:0.030303 4:0.565657 5:0.59596 6:0.575758 7:0.646465 8:0.171717 10:0.494949 11:0.24 12:0.95 13:1 14:1 
0.31553643661453651 0 0.27831401402031936 0.42556662023008907 0.42678237441630845 0.34862216561378379 0.29125356473654868 1.5694196670498739 0.386454348572767 1:1 2:1 3:0.505051 4:1 5:0.10101 6:0.808081 7:0.0808081 8:0.505051 9:0.565657 10:0.545455 11:0.73 12:0.22 13:0.37 14:0.14 
0.31553643661453651 0.4091659457306957 0.27831401402031936 0.42556662023008907 0.42678237441630845 0.34862216561378379 0.29125356473654868 0.044474126402131858 0.386454348572767 1:1 2:1 3:0.535354 4:0.989899 5:0.151515 6:0.787879 7:0.505051 8:0.474747 9:0.505051 10:0.757576 11:0.27 12:0.47 13:0.01 14:0.01 
0 0 0.27831401402031936 0 0.42678237441630845 0.34862216561378379 0 0 0 1:0.292929 2:1 3:0.222222 4:0.686869 5:0.656566 6:0.323232 7:0.585859 8:0.181818 9:0.262626 10:0.666667 11:0.08 12:1 13:1 14:0.97 
0.31553643661453651 0.4091659457306957 0.27831401402031936 0 0 0 0.29125356473654868 0.75952022822450482 0 1:0.191919 2:0.979798 3:0.969697 4:1 5:1 6:0.989899 7:0.30303 8:0.878788 9:0.40404 10:0.565657 11:0.97 12:0.3 13:0.57 14:0.13 
0.31553643661453651 0.4091659457306957 0.27831401402031936 0.42556662023008907 0 0 0.29125356473654868 0 0.386454348572767 1:0.717172 2:0.959596 3:1 4:1 5:0.565657 6:0.949495 7:0.30303 8:0.646465 9:0.484848 10:0.505051 11:0.67 12:0.29 13:0.39 14:0.03 
0.31553643661453651 0.4091659457306957 0.27831401402031936 0.42556662023008907 0.42678237441630845 0.34862216561378379 0.29125356473654868 1.5694196670498739 0.386454348572767 1:0.939394 2:0.969697 3:0.555556 4:0.959596 5:1 6:0.040404 7:0.666667 8:0.575758 9:0.525253 10:1 11:0.27 12:0.63 13:0.11 14:0.01 
0.31553643661453651 0.4091659457306957 0.27831401402031936 0.42556662023008907 0.42678237441630845 0.34862216561378379 0.29125356473654868 1.5694196670498739 0.386454348572767 1:0.040404 2:0.858586 3:0.767677 4:1 5:0.79798 6:0.989899 7:0.858586 8:0.191919 9:0.626263 10:1 11:0.48 12:0.81 13:0.13 14:0.01 
0 0 0 0 0.42678237441630845 0.34862216561378379 0 0 0 1:0.151515 2:0.89899 3:0.0808081 4:0.606061 5:0.494949 6:0.343434 7:0.222222 8:0.040404 9:0.343434 10:0.808081 11:0.48 12:0.97 13:1 14:1 
0.31553643661453651 0 0 0 0.42678237441630845 0.34862216561378379 0.29125356473654868 0 0.386454348572767 1:0.373737 2:0.989899 3:0.89899 4:0.949495 5:0.282828 6:1 7:0.0909091 8:0.575758 9:0.59596 10:0.525253 11:1 12:0.23 13:0.49 14:0.18 
0 0 0 0 0 0 0 1.5694196670498739 0 1:0.131313 2:0.919192 3:0.636364 4:0.656566 5:0.606061 6:0.767677 7:0.0606061 8:0.40404 9:0.222222 10:0.545455 11:0.3 12:0.95 13:1 14:1 
0 0 0.27831401402031936 0.42556662023008907 0 0 0 1.5694196670498739 0 1:0.424242 2:0.989899 3:0.0707071 4:0.676768 5:0.727273 6:0.737374 7:0.616162 8:0.242424 9:0.0606061 10:0.484848 11:0.2 12:0.96 13:1 14:1 
0 0.4091659457306957 0 0.42556662023008907 0 0 0 0 0 1:0.333333 2:1 3:0.616162 4:0.707071 5:0.535354 6:0.757576 7:0.10101 8:0.151515 9:0.0909091 10:0.474747 11:0.22 12:0.88 13:1 14:0.95 
0 0 0.27831401402031936 0.42556662023008907 0 0 0 0 0 1:0.191919 2:0.979798 3:0.0808081 4:0.545455 5:0.707071 6:0.525253 7:0.69697 8:0.040404 9:0.0909091 10:0.59596 11:0.24 12:0.93 13:1 14:1 
0 0 0 0 0.42678237441630845 0.34862216561378379 0 1.5694196670498739 0 1:0.30303 2:0.808081 3:0.535354 4:0.454545 5:0.505051 6:0.0505051 7:0.0606061 8:0.414141 9:0.121212 10:0.838384 11:0.55 12:0.96 13:1 14:1 
0.31553643661453651 0.4091659457306957 0.27831401402031936 0.42556662023008907 0.42678237441630845 0.34862216561378379 0.29125356473654868 1.5694196670498739 0.386454348572767 1:0.0606061 2:0.909091 3:0.565657 4:1 5:0.0707071 6:0.959596 7:0.535354 8:0.565657 9:0.494949 10:1 11:0.21 12:0.46 13:0.01 14:0.14 
0.31553643661453651 0 0.27831401402031936 0 0.42678237441630845 0.34862216561378379 0.29125356473654868 1.5694196670498739 0.386454348572767 1:0.555556 2:1 3:1 4:0.979798 5:0.262626 6:0.969697 7:0.232323 8:0.656566 9:0.777778 10:0.474747 11:0.95 12:0.11 13:0.32 14:0.26 
0.31553643661453651 0 0.27831401402031936 0.42556662023008907 0.42678237441630845 0 0.29125356473654868 1.1431069288038336 0.386454348572767 1:0.30303 2:0.939394 3:1 4:1 5:0.656566 6:0.959596 7:0.040404 8:0.787879 9:0.494949 10:0.686869 11:0.37 12:0.92 13:0.1 14:0.22 
0 0.4091659457306957 0 0 0 0 0 1.5694196670498739 0 1:0.515152 2:1 3:0.474747 4:0.656566 5:0.909091 6:0.444444 7:0.474747 8:0.0909091 9:0.191919 10:0.484848 11:0.39 12:0.98 13:1 14:1 
0 0 0 0 0 0.34862216561378379 0 1.5694196670498739 0.386454348572767 1:0.292929 2:1 3:0.575758 4:0.222222 5:0.383838 6:0.626263 7:0.131313 8:0.121212 9:0.232323 10:0.515152 11:0.44 12:0.96 13:1 14:0.93 
0 0.4091659457306957 0.27831401402031936 0.42556662023008907 0 0 0 0.44685375895916324 0 1:0.40404 2:0.868687 3:0.626263 4:0.616162 5:0.616162 6:0.838384 7:0.232323 8:0.0707071 9:0.0505051 10:0.434343 11:0.11 12:0.93 13:1 14:1 
0 0 0 0.42556662023008907 0.42678237441630845 0 0 0 0.386454348572767 2:0.878788 3:0.535354 4:0.585859 5:0.30303 6:0.353535 7:0.10101 8:0.272727 9:0.030303 10:0.676768 11:0.28 12:0.97 13:1 14:1 
0.31553643661453651 0.4091659457306957 0.27831401402031936 0.42556662023008907 0.42678237441630845 0.34862216561378379 0.29125356473654868 1.5694196670498739 0.386454348572767 1:0.393939 2:0.989899 3:1 4:0.868687 5:0.424242 6:1 7:0.292929 8:0.555556 9:0.727273 10:0.434343 11:0.98 12:0.09 13:0.38 14:0.31 
0 0 0 0 0 0 0.29125356473654868 0 0 1:0.161616 2:0.909091 3:0.232323 4:0.717172 5:0.585859 6:0.393939 7:0.282828 8:0.040404 9:0.323232 10:0.89899 11:0.49 12:0.96 13:1 14:1 
0 0 0 0.42556662023008907 0 0 0 0 0 1:0.121212 2:0.939394 3:0.0909091 4:0.626263 5:0.727273 6:0.454545 7:0.646465 8:0.0707071 9:0.020202 10:0.565657 11:0.31 12:1 13:1 14:0.99 
0.31553643661453651 0.4091659457306957 0.27831401402031936 0.42556662023008907 0.42678237441630845 0.34862216561378379 0.29125356473654868 1.5694196670498739 0.386454348572767 1:1 2:0.949495 3:0.515152 4:0.989899 5:1 6:0.171717 7:0.676768 8:0.69697 9:0.646465 10:0.818182 11:0.28 12:0.42 13:0.01 14:0.07 
0.31553643661453651 0.4091659457306957 0.27831401402031936 0.42556662023008907 0.42678237441630845 0 0.29125356473654868 1.5694196670498739 0.386454348572767 1:0.535354 2:0.919192 3:0.89899 4:1 5:1 6:0.949495 7:0.626263 8:0.888889 9:0.323232 10:0.656566 11:0.52 12:0.33 13:0.32 14:0.02 
0.31553643661453651 0.4091659457306957 0.27831401402031936 0.42556662023008907 0.42678237441630845 0.34862216561378379 0.29125356473654868 1.5694196670498739 0 1:0.323232 2:0.747475 3:0.676768 4:1 5:1 6:0.979798 7:0.515152 8:0.919192 9:0.363636 10:0.505051 11:0.79 12:0.35 13:0.47 14:0.06 
0 0 0 0 0.42678237441630845 0.34862216561378379 0.29125356473654868 1.5694196670498739 0 1:0.0505051 2:0.767677 3:0.222222 4:0.494949 5:0.30303 6:0.030303 7:0.121212 8:0.646465 9:0.212121 10:0.959596 11:0.6 12:1 13:1 14:1 
0 0.4091659457306957 0 0.42556662023008907 0 0 0 0 0 1:0.292929 2:0.909091 3:0.494949 4:0.565657 5:0.535354 6:0.616162 7:0.181818 8:0.010101 9:0.010101 10:0.515152 11:0.28 12:0.96 13:1 14:1 
0 0.4091659457306957 0.27831401402031936 0.42556662023008907 0 0 0 1.5694196670498739 0 1:0.59596 2:0.969697 3:0.030303 4:0.828283 5:0.616162 6:0.434343 7:0.929293 9:0.111111 10:0.454545 11:0.11 12:0.94 13:1 14:1 
0.31553643661453651 0.4091659457306957 0.27831401402031936 0.42556662023008907 0.42678237441630845 0.34862216561378379 0.29125356473654868 1.5694196670498739 0 1:0.464646 2:0.929293 3:0.919192 4:1 5:1 6:0.959596 7:0.545455 8:0.838384 9:0.59596 10:0.565657 11:0.83 12:0.25 13:0.45 14:0.05 
0 0.4091659457306957 0.27831401402031936 0.42556662023008907 0 0 0 0 0 1:0.0606061 2:0.939394 3:0.161616 4:0.505051 5:0.939394 6:0.464646 7:0.656566 8:0.0808081 9:0.020202 10:0.555556 11:0.18 12:0.97 13:1 14:1 
0 0 0 0 0.42678237441630845 0 0 0 0 1:0.393939 2:0.989899 3:0.040404 4:0.626263 5:0.454545 6:0.40404 7:0.0808081 8:0.333333 10:0.858586 11:0.37 12:1 13:1 14:0.96 
0 0.4091659457306957 0.27831401402031936 0.42556662023008907 0 0 0 0 0 1:0.181818 2:1 3:0.515152 4:0.747475 5:0.727273 6:1 7:0.272727 8:0.262626 9:0.020202 10:0.454545 11:0.01 12:0.94 13:0.92 14:0.99 
0.31553643661453651 0 0.27831401402031936 0 0.42678237441630845 0.34862216561378379 0.29125356473654868 0 0.386454348572767 1:1 2:0.989899 3:0.545455 4:1 5:0.212121 6:0.787879 7:0.262626 8:0.505051 9:0.737374 10:0.464646 11:0.87 12:0.19 13:0.47 14:0.01 
0.31553643661453651 0 0.27831401402031936 0 0.42678237441630845 0.34862216561378379 0.29125356473654868 0 0.386454348572767 1:1 2:0.888889 3:0.626263 4:0.939394 5:0.131313 6:1 7:0.121212 8:0.646465 9:0.606061 10:0.59596 11:0.78 12:0.2 13:0.35 14:0.12 
0.31553643661453651 0 0 0 0.42678237441630845 0.34862216561378379 0.29125356473654868 1.5694196670498739 0.386454348572767 1:1 2:1 3:0.434343 4:0.989899 5:0.0505051 6:0.727273 7:0.141414 8:0.474747 9:0.646465 10:0.59596 11:0.85 12:0.26 13:0.49 14:0.12 
0 0 0 0 0.42678237441630845 0.34862216561378379 0 0 0.386454348572767 1:0.171717 2:0.919192 3:0.10101 4:0.555556 5:0.424242 6:0.222222 7:0.20202 8:0.030303 9:0.363636 10:0.737374 11:0.47 12:0.92 13:1 14:1 
0 0 0 0 0 0 0.29125356473654868 1.5694196670498739 0 1:0.323232 2:0.929293 3:0.545455 4:0.606061 5:0.575758 6:0.909091 7:0.242424 8:0.363636 9:0.282828 10:0.525253 11:0.36 12:1 13:1 14:0.93 
0.31553643661453651 0.4091659457306957 0.27831401402031936 0.42556662023008907 0 0.34862216561378379 0.29125356473654868 1.5694196670498739 0 1:0.181818 2:0.909091 3:0.171717 4:0.494949 5:0.878788 6:0.494949 7:0.878788 8:0.040404 9:0.232323 10:0.505051 11:0.29 12:0.91 13:1 14:1 
0.31553643661453651 0 0.27831401402031936 0.42556662023008907 0 0.34862216561378379 0 1.5694196670498739 0.386454348572767 1:0.242424 2:0.828283 3:0.111111 4:0.535354 5:0.616162 6:0.282828 7:0.363636 8:0.0505051 9:0.191919 10:0.616162 11:0.37 12:0.92 13:1 14:1 
0 0 0 0 0.42678237441630845 0.34862216561378379 0 0 0 1:0.313131 2:0.919192 3:0.111111 4:0.656566 5:0.414141 6:0.282828 7:0.171717 8:0.232323 9:0.161616 10:0.777778 11:0.56 12:1 13:1 14:0.97 
0 0 0 0 0.42678237441630845 0.34862216561378379 0.29125356473654868 1.5694196670498739 0 1:0.222222 2:0.89899 3:0.424242 4:0.474747 5:0.373737 6:0.040404 7:0.020202 8:0.555556 9:0.222222 10:0.858586 11:0.6 12:0.98 13:1 14:1 
0.31553643661453651 0.4091659457306957 0.27831401402031936 0.42556662023008907 0.42678237441630845 0.34862216561378379 0.29125356473654868 1.5694196670498739 0.386454348572767 1:1 2:1 3:0.565657 4:0.939394 5:0.282828 6:0.757576 7:0.474747 8:0.626263 9:0.828283 10:0.484848 11:0.71 12:0.19 13:0.36 14:0.04 
0 0.4091659457306957 0 0 0 0 0 1.5694196670498739 0 1:0.606061 2:0.969697 3:0.878788 4:0.565657 5:0.59596 6:0.747475 7:0.151515 8:0.030303 9:0.010101 10:0.484848 11:0.24 12:0.98 13:1 14:1 
0.31553643661453651 0.4091659457306957 0.27831401402031936 0 0 0 0.29125356473654868 1.5694196670498739 0 1:0.40404 2:0.909091 3:1 4:1 5:0.989899 6:0.989899 7:0.444444 8:0.858586 9:0.393939 10:0.565657 11:0.89 12:0.39 13:0.57 14:0.09 
0.31553643661453651 0.4091659457306957 0.27831401402031936 0.42556662023008907 0 0 0.29125356473654868 0 0.386454348572767 1:0.535354 2:0.919192 3:1 4:1 5:0.555556 6:0.888889 7:0.171717 8:0.656566 9:0.474747 10:0.515152 11:0.82 12:0.34 13:0.49 14:0.08 
0 0.4091659457306957 0.27831401402031936 0.42556662023008907 0 0 0 0 0 1:0.141414 2:0.888889 3:0.676768 4:0.868687 5:0.686869 6:0.858586 7:0.242424 8:0.20202 9:0.030303 10:0.444444 11:0.08 12:0.86 13:1 14:1 
0.31553643661453651 0 0.27831401402031936 0.42556662023008907 0.42678237441630845 0.34862216561378379 0.29125356473654868 1.5694196670498739 0.386454348572767 2:0.969697 3:0.676768 4:0.979798 5:0.383838 6:1 7:0.20202 8:0.626263 9:0.545455 10:0.494949 11:1 12:0.25 13:0.46 14:0.19 
0.31553643661453651 0.4091659457306957 0.27831401402031936 0.42556662023008907 0 0.34862216561378379 0 1.5694196670498739 0.386454348572767 1:0.212121 2:0.89899 3:0.040404 4:0.545455 5:0.676768 6:0.515152 7:0.757576 8:0.0808081 9:0.030303 10:0.424242 11:0.17 12:0.87 13:1 14:1 
0.31553643661453651 0.068701757076488568 0.27831401402031936 0.42556662023008907 0.42678237441630845 0.34862216561378379 0.29125356473654868 1.5694196670498739 0.386454348572767 1:1 2:0.989899 3:0.565657 4:1 5:0.171717 6:0.787879 7:0.151515 8:0.444444 9:0.606061 10:0.515152 11:0.78 12:0.22 13:0.39 14:0.07 
0 0 0 0 0 0 0 1.5694196670498739 0.386454348572767 1:0.646465 2:0.949495 3:0.272727 4:0.717172 5:0.515152 6:0.323232 7:0.232323 8:0.151515 9:0.141414 10:0.585859 11:0.48 12:0.89 13:1 14:1 
0.31553643661453651 0.4091659457306957 0.27831401402031936 0.42556662023008907 0.42678237441630845 0.34862216561378379 0.29125356473654868 1.5694196670498739 0.386454348572767 1:1 2:0.848485 3:0.656566 4:1 5:0.353535 6:0.777778 7:0.494949 8:0.494949 9:0.89899 10:0.353535 11:0.87 12:0.02 13:0.44 14:0.04 
0 0.4091659457306957 0 0 0 0 0 1.5694196670498739 0 1:0.424242 2:0.979798 3:0.686869 4:0.565657 5:0.484848 6:0.616162 7:0.0606061 8:0.141414 9:0.161616 10:0.494949 11:0.34 12:0.95 13:1 14:1 
0.31553643661453651 0.4091659457306957 0.27831401402031936 0.42556662023008907 0.42678237441630845 0 0.29125356473654868 0 0.386454348572767 1:0.626263 2:0.909091 3:1 4:1 5:0.747475 6:0.919192 7:0.40404 8:0.767677 9:0.30303 10:0.494949 11:0.56 12:0.27 13:0.36 14:0.01 
0.31553643661453651 0.4091659457306957 0.27831401402031936 0.42556662023008907 0 0 0 0 0.042585655866211936 1:0.232323 2:0.848485 3:0.020202 4:0.494949 5:0.838384 6:0.515152 7:0.585859 8:0.040404 10:0.515152 11:0.11 12:0.94 13:1 14:1 
0.31553643661453651 0 0 0 0.42678237441630845 0.34862216561378379 0.29125356473654868 0 0.386454348572767 1:0.989899 2:1 3:0.656566 4:1 5:0.171717 6:0.939394 7:0.292929 8:0.565657 9:0.858586 10:0.484848 11:1 12:0.15 13:0.48 14:0.12 
0 0 0 0 0.42678237441630845 0.34862216561378379 0 1.5694196670498739 0 1:0.252525 2:0.79798 3:0.222222 4:0.555556 5:0.59596 6:0.232323 7:0.272727 8:0.232323 9:0.121212 10:0.676768 11:0.47 12:0.97 13:1 14:1 
0 0.4091659457306957 0.27831401402031936 0.42556662023008907 0.42678237441630845 0.34862216561378379 0.29125356473654868 1.5694196670498739 0.386454348572767 1:0.909091 2:0.252525 3:0.565657 4:0.515152 5:0.212121 6:0.0707071 7:0.030303 8:0.383838 9:0.030303 10:0.808081 11:0.41 12:1 13:1 14:0.98 
0 0.4091659457306957 0.27831401402031936 0.42556662023008907 0 0 0 1.5694196670498739 0.386454348572767 1:0.353535 2:0.79798 3:0.636364 4:0.363636 5:0.40404 6:0.242424 8:0.0707071 9:0.0606061 10:0.535354 11:0.43 12:0.88 13:1 14:1 
0.31553643661453651 0.4091659457306957 0.27831401402031936 0.42556662023008907 0.42678237441630845 0 0.29125356473654868 1.5694196670498739 0.386454348572767 1:1 2:0.878788 3:0.717172 4:1 5:0.262626 6:0.878788 7:0.0505051 8:0.575758 9:0.333333 10:0.505051 11:0.68 12:0.37 13:0.43 14:0.08 
0.31553643661453651 0.4091659457306957 0.27831401402031936 0.42556662023008907 0.42678237441630845 0.34862216561378379 0.29125356473654868 1.5694196670498739 0.386454348572767 1:0.949495 2:0.89899 3:0.69697 4:0.949495 5:1 6:0.656566 7:0.686869 8:0.585859 9:1 10:0.262626 11:0.53 12:0.16 13:0.13 
0.31553643661453651 0.4091659457306957 0.27831401402031936 0.42556662023008907 0 0 0.29125356473654868 0 0.386454348572767 1:0.545455 2:0.949495 3:1 4:1 5:0.535354 6:0.909091 7:0.272727 8:0.545455 9:0.535354 10:0.525253 11:0.76 12:0.3 13:0.43 14:0.01 
0.31553643661453651 0.4091659457306957 0.27831401402031936 0.42556662023008907 0.42678237441630845 0.34862216561378379 0.29125356473654868 1.5694196670498739 0.386454348572767 1:0.0707071 2:0.676768 3:0.333333 4:0.363636 5:0.393939 6:0.0707071 7:0.424242 8:0.232323 9:0.717172 10:0.606061 11:0.87 12:1 13:1 
0.31553643661453651 0 0 0 0 0 0.29125356473654868 0 0.386454348572767 1:0.40404 2:0.959596 3:0.909091 4:1 5:0.454545 6:0.939394 7:0.040404 8:0.626263 9:0.414141 10:0.474747 11:1 12:0.32 13:0.63 14:0.05 
0.31553643661453651 0.4091659457306957 0.27831401402031936 0.42556662023008907 0 0.34862216561378379 0 0 0.386454348572767 1:0.0606061 2:0.707071 3:0.373737 4:0.484848 5:0.69697 6:0.191919 7:0.242424 9:0.333333 10:0.686869 11:0.33 12:1 13:1 14:0.97 
0 0.4091659457306957 0.27831401402031936 0.42556662023008907 0 0 0 1.5694196670498739 0.386454348572767 1:0.59596 2:0.909091 3:0.848485 4:0.181818 5:0.363636 6:0.818182 7:0.262626 8:0.30303 9:0.020202 10:0.292929 11:0.4 12:0.74 13:1 14:1 
0 0 0 0.42556662023008907 0 0 0 0 0 1:0.151515 2:0.89899 3:0.454545 4:0.666667 5:0.414141 6:0.878788 7:0.010101 8:0.282828 9:0.0606061 10:0.484848 11:0.18 12:0.93 13:1 14:1 
0 0 0 0 0.42678237441630845 0 0 0 0 1:0.40404 2:0.959596 3:0.161616 4:0.757576 5:0.494949 6:0.363636 7:0.30303 8:0.333333 10:0.858586 11:0.49 12:0.98 13:1 14:1 
0.31553643661453651 0.4091659457306957 0.27831401402031936 0.42556662023008907 0.42678237441630845 0 0.29125356473654868 0 0.386454348572767 1:0.616162 2:0.989899 3:1 4:1 5:0.616162 6:0.959596 7:0.282828 8:0.848485 9:0.323232 10:0.565657 11:0.55 12:0.32 13:0.38 14:0.08 
0 0.4091659457306957 0 0 0 0 0 1.5694196670498739 0 1:0.313131 2:0.959596 3:0.666667 4:0.606061 5:0.575758 6:0.737374 7:0.131313 8:0.232323 9:0.191919 10:0.494949 11:0.38 12:0.91 13:1 14:1 
0.31553643661453651 0.4091659457306957 0.27831401402031936 0.42556662023008907 0 0.34862216561378379 0.29125356473654868 1.5694196670498739 0.386454348572767 1:0.787879 2:0.0505051 3:0.636364 4:0.40404 5:0.505051 6:0.838384 7:0.20202 8:0.222222 9:0.151515 10:0.505051 11:0.25 12:1 13:1 14:0.94 
0.31553643661453651 0.4091659457306957 0.27831401402031936 0.42556662023008907 0.42678237441630845 0.34862216561378379 0.29125356473654868 1.5694196670498739 0.386454348572767 1:0.363636 2:1 3:0.131313 4:0.545455 5:0.838384 6:0.606061 7:1 8:0.191919 9:0.373737 10:0.010101 11:0.43 12:0.83 13:0.72 14:0.87 
0 0 0 0 0.42678237441630845 0.34862216561378379 0 1.5694196670498739 0.386454348572767 1:0.353535 2:0.909091 3:0.383838 4:0.525253 5:0.393939 6:0.141414 7:0.010101 8:0.30303 9:0.181818 10:0.707071 11:0.57 12:0.91 13:1 14:1 
0.31553643661453651 0.4091659457306957 0.27831401402031936 0.42556662023008907 0.42678237441630845 0 0.29125356473654868 0 0 1:0.454545 2:0.89899 3:1 4:0.989899 5:1 6:1 7:0.454545 8:0.939394 9:0.111111 10:0.686869 11:0.53 12:0.4 13:0.5 14:0.06 
0.31553643661453651 0.4091659457306957 0.27831401402031936 0.42556662023008907 0.42678237441630845 0.34862216561378379 0.29125356473654868 1.5694196670498739 0.386454348572767 1:0.232323 2:0.79798 3:0.585859 4:0.949495 5:1 6:1 7:0.626263 8:0.919192 9:0.242424 10:0.777778 11:0.21 12:0.47 13:0.36 14:0.16 
0 0.4091659457306957 0 0.42556662023008907 0 0 0 1.5694196670498739 0 1:0.262626 2:0.89899 3:0.646465 4:0.545455 5:0.434343 6:0.616162 7:0.040404 8:0.181818 9:0.232323 10:0.494949 11:0.29 12:0.95 13:1 14:1 
0 0 0 0 0.42678237441630845 0.34862216561378379 0.29125356473654868 0 0 1:0.222222 2:0.959596 3:0.262626 4:0.535354 5:0.636364 6:0.343434 7:0.323232 8:0.111111 9:0.414141 10:0.929293 11:0.5 12:0.96 13:1 14:1 
0.31553643661453651 0.4091659457306957 0.27831401402031936 0.42556662023008907 0.42678237441630845 0.34862216561378379 0.29125356473654868 1.5694196670498739 0.386454348572767 1:1 2:0.939394 3:0.494949 4:1 5:0.212121 6:0.757576 7:0.292929 8:0.505051 9:0.777778 10:0.434343 11:0.87 12:0.14 13:0.48 14:0.05 
0.31553643661453651 0.4091659457306957 0.27831401402031936 0 0.42678237441630845 0.34862216561378379 0.29125356473654868 1.5694196670498739 0 1:0.393939 2:0.848485 3:0.919192 4:1 5:1 6:0.979798 7:0.444444 8:0.848485 9:0.787879 10:0.646465 11:0.99 12:0.33 13:0.55 14:0.07 
0 0.4091659457306957 0 0 0 0 0 0 0 1:0.161616 2:0.868687 3:0.646465 4:0.454545 5:0.535354 6:0.626263 7:0.10101 8:0.171717 9:0.181818 10:0.545455 11:0.33 12:0.99 13:1 14:1 
0 0 0 0 0.42678237441630845 0.34862216561378379 0 1.5694196670498739 0 1:0.363636 2:0.939394 3:0.525253 4:0.474747 5:0.40404 6:0.0505051 7:0.030303 8:0.444444 9:0.161616 10:0.89899 11:0.57 12:1 13:1 14:1 
0.31553643661453651 0 0.27831401402031936 0 0.42678237441630845 0.34862216561378379 0.29125356473654868 0 0.386454348572767 1:1 2:1 3:0.545455 4:0.979798 5:0.252525 6:0.808081 7:0.393939 8:0.666667 9:0.777778 10:0.545455 11:0.74 12:0.25 13:0.43 14:0.01 
0.31553643661453651 0.4091659457306957 0.27831401402031936 0.42556662023008907 0 0 0.29125356473654868 0 0 1:0.0909091 2:0.868687 3:0.161616 4:0.575758 5:0.878788 6:0.494949 7:0.858586 8:0.161616 9:0.0505051 10:0.575758 11:0.21 12:0.92 13:1 14:1 
0 0 0 0 0.42678237441630845 0.34862216561378379 0.29125356473654868 0 0 1:0.191919 2:0.89899 3:0.141414 4:0.656566 5:0.363636 6:0.171717 7:0.0606061 8:0.444444 9:0.141414 10:0.949495 11:0.58 12:1 13:1 14:0.87 
0.31553643661453651 0.4091659457306957 0.27831401402031936 0.42556662023008907 0.42678237441630845 0.34862216561378379 0.29125356473654868 1.5694196670498739 0.386454348572767 1:0.979798 2:1 3:0.353535 4:0.989899 5:0.686869 6:0.292929 7:0.515152 8:0.888889 9:0.484848 10:1 11:0.04 12:0.42 13:0.09 14:0.36 
0 0.4091659457306957 0 0.42556662023008907 0 0 0 0 0 1:0.242424 2:0.979798 3:0.636364 4:0.828283 5:0.717172 6:0.787879 7:0.212121 8:0.111111 9:0.0808081 10:0.505051 11:0.08 12:0.95 13:1 14:1 
0.31553643661453651 0.4091659457306957 0.27831401402031936 0 0.42678237441630845 0.34862216561378379 0.29125356473654868 1.5694196670498739 0.386454348572767 1:0.636364 2:0.919192 3:1 4:1 5:0.848485 6:0.979798 7:0.464646 8:0.79798 9:0.69697 10:0.535354 11:0.82 12:0.18 13:0.43 14:0.13 
0 0 0 0.42556662023008907 0.42678237441630845 0.34862216561378379 0 1.5694196670498739 0.386454348572767 1:0.292929 2:0.848485 3:0.0808081 4:0.636364 5:0.373737 6:0.292929 7:0.0606061 8:0.232323 9:0.131313 10:0.636364 11:0.51 12:0.89 13:1 14:1 
0.31553643661453651 0 0.27831401402031936 0 0.42678237441630845 0.34862216561378379 0.29125356473654868 1.5694196670498739 0.386454348572767 1:1 2:1 3:0.454545 4:0.89899 5:0.181818 6:0.707071 7:0.414141 8:0.626263 9:0.919192 10:0.555556 11:0.91 12:0.26 13:0.54 14:0.02 
0.31553643661453651 0 0.27831401402031936 0 0.42678237441630845 0.34862216561378379 0.29125356473654868 1.5694196670498739 0.386454348572767 1:0.848485 2:0.89899 3:0.343434 4:1 5:0.141414 6:0.767677 7:0.313131 8:0.525253 9:0.909091 10:0.515152 11:1 12:0.22 13:0.56 14:0.07 
0.31553643661453651 0.4091659457306957 0.27831401402031936 0.42556662023008907 0.42678237441630845 0.34862216561378379 0.29125356473654868 1.5694196670498739 0.386454348572767 1:0.0505051 2:0.787879 3:0.414141 4:0.949495 5:1 6:1 7:0.343434 8:0.878788 9:0.555556 10:0.616162 11:0.41 12:0.64 13:0.02 
0.31553643661453651 0.4091659457306957 0.27831401402031936 0.42556662023008907 0.42678237441630845 0.34862216561378379 0.29125356473654868 1.5694196670498739 0.386454348572767 1:0.818182 2:0.0808081 3:0.585859 4:0.555556 5:0.333333 6:0.40404 7:0.0909091 8:0.292929 9:0.020202 10:0.666667 11:0.42 12:0.96 13:1 14:1 
0 0 0.27831401402031936 0.42556662023008907 0 0 0 0 0 1:0.373737 2:1 3:0.040404 4:0.606061 5:0.656566 6:0.515152 7:0.656566 8:0.181818 9:0.0505051 10:0.505051 11:0.24 12:0.97 13:1 14:0.98 
0.31553643661453651 0.4091659457306957 0.27831401402031936 0 0 0 0.29125356473654868 1.5694196670498739 0 1:0.414141 2:0.868687 3:1 4:1 5:0.79798 6:0.959596 7:0.292929 8:0.767677 9:0.515152 10:0.616162 11:0.94 12:0.45 13:0.57 14:0.15 
0 0 0 0 0.42678237441630845 0.34862216561378379 0 0 0 1:0.030303 2:0.868687 3:0.161616 4:0.666667 5:0.393939 6:0.333333 7:0.0808081 8:0.383838 9:0.010101 10:0.838384 11:0.48 12:1 13:1 14:0.97 
0 0 0 0 0.42678237441630845 0.34862216561378379 0 0 0.386454348572767 1:0.131313 2:0.939394 3:0.030303 4:0.626263 5:0.424242 6:0.353535 7:0.353535 8:0.0909091 9:0.262626 10:0.717172 11:0.47 12:0.92 13:1 14:1 
0.31553643661453651 0 0 0 0.42678237441630845 0.34862216561378379 0.29125356473654868 1.5694196670498739 0.386454348572767 1:0.888889 2:0.939394 3:0.555556 4:1 5:0.141414 6:0.828283 7:0.333333 8:0.555556 9:0.888889 10:0.535354 11:1 12:0.19 13:0.55 14:0.1 
0 0.4091659457306957 0 0 0 0 0 1.5694196670498739 0 1:0.69697 2:0.969697 3:0.272727 4:0.777778 5:0.646465 6:0.525253 7:0.565657 8:0.0808081 9:0.121212 10:0.414141 11:0.51 12:0.86 13:1 14:1 
0.31553643661453651 0.4091659457306957 0.27831401402031936 0.42556662023008907 0.42678237441630845 0 0.29125356473654868 1.5694196670498739 0.386454348572767 1:0.525253 2:0.848485 3:0.949495 4:1 5:1 6:0.969697 7:0.575758 8:0.919192 9:0.181818 10:0.717172 11:0.38 12:0.44 13:0.39 14:0.09 
0.31553643661453651 0.4091659457306957 0.27831401402031936 0.42556662023008907 0 0 0 1.5694196670498739 0 1:0.434343 2:0.929293 3:0.0808081 4:0.636364 5:0.818182 6:0.444444 7:0.626263 8:0.0707071 9:0.121212 10:0.434343 11:0.28 12:0.88 13:1 14:1 
0.31553643661453651 0.4091659457306957 0.27831401402031936 0.42556662023008907 0.42678237441630845 0.34862216561378379 0.29125356473654868 0 0.386454348572767 1:0.393939 2:0.919192 3:0.737374 4:0.989899 5:1 6:1 7:0.656566 8:0.919192 9:0.323232 10:0.79798 11:0.3 12:0.39 13:0.32 
0.31553643661453651 0.4091659457306957 0.27831401402031936 0.42556662023008907 0 0 0.29125356473654868 1.5694196670498739 0 1:0.343434 2:0.848485 3:0.888889 4:1 5:1 6:0.959596 7:0.353535 8:0.878788 9:0.323232 10:0.535354 11:0.95 12:0.4 13:0.6 14:0.06 
0 0 0 0 0 0 0.29125356473654868 0.99012508303037783 0 1:0.383838 2:0.888889 3:0.363636 4:0.585859 5:0.646465 6:0.282828 7:0.232323 8:0.0505051 9:0.363636 10:0.79798 11:0.38 12:1 13:1 14:0.98 
0 0.4091659457306957 0.27831401402031936 0.42556662023008907 0.42678237441630845 0.34862216561378379 0 1.5694196670498739 0.386454348572767 1:0.444444 2:0.828283 3:0.131313 4:0.717172 5:0.343434 6:0.505051 7:0.515152 8:0.10101 9:0.191919 10:0.434343 11:0.45 12:0.89 13:1 14:1 
0.31553643661453651 0.4091659457306957 0.27831401402031936 0.42556662023008907 0.42678237441630845 0 0.29125356473654868 0 0.386454348572767 1:0.535354 2:0.878788 3:1 4:1 5:0.828283 6:0.959596 7:0.434343 8:0.737374 9:0.585859 10:0.575758 11:0.75 12:0.29 13:0.44 14:0.03 
0.31553643661453651 0 0.27831401402031936 0.42556662023008907 0.42678237441630845 0.34862216561378379 0.29125356473654868 1.5694196670498739 0.386454348572767 1:0.717172 2:0.939394 3:0.242424 4:1 5:0.252525 6:0.707071 7:0.242424 8:0.353535 9:0.717172 10:0.434343 11:1 12:0.18 13:0.55 14:0.02 
0 0.4091659457306957 0.27831401402031936 0 0.42678237441630845 0.34862216561378379 0.29125356473654868 1.5694196670498739 0 1:0.262626 2:0.646465 3:0.575758 4:0.353535 5:0.606061 6:0.242424 7:0.0909091 8:0.444444 9:0.121212 10:0.737374 11:0.56 12:0.89 13:1 14:1 
0 0 0.27831401402031936 0.42556662023008907 0.42678237441630845 0.34862216561378379 0 0 0.386454348572767 1:0.0808081 2:0.838384 3:0.030303 4:0.555556 5:0.424242 6:0.252525 7:0.212121 8:0.262626 9:0.171717 10:0.666667 11:0.44 12:0.94 13:1 14:1 
0 0 0 0 0.42678237441630845 0.34862216561378379 0 1.5694196670498739 0.386454348572767 1:0.282828 2:0.949495 3:0.010101 4:0.575758 5:0.434343 6:0.393939 7:0.292929 8:0.0808081 9:0.151515 10:0.59596 11:0.5 12:0.91 13:1 14:1 
0.31553643661453651 0.4091659457306957 0.27831401402031936 0 0 0 0.29125356473654868 0 0.386454348572767 1:0.69697 2:0.979798 3:1 4:1 5:0.484848 6:0.959596 7:0.242424 8:0.616162 9:0.626263 10:0.525253 11:0.78 12:0.24 13:0.39 14:0.05 
0 0 0.27831401402031936 0.42556662023008907 0 0.34862216561378379 0 0 0 1:0.111111 2:0.919192 4:0.575758 5:0.616162 6:0.373737 7:0.494949 8:0.141414 9:0.010101 10:0.585859 11:0.3 12:0.96 13:1 14:1 
0 0.4091659457306957 0 0.42556662023008907 0 0 0 1.5694196670498739 0 1:0.252525 2:0.858586 3:0.525253 4:0.626263 5:0.393939 6:0.717172 7:0.282828 8:0.020202 9:0.30303 10:0.484848 11:0.27 12:0.92 13:1 14:1 
0 0 0 0 0.42678237441630845 0.019648784727152761 0 0 0.386454348572767 1:0.373737 2:1 3:0.0505051 4:0.616162 5:0.434343 6:0.343434 7:0.0606061 8:0.222222 9:0.0808081 10:0.717172 11:0.45 12:0.98 13:1 14:0.96 
0 0 0 0 0.42678237441630845 0 0 0 0 1:0.333333 2:0.89899 3:0.343434 4:0.616162 5:0.505051 6:0.232323 7:0.0707071 8:0.393939 10:0.818182 11:0.46 12:1 13:1 14:0.99 
0.31553643661453651 0.4091659457306957 0.27831401402031936 0.42556662023008907 0.42678237441630845 0.34862216561378379 0.29125356473654868 1.5694196670498739 0.386454348572767 1:0.0909091 2:0.909091 3:0.191919 4:0.585859 5:0.828283 6:0.555556 7:1 8:0.121212 9:0.393939 10:0.020202 11:0.42 12:0.82 13:0.6 14:1 
0 0 0 0.42556662023008907 0 0 0 1.5694196670498739 0.386454348572767 1:0.333333 2:1 3:0.171717 4:0.626263 5:0.626263 6:0.333333 7:0.333333 8:0.141414 9:0.131313 10:0.575758 11:0.4 12:0.93 13:1 14:0.89 
0.31553643661453651 0.4091659457306957 0.27831401402031936 0.42556662023008907 0.42678237441630845 0.34862216561378379 0.29125356473654868 1.5694196670498739 0.386454348572767 1:0.393939 2:0.818182 3:0.0909091 4:0.757576 5:0.585859 6:0.414141 7:0.656566 8:0.0606061 9:0.454545 10:0.313131 11:0.86 12:1 13:1 
0.31553643661453651 0 0.27831401402031936 0 0.42678237441630845 0.34862216561378379 0.29125356473654868 0 0.386454348572767 1:0.292929 2:0.969697 3:0.808081 4:0.979798 5:0.424242 6:1 7:0.131313 8:0.646465 9:0.575758 10:0.565657 11:1 12:0.27 13:0.48 14:0.17 
0.31553643661453651 0.4091659457306957 0.27831401402031936 0.42556662023008907 0 0 0.29125356473654868 0 0 1:0.232323 2:0.959596 3:0.838384 4:0.989899 5:1 6:1 7:0.242424 8:0.929293 9:0.272727 10:0.565657 11:0.93 12:0.36 13:0.73 14:0.01 
0 0.4091659457306957 0 0 0 0 0.21844017355241152 1.5694196670498739 0 1:0.585859 2:0.787879 3:0.343434 4:0.727273 5:0.717172 6:0.353535 7:0.343434 8:0.040404 9:0.232323 10:0.69697 11:0.32 12:1 13:1 14:0.97 
0 0 0 0 0.42678237441630845 0.34862216561378379 0.29125356473654868 0 0 1:0.141414 2:0.79798 3:0.474747 4:0.444444 5:0.30303 6:0.505051 7:0.292929 8:0.353535 9:0.121212 10:0.757576 11:0.46 12:1 13:1 14:0.99 
0 0.4091659457306957 0 0.42556662023008907 0 0 0 0 0 1:0.181818 2:0.969697 3:0.686869 4:0.717172 5:0.59596 6:0.848485 7:0.191919 8:0.181818 9:0.10101 10:0.464646 11:0.26 12:0.96 13:1 14:1 
0.31553643661453651 0.4091659457306957 0 0.42556662023008907 0.42678237441630845 0.34862216561378379 0.29125356473654868 1.5694196670498739 0.386454348572767 1:0.414141 2:0.949495 3:0.636364 4:0.474747 5:0.414141 6:0.20202 7:0.171717 8:0.040404 9:0.717172 10:0.414141 11:1 12:1 13:0.98 
0 0 0 0 0.42678237441630845 0.34862216561378379 0 0 0 2:0.919192 3:0.626263 4:0.353535 5:0.323232 6:0.131313 7:0.020202 8:0.363636 9:0.040404 10:0.808081 11:0.5 12:0.96 13:1 14:1 
0 0.4091659457306957 0 0 0 0 0 1.5694196670498739 0 1:0.373737 2:0.848485 3:0.585859 4:0.474747 5:0.525253 6:0.676768 7:0.171717 8:0.212121 9:0.232323 10:0.494949 11:0.37 12:0.94 13:1 14:1 
0.31553643661453651 0 0.27831401402031936 0.42556662023008907 0 0.34862216561378379 0 0 0 1:0.0909091 2:0.888889 3:0.20202 4:0.515152 5:0.747475 6:0.434343 7:0.59596 8:0.111111 9:0.111111 10:0.59596 11:0.36 12:0.93 13:1 14:1 
0.31553643661453651 0.4091659457306957 0.27831401402031936 0.42556662023008907 0.42678237441630845 0 0.29125356473654868 0 0.386454348572767 1:0.464646 2:0.959596 3:1 4:1 5:0.525253 6:0.929293 7:0.141414 8:0.737374 9:0.454545 10:0.575758 11:0.77 12:0.34 13:0.51 14:0.09 
0 0 0 0 0 0 0 1.5694196670498739 0 1:0.323232 2:0.868687 3:0.161616 4:0.777778 5:0.575758 6:0.414141 7:0.454545 8:0.111111 9:0.141414 10:0.606061 11:0.42 12:0.94 13:1 14:1 
0.31553643661453651 0 0.27831401402031936 0.42556662023008907 0 0.34862216561378379 0 0 0.386454348572767 1:0.111111 2:0.828283 3:0.0707071 4:0.535354 5:0.555556 6:0.30303 7:0.212121 8:0.030303 9:0.232323 10:0.626263 11:0.37 12:0.94 13:1 14:1 
0.31553643661453651 0 0.27831401402031936 0 0 0 0.29125356473654868 1.5694196670498739 0 1:0.212121 2:0.868687 3:0.242424 4:0.545455 5:0.767677 6:0.424242 7:0.525253 8:0.10101 9:0.171717 10:0.686869 11:0.38 12:0.91 13:1 14:1 
0.31553643661453651 0.4091659457306957 0.27831401402031936 0 0 0.34862216561378379 0.29125356473654868 1.5694196670498739 0 1:0.262626 2:0.838384 3:0.262626 4:0.555556 5:0.737374 6:0.292929 7:0.414141 8:0.161616 9:0.262626 10:0.636364 11:0.35 12:0.94 13:1 14:1 
0 0 0 0 0.42678237441630845 0.34862216561378379 0 0 0.386454348572767 1:0.181818 2:0.909091 3:0.212121 4:0.575758 5:0.494949 6:0.232323 7:0.242424 8:0.030303 9:0.363636 10:0.727273 11:0.44 12:0.94 13:1 14:1 
0 0 0 0 0.42678237441630845 0 0 0 0.386454348572767 1:0.575758 2:0.89899 3:0.0707071 4:0.626263 5:0.363636 6:0.434343 7:0.171717 8:0.171717 9:0.030303 10:0.737374 11:0.41 12:1 13:1 14:0.98 
0.31553643661453651 0.4091659457306957 0.27831401402031936 0 0 0.34862216561378379 0.29125356473654868 1.5694196670498739 0 1:0.353535 2:0.808081 3:0.353535 4:0.69697 5:0.79798 6:0.353535 7:0.515152 8:0.212121 9:0.282828 10:0.626263 11:0.35 12:0.94 13:1 14:1 
0 0.4091659457306957 0.27831401402031936 0.42556662023008907 0 0 0 1.5694196670498739 0 1:0.10101 2:0.838384 3:0.656566 4:0.575758 5:0.666667 6:0.989899 7:0.40404 8:0.40404 9:0.0505051 10:0.323232 11:0.08 12:0.84 13:1 14:1 
0.31553643661453651 0.4091659457306957 0.27831401402031936 0.42556662023008907 0.42678237441630845 0 0.29125356473654868 0 0 1:0.515152 2:0.929293 3:0.949495 4:1 5:1 6:0.979798 7:0.535354 8:0.919192 9:0.272727 10:0.606061 11:0.58 12:0.36 13:0.42 14:0.02 
0 0 0 0 0 0.076320472937719694 0 1.5694196670498739 0 1:0.585859 2:0.939394 3:0.191919 4:0.656566 5:0.575758 6:0.454545 7:0.494949 8:0.010101 9:0.20202 10:0.484848 11:0.49 12:0.96 13:1 14:1 
0.31553643661453651 0.4091659457306957 0.27831401402031936 0.42556662023008907 0.42678237441630845 0.34862216561378379 0.29125356473654868 1.5694196670498739 0.386454348572767 1:1 2:0.979798 3:0.606061 4:1 5:0.191919 6:0.888889 7:0.575758 8:0.353535 9:0.535354 10:0.646465 11:0.37 12:0.44 13:0.02 14:0.06 
0 0 0 0 0.14104251886751359 0 0 1.5694196670498739 0.386454348572767 1:0.484848 2:0.838384 3:0.484848 4:0.616162 5:0.474747 6:0.212121 7:0.0606061 8:0.292929 9:0.0808081 10:0.717172 11:0.53 12:0.9 13:1 14:1 
0.31553643661453651 0 0 0.42556662023008907 0.42678237441630845 0.34862216561378379 0.29125356473654868 0 0.386454348572767 1:1 2:1 3:0.535354 4:1 5:0.161616 6:0.848485 7:0.141414 8:0.494949 9:0.545455 10:0.464646 11:0.85 12:0.22 13:0.5 14:0.06 
0.31553643661453651 0.4091659457306957 0.27831401402031936 0.42556662023008907 0 0.34862216561378379 0 1.5694196670498739 0 1:0.242424 2:0.808081 3:0.343434 4:0.515152 5:0.737374 6:0.222222 7:0.272727 8:0.111111 9:0.343434 10:0.707071 11:0.25 12:0.96 13:1 14:1 
0.31553643661453651 0.4091659457306957 0.27831401402031936 0.42556662023008907 0.42678237441630845 0 0.29125356473654868 1.5694196670498739 0.386454348572767 1:0.575758 2:0.959596 3:1 4:1 5:0.626263 6:0.89899 7:0.363636 8:0.606061 9:0.606061 10:0.535354 11:0.66 12:0.24 13:0.36 14:0.11 
0.31553643661453651 0.4091659457306957 0.27831401402031936 0 0 0.34862216561378379 0.29125356473654868 1.5694196670498739 0 1:0.20202 2:0.79798 3:0.282828 4:0.464646 5:0.848485 6:0.434343 7:0.616162 8:0.191919 9:0.181818 10:0.666667 11:0.37 12:1 13:1 14:0.98 
0.31553643661453651 0.4091659457306957 0.27831401402031936 0.42556662023008907 0 0 0.29125356473654868 0 0 1:0.313131 2:0.919192 3:1 4:0.989899 5:1 6:1 7:0.323232 8:0.878788 9:0.111111 10:0.474747 11:0.81 12:0.39 13:0.71 14:0.06 
0.31553643661453651 0.4091659457306957 0.27831401402031936 0.42556662023008907 0 0 0.29125356473654868 0 0 1:0.282828 2:0.909091 3:1 4:1 5:0.787879 6:1 7:0.030303 8:0.949495 9:0.20202 10:0.676768 11:0.68 12:0.42 13:0.68 14:0.14 
0 0 0 0 0 0 0 1.5694196670498739 0 1:0.282828 2:0.969697 3:0.30303 4:0.69697 5:0.606061 6:0.414141 7:0.494949 8:0.191919 9:0.161616 10:0.59596 11:0.41 12:0.98 13:1 14:1 
0 0.4091659457306957 0.27831401402031936 0.42556662023008907 0.42678237441630845 0 0.29125356473654868 1.5694196670498739 0 1:0.131313 2:0.808081 3:0.555556 4:0.474747 5:0.59596 6:1 7:0.292929 8:0.494949 9:0.171717 10:0.515152 11:0.18 12:0.97 13:0.97 14:1 
0.31553643661453651 0.4091659457306957 0 0.42556662023008907 0 0 0.29125356473654868 0 0.386454348572767 1:0.505051 2:0.939394 3:1 4:1 5:0.474747 6:0.909091 7:0.0505051 8:0.656566 9:0.414141 10:0.494949 11:0.87 12:0.28 13:0.6 14:0.05 
0 0 0 0 0.42678237441630845 0.34862216561378379 0 1.5694196670498739 0.386454348572767 1:0.242424 2:0.838384 3:0.555556 4:0.535354 5:0.464646 6:0.161616 7:0.040404 8:0.343434 9:0.0909091 10:0.717172 11:0.52 12:0.9 13:1 14:1 
0.31553643661453651 0.4091659457306957 0.27831401402031936 0.42556662023008907 0.42678237441630845 0 0.29125356473654868 1.5694196670498739 0.386454348572767 1:0.606061 2:0.878788 3:0.979798 4:1 5:1 6:0.949495 7:0.616162 8:0.888889 9:0.313131 10:0.636364 11:0.56 12:0.33 13:0.38 14:0.03 
0 0.4091659457306957 0.27831401402031936 0.42556662023008907 0 0 0 1.5694196670498739 0.386454348572767 1:0.808081 2:0.151515 3:0.585859 4:0.737374 5:0.383838 6:0.646465 7:0.0707071 8:0.0505051 9:0.030303 10:0.494949 11:0.33 12:0.88 13:1 14:1 
0.31553643661453651 0.4091659457306957 0.27831401402031936 0.42556662023008907 0.42678237441630845 0.34862216561378379 0.29125356473654868 1.5694196670498739 0.386454348572767 1:1 2:0.939394 3:0.525253 4:1 5:0.20202 6:0.838384 7:0.131313 8:0.515152 9:0.616162 10:0.434343 11:0.81 12:0.14 13:0.43 14:0.17 
0.31553643661453651 0.4091659457306957 0.27831401402031936 0.42556662023008907 0.42678237441630845 0.34862216561378379 0.29125356473654868 0 0.386454348572767 1:1 2:0.808081 3:0.646465 4:0.969697 5:0.232323 6:1 7:0.0606061 8:0.636364 9:0.40404 10:0.565657 11:0.65 12:0.25 13:0.31 14:0.05 
0 0 0 0 0 0.34862216561378379 0 0 0 1:0.191919 2:1 3:0.333333 4:0.626263 5:0.565657 6:0.242424 7:0.222222 8:0.0505051 9:0.383838 10:0.808081 11:0.48 12:0.95 13:1 14:0.95 
0.31553643661453651 0 0 0.42556662023008907 0.42678237441630845 0.34862216561378379 0.29125356473654868 0 0.386454348572767 1:1 2:1 3:0.535354 4:0.989899 5:0.141414 6:0.79798 7:0.191919 8:0.464646 9:0.636364 10:0.555556 11:0.8 12:0.24 13:0.46 14:0.02 
0 0 0 0.42556662023008907 0 0 0 0 0.386454348572767 1:0.212121 2:0.888889 3:0.545455 4:0.383838 5:0.464646 6:0.424242 7:0.030303 8:0.0505051 9:0.151515 10:0.555556 11:0.39 12:1 13:1 14:0.98 
0.31553643661453651 0.4091659457306957 0.27831401402031936 0 0.42678237441630845 0.34862216561378379 0.29125356473654868 1.5694196670498739 0.386454348572767 1:0.969697 2:0.939394 3:0.606061 4:1 5:0.272727 6:0.767677 7:0.666667 8:0.707071 9:1 10:0.464646 11:0.86 12:0.08 13:0.43 14:0.12 
0.31553643661453651 0.4091659457306957 0.27831401402031936 0.42556662023008907 0 0 0.29125356473654868 0 0.386454348572767 1:0.656566 2:0.919192 3:1 4:1 5:0.848485 6:0.909091 7:0.454545 8:0.717172 9:0.494949 10:0.424242 11:0.83 12:0.24 13:0.46 14:0.03 
0.31553643661453651 0.4091659457306957 0.27831401402031936 0.42556662023008907 0.42678237441630845 0.34862216561378379 0 1.5694196670498739 0.386454348572767 1:0.10101 2:0.656566 3:0.424242 4:0.383838 5:0.393939 6:0.040404 8:0.434343 9:0.212121 10:0.727273 11:0.61 12:0.88 13:1 14:1 
0.31553643661453651 0.4091659457306957 0.27831401402031936 0.42556662023008907 0 0 0 1.5694196670498739 0 1:0.434343 2:0.79798 3:0.20202 4:0.676768 5:0.737374 6:0.373737 7:0.616162 8:0.040404 9:0.141414 10:0.505051 11:0.33 12:0.9 13:1 14:1 
0.31553643661453651 0.4091659457306957 0.27831401402031936 0.42556662023008907 0 0 0 1.5694196670498739 0 1:0.272727 2:0.848485 3:0.10101 4:0.626263 5:0.818182 6:0.363636 7:0.878788 8:0.0808081 10:0.454545 11:0.16 12:0.88 13:1 14:1 
0 0 0 0 0.42678237441630845 0.34862216561378379 0 0 0 1:0.262626 2:0.838384 3:0.191919 4:0.505051 5:0.373737 6:0.10101 7:0.010101 8:0.464646 9:0.0808081 10:0.929293 11:0.54 12:1 13:1 14:0.99 
0 0 0 0 0.42678237441630845 0.34862216561378379 0 0 0 1:0.313131 2:0.989899 3:0.343434 4:0.626263 5:0.555556 6:0.20202 7:0.161616 8:0.353535 9:0.111111 10:0.818182 11:0.54 12:1 13:1 14:0.83 
0.31553643661453651 0.4091659457306957 0.27831401402031936 0.42556662023008907 0.42678237441630845 0.34862216561378379 0.29125356473654868 0 0.386454348572767 1:1 2:0.919192 3:0.787879 4:1 5:0.464646 6:0.888889 7:0.454545 8:0.606061 9:0.676768 10:0.363636 11:0.66 12:0.09 13:0.34 14:0.01 
0.31553643661453651 0.4091659457306957 0.27831401402031936 0 0.42678237441630845 0.34862216561378379 0.29125356473654868 1.5694196670498739 0.386454348572767 1:0.333333 2:0.929293 3:0.919192 4:1 5:0.525253 6:0.919192 7:0.727273 8:0.484848 9:0.606061 10:1 11:0.4 12:0.86 13:0.1 14:0.26 
0.31553643661453651 0.4091659457306957 0.27831401402031936 0.42556662023008907 0.42678237441630845 0.34862216561378379 0.29125356473654868 1.5694196670498739 0 1:0.0606061 2:0.858586 3:0.212121 4:0.626263 5:0.949495 6:0.535354 7:1 8:0.0808081 9:0.292929 11:0.46 12:0.93 13:0.75 14:1 
0.31553643661453651 0.4091659457306957 0.27831401402031936 0.42556662023008907 0.42678237441630845 0.34862216561378379 0.29125356473654868 1.5694196670498739 0.386454348572767 1:1 2:1 3:0.646465 4:0.939394 5:0.333333 6:0.828283 7:0.262626 8:0.494949 9:0.666667 10:0.393939 11:0.76 12:0.12 13:0.4 14:0.07 
0.31553643661453651 0.4091659457306957 0.27831401402031936 0.42556662023008907 0.42678237441630845 0.34862216561378379 0.29125356473654868 1.5694196670498739 0.386454348572767 1:0.10101 2:0.868687 3:0.191919 4:0.525253 5:0.949495 6:0.525253 7:1 8:0.111111 9:0.282828 10:0.414141 11:0.86 12:0.71 13:1 
0 0 0 0 0 0.34862216561378379 0 0 0 1:0.212121 2:0.909091 3:0.0909091 4:0.515152 5:0.626263 6:0.393939 7:0.525253 8:0.141414 9:0.10101 10:0.616162 11:0.42 12:0.98 13:1 14:1 
0.31553643661453651 0.4091659457306957 0.27831401402031936 0.42556662023008907 0 0 0.29125356473654868 1.5694196670498739 0.386454348572767 1:0.575758 2:0.848485 3:1 4:1 5:0.868687 6:0.939394 7:0.515152 8:0.717172 9:0.585859 10:0.424242 11:0.85 12:0.27 13:0.47 14:0.02 
0 0.4091659457306957 0 0.42556662023008907 0 0 0 1.5694196670498739 0 1:0.444444 2:0.929293 3:0.59596 4:0.747475 5:0.686869 6:0.888889 7:0.282828 8:0.181818 9:0.141414 10:0.424242 11:0.26 12:0.93 13:1 14:1 
0.31553643661453651 0.4091659457306957 0.27831401402031936 0 0 0 0.29125356473654868 0 0.386454348572767 1:0.565657 2:1 3:1 4:1 5:0.525253 6:0.909091 7:0.212121 8:0.656566 9:0.666667 10:0.474747 11:0.91 12:0.2 13:0.5 14:0.08 
0.31553643661453651 0.4091659457306957 0.27831401402031936 0.42556662023008907 0.42678237441630845 0.25056112442478207 0.29125356473654868 1.5694196670498739 0 1:0.353535 2:0.89899 3:0.787879 4:1 5:1 6:0.979798 7:0.494949 8:0.878788 9:0.313131 10:0.585859 11:0.76 12:0.37 13:0.47 14:0.05 
0.31553643661453651 0 0 0 0.42678237441630845 0.34862216561378379 0.29125356473654868 1.5694196670498739 0 1:0.212121 2:0.787879 3:0.292929 4:0.525253 5:0.535354 6:0.232323 7:0.313131 8:0.121212 9:0.414141 10:0.858586 11:0.49 12:0.96 13:1 14:1 
0.31553643661453651 0.4091659457306957 0.27831401402031936 0 0.42678237441630845 0.34862216561378379 0.29125356473654868 1.5694196670498739 0.386454348572767 1:0.515152 2:0.89899 3:1 4:1 5:0.59596 6:0.919192 7:0.313131 8:0.59596 9:0.787879 10:0.565657 11:0.86 12:0.22 13:0.44 14:0.14 
0.31553643661453651 0 0.27831401402031936 0.42556662023008907 0.42678237441630845 0.34862216561378379 0.29125356473654868 1.5694196670498739 0.386454348572767 1:0.292929 2:0.939394 3:0.727273 4:1 5:0.282828 6:0.909091 7:0.0505051 8:0.515152 9:0.505051 10:0.454545 11:1 12:0.24 13:0.45 14:0.14 
0 0 0 0 0.42678237441630845 0 0 0 0 1:0.545455 2:0.969697 3:0.393939 4:0.606061 5:0.545455 6:0.232323 7:0.0707071 8:0.323232 9:0.0909091 10:0.79798 11:0.43 12:1 13:1 14:0.96 
0 0 0 0 0.42678237441630845 0.34862216561378379 0.29125356473654868 1.5694196670498739 0 1:0.333333 2:0.959596 3:0.454545 4:0.525253 5:0.353535 6:0.111111 7:0.010101 8:0.464646 9:0.272727 10:0.767677 11:0.63 12:0.92 13:1 14:1 
0.31553643661453651 0.4091659457306957 0.27831401402031936 0.42556662023008907 0.42678237441630845 0.34862216561378379 0.29125356473654868 1.5694196670498739 0.386454348572767 1:1 2:0.848485 3:0.585859 4:0.979798 5:0.10101 6:1 7:0.0505051 8:0.585859 9:0.333333 10:0.474747 11:0.68 12:0.23 13:0.3 14:0.1 
0 0 0 0 0.42678237441630845 0.34862216561378379 0 0 0 1:0.131313 2:0.909091 3:0.0606061 4:0.545455 5:0.353535 6:0.161616 7:0.030303 8:0.505051 9:0.030303 10:0.979798 11:0.52 12:1 13:1 14:0.97 
0.31553643661453651 0.4091659457306957 0.27831401402031936 0.42556662023008907 0.42678237441630845 0.34862216561378379 0.29125356473654868 1.5694196670498739 0.386454348572767 1:0.888889 2:0.0909091 3:0.545455 4:0.505051 5:0.292929 6:0.474747 7:0.171717 8:0.222222 9:0.191919 10:0.656566 11:0.49 12:0.94 13:1 14:1 
0 0.4091659457306957 0.27831401402031936 0.42556662023008907 0 0 0 1.5694196670498739 0 1:0.323232 2:0.858586 3:0.0808081 4:0.646465 5:0.747475 6:0.707071 7:0.717172 8:0.242424 9:0.020202 10:0.454545 11:0.12 12:0.93 13:1 14:1 
0 0.4091659457306957 0.27831401402031936 0.42556662023008907 0 0 0 0 0 1:0.151515 2:0.828283 3:0.464646 4:0.656566 5:0.616162 6:0.858586 7:0.222222 8:0.181818 9:0.0707071 10:0.474747 11:0.12 12:0.94 13:1 14:1 
0 0 0 0 0.42678237441630845 0.34862216561378379 0.29125356473654868 0 0 1:0.383838 2:0.959596 3:0.232323 4:0.636364 5:0.424242 6:0.272727 7:0.0606061 8:0.444444 9:0.141414 10:0.929293 11:0.46 12:1 13:1 14:1 
0.31553643661453651 0.4091659457306957 0.27831401402031936 0 0 0 0.29125356473654868 0 0 1:0.272727 2:0.939394 3:0.989899 4:1 5:0.686869 6:0.949495 7:0.212121 8:0.69697 9:0.505051 10:0.525253 11:1 12:0.27 13:0.67 14:0.09 
0 0.4091659457306957 0.27831401402031936 0.42556662023008907 0 0 0 0 0 1:0.131313 2:0.767677 3:0.555556 4:0.909091 5:0.545455 6:0.939394 7:0.10101 8:0.252525 9:0.0707071 10:0.454545 11:0.02 12:0.91 13:1 14:1 
0 0 0 0 0.42678237441630845 0.34862216561378379 0 0 0.386454348572767 1:0.171717 2:0.848485 3:0.40404 4:0.454545 5:0.363636 7:0.020202 8:0.464646 9:0.0606061 10:0.909091 11:0.53 12:0.97 13:1 14:1 
0.31553643661453651 0.4091659457306957 0.27831401402031936 0.42556662023008907 0 0.34862216561378379 0.29125356473654868 1.5694196670498739 0 1:0.292929 2:0.808081 3:0.868687 4:1 5:1 6:0.979798 7:0.363636 8:0.858586 9:0.454545 10:0.535354 11:0.99 12:0.32 13:0.59 14:0.02 
0 0 0 0 0.42678237441630845 0.34862216561378379 0.29125356473654868 1.5694196670498739 0.386454348572767 1:0.454545 2:0.828283 3:0.40404 4:0.515152 5:0.373737 6:0.141414 7:0.171717 8:0.313131 9:0.353535 10:0.646465 11:0.59 12:0.87 13:1 14:1 
0 0.4091659457306957 0.27831401402031936 0.42556662023008907 0 0 0 0 0 1:0.222222 2:0.939394 3:0.0707071 4:0.585859 5:0.828283 6:0.444444 7:0.636364 8:0.232323 9:0.010101 10:0.474747 11:0.23 12:0.92 13:1 14:1 
0 0.4091659457306957 0.27831401402031936 0.42556662023008907 0 0 0 1.5694196670498739 0.386454348572767 1:0.363636 2:0.818182 3:0.171717 4:0.808081 5:0.575758 6:0.454545 7:0.555556 8:0.010101 9:0.111111 10:0.464646 11:0.37 12:0.9 13:1 14:1 
0.31553643661453651 0 0 0.42556662023008907 0.42678237441630845 0.34862216561378379 0.29125356473654868 1.5694196670498739 0.386454348572767 1:0.929293 2:0.909091 3:0.393939 4:1 5:0.141414 6:0.787879 7:0.222222 8:0.353535 9:0.717172 10:0.525253 11:1 12:0.21 13:0.57 14:0.06 
0 0 0 0 0 0 0 0 0.386454348572767 1:0.454545 2:0.919192 3:0.171717 4:0.636364 5:0.616162 6:0.393939 7:0.272727 8:0.0808081 9:0.030303 10:0.626263 11:0.28 12:1 13:1 14:0.98 
0 0 0 0 0.42678237441630845 0 0 1.5694196670498739 0 1:0.292929 2:0.858586 3:0.454545 4:0.585859 5:0.515152 6:0.171717 7:0.0808081 8:0.292929 9:0.10101 10:0.737374 11:0.52 12:0.94 13:1 14:1 
0 0.4091659457306957 0 0.42556662023008907 0 0 0 1.5694196670498739 0.386454348572767 1:0.343434 2:0.939394 3:0.656566 4:0.505051 5:0.535354 6:0.474747 7:0.121212 9:0.161616 10:0.464646 11:0.35 12:0.94 13:1 14:1 
0.31553643661453651 0.4091659457306957 0.27831401402031936 0.42556662023008907 0 0.34862216561378379 0 1.5694196670498739 0.386454348572767 1:0.252525 2:0.737374 3:0.181818 4:0.484848 5:0.636364 6:0.20202 7:0.191919 9:0.242424 10:0.636364 11:0.45 12:0.87 13:1 14:1 
0.31553643661453651 0.4091659457306957 0.27831401402031936 0 0.42678237441630845 0.34862216561378379 0.29125356473654868 1.5694196670498739 0.386454348572767 1:0.959596 2:1 3:0.69697 4:1 5:0.343434 6:0.79798 7:0.565657 8:0.59596 9:1 10:0.454545 11:0.9 12:0.13 13:0.46 14:0.08 
0.31553643661453651 0.4091659457306957 0.27831401402031936 0.42556662023008907 0.42678237441630845 0.34862216561378379 0.29125356473654868 1.5694196670498739 0.386454348572767 1:0.909091 2:0.0909091 3:0.565657 4:0.474747 5:0.292929 6:0.191919 7:0.0707071 8:0.333333 9:0.111111 10:0.787879 11:0.49 12:1 13:1 14:0.91 
0 0.4091659457306957 0 0 0 0 0.29125356473654868 1.5694196670498739 0 1:0.535354 2:0.959596 3:0.59596 4:0.666667 5:0.868687 6:0.333333 7:0.474747 8:0.131313 9:0.252525 10:0.717172 11:0.4 12:1 13:1 14:0.99 
0.31553643661453651 0 0.27831401402031936 0.42556662023008907 0 0.34862216561378379 0 0 0 1:0.121212 2:0.888889 3:0.111111 4:0.494949 5:0.717172 6:0.373737 7:0.555556 8:0.030303 9:0.161616 10:0.606061 11:0.32 12:0.94 13:1 14:1 
0 0 0 0 0.42678237441630845 0.34862216561378379 0 0 0.386454348572767 1:0.474747 2:0.888889 3:0.0707071 4:0.666667 5:0.474747 6:0.323232 7:0.424242 8:0.111111 9:0.0505051 10:0.656566 11:0.41 12:1 13:1 14:0.88 
0.31553643661453651 0.4091659457306957 0.27831401402031936 0.42556662023008907 0 0.34862216561378379 0.29125356473654868 1.5694196670498739 0.386454348572767 1:0.393939 2:0.89899 3:0.868687 4:1 5:0.808081 6:0.929293 7:0.383838 8:0.707071 9:0.69697 10:0.454545 11:1 12:0.23 13:0.52 14:0.06 
0.31553643661453651 0.4091659457306957 0.27831401402031936 0.42556662023008907 0.42678237441630845 0 0.29125356473654868 1.5694196670498739 0.386454348572767 1:0.656566 2:0.909091 3:1 4:1 5:0.89899 6:0.888889 7:0.525253 8:0.767677 9:0.282828 10:0.515152 11:0.58 12:0.3 13:0.38 14:0.04 
0 0 0 0 0.42678237441630845 0.34862216561378379 0 0 0.386454348572767 1:0.414141 2:0.949495 3:0.010101 4:0.626263 5:0.393939 6:0.414141 7:0.171717 8:0.222222 9:0.040404 10:0.707071 11:0.4 12:0.97 13:1 14:1 
0.31553643661453651 0 0 0 0.42678237441630845 0.34862216561378379 0.29125356473654868 0 0.386454348572767 1:0.282828 2:0.939394 3:0.89899 4:1 5:0.424242 6:1 7:0.0707071 8:0.69697 9:0.555556 10:0.606061 11:1 12:0.39 13:0.61 14:0.11 
0 0 0 0 0 0.34862216561378379 0 1.5694196670498739 0 1:0.292929 2:0.868687 3:0.151515 4:0.545455 5:0.676768 6:0.40404 7:0.515152 8:0.151515 9:0.141414 10:0.626263 11:0.41 12:1 13:1 14:0.98 
0 0.10527045911918466 0 0 0 0 0.29125356473654868 0 0 1:0.353535 2:0.89899 3:0.333333 4:0.646465 5:0.767677 6:0.313131 7:0.393939 8:0.121212 9:0.292929 10:0.717172 11:0.24 12:1 13:1 14:0.93 
0.31553643661453651 0 0.27831401402031936 0.42556662023008907 0.42678237441630845 0.34862216561378379 0.29125356473654868 1.5694196670498739 0.386454348572767 1:0.161616 2:1 3:0.161616 4:0.686869 5:0.59596 6:0.353535 7:0.292929 8:0.191919 9:0.727273 10:0.40404 11:0.91 12:1 13:0.92 
0 0 0 0 0.42678237441630845 0 0 0 0.386454348572767 1:0.555556 2:1 3:0.141414 4:0.69697 5:0.414141 6:0.323232 7:0.010101 8:0.292929 9:0.121212 10:0.757576 11:0.41 12:0.99 13:1 14:0.97 
0.31553643661453651 0.4091659457306957 0.27831401402031936 0.20474163661053171 0.42678237441630845 0.34862216561378379 0.29125356473654868 1.5694196670498739 0.386454348572767 1:1 2:0.979798 3:0.575758 4:1 5:0.222222 6:0.89899 7:0.313131 8:0.59596 9:0.717172 10:0.565657 11:0.69 12:0.19 13:0.33 14:0.14 
0 0 0 0 0 0 0 1.5694196670498739 0 1:0.262626 2:0.848485 3:0.565657 4:0.494949 5:0.636364 6:0.10101 7:0.141414 8:0.323232 9:0.010101 10:0.747475 11:0.46 12:0.96 13:1 14:1 
0.31553643661453651 0.4091659457306957 0.27831401402031936 0.42556662023008907 0 0 0.29125356473654868 0 0 1:0.363636 2:0.929293 3:0.939394 4:1 5:0.727273 6:0.949495 7:0.292929 8:0.747475 9:0.383838 10:0.40404 11:1 12:0.29 13:0.63 14:0.04 
0.31553643661453651 0.4091659457306957 0.27831401402031936 0 0.42678237441630845 0.34862216561378379 0.29125356473654868 0 0.386454348572767 1:1 2:0.959596 3:0.707071 4:1 5:0.414141 6:0.787879 7:0.484848 8:0.555556 9:0.909091 10:0.505051 11:0.82 12:0.16 13:0.42 14:0.01 
0 0 0 0 0 0 0 1.5694196670498739 0.386454348572767 1:0.636364 2:1 3:0.212121 4:0.686869 5:0.545455 6:0.343434 7:0.151515 8:0.151515 9:0.111111 10:0.626263 11:0.42 12:0.97 13:1 14:0.96 
0.31553643661453651 0.4091659457306957 0.27831401402031936 0 0 0 0.29125356473654868 1.5694196670498739 0.386454348572767 1:0.474747 2:0.888889 3:1 4:1 5:0.616162 6:0.919192 7:0.222222 8:0.656566 9:0.575758 10:0.545455 11:0.92 12:0.36 13:0.51 14:0.13 
0 0 0 0 0.42678237441630845 0.34862216561378379 0 0 0 1:0.10101 2:0.848485 3:0.434343 4:0.585859 5:0.464646 6:0.20202 7:0.0606061 8:0.373737 9:0.040404 10:0.747475 11:0.5 12:0.92 13:1 14:1 
0 0 0 0 0 0 0 1.5694196670498739 0 1:0.555556 2:0.969697 3:0.40404 4:0.626263 5:0.686869 6:0.252525 7:0.282828 8:0.0505051 9:0.272727 10:0.717172 11:0.45 12:0.94 13:1 14:1 
0 0.4091659457306957 0 0 0 0 0 1.5694196670498739 0 1:0.131313 2:0.858586 3:0.575758 4:0.575758 5:0.626263 6:0.767677 7:0.20202 8:0.262626 9:0.131313 10:0.545455 11:0.36 12:0.93 13:1 14:1 
0 0 0 0 0 0.34862216561378379 0.29125356473654868 1.5694196670498739 0 1:0.20202 2:0.888889 3:0.333333 4:0.575758 5:0.616162 6:0.212121 7:0.30303 8:0.0707071 9:0.393939 10:0.787879 11:0.48 12:0.96 13:1 14:1 
0.31553643661453651 0.4091659457306957 0.27831401402031936 0.42556662023008907 0.1219301043984843 0.34862216561378379 0.29125356473654868 1.5694196670498739 0.386454348572767 1:0.0505051 2:1 3:0.151515 4:0.606061 5:0.808081 6:0.434343 7:0.656566 8:0.0808081 9:0.545455 10:0.151515 11:0.96 12:1 13:0.99 
0 0.4091659457306957 0 0 0 0 0 0 0 1:0.262626 2:1 3:0.292929 4:0.666667 5:0.949495 6:0.434343 7:0.656566 8:0.10101 9:0.111111 10:0.616162 11:0.22 12:0.97 13:1 14:0.99 
0.31553643661453651 0.4091659457306957 0 0.42556662023008907 0.42678237441630845 0.34862216561378379 0.29125356473654868 0 0.386454348572767 1:1 2:0.969697 3:0.494949 4:1 5:0.111111 6:0.878788 7:0.0505051 8:0.474747 9:0.363636 10:0.464646 11:0.78 12:0.25 13:0.5 14:0.02 
0 0 0 0 0.42678237441630845 0 0 0 0 1:0.464646 2:0.959596 3:0.121212 4:0.656566 5:0.434343 6:0.333333 7:0.0606061 8:0.333333 9:0.0707071 10:0.828283 11:0.45 12:1 13:1 14:0.97 
0.31553643661453651 0 0 0 0 0 0.29125356473654868 0 0 1:0.323232 2:1 3:1 4:0.989899 5:0.656566 6:0.979798 7:0.0606061 8:0.858586 9:0.313131 10:0.646465 11:0.81 12:0.38 13:0.66 14:0.05 
0 0.4091659457306957 0.27831401402031936 0.42556662023008907 0 0 0 1.5694196670498739 0 1:0.272727 2:0.767677 3:0.0909091 4:0.757576 5:0.606061 6:0.40404 7:0.656566 8:0.0505051 9:0.020202 10:0.525253 11:0.27 12:0.95 13:1 14:1 
0 0.4091659457306957 0 0.42556662023008907 0 0 0 1.5694196670498739 0 1:0.565657 2:0.959596 3:0.868687 4:0.454545 5:0.646465 6:0.626263 7:0.141414 8:0.0606061 9:0.020202 10:0.383838 11:0.43 12:0.84 13:1 14:1 
0 0 0 0.42556662023008907 0 0 0 0 0 1:0.282828 2:1 3:0.20202 4:0.575758 5:0.646465 6:0.393939 7:0.606061 8:0.0606061 9:0.111111 10:0.575758 11:0.29 12:0.94 13:1 14:0.97 
0.31553643661453651 0.4091659457306957 0.27831401402031936 0.42556662023008907 0.42678237441630845 0.34862216561378379 0.29125356473654868 1.5694196670498739 0.386454348572767 1:1 2:1 3:0.373737 4:0.868687 5:0.010101 6:0.616162 7:0.474747 8:0.505051 9:0.939394 10:0.272727 11:0.7 12:0.04 13:0.02 14:0.28 
0.31553643661453651 0 0 0 0 0.34862216561378379 0.29125356473654868 0 0 1:0.363636 2:0.888889 3:0.969697 4:1 5:0.59596 6:0.949495 7:0.141414 8:0.717172 9:0.717172 10:0.626263 11:1 12:0.35 13:0.6 14:0.08 
0.31553643661453651 0.4091659457306957 0.27831401402031936 0.42556662023008907 0.42678237441630845 0.34862216561378379 0.29125356473654868 1.5694196670498739 0.386454348572767 1:0.787879 2:0.252525 3:0.535354 4:0.69697 5:0.242424 6:0.252525 7:0.0909091 8:0.323232 9:0.69697 10:0.292929 11:1 12:1 13:0.95 
0.31553643661453651 0 0 0.42556662023008907 0.42678237441630845 0.34862216561378379 0.29125356473654868 1.5694196670498739 0.386454348572767 1:1 2:0.969697 3:0.474747 4:1 5:0.111111 6:0.79798 7:0.0808081 8:0.414141 9:0.505051 10:0.525253 11:0.8 12:0.28 13:0.49 14:0.05 
0.31553643661453651 0.4091659457306957 0.27831401402031936 0.42556662023008907 0 0 0.29125356473654868 1.5694196670498739 0 1:0.393939 2:0.919192 3:1 4:1 5:0.969697 6:0.939394 7:0.424242 8:0.767677 9:0.565657 10:0.535354 11:0.89 12:0.27 13:0.55 14:0.08 
0 0 0 0 0.42678237441630845 0.34862216561378379 0 0 0.386454348572767 1:0.0606061 2:0.757576 3:0.262626 4:0.444444 5:0.474747 6:0.0606061 7:0.0707071 8:0.393939 9:0.0707071 10:0.808081 11:0.52 12:0.98 13:1 14:1 
0.31553643661453651 0.4091659457306957 0.27831401402031936 0.42556662023008907 0 0 0.29125356473654868 1.5694196670498739 0.386454348572767 1:0.545455 2:0.828283 3:1 4:1 5:0.878788 6:0.919192 7:0.393939 8:0.777778 9:0.232323 10:0.424242 11:0.68 12:0.31 13:0.48 14:0.05 
0 0 0 0 0.42678237441630845 0.34862216561378379 0 1.5694196670498739 0.386454348572767 1:0.212121 2:0.818182 3:0.161616 4:0.454545 5:0.414141 6:0.0909091 8:0.414141 9:0.131313 10:0.818182 11:0.56 12:0.94 13:1 14:1 
0 0 0 0 0.42678237441630845 0 0 0 0 1:0.363636 2:0.949495 3:0.323232 4:0.676768 5:0.545455 6:0.30303 7:0.171717 8:0.343434 9:0.010101 10:0.79798 11:0.46 12:1 13:1 14:0.94 
0 0 0 0 0.42678237441630845 0 0 0 0 1:0.151515 2:1 3:0.0909091 4:0.585859 5:0.565657 6:0.343434 7:0.262626 8:0.282828 9:0.010101 10:0.858586 11:0.45 12:0.96 13:1 14:0.96 
0 0 0.27831401402031936 0 0.42678237441630845 0.34862216561378379 0 0 0 1:0.212121 2:1 4:0.515152 5:0.626263 6:0.666667 7:0.616162 8:0.20202 9:0.030303 10:0.585859 11:0.28 12:0.96 13:1 14:0.97 
0.31553643661453651 0.4091659457306957 0.27831401402031936 0.42556662023008907 0 0.34862216561378379 0.29125356473654868 1.5694196670498739 0 1:0.0505051 2:0.737374 3:0.363636 4:0.575758 5:1 6:0.444444 7:0.909091 8:0.010101 9:0.252525 10:0.454545 11:0.2 12:0.85 13:0.85 14:1 
0 0.4091659457306957 0.27831401402031936 0.42556662023008907 0 0 0 1.5694196670498739 0 1:0.272727 2:0.868687 4:0.555556 5:0.757576 6:0.747475 7:0.666667 8:0.272727 10:0.454545 11:0.18 12:0.94 13:1 14:1 
0.31553643661453651 0.4091659457306957 0.27831401402031936 0.42556662023008907 0.42678237441630845 0 0.29125356473654868 1.5694196670498739 0 1:0.444444 2:0.848485 3:0.929293 4:1 5:1 6:0.979798 7:0.474747 8:0.878788 9:0.0606061 10:0.616162 11:0.48 12:0.48 13:0.48 14:0.18 
0.31553643661453651 0.4091659457306957 0.27831401402031936 0.42556662023008907 0.42678237441630845 0 0.29125356473654868 0 0 1:0.292929 2:0.969697 3:0.929293 4:1 5:1 6:0.989899 7:0.333333 8:0.929293 10:0.585859 11:0.62 12:0.43 13:0.53 14:0.13 
0.31553643661453651 0 0.27831401402031936 0.42556662023008907 0.42678237441630845 0.34862216561378379 0.29125356473654868 1.5694196670498739 0.386454348572767 1:0.191919 2:0.959596 3:0.171717 4:0.646465 5:0.525253 6:0.292929 7:0.262626 8:0.313131 9:0.747475 10:0.434343 11:1 12:1 13:0.96 
0.31553643661453651 0.4091659457306957 0.27831401402031936 0.42556662023008907 0.42678237441630845 0.34862216561378379 0.29125356473654868 1.5694196670498739 0.386454348572767 1:1 2:0.151515 3:0.656566 4:0.444444 5:0.333333 6:0.656566 7:0.383838 8:0.272727 9:0.171717 10:0.616162 11:0.4 12:0.94 13:1 14:0.99 
0.31553643661453651 0.4091659457306957 0.27831401402031936 0.42556662023008907 0.42678237441630845 0.34862216561378379 0.29125356473654868 0 0.386454348572767 1:1 2:0.969697 3:0.565657 4:1 5:0.252525 6:0.868687 7:0.20202 8:0.505051 9:0.626263 10:0.444444 11:0.75 12:0.12 13:0.37 14:0.03 
0.31553643661453651 0.4091659457306957 0.27831401402031936 0.42556662023008907 0.42678237441630845 0 0.29125356473654868 0 0.386454348572767 1:0.535354 2:0.939394 3:1 4:1 5:0.59596 6:0.989899 7:0.242424 8:0.747475 9:0.40404 10:0.575758 11:0.73 12:0.39 13:0.44 14:0.1 
0.31553643661453651 0.4091659457306957 0.27831401402031936 0 0 0 0.29125356473654868 0 0 1:0.272727 2:0.939394 3:0.959596 4:1 5:0.828283 6:0.939394 7:0.212121 8:0.757576 9:0.494949 10:0.636364 11:1 12:0.41 13:0.66 14:0.09 
0.31553643661453651 0 0 0.42556662023008907 0.42678237441630845 0.34862216561378379 0.29125356473654868 0 0.386454348572767 1:1 2:0.979798 3:0.535354 4:1 5:0.121212 6:0.828283 7:0.10101 8:0.484848 9:0.525253 10:0.545455 11:0.73 12:0.27 13:0.46 14:0.05 
0 0.4091659457306957 0 0 0 0 0 1.5694196670498739 0 1:0.292929 2:0.959596 3:0.656566 4:0.585859 5:0.454545 6:0.545455 7:0.010101 8:0.0909091 9:0.191919 10:0.474747 11:0.34 12:0.95 13:1 14:1 
0 0.4091659457306957 0 0.42556662023008907 0 0 0 0 0.386454348572767 1:0.262626 2:0.888889 3:0.636364 4:0.616162 5:0.454545 6:0.535354 7:0.020202 9:0.0505051 10:0.515152 11:0.31 12:0.93 13:1 14:1 
0.31553643661453651 0.4091659457306957 0 0.42556662023008907 0 0.34862216561378379 0.29125356473654868 0 0.386454348572767 1:0.262626 2:0.939394 3:0.69697 4:0.585859 5:0.545455 6:0.515152 7:0.0707071 8:0.0707071 9:0.525253 10:0.363636 11:0.94 12:1 13:1 
0.31553643661453651 0.4091659457306957 0.27831401402031936 0.42556662023008907 0.42678237441630845 0.34862216561378379 0 0 0.386454348572767 1:0.161616 2:0.818182 4:0.717172 5:0.393939 6:0.575758 7:0.808081 8:0.272727 9:0.040404 10:0.454545 11:0.01 12:0.93 13:1 14:1 
0.31553643661453651 0.4091659457306957 0.27831401402031936 0.42556662023008907 0.42678237441630845 0 0.29125356473654868 0 0.386454348572767 1:0.656566 2:0.959596 3:1 4:1 5:0.888889 6:0.949495 7:0.505051 8:0.888889 9:0.646465 10:0.515152 11:0.72 12:0.15 13:0.37 14:0.01 
0 0 0 0 0 0 0 1.5694196670498739 0 1:0.343434 2:0.858586 3:0.565657 4:0.515152 5:0.545455 6:0.636364 7:0.10101 8:0.131313 9:0.191919 10:0.565657 11:0.43 12:1 13:1 14:0.94 
0.31553643661453651 0 0 0 0 0 0.29125356473654868 0 0.386454348572767 1:0.393939 2:0.929293 3:1 4:1 5:0.616162 6:0.939394 7:0.0606061 8:0.787879 9:0.414141 10:0.636364 11:0.9 12:0.39 13:0.61 14:0.1 
0.31553643661453651 0 0 0 0.42678237441630845 0.34862216561378379 0.29125356473654868 0 0 1:0.30303 2:0.858586 3:0.949495 4:1 5:0.656566 6:0.949495 7:0.0909091 8:0.767677 9:0.555556 10:0.626263 11:1 12:0.44 13:0.62 14:0.15 
0.31553643661453651 0.4091659457306957 0.27831401402031936 0 0 0.17698691725792814 0.29125356473654868 1.5694196670498739 0 1:0.121212 2:0.868687 3:0.40404 4:0.616162 5:0.929293 6:0.434343 7:0.777778 8:0.272727 9:0.141414 10:0.616162 11:0.39 12:0.92 13:1 14:1 
0.31553643661453651 0.4091659457306957 0.27831401402031936 0.42556662023008907 0.42678237441630845 0.34862216561378379 0.29125356473654868 0 0.386454348572767 1:0.252525 2:0.969697 3:0.969697 4:1 5:0.626263 6:0.989899 7:0.818182 8:0.333333 9:0.585859 10:1 11:0.43 12:0.79 13:0.09 14:0.09 
0 0 0 0 0.42678237441630845 0.34862216561378379 0 0 0 1:0.373737 2:0.969697 3:0.20202 4:0.606061 5:0.373737 6:0.151515 7:0.030303 8:0.444444 9:0.10101 10:0.878788 11:0.55 12:1 13:1 14:0.99 
0 0 0 0 0.42678237441630845 0 0 0 0 1:0.494949 2:0.909091 3:0.353535 4:0.535354 5:0.626263 6:0.212121 7:0.161616 8:0.282828 9:0.0505051 10:0.79798 11:0.48 12:1 13:1 14:0.94 
0.31553643661453651 0 0.27831401402031936 0 0 0 0.29125356473654868 1.5694196670498739 0 1:0.171717 2:0.888889 3:0.292929 4:0.616162 5:0.818182 6:0.464646 7:0.727273 8:0.191919 9:0.10101 10:0.646465 11:0.43 12:0.96 13:1 14:1 
0.31553643661453651 0.4091659457306957 0.27831401402031936 0 0 0 0.29125356473654868 0 0 1:0.383838 2:0.939394 3:1 4:1 5:0.989899 6:0.979798 7:0.353535 8:0.919192 9:0.494949 10:0.686869 11:0.93 12:0.39 13:0.61 14:0.07 
0.31553643661453651 0.4091659457306957 0.27831401402031936 0.42556662023008907 0.42678237441630845 0.34862216561378379 0.29125356473654868 1.5694196670498739 0.386454348572767 1:1 2:0.939394 3:0.535354 4:0.959596 5:0.0808081 6:1 7:0.59596 8:0.424242 9:0.515152 10:0.717172 11:0.24 12:0.41 13:0.13 14:0.08 
0 0 0 0 0.42678237441630845 0.34862216561378379 0.29125356473654868 1.5694196670498739 0 1:0.272727 2:0.969697 3:0.010101 4:0.69697 5:0.464646 6:0.383838 7:0.606061 8:0.232323 9:0.232323 10:0.666667 11:0.39 12:0.94 13:1 14:1 
0.31553643661453651 0 0.27831401402031936 0.42556662023008907 0.42678237441630845 0.34862216561378379 0.29125356473654868 1.5694196670498739 0.386454348572767 1:0.0505051 2:1 3:0.606061 4:0.909091 5:0.373737 6:0.949495 7:0.0505051 8:0.666667 9:0.535354 10:0.484848 11:1 12:0.23 13:0.52 14:0.18 
0 0 0 0 0 0 0.29125356473654868 1.5694196670498739 0 1:0.636364 2:0.989899 3:0.222222 4:0.757576 5:0.606061 6:0.59596 7:0.565657 8:0.20202 9:0.0808081 10:0.494949 11:0.38 12:0.94 13:1 14:1 
0 0.4091659457306957 0 0 0 0 0 1.5694196670498739 0 1:0.484848 2:1 3:0.535354 4:0.666667 5:0.949495 6:0.313131 7:0.464646 8:0.030303 9:0.10101 10:0.575758 11:0.31 12:0.94 13:1 14:0.94 
0 0 0 0 0 0 0.29125356473654868 1.5694196670498739 0 1:0.484848 2:0.848485 3:0.484848 4:0.606061 5:0.707071 6:0.242424 7:0.262626 8:0.0707071 9:0.363636 10:0.787879 11:0.42 12:0.99 13:1 14:1 
0.31553643661453651 0.4091659457306957 0.27831401402031936 0.42556662023008907 0.42678237441630845 0.34862216561378379 0.29125356473654868 1.5694196670498739 0.386454348572767 1:0.979798 2:0.666667 3:0.929293 4:0.464646 5:1 6:0.181818 7:0.676768 8:0.444444 9:0.545455 10:1 11:0.33 12:0.73 13:0.17 14:0.07 
0.31553643661453651 0.4091659457306957 0.27831401402031936 0.42556662023008907 0.42678237441630845 0.34862216561378379 0.29125356473654868 0 0 1:0.232323 2:0.909091 3:0.818182 4:1 5:0.878788 6:0.949495 7:0.323232 8:0.818182 9:0.505051 10:0.505051 11:1 12:0.32 13:0.53 14:0.04 
0 0 0 0 0.42678237441630845 0.34862216561378379 0 1.5694196670498739 0.386454348572767 1:0.424242 2:0.949495 3:0.191919 4:0.646465 5:0.444444 6:0.242424 7:0.0808081 8:0.262626 9:0.191919 10:0.707071 11:0.55 12:0.91 13:1 14:1 
0 0 0 0 0.42678237441630845 0.34862216561378379 0 0 0 1:0.191919 2:1 3:0.161616 4:0.59596 5:0.505051 6:0.262626 7:0.161616 8:0.0505051 9:0.393939 10:0.818182 11:0.42 12:0.96 13:1 14:0.96 
0.31553643661453651 0.4091659457306957 0.27831401402031936 0.42556662023008907 0.42678237441630845 0.34862216561378379 0.29125356473654868 1.5694196670498739 0 1:0.454545 2:0.919192 3:0.767677 4:1 5:1 6:0.969697 7:0.555556 8:0.89899 9:0.494949 10:0.545455 11:0.81 12:0.33 13:0.41 14:0.12 
0.31553643661453651 0.4091659457306957 0.27831401402031936 0.42556662023008907 0 0 0.29125356473654868 1.5694196670498739 0.386454348572767 1:0.949495 2:0.040404 3:0.575758 4:0.868687 5:0.59596 6:0.848485 7:0.151515 8:0.181818 9:0.111111 10:0.474747 11:0.13 12:0.93 13:1 14:1 
0 0 0 0 0.42678237441630845 0.34862216561378379 0.29125356473654868 0 0 1:0.191919 2:0.838384 3:0.383838 4:0.444444 5:0.424242 6:0.0808081 7:0.0606061 8:0.464646 9:0.141414 10:0.909091 11:0.57 12:1 13:1 14:0.88 
0 0 0 0 0 0.34862216561378379 0 1.5694196670498739 0 1:0.191919 2:0.909091 3:0.262626 4:0.606061 5:0.656566 6:0.343434 7:0.464646 8:0.20202 9:0.10101 10:0.656566 11:0.44 12:0.95 13:1 14:1 
0 0.4091659457306957 0.27831401402031936 0.42556662023008907 0.42678237441630845 0.34862216561378379 0.29125356473654868 1.5694196670498739 0.386454348572767 1:0.575758 2:0.434343 3:0.383838 4:0.747475 5:0.0808081 6:0.545455 7:0.242424 8:0.292929 9:0.141414 10:0.626263 11:0.49 12:0.9 13:1 14:1 
0 0 0 0 0 0.34862216561378379 0 1.5694196670498739 0 1:0.444444 2:0.878788 3:0.272727 4:0.656566 5:0.59596 6:0.30303 7:0.323232 8:0.141414 9:0.242424 10:0.565657 11:0.56 12:0.91 13:1 14:1 
0 0 0 0.42556662023008907 0 0.34862216561378379 0 1.5694196670498739 0 1:0.383838 2:0.949495 3:0.0808081 4:0.717172 5:0.626263 6:0.474747 7:0.565657 8:0.0808081 9:0.181818 10:0.464646 11:0.38 12:0.92 13:1 14:1 
0.31553643661453651 0.4091659457306957 0.27831401402031936 0.42556662023008907 0.42678237441630845 0.34862216561378379 0 1.5694196670498739 0.386454348572767 1:0.010101 2:0.636364 3:0.30303 4:0.323232 5:0.464646 6:0.020202 7:0.020202 8:0.383838 9:0.0707071 10:0.737374 11:0.54 12:0.89 13:1 14:1 
0.31553643661453651 0 0.27831401402031936 0.42556662023008907 0.42678237441630845 0.34862216561378379 0 0 0 1:0.010101 2:0.808081 3:0.121212 4:0.505051 5:0.606061 6:0.424242 7:0.40404 8:0.111111 9:0.242424 10:0.717172 11:0.45 12:0.91 13:1 14:1 
0.31553643661453651 0.4091659457306957 0.27831401402031936 0.42556662023008907 0.42678237441630845 0.34862216561378379 0.29125356473654868 1.5694196670498739 0 1:0.30303 2:0.808081 3:0.69697 4:0.979798 5:1 6:1 7:0.575758 8:0.868687 9:0.414141 10:0.575758 11:0.78 12:0.32 13:0.42 14:0.09 
0 0 0 0 0 0 0 0 0.386454348572767 1:0.30303 2:0.919192 3:0.040404 4:0.494949 5:0.585859 6:0.414141 7:0.424242 9:0.020202 10:0.626263 11:0.45 12:0.92 13:1 14:1 
0.31553643661453651 0.4091659457306957 0.27831401402031936 0 0 0.34862216561378379 0.29125356473654868 0 0.386454348572767 1:1 2:0.949495 3:0.707071 4:1 5:0.353535 6:0.838384 7:0.333333 8:0.474747 9:0.828283 10:0.474747 11:0.91 12:0.17 13:0.49 14:0.04 
0.31553643661453651 0.4091659457306957 0.27831401402031936 0.42556662023008907 0.42678237441630845 0.34862216561378379 0.29125356473654868 1.5694196670498739 0 1:0.676768 2:0.818182 3:1 4:1 5:0.989899 6:0.909091 7:0.676768 8:0.747475 9:0.949495 10:0.474747 11:0.8 12:0.21 13:0.41 14:0.07 
0.31553643661453651 0.4091659457306957 0.27831401402031936 0.42556662023008907 0.42678237441630845 0.34862216561378379 0.29125356473654868 1.5694196670498739 0.386454348572767 1:0.20202 2:0.79798 3:0.59596 4:0.949495 5:1 6:1 7:0.545455 8:0.868687 9:0.363636 10:0.515152 11:0.76 12:0.28 13:0.46 14:0.02 
0.31553643661453651 0.4091659457306957 0.27831401402031936 0.42556662023008907 0.42678237441630845 0.34862216561378379 0.29125356473654868 0 0.386454348572767 1:1 2:0.969697 3:0.616162 4:1 5:0.323232 6:0.858586 7:0.373737 8:0.606061 9:0.717172 10:0.505051 11:0.63 12:0.21 13:0.36 
0.31553643661453651 0.4091659457306957 0.27831401402031936 0 0 0.34862216561378379 0.29125356473654868 0 0 1:0.393939 2:0.878788 3:0.949495 4:1 5:0.878788 6:1 7:0.393939 8:0.767677 9:0.717172 10:0.606061 11:1 12:0.33 13:0.58 14:0.07 
0 0 0 0.42556662023008907 0 0.34862216561378379 0 0 0.386454348572767 1:0.343434 2:0.959596 3:0.111111 4:0.494949 5:0.505051 6:0.373737 7:0.515152 8:0.010101 9:0.0909091 10:0.525253 11:0.37 12:0.95 13:1 14:1 
0.31553643661453651 0.4091659457306957 0.27831401402031936 0.42556662023008907 0 0 0.29125356473654868 1.5694196670498739 0 1:0.565657 2:0.858586 3:1 4:1 5:1 6:0.939394 7:0.555556 8:0.777778 9:0.585859 10:0.444444 11:0.88 12:0.22 13:0.47 14:0.02 
0 0 0 0 0.42678237441630845 0 0 0 0 1:0.494949 2:0.979798 3:0.111111 4:0.606061 5:0.545455 6:0.363636 7:0.161616 8:0.242424 10:0.727273 11:0.35 12:1 13:1 14:0.98 
0 0.4091659457306957 0 0 0 0.34862216561378379 0 1.5694196670498739 0.386454348572767 1:0.525253 2:0.858586 3:0.585859 4:0.494949 5:0.515152 6:0.111111 7:0.0505051 8:0.242424 9:0.171717 10:0.616162 11:0.53 12:0.89 13:1 14:1 
0 0 0 0 0 0 0 1.5694196670498739 0 1:0.515152 2:1 3:0.272727 4:0.747475 5:0.626263 6:0.353535 7:0.40404 8:0.171717 9:0.151515 10:0.656566 11:0.47 12:0.99 13:1 14:0.99 
0.31553643661453651 0 0.27831401402031936 0 0.42678237441630845 0.34862216561378379 0.29125356473654868 1.5694196670498739 0.386454348572767 1:1 2:0.959596 3:0.656566 4:1 5:0.252525 6:0.939394 7:0.424242 8:0.69697 9:0.868687 10:0.545455 11:0.76 12:0.19 13:0.33 14:0.16 
0.31553643661453651 0.4091659457306957 0.27831401402031936 0.42556662023008907 0 0 0 0 0 1:0.222222 2:0.929293 3:0.292929 4:0.636364 5:0.89899 6:0.353535 7:0.585859 8:0.111111 9:0.111111 10:0.535354 11:0.13 12:0.91 13:1 14:1 
0 0.4091659457306957 0.27831401402031936 0.42556662023008907 0 0 0 1.5694196670498739 0 1:0.333333 2:0.616162 3:0.505051 4:0.959596 5:0.545455 6:0.555556 7:0.494949 8:0.121212 9:0.0505051 10:0.555556 11:0.38 12:1 13:1 14:0.9 
0 0.4091659457306957 0.27831401402031936 0.42556662023008907 0 0 0 0 0.386454348572767 1:0.141414 2:0.717172 3:0.383838 4:0.565657 5:0.414141 6:0.424242 7:0.151515 8:0.141414 9:0.10101 10:0.616162 11:0.36 12:0.93 13:1 14:1 
0 0 0 0.42556662023008907 0 0.34862216561378379 0 1.5694196670498739 0.386454348572767 1:0.535354 2:0.919192 3:0.040404 4:0.686869 5:0.505051 6:0.515152 7:0.494949 8:0.020202 9:0.111111 10:0.424242 11:0.45 12:0.86 13:1 14:1 
0.31553643661453651 0.4091659457306957 0.27831401402031936 0.42556662023008907 0.42678237441630845 0.34862216561378379 0.29125356473654868 1.5694196670498739 0.386454348572767 1:0.323232 2:0.787879 3:0.828283 4:0.989899 5:1 6:1 7:0.464646 8:0.838384 9:0.616162 10:0.212121 11:0.38 12:0.53 13:0.14 14:0.01 
0 0 0 0 0.42678237441630845 0.34862216561378379 0 0 0.386454348572767 1:0.181818 2:0.767677 3:0.191919 4:0.434343 5:0.353535 6:0.141414 7:0.0606061 8:0.515152 9:0.0707071 10:0.878788 11:0.54 12:0.99 13:1 14:1 
0 0 0 0 0.42678237441630845 0.34862216561378379 0 0 0.386454348572767 1:0.282828 2:0.808081 3:0.191919 4:0.626263 5:0.494949 6:0.262626 7:0.141414 8:0.323232 9:0.0707071 10:0.747475 11:0.46 12:1 13:1 14:0.91 
0.31553643661453651 0 0 0 0 0.34862216561378379 0.29125356473654868 0 0.386454348572767 1:1 2:0.949495 3:0.737374 4:1 5:0.242424 6:0.888889 7:0.161616 8:0.525253 9:0.717172 10:0.444444 11:0.99 12:0.19 13:0.53 14:0.03 
0 0 0 0 0.42678237441630845 0 0 0 0 1:0.424242 2:0.989899 3:0.20202 4:0.656566 5:0.59596 6:0.313131 7:0.313131 8:0.242424 9:0.0909091 10:0.747475 11:0.51 12:1 13:1 14:0.82 
0.31553643661453651 0 0.27831401402031936 0.42556662023008907 0 0.34862216561378379 0 0 0.386454348572767 1:0.222222 2:0.707071 3:0.010101 4:0.484848 5:0.565657 6:0.313131 7:0.222222 8:0.020202 9:0.242424 10:0.646465 11:0.34 12:0.96 13:1 14:1 
0 0 0 0 0.42678237441630845 0.34862216561378379 0.29125356473654868 1.5694196670498739 0.386454348572767 1:0.292929 2:0.707071 3:0.191919 4:0.515152 5:0.393939 6:0.111111 7:0.0606061 8:0.515152 9:0.232323 10:0.838384 11:0.61 12:0.95 13:1 14:1 
0 0 0 0 0.42678237441630845 0 0 0 0 1:0.484848 2:0.89899 3:0.313131 4:0.565657 5:0.606061 6:0.222222 7:0.040404 8:0.343434 9:0.0808081 10:0.787879 11:0.34 12:1 13:1 14:0.99 
0 0.4091659457306957 0 0 0 0 0 1.5694196670498739 0 1:0.151515 2:1 3:0.626263 4:0.606061 5:0.626263 6:1 7:0.242424 8:0.454545 9:0.181818 10:0.434343 11:0.29 12:0.9 13:0.98 14:1 
0 0 0 0 0.42678237441630845 0 0 0 0 1:0.151515 2:0.808081 3:0.313131 4:0.626263 5:0.555556 6:0.292929 7:0.161616 8:0.353535 9:0.040404 10:0.787879 11:0.36 12:0.99 13:1 14:1 
0 0 0 0 0 0 0 1.5694196670498739 0.386454348572767 1:0.676768 2:0.929293 3:0.232323 4:0.818182 5:0.272727 6:0.383838 7:0.444444 8:0.020202 9:0.0707071 10:0.656566 11:0.48 12:0.99 13:1 14:1 
0 0 0 0.42556662023008907 0 0 0 0 0 1:0.40404 2:0.969697 3:0.111111 4:0.575758 5:0.646465 6:0.575758 7:0.616162 8:0.131313 9:0.030303 10:0.535354 11:0.24 12:0.97 13:1 14:1 
0.31553643661453651 0.4091659457306957 0.27831401402031936 0.42556662023008907 0.42678237441630845 0.34862216561378379 0.29125356473654868 0 0.386454348572767 1:1 2:0.979798 3:0.565657 4:1 5:0.222222 6:0.828283 7:0.111111 8:0.464646 9:0.424242 10:0.444444 11:0.77 12:0.24 13:0.45 14:0.01 
0.31553643661453651 0.4091659457306957 0.27831401402031936 0.42556662023008907 0 0 0 1.5694196670498739 0.386454348572767 1:0.929293 2:0.10101 3:0.565657 4:0.686869 5:0.373737 6:0.414141 7:0.030303 8:0.131313 9:0.040404 10:0.606061 11:0.35 12:0.94 13:1 14:1 
0 0.4091659457306957 0 0.42556662023008907 0 0 0 0 0.386454348572767 1:0.252525 2:0.989899 3:0.545455 4:0.606061 5:0.474747 6:0.757576 7:0.131313 8:0.0606061 9:0.030303 10:0.434343 11:0.27 12:0.87 13:1 14:1 
0 0 0 0 0 0 0 1.5694196670498739 0.386454348572767 1:0.686869 2:0.979798 3:0.181818 4:0.747475 5:0.505051 6:0.454545 7:0.242424 8:0.0808081 9:0.10101 10:0.616162 11:0.38 12:1 13:1 14:0.98 
0.31553643661453651 0.4091659457306957 0.27831401402031936 0 0.42678237441630845 0.34862216561378379 0.29125356473654868 1.5694196670498739 0.386454348572767 1:0.787879 2:0.89899 3:0.606061 4:1 5:0.252525 6:0.727273 7:0.434343 8:0.59596 9:0.969697 10:0.494949 11:1 12:0.17 13:0.51 14:0.08 
0.31553643661453651 0.4091659457306957 0.27831401402031936 0.42556662023008907 0.42678237441630845 0 0.29125356473654868 0 0.386454348572767 1:0.555556 2:0.919192 3:1 4:1 5:0.868687 6:0.989899 7:0.434343 8:0.868687 9:0.272727 10:0.535354 11:0.68 12:0.36 13:0.45 14:0.06 
0 0 0 0 0 0 0.29125356473654868 0 0 1:0.161616 2:0.989899 3:0.383838 4:0.717172 5:0.939394 6:0.414141 7:0.646465 8:0.151515 9:0.242424 10:0.737374 11:0.27 12:1 13:1 14:0.99 
0.31553643661453651 0.4091659457306957 0.27831401402031936 0.42556662023008907 0.11966712701698215 0 0.29125356473654868 0 0 1:0.151515 2:0.888889 3:0.757576 4:1 5:1 6:1 7:0.313131 8:0.89899 9:0.212121 10:0.616162 11:0.81 12:0.41 13:0.67 14:0.03 
0 0 0 0 0.42678237441630845 0.34862216561378379 0.29125356473654868 0 0 1:0.262626 2:0.949495 3:0.171717 4:0.555556 5:0.373737 6:0.222222 7:0.030303 8:0.505051 9:0.20202 10:0.909091 11:0.6 12:1 13:1 14:0.99 
0.31553643661453651 0.28066702577588754 0 0.42556662023008907 0 0 0.29125356473654868 0 0.386454348572767 1:0.393939 2:0.989899 3:1 4:1 5:0.424242 6:0.989899 7:0.0505051 8:0.686869 9:0.414141 10:0.494949 11:0.89 12:0.26 13:0.6 14:0.01 
0.31553643661453651 0.4091659457306957 0.27831401402031936 0.42556662023008907 0 0 0.29125356473654868 0 0 1:0.171717 2:0.929293 3:0.939394 4:1 5:1 6:1 7:0.191919 8:0.939394 9:0.020202 10:0.636364 11:0.77 12:0.5 13:0.77 14:0.11 
0 0 0 0 0.42678237441630845 0.34862216561378379 0 1.5694196670498739 0.386454348572767 1:0.414141 2:0.909091 3:0.474747 4:0.515152 5:0.515152 6:0.141414 7:0.0707071 8:0.30303 9:0.10101 10:0.69697 11:0.53 12:0.9 13:1 14:1 
0.31553643661453651 0.4091659457306957 0.27831401402031936 0.42556662023008907 0 0.34862216561378379 0.29125356473654868 1.5694196670498739 0 1:0.010101 2:0.707071 3:0.313131 4:0.606061 5:1 6:0.434343 7:1 8:0.282828 9:0.040404 10:0.494949 11:0.23 12:0.89 13:0.98 14:1 
0 0 0 0 0.42678237441630845 0.34862216561378379 0 0 0 1:0.282828 2:1 3:0.181818 4:0.646465 5:0.535354 6:0.282828 7:0.20202 8:0.30303 9:0.111111 10:0.838384 11:0.54 12:0.95 13:1 14:0.85 
0 0 0.10225996442051387 0.42556662023008907 0.42678237441630845 0.34862216561378379 0 0 0.386454348572767 1:0.232323 2:0.858586 3:0.020202 4:0.616162 5:0.484848 6:0.313131 7:0.414141 8:0.181818 9:0.0808081 10:0.606061 11:0.37 12:0.94 13:1 14:1 
0.31553643661453651 0.4091659457306957 0.27831401402031936 0.42556662023008907 0 0 0.29125356473654868 0 0 1:0.535354 2:0.848485 3:1 4:1 5:0.989899 6:0.979798 7:0.484848 8:0.858586 9:0.222222 10:0.59596 11:0.63 12:0.34 13:0.5 14:0.01 
0.31553643661453651 0.4091659457306957 0.27831401402031936 0.42556662023008907 0 0.34862216561378379 0.29125356473654868 0 0.386454348572767 1:1 2:0.939394 3:0.656566 4:1 5:0.232323 6:0.858586 7:0.181818 8:0.505051 9:0.646465 10:0.393939 11:0.9 12:0.14 13:0.48 14:0.03 
0 0 0 0 0.42678237441630845 0.34862216561378379 0 0 0.386454348572767 1:0.0505051 2:0.89899 3:0.515152 4:0.373737 5:0.282828 6:0.0707071 7:0.010101 8:0.333333 9:0.121212 10:0.777778 11:0.52 12:0.96 13:1 14:1 
0 0.4091659457306957 0 0.42556662023008907 0 0 0 0 0.386454348572767 1:0.30303 2:1 3:0.575758 4:0.737374 5:0.444444 6:0.565657 7:0.010101 8:0.0909091 9:0.0505051 10:0.454545 11:0.17 12:0.9 13:1 14:0.97 
0.31553643661453651 0.4091659457306957 0.27831401402031936 0 0 0.34862216561378379 0.29125356473654868 1.5694196670498739 0 1:0.515152 2:0.868687 3:1 4:1 5:0.919192 6:0.949495 7:0.434343 8:0.767677 9:0.707071 10:0.505051 11:0.94 12:0.22 13:0.47 14:0.05 
0.31553643661453651 0.4091659457306957 0.27831401402031936 0.42556662023008907 0.42678237441630845 0.34862216561378379 0.29125356473654868 1.5694196670498739 0.386454348572767 1:1 2:0.858586 3:0.626263 4:1 5:0.191919 6:0.777778 7:0.212121 8:0.424242 9:0.757576 10:0.464646 11:0.9 12:0.13 13:0.36 14:0.24 
0 0 0 0 0 0 0 0.9967257334428965 0 1:0.383838 2:0.989899 3:0.646465 4:0.737374 5:0.515152 6:0.737374 7:0.0808081 8:0.20202 9:0.222222 10:0.494949 11:0.24 12:0.99 13:1 14:1 
0.31553643661453651 0 0.27831401402031936 0 0 0.34862216561378379 0.29125356473654868 0 0 1:0.0505051 2:0.878788 3:0.282828 4:0.505051 5:0.818182 6:0.393939 7:0.555556 8:0.141414 9:0.181818 10:0.666667 11:0.4 12:0.95 13:1 14:1 
0 0 0 0 0.42678237441630845 0 0 0 0.386454348572767 1:0.363636 2:0.979798 3:0.010101 4:0.636364 5:0.474747 6:0.373737 7:0.161616 8:0.252525 9:0.010101 10:0.717172 11:0.38 12:0.99 13:1 14:1 
0 0 0 0 0 0.34862216561378379 0 0 0 1:0.272727 2:0.858586 3:0.0707071 4:0.59596 5:0.535354 6:0.444444 7:0.272727 8:0.0505051 9:0.191919 10:0.69697 11:0.4 12:0.98 13:1 14:1 
0.31553643661453651 0.4091659457306957 0.27831401402031936 0.42556662023008907 0.42678237441630845 0 0.29125356473654868 1.5694196670498739 0.386454348572767 1:0.69697 2:0.909091 3:1 4:1 5:0.606061 6:0.858586 7:0.343434 8:0.59596 9:0.59596 10:0.494949 11:0.64 12:0.21 13:0.34 14:0.15 
0.31553643661453651 0 0.27831401402031936 0 0.42678237441630845 0.34862216561378379 0.29125356473654868 0 0 1:0.343434 2:0.959596 3:0.868687 4:1 5:0.737374 6:0.989899 7:0.272727 8:0.767677 9:0.59596 10:0.555556 11:1 12:0.35 13:0.53 14:0.09 
0.15276509262878035 0 0 0.42556662023008907 0.42678237441630845 0.34862216561378379 0.29125356473654868 1.5694196670498739 0.386454348572767 1:1 2:0.838384 3:0.555556 4:0.959596 5:0.010101 6:1 7:0.020202 8:0.575758 9:0.363636 10:0.515152 11:0.78 12:0.31 13:0.46 14:0.1 
0.31553643661453651 0.4091659457306957 0.27831401402031936 0.42556662023008907 0 0 0.29125356473654868 1.5694196670498739 0.386454348572767 1:0.535354 2:0.868687 3:1 4:1 5:0.717172 6:0.959596 7:0.30303 8:0.757576 9:0.292929 10:0.444444 11:0.79 12:0.42 13:0.47 14:0.14 
0.31553643661453651 0.4091659457306957 0.27831401402031936 0.42556662023008907 0.42678237441630845 0.34862216561378379 0.29125356473654868 1.5694196670498739 0.386454348572767 1:0.929293 2:0.929293 3:0.434343 4:1 5:0.252525 6:0.727273 7:0.525253 8:0.505051 9:1 10:0.454545 11:0.86 12:0.12 13:0.38 14:0.13 
0.31553643661453651 0.4091659457306957 0.27831401402031936 0.42556662023008907 0.42678237441630845 0.34862216561378379 0.29125356473654868 1.5694196670498739 0 1:0.20202 2:0.818182 3:0.353535 4:0.59596 5:0.818182 6:0.313131 7:0.818182 8:0.363636 9:0.272727 10:0.575758 11:0.34 12:0.89 13:1 14:1 
0.31553643661453651 0.4091659457306957 0.27831401402031936 0.42556662023008907 0.42678237441630845 0 0.29125356473654868 1.5694196670498739 0.386454348572767 1:0.272727 2:0.878788 3:0.747475 4:1 5:1 6:0.989899 7:0.505051 8:0.868687 9:0.0707071 10:0.69697 11:0.32 12:0.45 13:0.47 14:0.12 
0 0.4091659457306957 0 0.42556662023008907 0.42678237441630845 0.34862216561378379 0 1.5694196670498739 0.386454348572767 1:0.282828 2:0.69697 3:0.555556 4:0.353535 5:0.424242 6:0.010101 7:0.020202 8:0.414141 9:0.121212 10:0.757576 11:0.56 12:0.9 13:1 14:1 
0.31553643661453651 0 0 0 0.42678237441630845 0.34862216561378379 0.29125356473654868 0 0.386454348572767 1:1 2:1 3:0.474747 4:1 5:0.0808081 6:0.747475 7:0.0707071 8:0.515152 9:0.606061 10:0.555556 11:0.85 12:0.25 13:0.49 14:0.05 
0.31553643661453651 0.4091659457306957 0.27831401402031936 0 0.42678237441630845 0 0.29125356473654868 0 0.386454348572767 1:0.59596 2:0.919192 3:1 4:1 5:0.636364 6:0.979798 7:0.313131 8:0.717172 9:0.656566 10:0.59596 11:0.76 12:0.29 13:0.4 14:0.07 
0 0.4091659457306957 0.27831401402031936 0.42556662023008907 0 0 0 1.5694196670498739 0 1:0.333333 2:0.959596 3:0.424242 4:0.626263 5:0.888889 6:0.363636 7:0.646465 8:0.131313 9:0.111111 10:0.535354 11:0.26 12:0.93 13:1 14:1 
0 0.4091659457306957 0.27831401402031936 0.42556662023008907 0 0 0 0 0.386454348572767 1:0.0707071 2:0.727273 3:0.606061 4:0.626263 5:0.343434 6:0.737374 7:0.0505051 8:0.0505051 9:0.0606061 10:0.505051 11:0.25 12:0.91 13:1 14:1 
0 0 0 0 0.42678237441630845 0.34862216561378379 0 0 0.386454348572767 1:0.292929 2:0.979798 3:0.151515 4:0.59596 5:0.525253 6:0.272727 7:0.454545 8:0.121212 9:0.282828 10:0.676768 11:0.27 12:0.95 13:1 14:1 
0 0 0 0.42556662023008907 0 0 0 0 0 1:0.323232 2:0.909091 3:0.0606061 4:0.707071 5:0.565657 6:0.444444 7:0.515152 8:0.0505051 9:0.0707071 10:0.575758 11:0.28 12:1 13:1 14:0.97 
0.31553643661453651 0.4091659457306957 0.27831401402031936 0.42556662023008907 0 0 0 1.5694196670498739 0 1:0.222222 2:0.69697 3:0.434343 4:0.59596 5:0.89899 6:0.353535 7:0.575758 8:0.121212 9:0.0808081 10:0.555556 11:0.27 12:0.94 13:1 14:1 
0 0 0 0 0 0.17372703187998495 0.29125356473654868 1.5694196670498739 0 1:0.464646 2:0.909091 3:0.363636 4:0.626263 5:0.646465 6:0.262626 7:0.20202 8:0.0808081 9:0.393939 10:0.909091 11:0.49 12:1 13:1 14:0.91 
0 0 0 0.42556662023008907 0 0 0 0 0 1:0.262626 2:0.949495 3:0.131313 4:0.585859 5:0.69697 6:0.424242 7:0.585859 8:0.0909091 9:0.0505051 10:0.555556 11:0.3 12:0.96 13:1 14:1 
0.31553643661453651 0.4091659457306957 0.27831401402031936 0 0 0 0.29125356473654868 0 0.386454348572767 1:1 2:0.939394 3:0.89899 4:1 5:0.444444 6:0.888889 7:0.232323 8:0.585859 9:0.656566 10:0.464646 11:0.85 12:0.2 13:0.47 14:0.03 
0.31553643661453651 0.4091659457306957 0.27831401402031936 0.42556662023008907 0 0 0 1.5694196670498739 0.386454348572767 1:0.868687 2:0.0808081 3:0.464646 4:0.79798 5:0.535354 6:0.79798 7:0.0606061 8:0.232323 9:0.010101 10:0.494949 11:0.25 12:0.91 13:1 14:1 
0.31553643661453651 0 0.27831401402031936 0.42556662023008907 0.42678237441630845 0.34862216561378379 0.29125356473654868 0 0.386454348572767 1:0.363636 2:0.828283 3:0.767677 4:1 5:0.131313 6:0.949495 7:0.010101 8:0.676768 9:0.515152 10:0.454545 11:1 12:0.23 13:0.58 
0 0 0 0 0 0 0 1.5694196670498739 0 1:0.383838 2:0.858586 3:0.0505051 4:0.888889 5:0.383838 6:0.464646 7:0.525253 8:0.0505051 9:0.0909091 10:0.585859 11:0.42 12:0.96 13:1 14:1 
0.31553643661453651 0.4091659457306957 0.27831401402031936 0.42556662023008907 0.42678237441630845 0.34862216561378379 0.29125356473654868 0 0.386454348572767 1:1 2:0.979798 3:0.656566 4:1 5:0.292929 6:0.89899 7:0.161616 8:0.59596 9:0.474747 10:0.474747 11:0.64 12:0.17 13:0.34 14:0.06 
0 0 0.27831401402031936 0.42556662023008907 0.14560144021273266 0 0 0 0 1:0.111111 2:0.959596 3:0.020202 4:0.656566 5:0.757576 6:0.393939 7:0.636364 8:0.151515 9:0.161616 10:0.59596 11:0.07 12:0.98 13:1 14:1 
0 0 0 0.42556662023008907 0 0.34862216561378379 0 1.5694196670498739 0.386454348572767 1:0.393939 2:0.848485 4:0.59596 5:0.424242 6:0.454545 7:0.252525 8:0.010101 9:0.0808081 10:0.525253 11:0.42 12:0.89 13:1 14:1 
0 0 0 0 0.42678237441630845 0 0 0 0.386454348572767 1:0.212121 2:0.888889 3:0.575758 4:0.434343 5:0.313131 6:0.262626 8:0.323232 9:0.040404 10:0.838384 11:0.48 12:1 13:1 14:0.91 
0 0 0 0.42556662023008907 0.42678237441630845 0.34862216561378379 0 1.5694196670498739 0.386454348572767 1:0.363636 2:0.777778 3:0.141414 4:0.575758 5:0.484848 6:0.242424 7:0.171717 8:0.292929 10:0.717172 11:0.49 12:0.89 13:1 14:1 
0.31553643661453651 0.4091659457306957 0.27831401402031936 0.42556662023008907 0 0 0.29125356473654868 1.5694196670498739 0 1:0.434343 2:0.888889 3:1 4:1 5:0.909091 6:0.929293 7:0.343434 8:0.787879 9:0.323232 10:0.545455 11:0.73 12:0.29 13:0.54 14:0.11 
0 0 0 0 0.42678237441630845 0.34862216561378379 0 1.5694196670498739 0.386454348572767 1:0.464646 2:0.959596 3:0.343434 4:0.616162 5:0.434343 6:0.171717 7:0.040404 8:0.282828 9:0.171717 10:0.707071 11:0.56 12:0.91 13:1 14:1 
0.31553643661453651 0.4091659457306957 0.27831401402031936 0 0 0 0.29125356473654868 0 0.386454348572767 1:0.535354 2:0.878788 3:1 4:1 5:0.848485 6:0.939394 7:0.373737 8:0.79798 9:0.585859 10:0.585859 11:0.83 12:0.29 13:0.47 14:0.01 
0 0 0 0.42556662023008907 0 0.34862216561378379 0 0 0 1:0.232323 2:0.909091 3:0.131313 4:0.575758 5:0.676768 6:0.414141 7:0.585859 8:0.131313 9:0.10101 10:0.585859 11:0.32 12:0.98 13:1 14:1 
0 0.4091659457306957 0 0.42556662023008907 0 0 0 1.5694196670498739 0.386454348572767 1:0.252525 2:0.909091 3:0.585859 4:0.323232 5:0.434343 6:0.525253 7:0.0909091 8:0.141414 9:0.212121 10:0.505051 11:0.39 12:0.95 13:1 14:1 
0.31553643661453651 0.4091659457306957 0.27831401402031936 0.42556662023008907 0 0 0.29125356473654868 0 0.386454348572767 1:0.89899 2:0.848485 3:1 4:1 5:0.636364 6:0.969697 7:0.585859 8:0.676768 9:0.79798 10:0.373737 11:0.72 12:0.08 13:0.36 14:0.01 
0 0 0 0 0.42678237441630845 0.34862216561378379 0 0 0.386454348572767 1:0.292929 2:0.818182 3:0.0707071 4:0.686869 5:0.353535 6:0.292929 7:0.010101 8:0.353535 9:0.131313 10:0.838384 11:0.54 12:1 13:1 14:0.97 
0 0.4091659457306957 0.27831401402031936 0.42556662023008907 0 0 0 0.75475742319707506 0 1:0.323232 2:0.828283 3:0.030303 4:0.646465 5:0.727273 6:0.515152 7:0.606061 8:0.0606061 9:0.0505051 10:0.505051 11:0.26 12:0.95 13:1 14:1 
0.31553643661453651 0.4091659457306957 0.27831401402031936 0.42556662023008907 0.42678237441630845 0 0.29125356473654868 1.5694196670498739 0 1:0.373737 2:0.767677 3:0.858586 4:0.969697 5:1 6:1 7:0.40404 8:0.919192 9:0.222222 10:0.555556 11:0.8 12:0.44 13:0.56 14:0.12 
0 0 0 0 0.42678237441630845 0 0 0 0 1:0.424242 2:0.929293 3:0.212121 4:0.707071 5:0.424242 6:0.323232 7:0.0808081 8:0.353535 9:0.0808081 10:0.808081 11:0.51 12:1 13:1 14:0.99 
0.31553643661453651 0.4091659457306957 0.27831401402031936 0.42556662023008907 0.42678237441630845 0.34862216561378379 0.29125356473654868 1.5694196670498739 0 1:0.40404 2:0.818182 3:0.767677 4:0.979798 5:1 6:1 7:0.585859 8:0.89899 9:0.272727 10:0.686869 11:0.54 12:0.42 13:0.39 14:0.13 
0 0 0 0.14908769442611336 0.42678237441630845 0.34862216561378379 0 0 0 1:0.010101 2:0.79798 3:0.353535 4:0.494949 5:0.535354 6:0.111111 7:0.0808081 8:0.40404 9:0.040404 10:0.777778 11:0.49 12:0.95 13:1 14:1 
