svm_type c_svc
kernel_type sigmoid
gamma 0.125
coef0 0
nr_class 2
total_sv 147
rho 1.7259927034429046
label 0 1
probA -4.3114337953789592
probB -3.359822732332189
nr_sv 73 74
SV
1 2:0.913706 3:0.578947 4:0.65 6:0.803059 7:1 8:0.0816327 
1 2:0.482234 3:0.745614 4:0.416667 5:0.0425532 6:0.715105 7:0.0931129 8:0.0612245 
1 1:0.411765 2:0.57868 3:0.578947 6:0.627151 7:0.0991736 8:0.428571 
1 1:0.294118 2:0.84264 3:0.631579 4:0.316667 5:0.206856 6:0.493308 7:0.280441 8:0.612245 
1 1:0.470588 2:0.609137 6:0.573614 7:0.0578512 8:0.346939 
1 1:0.0588235 2:0.583756 3:0.614035 4:0.5 5:0.113475 6:0.661568 7:0.248485 8:0.22449 
1 1:0.529412 2:0.568528 3:0.719298 4:0.533333 5:0.206856 6:0.65392 7:0.100275 8:0.306122 
1 1:0.470588 2:0.553299 3:0.666667 4:0.65 5:0.134752 6:0.533461 7:0.309642 8:0.204082 
1 1:0.117647 2:0.80203 3:0.789474 6:0.604207 7:0.400551 8:0.918367 
1 1:0.0588235 2:0.593909 3:0.77193 4:0.4 5:0.171395 6:0.659656 7:0.179063 8:0.387755 
1 1:0.176471 2:0.705584 3:0.473684 6:0.489484 7:0.178512 8:0.0204082 
1 1:0.294118 2:0.588832 3:0.649123 4:0.483333 6:0.617591 7:0.320661 8:0.285714 
1 1:0.411765 2:0.746193 3:0.666667 6:0.753346 7:0.0986226 8:0.44898 
1 1:0.529412 2:0.791878 3:0.754386 6:0.474187 7:0.0837466 8:0.653061 
1 1:0.705882 2:0.71066 3:0.719298 4:0.716667 5:0.384161 6:0.749522 7:0.247934 8:0.755102 
1 2:0.898477 3:0.526316 4:0.483333 5:0.565012 6:0.661568 7:0.547658 
1 1:0.176471 2:0.878173 3:0.684211 4:0.65 5:0.218676 6:0.646272 7:0.49146 8:0.204082 
1 2:0.908629 3:0.789474 4:0.45 6:0.843212 7:0.334986 8:0.0408163 
1 1:0.235294 2:0.736041 3:0.719298 4:0.3 6:0.621415 7:0.0865014 8:1 
1 1:0.352941 2:0.751269 3:0.631579 4:0.583333 6:0.642447 7:0.302479 8:0.591837 
1 1:0.470588 2:0.629442 3:0.666667 4:0.4 5:0.70922 6:0.548757 7:0.335537 8:0.632653 
1 1:0.588235 2:0.51269 3:0.754386 4:0.616667 6:0.871893 7:0.58292 8:0.346939 
1 1:0.470588 2:1 3:0.649123 6:0.49522 7:0.613223 8:0.367347 
1 1:0.0588235 2:0.634518 3:0.438596 4:0.666667 5:0.1974 6:0.636711 7:0.487052 8:0.142857 
1 1:0.352941 2:0.629442 3:0.631579 6:0.527725 7:0.15978 8:0.163265 
1 2:0.629442 3:0.614035 4:0.333333 6:0.523901 7:0.0969697 8:0.306122 
1 1:0.411765 2:0.538071 3:0.526316 4:0.4 6:0.506692 7:0.12011 8:0.163265 
1 1:0.352941 2:0.680203 3:0.614035 4:0.383333 5:0.153664 6:0.676864 7:0.255647 8:0.163265 
1 1:0.235294 2:0.720812 3:0.754386 6:0.8413 7:0.312397 8:0.0204082 
1 1:0.764706 2:0.654822 4:0.5 6:0.762906 7:0.270523 8:0.469388 
1 1:0.588235 2:0.456853 3:0.745614 4:0.533333 6:0.667304 7:0.41157 8:0.714286 
1 1:0.176471 2:0.857868 3:0.649123 4:0.316667 5:0.147754 6:0.571702 7:0.104683 8:0.204082 
1 1:0.294118 2:0.659898 3:0.719298 6:0.74761 7:0.483747 8:0.326531 
1 1:0.352941 2:0.964467 3:0.807018 6:0.678776 7:0.110193 8:0.918367 
1 1:0.411765 2:0.994924 3:0.789474 6:0.760994 7:0.20551 8:0.408163 
1 1:0.235294 2:0.563452 3:0.631579 4:0.783333 5:0.244681 6:0.709369 7:0.722865 8:0.714286 
1 1:0.176471 2:0.406091 3:0.719298 4:0.516667 5:0.0827423 6:0.65392 7:0.668871 8:0.122449 
1 1:0.235294 2:0.878173 3:0.614035 4:0.233333 5:0.198582 6:0.567878 7:0.155923 8:0.244898 
1 1:0.588235 2:0.817259 3:0.596491 4:0.383333 5:0.156028 6:0.487572 7:0.136639 8:0.530612 
1 1:0.294118 2:0.629442 3:0.649123 6:0.650096 7:0.0782369 8:0.346939 
1 1:0.176471 2:0.568528 3:0.649123 4:0.5 6:0.604207 7:0.0655647 8:0.0816327 
1 1:0.117647 2:0.786802 3:0.45614 4:0.45 5:0.638298 6:0.739962 7:0.0892562 8:0.0816327 
1 1:0.176471 2:0.80203 3:0.614035 4:0.5 5:0.387707 6:0.678776 7:0.146556 8:0.285714 
1 1:0.0588235 2:0.649746 3:0.421053 4:0.75 5:0.229314 6:0.774379 7:0.294766 8:0.0612245 
1 1:0.0588235 2:0.573604 3:0.561404 4:0.583333 6:0.642447 7:0.256198 
1 1:0.411765 2:0.903553 3:0.736842 6:0.762906 7:0.139394 8:0.408163 
1 1:0.0588235 2:0.959391 3:0.526316 4:0.383333 5:1 6:0.575526 7:0.176309 8:0.77551 
1 1:0.117647 2:0.456853 3:0.596491 4:0.7 6:0.730402 7:0.23416 8:0.122449 
1 1:0.470588 2:0.786802 3:0.54386 4:0.433333 5:0.585106 6:0.650096 7:0.256198 8:0.510204 
1 1:0.117647 2:0.548223 3:0.701754 6:0.516252 7:0.0997245 8:0.632653 
1 1:0.647059 2:0.609137 3:0.701754 4:0.616667 5:0.177305 6:0.808795 7:0.389532 8:0.55102 
1 1:0.470588 2:0.954315 3:0.684211 6:0.91587 7:0.0325069 8:0.44898 
1 1:0.0588235 2:0.878173 3:0.649123 6:0.703633 7:0.00550964 8:0.346939 
1 1:0.235294 2:0.751269 3:0.526316 4:0.45 5:0.375887 6:0.590822 7:0.0396694 8:0.163265 
1 1:0.235294 2:0.93401 3:0.684211 4:0.65 5:0.327423 6:0.707457 7:0.102479 8:0.204082 
1 2:0.715736 6:0.810708 7:0.0699725 8:0.163265 
1 1:0.0588235 2:0.619289 3:0.789474 4:0.85 5:0.260047 6:0.950287 7:0.136088 8:0.204082 
1 1:0.352941 3:0.596491 4:0.683333 6:0.745698 7:0.357576 8:0.408163 
1 1:0.176471 2:0.86802 3:0.631579 4:0.55 5:0.159574 6:0.636711 7:0.0666667 8:0.0612245 
1 1:0.647059 2:0.690355 3:0.736842 4:0.583333 5:0.153664 6:0.541109 7:0.100275 8:0.428571 
1 1:0.529412 2:0.619289 3:0.491228 6:0.636711 7:0.570799 8:0.244898 
1 1:0.0588235 2:0.639594 3:0.526316 6:0.575526 7:0.149311 8:0.530612 
1 1:0.764706 2:0.527919 3:0.631579 6:0.596558 7:0.213223 8:0.346939 
1 1:0.411765 2:0.949239 3:0.596491 4:0.65 5:0.359338 6:0.720841 7:0.0969697 8:0.408163 
1 1:0.294118 2:0.431472 3:0.649123 4:0.366667 6:0.554493 7:0.631405 8:0.22449 
1 1:0.117647 2:0.680203 3:0.614035 6:0.552581 7:0.255647 8:0.0408163 
1 1:0.235294 2:0.624365 3:0.54386 6:0.611855 7:0.0815427 8:0.285714 
1 1:0.176471 2:0.979695 3:0.614035 4:0.516667 6:0.667304 7:0.0898072 8:0.0816327 
1 1:0.411765 2:0.492386 3:0.666667 4:0.533333 5:0.107565 6:0.782027 7:0.436915 8:0.22449 
1 1:0.588235 2:0.583756 7:0.100826 8:0.183673 
1 1:0.823529 2:0.507614 3:0.684211 4:0.416667 5:0.217494 6:0.699809 7:0.184022 8:0.510204 
1 1:0.470588 2:0.609137 3:0.754386 6:0.543021 7:0.0997245 8:0.0204082 
1 1:0.294118 2:0.568528 3:0.578947 6:0.722753 7:0.100826 8:0.408163 
-1 1:0.705882 2:0.446701 3:0.649123 4:0.666667 5:0.0638298 6:0.674952 7:0.165289 8:0.55102 
-1 1:0.117647 2:0.538071 3:0.561404 4:0.583333 5:0.140662 6:0.583174 7:0.728375 8:0.265306 
-1 1:0.0588235 2:0.832487 3:0.719298 4:0.716667 5:0.0791962 6:0.627151 7:0.144904 8:0.591837 
-1 1:0.176471 2:0.456853 3:0.684211 6:0.816444 7:0.265014 
-1 1:0.411765 2:0.42132 3:0.684211 4:0.433333 5:0.0839243 6:0.560229 7:0.379614 8:0.306122 
-1 2:0.593909 3:0.701754 4:0.516667 5:0.0626478 6:0.864245 7:0.00606061 8:0.0612245 
-1 1:0.117647 2:0.705584 3:0.657895 6:0.489484 7:0.0490358 8:0.163265 
-1 1:0.647059 2:0.700508 3:0.666667 6:0.634799 7:0.18843 8:0.285714 
-1 1:0.411765 2:0.634518 3:0.754386 6:0.718929 7:0.124518 8:0.612245 
-1 2:0.507614 3:0.77193 4:1 5:0.130024 6:0.894837 7:0.487052 8:0.204082 
-1 1:0.294118 2:0.80203 3:0.614035 6:0.56979 7:0.0710744 8:0.857143 
-1 2:0.593909 6:0.646272 7:0.470523 8:0.469388 
-1 1:0.470588 2:0.329949 3:0.631579 4:0.383333 6:0.611855 7:0.287603 8:0.428571 
-1 1:0.588235 2:0.619289 3:0.596491 6:0.596558 7:0.0991736 8:0.408163 
-0.25421665423913109 1:0.235294 2:0.57868 3:0.561404 6:0.552581 7:0.0264463 8:0.0612245 
-1 1:0.294118 2:0.48731 3:0.649123 4:0.3 5:0.0791962 6:0.642447 7:0.506336 8:0.44898 
-1 1:0.117647 2:0.624365 3:0.421053 4:0.533333 5:0.195035 6:0.804971 7:0.243526 8:0.102041 
-1 1:0.352941 2:0.502538 3:0.526316 4:0.316667 5:0.0638298 6:0.51434 7:0.230854 8:0.22449 
-1 1:0.588235 2:0.583756 6:0.674952 7:0.030854 8:0.163265 
-1 1:0.176471 2:0.563452 3:0.508772 4:0.516667 5:0.0520095 6:0.564054 7:0.193939 8:0.0204082 
-1 1:0.117647 2:0.558376 3:0.649123 4:0.483333 5:0.147754 6:0.619503 7:0.341598 8:0.122449 
-1 1:0.588235 2:0.822335 3:0.736842 6:0.529637 7:0.0573003 8:0.673469 
-1 1:0.0588235 2:0.659898 3:0.526316 4:0.383333 5:0.200946 6:0.546845 7:0.338292 
-1 1:0.117647 2:0.609137 3:0.473684 6:0.512428 7:0.207713 8:0.122449 
-1 1:0.117647 2:0.619289 3:0.526316 4:0.3 5:0.125296 6:0.56979 7:0.352066 8:0.0204082 
-1 1:0.470588 2:0.461929 3:0.719298 6:0.680688 7:0.280441 8:0.959184 
-1 1:0.411765 2:0.477157 3:0.561404 4:0.416667 5:0.0933806 6:0.636711 7:0.363636 8:0.408163 
-1 1:0.235294 2:0.730964 3:0.508772 4:0.466667 5:0.165485 6:0.564054 7:0.115152 8:0.326531 
-1 1:0.0588235 2:0.725888 3:0.754386 4:0.5 5:0.390071 6:0.575526 7:0.448485 8:0.0408163 
-1 2:0.837563 3:0.666667 4:0.716667 5:0.301418 6:0.91587 7:0.0997245 8:0.102041 
-1 1:0.117647 2:0.64467 3:0.508772 4:0.4 5:0.325059 6:0.529637 7:0.838567 8:0.0816327 
-1 1:0.352941 2:0.634518 3:0.596491 4:0.5 5:0.141844 6:0.573614 7:0.212672 8:0.22449 
-1 1:0.117647 2:0.507614 3:0.614035 4:0.866667 5:0.0673759 6:0.774379 7:0.330028 8:0.0816327 
-1 2:0.593909 3:0.578947 4:0.516667 5:0.222222 6:0.58891 7:0.22865 8:0.0204082 
-1 1:0.235294 2:0.781726 3:0.54386 4:0.516667 5:0.335697 6:0.627151 7:0.0876033 8:0.0408163 
-1 1:0.470588 2:0.507614 3:0.666667 6:0.739962 7:0.061708 8:0.428571 
-0.81080954923552373 1:0.470588 2:0.431472 3:0.482456 4:0.333333 6:0.466539 7:0.0319559 8:0.428571 
-1 1:0.176471 2:0.538071 3:0.473684 4:0.35 5:0.186761 6:0.590822 7:0.117906 8:0.0612245 
-1 1:0.294118 2:0.614213 3:0.631579 4:0.383333 5:0.132388 6:0.500956 7:0.092011 8:0.183673 
-1 1:0.352941 2:0.532995 3:0.614035 4:0.533333 5:0.0803783 6:0.58891 7:0.0242424 8:0.326531 
-1 1:0.529412 2:0.624365 3:0.614035 4:0.733333 5:0.111111 6:0.632887 7:0.163085 8:0.387755 
-1 1:0.705882 2:0.507614 3:0.736842 4:0.55 5:0.124113 6:0.573614 7:0.225895 8:0.510204 
-1 1:0.176471 2:0.573604 3:0.438596 4:0.166667 5:0.100473 6:0.564054 7:0.301928 8:0.0816327 
-1 1:0.235294 2:0.558376 3:0.578947 6:0.609943 7:0.216529 8:0.163265 
-1 1:0.0588235 2:0.796954 3:0.631579 4:0.35 5:0.198582 6:0.489484 7:0.0247934 8:0.0612245 
-1 1:0.117647 2:0.614213 3:0.614035 4:0.533333 5:0.112293 6:0.74761 7:0.445179 8:0.0408163 
-1 2:0.538071 3:0.614035 4:0.616667 5:0.174941 6:0.753346 7:0.290358 8:0.0204082 
-1 1:0.235294 2:0.522843 3:0.526316 4:0.55 5:0.22695 6:0.458891 7:0.489256 8:0.244898 
-1 1:0.352941 2:0.84264 3:0.649123 6:0.508604 7:0.124518 8:0.918367 
-1 1:0.294118 2:0.649746 3:0.701754 6:0.661568 7:0.0363636 8:0.489796 
-1 1:0.235294 2:0.670051 3:0.754386 4:0.516667 6:0.535373 7:0.187879 8:0.857143 
-1 1:0.470588 2:0.609137 3:0.684211 6:0.478011 7:0.182369 8:0.877551 
-1 1:0.352941 2:0.624365 3:0.631579 4:0.75 5:0.271868 6:0.642447 7:0.360882 8:0.265306 
-1 1:0.588235 2:0.654822 3:0.666667 4:0.466667 5:0.144208 6:0.686425 7:0.111295 8:0.367347 
-1 2:0.680203 3:0.508772 4:0.333333 5:0.343972 6:0.50478 7:0.150964 
-1 2:0.695431 3:0.736842 4:0.45 6:0.521989 7:0.0842975 8:0.77551 
-1 2:0.57868 3:0.701754 4:0.566667 5:0.336879 6:0.845124 7:0.0490358 8:0.122449 
-1 1:0.588235 2:0.908629 3:0.614035 6:0.671128 7:0.0672176 8:0.326531 
-1 1:0.235294 2:0.64467 3:0.77193 4:0.183333 5:0.183215 6:0.659656 7:0.286501 8:0.142857 
-1 1:0.588235 2:0.380711 3:0.719298 6:0.636711 7:0.101928 8:0.346939 
-1 2:0.817259 3:0.438596 6:0.418738 7:0.0969697 8:0.897959 
-1 1:0.176471 2:0.507614 3:0.596491 4:0.383333 5:0.0957447 6:0.604207 7:0.47989 8:0.142857 
-1 1:0.235294 2:0.695431 3:0.736842 6:0.596558 7:0.0958678 8:0.183673 
-1 1:0.588235 2:0.675127 3:0.596491 6:0.516252 7:0.092011 8:0.306122 
-1 1:0.352941 2:0.522843 3:0.631579 4:0.533333 5:0.224586 6:0.720841 7:0.135537 8:0.693878 
-1 1:0.294118 2:0.548223 3:0.631579 4:0.716667 5:0.0886525 6:0.690249 7:0.101928 8:0.244898 
-1 1:0.352941 2:0.548223 3:0.385965 4:0.333333 5:0.153664 6:0.458891 7:0.404959 8:0.285714 
-1 1:0.294118 2:0.57868 3:0.649123 6:0.476099 7:0.366942 8:0.734694 
-1 1:0.117647 2:0.548223 3:0.54386 4:0.166667 5:0.328605 6:0.483748 7:0.442424 8:0.0204082 
-1 1:0.294118 2:0.482234 3:0.631579 4:0.55 6:0.720841 7:0.160882 8:0.122449 
-1 1:0.235294 2:0.619289 3:0.596491 6:0.669216 7:0.174105 8:0.163265 
-0.93497379652534529 1:0.117647 2:0.502538 3:0.526316 4:0.283333 5:0.189125 6:0.699809 7:0.206612 
-1 1:0.411765 2:0.720812 3:0.526316 4:0.55 5:0.224586 6:0.550669 7:0.335537 8:0.816327 
-1 1:0.294118 2:0.639594 3:0.684211 4:0.45 5:0.0260047 6:0.565966 7:0.198898 8:0.387755 
